// -----------------------------------------------------------------------------
// 
// This file is auto generated by model_export.py
// -----------------------------------------------------------------------------
#ifndef MNIST_MODEL
#define MNIST_MODEL

// ....
#include <stdint.h>
#include "infercat.h"

// -----------------------------------------------------------------------------
//
// -----------------------------------------------------------------------------

// ...
float mnist_model_conv2d_output[3380];
  
// ...
static const float mnist_model_conv2d_weights[45] = {
   0.036748186,  0.322023302, -0.388997793,  0.260716677,  0.269190818, 
   0.247973904,  0.167371884, -0.300390065, -0.057171535,  0.083150804, 
   0.234282613, -0.056312457,  0.386681736, -0.435213298, -0.390891045, 
   0.271651089,  0.355199277,  0.022486970,  0.208524987,  0.166982502, 
   0.215402886,  0.108136833,  0.007371495, -0.054934066, -0.283923864, 
   0.276998788, -0.188341781, -0.028402034, -0.094478309,  0.256145418, 
   0.224942878,  0.378437042,  0.014667094,  0.203822896,  0.134014159, 
   0.384455621,  0.172994807,  0.009690917, -0.131088227, -0.150955752, 
   0.210998058, -0.074427962, -0.105986886, -0.190389231, -0.032665316
};

// ...
static const float mnist_model_conv2d_biases[5] = {
   0.015113361,  0.005567658,  0.050448414,  0.025170233, -0.004507998
};

// ...
const InfercatLayer_CONV2D mnist_model_conv2d_ = {
  .weight = mnist_model_conv2d_weights,
  .bias = mnist_model_conv2d_biases,
  .in_width = 28,
  .in_height = 28,
  .in_depth = 1,
  .out_width = 26,
  .out_height = 26,
  .out_depth = 5,
  .kernel_width = 3,
  .stride = 1,
  .output_buffer = mnist_model_conv2d_output,
  .activation = InfercatLayerActivation_RELU
};

// ...
const InfercatLayer mnist_model_conv2d = {
  .mem = (void*)(&mnist_model_conv2d_),
  .type = InfercatLayerType_CONV2D
};

// -----------------------------------------------------------------------------
//
// -----------------------------------------------------------------------------

// ...
float mnist_model_conv2d_1_output[2880];
  
// ...
static const float mnist_model_conv2d_1_weights[225] = {
   0.010808788, -0.110665806, -0.105502993,  0.133144379,  0.011683958, 
   0.197727352,  0.115689211, -0.307676733, -0.014287144, -0.298007756, 
   0.285107851, -0.017698376, -0.038074158,  0.110204570, -0.095964313, 
   0.278648317,  0.100326888,  0.012743922, -0.016328840,  0.080461711, 
   0.010322777,  0.220190123, -0.185230121,  0.180125907,  0.124843292, 
   0.162353784,  0.211709812,  0.189223409,  0.220662609, -0.107838295, 
  -0.063829958,  0.175700217, -0.014327510, -0.132604584, -0.126959383, 
  -0.068336904,  0.181190908, -0.088821389, -0.020800926,  0.089347169, 
   0.076177448,  0.201177746,  0.078777686,  0.061316278, -0.033412807, 
   0.192441940,  0.266836077, -0.124802984,  0.111263268,  0.078613579, 
  -0.331398964,  0.159925386,  0.181422189, -0.256221861,  0.155107290, 
  -0.348774731,  0.079161867,  0.231547415, -0.218752190, -0.037427180, 
   0.257425755,  0.235094726,  0.040238474, -0.042465378,  0.111782432, 
   0.167224422,  0.264050126,  0.204370141,  0.329942554, -0.315185487, 
  -0.190262035, -0.162447810,  0.199222416,  0.008494027, -0.238695800, 
   0.159294963,  0.159051970,  0.001757352,  0.184505671,  0.120691039, 
  -0.019542933, -0.153902099,  0.258133173, -0.107564390, -0.099785000, 
   0.175687373,  0.213390216,  0.108624160, -0.161238000,  0.159650818, 
   0.475462586, -0.258971810, -0.056456622, -0.044822671, -0.066132113, 
  -0.052864756,  0.030735089, -0.045176174, -0.095290117, -0.208244309, 
  -0.183798552,  0.265806377, -0.199166626, -0.169238240, -0.195692554, 
  -0.064158693,  0.286034822,  0.231207132,  0.279266983, -0.253888786, 
   0.209763557,  0.022214277, -0.030542033, -0.029218093,  0.272913098, 
   0.497035921, -0.055009961,  0.076928191,  0.349117011, -0.238894522, 
   0.169526815, -0.108199880, -0.091943964,  0.218573943, -0.161988720, 
  -0.091600582, -0.108109877,  0.073707536, -0.072462142,  0.225478098, 
   0.140672579,  0.162968099, -0.111673944, -0.086199284,  0.004584797, 
   0.252483577,  0.321796447, -0.164292186,  0.059005752,  0.173618466, 
   0.264458209, -0.073033646,  0.311083466, -0.105750643,  0.074139126, 
  -0.135989591, -0.000007943,  0.287097692,  0.096126914, -0.043193258, 
   0.080606572, -0.168825075,  0.098836131,  0.254630119,  0.067051254, 
   0.342196733, -0.111065045, -0.141467258,  0.159344569, -0.366727322, 
  -0.095984690,  0.358407587,  0.279940933,  0.242132887,  0.100686513, 
   0.235793248,  0.060501162,  0.190078124, -0.016335694, -0.039652858, 
   0.160563812,  0.088769056,  0.015966563, -0.107553750, -0.052124057, 
  -0.231898621,  0.246694326,  0.241419107,  0.237974152,  0.001026654, 
   0.240094841, -0.170839310, -0.074283905, -0.165107369, -0.242563039, 
   0.288703233,  0.190426096,  0.011747969,  0.222766101,  0.138404489, 
   0.109122947,  0.231309175,  0.284707606,  0.224178717,  0.144439951, 
   0.036933806, -0.091689229,  0.205012769,  0.173913524, -0.239732474, 
  -0.155038953,  0.126704261,  0.000139891, -0.216593117,  0.158361301, 
  -0.193249717,  0.268989682,  0.295328557,  0.155074999,  0.335550308, 
   0.052860308, -0.102782041,  0.227885470,  0.139636442,  0.075403281, 
   0.297570765,  0.153234214,  0.252087265,  0.112183712,  0.226655900, 
  -0.119249716, -0.042145066,  0.091013946,  0.166424066, -0.108986244
};

// ...
static const float mnist_model_conv2d_1_biases[5] = {
   0.064339407,  0.008412571, -0.005671694,  0.013147588,  0.074465670
};

// ...
const InfercatLayer_CONV2D mnist_model_conv2d_1_ = {
  .weight = mnist_model_conv2d_1_weights,
  .bias = mnist_model_conv2d_1_biases,
  .in_width = 26,
  .in_height = 26,
  .in_depth = 5,
  .out_width = 24,
  .out_height = 24,
  .out_depth = 5,
  .kernel_width = 3,
  .stride = 1,
  .output_buffer = mnist_model_conv2d_1_output,
  .activation = InfercatLayerActivation_RELU
};

// ...
const InfercatLayer mnist_model_conv2d_1 = {
  .mem = (void*)(&mnist_model_conv2d_1_),
  .type = InfercatLayerType_CONV2D
};

// -----------------------------------------------------------------------------
//
// -----------------------------------------------------------------------------

// ...
float mnist_model_dense_output[10];
  
// ...
static const float mnist_model_dense_weights[28800] = {
  -0.034544490,  0.022115039,  0.012302815,  0.042317405, -0.039916925, 
   0.014652207, -0.017976398, -0.011059858, -0.013441228,  0.013204997, 
  -0.024617244, -0.017514771,  0.011578375, -0.010001411, -0.013007862, 
   0.073573291,  0.002224562,  0.050582893, -0.015360449, -0.018074017, 
  -0.028245188,  0.002694850,  0.009475546, -0.022731112, -0.043492444, 
   0.066316359,  0.023302410,  0.007842379, -0.067594990,  0.045311302, 
  -0.073312432,  0.030506192,  0.005397103,  0.039881751, -0.001249845, 
   0.070809156, -0.032201760,  0.055762138, -0.084236719,  0.011207401, 
  -0.051903572, -0.007579698, -0.010095679,  0.012878158,  0.019429201, 
   0.079554804, -0.028157081, -0.025707122, -0.068930149, -0.015421268, 
  -0.077053435, -0.033180688, -0.017753977,  0.043299194,  0.027573518, 
   0.037525229, -0.026512608,  0.065121584, -0.032945000, -0.019768614, 
  -0.046415363, -0.009724183,  0.046410553,  0.039096881, -0.042936023, 
   0.041194130,  0.026514573,  0.040689252, -0.008336495,  0.035749137, 
  -0.052515432, -0.016107442,  0.001756743,  0.005449650, -0.037277259, 
   0.040522624, -0.046466876,  0.037078090, -0.050266601,  0.002379193, 
  -0.004525803, -0.012051880,  0.053383596, -0.037694901, -0.033023827, 
   0.071070097,  0.019592455,  0.049363017, -0.069883347,  0.028859889, 
  -0.012731876, -0.002272772,  0.031357247, -0.002638520,  0.012882454, 
   0.083147064, -0.046756718, -0.011831817, -0.025417911,  0.000656493, 
  -0.070351854, -0.034667913, -0.002131972, -0.004176121, -0.054699671, 
   0.082189567, -0.022090163,  0.060459901, -0.082312554, -0.024625765, 
  -0.015722074, -0.033108011,  0.012582392,  0.065009870, -0.071952604, 
   0.030255554,  0.036539108, -0.028360378, -0.083237894, -0.023826070, 
  -0.015889188, -0.038604550,  0.027984554,  0.064690769,  0.003418566, 
  -0.005327543,  0.027173962,  0.022580920, -0.039924402,  0.031668231, 
  -0.040557511, -0.041464992, -0.023645610, -0.027555887, -0.039119188, 
   0.063380420,  0.015463094,  0.056535736, -0.048336744,  0.028391484, 
  -0.008855224,  0.012436450,  0.047602709, -0.016727997, -0.004082010, 
   0.053433727, -0.037894864, -0.016917694, -0.053064145, -0.036241986, 
  -0.029893652, -0.035723709, -0.002598272, -0.033671591,  0.003529907, 
   0.093639813,  0.010606667,  0.048135269, -0.058047552, -0.037879437, 
  -0.022654960, -0.032397676,  0.010236291,  0.028716521, -0.056965753, 
  -0.048080452,  0.026068041, -0.045795307, -0.042793956, -0.026779765, 
  -0.068859763, -0.043169934, -0.009873657,  0.041774254, -0.062126752, 
  -0.050609794,  0.074994631, -0.065277077, -0.005959810, -0.052814640, 
  -0.040565658,  0.030408543, -0.022273449, -0.036113765, -0.022497786, 
   0.024607383, -0.027887003,  0.011397170, -0.044906568, -0.049532510, 
  -0.037224226, -0.010828566,  0.061421745,  0.001774117, -0.006481432, 
   0.056648601,  0.048592445, -0.038642492, -0.010193235, -0.032939587, 
  -0.055786155,  0.039694052, -0.001973230, -0.016685544,  0.017282696, 
   0.063265346,  0.018152133, -0.011434251, -0.072696246, -0.035644028, 
  -0.015599524, -0.025102511,  0.029937459,  0.037884165, -0.116917871, 
  -0.003880173,  0.036997825, -0.043317780, -0.035536118, -0.001352226, 
  -0.035935026, -0.009606482,  0.005414176,  0.085556671, -0.051629726, 
  -0.035015132, -0.000172986, -0.078491084, -0.054568797, -0.002082195, 
  -0.043914597, -0.034914669,  0.051762514,  0.005241194, -0.026920050, 
  -0.012596233, -0.045785498, -0.033427473, -0.051821373, -0.014988251, 
  -0.035403159, -0.034192551,  0.040522393,  0.038750239, -0.065223642, 
   0.005365629,  0.036862124, -0.024162816, -0.094286352,  0.015674964, 
  -0.081985928,  0.012141240, -0.026172346, -0.007118129, -0.037258632, 
   0.079991005, -0.035027441,  0.039487630, -0.090640381,  0.032434065, 
   0.004714199, -0.005010000,  0.003122959,  0.009719078, -0.060464341, 
  -0.063735217,  0.050413378, -0.078643687, -0.011546527, -0.031992171, 
  -0.010663275,  0.005854523,  0.048490614,  0.052628789, -0.062375482, 
  -0.057932500,  0.067079403, -0.061864842, -0.047439717,  0.004095395, 
  -0.064155653, -0.048717700,  0.014309316,  0.083131075,  0.002450184, 
   0.016912138,  0.015806295, -0.006110366, -0.056693278,  0.023387466, 
  -0.016088018, -0.001944131,  0.036324091,  0.020231349, -0.056280144, 
  -0.001572327,  0.007794383, -0.038309716, -0.073816143, -0.038898375, 
  -0.049745683, -0.024455860,  0.004122878,  0.033444162,  0.000398603, 
   0.040637452, -0.020676341,  0.066633567, -0.072219156,  0.004393601, 
  -0.060105219, -0.017767476, -0.000702580,  0.059292287, -0.137101814, 
  -0.049489554,  0.000790537, -0.065515548, -0.030688636, -0.038820483, 
   0.015068225,  0.001321629,  0.058898777,  0.032647561, -0.121529788, 
  -0.059835013,  0.069774754, -0.073087953, -0.012089861, -0.082442202, 
  -0.073687203,  0.003252680,  0.037520356,  0.081361718, -0.062495749, 
  -0.017866051,  0.065581083, -0.012651031, -0.081797086, -0.035944194, 
  -0.078357838, -0.041753791,  0.009330301,  0.012065903, -0.044078898, 
   0.016424829, -0.011502030, -0.020785792, -0.063645981, -0.012301123, 
  -0.069183350,  0.035126623, -0.031992014, -0.019407716,  0.013524484, 
   0.089541405,  0.008405923, -0.008353136, -0.078156635,  0.029386222, 
  -0.029232020, -0.058657143,  0.065030046,  0.014938882, -0.055231862, 
  -0.063267320,  0.063328899, -0.047573175, -0.004921676, -0.037051473, 
  -0.008527608, -0.063637316,  0.058087580,  0.027885307, -0.074270576, 
  -0.059904620,  0.000502442, -0.049423832,  0.000065320, -0.084743157, 
  -0.061893262, -0.003830520,  0.060414281,  0.067555256, -0.056189977, 
  -0.038279422,  0.011025604,  0.003644791, -0.045574162, -0.064645417, 
  -0.003455106, -0.004465221,  0.063885301,  0.019506531, -0.052953742, 
   0.015195769,  0.003126731, -0.072261371, -0.014421447, -0.058423739, 
  -0.002612359,  0.028859906, -0.004906120, -0.013136790,  0.024093866, 
   0.022520153,  0.030912014,  0.011928319, -0.008215544,  0.041401610, 
  -0.008262674, -0.037816428,  0.037206735,  0.014334658, -0.069920860, 
  -0.027648399,  0.078633748, -0.034985092, -0.009609593, -0.002936053, 
  -0.028168818, -0.011595293,  0.049444325,  0.079446524, -0.138533503, 
  -0.021035174,  0.071567878, -0.084823035, -0.027272327, -0.073299490, 
  -0.047390297,  0.022428365,  0.056205571,  0.039614402, -0.036172703, 
  -0.003801775,  0.059864752, -0.041991599, -0.000492983, -0.004477553, 
  -0.036832631, -0.014006915,  0.007394147,  0.042484634, -0.092097931, 
   0.034765221,  0.032292239, -0.024799334, -0.059510402, -0.038477834, 
   0.002328319,  0.006080329,  0.023116244,  0.003131463, -0.041203268, 
   0.045086998,  0.060640555,  0.017082192, -0.044586420,  0.004764862, 
  -0.015972670, -0.036949176,  0.032621849,  0.081690244, -0.120162711, 
  -0.032063015,  0.030549785, -0.068183817, -0.002049226, -0.009486214, 
  -0.058648918, -0.007414445,  0.014480209,  0.072752647, -0.129166201, 
  -0.066459171,  0.074793920, -0.098907024, -0.028451428, -0.006342737, 
  -0.052632552, -0.061079163,  0.089104772,  0.005510983, -0.044006009, 
  -0.015522867,  0.011693984, -0.056842480, -0.048328657, -0.061051853, 
  -0.058932822, -0.039296582,  0.009054624,  0.021520244, -0.098688647, 
  -0.028375277,  0.003251620, -0.046348315, -0.020113364, -0.028791083, 
  -0.025877219, -0.006350335,  0.024020562,  0.021972479, -0.003152905, 
   0.047402583,  0.042449102,  0.028715326, -0.006094849,  0.027335828, 
  -0.083401032, -0.007392487,  0.064852282,  0.066955663, -0.042689543, 
  -0.031410847,  0.074471630, -0.056267913, -0.018753333, -0.002057033, 
  -0.072854914,  0.006792334,  0.008307487,  0.004662717, -0.074817225, 
  -0.078982867,  0.086346231, -0.050516203, -0.033638317, -0.002835292, 
  -0.006362012, -0.036010586,  0.086457908,  0.037286699, -0.088811629, 
  -0.010242628,  0.059004746, -0.013876372, -0.020491935, -0.047489244, 
  -0.036784485, -0.005213612,  0.039763205,  0.012981469, -0.039618585, 
  -0.018513028,  0.041326139, -0.047268838, -0.066806957, -0.028034929, 
  -0.049402922,  0.023979161,  0.050884273, -0.033841766, -0.017172201, 
  -0.007490915,  0.034403343,  0.039320663, -0.046867315,  0.032914411, 
  -0.015465994,  0.005152041,  0.056523807,  0.027895132, -0.119412601, 
  -0.028352849,  0.019291053, -0.072329253, -0.071559235, -0.028064385, 
  -0.002382042,  0.048867777,  0.043478541,  0.063422307, -0.046527900, 
  -0.087839000,  0.064919837, -0.073385529,  0.015445180, -0.059546046, 
  -0.058514372, -0.005791560,  0.000196050,  0.015385115, -0.117464557, 
  -0.052697714,  0.041018851, -0.092966311, -0.042299632,  0.006226684, 
  -0.048028052,  0.066020057, -0.001029998,  0.019077420, -0.021514457, 
   0.025122536,  0.021552686, -0.079973079, -0.011098360, -0.078881845, 
  -0.013349663,  0.015451118,  0.044972364, -0.026619783, -0.009835606, 
  -0.027014697, -0.006505604, -0.019386023, -0.050306253, -0.006276927, 
  -0.048719984,  0.038564254, -0.023071535,  0.041010965, -0.098607175, 
  -0.028134990,  0.019826557, -0.042432114, -0.012957461, -0.087053381, 
  -0.027484331, -0.014078405, -0.016982213,  0.062952265, -0.025194230, 
  -0.021845967,  0.071756944, -0.023271054,  0.024149911, -0.007225272, 
  -0.040926285, -0.001961757,  0.055238079,  0.000624964, -0.071425050, 
  -0.079045072,  0.009187365, -0.046496987, -0.038544320, -0.063372657, 
  -0.024575200, -0.006565274, -0.024815289,  0.033106353, -0.042805981, 
  -0.023395175,  0.083133094, -0.046962917, -0.083102502, -0.002137002, 
  -0.002928534,  0.019622631,  0.011403088,  0.036621295, -0.061198372, 
  -0.011769830,  0.064369924, -0.010404871, -0.067396961, -0.008073361, 
  -0.090952277,  0.019945389, -0.003123352,  0.051891759, -0.098753653, 
   0.022122730,  0.011081141, -0.048440713, -0.098404065, -0.021869298, 
  -0.080336407,  0.052632883, -0.033928152,  0.060760651, -0.046143327, 
  -0.008421252,  0.089498915, -0.014567063,  0.001939163, -0.070921719, 
  -0.057057660,  0.056192458,  0.050068699,  0.074984811, -0.048596818, 
  -0.033605821,  0.041081019, -0.045524586,  0.011586086, -0.069779597, 
  -0.072640799,  0.004832458,  0.026660891, -0.042687222, -0.070986077, 
  -0.025855420,  0.044687893,  0.005315552, -0.048619110, -0.088300519, 
  -0.054033276,  0.009635312, -0.014966984,  0.009837893, -0.079392247, 
  -0.049760118,  0.034579724, -0.019224284, -0.011628148, -0.050925851, 
  -0.076478176, -0.016410040, -0.010017527, -0.013702305, -0.051563419, 
   0.024501747,  0.055152837, -0.033308350, -0.078888103, -0.093015835, 
  -0.083779715, -0.014281487,  0.019235937,  0.025360297, -0.017165838, 
   0.025999183,  0.042472243, -0.087714545, -0.043773722, -0.091791615, 
  -0.025002837, -0.002457543,  0.033676818,  0.003394258, -0.035181724, 
  -0.036735564,  0.002105135,  0.000700576, -0.058788959, -0.005967847, 
  -0.027257040, -0.040678725,  0.002234146, -0.011032915, -0.062278155, 
  -0.014196271,  0.084166698, -0.037785113, -0.098035119, -0.071124353, 
  -0.037879217,  0.008441345, -0.002373707,  0.036163248, -0.030151345, 
   0.013237116,  0.063841477,  0.015892776, -0.032493994, -0.058137100, 
  -0.052344780, -0.080820329, -0.038868584,  0.051316187, -0.089539528, 
  -0.025385493,  0.038971040, -0.074039571, -0.080491990, -0.011821999, 
  -0.012056458,  0.023452476, -0.020268690,  0.008722538, -0.004752268, 
   0.011231080,  0.011567053, -0.004722494, -0.081109606, -0.062591195, 
  -0.072604217,  0.003650025, -0.007435799, -0.002067411, -0.009231730, 
   0.015099015,  0.067298517, -0.013564532, -0.081673197, -0.031130055, 
  -0.018620625, -0.040860966,  0.024116753,  0.008997777, -0.057391401, 
  -0.014574286,  0.092432536,  0.009407958, -0.042812090, -0.060602110, 
   0.023854807, -0.004661634,  0.057016205, -0.022798106, -0.042529315, 
  -0.033252068,  0.078999445, -0.007701644, -0.049459808, -0.020555930, 
  -0.048494309, -0.044129945, -0.016495923,  0.009703998, -0.073696442, 
   0.045799989,  0.089459531, -0.081460111, -0.080554590, -0.029970951, 
  -0.086666115, -0.002640252, -0.028802030,  0.012378261, -0.028989770, 
  -0.017555693,  0.036939919, -0.045320500, -0.068525411, -0.059780136, 
  -0.017059434, -0.045481697,  0.031841729,  0.003618936, -0.071093746, 
   0.008660048,  0.058539625, -0.047673110, -0.087868139, -0.066097550, 
  -0.060468182, -0.033178892, -0.013968723, -0.026864199, -0.006808090, 
  -0.003808697,  0.029304806, -0.054647826, -0.093196705, -0.049688265, 
  -0.014365395,  0.027057940, -0.005958835, -0.015565733, -0.078355275, 
   0.045629125,  0.062044963, -0.029193187, -0.042768810, -0.040652569, 
  -0.077159680, -0.034723382, -0.027175140,  0.003189991, -0.093411677, 
  -0.058502078,  0.026778843, -0.010823322, -0.033888049, -0.065127797, 
  -0.051778395,  0.012628616, -0.065862127, -0.021781899, -0.026969269, 
   0.032118265,  0.032898802, -0.049476016, -0.018320549, -0.059724756, 
  -0.023721060, -0.034203459,  0.037777562,  0.021463666, -0.021642281, 
   0.050954469,  0.071095444, -0.048002813, -0.065495156, -0.083430223, 
  -0.087205790, -0.009461700, -0.015792266,  0.010464966, -0.045990396, 
   0.002345752,  0.095369250, -0.055379141, -0.027983520, -0.010406708, 
  -0.013726220,  0.005857425, -0.011826113,  0.010502586, -0.070694812, 
   0.047732707,  0.028458072, -0.034000590, -0.013516877, -0.053586826, 
  -0.068584718, -0.084545285, -0.094272047, -0.035113633, -0.068439201, 
  -0.011196247,  0.080821306, -0.004879593, -0.076551937,  0.004480907, 
  -0.018724039, -0.058372904, -0.043648154,  0.014167211, -0.031789102, 
  -0.047948852,  0.099978507, -0.002710861, -0.061375368, -0.082994565, 
  -0.048692640, -0.064859860, -0.048431214, -0.037738983, -0.034198187, 
  -0.010988696,  0.096071236, -0.048162237, -0.052793946, -0.059669789, 
  -0.079643324,  0.020169554,  0.006999390, -0.068042628, -0.045128051, 
  -0.028345373,  0.073012725,  0.004187467, -0.057798766, -0.059938401, 
  -0.063683890, -0.029548112, -0.032218110,  0.014974367, -0.044997718, 
   0.030794648,  0.046607573,  0.006076217, -0.047617409, -0.035778612, 
  -0.025496369, -0.058845252, -0.014850999, -0.046032123, -0.044586446, 
  -0.038544398,  0.061137315,  0.008920192, -0.011577778, -0.050727267, 
  -0.079936109, -0.044552207, -0.064962767,  0.022335608, -0.007606754, 
   0.034110192,  0.086315721, -0.053317882, -0.029738285, -0.029001513, 
  -0.029277138,  0.018779995, -0.001411329,  0.016188441, -0.036677767, 
   0.025463324,  0.095782623, -0.079371139, -0.039899208, -0.036261152, 
  -0.047230363, -0.000278509,  0.027079500, -0.045339182,  0.010096194, 
  -0.004820307,  0.096066266, -0.047048349, -0.079805717,  0.014233300, 
  -0.052344844,  0.007563655,  0.022902377,  0.019373817,  0.018189570, 
   0.034761477,  0.001543670,  0.012990902, -0.053286951,  0.005505004, 
  -0.088393018, -0.078460731, -0.045714431, -0.077854149, -0.074387088, 
   0.024632109,  0.050270598, -0.027526451, -0.082528479,  0.002543828, 
  -0.021400036, -0.022455027, -0.022213379, -0.014466653,  0.001720828, 
  -0.034980290,  0.103406094, -0.060127888, -0.012937735, -0.039032537, 
  -0.046660535, -0.043241184, -0.004880631,  0.018138587, -0.017382499, 
   0.022968246,  0.035430886, -0.015266591, -0.072112598, -0.005526616, 
  -0.062802941,  0.006353953, -0.036609951, -0.006464105, -0.018190414, 
   0.053787086,  0.027534671, -0.028125817, -0.049825411, -0.059762195, 
  -0.011383479,  0.029394848,  0.054714836, -0.004255050, -0.022318617, 
   0.007197778,  0.043280054,  0.002756389, -0.061058439, -0.003617847, 
  -0.024291499, -0.059120618,  0.017512791,  0.001223300, -0.001670310, 
   0.025068462,  0.066380717, -0.042884685, -0.000940453, -0.057040371, 
  -0.062623732, -0.056621969, -0.085558675, -0.030691022, -0.033536289, 
   0.046240266,  0.045415040, -0.003668264, -0.024505116, -0.062175345, 
  -0.037725918,  0.011978515, -0.047855251, -0.057703022, -0.008121449, 
  -0.009505217,  0.077165388, -0.063041918, -0.003671551, -0.038155854, 
  -0.087601908,  0.013666735, -0.008883581,  0.007401514,  0.016844673, 
   0.083866261, -0.053101107,  0.056076393, -0.025740767,  0.017993009, 
  -0.090405665,  0.058951300,  0.001471470,  0.023856066,  0.023976738, 
   0.024849065,  0.037622128, -0.007250434, -0.016462635, -0.057624057, 
  -0.011421117, -0.053369567,  0.041942965, -0.030985178, -0.080649830, 
  -0.017511819,  0.051080976,  0.000455189, -0.052264847, -0.000458322, 
  -0.047814317, -0.041305870, -0.028917802, -0.070385464, -0.047823094, 
   0.025188155,  0.100698635, -0.030828115, -0.026530506, -0.026727144, 
  -0.071016096,  0.007754056, -0.020866482, -0.038090263, -0.036969669, 
  -0.007042403,  0.038480222, -0.053493537, -0.024902275, -0.034284111, 
  -0.057294533, -0.044360776,  0.047632147, -0.026849395, -0.013341922, 
   0.066580176, -0.015180392, -0.028592458, -0.064357124,  0.032527141, 
  -0.055615492,  0.002696910,  0.017609173,  0.028247515, -0.051672388, 
   0.018511808,  0.016984107,  0.023537977, -0.015243739,  0.009320034, 
  -0.014928241,  0.013997726,  0.076701626, -0.025447754, -0.003561443, 
   0.036903564, -0.040902317,  0.011917372, -0.056914233,  0.012562290, 
  -0.008964380, -0.043291066,  0.021191116, -0.043401480, -0.071152709, 
  -0.009040291,  0.064629629, -0.003616613, -0.033426769, -0.036410075, 
  -0.090431251,  0.016385473,  0.019683907, -0.030768637, -0.007807954, 
   0.026441736,  0.029321421, -0.007694207, -0.004058295,  0.009205922, 
  -0.007731104,  0.011958144, -0.014890961,  0.017006963, -0.014962812, 
   0.059671130, -0.047882449,  0.060064010, -0.008120109,  0.031815469, 
  -0.041019831,  0.046491519, -0.004191257, -0.003223830, -0.030634489, 
   0.032593038,  0.017551808,  0.069700137, -0.031240886,  0.045877688, 
  -0.029082417,  0.020029482,  0.012444273,  0.072992221, -0.059887208, 
   0.024841521, -0.019195912, -0.025116932, -0.019636316, -0.017100241, 
  -0.060548753, -0.029766455,  0.028061822,  0.030887943, -0.056288939, 
   0.019306824, -0.028304232, -0.005001289, -0.061464056, -0.021744745, 
  -0.071676925,  0.043191295, -0.024939641, -0.028454779,  0.007489525, 
   0.065021880, -0.044379305, -0.012891245, -0.031552456, -0.012750129, 
  -0.074504524, -0.006383956,  0.060784779, -0.029319435,  0.001156910, 
  -0.000278246,  0.011161705,  0.011387539, -0.048003335, -0.008392879, 
  -0.004031721,  0.048607662,  0.025790628,  0.038135476, -0.056522749, 
   0.053289909,  0.025162481,  0.029431812, -0.027567998, -0.018911818, 
  -0.021011937, -0.039438736,  0.076598950,  0.041006912, -0.020664576, 
   0.044697355, -0.058774553, -0.021999091, -0.078177325,  0.030726720, 
  -0.023905266,  0.008485303, -0.018764334,  0.049429361, -0.033509970, 
   0.000906895,  0.035983447, -0.015109101, -0.042945709, -0.004013562, 
  -0.064021543, -0.004154472,  0.028362881, -0.018621584, -0.020057227, 
   0.049081378, -0.031436119,  0.000167401, -0.039172709, -0.033985775, 
  -0.092506468,  0.015842527,  0.020028381,  0.061938796,  0.023942426, 
   0.045287203, -0.043739598,  0.011560127, -0.026757961, -0.000957625, 
  -0.017217785, -0.027708782, -0.018003579, -0.048648022, -0.058309462, 
   0.018072899, -0.004711939,  0.065341465, -0.087510295, -0.032969065, 
  -0.065905161, -0.067812160, -0.018654009,  0.060971517, -0.031543359, 
   0.020080924, -0.010705109, -0.020063834, -0.032598305, -0.062590882, 
  -0.085264653, -0.017839208,  0.002675686,  0.088507667,  0.019744948, 
  -0.074381277, -0.006424672, -0.044446200, -0.025595525, -0.055553768, 
  -0.067558214, -0.021810243,  0.044385806, -0.003906649,  0.009168887, 
   0.034559000,  0.003736237,  0.045802899, -0.025816046, -0.047883358, 
  -0.071425289, -0.022423932,  0.012417668,  0.052728470,  0.003832253, 
  -0.002881400, -0.014064061,  0.034873717, -0.033154573,  0.005876889, 
  -0.067291334,  0.038094547,  0.008741334, -0.018134261, -0.023763899, 
   0.036066126, -0.050621048, -0.006483106, -0.051621687,  0.045997210, 
  -0.093683824, -0.065528318, -0.008910399,  0.021785527, -0.000524627, 
  -0.030037291,  0.025832957, -0.067716673, -0.025116978, -0.041836064, 
  -0.075788423, -0.023695318, -0.023765080,  0.073638223, -0.016813273, 
  -0.068104282,  0.058722556, -0.018240057, -0.017166557, -0.047723144, 
  -0.018264355,  0.000084108,  0.006500167,  0.023461869,  0.033442706, 
   0.005522361, -0.002993252, -0.036613178, -0.024389319, -0.053036194, 
  -0.082939103, -0.048694421,  0.001989044,  0.068322718,  0.011824263, 
  -0.003859147,  0.006780603, -0.026231114, -0.055277243, -0.062096171, 
  -0.046441041,  0.032343790, -0.003654515, -0.019978339, -0.018915121, 
   0.059803072, -0.044631246,  0.025818851, -0.072364494,  0.019407088, 
  -0.036614478, -0.043404859,  0.045853492,  0.058107492, -0.072646409, 
  -0.000252957,  0.048603419, -0.047679614, -0.030823965, -0.028373860, 
  -0.039023675,  0.021063883, -0.020647593,  0.094397962,  0.011718025, 
  -0.053465929,  0.045635801, -0.054239139, -0.025440671, -0.078754552, 
  -0.037990093, -0.023239283,  0.034751281,  0.045651425,  0.026172167, 
  -0.005686643, -0.004678515, -0.019850006, -0.029726341, -0.032020003, 
  -0.026173545, -0.036311839,  0.086694978, -0.005174637, -0.008127975, 
   0.046093427,  0.006464764, -0.014870464, -0.090756506, -0.012295220, 
  -0.029532174, -0.012439467,  0.028549599, -0.030077528, -0.014674539, 
   0.069220163, -0.038350478,  0.022823351, -0.060833421,  0.017303785, 
  -0.066084273, -0.075236700,  0.011695812,  0.033747450, -0.081400409, 
   0.005028914,  0.027604174, -0.034958586,  0.011976702, -0.001385154, 
  -0.008519175,  0.003799475,  0.027875302,  0.085332930, -0.083300032, 
  -0.075415798,  0.040799409, -0.062940128, -0.033544771, -0.010871472, 
  -0.026717436, -0.041900434, -0.034858927,  0.089753024, -0.007793338, 
  -0.052929085, -0.002959138, -0.059292641, -0.055644687,  0.008872597, 
  -0.028554006,  0.000532088,  0.075398758,  0.011201813, -0.019114027, 
  -0.018940330,  0.018592304, -0.037776191, -0.006083843, -0.036232203, 
  -0.018423913, -0.019181650, -0.054233171,  0.009263778, -0.047720402, 
   0.033411015,  0.049837872,  0.060770545, -0.029068870,  0.030858042, 
   0.011154177, -0.022793489,  0.057174694,  0.024981320, -0.100336619, 
  -0.004547484,  0.065669224, -0.018157871,  0.017452667, -0.072334751, 
   0.021020195, -0.023212714,  0.068751246,  0.023338538, -0.061048161, 
  -0.065667279,  0.075971462, -0.003944180,  0.001639222, -0.083270006, 
  -0.074001059, -0.050241411,  0.046686061,  0.019643048, -0.024708593, 
  -0.003407141,  0.013658240, -0.006475644, -0.058859117, -0.064154930, 
  -0.009313318, -0.053067930,  0.067777857, -0.010170296, -0.058210462, 
   0.010552458,  0.004806328, -0.078807354, -0.017844785, -0.037862808, 
  -0.082770988,  0.018449947, -0.000777519, -0.031632245,  0.034078930, 
   0.036372248,  0.035485789, -0.001381068, -0.060056299,  0.048678271, 
  -0.032470472, -0.043531552,  0.084555283,  0.070240736, -0.035431746, 
  -0.081507541,  0.021693429, -0.099338129,  0.028774491, -0.041454729, 
  -0.048859246, -0.048937779,  0.083440945,  0.029947048, -0.021534348, 
  -0.021683140,  0.042731810, -0.060068917,  0.041220590, -0.026974471, 
   0.022412138, -0.023170885,  0.051746640,  0.051020335,  0.000410722, 
  -0.054130547,  0.003323643, -0.004345292,  0.004294504, -0.064763531, 
  -0.057865568, -0.052101839,  0.048927426,  0.056340232, -0.042850323, 
   0.015729416,  0.010283630, -0.041189119, -0.002937395, -0.058459371, 
  -0.072481543, -0.036655013, -0.028620286,  0.038618829, -0.037474979, 
   0.006109949,  0.031805344,  0.020181168, -0.084657259, -0.007498378, 
  -0.046731528, -0.062561683,  0.080515556,  0.049118809, -0.077945337, 
  -0.054037444,  0.002707585, -0.054540709, -0.043255318, -0.040334735, 
  -0.023632182, -0.016185997,  0.055856407,  0.003878792, -0.043982230, 
  -0.047273409,  0.032045450, -0.021726729, -0.031256579, -0.027576907, 
   0.009788783,  0.030283319,  0.077962734,  0.016312432,  0.014640506, 
  -0.069655970,  0.044996496, -0.043189455, -0.035950992, -0.038520206, 
  -0.010622449,  0.000356840,  0.082538724,  0.021413151, -0.053879153, 
  -0.010126709,  0.018784778, -0.080831863, -0.057873666, -0.039875492, 
  -0.094287299,  0.050281942, -0.040101897,  0.027813438,  0.009040229, 
  -0.003622724,  0.078510486,  0.034163810, -0.124085158, -0.019397423, 
  -0.012378033, -0.049381420,  0.040476087,  0.007515593, -0.056250140, 
  -0.082205251,  0.023394002, -0.046059377,  0.025079170, -0.063020714, 
   0.027112728, -0.001441104,  0.082862251,  0.007674641, -0.102294631, 
   0.003571962, -0.017829424, -0.069589391,  0.019391332, -0.032282338, 
  -0.019780688, -0.018471209,  0.000400319,  0.033917781, -0.022533825, 
  -0.053703938,  0.054832097, -0.039452940, -0.010928857, -0.014975523, 
  -0.005329825, -0.012100051,  0.030535808, -0.007555331, -0.086650074, 
   0.013487963,  0.041613109, -0.069566414, -0.018373489,  0.017400514, 
  -0.007355229,  0.054156322, -0.059629694, -0.007319596,  0.030845150, 
   0.045230668,  0.067577779,  0.072739199, -0.036839351, -0.003912445, 
  -0.021011611, -0.018606517,  0.074284643,  0.057279993, -0.084124118, 
  -0.040623251,  0.050076764, -0.035574615,  0.011310517, -0.072653584, 
  -0.015545459, -0.014261233, -0.004149710, -0.005094744, -0.050762452, 
   0.002644183,  0.039009798, -0.051969700,  0.035611775, -0.015275040, 
   0.026491074,  0.003111229,  0.013331270,  0.011547560, -0.016015355, 
  -0.010224919,  0.041636441, -0.013278410,  0.030428559,  0.004117288, 
  -0.018849790, -0.011508230,  0.031933952,  0.044066083, -0.004302813, 
  -0.027391935,  0.016725987, -0.042988561,  0.039054085, -0.035512216, 
  -0.042193547, -0.005888260, -0.000162422, -0.032881167, -0.014613849, 
  -0.052968364,  0.002843146,  0.005284871, -0.047337864,  0.036581285, 
  -0.027989626,  0.011334918,  0.063334793,  0.045076121, -0.053832974, 
  -0.073587447,  0.056784987, -0.062866151, -0.002293334, -0.062828317, 
  -0.035804689,  0.005754834,  0.052348103, -0.006265639, -0.032614432, 
  -0.028853336,  0.038044248, -0.014550976,  0.048781909, -0.076123290, 
   0.026061501, -0.003504628,  0.000300484, -0.007157140, -0.052859120, 
   0.006768839,  0.004560620, -0.047829784,  0.054720815, -0.021965379, 
   0.015786307,  0.047056045,  0.048207007, -0.026998805, -0.009435892, 
   0.034290008,  0.026130771, -0.064680055, -0.039627139, -0.099887051, 
   0.037475564, -0.005646589,  0.025152089,  0.042918410, -0.027420731, 
  -0.030876171,  0.062199201,  0.028815804, -0.082236849,  0.003117621, 
  -0.006812309,  0.021284206,  0.033520661,  0.043688312, -0.026722202, 
   0.002312964, -0.001210301, -0.005212074,  0.008790358, -0.031373125, 
   0.028334679,  0.016027063,  0.004901025,  0.067247152, -0.036823455, 
  -0.006871203,  0.056531195, -0.088666342,  0.039121661, -0.070078149, 
  -0.037992738,  0.066937067,  0.004514237,  0.033309799, -0.027580729, 
  -0.023568025,  0.040082630, -0.082269266,  0.051426545, -0.047225796, 
  -0.018170271,  0.018994128, -0.026164943,  0.002161631, -0.038701355, 
   0.025027269,  0.088763215, -0.066792406, -0.029662343, -0.061883066, 
  -0.051798888,  0.004203328, -0.033260442, -0.026339402, -0.053289045, 
  -0.073075220, -0.001559889, -0.032973636, -0.052304875, -0.001838201, 
  -0.075714938, -0.000416698,  0.015018123,  0.010589728, -0.066683657, 
   0.030595731,  0.020404292, -0.049533367,  0.011128805, -0.037103377, 
  -0.030012554, -0.004708252, -0.019124465, -0.004226727,  0.031850670, 
   0.024734542,  0.017964497, -0.017217400,  0.043121289, -0.041371018, 
   0.008621223,  0.014935951,  0.024038877, -0.000499671,  0.005368691, 
  -0.039721709,  0.023300763, -0.036654111,  0.010152216, -0.005663233, 
   0.019493157,  0.000931398,  0.029816901,  0.025294561,  0.044569619, 
   0.013637779,  0.033178460, -0.071125947, -0.043308992, -0.118105054, 
  -0.000190944,  0.055038050, -0.008914814,  0.035669155, -0.016189251, 
  -0.039484341, -0.019288791, -0.064509965,  0.030147141, -0.038016099, 
  -0.011281814,  0.037020564,  0.049253672,  0.043067709, -0.052325811, 
   0.003777648,  0.082321808, -0.052342419, -0.035987761, -0.042758130, 
   0.019971441, -0.015751431,  0.044394184,  0.066014357,  0.038177438, 
   0.043561373,  0.055900272, -0.089700170,  0.064377941, -0.032584287, 
   0.012106775,  0.039153196,  0.033171609, -0.020783057, -0.013418744, 
  -0.025851378,  0.025719907, -0.079646632,  0.003000296, -0.071342729, 
  -0.017955041,  0.023536697, -0.050143067, -0.016397700,  0.019749573, 
   0.017236916,  0.097989105, -0.087826252, -0.022843108, -0.121514179, 
   0.003816011,  0.072219908,  0.027144078,  0.045547843, -0.021609684, 
  -0.048261900, -0.000952394, -0.046797667,  0.013619204, -0.048639998, 
  -0.031286210, -0.033562589,  0.010624788, -0.003211708, -0.019201387, 
   0.019646944,  0.054989658, -0.041959286, -0.050715398, -0.081813663, 
  -0.014402693,  0.014145220,  0.042011436,  0.030561430, -0.009364137, 
   0.018327219,  0.054037794, -0.066418603,  0.016423138, -0.031951096, 
   0.040093213, -0.008644973,  0.023439204,  0.036904801,  0.022572454, 
   0.036608256,  0.056483265, -0.050529744,  0.022664513, -0.105822176, 
  -0.038929347, -0.010455817, -0.053185198, -0.013725713, -0.007004653, 
   0.043859787,  0.068631083, -0.022161929, -0.050048199, -0.030653130, 
  -0.025999773,  0.016621923, -0.002141227, -0.018628959, -0.018459586, 
   0.017640645, -0.020323243, -0.058535248,  0.011836782, -0.100138441, 
  -0.104238294,  0.023271950,  0.010061007,  0.014122928, -0.068193451, 
  -0.024793714,  0.063623317, -0.083083794, -0.014440244, -0.070672661, 
  -0.064205155,  0.015428314,  0.026873106, -0.001182619, -0.015237890, 
   0.027511388,  0.040170658, -0.049105614,  0.057852179, -0.028266879, 
   0.006800225, -0.003027312,  0.014668680,  0.062211219, -0.024673918, 
   0.044204555,  0.050447207, -0.038788915,  0.012928823, -0.075424694, 
  -0.066480882,  0.052860096, -0.071823284, -0.070683509, -0.008706849, 
  -0.032043673,  0.098675273, -0.075148448,  0.002498901, -0.003966155, 
   0.011096999,  0.015952412,  0.016006626, -0.024403514,  0.010611643, 
  -0.005363430, -0.018026957, -0.038645636,  0.021124952, -0.051555909, 
  -0.087862998,  0.022682687, -0.063697167, -0.046829011, -0.041063730, 
  -0.002068722,  0.057868976, -0.035671938, -0.025135646, -0.054152071, 
  -0.038969941,  0.035222240,  0.028634453, -0.036914043,  0.021757580, 
  -0.018338444,  0.113094054, -0.046475809, -0.019107852, -0.069716521, 
  -0.011419773, -0.016103959,  0.022777321, -0.018990608, -0.029358158, 
  -0.016129069,  0.068729177, -0.064064987, -0.035349712, -0.077805117, 
  -0.071555793,  0.030737879, -0.000634955, -0.066632204, -0.008253096, 
  -0.047229316,  0.055605523, -0.031952016,  0.016196441, -0.033737257, 
  -0.011532502,  0.000527776, -0.013459702,  0.041540705, -0.022296552, 
   0.057113986,  0.056299053, -0.018966069,  0.034428880, -0.065418541, 
  -0.046017934,  0.022171617, -0.051953301, -0.048341013, -0.012814449, 
   0.014359258,  0.016312605, -0.035249230, -0.005798131, -0.045266710, 
   0.010712421,  0.003306155, -0.007586507, -0.010188095,  0.046096470, 
   0.029080231,  0.076645650, -0.027840417,  0.037728198, -0.016431028, 
   0.022023257,  0.048863847,  0.014500635, -0.029204510,  0.038716666, 
   0.045859143,  0.069558486, -0.054298636,  0.004181564, -0.064350419, 
  -0.000682064,  0.061138101, -0.020217704, -0.042974889, -0.023832265, 
   0.013734083,  0.036202561, -0.046023067, -0.025859229,  0.003492983, 
  -0.045116063, -0.042794023, -0.013351990, -0.011321161,  0.029281922, 
  -0.025331482,  0.060252588, -0.048259672, -0.021593051, -0.002347855, 
  -0.037151158,  0.023316750, -0.047564421, -0.041501045,  0.038736995, 
   0.026936680,  0.065070637, -0.078338429, -0.020682752, -0.027165364, 
  -0.031551771,  0.033025716, -0.045503877, -0.080315247, -0.021439290, 
  -0.001001508,  0.031512052, -0.022286987, -0.010323651, -0.069389388, 
  -0.041917454,  0.022419684, -0.012275693, -0.028716594, -0.018810421, 
   0.026755657,  0.022036303, -0.021061687,  0.006396994, -0.089501850, 
  -0.006537066,  0.086687587,  0.001101788, -0.032576334, -0.033607177, 
   0.067060664, -0.014174080, -0.001377114, -0.078475468,  0.010882292, 
  -0.023610542, -0.026457265,  0.015108550,  0.035300091,  0.013211387, 
   0.026572758,  0.040052257, -0.044343654, -0.029814251, -0.076437317, 
  -0.072496437,  0.012683739, -0.060240671, -0.086562313,  0.003357844, 
  -0.036174268,  0.119454935, -0.058235813, -0.061115798, -0.066066869, 
   0.006207995,  0.009622446, -0.040489033, -0.097659945,  0.025325909, 
  -0.019943435,  0.046330497, -0.088406354, -0.052688453, -0.081348054, 
  -0.027680961,  0.027743904, -0.001781322,  0.009715294,  0.030272547, 
   0.019605575,  0.069921583, -0.024091618,  0.000049442, -0.087335713, 
   0.002149207,  0.044398420, -0.043069508,  0.014024537,  0.031722385, 
   0.059148375, -0.034139547, -0.048325367, -0.100996576,  0.015969720, 
  -0.058809057, -0.002435106,  0.011579235, -0.008365273, -0.015936611, 
   0.047579288,  0.028778777, -0.015340906,  0.006530997, -0.009164001, 
  -0.067925125,  0.015969321, -0.061839771, -0.085645378,  0.032241359, 
   0.006855338,  0.103176899, -0.067386664, -0.044674184, -0.024130067, 
   0.015889527,  0.042305499, -0.016357370, -0.023470970, -0.006163758, 
   0.042230133,  0.036538117, -0.077310659, -0.044149913, -0.035130281, 
  -0.015163083,  0.043015957, -0.006972681, -0.036414914,  0.003081122, 
  -0.028781587,  0.046578243, -0.029332099, -0.020757211, -0.044844408, 
  -0.079834849, -0.009948913,  0.036810599, -0.011932147, -0.025999743, 
   0.064404264, -0.075751953, -0.023101710, -0.047309916, -0.030258017, 
   0.007856306,  0.018716531, -0.033114299, -0.029072789,  0.033311021, 
   0.058988623,  0.031356912,  0.019761505, -0.047127485, -0.063011549, 
  -0.018347237, -0.060511757, -0.011464238, -0.003601897, -0.000653259, 
   0.007009752,  0.080414228, -0.047772378,  0.028053947, -0.027699001, 
   0.008314382, -0.018004797, -0.068341799, -0.086639769,  0.013432947, 
   0.032549411,  0.068228722, -0.055585194, -0.037944201, -0.065654673, 
  -0.058391131,  0.016425028,  0.001989406, -0.053999968,  0.037195385, 
  -0.009217073,  0.070978552, -0.058872797, -0.050180458, -0.014229155, 
  -0.089061663, -0.041218922,  0.049366124,  0.023961835,  0.029752299, 
   0.033700999, -0.062307399, -0.013870948,  0.004639751, -0.025376277, 
  -0.010364077,  0.008257006, -0.019819545, -0.035037711, -0.028827608, 
   0.051098112,  0.008148572, -0.050148230, -0.031171162, -0.044658396, 
  -0.072270177, -0.074721619,  0.019165639, -0.018729459, -0.074944451, 
   0.064051129,  0.017560488, -0.021078994,  0.023060629,  0.030984700, 
  -0.061135367, -0.049907390, -0.016797768, -0.047695413,  0.047832157, 
   0.006217956,  0.029730028, -0.075876869, -0.028691905, -0.063273169, 
  -0.016954755, -0.028008051, -0.007285900, -0.031032240, -0.004114783, 
   0.003544501,  0.026844196, -0.072232336,  0.002402870, -0.041041885, 
  -0.039769530, -0.040354025, -0.000901661, -0.006766220, -0.050576814, 
   0.011491752, -0.047561679, -0.008024858,  0.014841950, -0.017278399, 
  -0.036738172,  0.008659353, -0.007098862, -0.021601334, -0.009212799, 
   0.090946242,  0.031970762,  0.021820081, -0.030844973,  0.030386141, 
  -0.048801754, -0.034323465,  0.056697186,  0.052939888,  0.004329212, 
   0.010891100, -0.060892802, -0.016886787, -0.017528573, -0.029230455, 
  -0.012879144,  0.033310924,  0.045734122,  0.003875576, -0.013052655, 
   0.052838385, -0.054942347, -0.012251565, -0.041718826, -0.027575964, 
  -0.017853666, -0.036867972,  0.019311035, -0.028051315, -0.052796632, 
   0.035373926, -0.057597563,  0.020613499, -0.067102753, -0.020203456, 
  -0.087928265, -0.043456495,  0.008404582, -0.021653831,  0.031081995, 
   0.054012720, -0.056291983,  0.053083088, -0.079925328,  0.026610635, 
  -0.028066222,  0.042409025, -0.022965370,  0.011760692, -0.021430440, 
   0.061941393,  0.026410295,  0.055214237, -0.079999708,  0.000756221, 
  -0.090684362, -0.038634162, -0.013554075,  0.030715376, -0.040707313, 
  -0.058851421, -0.028503576,  0.003994184, -0.068211064, -0.024525182, 
  -0.100106001,  0.013285690,  0.014956413,  0.060507916, -0.008629397, 
  -0.045820173, -0.055580106, -0.040308375, -0.023575939, -0.002757974, 
  -0.046584181,  0.028351009, -0.014526069,  0.016987497, -0.065811515, 
   0.047033221, -0.030057747,  0.001982539, -0.081082270,  0.001363265, 
  -0.039335031,  0.023929572,  0.025081880,  0.081179902, -0.045927759, 
   0.030581303, -0.032857064,  0.034331247, -0.088146761, -0.020066466, 
  -0.019807085, -0.018078296,  0.009050547, -0.022267159, -0.030923938, 
   0.041251227, -0.004193910,  0.024447883, -0.026023291,  0.007472055, 
  -0.012262741, -0.047074035,  0.023873357,  0.042249251,  0.011768322, 
  -0.053222820,  0.010495062, -0.051883776, -0.006456135, -0.047019936, 
  -0.049848769,  0.017196311, -0.014358622,  0.040012520, -0.026592525, 
  -0.064303100, -0.025743425, -0.048627339, -0.044719227, -0.054165483, 
  -0.036059570,  0.022097595,  0.002920427,  0.008987329,  0.001395716, 
   0.010040757, -0.023375649, -0.011017327, -0.034830164, -0.049034718, 
  -0.083719134, -0.005093945,  0.021568235,  0.083178326, -0.008659297, 
   0.003452839, -0.013382409, -0.038321786, -0.017056227, -0.031179657, 
  -0.018721821,  0.018830746,  0.031461690, -0.046366364,  0.020136157, 
   0.079639815,  0.001808052, -0.015504436, -0.079732597, -0.031485498, 
   0.007066635, -0.041036382,  0.025049115,  0.060308170, -0.020418180, 
  -0.009416478, -0.005216595, -0.016335921, -0.074503213, -0.021736022, 
   0.002442691,  0.023300597,  0.046303563,  0.052897207,  0.029171037, 
  -0.055534549, -0.002540417, -0.037209891, -0.030346537, -0.092723854, 
  -0.059985112,  0.014033652, -0.015019620,  0.006598521,  0.012693428, 
   0.027617261, -0.005163132, -0.039500128, -0.033929028, -0.015987400, 
  -0.044041742, -0.047087610,  0.022966051,  0.034530267, -0.020197913, 
   0.031892162,  0.019137139, -0.022397026, -0.054338481,  0.002902013, 
  -0.003567954, -0.034981489, -0.038848691, -0.019664286, -0.034122709, 
   0.037363663,  0.032787781, -0.008939201, -0.018660368,  0.047534201, 
  -0.064131036, -0.035416011,  0.049540248,  0.028666871, -0.049775995, 
  -0.016029643,  0.033117179, -0.050527122, -0.038002323, -0.020305360, 
  -0.026609469, -0.002682727,  0.034040973,  0.035473291, -0.031140672, 
  -0.004739948,  0.004372401,  0.014708309,  0.015022762, -0.067089133, 
  -0.072977051, -0.024210602,  0.034127042,  0.080802314,  0.001589083, 
   0.006165225, -0.011948723,  0.007414630, -0.051135957,  0.006128235, 
  -0.008021796, -0.068728074,  0.039177801,  0.029202942, -0.058915410, 
   0.019686697,  0.020076085,  0.014542930, -0.037107483,  0.002280401, 
  -0.076314516,  0.053213798,  0.026740663, -0.034159970,  0.020349959, 
   0.049041189,  0.034672111,  0.019539472, -0.085358590,  0.024927078, 
  -0.006578083, -0.071617432,  0.006346950,  0.056125306, -0.018824304, 
  -0.048814967, -0.002693985, -0.005122237,  0.025747018, -0.050249867, 
  -0.023171734, -0.020135505,  0.036009997,  0.005268626,  0.031628840, 
  -0.027106818,  0.011403876,  0.011682711,  0.013107629, -0.020049281, 
   0.000387349,  0.019024575,  0.012605302,  0.001689426, -0.002406673, 
  -0.048559193,  0.013962224, -0.038250674, -0.037342872, -0.048668403, 
   0.020896863, -0.076310687,  0.080270670,  0.015266959, -0.038122099, 
   0.009181385, -0.031306431, -0.039989021,  0.009404565, -0.052015223, 
  -0.042458046, -0.012000880,  0.012634994, -0.052714713,  0.040352244, 
   0.006350446,  0.008891392,  0.040615443, -0.080796979,  0.000946243, 
  -0.041241590, -0.063202627,  0.009150871,  0.020752750, -0.068342216, 
  -0.006804799, -0.025126683, -0.031398024, -0.037384152,  0.004065823, 
   0.030749794, -0.072892189,  0.016670985,  0.044053905, -0.064079836, 
  -0.014889176,  0.024396269,  0.012296462, -0.036831584, -0.056520365, 
  -0.072743773,  0.016209390,  0.009855023, -0.005586640,  0.037138630, 
   0.028837597,  0.029339770, -0.038359441, -0.069476217, -0.100097246, 
  -0.014417207, -0.009238303,  0.053554971,  0.005219375, -0.058118995, 
  -0.028965043, -0.004528879, -0.077325396, -0.021074941, -0.053686082, 
  -0.043431666,  0.030937435, -0.061076410,  0.016229328, -0.002446569, 
   0.054490395,  0.053328276,  0.063398764, -0.017681783,  0.007908868, 
  -0.030521702, -0.055368215,  0.006236777,  0.008011336, -0.086469762, 
  -0.029636877, -0.009580274, -0.033042960, -0.012894461, -0.055356618, 
  -0.032565381, -0.016015992,  0.035947766, -0.010621526, -0.002285162, 
   0.022246359,  0.025161160, -0.056030545, -0.007663739, -0.026157923, 
   0.019089306, -0.005891213,  0.030076632,  0.017148459, -0.010123702, 
   0.011526513, -0.026920058,  0.039658699,  0.013695702, -0.095543161, 
  -0.023193074, -0.071467943,  0.053993654,  0.032542318, -0.075457223, 
   0.050783694,  0.013388018, -0.078526191,  0.014559155, -0.012812168, 
  -0.038209110,  0.059944179, -0.044489954, -0.068451360,  0.051052488, 
   0.014518724,  0.105334833,  0.004616674, -0.084930822, -0.019897446, 
  -0.002444754, -0.044189531,  0.024248475,  0.006060126, -0.062024619, 
   0.005274570,  0.024100401, -0.075778805, -0.024611302, -0.031898391, 
  -0.023805114, -0.007509142,  0.055456128, -0.008134392, -0.085272610, 
  -0.062908985,  0.021214223, -0.051407784, -0.014474531, -0.052930921, 
  -0.014015025, -0.054892123,  0.045505334,  0.060811546,  0.023297155, 
   0.029007981,  0.039665990, -0.017341381, -0.045225397, -0.016673392, 
   0.025921829,  0.010487408,  0.043582238,  0.021635408, -0.012030523, 
  -0.016396832,  0.052712630, -0.078974284, -0.018040230,  0.024134936, 
  -0.015753316,  0.100298710, -0.061811730, -0.048065975,  0.040271670, 
   0.014637816,  0.040209133, -0.012370710, -0.049803182, -0.062945582, 
  -0.020259434, -0.012725182,  0.003839239,  0.037922181, -0.058319498, 
  -0.014869862, -0.039433807, -0.002167830,  0.030038819,  0.023826543, 
   0.026066592, -0.019727554, -0.001101427,  0.021595733, -0.088637419, 
  -0.032268476,  0.008478128, -0.065590501,  0.013719799,  0.018722987, 
  -0.028507153,  0.013203981, -0.000716479,  0.008815422,  0.051265191, 
  -0.029342754,  0.009272593, -0.053855132, -0.007406929, -0.010914715, 
  -0.005695798,  0.010061169,  0.052925151,  0.026882663, -0.042495102, 
  -0.003656041, -0.009645835, -0.007907325, -0.015872240,  0.010118500, 
  -0.029528743,  0.058118548, -0.093227416, -0.030009180,  0.024284495, 
   0.012339536,  0.080233335,  0.000865311, -0.080805473, -0.080225557, 
  -0.018891580,  0.034680687,  0.043355815, -0.016772099, -0.068982616, 
  -0.020615321,  0.030796302, -0.006162194, -0.022928063, -0.062778927, 
  -0.007226998,  0.026803307,  0.049146112,  0.040599905, -0.030812420, 
  -0.043771803, -0.028468218, -0.045077309, -0.012556125,  0.003025456, 
  -0.016491691,  0.020922326,  0.046812214,  0.025868401,  0.034818418, 
   0.024818016, -0.035393111, -0.086700946, -0.030573690, -0.001200470, 
   0.025727065, -0.004578243, -0.001064689,  0.031932455, -0.050684325, 
   0.039405536,  0.032636281, -0.047019638, -0.000790703, -0.073550135, 
  -0.016598267,  0.125262856, -0.009993398, -0.039498184,  0.072654463, 
  -0.084717996,  0.015726583, -0.006510526, -0.033035994, -0.063688554, 
  -0.004897004,  0.028444950, -0.000232148,  0.031563241, -0.032006681, 
   0.003067696,  0.004537997, -0.049582120,  0.056724530, -0.069008410, 
   0.029226493, -0.001364448,  0.062107686,  0.031179579, -0.070719749, 
   0.030198183,  0.024226427, -0.005360469, -0.008207298, -0.047381774, 
  -0.041320551,  0.027540468,  0.007885962,  0.007485515, -0.031312309, 
   0.014141838, -0.056885239, -0.038223624, -0.030936871, -0.045734290, 
  -0.022070512,  0.033818632,  0.055294078, -0.027769417, -0.008834490, 
   0.005211934,  0.007956881, -0.053975519,  0.060112651, -0.042872269, 
   0.042657103,  0.097008698,  0.015895622, -0.008366369,  0.089195892, 
  -0.103824750,  0.008423659, -0.012470825, -0.081678115, -0.069313668, 
   0.024248570,  0.044319548,  0.017430501,  0.032313511,  0.003411609, 
   0.018562846,  0.075658061, -0.079484582,  0.041307066, -0.067394607, 
   0.018454812,  0.052705567,  0.010425282, -0.016304532, -0.019465849, 
   0.033294719,  0.057297591, -0.023273829,  0.023244660, -0.037684366, 
   0.020902630,  0.048809223,  0.051252350, -0.008202396, -0.044172164, 
   0.008394093, -0.016743328, -0.020100420, -0.020309135, -0.029137110, 
  -0.006319219, -0.010003311,  0.006443337,  0.009816594,  0.011383185, 
   0.006953218,  0.078298859, -0.065863118, -0.015541288, -0.025813192, 
   0.004452913,  0.058168642, -0.030682808,  0.012000383,  0.030302087, 
  -0.084819816,  0.001366547,  0.023093183, -0.069569081, -0.008334300, 
  -0.018537037, -0.009490378, -0.008301373,  0.031138726,  0.011031027, 
   0.034852456,  0.025584146, -0.010773670,  0.048392478, -0.070272721, 
  -0.040764701,  0.037792649,  0.005271874, -0.013446476, -0.047249880, 
  -0.029955152,  0.080642082, -0.038430527,  0.046515845, -0.050491568, 
   0.026281025,  0.037089873,  0.012965131,  0.013493261,  0.023233490, 
   0.007379103, -0.012884534, -0.087677605,  0.068922006, -0.004470022, 
   0.024355873, -0.016128372, -0.048540536, -0.043580435,  0.039170034, 
  -0.028966604,  0.063082762, -0.089702792,  0.008220904, -0.076465569, 
   0.014954221,  0.037919462, -0.031277608, -0.016499018,  0.056305323, 
  -0.098191187,  0.017429883,  0.032783475,  0.012787695, -0.050946310, 
   0.001407545,  0.044605725,  0.009114805, -0.001546673, -0.027325276, 
   0.025981151,  0.000897641, -0.009684153,  0.032105882, -0.083538711, 
  -0.026977027,  0.008380367, -0.008282351,  0.056311164,  0.040755607, 
   0.055724755,  0.079177186, -0.089829035,  0.020026490, -0.073078811, 
  -0.029496485, -0.021133343,  0.038557332,  0.008301130, -0.050835390, 
  -0.019099383, -0.008588273, -0.046756968,  0.060909741, -0.022713829, 
  -0.008005852, -0.009914921, -0.027015474, -0.070888601,  0.002555177, 
   0.012415224,  0.076910533, -0.071354315,  0.059783962, -0.077666432, 
  -0.023045933,  0.080676630,  0.024018293,  0.033625543,  0.047111835, 
  -0.067421407, -0.020125549, -0.045825358, -0.056701068, -0.029544434, 
  -0.006258858, -0.022765353,  0.000404410, -0.012528661,  0.009321379, 
  -0.025890106,  0.010916667, -0.053743299,  0.029031869, -0.091347910, 
  -0.034278072, -0.003887375,  0.024722114,  0.026044713,  0.013340749, 
  -0.011982490,  0.058839675, -0.076930895,  0.051294390, -0.092491403, 
  -0.004946396, -0.021736719, -0.005379988, -0.007883893, -0.039778374, 
   0.044322360, -0.034042589, -0.087081365, -0.010212614, -0.040365219, 
  -0.049624629,  0.036953624, -0.037935160, -0.048351064,  0.041079443, 
   0.016123919,  0.050917957, -0.043713972,  0.009406743, -0.034589443, 
   0.023732170,  0.035399586,  0.015969586,  0.027425261,  0.006152551, 
  -0.054351334, -0.059698913, -0.063905351, -0.028339084, -0.079250798, 
  -0.029725263,  0.043586791,  0.043914855,  0.035650771, -0.019490028, 
   0.031607781,  0.053428471, -0.053810645,  0.040129658, -0.086440481, 
  -0.000054041, -0.002095420,  0.003424969, -0.005551000,  0.038436614, 
  -0.020008165,  0.070315801, -0.103397571, -0.000200541, -0.092549965, 
  -0.020843318,  0.025495486,  0.042725701, -0.007021874,  0.015390694, 
   0.047591880,  0.035098389, -0.060884774,  0.067647070, -0.058820706, 
  -0.003662167,  0.033628106, -0.102690965, -0.024065807,  0.069748327, 
   0.044122305,  0.124194168, -0.110380322,  0.006333586, -0.044178270, 
   0.022814518,  0.065065458,  0.030694714, -0.011318427,  0.058168482, 
  -0.038711499,  0.000423795, -0.024316601, -0.057372283, -0.019759472, 
  -0.057065144, -0.012437901,  0.001116421, -0.028888315,  0.063735023, 
  -0.042339627,  0.025060220, -0.025831614, -0.018451175, -0.052879490, 
  -0.043214247,  0.025841109,  0.028456017,  0.020034287,  0.011851071, 
   0.014136971,  0.031450391, -0.033624899,  0.019383216, -0.005204200, 
   0.035001703, -0.036557809,  0.010078274,  0.001002556,  0.022997789, 
   0.002347034,  0.011475871, -0.088617548, -0.014911895, -0.084807433, 
  -0.058409866,  0.077645637, -0.059176531, -0.107693285, -0.009180422, 
  -0.031250332,  0.037199698, -0.107909895, -0.004075799, -0.041376434, 
   0.002106912, -0.011660154,  0.010047933,  0.031464741,  0.036172591, 
  -0.008454034,  0.008521017, -0.064317249, -0.043389238, -0.043217190, 
   0.020032506,  0.043064889,  0.039672695, -0.029071849,  0.039512161, 
  -0.026737425,  0.082729518, -0.103072524,  0.012785095, -0.078747451, 
  -0.027647628,  0.039356150, -0.062770501,  0.016859202, -0.001811342, 
  -0.034236316,  0.019670650, -0.072203696,  0.057947025, -0.030274341, 
   0.014548752,  0.026604937,  0.035364915,  0.011823185,  0.014703719, 
  -0.003436961,  0.067239881, -0.084343590,  0.000019829, -0.059709359, 
  -0.056040406,  0.095062576, -0.081990577, -0.083784267, -0.012022123, 
   0.046554960,  0.059671015, -0.026554517, -0.003217678, -0.028724575, 
  -0.008333883,  0.040415332,  0.020249054,  0.003628050,  0.018431868, 
  -0.001455632,  0.007621738, -0.103778198, -0.014236723,  0.009244767, 
   0.023570962,  0.021820726, -0.037536569, -0.029890118,  0.048116989, 
   0.010997481,  0.028044604, -0.048696250,  0.024163617, -0.085449502, 
   0.030881295,  0.065874122,  0.011113280,  0.010695731, -0.002201252, 
   0.004824841,  0.013117330, -0.117154181,  0.001604947, -0.028312519, 
   0.035564698,  0.021168910,  0.038111586,  0.017747942,  0.024905577, 
  -0.032514524,  0.037853595, -0.032472383,  0.009632971,  0.014999540, 
  -0.056718171,  0.044751544, -0.051823128, -0.007622965,  0.078429773, 
   0.010553195, -0.035313725,  0.002108208, -0.074434638, -0.078832656, 
  -0.033972621, -0.027235333,  0.001382282,  0.015806543,  0.029853079, 
   0.021457080,  0.021480007, -0.056642912, -0.011161268,  0.008376966, 
  -0.014235887,  0.021215837, -0.010030922, -0.051821806,  0.038869105, 
  -0.028240059,  0.060958389, -0.106071092,  0.019667426, -0.099672422, 
   0.003588540,  0.051219344, -0.046565361, -0.010032720,  0.034376148, 
   0.015117354,  0.084347062, -0.086974241,  0.001053795, -0.031387955, 
   0.013130635,  0.000169815, -0.001398154, -0.009459987,  0.027367378, 
   0.021959847,  0.057435490, -0.013081063, -0.021838553, -0.010747785, 
  -0.079802357,  0.052785635, -0.034529593, -0.066195086,  0.060745567, 
   0.064608283, -0.054837529, -0.006772236, -0.048852380, -0.076618373, 
   0.002304852,  0.021386065, -0.009526655,  0.028508710,  0.032389112, 
   0.018031379,  0.015335390, -0.007447087,  0.037336551, -0.022609560, 
  -0.003308755,  0.048302718, -0.014357150, -0.032830525,  0.020248136, 
   0.038531963,  0.036195464, -0.084084168,  0.024406722, -0.055068262, 
  -0.042105149, -0.022874700, -0.053333085, -0.025284795,  0.076251678, 
   0.023150628,  0.058157504, -0.069001466,  0.004385559, -0.054645702, 
  -0.048093304,  0.027532274,  0.029056400, -0.007316482,  0.011408362, 
  -0.038538758,  0.050560378, -0.052771054,  0.001283759, -0.082965992, 
  -0.088078246,  0.001404388,  0.026533417,  0.020881733, -0.006432535, 
   0.032496326, -0.067753948, -0.028366614, -0.058104105, -0.021532275, 
  -0.028778009,  0.073115215,  0.054962330, -0.042020503, -0.026330350, 
   0.003524849,  0.002179333,  0.007889321, -0.013514180, -0.034442849, 
  -0.089807674,  0.001781522, -0.079934910, -0.006179436,  0.058488812, 
   0.058895469,  0.043020535, -0.061673038, -0.009350487, -0.102514818, 
  -0.006305559,  0.016590800, -0.039596431, -0.085487254,  0.042867888, 
   0.011736370,  0.048855674, -0.035796862,  0.037154224, -0.048495460, 
  -0.014936085,  0.036955886,  0.002075482, -0.071166493,  0.010647644, 
   0.029540448,  0.069789141, -0.046843305,  0.018807154, -0.085830502, 
  -0.043660633, -0.013928695,  0.029891318,  0.023840921,  0.020982832, 
   0.065049261, -0.045632020,  0.008422748,  0.006019942,  0.030647801, 
  -0.066777416,  0.044470284,  0.016669611, -0.025353858,  0.068500645, 
  -0.015136049,  0.033433340, -0.035256583, -0.060852528, -0.067579202, 
  -0.031027231, -0.098452680,  0.005585274, -0.059357129, -0.007804518, 
   0.077672966,  0.018078122, -0.071796991, -0.007728964, -0.064290494, 
  -0.068505652, -0.045928951, -0.049246237,  0.004677627,  0.043001223, 
   0.037379384,  0.029404933, -0.038272545, -0.027378855, -0.045332789, 
  -0.015562155,  0.020461565, -0.052351300, -0.032237645, -0.001516249, 
   0.042958770, -0.024042001, -0.093445063,  0.023858115, -0.065298639, 
  -0.068919793, -0.011580644,  0.039854575, -0.017483238, -0.065441407, 
   0.033746108, -0.047479048,  0.033118814, -0.043347493,  0.001712515, 
  -0.055576578, -0.029044062,  0.047035724, -0.027284365, -0.035462651, 
   0.081226662,  0.015760893,  0.063602604, -0.048272915, -0.011944233, 
  -0.051208034, -0.010417803,  0.070645534,  0.026753882, -0.040233247, 
  -0.011437162, -0.011840438,  0.026131958, -0.014105939, -0.010819558, 
  -0.033926845, -0.025791377,  0.058879707,  0.054124448, -0.064737394, 
  -0.041959710, -0.061956622,  0.044646092, -0.041240886, -0.020825105, 
  -0.073510565,  0.015465756,  0.021206470,  0.010242155, -0.023831723, 
   0.054483447, -0.032690175, -0.003519379, -0.086233169, -0.023066850, 
  -0.079338305,  0.015622994,  0.020631094,  0.047019850,  0.006726780, 
   0.040574744, -0.034688380,  0.048513196, -0.094497360, -0.028809698, 
  -0.014843646,  0.026319990,  0.042628624, -0.047871642, -0.062385563, 
   0.038736276, -0.027763741, -0.008841433, -0.049300969,  0.005203575, 
  -0.067088380, -0.008364153,  0.042980440,  0.090642631, -0.022896096, 
  -0.063810758, -0.058990337,  0.046114359, -0.082863860, -0.062221650, 
  -0.071407594, -0.039696399, -0.015398717,  0.082044847, -0.043850549, 
  -0.030592542, -0.036031954, -0.017229252, -0.046872273, -0.016386500, 
  -0.075864770,  0.013038514,  0.019129630, -0.025226792,  0.004817111, 
   0.078085952, -0.050649311, -0.007572775, -0.063603468, -0.018445022, 
  -0.060795307,  0.010485448,  0.020994358,  0.023723839, -0.022751240, 
   0.043880071, -0.038253509,  0.058349442, -0.035699576, -0.039336707, 
  -0.063587978,  0.014101548,  0.020334199,  0.007810070, -0.066943750, 
   0.044178423,  0.014691150, -0.004924526, -0.001092619,  0.036384616, 
  -0.020850200, -0.022408694,  0.019416938,  0.085203439, -0.022363469, 
  -0.011243525, -0.015124328, -0.025148809, -0.002673141, -0.042988077, 
  -0.046129681, -0.051710334,  0.051736325,  0.085930988,  0.053365532, 
  -0.117720291,  0.006729414,  0.033029288,  0.004741588, -0.103313215, 
  -0.094527438, -0.042485788, -0.010975503,  0.038018774, -0.061886501, 
   0.038545106, -0.010591443,  0.009108562, -0.036697261, -0.020231949, 
  -0.085261285,  0.015658118,  0.054313209,  0.009159507,  0.010696721, 
  -0.008971870, -0.046625342,  0.021853548, -0.059149724, -0.032363240, 
  -0.086192735,  0.042563617, -0.026713490, -0.037925243, -0.033641562, 
   0.071860090, -0.003719996,  0.025032714, -0.038469851,  0.016981617, 
  -0.019505158, -0.024885809,  0.059762578,  0.058572832,  0.026491519, 
  -0.023024660, -0.031688899,  0.029668950,  0.008425935, -0.077955984, 
  -0.068554252, -0.051114429, -0.017736625,  0.077842399,  0.040738381, 
  -0.093732499,  0.018645383,  0.040860765, -0.023855126, -0.090315185, 
  -0.042659454, -0.004125819,  0.051676065, -0.006193464, -0.004654512, 
  -0.044352200, -0.012550468,  0.009605079, -0.096809052, -0.052433882, 
  -0.042438649, -0.046224259,  0.060148038,  0.076793693,  0.005319190, 
   0.043671630,  0.007825003,  0.047314722, -0.006762906, -0.080303654, 
  -0.023874823,  0.020790327,  0.025325473, -0.058670439, -0.023772022, 
   0.019513017, -0.003790377,  0.007560951, -0.043730818,  0.060810663, 
  -0.049779736, -0.053765796,  0.003220014,  0.043435801,  0.034951836, 
  -0.029335625, -0.061278809,  0.053940732,  0.004668053, -0.006832504, 
  -0.044996619, -0.038927499,  0.014330298,  0.037794415, -0.016311757, 
  -0.052063953, -0.053028408,  0.020835400,  0.015689433, -0.073954172, 
  -0.057572011,  0.033459041, -0.020841271,  0.043799575,  0.004506479, 
  -0.051110867, -0.022765217,  0.053149175, -0.037551787, -0.044490989, 
  -0.038036931, -0.009006148,  0.001962635, -0.013765757, -0.001040422, 
   0.010027421, -0.018406216,  0.006813417, -0.037950359,  0.000378060, 
  -0.036596682, -0.027331499,  0.004050211, -0.058182966, -0.018670054, 
   0.060979590,  0.018862138, -0.020905960, -0.050050545,  0.056548338, 
   0.023978591, -0.062969446, -0.007849605, -0.008295074,  0.038081445, 
  -0.040569965, -0.048841216,  0.027067468,  0.007137648, -0.059956409, 
  -0.001432754, -0.011544904, -0.021097906,  0.059631988,  0.002292747, 
  -0.059494309, -0.012663759,  0.061602898,  0.033783901, -0.013527378, 
  -0.042578682,  0.022612644, -0.028676765, -0.010778994,  0.024047527, 
   0.007189535, -0.014517151,  0.051375996, -0.017113509, -0.093253031, 
   0.001615100, -0.082959160,  0.056029093,  0.053909924, -0.062606789, 
  -0.018312337, -0.020262985,  0.007994941,  0.002438480, -0.058222871, 
  -0.098049670,  0.002142377, -0.053612057, -0.074595213,  0.011575917, 
   0.070988066,  0.019123083,  0.038869038, -0.071967177, -0.004665638, 
  -0.012795228, -0.073309891,  0.066210441,  0.015639499,  0.010103930, 
   0.034450609, -0.002722764, -0.023450639, -0.042742003, -0.036652621, 
  -0.004570203, -0.005756041,  0.059525169,  0.035596155, -0.026505675, 
  -0.017447665,  0.029786851, -0.016211383,  0.030561581,  0.007010544, 
  -0.062857389, -0.029971626,  0.020196561, -0.006530594,  0.030871319, 
  -0.027578300, -0.012894765,  0.006992686,  0.014006983, -0.096027367, 
   0.001617409, -0.078090429,  0.025812356,  0.026474433, -0.064877331, 
   0.013745354,  0.002438127, -0.015965959,  0.050302405, -0.048394781, 
  -0.059369661,  0.043782700, -0.069930471, -0.080457300,  0.058010247, 
   0.081397928,  0.060491197, -0.008811504, -0.052279528, -0.006025576, 
   0.026879940,  0.006859001,  0.013722335,  0.052063614, -0.017219678, 
   0.016117709, -0.046474736, -0.041845519, -0.032261197,  0.021155303, 
   0.018927371, -0.059757113, -0.016729755,  0.021914929, -0.044041876, 
  -0.037062410, -0.017584175,  0.020622529,  0.029648852, -0.013170198, 
  -0.008027454, -0.005240332, -0.013062723,  0.026578866,  0.014951726, 
   0.032242030,  0.017132085,  0.063232280, -0.020493921, -0.096117921, 
  -0.052235018, -0.061400507,  0.017781643,  0.016508853, -0.037349377, 
  -0.011242623, -0.030240191, -0.048514694,  0.031178879, -0.023745701, 
  -0.096969202,  0.047745004, -0.043134369, -0.122712798,  0.109735578, 
   0.008482264,  0.035826966,  0.050666276, -0.055392612, -0.049438741, 
   0.013014853, -0.014493589,  0.005732491,  0.029106263, -0.056711379, 
  -0.044369977, -0.032837130, -0.037245803,  0.021665903, -0.035912376, 
  -0.011498572, -0.026713785,  0.058338132, -0.014249042, -0.017494850, 
  -0.033752266, -0.020359935, -0.000222196,  0.030018795,  0.017586963, 
   0.012300726, -0.011772900, -0.011630375,  0.026903540,  0.070206061, 
  -0.026868749, -0.000618048,  0.003976364, -0.072759666, -0.079208605, 
   0.040883593, -0.020126548,  0.013644967,  0.057364255, -0.016871678, 
   0.009012405,  0.000099428, -0.075371481,  0.017983476,  0.013089476, 
  -0.047479976,  0.095663399, -0.052544139, -0.088662669,  0.056430366, 
  -0.011857853,  0.034208629,  0.041956365, -0.083306603, -0.125791147, 
  -0.007453658, -0.015193168, -0.015313305,  0.020831201, -0.052748926, 
   0.024730876,  0.014640859, -0.008730221,  0.009293731,  0.018881734, 
   0.005369291, -0.013767222, -0.005416325,  0.036602024, -0.002054652, 
  -0.027193611, -0.005454133, -0.011989620,  0.035756346, -0.023358438, 
  -0.029530384, -0.027816040,  0.015349638,  0.034248188,  0.031306654, 
   0.042289730,  0.035437226,  0.071494162, -0.006567622, -0.024531795, 
  -0.032000910, -0.002492111,  0.020007728,  0.031594653, -0.079711437, 
   0.009915622,  0.007470910, -0.065616272,  0.015703784, -0.015306588, 
  -0.048677269,  0.100595482, -0.091608815, -0.037687559,  0.095168211, 
  -0.032522306,  0.035847548,  0.020374615, -0.114451624, -0.088520199, 
   0.018159499, -0.054851025, -0.003739461,  0.056213114, -0.003198038, 
  -0.015783664,  0.016418839, -0.019121703,  0.068081528,  0.002647003, 
  -0.028687641, -0.049440857,  0.010189828,  0.037567638, -0.026438503, 
  -0.017066754,  0.040772252, -0.047031991,  0.001555844, -0.014093930, 
   0.012801353,  0.005006671,  0.046335459, -0.015669098,  0.036236871, 
  -0.014866257,  0.007623233,  0.052488592, -0.003540342,  0.014232277, 
   0.042637594, -0.000499648, -0.000259688,  0.009819395,  0.016469767, 
  -0.004201294,  0.023911726, -0.040658493,  0.025238588, -0.047018904, 
  -0.048191737,  0.111183941, -0.047521811, -0.063907310,  0.119603842, 
  -0.078092419,  0.001243322,  0.005816194, -0.135635227, -0.138134241, 
   0.048411343,  0.011824674,  0.039574627,  0.016591510, -0.024905700, 
   0.019797979,  0.022568980, -0.082479507,  0.070247576, -0.021422654, 
  -0.011190340,  0.042738274,  0.024163460,  0.020435415, -0.019303011, 
   0.009367242, -0.018764611,  0.000116944,  0.027531862, -0.047248214, 
  -0.029169997, -0.012532528, -0.003667193,  0.008126959, -0.029447336, 
   0.008534525, -0.022242449,  0.003277990, -0.061693650,  0.001290542, 
  -0.037784338, -0.004855294, -0.008259892, -0.031424787, -0.043834157, 
  -0.027097940,  0.049129080, -0.031890731,  0.027118748,  0.055294506, 
   0.041701172,  0.125350341, -0.025866874, -0.019361101,  0.084881552, 
  -0.126716167,  0.025627617,  0.014212477, -0.122103289, -0.144342020, 
   0.034198828, -0.012772454,  0.073470347,  0.016808135,  0.002616600, 
   0.037205644, -0.018795427, -0.065953530, -0.014522418, -0.028692523, 
  -0.000764142,  0.028260667,  0.061591253,  0.040338382,  0.008668426, 
  -0.002055437, -0.013821634, -0.056073047,  0.049188495,  0.008183325, 
  -0.014445467,  0.027109558,  0.042789459, -0.004278004, -0.046705376, 
  -0.030991707,  0.016694775, -0.043326516, -0.057411276,  0.034497563, 
  -0.030377891, -0.013989417, -0.034167685, -0.002006412,  0.024454230, 
  -0.044714417,  0.054445013, -0.080196410,  0.052256655,  0.001009851, 
  -0.027739352,  0.029092705, -0.037950993,  0.014323330,  0.132308006, 
  -0.171099901, -0.063370459, -0.040616922, -0.043125842, -0.076379970, 
   0.011186810,  0.011375912, -0.001317008, -0.009941792, -0.001592880, 
  -0.031927764,  0.051616367, -0.043278862,  0.007060347, -0.030476209, 
  -0.030564522, -0.032066248,  0.053719532,  0.028766545,  0.007100963, 
   0.006546356,  0.044754900, -0.093204916, -0.016366491,  0.002990995, 
   0.032153022, -0.003344072,  0.041720297,  0.057277657, -0.001246529, 
  -0.032484390, -0.008534798, -0.050907403,  0.002293929,  0.032434285, 
  -0.025952745,  0.029975809, -0.098843530,  0.008333721,  0.008265085, 
  -0.021808416,  0.108990937, -0.070447780,  0.004683204, -0.003911566, 
   0.005193975,  0.099859752,  0.028471280,  0.024671111,  0.116328865, 
  -0.083106220, -0.054762438, -0.044290550, -0.075793549, -0.004454987, 
   0.003844420,  0.019079957,  0.044035625,  0.023718193,  0.026034722, 
  -0.029289991,  0.022767147, -0.079927124,  0.061572142, -0.019821091, 
  -0.038026188,  0.005616026,  0.052777063, -0.018867837, -0.055188805, 
   0.008804932,  0.000991514, -0.036979932,  0.056669142,  0.041720681, 
   0.007592067, -0.007432476, -0.008462562,  0.042520124,  0.007182040, 
   0.036498323,  0.005023815, -0.076722726, -0.006326014,  0.009349660, 
   0.037886467,  0.035506628, -0.074463665, -0.084179692,  0.061282113, 
  -0.035041243,  0.100093625, -0.036057949, -0.026070686,  0.013499499, 
   0.054943021,  0.044356167,  0.008064261, -0.016244367,  0.057700433, 
  -0.124300979, -0.031682562,  0.011949388, -0.011973637,  0.005564994, 
  -0.015987284, -0.001975578,  0.046898559, -0.009482465,  0.033795856, 
   0.020449219,  0.027851162, -0.094412334, -0.009524421, -0.021232335, 
   0.056507260,  0.020363264, -0.023168998, -0.002878446, -0.040947624, 
   0.001332439,  0.074639313, -0.105248518, -0.022857666,  0.000180637, 
  -0.020848010,  0.032838009,  0.008233349,  0.012127298, -0.021071304, 
  -0.010654823, -0.035340007, -0.009250370,  0.006915466,  0.030189013, 
  -0.029073875,  0.076539561, -0.049694326, -0.057933941,  0.084048994, 
   0.016088340,  0.059632964, -0.099239349, -0.055708136,  0.020309892, 
   0.031628918,  0.038434375,  0.029386256,  0.064594157,  0.049035288, 
  -0.077931739, -0.096116289, -0.050213866,  0.026743580,  0.012439764, 
  -0.011245505,  0.035045367,  0.022882167,  0.043557178,  0.015743721, 
   0.029379163, -0.012904106, -0.070192799, -0.001178412, -0.002474902, 
   0.054801617, -0.037987307, -0.027680403,  0.033983402,  0.006453770, 
   0.014302122,  0.006250917, -0.104484655,  0.005018152, -0.019146672, 
   0.062432244, -0.017804770,  0.005258611, -0.005790482, -0.046318900, 
   0.005695380,  0.027205713, -0.014232008,  0.045326751, -0.007679284, 
  -0.048882566,  0.093672566, -0.101328947, -0.053919423,  0.028895661, 
   0.031185053,  0.052188259, -0.069425769, -0.064916417, -0.068218626, 
  -0.013695918,  0.077402063,  0.038284238,  0.036531158,  0.030951148, 
  -0.025440579, -0.094193138, -0.042183187, -0.053615965, -0.009474676, 
   0.030477485,  0.028982630, -0.017501531, -0.034982491, -0.000372826, 
  -0.029140551,  0.026717441, -0.098346949,  0.046625994,  0.005851844, 
   0.007184069,  0.015307682, -0.005391864,  0.018636517,  0.024560800, 
   0.004169893,  0.024248086, -0.023739453, -0.015897527, -0.011658090, 
   0.054845430, -0.004806823,  0.051528111, -0.003856772, -0.008595402, 
  -0.026657989, -0.034972295, -0.017129995,  0.005531037,  0.045558721, 
  -0.071881168,  0.034422427, -0.067001186, -0.028169515,  0.085340232, 
  -0.003125462, -0.021205951, -0.009532300, -0.050103802, -0.097998507, 
   0.026179710, -0.008839052,  0.021978455,  0.035875134,  0.041455932, 
  -0.040336873, -0.062774360, -0.002218544, -0.021677595, -0.027233150, 
   0.015399513,  0.056477617, -0.006822093, -0.050840635,  0.061369266, 
   0.030613875,  0.041276641, -0.046503134, -0.014953053,  0.004607175, 
  -0.005425428,  0.049147584, -0.052537873, -0.051791988, -0.017776649, 
   0.032178733, -0.006644616, -0.045267463, -0.000644417, -0.041201018, 
   0.052343570, -0.026835484,  0.013053639,  0.065492675, -0.007189821, 
   0.004931131, -0.040600181, -0.031247916,  0.037835222, -0.023606574, 
  -0.033513427,  0.105267294, -0.055177882, -0.006200560,  0.083875075, 
  -0.011055120, -0.048026543, -0.024889788, -0.047113843, -0.091729991, 
  -0.005993842, -0.003896676,  0.063361339,  0.035741773,  0.018606408, 
  -0.016419359, -0.009692302, -0.006349693,  0.034967426,  0.053152211, 
  -0.010012918,  0.035645224, -0.002956663, -0.011906432,  0.027900750, 
   0.027953003,  0.019198434, -0.064783633,  0.029506657, -0.054054130, 
   0.031208452,  0.031724278,  0.028396694, -0.010623910,  0.052284785, 
   0.013420766,  0.029922483, -0.034571007,  0.036174260, -0.038736179, 
   0.027717505, -0.018161098,  0.024118744,  0.002242760,  0.013510554, 
  -0.004795787,  0.001408065, -0.042187747,  0.004134154, -0.011099554, 
  -0.086789325,  0.066450834, -0.035104606, -0.006994789,  0.084568776, 
   0.065408677, -0.045539867,  0.006534783, -0.044114552, -0.125892788, 
   0.001557723,  0.030328918,  0.055165388,  0.017929062,  0.009941629, 
   0.005823942, -0.052958578, -0.048289780,  0.011801936,  0.049167797, 
   0.025312074, -0.031445552,  0.016604131, -0.022905938,  0.018378889, 
   0.017256476,  0.014194334, -0.088537149, -0.019327028, -0.032614525, 
   0.032691825,  0.060243294, -0.039969843, -0.067599595,  0.055700194, 
   0.027798070,  0.049318783, -0.095316127,  0.012758803, -0.064553611, 
   0.006890110,  0.001843413,  0.035388481,  0.035073891, -0.009611386, 
   0.031122938,  0.000891630, -0.090970770, -0.022907212, -0.000859612, 
  -0.050261423,  0.016635958, -0.073963858, -0.010934398,  0.048216756, 
   0.057902053, -0.091467828, -0.023650583, -0.018954461, -0.044770721, 
   0.028527465,  0.042236648,  0.066968642,  0.046206404,  0.000932851, 
  -0.092201948, -0.050835058,  0.023098234,  0.029600350, -0.036178160, 
   0.021773733,  0.000340425, -0.047217112, -0.009984329,  0.043030851, 
   0.020355288,  0.023514507, -0.078420371, -0.026462482, -0.024345452, 
   0.020706428,  0.038469624, -0.045308180, -0.058230691,  0.081979729, 
  -0.024211369,  0.059376810, -0.022149751, -0.019300377, -0.030515464, 
  -0.003084331, -0.002647756,  0.008047877, -0.003782589,  0.000552700, 
   0.004831959,  0.031919058, -0.005585281,  0.022091933, -0.014814641, 
  -0.094755583, -0.047190607,  0.010755198,  0.016058749,  0.038253579, 
   0.042795405, -0.030821178, -0.032822553, -0.051002532, -0.057066310, 
  -0.002805491,  0.023057045,  0.052188799,  0.025209630,  0.014340487, 
  -0.006615893,  0.022482552, -0.025106672, -0.025748190,  0.001056629, 
  -0.058424685, -0.035625644, -0.086894050, -0.023204563,  0.007108777, 
   0.039495494,  0.006835551, -0.089248702,  0.022093954, -0.047531091, 
  -0.048107479, -0.016441427, -0.020606332, -0.071226873,  0.042293672, 
  -0.011976473,  0.014569215, -0.054899137, -0.002960723, -0.035865460, 
   0.016973346, -0.010638690, -0.013948170, -0.051901408,  0.072131291, 
  -0.021314297,  0.044163313, -0.047841955,  0.016926514, -0.022938067, 
  -0.046941467, -0.067920804, -0.014867700, -0.023547847, -0.030289035, 
   0.081429020, -0.050411154, -0.026903821,  0.014977764, -0.005654779, 
   0.024476178,  0.029868146, -0.026798937, -0.005218067,  0.045340993, 
   0.014097622,  0.002909688, -0.053983513, -0.014912108, -0.077829957, 
  -0.109146670, -0.098311551, -0.036817692,  0.006409644, -0.043914583, 
   0.026570953,  0.032369893, -0.099856697, -0.016682159, -0.101070009, 
  -0.097261429, -0.107486993, -0.043758612, -0.077634245,  0.029289242, 
   0.036669597,  0.020065930, -0.113484085,  0.013862894, -0.067380607, 
  -0.022489116, -0.071197107, -0.083178923, -0.061338976,  0.035030678, 
   0.016143460, -0.026634382, -0.069462672,  0.034513529, -0.057534132, 
  -0.088527650, -0.040750958,  0.018413439, -0.026024053, -0.062874220, 
   0.059777442, -0.018465033, -0.005525575, -0.005925923, -0.031857688, 
  -0.060432825,  0.019311698,  0.039447278,  0.011817560, -0.037826858, 
   0.083587363, -0.002952297,  0.021831278, -0.021934388,  0.015449126, 
  -0.056573231, -0.016664775,  0.045723889,  0.069623061, -0.023216784, 
   0.003346502, -0.036450755,  0.001474389, -0.057234112, -0.073081948, 
  -0.082485110,  0.018241400,  0.039651670,  0.014053817, -0.030736089, 
   0.004177996, -0.051802933,  0.030295681, -0.089373134, -0.039590035, 
  -0.076973893, -0.040769175, -0.011338626, -0.051949516, -0.007294204, 
   0.016467731,  0.013367687,  0.059126753, -0.082066886, -0.008051555, 
  -0.043096315, -0.006743356,  0.029510763,  0.031031007,  0.028773576, 
   0.005466947, -0.031943291,  0.069757640, -0.039064407, -0.055104215, 
  -0.070806548,  0.021923136, -0.001642532,  0.010664459,  0.024681717, 
   0.095082708, -0.012321712, -0.028234677, -0.041793697, -0.029972790, 
  -0.052658323,  0.001675923,  0.039074685,  0.052247461, -0.001256339, 
  -0.081714667, -0.056060538,  0.030324832, -0.067997098, -0.081691839, 
  -0.033700876,  0.008009159,  0.018110579,  0.031954523, -0.023708655, 
  -0.096206822, -0.088962063,  0.079220869, -0.006954782, -0.060102087, 
  -0.073213406,  0.033444691,  0.056666721, -0.039465722, -0.004853352, 
   0.050536361,  0.015959796,  0.033242479, -0.025144361, -0.026718043, 
  -0.004502754, -0.063076846,  0.022605969,  0.043033723, -0.018114924, 
   0.033702508, -0.043928199,  0.049940038, -0.053210385, -0.041525785, 
  -0.027367558,  0.027781490, -0.021434544,  0.016522085, -0.028869240, 
   0.097064078,  0.016982082,  0.002366497, -0.058830913,  0.060358662, 
  -0.075503714,  0.016318293,  0.035979245,  0.027072379,  0.045452990, 
  -0.106437281, -0.066705875,  0.043452665, -0.041928891, -0.072535001, 
  -0.040369786, -0.064481214,  0.035242241,  0.033546440,  0.024618752, 
  -0.041816466, -0.018227270,  0.047443602,  0.013991755, -0.056395881, 
  -0.072695054, -0.007990133, -0.055111300,  0.004904180, -0.019673225, 
   0.013587683,  0.014573881,  0.022966349, -0.085838832, -0.008350593, 
  -0.024583925, -0.014843074,  0.060637176,  0.016683485, -0.012891338, 
  -0.055520963, -0.059681840, -0.005035774, -0.021606129, -0.039950434, 
  -0.073216699,  0.052631021, -0.030632928, -0.025581658, -0.036264379, 
   0.035563949, -0.004236469,  0.024185833, -0.014381205,  0.003184554, 
  -0.014685857,  0.016295332,  0.054577999,  0.076454736, -0.010907295, 
  -0.071191527, -0.005467973,  0.063678451, -0.029462133, -0.074973814, 
  -0.060837138, -0.057265792,  0.025239635,  0.049416620,  0.048594285, 
  -0.091009125,  0.012848482, -0.001083188,  0.025546858, -0.098246463, 
  -0.077772722,  0.031995494, -0.039617267,  0.037360538,  0.029446313, 
  -0.037400957,  0.038554531, -0.021944387, -0.042805798, -0.097209267, 
   0.008408203, -0.055811260, -0.007913581,  0.015004741, -0.028692791, 
  -0.038630079, -0.020314243,  0.003761591, -0.027276544, -0.026090361, 
  -0.032234736, -0.001883964, -0.035620447, -0.021435784, -0.001791744, 
   0.079857513,  0.016805634, -0.009800970, -0.020059461, -0.014838184, 
   0.029577984,  0.008184019,  0.015066117, -0.021808269,  0.031040950, 
  -0.040300913, -0.082729898,  0.017128572,  0.004256120, -0.045485847, 
  -0.007008424, -0.041073672, -0.008501838,  0.024909658, -0.011155826, 
  -0.034539841, -0.028233085,  0.010122326, -0.007995456, -0.086307995, 
  -0.073322244, -0.008662618, -0.024778306,  0.012476266,  0.050023422, 
  -0.063126594,  0.015164468,  0.003206972, -0.080985159, -0.087620951, 
  -0.014724302, -0.082037613,  0.058008417,  0.037158199, -0.042335909, 
   0.042503498, -0.058254905,  0.051678747,  0.008354143,  0.015832631, 
  -0.084024407,  0.032326866, -0.046001490, -0.046386354, -0.008927139, 
   0.076557644,  0.084206283, -0.044885054, -0.077892713,  0.011428240, 
  -0.052553274, -0.002400026,  0.059451707,  0.031715713, -0.032316763, 
  -0.040014442, -0.050350960,  0.021627685, -0.034381080, -0.056296278, 
  -0.003144113, -0.050449081, -0.007759532,  0.030316334, -0.022067107, 
   0.029019350, -0.054257870,  0.041314956,  0.031203007, -0.070399836, 
  -0.009209225,  0.010442101,  0.021560416, -0.031733833, -0.000507923, 
  -0.013300342, -0.036488190,  0.057700105, -0.005320379, -0.127190650, 
  -0.075297937, -0.018939536,  0.035195217,  0.003044731, -0.076949544, 
  -0.013154287, -0.067195296,  0.005483946, -0.031327639, -0.033847339, 
  -0.022139689,  0.013085531, -0.081007905, -0.121864334,  0.036400422, 
   0.052727874,  0.070568003, -0.061388578, -0.048411172,  0.014000923, 
  -0.049777757, -0.005141936,  0.056033175,  0.005628153, -0.045856971, 
   0.011371403, -0.002825458, -0.004437461,  0.017091079, -0.008795504, 
  -0.044236474, -0.063798003, -0.018533416,  0.005920659,  0.012689427, 
   0.011818701, -0.040736347,  0.053776629, -0.028554043, -0.047335796, 
  -0.038018931,  0.018630750,  0.007812235,  0.028250769,  0.060529914, 
   0.020866662, -0.013842269,  0.075180896, -0.053353105, -0.079204023, 
  -0.046275374, -0.019578522,  0.023785369,  0.026501779, -0.077657782, 
   0.068398342, -0.023064116, -0.014638697,  0.000695663, -0.043055389, 
  -0.011439262,  0.047301538, -0.120572209, -0.107518166,  0.107905224, 
   0.105080001,  0.101355821,  0.003229437, -0.059996370, -0.029680012, 
  -0.017925426, -0.082008198,  0.028064985,  0.064917132,  0.000307188, 
   0.017714472, -0.001442432,  0.041188467, -0.013285130, -0.024856292, 
  -0.031774644, -0.044640731, -0.004797579,  0.040712327, -0.059981439, 
  -0.026434243, -0.040522795,  0.052545309,  0.033521574, -0.021697180, 
  -0.025079906, -0.020368908,  0.011745276,  0.019011140,  0.017414816, 
   0.008362838,  0.043348812,  0.081617840,  0.022556996, -0.071864784, 
   0.043618336, -0.034620378,  0.075675704,  0.020448262, -0.066897281, 
   0.058084495, -0.062209927, -0.000078220,  0.049858123, -0.002450392, 
  -0.034733765,  0.050412498, -0.055950679, -0.166612387,  0.125460938, 
   0.046214636,  0.095196508, -0.023654420, -0.051357348, -0.173108891, 
  -0.050106227, -0.030925767,  0.042163171,  0.044130757, -0.020103673, 
   0.031422399, -0.044436015,  0.032247204, -0.015421845, -0.036117237, 
  -0.000948643, -0.059849836,  0.073269926, -0.004262708, -0.055977978, 
   0.033691205, -0.002039695,  0.035906184,  0.027389599,  0.011735274, 
  -0.038776256, -0.048506413, -0.008303236,  0.017109513,  0.071960039, 
   0.050342765,  0.030234726,  0.042274088, -0.008095284, -0.037035767, 
  -0.030860538,  0.010152336,  0.063539021,  0.006077124, -0.029889377, 
   0.000310566,  0.005998283, -0.051338010,  0.053795062, -0.015986254, 
   0.003520201,  0.073199116, -0.077331692, -0.165940523,  0.130269065, 
   0.070074514,  0.048881944, -0.016666504, -0.157613158, -0.194564134, 
  -0.026862400, -0.012139458,  0.063061938,  0.033547025, -0.064808242, 
   0.012422703, -0.063628472, -0.000227797,  0.002365354, -0.046538915, 
   0.046660736, -0.016332500,  0.019716106, -0.005080288, -0.046514910, 
  -0.034495898, -0.059951153, -0.017729037,  0.043652281,  0.013020889, 
  -0.046334811, -0.035750780,  0.018556107, -0.024893545,  0.050052498, 
  -0.003803472,  0.027196940,  0.063247263,  0.017529558, -0.047114860, 
  -0.011663144, -0.044888742, -0.018180734, -0.040985133, -0.064042717, 
   0.015063370, -0.002018583, -0.086600900,  0.062591434,  0.059952568, 
  -0.060516685,  0.151271507, -0.015579211, -0.117210492,  0.142421156, 
   0.017586965,  0.050978925, -0.090176687, -0.140619949, -0.181596130, 
  -0.018775800, -0.064251080, -0.002636601,  0.000465491, -0.049091261, 
   0.000134543,  0.006838326, -0.047241915, -0.000484468,  0.013486615, 
   0.002030231,  0.014466492,  0.040992040, -0.020147366, -0.057584502, 
   0.046067268, -0.050133254, -0.003695413,  0.047983009, -0.030638695, 
   0.006602020, -0.017408153,  0.006942371,  0.059546221,  0.050130736, 
   0.012391325, -0.018873913,  0.053667296, -0.044193443, -0.051814239, 
   0.017639447,  0.013002357, -0.005069003, -0.054715749, -0.002007755, 
   0.007663269, -0.020501882, -0.058377847,  0.066694729,  0.042490054, 
  -0.009284499,  0.148474514, -0.041785035, -0.080325611,  0.105366282, 
  -0.101158395,  0.051988207, -0.013009336, -0.142802522, -0.188518927, 
   0.054215185, -0.014028772,  0.014237965,  0.037272204, -0.037307110, 
  -0.011644844, -0.029056160, -0.073430233, -0.020875661,  0.016499301, 
   0.035434473, -0.020397695,  0.023846826,  0.033105996, -0.005277932, 
   0.046124201,  0.028780121, -0.029907055,  0.014574509, -0.019425033, 
  -0.025138538, -0.030455973, -0.027024573, -0.010189260, -0.022579156, 
   0.017082220,  0.007516145,  0.007249172, -0.039900169, -0.061195984, 
   0.035358444, -0.018083330, -0.015495689, -0.044542570,  0.020520357, 
   0.012507302,  0.057379760, -0.066270091,  0.008372022,  0.023299795, 
  -0.010328169,  0.144329160,  0.002946201, -0.015094977,  0.155733258, 
  -0.194573745, -0.008157576, -0.034505211, -0.101203546, -0.141592860, 
   0.051153962,  0.020237882,  0.011737291,  0.023086047, -0.017042764, 
  -0.028303433, -0.044064857, -0.039876103,  0.061874431,  0.051263768, 
   0.017299287, -0.048050493,  0.000819207,  0.036432359, -0.001726570, 
   0.023474043,  0.043022215,  0.027396534,  0.032028247,  0.022857584, 
  -0.039282646, -0.002209425,  0.014713663,  0.002241749, -0.036629517, 
  -0.041159686, -0.050380647,  0.027648602, -0.002886148,  0.029888529, 
  -0.043848999,  0.004674309, -0.046501569, -0.060186181,  0.030897222, 
  -0.057185870,  0.071464993, -0.101810999,  0.052249204,  0.045413550, 
  -0.032395262,  0.051925223,  0.052092612,  0.020126294,  0.142654806, 
  -0.136632368,  0.010785799, -0.020064292, -0.110646576, -0.147090569, 
  -0.023061033,  0.023589095,  0.010844098,  0.012163474, -0.002138275, 
   0.041109953, -0.029325234, -0.053987138, -0.010480378,  0.016772630, 
   0.055638187,  0.021605227, -0.017682457, -0.010369860,  0.006741088, 
  -0.000357477,  0.044369914, -0.032986753,  0.042995345,  0.027823862, 
  -0.011145156, -0.018527923, -0.023771819, -0.024406755, -0.022438554, 
   0.031953976,  0.011391628,  0.023945678, -0.015793214,  0.032174088, 
   0.038395241, -0.018115541, -0.055954829, -0.010946775,  0.028130842, 
  -0.029131697,  0.103024721, -0.030370718,  0.003897323,  0.023128822, 
  -0.021343784,  0.095942073,  0.001365411,  0.080072172,  0.183369219, 
  -0.155468047, -0.014370392, -0.045854356, -0.047329411, -0.039632034, 
   0.041181661, -0.044657625, -0.018939987,  0.018035328, -0.044041980, 
  -0.009364378,  0.017457994, -0.061241232, -0.010954033,  0.057711359, 
  -0.018230185,  0.021524912, -0.027616855,  0.000788099, -0.013635158, 
   0.048813663, -0.021106562, -0.055470858,  0.012734095, -0.011566372, 
  -0.014461053,  0.010079333,  0.044637371,  0.016286727,  0.002789232, 
  -0.014027964, -0.013597503,  0.039602417,  0.010957921,  0.091817394, 
  -0.015497862,  0.106186293, -0.073958904, -0.010831214,  0.084516890, 
  -0.007751635,  0.060994238,  0.004851602, -0.043610543, -0.048071388, 
   0.019796763,  0.008016859,  0.016720690,  0.024150716,  0.096687220, 
  -0.176644430, -0.044076476, -0.006627154,  0.001776969,  0.013634402, 
   0.034487683, -0.035059318,  0.045947824,  0.007396946, -0.051948849, 
  -0.007707562, -0.024534795, -0.073078521,  0.035872571, -0.031207602, 
   0.011652401, -0.030530684,  0.000593846,  0.000230026, -0.017207459, 
   0.012411010, -0.031711310, -0.019626161,  0.014103408,  0.053281281, 
   0.049855046, -0.041026354, -0.033305109,  0.047855966, -0.039040957, 
  -0.038747706, -0.008669998,  0.047248621, -0.021799527,  0.029517325, 
   0.031035749,  0.087671973, -0.099874221, -0.068769053,  0.057257988, 
  -0.037905768,  0.002151947,  0.055117503, -0.069331028, -0.105472825, 
   0.060700584, -0.000081286,  0.018471558,  0.067482494,  0.046656955, 
  -0.137066051, -0.077243514,  0.004366496, -0.036466800, -0.038677674, 
   0.019031057,  0.022402534,  0.031528510,  0.070041992,  0.029941026, 
   0.013271610, -0.011835913, -0.017402956,  0.064007886,  0.037326753, 
   0.059053224, -0.028589420,  0.010225085, -0.004088499, -0.043491919, 
   0.007920085, -0.007730411,  0.026939562, -0.015518462,  0.047614470, 
   0.043750562,  0.014832349,  0.013938304,  0.006521528, -0.043100547, 
   0.000387724, -0.042187687, -0.024513828,  0.039018195,  0.005371902, 
  -0.014342301,  0.106759518, -0.081503861, -0.030868158,  0.049766473, 
  -0.032751657, -0.010699759,  0.040819049, -0.028366910, -0.146691203, 
   0.037304677,  0.045022521,  0.048810586,  0.051954400,  0.029662417, 
  -0.133008003, -0.091257870, -0.019309072,  0.005271461,  0.003490714, 
  -0.008476997,  0.000694331,  0.021608835,  0.013181485, -0.000993459, 
   0.017672854, -0.053276651, -0.022379963, -0.015386569, -0.044695821, 
   0.006914197, -0.017502263, -0.060557760,  0.018549703, -0.022378558, 
   0.033521123,  0.014374575,  0.026073206, -0.036337204, -0.025285887, 
   0.012966747, -0.032412168,  0.029332098,  0.014533023, -0.002985183, 
   0.039019655, -0.011001181,  0.011747349,  0.027093776,  0.005696263, 
  -0.010834650,  0.070443258, -0.080417737, -0.010644003,  0.108470894, 
  -0.017793765,  0.006494312,  0.002535722, -0.039265823, -0.145820662, 
  -0.010878455,  0.015642602,  0.037280779,  0.031930793,  0.052864712, 
  -0.099631555, -0.117477275, -0.034154203, -0.025056437, -0.003864183, 
   0.043196991, -0.036843568,  0.011152910, -0.025107840, -0.004018500, 
   0.002822315, -0.025263134, -0.016279856,  0.018413030, -0.038693413, 
   0.013773992,  0.048191931,  0.017547641,  0.040235311,  0.028047973, 
   0.043680571,  0.001521189, -0.034257520, -0.022282150, -0.022780534, 
   0.025914708,  0.032953225, -0.027733451,  0.060306299, -0.051560115, 
  -0.021548117, -0.031613201, -0.034765616,  0.033413425,  0.014791479, 
  -0.096463144,  0.071157351, -0.049776044, -0.011315872,  0.066562109, 
   0.044104125, -0.064639769,  0.017465692, -0.036853369, -0.087900572, 
   0.049558271, -0.014936349,  0.052600596,  0.008905772, -0.005567456, 
  -0.019039027, -0.092012882, -0.003566901,  0.038686585,  0.012338441, 
   0.002643341, -0.008976101,  0.003644407, -0.038828731,  0.023501126, 
   0.018656831, -0.017099792, -0.032521896,  0.023512170, -0.011883792, 
  -0.012431940,  0.029835597,  0.001479244, -0.016556526,  0.001544838, 
   0.005730442, -0.041168563, -0.028694129,  0.013525210, -0.054737493, 
  -0.005219191, -0.034426507,  0.011850679,  0.035884622, -0.015389167, 
  -0.011566042, -0.069920912, -0.009980002, -0.012045883,  0.009268215, 
  -0.028487617, -0.014074343, -0.042114131, -0.010336699,  0.073568605, 
   0.029052502, -0.092882030,  0.014656389, -0.044829793, -0.133178979, 
   0.031270519,  0.031191673,  0.032996632, -0.008269073, -0.018759357, 
  -0.010278192, -0.091069423,  0.053241901,  0.013383971,  0.034120016, 
  -0.009968749, -0.035477478, -0.009490804, -0.020969747,  0.063431181, 
   0.003584046,  0.019802593, -0.068520404,  0.026735049, -0.070225380, 
  -0.022335056, -0.004496790, -0.002109766, -0.007704684,  0.033003155, 
   0.030833280,  0.011207199, -0.015109899, -0.018511636, -0.047544096, 
  -0.012792897, -0.007354449, -0.002799707,  0.058737930, -0.030690946, 
  -0.010995558, -0.049395129,  0.015833395,  0.005400159, -0.035582166, 
  -0.062726051, -0.018783297,  0.024770860, -0.012814110,  0.027722098, 
   0.089487277, -0.096298873,  0.005770890, -0.018280424, -0.046190191, 
   0.048121780, -0.032894380,  0.065849297,  0.040378351,  0.001631551, 
  -0.036159065, -0.035582077,  0.045085531, -0.017705420, -0.028958984, 
   0.031869318,  0.021990143, -0.085300431, -0.051010810,  0.046263326, 
  -0.015578100, -0.028637828, -0.035723712,  0.011575126, -0.083746247, 
  -0.033200666, -0.004234832, -0.045261294, -0.021402737,  0.057499353, 
   0.048170768,  0.005521195, -0.028145948, -0.001763885, -0.030074039, 
   0.048252296,  0.031353626,  0.039490711, -0.005257512,  0.060970671, 
   0.048519809, -0.020921277,  0.028666906,  0.002584922, -0.067792617, 
  -0.061844680, -0.099088512,  0.015014494, -0.007357188,  0.050804906, 
   0.070883892, -0.078651696, -0.048265215, -0.023075862, -0.098831914, 
  -0.006324338,  0.024195328,  0.000257627,  0.046501074, -0.021089094, 
  -0.018606814, -0.054036971,  0.003372775, -0.019650128, -0.000668245, 
  -0.017163137, -0.063904941, -0.057361092, -0.009303299,  0.054126762, 
   0.030733580,  0.014364398, -0.084580056,  0.025776699, -0.081400342, 
  -0.047743149, -0.091006480, -0.048971303, -0.020854410,  0.067396022, 
   0.073344328, -0.064083248, -0.035550695,  0.013536444, -0.034291688, 
   0.038479693, -0.028184783, -0.023442483,  0.005031090,  0.064379387, 
   0.027734492, -0.007456502, -0.017915649,  0.002864389, -0.078302979, 
  -0.039248113, -0.005551288,  0.024988888,  0.039200433, -0.058361456, 
   0.037016816, -0.041638859, -0.014820382, -0.049721453,  0.018883387, 
   0.038586959, -0.036356874, -0.051873326, -0.004651345, -0.026258117, 
   0.058190938,  0.005309809,  0.020543305,  0.028467678, -0.061630461, 
  -0.038038332, -0.087181397, -0.003620497, -0.046978969,  0.003452156, 
   0.101849243,  0.015583218, -0.086125426,  0.012263840, -0.097813860, 
  -0.091832764, -0.068159223, -0.083794408, -0.052998509, -0.010901888, 
   0.055552173, -0.072933510, -0.060520805,  0.047399264, -0.099436656, 
  -0.017313777, -0.059572868, -0.044373158, -0.063905887,  0.053074952, 
   0.022757923, -0.022454953, -0.093549728,  0.018018374, -0.011364801, 
  -0.011209142, -0.018150438, -0.017870456,  0.025082270, -0.059227865, 
  -0.047730710, -0.009798068, -0.017461609, -0.055489693,  0.024618139, 
  -0.050552506, -0.022945369,  0.012249311,  0.001850855,  0.000471161, 
   0.035809197, -0.031724356,  0.039760679, -0.085545763, -0.034307949, 
  -0.055575870, -0.064769909,  0.005169135,  0.005134123, -0.015804244, 
  -0.015926359, -0.037890311,  0.029465977, -0.045278087, -0.092536137, 
  -0.016446849, -0.039039355,  0.034162689,  0.082359895, -0.043422192, 
  -0.091069154, -0.052323584,  0.070701957, -0.033210531, -0.037917558, 
  -0.012093309, -0.021563223,  0.011957504, -0.059148025, -0.012471404, 
   0.013203330, -0.047479019,  0.029940275, -0.012515871,  0.040674403, 
  -0.041633159,  0.022828793,  0.057489421,  0.090444572,  0.007158169, 
  -0.010390641,  0.006360742,  0.051064465, -0.024804911, -0.057755046, 
  -0.043260831, -0.031447314,  0.009934326,  0.006364278,  0.027623840, 
   0.057882041,  0.035510436, -0.040534697, -0.005340223,  0.050917402, 
  -0.040101908, -0.069865018,  0.042115256,  0.020369615,  0.002650999, 
  -0.099220939, -0.062304642,  0.050809115, -0.013405291, -0.090339914, 
  -0.041624323, -0.029014789, -0.008546909,  0.010763049, -0.028743874, 
  -0.099643745, -0.066269375, -0.001484995, -0.057694856, -0.091489911, 
  -0.028964249, -0.006070866, -0.014214681, -0.070688725, -0.046305191, 
   0.062705398, -0.014451819,  0.072600245, -0.059381954, -0.011785294, 
  -0.067505687, -0.066232234,  0.037058368,  0.062257867, -0.041349467, 
  -0.009641568, -0.038567629,  0.032167681, -0.052280694, -0.026201807, 
  -0.027483521, -0.026418179,  0.046905860,  0.016647207,  0.015183834, 
   0.053905159,  0.035982341, -0.001286170, -0.079188600,  0.052074485, 
  -0.062874801, -0.060999036,  0.070132114,  0.013917781,  0.010030340, 
  -0.078158595, -0.047734514,  0.034048602,  0.024099188, -0.061224189, 
  -0.061306853, -0.071387179,  0.022787919,  0.069808900,  0.039765485, 
  -0.084227026, -0.025192717,  0.048587430, -0.003572952, -0.038887072, 
  -0.019470513, -0.014522584,  0.002394970, -0.047765721, -0.036246091, 
   0.031518865,  0.028939858,  0.032282352, -0.070589393, -0.059780549, 
  -0.055481728, -0.017840553,  0.033197325,  0.031558443, -0.007704223, 
   0.017932342, -0.037986130, -0.012654485, -0.003244395, -0.030985160, 
  -0.055527519,  0.025016600, -0.030989151, -0.047103141, -0.038168348, 
   0.080721311, -0.035674579, -0.055010438, -0.082150705,  0.050521366, 
  -0.038268588, -0.071123645,  0.056060314,  0.015688892,  0.005906293, 
  -0.061417852, -0.001594499,  0.048929889, -0.018000871, -0.076688282, 
  -0.026028180, -0.002472502,  0.021862000,  0.061421175,  0.003016113, 
  -0.048143439, -0.050823212, -0.010386410, -0.036022741, -0.029493006, 
  -0.020524550,  0.028193070,  0.004203319,  0.006290307,  0.016565993, 
  -0.086350039, -0.021340206,  0.028043687, -0.004640407, -0.080874033, 
  -0.049915552, -0.058092855,  0.042462464,  0.052935127, -0.063022561, 
   0.044888027, -0.020495564,  0.049355254,  0.018592926, -0.001119856, 
  -0.059027690,  0.017311314, -0.034055587, -0.063593931,  0.007565968, 
   0.087545373,  0.026778305, -0.076491006, -0.016463455,  0.034452163, 
   0.021546369, -0.046478845, -0.011767386,  0.029316073,  0.017066112, 
  -0.023800822, -0.015683345,  0.067101024,  0.003048649, -0.040250700, 
  -0.003048656, -0.082246050,  0.068543412,  0.042890713,  0.029913649, 
  -0.041509472, -0.015889991, -0.005730962, -0.030777534, -0.024420502, 
  -0.000151378, -0.011970905, -0.033403479,  0.030909719,  0.065674797, 
  -0.045216952, -0.019664619,  0.059016313, -0.054859027, -0.061831508, 
  -0.001163743, -0.058728915,  0.042419743, -0.000122668, -0.068757191, 
   0.034116022, -0.073623642, -0.005051816,  0.029938353, -0.024556803, 
  -0.059457850,  0.048927635, -0.016817275, -0.110262454,  0.074371710, 
   0.048014168,  0.045747444, -0.027679408, -0.027699847,  0.020997828, 
  -0.064452365, -0.079335243,  0.021595793,  0.058752827, -0.019828830, 
   0.041484218, -0.013342621,  0.058068816, -0.017515607, -0.000461671, 
  -0.007619815, -0.073423706,  0.031797390,  0.032585997,  0.031576376, 
   0.050229348, -0.026578858,  0.061021056,  0.009304170, -0.031768043, 
  -0.000109509, -0.024290685, -0.002994352, -0.028478082,  0.078350291, 
  -0.027072785,  0.015421056,  0.037200172, -0.022521039, -0.082874782, 
  -0.033627231, -0.037348282,  0.055642057,  0.016130602, -0.076889284, 
   0.032346964, -0.004515826, -0.000160205,  0.021688897, -0.049381010, 
  -0.055664357,  0.005988139, -0.062003355, -0.101623036,  0.101099215, 
   0.129750490,  0.034415349, -0.003050321, -0.057730306, -0.068234041, 
  -0.066014707, -0.013678635, -0.009971383,  0.042581845, -0.019663680, 
