// -----------------------------------------------------------------------------
// 
// This file is auto generated by model_export.py
// -----------------------------------------------------------------------------
#ifndef MNIST_MODEL
#define MNIST_MODEL

// ....
#include <stdint.h>
#include "infercat.h"

// -----------------------------------------------------------------------------
//
// -----------------------------------------------------------------------------

// ...
float mnist_model_conv2d_output[3380];
  
// ...
static const float mnist_model_conv2d_weights[45] = {
  -0.107979059, -0.390579611, -0.060232677, -0.421527565,  0.231253535, 
   0.000528495, -0.114974566,  0.508900702, -0.627614498,  0.388240039, 
   0.031868752, -0.308594614,  0.484655976, -0.574034929,  0.546168506, 
   0.111881159,  0.224245489,  0.111841217, -0.044493083,  0.408648372, 
   0.174560860, -0.506704569,  0.177831739,  0.310885161,  0.200675294, 
   0.512043834,  0.060867321,  0.050646715, -0.085933127,  0.306286097, 
   0.066423684,  0.208955020, -0.026830019,  0.445520878,  0.094377071, 
   0.548403740, -0.393656850, -0.319833785,  0.224162236,  0.299290746, 
   0.132623449, -0.077674605,  0.364381850,  0.491523474,  0.504686475
};

// ...
static const float mnist_model_conv2d_biases[5] = {
   0.220289931,  0.165105060,  0.102022149,  0.009910423,  0.075695470
};

// ...
const InfercatLayer_CONV2D mnist_model_conv2d_ = {
  .weight = mnist_model_conv2d_weights,
  .bias = mnist_model_conv2d_biases,
  .in_width = 28,
  .in_height = 28,
  .in_depth = 1,
  .out_width = 26,
  .out_height = 26,
  .out_depth = 5,
  .kernel_width = 3,
  .stride = 1,
  .output_buffer = mnist_model_conv2d_output,
  .activation = InfercatLayerActivation_RELU
};

// ...
const InfercatLayer mnist_model_conv2d = {
  .mem = (void*)(&mnist_model_conv2d_),
  .type = InfercatLayerType_CONV2D
};

// -----------------------------------------------------------------------------
//
// -----------------------------------------------------------------------------

// ...
float mnist_model_max_pooling2d_output[845];
  
// ...
const InfercatLayer_MAXPOOLING2D mnist_model_max_pooling2d_ = {
  .in_width = 26,
  .in_height = 26,
  .in_depth = 5,
  .out_width = 13,
  .out_height = 13,
  .out_depth = 5,
  .pool_width = 2,
  .stride = 2,
  .output_buffer = mnist_model_max_pooling2d_output,
};

// ...
const InfercatLayer mnist_model_max_pooling2d = {
  .mem = (void*)(&mnist_model_max_pooling2d_),
  .type = InfercatLayerType_MAXPOOLING2D
};

// -----------------------------------------------------------------------------
//
// -----------------------------------------------------------------------------

// ...
float mnist_model_conv2d_1_output[363];
  
// ...
static const float mnist_model_conv2d_1_weights[135] = {
   0.237610057,  0.257548511,  0.072979815,  0.372425973,  0.268205762, 
   0.625860035, -0.129865468,  0.250838518, -0.035371654, -0.071092419, 
  -0.130739167,  0.353268087, -0.162020311, -0.033848446, -0.409763008, 
   0.040027380,  0.315845042,  0.343825370,  0.336211324,  0.020078961, 
   0.507885039, -0.076037817,  0.376341939, -0.043093301, -0.351229161, 
  -0.298802316, -0.132473037,  0.246333927,  0.081198454, -0.009063115, 
  -0.248113692,  0.477707505, -0.029507663, -0.091512077, -0.302436709, 
   0.564898133, -0.051903192,  0.248511866, -0.143008620, -0.280456096, 
  -0.230138063, -0.545533895, -0.226387128,  0.372761279, -0.295477062, 
  -0.143216789,  0.408760130,  0.428641945,  0.013710679, -0.064136848, 
   0.548689783,  0.296243727,  0.028518576, -0.010380740, -0.551008582, 
   0.186903745, -0.090281069,  0.126919970,  0.043197937,  0.220078066, 
   0.232766435,  0.022015264, -0.034305356,  0.299120396, -0.058698423, 
   0.000290204, -0.015232459,  0.052912604, -0.009230765, -0.569621205, 
  -0.211722583, -0.496273011,  0.151440457,  0.433707178,  0.275908023, 
  -0.022058740,  0.251767099,  0.110472500,  0.299717754, -0.224868178, 
   0.414577723, -0.263228208,  0.519495964, -0.242587283, -0.165310904, 
  -0.273094714, -0.592204034, -0.142902270,  0.166260675, -0.296321392, 
   0.253070951, -0.060657263,  0.414726138,  0.279251039, -0.076136820, 
  -0.017140107,  0.440199614,  0.218256488, -0.113080435, -0.710724473, 
  -0.234488025, -0.208509207,  0.448977679, -0.043085702,  0.243987322, 
   0.390643656,  0.174885586,  0.081783190, -0.149377435,  0.176332891, 
   0.252132475,  0.035955954,  0.414739966,  0.128165931, -0.199041843, 
  -0.200427845, -0.484358221,  0.033508167,  0.399274945,  0.026363999, 
  -0.054676387, -0.198836192, -0.148380369, -0.029297739, -0.149780214, 
   0.238264948, -0.310940951,  0.124993898, -0.254069000,  0.039186362, 
  -0.322442621, -0.324137479, -0.099403955,  0.075340517, -0.410361290
};

// ...
static const float mnist_model_conv2d_1_biases[3] = {
   0.109912150,  0.161829576,  0.165819958
};

// ...
const InfercatLayer_CONV2D mnist_model_conv2d_1_ = {
  .weight = mnist_model_conv2d_1_weights,
  .bias = mnist_model_conv2d_1_biases,
  .in_width = 13,
  .in_height = 13,
  .in_depth = 5,
  .out_width = 11,
  .out_height = 11,
  .out_depth = 3,
  .kernel_width = 3,
  .stride = 1,
  .output_buffer = mnist_model_conv2d_1_output,
  .activation = InfercatLayerActivation_RELU
};

// ...
const InfercatLayer mnist_model_conv2d_1 = {
  .mem = (void*)(&mnist_model_conv2d_1_),
  .type = InfercatLayerType_CONV2D
};

// -----------------------------------------------------------------------------
//
// -----------------------------------------------------------------------------

// ...
float mnist_model_conv2d_2_output[75];
  
// ...
static const float mnist_model_conv2d_2_weights[81] = {
  -0.571607351,  0.138245851,  0.345463425, -0.415705889,  0.450698793, 
  -0.106384575,  0.395547122,  0.216163069,  0.201432437,  0.015474096, 
  -0.021215724,  0.499362320,  0.259517312,  0.441571504, -0.254128844, 
   0.190480933, -0.119215935,  0.192003548, -0.094176486,  0.146207526, 
   0.511023223,  0.273597896,  0.398342937,  0.126179188,  0.511559606, 
   0.024148799,  0.412843913,  0.311136484,  0.134272546,  0.459989488, 
  -0.566906929,  0.215805247,  0.259677023,  0.353268564,  0.447732031, 
   0.562476456,  0.318225622, -0.093527004,  0.491224319, -0.153489500, 
   0.194443747, -0.180521429,  0.263461411, -0.093926676,  0.234718353, 
  -0.099209495,  0.048831441,  0.394910663,  0.100786321, -0.024951305, 
   0.254636258,  0.390293330, -0.032164473, -0.000624775, -0.106233038, 
  -0.403662443, -0.043348078,  0.251905382,  0.229914621, -0.088496298, 
   0.608989418, -0.040980287,  0.116765626,  0.303939700,  0.008854973, 
   0.055354957,  0.279786587,  0.058951747,  0.019686971,  0.586095512, 
  -0.317923218,  0.041215718,  0.380783737, -0.199379176,  0.252224386, 
  -0.136960790, -0.185462803, -0.069395810, -0.148444548, -0.052821584, 
  -0.127863184
};

// ...
static const float mnist_model_conv2d_2_biases[3] = {
   0.062224697,  0.122140616,  0.043513782
};

// ...
const InfercatLayer_CONV2D mnist_model_conv2d_2_ = {
  .weight = mnist_model_conv2d_2_weights,
  .bias = mnist_model_conv2d_2_biases,
  .in_width = 11,
  .in_height = 11,
  .in_depth = 3,
  .out_width = 5,
  .out_height = 5,
  .out_depth = 3,
  .kernel_width = 3,
  .stride = 2,
  .output_buffer = mnist_model_conv2d_2_output,
  .activation = InfercatLayerActivation_RELU
};

// ...
const InfercatLayer mnist_model_conv2d_2 = {
  .mem = (void*)(&mnist_model_conv2d_2_),
  .type = InfercatLayerType_CONV2D
};

// -----------------------------------------------------------------------------
//
// -----------------------------------------------------------------------------

// ...
float mnist_model_dense_output[10];
  
// ...
static const float mnist_model_dense_weights[750] = {
   0.046199359, -0.034428500, -0.238573179, -0.327806026, -0.250897527, 
   0.150599897, -0.015996683, -0.059195552, -0.270259142,  0.002912816, 
  -0.129333198, -0.338914782,  0.235215351,  0.263697326, -0.395379752, 
   0.084957868, -0.127399683,  0.093691543, -0.081755646, -0.097342342, 
  -0.330008626, -0.158666030, -0.342004508, -0.222299770,  0.091558777, 
   0.083068989, -0.057427596,  0.235518470, -0.084234975,  0.069229648, 
   0.131439358,  0.215728328, -0.152982309, -0.271954715,  0.077557907, 
   0.166984022,  0.343263119,  0.201251373, -0.029015997, -0.479990929, 
  -0.173492491, -0.251768857,  0.108901717,  0.039188102, -0.178109393, 
  -0.125256643,  0.174797967, -0.227631435,  0.121213727, -0.101259649, 
  -0.182872921,  0.203973025, -0.207962230, -0.045156192,  0.140215829, 
   0.149732396, -0.269591242,  0.067865096, -0.057160970, -0.376858145, 
  -0.093262412,  0.442650825,  0.175228596, -0.162530527,  0.257541955, 
  -0.135732368,  0.043644011, -0.029424936, -0.019453537, -0.206397042, 
   0.044074517,  0.047984801,  0.249204025,  0.005524772, -0.070125833, 
   0.074698739, -0.144881651, -0.162838846, -0.005895561, -0.295776397, 
  -0.017195454,  0.224521071, -0.050031945,  0.147969231,  0.245417565, 
   0.080546781, -0.016002940,  0.063145094, -0.291820079,  0.001968778, 
   0.178508520, -0.182637796,  0.114670403, -0.079303458,  0.023548722, 
  -0.437398255, -0.136744291,  0.160951003, -0.281780064, -0.085022502, 
  -0.041755911, -0.075203031,  0.176358327, -0.042489901, -0.128527641, 
  -0.075264640,  0.425827801, -0.510737598, -0.088158987, -0.252523869, 
  -0.170916587, -0.055662502,  0.030787814,  0.237285256,  0.162361383, 
  -0.039387807, -0.046603005, -0.021533731,  0.041182518,  0.195465341, 
   0.068932571, -0.110445805,  0.149349153,  0.134067342,  0.053422496, 
   0.091524415, -0.224426106,  0.176908031,  0.052680381, -0.075042501, 
  -0.138907641,  0.033905454, -0.032051422, -0.019265437,  0.142448455, 
   0.042613979,  0.130067512, -0.319485515, -0.070485868, -0.088863477, 
  -0.078619763,  0.060840990, -0.058149058,  0.014972291,  0.173872948, 
   0.098844230, -0.197900608, -0.281582087,  0.111216754, -0.126424611, 
  -0.140156031, -0.105231546, -0.200970292,  0.151345357, -0.222879291, 
   0.081898890, -0.045286562, -0.114823721,  0.010580675, -0.082661405, 
  -0.014209205, -0.089771941,  0.050248280,  0.145391792, -0.147115692, 
  -0.227276683, -0.081598379,  0.182748973, -0.077029541, -0.321302027, 
   0.112911068,  0.052576050,  0.048180275, -0.218076661, -0.067900442, 
   0.264001429,  0.128302991, -0.169125199, -0.078834757, -0.209670112, 
   0.089848943,  0.077027701, -0.322204381, -0.169405669,  0.402202547, 
  -0.150488064,  0.108555876, -0.250411898, -0.008736322, -0.041736275, 
  -0.167424753, -0.043570384, -0.052128594, -0.161557689, -0.351450861, 
   0.130934671, -0.335987389,  0.001688903, -0.005912794,  0.074102126, 
   0.001927055,  0.181138977, -0.220189989, -0.486609608,  0.467105269, 
   0.083876573,  0.098559178, -0.373236984,  0.172496706, -0.201833352, 
   0.046400078, -0.020669710, -0.165757522,  0.181349054, -0.085064881, 
  -0.217523590, -0.135670289, -0.593360186, -0.158281237, -0.318762392, 
   0.161340177, -0.264881104, -0.028189212,  0.194325790, -0.331939042, 
  -0.120494284, -0.290968150, -0.234333530,  0.253299236, -0.066887848, 
  -0.230956376, -0.033348959,  0.150742173, -0.047127813,  0.182194054, 
   0.000935507,  0.078472316,  0.147330537, -0.201063961, -0.464994222, 
   0.085498117,  0.089250132,  0.098639205,  0.089457072,  0.368036449, 
  -0.579853654, -0.078005217, -0.191520408, -0.131959081,  0.029231647, 
   0.092859060, -0.010298763,  0.032636136,  0.197560340,  0.184301138, 
  -0.127344936, -0.273318321,  0.247847125, -0.230359972,  0.177879289, 
   0.153613791,  0.069779240,  0.163929284, -0.215687990, -0.184102744, 
  -0.211815730, -0.356389046,  0.306137353, -0.204925373, -0.154305026, 
  -0.186661258, -0.241310522, -0.067887351, -0.138600111,  0.042604692, 
  -0.352823257, -0.161251456, -0.113666050, -0.058245413, -0.050729670, 
   0.128787071, -0.192787573, -0.014533228, -0.043530896,  0.143561065, 
   0.166942760, -0.265690476,  0.024337668,  0.254533798, -0.288165957, 
   0.206490636, -0.161434367,  0.341409713,  0.210858583, -0.132296905, 
  -0.526120722, -0.200864136,  0.375220865,  0.046735588,  0.221245036, 
   0.017262612, -0.030951014,  0.004260218,  0.042892478, -0.274471939, 
  -0.033787981, -0.027339136,  0.232935473,  0.050083909,  0.235275075, 
  -0.088026971, -0.359756649, -0.220134526, -0.200547382, -0.207292870, 
   0.075847238, -0.010096187,  0.037110753,  0.133993939,  0.136089265, 
  -0.027799252,  0.230825052, -0.427548200, -0.239633411,  0.025182143, 
   0.015722161,  0.131621495, -0.083486333,  0.144219235,  0.474430293, 
   0.351971239,  0.030454298,  0.123350672,  0.014577529,  0.117657803, 
  -0.024839530,  0.240510672,  0.223412827, -0.035048459, -0.311943382, 
   0.129157841, -0.145520389, -0.209813923, -0.340026289,  0.255025774, 
   0.039023049,  0.000793089,  0.136438623, -0.169517115, -0.091249689, 
   0.082157962,  0.324988335, -0.362072796, -0.226343870,  0.231385052, 
  -0.108926259,  0.230160996, -0.187769532, -0.384016186,  0.080424048, 
  -0.072858721,  0.072567731,  0.273059368, -0.030259551, -0.151227087, 
  -0.102143265,  0.090389065,  0.529390872, -0.429352969, -0.308383882, 
  -0.386265546,  0.063399822, -0.490360767, -0.020879135, -0.234716073, 
   0.161227614, -0.047002371, -0.265819758, -0.110586368, -0.092603996, 
   0.233538225, -0.053339403,  0.162159398, -0.099800326,  0.110047072, 
   0.119657002,  0.012796073, -0.421987206,  0.140669212, -0.247639194, 
   0.008734888, -0.409890503,  0.383269548, -0.023253135,  0.022410383, 
   0.136832893, -0.217463285,  0.044832967, -0.282395750,  0.039779622, 
  -0.053306334,  0.069294274,  0.063053779,  0.335524499,  0.185038745, 
  -0.003957280, -0.099007741,  0.107830591, -0.029013300,  0.224470660, 
  -0.162769720,  0.155205339, -0.311222523, -0.129413038, -0.131000131, 
  -0.074054644, -0.242844984, -0.154740110,  0.042259611,  0.043959517, 
  -0.106971383, -0.042836811, -0.187092081,  0.109888375, -0.242708340, 
   0.422033429,  0.269243151,  0.178247750, -0.335618109,  0.016933644, 
   0.299174130, -0.288282901, -0.124621347, -0.012947812, -0.201742992, 
  -0.008074310,  0.038688637,  0.170414910,  0.072373241,  0.131841302, 
  -0.029461762,  0.050539233, -0.241944492, -0.227847323, -0.048979025, 
  -0.045799907, -0.010967372, -0.021667495, -0.045781579,  0.194297373, 
  -0.161444291, -0.301118582, -0.044416968, -0.043340847, -0.168206349, 
  -0.049961690,  0.046472583,  0.059406873,  0.193954334,  0.182947978, 
  -0.113205142, -0.255029202,  0.103572242, -0.055235907,  0.173654586, 
  -0.169772103, -0.173793480,  0.056680057, -0.128514856, -0.030434137, 
  -0.006039747,  0.076177195, -0.171863824,  0.039770786, -0.169028208, 
  -0.202567190,  0.331670374, -0.199762359, -0.275227368, -0.131904662, 
  -0.140685707,  0.242857024, -0.023531407,  0.159779295,  0.027605258, 
   0.193534315, -0.342597663, -0.158565506,  0.382415652, -0.064929768, 
   0.151542440, -0.326103956, -0.149626791, -0.158879191,  0.027463764, 
   0.202648208,  0.260183096, -0.227271751,  0.103750341,  0.142606735, 
   0.113599934,  0.175238475, -0.247567713, -0.540055931, -0.226212591, 
  -0.430719465,  0.336924881,  0.157090768,  0.040110931,  0.041270494, 
  -0.227174252, -0.037176222, -0.164674878, -0.135801584, -0.084696323, 
   0.109212570, -0.449810863, -0.036679126, -0.395347089, -0.037636485, 
  -0.425037593,  0.339420229,  0.206621423,  0.017402722,  0.166896775, 
  -0.361642152,  0.008087505, -0.267767549,  0.352277517,  0.180944428, 
   0.228949070,  0.140954837,  0.136767328, -0.392704338, -0.237952560, 
  -0.023048323, -0.058752615,  0.021356512, -0.276542753, -0.405649722, 
   0.255757958, -0.337891549,  0.062314894,  0.242787167, -0.095392250, 
   0.239767283, -0.149452984, -0.127902284, -0.241736069, -0.018053384, 
  -0.055752661, -0.362989932,  0.118738502,  0.056172464,  0.344481885, 
   0.094418161, -0.003888991,  0.116684280, -0.248520330, -0.026757365, 
  -0.050992694,  0.155976504, -0.265241325, -0.122548945, -0.196345702, 
   0.094689719,  0.122365266,  0.042053185,  0.011383452,  0.085248992, 
   0.030356742,  0.157241538,  0.016236374, -0.009529488, -0.356065691, 
   0.129617870,  0.253739297, -0.537396371, -0.000295727, -0.294786602, 
   0.175974622, -0.005885837,  0.002168681, -0.205514356, -0.104675770, 
  -0.254655600,  0.139056221, -0.070160277, -0.016521765, -0.135067299, 
  -0.169351041, -0.278288364, -0.018222332,  0.272296876, -0.267244726, 
   0.114977099, -0.101440951, -0.074499033,  0.020625776, -0.064966813, 
   0.057407979, -0.088783838,  0.062490366, -0.313293993,  0.263698012, 
  -0.349144489, -0.040573344,  0.045986913,  0.108280659,  0.315174997, 
  -0.055574302,  0.092746846,  0.168338969,  0.071657732, -0.317225069, 
   0.001531696, -0.357172310, -0.172102541, -0.219276384, -0.221373379, 
  -0.218670055,  0.071124695,  0.151483729, -0.216215864, -0.030798363, 
  -0.386860341,  0.246972337, -0.023976129,  0.275449932, -0.081680551, 
  -0.271313906,  0.194246963, -0.047390990, -0.134117275,  0.083926477, 
  -0.404987633,  0.092027642,  0.417338461, -0.310296029,  0.097158656, 
  -0.047650985,  0.065533206,  0.240877137, -0.235905692, -0.366211832, 
  -0.208852664,  0.323082149, -0.023719646,  0.072301686, -0.278044105, 
   0.283144444,  0.415702641, -0.104534142,  0.121630460,  0.108579516, 
   0.006220632, -0.342276633,  0.307580560, -0.142739117,  0.036656115, 
  -0.213346913, -0.049529511,  0.183746696,  0.373037845,  0.175656199, 
   0.153706953, -0.576155305,  0.529598236, -0.137998953,  0.420949012, 
  -0.113521710, -0.206424594, -0.012239370, -0.003261070, -0.168314114, 
   0.086944871,  0.261502534, -0.068563499, -0.073609605,  0.001143538, 
   0.059561308, -0.146785244, -0.520008326, -0.189033121, -0.137212008, 
   0.168146700, -0.280488223,  0.078087680,  0.117657438, -0.159263179, 
  -0.197938100, -0.344057500, -0.117560193,  0.124773726, -0.199354216, 
   0.251780480, -0.018671902,  0.197902888,  0.071262777,  0.165410325, 
   0.133336782, -0.011856481, -0.039630711, -0.049856611,  0.007561629, 
  -0.105402373, -0.007990601, -0.142080486, -0.073427498, -0.157058373, 
  -0.155345842,  0.221878290, -0.261300594,  0.144875437,  0.008879784, 
   0.049989235,  0.118453033,  0.215354025,  0.345512718, -0.071791366, 
  -0.173325583, -0.177198499,  0.051542349, -0.012531128,  0.160266131, 
   0.147824168, -0.202509865, -0.219920442, -0.032604061,  0.320028037, 
  -0.185080007,  0.025098147,  0.054622132,  0.209570020, -0.143842012, 
   0.230805025, -0.110791206, -0.291135639, -0.113707110, -0.154435933, 
  -0.208792850, -0.009226946, -0.027889345, -0.099853426,  0.072420642, 
  -0.018660085, -0.290729374, -0.040783819,  0.143720850,  0.201182306
};

// ...
static const float mnist_model_dense_biases[10] = {
  -0.097303092, -0.068632446,  0.085054696, -0.028900757, -0.068541817, 
   0.100007884, -0.079668179,  0.080718815, -0.006312467,  0.066993810
};

// ...
const InfercatLayer_DENSE mnist_model_dense_ = {
  .weight = mnist_model_dense_weights,
  .bias = mnist_model_dense_biases,
  .input_size = 75,
  .output_size = 10,
  .output_buffer = mnist_model_dense_output,
  .activation = InfercatLayerActivation_SOFTMAX
};

// ...
const InfercatLayer mnist_model_dense = {
  .mem = (void*)(&mnist_model_dense_),
  .type = InfercatLayerType_DENSE
};

// -----------------------------------------------------------------------------
//
// -----------------------------------------------------------------------------

// ...
#define mnist_model_LAYERCOUNT 5

// ...
const InfercatLayer* mnist_model[5] = {
  &mnist_model_conv2d,
  &mnist_model_max_pooling2d,
  &mnist_model_conv2d_1,
  &mnist_model_conv2d_2,
  &mnist_model_dense
};

// -----------------------------------------------------------------------------
#endif
