// -----------------------------------------------------------------------------
// 
// This file is auto generated by model_export.py
// -----------------------------------------------------------------------------
#ifndef MNIST_MODEL
#define MNIST_MODEL

// ....
#include <stdint.h>
#include "infercat.h"

// -----------------------------------------------------------------------------
//
// -----------------------------------------------------------------------------

// ...
float mnist_model_conv2d_output[845];
  
// ...
static const float mnist_model_conv2d_weights[45] = {
   0.473859698,  0.399271935,  0.468489885, -0.304153174,  0.070334435, 
   0.062295090,  0.225936234,  0.370121658, -0.384675115,  0.018350573, 
   0.267578512,  0.340273023,  0.160233125, -0.151637003,  0.387816787, 
   0.076813288, -0.013950331,  0.327872723, -0.060537174,  0.388791233, 
  -0.043001484, -0.007778768,  0.004293953, -0.149566427,  0.046578966, 
   0.311781079,  0.237327397, -0.049599189,  0.053102702,  0.270183444, 
   0.216151834, -0.264463693,  0.291155308, -0.350414276,  0.312327147, 
   0.087116480,  0.124417230,  0.202529728,  0.154025882,  0.187329382, 
   0.055252802, -0.239833236,  0.123499297,  0.140321061,  0.015253286
};

// ...
static const float mnist_model_conv2d_biases[5] = {
   0.107490666,  0.044442911, -0.000245504,  0.164695457,  0.064494610
};

// ...
const InfercatLayer_CONV2D mnist_model_conv2d_ = {
  .weight = mnist_model_conv2d_weights,
  .bias = mnist_model_conv2d_biases,
  .in_width = 28,
  .in_height = 28,
  .in_depth = 1,
  .out_width = 13,
  .out_height = 13,
  .out_depth = 5,
  .kernel_width = 3,
  .stride = 2,
  .output_buffer = mnist_model_conv2d_output,
  .activation = InfercatLayerActivation_RELU
};

// ...
const InfercatLayer mnist_model_conv2d = {
  .mem = (void*)(&mnist_model_conv2d_),
  .type = InfercatLayerType_CONV2D
};

// -----------------------------------------------------------------------------
//
// -----------------------------------------------------------------------------

// ...
float mnist_model_conv2d_1_output[180];
  
// ...
static const float mnist_model_conv2d_1_weights[225] = {
   0.065128230, -0.002894088,  0.033844683, -0.107640631, -0.055245258, 
  -0.344708651,  0.053512875,  0.086029261, -0.282491952,  0.232959256, 
  -0.049775183,  0.314369649, -0.364437759, -0.410573483,  0.221281886, 
  -0.137635574,  0.076319687, -0.038565703,  0.012176125, -0.381542027, 
   0.257036567, -0.029802397, -0.329677403, -0.243000045,  0.053757705, 
   0.273552179,  0.354953408, -0.172334507,  0.307046592, -0.046190590, 
  -0.200412571,  0.256831884, -0.200384334,  0.123609528,  0.026744902, 
  -0.291496396,  0.315631032, -0.448849410,  0.171848476,  0.305769891, 
   0.097906403, -0.107292943,  0.440029502, -0.175766736,  0.053176079, 
   0.106719196,  0.407709420, -0.057016198, -0.018558018,  0.080715083, 
   0.245738313,  0.389142036,  0.248160258,  0.216690347, -0.079657413, 
   0.104226112, -0.047428735,  0.184658393,  0.027315462,  0.178674251, 
  -0.004441632,  0.198666468, -0.222402811,  0.104477793, -0.005655254, 
  -0.191453114, -0.416549087,  0.062082421,  0.045790222, -0.049216527, 
   0.017396435,  0.348874539,  0.243148714,  0.110960506,  0.269439131, 
   0.417414039,  0.202272147, -0.006907876, -0.139517754,  0.092941977, 
   0.246614113,  0.078074828,  0.116696574, -0.319945991,  0.246276706, 
   0.289606452,  0.154158488,  0.037595615, -0.153858617,  0.353256017, 
  -0.028565923, -0.386015207,  0.174147606, -0.105348170, -0.359883547, 
   0.309154272,  0.370847076, -0.239647090,  0.087603591,  0.083084077, 
   0.309062988,  0.373785228,  0.010134768, -0.066259764,  0.342560649, 
   0.297168493,  0.036872856, -0.307268947, -0.296024889,  0.369001865, 
   0.138917327,  0.378480285, -0.378483862,  0.382808506,  0.074501842, 
  -0.024882741, -0.308461577,  0.470968544, -0.148250952,  0.006294663, 
   0.121580474, -0.008638034,  0.261814862,  0.073415585,  0.116619065, 
  -0.098279454,  0.037041470,  0.287755460, -0.110977456, -0.060082316, 
   0.226124167,  0.342263222,  0.283356220,  0.074685484,  0.004481721, 
   0.263789594,  0.089489825,  0.130313367,  0.312232167,  0.228641421, 
  -0.172755405, -0.214524671, -0.000078737, -0.136322767, -0.171605557, 
   0.179606944,  0.215012059, -0.019992197,  0.186007589,  0.142690271, 
   0.416733176,  0.131713539,  0.088532813,  0.305559874, -0.021853672, 
   0.226923302,  0.261926442, -0.275436103, -0.003011892, -0.041635122, 
   0.165189549,  0.062198646, -0.243379503, -0.097529955,  0.042329993, 
  -0.025349708, -0.339926988,  0.077679507, -0.251210034, -0.073395222, 
   0.234222829,  0.232160881,  0.223508194,  0.317499310,  0.301615745, 
   0.172890052, -0.110072367,  0.265988559,  0.371453226,  0.033017375, 
   0.059357952,  0.308559209, -0.097889200,  0.326895118,  0.317515254, 
   0.022180887, -0.115595177,  0.212476537,  0.293061078, -0.118054979, 
  -0.275601983,  0.033127192,  0.252545834, -0.279085755, -0.187771231, 
   0.303566605,  0.159544185, -0.042691816,  0.350735456,  0.140826821, 
   0.241474256,  0.327220321,  0.303977877, -0.129865229,  0.122789763, 
   0.287585855,  0.305547982,  0.063272275,  0.060224984,  0.380566150, 
   0.255527109, -0.114622429, -0.008889636, -0.132361010, -0.163060278, 
  -0.070528083, -0.101593584,  0.368809283, -0.035010334, -0.274951488, 
   0.034797322, -0.207304150,  0.263487518,  0.254833668, -0.107845314
};

// ...
static const float mnist_model_conv2d_1_biases[5] = {
  -0.001606920, -0.045848932,  0.145397156,  0.048430584,  0.064949170
};

// ...
const InfercatLayer_CONV2D mnist_model_conv2d_1_ = {
  .weight = mnist_model_conv2d_1_weights,
  .bias = mnist_model_conv2d_1_biases,
  .in_width = 13,
  .in_height = 13,
  .in_depth = 5,
  .out_width = 6,
  .out_height = 6,
  .out_depth = 5,
  .kernel_width = 3,
  .stride = 2,
  .output_buffer = mnist_model_conv2d_1_output,
  .activation = InfercatLayerActivation_RELU
};

// ...
const InfercatLayer mnist_model_conv2d_1 = {
  .mem = (void*)(&mnist_model_conv2d_1_),
  .type = InfercatLayerType_CONV2D
};

// -----------------------------------------------------------------------------
//
// -----------------------------------------------------------------------------

// ...
float mnist_model_dense_output[10];
  
// ...
static const float mnist_model_dense_weights[1800] = {
  -0.142789170, -0.032732025, -0.007854898, -0.231403694,  0.177367851, 
   0.200854272, -0.081386834,  0.049293239, -0.137567550, -0.051934846, 
  -0.074612841, -0.095010303, -0.021970816,  0.024131605,  0.103188463, 
  -0.098059244, -0.023357170,  0.154874980, -0.098793678, -0.133360535, 
   0.002642282,  0.259417564, -0.112810284, -0.142134607,  0.040849715, 
   0.042606428,  0.108279169,  0.044794366, -0.330085903, -0.074662164, 
   0.004707107,  0.173980623, -0.042822413,  0.081035115, -0.047712646, 
  -0.222996071,  0.134105235, -0.180990338, -0.035548147,  0.104773201, 
   0.025611933,  0.010706817,  0.156225249,  0.107916966, -0.107884206, 
  -0.032962773,  0.174770385,  0.158407524, -0.012036270,  0.071539648, 
  -0.071376182,  0.158248350, -0.015163729, -0.051709145, -0.148750708, 
  -0.076554388, -0.048800483, -0.153935939, -0.060967904, -0.152754188, 
  -0.130478591, -0.088300243,  0.078998901,  0.212488115, -0.056657035, 
  -0.305448532,  0.003746238, -0.040387090, -0.174903974, -0.284172446, 
  -0.058412425,  0.112170845,  0.132145166,  0.111116223, -0.041100010, 
  -0.031204529,  0.165067598, -0.082773201, -0.287136763,  0.061665718, 
   0.057243761,  0.053486034,  0.115146570,  0.041516352,  0.103456959, 
   0.050902490, -0.065235391, -0.227297902, -0.167694941, -0.022999495, 
  -0.105934530, -0.019280996,  0.029726883, -0.040210821,  0.054401837, 
  -0.120570973,  0.108108714, -0.012409301, -0.126098141, -0.067437865, 
   0.005839588,  0.029378530,  0.197446004,  0.168345749, -0.225171670, 
   0.075802296,  0.017047085, -0.227314994, -0.025714919, -0.000490323, 
  -0.196805850, -0.178442642,  0.214101002,  0.017909843, -0.080497704, 
  -0.015094320,  0.143166155, -0.186309174, -0.121792734, -0.188216075, 
   0.026672423,  0.178855181, -0.150784582, -0.011868561, -0.068515666, 
   0.095576786,  0.126318887, -0.005361915,  0.035431042, -0.100488625, 
  -0.159836471,  0.134997055,  0.143130600,  0.214313209,  0.019304890, 
   0.017351059,  0.057898145, -0.243380547,  0.054962952, -0.051051933, 
  -0.192633122, -0.101429097,  0.026789622,  0.075688303,  0.098940797, 
  -0.136573002,  0.072408266, -0.258849174, -0.133414775, -0.069859795, 
   0.177957833, -0.004749217,  0.032280412,  0.030691626, -0.099908523, 
  -0.195978656,  0.108297415, -0.072248131, -0.150741696, -0.291040957, 
  -0.107315324, -0.106690183,  0.109790146,  0.031441361, -0.157901734, 
   0.109992854,  0.026150309, -0.343077600, -0.064808413, -0.335422099, 
   0.054963794,  0.173976868, -0.089737132, -0.084535077, -0.068033829, 
   0.138407186, -0.024759153, -0.161066309, -0.006171720, -0.064371444, 
  -0.011778662,  0.125789106,  0.270635277,  0.011178987, -0.253695309, 
  -0.041326649,  0.072706327, -0.024483111,  0.285790056, -0.136617854, 
  -0.014048498, -0.010020943,  0.001725943, -0.048511829, -0.042202439, 
   0.004824214,  0.226106331, -0.051321503,  0.122605294, -0.053585276, 
  -0.132841468,  0.050658811, -0.113278277, -0.113011830, -0.004818534, 
  -0.130735323,  0.231932640, -0.275691420,  0.020805059, -0.127229244, 
  -0.235553116, -0.064100012,  0.090129256, -0.059627436,  0.055933461, 
  -0.027758108,  0.166319996, -0.293929249, -0.198168054, -0.331219822, 
  -0.005518995,  0.310288280, -0.107168175, -0.014272076, -0.012667665, 
   0.055503014,  0.007647344,  0.112943396,  0.009431465, -0.095955767, 
   0.094723992, -0.125957489,  0.080500945,  0.075752445,  0.084298663, 
  -0.093833566,  0.154497027, -0.100360036,  0.061855733, -0.311142176, 
  -0.025424503,  0.108065993,  0.015010468, -0.026153885, -0.226083562, 
   0.008657120,  0.174631327, -0.200730830,  0.115904137, -0.054685175, 
  -0.232989565,  0.041260157, -0.029412886, -0.210692421,  0.194245011, 
   0.059241086,  0.189020693, -0.274865896, -0.035292260, -0.029799791, 
   0.060141314,  0.247057766, -0.023050331, -0.112866230,  0.016981285, 
   0.210949302,  0.374158472, -0.178762853, -0.051539507, -0.095752858, 
   0.034442119,  0.270513237,  0.036115676, -0.248131827,  0.209939420, 
   0.037024885, -0.090941057,  0.241431460, -0.295664042,  0.035008918, 
  -0.031915285, -0.022999596, -0.163437113, -0.096420370,  0.142218664, 
   0.182826638, -0.057387743, -0.162269294,  0.150546581, -0.275873601, 
  -0.063547671,  0.075837731,  0.031229816,  0.033329148,  0.186510816, 
  -0.030245882,  0.041196913,  0.041355748, -0.063365370, -0.225041494, 
  -0.088108264,  0.009236301, -0.108063102, -0.017197456, -0.104254521, 
  -0.043202553,  0.049817823,  0.112301968, -0.231755063, -0.029776780, 
   0.057909265, -0.081931971,  0.196601406,  0.070821717,  0.074250594, 
  -0.043935176, -0.256777316,  0.193413749, -0.043278836, -0.081069931, 
   0.049496394,  0.219082296, -0.108983956, -0.149462700, -0.024778854, 
  -0.070094943, -0.161844745,  0.127762601, -0.048483483,  0.045629524, 
  -0.237979844,  0.025535205,  0.120519228,  0.341140956,  0.068762608, 
  -0.273550481, -0.160303742, -0.071976312, -0.214517429, -0.093637370, 
  -0.182032108, -0.018654775,  0.105517261,  0.114354536, -0.175218731, 
  -0.121906802, -0.314193249,  0.141792595, -0.103319027, -0.281535029, 
  -0.243333861, -0.132920086,  0.097004659, -0.086081609,  0.105459884, 
  -0.004195944, -0.000715719,  0.111510128, -0.155231088, -0.116335601, 
   0.028768284, -0.247100636, -0.053124912,  0.006413722, -0.179318726, 
  -0.008500598, -0.090982094, -0.097770333,  0.077150531, -0.249166757, 
   0.006863993, -0.146791294, -0.177909032,  0.059215438, -0.153953508, 
   0.221085474, -0.028988937, -0.152832001, -0.109871469, -0.036125839, 
   0.027888482, -0.098742053,  0.179336682, -0.004012302, -0.099291056, 
  -0.012130804, -0.089135215,  0.137465134,  0.160157114, -0.132098138, 
  -0.184904113, -0.287603706,  0.004835742,  0.214603946, -0.070113882, 
  -0.204378933,  0.076927587,  0.254669279, -0.034129094, -0.253733456, 
   0.072961360, -0.158221573,  0.012266793,  0.066266119, -0.047723763, 
   0.110929340, -0.032466780,  0.231873959,  0.123170547,  0.004648018, 
  -0.152042463,  0.006515868,  0.242459565,  0.179128557, -0.160178334, 
  -0.170960844, -0.216782063, -0.101531945, -0.147819072, -0.132714286, 
   0.003047212,  0.226510912, -0.115155458, -0.084076256, -0.241025314, 
   0.063441083,  0.076587759, -0.174173206,  0.132808998, -0.027734321, 
   0.003211576, -0.102649905, -0.098222755, -0.168676168,  0.088579506, 
  -0.055857185, -0.171118557,  0.101903699,  0.126098439,  0.116558686, 
   0.016889833, -0.076927587,  0.065844357,  0.032157313, -0.190234363, 
  -0.017394815, -0.082126483,  0.101400815,  0.010901392,  0.127783850, 
  -0.035980251, -0.074761100,  0.137440845,  0.145946860, -0.213842139, 
  -0.089288846, -0.215626672,  0.157262608,  0.060813170,  0.068748981, 
   0.081546701, -0.096084520,  0.152877137, -0.026093286, -0.179728538, 
   0.072486877,  0.054010574, -0.278941303,  0.015689021,  0.062836736, 
  -0.034633081,  0.067248806, -0.150705889,  0.008062568,  0.151093096, 
  -0.030564200,  0.000210820,  0.142297953, -0.127685472, -0.141181082, 
   0.098946400, -0.012553049,  0.039091930,  0.111960649, -0.119580701, 
  -0.205410257,  0.098273084,  0.084328257, -0.177731782,  0.079111882, 
   0.258930504, -0.139038131,  0.004638454,  0.049406882, -0.264383912, 
   0.181367368, -0.198934361, -0.054991085,  0.037466519,  0.065534614, 
   0.106277674, -0.105960578, -0.173378572,  0.148613214, -0.083847538, 
  -0.058727875, -0.175397694,  0.053962588, -0.046674956,  0.221196547, 
  -0.002322904, -0.063730314,  0.155662566,  0.006955064,  0.048016760, 
   0.214426443, -0.197517514, -0.005693525,  0.077587359,  0.036776327, 
  -0.172721595,  0.258460820, -0.072221741, -0.122014053,  0.001156196, 
   0.165782318,  0.028206022, -0.005295508, -0.138387665, -0.203586370, 
  -0.090016745,  0.073074020, -0.154043749, -0.073563933,  0.177507713, 
  -0.024433279, -0.027665310,  0.305543363, -0.009197791,  0.045032073, 
  -0.140736923, -0.119800135,  0.192923903,  0.145029098, -0.004187298, 
   0.074956924, -0.196814761,  0.045648988,  0.029406037,  0.138187662, 
   0.051526178, -0.091814414, -0.124020450,  0.040586352,  0.122291237, 
   0.051870264, -0.245593399, -0.105265476, -0.080139771, -0.189449638, 
  -0.087449752,  0.044443991, -0.037373677, -0.007146133, -0.079646178, 
   0.240993887, -0.233047783, -0.005550688,  0.056940284, -0.292432576, 
  -0.224114805,  0.099416308,  0.077878274, -0.235119686, -0.054035559, 
   0.203639179,  0.119344972, -0.095742285, -0.319994301,  0.167950585, 
  -0.149888068, -0.037456784, -0.005067878,  0.002548852,  0.159522027, 
   0.396668732, -0.297881246, -0.101354964,  0.184579358, -0.051594723, 
   0.036884118, -0.100627169, -0.021232432, -0.219690949,  0.114178196, 
   0.023723258, -0.132535934, -0.128009871, -0.046533912, -0.161765352, 
  -0.181453496, -0.088138118, -0.011077255,  0.088721298,  0.046207216, 
   0.046400871, -0.161383733,  0.000338095, -0.045142312, -0.017733319, 
  -0.041745372, -0.114542864, -0.092059746,  0.186006576, -0.119360276, 
  -0.215120882, -0.015517245,  0.116645738, -0.096528284, -0.139790773, 
  -0.080330968, -0.073576286, -0.243642956, -0.140377164, -0.072484232, 
   0.037725989,  0.001065289,  0.077910639,  0.031918053,  0.133450434, 
  -0.073997572, -0.258230239, -0.193589523,  0.181638703,  0.027956987, 
  -0.265774131, -0.004579837,  0.031272348, -0.024799442,  0.167398468, 
  -0.167498142, -0.254668981, -0.117532767,  0.221615061, -0.321245492, 
  -0.049710304, -0.126006514,  0.243987873,  0.111886017, -0.115659855, 
   0.175470352, -0.138824925, -0.200053662, -0.111551560,  0.017644713, 
   0.090350352, -0.066360548,  0.121650755,  0.095896401,  0.215817630, 
  -0.067352697, -0.220876828, -0.050781857, -0.240160108,  0.026026912, 
   0.010592332, -0.139306217,  0.166451633,  0.128196895, -0.073460996, 
  -0.029271236, -0.261482567,  0.016877713, -0.250063658,  0.195140153, 
   0.198029146, -0.074342780, -0.141041130, -0.179724634,  0.076687023, 
  -0.069925219, -0.023118539, -0.188866496, -0.211767465,  0.077922419, 
  -0.103389442,  0.065808490, -0.036556631, -0.118570171,  0.136338294, 
  -0.137871116, -0.149404123, -0.081595749, -0.070324570, -0.229018003, 
   0.089942321,  0.030077076, -0.070303284,  0.214172170,  0.100584023, 
   0.109441303, -0.079233363, -0.214349270, -0.250914544,  0.019585565, 
   0.307314545, -0.051660873,  0.020266976,  0.135412276,  0.120611697, 
  -0.033950422, -0.116855338, -0.203273833, -0.166968852,  0.015948100, 
   0.110188298, -0.078026347,  0.134820715,  0.038424473,  0.150929853, 
  -0.163876653,  0.304342419, -0.084641136,  0.235300034,  0.022290163, 
   0.066945754,  0.179328218, -0.055317171, -0.181180641, -0.080246881, 
   0.166832447, -0.155983314, -0.177088737,  0.099479429,  0.326639950, 
   0.055416495,  0.094512239, -0.160441935,  0.036284491, -0.056535661, 
  -0.015516719, -0.304622769, -0.283192635, -0.163775250,  0.073084041, 
   0.055456139,  0.068704449,  0.162851751,  0.005668226,  0.125269324, 
  -0.206726074, -0.077185795, -0.259884924, -0.029944297,  0.076725885, 
  -0.033971116, -0.058324683,  0.134383217,  0.005777802, -0.088307858, 
   0.144414976,  0.211844236, -0.074738882,  0.078222632, -0.180341378, 
   0.091137394, -0.050072007,  0.060008332, -0.067283660,  0.075869255, 
  -0.047428571, -0.023751007,  0.140680611, -0.017990248,  0.252137721, 
  -0.276537806,  0.062805027, -0.084828138, -0.215483531, -0.032439761, 
  -0.205608755,  0.143710926, -0.185923681,  0.093796313,  0.040939134, 
  -0.092822440, -0.041439306, -0.235925630,  0.093515545, -0.110526152, 
  -0.106809750,  0.069754109, -0.094190396,  0.085347131, -0.205574974, 
   0.081316650, -0.192816705,  0.218809575, -0.098689012,  0.029875956, 
   0.092667736,  0.083481923, -0.075273886,  0.125557661,  0.216563329, 
  -0.097384363, -0.006588152,  0.165712282,  0.247501269,  0.111451410, 
  -0.021835914, -0.253797621,  0.004123148,  0.123923540, -0.072850302, 
  -0.078856729, -0.172352254,  0.114161775, -0.022905888,  0.091751173, 
  -0.309496284,  0.332419366, -0.142365634, -0.254074037,  0.054413076, 
   0.175548509,  0.300454468, -0.266110152, -0.199508309, -0.103112794, 
  -0.221678659,  0.019034235, -0.143414393, -0.229922369,  0.135939822, 
  -0.174033344,  0.074779034,  0.082502648,  0.086830013,  0.299766630, 
  -0.082374424,  0.101383187,  0.152644411,  0.094937861, -0.091221549, 
  -0.082543582, -0.331308633,  0.276876509, -0.112263300,  0.124409892, 
   0.206866533, -0.071456581,  0.039671522, -0.135213599,  0.057665430, 
  -0.152507469,  0.177997336,  0.177051112,  0.165423065,  0.260462403, 
   0.198168933, -0.275735825,  0.048090570,  0.064791337,  0.006300780, 
   0.174603671,  0.048421025,  0.174073428,  0.268252522, -0.025787655, 
  -0.317529261,  0.160346240,  0.053457160, -0.138627589,  0.279439151, 
  -0.161651343, -0.241306528, -0.026436096, -0.021596387, -0.109197468, 
   0.046075650, -0.180513501, -0.025495553, -0.014976478,  0.114932880, 
   0.000650530,  0.093781307, -0.124784023, -0.124859028, -0.047949519, 
   0.274404079, -0.229033932, -0.113142557,  0.046803866, -0.186687574, 
  -0.126740187, -0.154407382, -0.096728809,  0.274578214, -0.029398661, 
  -0.088300213,  0.147565633, -0.044880856, -0.166017368, -0.003770475, 
   0.114112556, -0.182563648,  0.190766782, -0.140248209,  0.138355806, 
   0.161876634,  0.088143237, -0.137148276, -0.121846810,  0.191347644, 
  -0.052888885,  0.072579235,  0.001291882, -0.179166064,  0.201879680, 
  -0.071372241,  0.151256382,  0.102986187,  0.091252148, -0.089214899, 
  -0.040647462, -0.006733890,  0.016328985, -0.288752079,  0.201117143, 
   0.063151658, -0.243166566,  0.015714439, -0.098161019, -0.169446796, 
  -0.066633530,  0.108982995,  0.226959184, -0.046552360,  0.021962613, 
   0.010580752, -0.250816822, -0.162228167,  0.011299724,  0.085392006, 
  -0.130603105, -0.153840527,  0.021280045, -0.109890811, -0.008979410, 
  -0.028653953, -0.252296865,  0.140367150, -0.052618239,  0.220686913, 
  -0.070799090, -0.054535713, -0.057771802, -0.124692090,  0.076546021, 
   0.149658442, -0.139828131, -0.142054632, -0.199357405,  0.026751712, 
   0.116633527,  0.174569383, -0.091847517, -0.113033056,  0.084694684, 
   0.120736301, -0.047449596,  0.342759699, -0.018585112, -0.085226946, 
  -0.046027351,  0.010211822, -0.117327519,  0.097815931, -0.051233567, 
   0.210240290, -0.109071188, -0.099209413, -0.222951621,  0.032730617, 
  -0.243398309,  0.185765937, -0.197455257,  0.038781542, -0.124475993, 
   0.036050342, -0.253116757, -0.246837795, -0.099171430,  0.099498577, 
   0.027900869, -0.030007929, -0.129163608, -0.271851957, -0.088501692, 
  -0.108368240, -0.012866944,  0.116758205, -0.125994697,  0.107379332, 
  -0.159109101, -0.001597915, -0.246390745,  0.104669452,  0.032726187, 
   0.064380258, -0.169791698, -0.064865023,  0.134757236,  0.169167966, 
   0.061322007,  0.173673376, -0.233600691,  0.123999842, -0.024927627, 
  -0.218614623,  0.334508717,  0.308441132, -0.161024794, -0.133256242, 
  -0.311029077, -0.231102571,  0.039177313,  0.081576340, -0.132973611, 
  -0.013710718,  0.066700220,  0.042740177, -0.097030595,  0.038007632, 
  -0.068413399, -0.028337380, -0.181136191,  0.260084510,  0.007256638, 
   0.003402749, -0.072219796, -0.136349231, -0.106043167,  0.069801539, 
   0.209353879,  0.187288404, -0.226587668, -0.236127853,  0.153887853, 
  -0.049629319, -0.139223069,  0.240616128, -0.107072644,  0.265486568, 
  -0.041775160,  0.019276580,  0.023231011,  0.223458320, -0.017561493, 
  -0.314554632,  0.310543060, -0.105271190,  0.135832623,  0.192500085, 
  -0.086003341, -0.079331823, -0.022272578, -0.008507033,  0.188850209, 
   0.083416820, -0.045218058, -0.063364118, -0.184819743,  0.197508618, 
  -0.234257787, -0.044718251,  0.352948368, -0.235739410,  0.112870947, 
  -0.241456702,  0.138366893,  0.148360178, -0.102519140,  0.015210857, 
  -0.287814468, -0.007894291,  0.215316191, -0.153659642, -0.014040843, 
  -0.196105972, -0.057250615, -0.128292605,  0.058275465, -0.052608225, 
   0.154973552,  0.100244626, -0.135097340,  0.157406330,  0.174594730, 
  -0.088468716, -0.086642399,  0.009360074,  0.139051154,  0.120692849, 
  -0.186133459,  0.169870272, -0.024674565, -0.041190602, -0.011775872, 
   0.024178453, -0.333983958,  0.011334308,  0.082700424,  0.182739824, 
  -0.038060758, -0.038362686,  0.236223504, -0.040666755,  0.085469194, 
   0.252618849,  0.069500655, -0.058883309, -0.308051407, -0.127559915, 
   0.069446385, -0.089988947, -0.086974673, -0.123525850, -0.118619435, 
   0.281027853, -0.095091738,  0.003231829, -0.082981236, -0.011404851, 
  -0.149646416,  0.092463203,  0.235563636, -0.308123946, -0.097441353, 
  -0.026018146, -0.121253178,  0.033582542,  0.047427990,  0.194673508, 
   0.046304412, -0.090365909,  0.129202276, -0.014658614,  0.194293082, 
  -0.049023487, -0.227941409,  0.038389195,  0.103214137,  0.122613728, 
  -0.088128164, -0.018767120, -0.211727232, -0.261376828, -0.107919134, 
   0.067329444, -0.113861308, -0.180555731, -0.208201349, -0.091633096, 
  -0.000128830,  0.255545348,  0.096903652,  0.004110919, -0.055877060, 
  -0.155044973,  0.177634478,  0.042098161,  0.020869587,  0.115689747, 
   0.020224977, -0.161312297,  0.229654014, -0.163317397, -0.060684275, 
   0.233852267, -0.250848442,  0.314797789, -0.081778213, -0.081167780, 
  -0.060658164, -0.046220623, -0.039690685, -0.089064084, -0.251350731, 
   0.027351346, -0.121864498, -0.031202627, -0.015829397, -0.041138589, 
  -0.154500276,  0.131401122, -0.186547875, -0.192058027, -0.042926218, 
   0.035092089,  0.066371322,  0.279679656,  0.142724603, -0.137689069, 
   0.106180660, -0.304629862, -0.149019122,  0.013451811, -0.137851387, 
   0.088409126, -0.134928882,  0.271062702,  0.141484246,  0.074431367, 
  -0.014824886, -0.320597231, -0.073224656, -0.128033489, -0.296749502, 
  -0.187135011,  0.106035255, -0.071863778, -0.071537204,  0.146609768, 
   0.124759480, -0.006904928, -0.034961756,  0.022345247,  0.046618655, 
   0.055682924, -0.163149893,  0.034278866,  0.045773536, -0.133825839, 
  -0.150598735, -0.032459442, -0.095287681, -0.295296401, -0.248370394, 
   0.042654853, -0.290126145,  0.027880942,  0.345209837, -0.026087277, 
  -0.000404738, -0.311974287, -0.233724192, -0.050571274, -0.045643121, 
   0.164312288, -0.249330133,  0.087652154, -0.145512581, -0.307774693, 
   0.074922048,  0.201238528, -0.183194280, -0.085337006, -0.093894877, 
   0.211544096, -0.114055142,  0.031764586, -0.166223660, -0.038248170, 
  -0.043096658, -0.070736691, -0.290785939,  0.048399929, -0.169796631, 
  -0.157043040,  0.227345765,  0.043873876, -0.074562401, -0.144609943, 
  -0.099510938,  0.320943266,  0.032430116,  0.011116749, -0.028059095, 
  -0.043945845, -0.181382969, -0.022382727, -0.171385050, -0.156257659, 
   0.156373128, -0.228028744, -0.118602917, -0.034316555, -0.176590443, 
  -0.018885860, -0.068709053,  0.051618677,  0.106061488, -0.194515929, 
  -0.039553117,  0.190840989, -0.012253846,  0.079915144, -0.015721925, 
  -0.060522858,  0.012017779, -0.002791228, -0.171394333, -0.049306322, 
  -0.044662159,  0.105474330, -0.036340777, -0.084671065, -0.250554234, 
  -0.139940172,  0.125625372,  0.093708478, -0.125782490, -0.033226341, 
  -0.237283736,  0.177123368, -0.071380556,  0.127677068, -0.099853411, 
  -0.253119498,  0.289734632, -0.225272328, -0.163374156,  0.123082511, 
  -0.016552292, -0.227351680,  0.104586557, -0.119227566, -0.140185311, 
  -0.279147953, -0.035952482,  0.040288780, -0.038190234, -0.227059901, 
  -0.014976864,  0.135876581, -0.073821165,  0.072202817, -0.251822531, 
   0.252858430, -0.031592578,  0.295313239, -0.137622327, -0.243175656, 
  -0.010249581,  0.253160119, -0.055775527, -0.066443495, -0.152689263, 
   0.184512660, -0.029345622,  0.193870202, -0.202222735, -0.078415833, 
  -0.119638652,  0.317372948,  0.110059500, -0.224030241,  0.039320473, 
  -0.130099937,  0.141410813, -0.062670201, -0.095551156,  0.082060382, 
  -0.105641440, -0.029332889,  0.098961569, -0.201568961, -0.069328412, 
   0.260090232, -0.093629904, -0.001961495,  0.124914363, -0.278382331, 
   0.164247259, -0.028443610,  0.274442911, -0.108846955, -0.052129053, 
  -0.027055277, -0.041043751, -0.219411194,  0.201661631,  0.104100004, 
  -0.016994726, -0.056693707, -0.056417387, -0.053492684,  0.106367126, 
  -0.217781633,  0.219418183,  0.160105705, -0.002903670,  0.089268804, 
  -0.003960056,  0.064384840, -0.274349272,  0.179190144,  0.050204825, 
  -0.003109843, -0.106805049,  0.150931776,  0.038524933, -0.208237141, 
   0.078515820,  0.010492348, -0.274227351, -0.019671906, -0.165686905, 
  -0.075964779, -0.152988255, -0.084144868,  0.158835202,  0.043174658, 
   0.026672496,  0.030485839, -0.113169394, -0.070172198, -0.186786741, 
   0.082873389,  0.347519279, -0.034013975, -0.017221542, -0.246847659, 
  -0.105920359, -0.022901449,  0.256511539, -0.209573254, -0.057852384, 
   0.199080572, -0.004518903, -0.272305280,  0.199205250, -0.107818097, 
   0.104394883,  0.045418210, -0.040799700, -0.090337068, -0.097047530, 
  -0.210019127, -0.030787237,  0.105126269,  0.110745803,  0.077911496, 
   0.075535305, -0.060611136,  0.025885776, -0.194247529, -0.006354625, 
  -0.030150905,  0.079096206,  0.135217801,  0.017739780, -0.286517262, 
  -0.091861248,  0.127463251, -0.344311655, -0.096289761, -0.136913612, 
  -0.087790042,  0.038540959,  0.069619678,  0.038372628, -0.132448822, 
  -0.091327481,  0.147499278, -0.077200912,  0.102310956, -0.149820164, 
   0.059241522,  0.107249208, -0.045156486, -0.176146224,  0.202733368, 
   0.188393638, -0.043131873,  0.205443218, -0.080783516,  0.204843476, 
  -0.081488036, -0.137860537,  0.322781503, -0.107715078, -0.183389381, 
   0.167518884, -0.123601802, -0.296755314,  0.033996675, -0.218913943, 
  -0.013860896, -0.164411440,  0.096121162,  0.052805454, -0.163728446, 
   0.195249051, -0.092385732, -0.073848225, -0.212606966, -0.189793289, 
  -0.232770413,  0.242025927,  0.096426561,  0.248554766,  0.000612151, 
   0.096943267, -0.132318929,  0.058028411, -0.124041714, -0.021487338, 
  -0.093559243, -0.179088891,  0.000628875,  0.284735322, -0.329721719, 
  -0.004390441,  0.011375052, -0.076004885, -0.177241251,  0.068754494, 
   0.124506533,  0.235575989, -0.022675147,  0.162128240, -0.126610711, 
   0.095145814, -0.264346719, -0.152989134, -0.167916462, -0.045806296, 
  -0.168826371, -0.183009028,  0.025893997,  0.272141427, -0.123161942, 
  -0.107192777, -0.123339325, -0.003416207, -0.028339729,  0.028689746, 
   0.006166583, -0.209746599, -0.060856562,  0.268598735, -0.110448189, 
  -0.093461737, -0.169283792,  0.094106272, -0.250083208, -0.155704543, 
   0.035870653,  0.072785929,  0.181523293,  0.230512187, -0.128729254, 
  -0.070292436, -0.103343092, -0.025191963,  0.139062434,  0.145232946, 
   0.093224697,  0.068292387, -0.076954179,  0.116553880, -0.259081751, 
   0.046133287, -0.300330669, -0.246112242,  0.084510826, -0.244404912, 
   0.154338792,  0.157212883, -0.209018946, -0.256991267,  0.050014455, 
   0.007039890,  0.106147207,  0.155281559,  0.109966248,  0.038373668, 
   0.170959160,  0.028841913,  0.013198403,  0.167570189, -0.106461205, 
   0.075891308, -0.085602149, -0.178838074, -0.013623769, -0.128516078, 
   0.011587799,  0.104624495, -0.053776365,  0.014648409, -0.145204335, 
   0.014408926, -0.170124382, -0.136543080, -0.181239173, -0.062185347, 
   0.062616564, -0.023674745, -0.124769688,  0.018924819, -0.014274548, 
   0.086012192, -0.146270558, -0.008678569, -0.069877476, -0.105274059, 
   0.286656529,  0.058111317,  0.009480540,  0.131253779, -0.209980905, 
   0.208831549, -0.035024364,  0.026997698,  0.150453642, -0.050063558, 
  -0.114893928,  0.276005477, -0.277984053,  0.204880223,  0.239433974, 
  -0.071433425, -0.340936750,  0.124469392, -0.137074038,  0.040359896, 
  -0.187753499, -0.140755817, -0.305909574, -0.064575613,  0.000590587, 
  -0.087022446,  0.270216614, -0.017332254, -0.073829696,  0.083758570, 
   0.064877033, -0.322689503,  0.151103601,  0.071727760, -0.232943758, 
  -0.063484259,  0.001627215, -0.065505147,  0.019825511, -0.063097917, 
   0.077813022, -0.263819605, -0.029391503,  0.150743470, -0.118742399, 
   0.174700245, -0.004430089,  0.102767989,  0.211210936, -0.025922880, 
   0.025227020,  0.092715316, -0.075971343,  0.025053840, -0.081813015, 
  -0.015180395,  0.198079601, -0.114497788,  0.239865214, -0.208032131, 
  -0.099949636,  0.095049091,  0.017938832,  0.215101570,  0.190767705, 
   0.060504008, -0.091575898,  0.132545471, -0.157123730, -0.018418206, 
  -0.271252811,  0.013157776, -0.014771217,  0.121645994,  0.104476631, 
  -0.240105391, -0.072760440,  0.300687283, -0.046510097,  0.117413558, 
   0.111737177,  0.182028338, -0.078913823,  0.087769091,  0.046156392, 
  -0.111783832, -0.012029964,  0.002945050,  0.103825800, -0.101526856, 
  -0.027989484,  0.301143289, -0.148222312, -0.170168221,  0.108026974, 
   0.159924477, -0.215164319, -0.162990347,  0.035219092,  0.025927141, 
   0.023066591, -0.045266353,  0.162529871,  0.048038509, -0.024899777, 
  -0.048698630, -0.051389150, -0.224856570,  0.214303970,  0.061067689, 
  -0.107421994,  0.211317599, -0.010508980, -0.090839915,  0.023508869, 
   0.218481421, -0.109009594,  0.175467059,  0.012709817,  0.059892513, 
  -0.280185878, -0.235509992, -0.175116271,  0.005554767, -0.149780303, 
  -0.195735723, -0.092340991, -0.100532912, -0.055312607,  0.008457881, 
  -0.004843635, -0.028756624,  0.076976374,  0.069638178,  0.020168625, 
   0.169669092, -0.199862093, -0.272911608,  0.047513217, -0.058557741, 
  -0.186555952,  0.235447168,  0.129245907, -0.130841374,  0.098143563, 
  -0.039942991, -0.051820133, -0.120973490, -0.071722277,  0.095455550, 
  -0.189664319, -0.002939881,  0.006273583, -0.288280398,  0.087822758, 
  -0.018413819, -0.074864127, -0.115929253, -0.112185702,  0.141284093, 
  -0.134683639, -0.001563231, -0.153297648, -0.009122808,  0.108996421, 
   0.092826694,  0.058520578,  0.032014605, -0.054328922, -0.048101828, 
   0.032333925, -0.093607649,  0.210174799,  0.058622837,  0.076597705, 
   0.177283913, -0.162879452, -0.161004618, -0.075095452,  0.264658570, 
   0.039477699,  0.023259314,  0.151141658, -0.166762054,  0.067307100, 
  -0.042102195, -0.217112869, -0.177705467,  0.153560400, -0.052473143
};

// ...
static const float mnist_model_dense_biases[10] = {
  -0.031835511,  0.092206031, -0.009313810, -0.069890216,  0.002402015, 
   0.015560616,  0.010671116,  0.035672158, -0.093946248,  0.054398209
};

// ...
const InfercatLayer_DENSE mnist_model_dense_ = {
  .weight = mnist_model_dense_weights,
  .bias = mnist_model_dense_biases,
  .input_size = 180,
  .output_size = 10,
  .output_buffer = mnist_model_dense_output,
  .activation = InfercatLayerActivation_SOFTMAX
};

// ...
const InfercatLayer mnist_model_dense = {
  .mem = (void*)(&mnist_model_dense_),
  .type = InfercatLayerType_DENSE
};

// -----------------------------------------------------------------------------
//
// -----------------------------------------------------------------------------

// ...
#define mnist_model_LAYERCOUNT 3

// ...
const InfercatLayer* mnist_model[3] = {
  &mnist_model_conv2d,
  &mnist_model_conv2d_1,
  &mnist_model_dense
};

// -----------------------------------------------------------------------------
#endif
