// -----------------------------------------------------------------------------
// 
// This file is auto generated by model_export.py
// -----------------------------------------------------------------------------
#ifndef MNIST_MODEL
#define MNIST_MODEL

// ....
#include <stdint.h>
#include "infercat.h"

// -----------------------------------------------------------------------------
//
// -----------------------------------------------------------------------------

// ...
float mnist_model_conv2d_output[1352];
  
// ...
static const float mnist_model_conv2d_weights[18] = {
   0.377429903, -0.282588184,  0.473926753,  0.398654670,  0.264458209, 
   0.185554460, -0.316739500,  0.128069639, -0.029809406,  0.439798683, 
  -0.098813191, -0.213880807,  0.051077910,  0.513240755,  0.486070991, 
   0.164865464,  0.103850722, -0.167561889
};

// ...
static const float mnist_model_conv2d_biases[2] = {
   0.022297500,  0.010586266
};

// ...
const InfercatLayer_CONV2D mnist_model_conv2d_ = {
  .weight = mnist_model_conv2d_weights,
  .bias = mnist_model_conv2d_biases,
  .in_width = 28,
  .in_height = 28,
  .in_depth = 1,
  .out_width = 26,
  .out_height = 26,
  .out_depth = 2,
  .kernel_width = 3,
  .stride = 1,
  .output_buffer = mnist_model_conv2d_output,
  .activation = InfercatLayerActivation_RELU
};

// ...
const InfercatLayer mnist_model_conv2d = {
  .mem = (void*)(&mnist_model_conv2d_),
  .type = InfercatLayerType_CONV2D
};

// -----------------------------------------------------------------------------
//
// -----------------------------------------------------------------------------

// ...
float mnist_model_dense_output[10];
  
// ...
static const float mnist_model_dense_weights[13520] = {
   0.005876099,  0.151481748, -0.051669963, -0.021468647,  0.038879216, 
   0.170056492, -0.008113496,  0.031943545, -0.234776124, -0.026794052, 
   0.005964385,  0.151515767, -0.038398225, -0.039331950,  0.003795950, 
   0.073477179, -0.066098079,  0.142176926, -0.100361191, -0.047442146, 
  -0.073715396,  0.087537311,  0.027491018, -0.008597601,  0.030621696, 
   0.183203608,  0.025324462,  0.033729814, -0.229608640,  0.038636044, 
  -0.053606752,  0.130189732, -0.041237872, -0.122873701,  0.059963960, 
   0.164691254, -0.022022646,  0.128243417, -0.164471462, -0.009265842, 
  -0.082402222,  0.121512562, -0.081094861, -0.128716886,  0.007885318, 
   0.172830403,  0.038412761,  0.159020200, -0.188611969, -0.026461719, 
   0.015047621,  0.097668909,  0.035742130, -0.081563950,  0.075155862, 
   0.131567359,  0.009622172,  0.033367954, -0.188846976, -0.048297063, 
  -0.101083025,  0.173756540, -0.059205398, -0.081988864, -0.003017856, 
   0.098005258, -0.003360595,  0.124892570, -0.224739447,  0.047243867, 
  -0.054741453,  0.167139664, -0.011496553, -0.126615703, -0.000141864, 
   0.159639269,  0.037970375,  0.032343581, -0.191113621,  0.047598936, 
  -0.085676342,  0.152624711, -0.026806129, -0.056973528,  0.036647830, 
   0.078983344,  0.014232643,  0.059825782, -0.200612992, -0.027451143, 
   0.026359214,  0.054175071, -0.036029555, -0.019593602, -0.050507102, 
   0.048200916,  0.028404767,  0.098137051, -0.135039568, -0.028765673, 
  -0.035974875,  0.099241190,  0.034665804, -0.107880510, -0.080663569, 
   0.097621582, -0.006443279,  0.007033246, -0.203581303, -0.072932936, 
  -0.058431640,  0.172461942, -0.039539866, -0.027256396, -0.018670591, 
   0.116267234,  0.046810757,  0.081241265, -0.110255294, -0.057671327, 
   0.003539453,  0.039700031, -0.063954882, -0.065204687, -0.052517176, 
   0.131230310,  0.057980679, -0.048614327, -0.163260132, -0.008512130, 
  -0.029612711,  0.114571638,  0.008264791,  0.003151497, -0.004714352, 
   0.081329063,  0.059379466,  0.028886490, -0.166958749, -0.084794961, 
  -0.083400682,  0.104836166,  0.023871304, -0.140259281, -0.052390873, 
   0.057855316,  0.102525555, -0.004111262, -0.155323133, -0.050686914, 
  -0.020724889,  0.009557908, -0.057813495, -0.073447220, -0.120939933, 
  -0.014690978,  0.038498998, -0.048826013, -0.148154855, -0.034255911, 
  -0.141114578,  0.072171941, -0.021529892, -0.021988232, -0.160089940, 
  -0.030141544,  0.139280483, -0.058636375, -0.104687624, -0.100971073, 
  -0.007137845,  0.007968120, -0.077890784, -0.043122992, -0.034490149, 
   0.008231901,  0.120652542, -0.013276059, -0.078217849, -0.058779806, 
  -0.113468811, -0.016065696, -0.011262136, -0.105742231, -0.165789112, 
  -0.034792405,  0.055824779, -0.028807295, -0.147872165, -0.092324264, 
  -0.028515896, -0.017733619, -0.088192128, -0.121153422, -0.104498275, 
  -0.004876047,  0.060626015, -0.094034061, -0.132646337, -0.035746261, 
  -0.095179081,  0.025201183,  0.016066909, -0.054146301, -0.200346470, 
  -0.007041532,  0.072851978,  0.000514517, -0.120954834, -0.109022275, 
  -0.047320671, -0.054159947, -0.089995146, -0.007279169, -0.092487931, 
   0.003349683,  0.140459105, -0.057134517, -0.094102204,  0.001092148, 
  -0.054536697, -0.057512809,  0.018439462, -0.001905698, -0.205289066, 
  -0.082573794,  0.104925826, -0.031551138, -0.056380294, -0.099103652, 
  -0.054805614, -0.031480648,  0.013705771,  0.001434217, -0.112612426, 
  -0.078732595,  0.023997407, -0.004572614, -0.025085801, -0.125013247, 
  -0.138229355,  0.044876248,  0.031600367, -0.040971197, -0.149831623, 
  -0.015440272,  0.127806500, -0.047171261, -0.138114780, -0.094753012, 
  -0.050621800,  0.022872010,  0.002643122, -0.101296283, -0.114960186, 
  -0.112163447,  0.066265769, -0.095036708, -0.120616823, -0.024816709, 
  -0.095604360,  0.020442724,  0.006203366, -0.084707089, -0.140162513, 
  -0.003417135,  0.124999359, -0.098246560, -0.134221688, -0.047706835, 
  -0.016183585,  0.000271056, -0.102156766, -0.018301606, -0.134468973, 
  -0.041392818,  0.130618989, -0.007317463, -0.122654848, -0.074371569, 
  -0.089385316, -0.049759567, -0.021116769, -0.046662662, -0.032937244, 
  -0.026646303,  0.127105132, -0.004781187, -0.112475343, -0.138190165, 
  -0.083366282,  0.010948408, -0.000614814, -0.093597479, -0.131867051, 
  -0.091003492,  0.041433446, -0.025821175, -0.042726338, -0.093588516, 
  -0.119621411, -0.003881086, -0.000819072, -0.118155859, -0.103772879, 
  -0.078907728,  0.061818037, -0.083688170, -0.110686541, -0.072570592, 
  -0.037025370,  0.009744079, -0.021400280, -0.073781438, -0.062142689, 
  -0.022085052,  0.107470058, -0.018141525, -0.049613588, -0.043008257, 
  -0.047708787, -0.051299654, -0.025582932, -0.031839635, -0.116397418, 
  -0.029900320,  0.052532904, -0.013222040, -0.121687286, -0.066742033, 
  -0.075379297, -0.080019623,  0.025954450, -0.038345966, -0.088007405, 
  -0.033146005,  0.130112439, -0.081013553, -0.053925421, -0.142134875, 
  -0.156181991, -0.010087914, -0.117678881, -0.012401484, -0.034193084, 
   0.023634581,  0.108911775, -0.081932187, -0.079473853, -0.129910886, 
  -0.038903676, -0.042322796, -0.060964920, -0.002867576, -0.047532883, 
  -0.023479261,  0.084018342, -0.003680756, -0.128883034, -0.069736503, 
  -0.063382819, -0.076892175, -0.106623016, -0.018716622, -0.125422210, 
  -0.021746485,  0.012241387, -0.045481306, -0.109919153, -0.101791561, 
  -0.027086325, -0.095668875, -0.026151855, -0.116240963, -0.108820952, 
  -0.016246706,  0.010372492,  0.008193322, -0.015357420, -0.086730540, 
  -0.106776126, -0.039431706, -0.121598005, -0.053319883, -0.026080761, 
   0.006343971,  0.127553150, -0.017450841, -0.116542645, -0.035563234, 
  -0.081921145, -0.098323837, -0.133507669, -0.052242637, -0.079361096, 
  -0.099761508,  0.088829018, -0.066751532, -0.050343312, -0.049863361, 
  -0.147538364, -0.012658553, -0.088813938, -0.086237475, -0.136432603, 
   0.010037313,  0.100758918, -0.006811276, -0.172828570, -0.022922078, 
  -0.072436251, -0.022949623, -0.063364156, -0.110712342, -0.053586744, 
  -0.064303376,  0.030245634, -0.012716983, -0.055654280, -0.001966646, 
  -0.115196995, -0.021746129, -0.058846816, -0.045432039, -0.070032336, 
  -0.037448347,  0.059065010, -0.029067984, -0.104052186, -0.016138842, 
  -0.109648369,  0.008152851, -0.050813206, -0.028086452, -0.123462409, 
  -0.054660011,  0.004957665, -0.050805446, -0.105483152, -0.006543992, 
  -0.056716476,  0.092472620, -0.070456631, -0.121081062, -0.031354427, 
  -0.041804563, -0.007272940, -0.005755052, -0.125560015,  0.007427046, 
  -0.047263537, -0.024095662, -0.047673684, -0.014840516, -0.098575294, 
  -0.005048817,  0.083161384,  0.029033981, -0.126781076, -0.020225804, 
  -0.079506874,  0.044470266,  0.039193068, -0.060936488,  0.013471715, 
  -0.010348753,  0.001828638,  0.132693887, -0.176677659,  0.003564894, 
  -0.022320820, -0.020791674, -0.058092203, -0.041720558, -0.080025628, 
  -0.028012769,  0.079593159, -0.028304065, -0.071794651,  0.007531348, 
  -0.111606739,  0.175339252, -0.040396441, -0.053495042, -0.017910300, 
   0.106486641, -0.061087426,  0.147814542, -0.125977576,  0.026899736, 
  -0.002236797,  0.048374489, -0.040320709, -0.058168009, -0.011504532, 
   0.074147947,  0.070793130, -0.012526100, -0.142878920,  0.013303559, 
  -0.077334762,  0.061572012, -0.084744021, -0.123520195,  0.001724959, 
   0.101797588, -0.079257309,  0.105855718, -0.129967734,  0.003010720, 
  -0.082886770,  0.107653499, -0.030547595, -0.101355322,  0.057417970, 
   0.046075501,  0.025058897,  0.032496002, -0.144515187, -0.042421088, 
   0.003562135,  0.083163150, -0.094929628, -0.034375824,  0.016274977, 
   0.125435397,  0.007958024,  0.114970170, -0.151206881, -0.050537955, 
  -0.107222967,  0.061088935, -0.002141887, -0.028254256, -0.002939260, 
   0.104296200,  0.000415306,  0.107306913, -0.124019027,  0.045285508, 
  -0.036617815,  0.097291246, -0.091540135, -0.056232046,  0.101668835, 
   0.109970964, -0.042392284,  0.077508546, -0.211837262, -0.050509080, 
  -0.054202583,  0.110888571, -0.012121270, -0.135156199,  0.048215259, 
   0.074834645, -0.058190938,  0.090544604, -0.109093428, -0.010588435, 
  -0.067401320,  0.071662098, -0.055733573, -0.118964300,  0.011945961, 
   0.115146346, -0.018069072,  0.094671205, -0.202205539,  0.028232755, 
  -0.007946859,  0.103344910, -0.073512964, -0.063859753,  0.012159985, 
   0.083313160, -0.044215806,  0.129844144, -0.107913077,  0.042493641, 
  -0.069463074,  0.078074925, -0.042810988, -0.090205245,  0.054526046, 
   0.033996537,  0.030254185,  0.093101799, -0.233896002, -0.058180243, 
  -0.050262120,  0.056991670, -0.066794232, -0.139437631,  0.007620608, 
   0.084243372,  0.063897826,  0.102240145, -0.202553570,  0.016158147, 
  -0.043466330,  0.155351236,  0.066129029,  0.025471745,  0.006052678, 
   0.032768611,  0.087085553,  0.073691353, -0.177669674, -0.009791587, 
  -0.102118112,  0.060310587, -0.043086007, -0.067027040, -0.056772504, 
   0.095142573,  0.030093545, -0.014642287, -0.090694666, -0.052061800, 
  -0.105300687,  0.053836599,  0.075210266, -0.064954959, -0.068372130, 
  -0.007616031,  0.077753626, -0.019987728, -0.218893185, -0.028812502, 
  -0.054647423,  0.047715299, -0.047407743,  0.020732619, -0.081301674, 
  -0.004813644, -0.006974313, -0.028574917, -0.167378440,  0.033018366, 
  -0.068450086,  0.037525985,  0.007188620,  0.009929569, -0.115976207, 
  -0.068979584,  0.062226459, -0.002235183, -0.142648071, -0.011249057, 
   0.012227811,  0.026784945, -0.031769004, -0.001952327, -0.143168688, 
  -0.027464285,  0.043465670, -0.062387235, -0.123342425, -0.031463742, 
  -0.094331667,  0.023054581,  0.095155612, -0.053265508, -0.067927212, 
   0.007949124,  0.026014660, -0.027178461, -0.160548851,  0.007398879, 
  -0.077475898, -0.009851817, -0.066166483, -0.015002420, -0.135786816, 
  -0.029597843,  0.020246271, -0.037485942, -0.120265231, -0.094598278, 
  -0.025867064, -0.060441364,  0.125034779, -0.023698481, -0.158790097, 
  -0.083201356,  0.109496623, -0.075836152, -0.101857491, -0.104609445, 
  -0.112221070, -0.092873253,  0.026304498,  0.021523837, -0.085056365, 
  -0.000061991,  0.034856454, -0.086136192, -0.092973709, -0.014606351, 
  -0.116950527, -0.013863166,  0.132692754, -0.052866623, -0.193716094, 
  -0.099802233,  0.111219533, -0.134281725, -0.162668318, -0.033310421, 
  -0.127505690, -0.059874084,  0.029149063, -0.073524721, -0.077119105, 
  -0.028526323,  0.109771170, -0.056328516, -0.138355553, -0.004489520, 
  -0.114876732, -0.064844400,  0.019812981, -0.031012192, -0.136290729, 
  -0.108655408,  0.063674852, -0.096257359, -0.082356527, -0.136107355, 
  -0.113768525, -0.114095464,  0.058427520, -0.036660071, -0.151894182, 
  -0.062791996,  0.050720412, -0.083936036, -0.050422598, -0.022565078, 
  -0.126220778, -0.104366444,  0.095245115, -0.000609966, -0.155950010, 
  -0.101979584,  0.024096092, -0.095341533, -0.132295012, -0.071947567, 
  -0.050452594, -0.054094065,  0.069991305,  0.011327023, -0.125907198, 
  -0.105930671,  0.099379010, -0.094755121, -0.118685409, -0.115706384, 
  -0.128169477, -0.020711930,  0.117457181,  0.067978807, -0.143684343, 
  -0.084289797,  0.068283111, -0.008595747, -0.116678625, -0.088196151, 
  -0.009780642,  0.000700176,  0.065993242,  0.059946228, -0.180365443, 
  -0.094348021,  0.100120820, -0.016507652, -0.085592829, -0.114829682, 
  -0.100034863, -0.009909017,  0.071493506,  0.049357500, -0.133386657, 
  -0.066533968,  0.054264829, -0.023135772, -0.122819893, -0.072522253, 
  -0.126266986, -0.086380020,  0.069653615, -0.046148997, -0.128332675, 
  -0.092048913,  0.142226309, -0.130937785, -0.071217857, -0.096659869, 
  -0.115984686,  0.020900879,  0.029337393,  0.001776822, -0.051926911, 
  -0.087666050,  0.072891712, -0.041713759, -0.122589342, -0.122014202, 
  -0.021924898, -0.056097902,  0.046275098,  0.000626977, -0.129473105, 
  -0.091608271,  0.070935883, -0.027288193, -0.036396768, -0.096706733, 
  -0.032973357, -0.072536446,  0.082608633, -0.007560762, -0.030888312, 
  -0.040062901,  0.083786458, -0.089926124, -0.098820411, -0.141514793, 
  -0.077999875, -0.027938901,  0.083382681,  0.021844445, -0.037361912, 
  -0.000646223,  0.046321515, -0.093011484, -0.024887746, -0.093232781, 
  -0.090779684, -0.064214699, -0.013317713,  0.075700574, -0.021220416, 
  -0.025049899,  0.111211710,  0.008834131, -0.126946375, -0.075449497, 
  -0.102098331, -0.035917774,  0.003186479,  0.005962907, -0.064690314, 
   0.016567243,  0.035348363, -0.094691239, -0.128413528, -0.083762974, 
  -0.109957904, -0.120979868, -0.009041335, -0.026671940, -0.077771969, 
  -0.065084472,  0.053103238, -0.092786364, -0.121243499, -0.141618773, 
  -0.128065333, -0.118548132,  0.015928423, -0.017361715, -0.133969933, 
  -0.077561259,  0.014092621, -0.049231675, -0.040633142, -0.028910238, 
  -0.154467046, -0.050379276, -0.049909078,  0.040132254, -0.114600845, 
  -0.082005374,  0.056467392, -0.021298259, -0.066346943, -0.143393442, 
  -0.151761085, -0.145865679, -0.075976864, -0.050851051, -0.103341326, 
   0.015153761,  0.075838760, -0.033889368, -0.060723238, -0.130262703, 
  -0.126128361, -0.135886878, -0.015464257, -0.071442038, -0.024388144, 
   0.016420133,  0.051005553, -0.056559611, -0.149844363, -0.122648060, 
  -0.136909395, -0.088283703, -0.028677395, -0.026565362, -0.032560095, 
   0.000374450,  0.045829937, -0.072723471, -0.045403745, -0.082814030, 
  -0.039544493, -0.062532000, -0.083080806, -0.120146893, -0.047235128, 
  -0.034613997,  0.134136587, -0.065793954, -0.059890073, -0.018574797, 
  -0.079543136, -0.163318470, -0.109740533, -0.057630572, -0.089097306, 
  -0.096897334,  0.041851394, -0.080706008, -0.088061370, -0.114305384, 
  -0.132210463, -0.114362843, -0.068282314, -0.039216258, -0.096299089, 
   0.012633197,  0.098241635, -0.071177751, -0.018519351, -0.054584477, 
  -0.153179348, -0.031110886, -0.023108087, -0.025469612, -0.001189434, 
   0.022283932,  0.147693247, -0.055082258, -0.046613298, -0.111628421, 
  -0.123715118, -0.105612479, -0.093382135, -0.167453960, -0.078414507, 
  -0.010640316,  0.122797735, -0.052431658, -0.079171322, -0.079537392, 
  -0.050539024, -0.072799332, -0.046015065, -0.060023762, -0.098339781, 
  -0.023685090,  0.161464691, -0.068521820, -0.097350799, -0.032829423, 
  -0.047423501, -0.086491339, -0.112326540, -0.062842190, -0.067194752, 
   0.004110585,  0.041468732,  0.060561489, -0.146972761, -0.080178283, 
  -0.115064569, -0.022017246, -0.050380711, -0.095675096,  0.008945458, 
  -0.032935534,  0.082060762, -0.002513128,  0.018312912, -0.106248505, 
  -0.073405288,  0.131530523, -0.105426461, -0.125860006, -0.018155210, 
  -0.004474374, -0.017157450,  0.048891556, -0.133000374,  0.015940227, 
  -0.062113557, -0.080871940, -0.046322323, -0.110630184, -0.072738297, 
   0.004954028,  0.101847395, -0.035418507, -0.055805955, -0.037018027, 
  -0.076211974,  0.048031949, -0.080344535, -0.065839969,  0.024571741, 
   0.133630022,  0.039956458,  0.062282220, -0.207172781,  0.033285446, 
  -0.017981581,  0.009806536, -0.032494470, -0.105016805,  0.040295713, 
  -0.020929655,  0.081954584,  0.083599865, -0.070748784, -0.034912448, 
  -0.034372915,  0.190153673, -0.041360635, -0.090567671, -0.019288465, 
   0.150620073, -0.012500634,  0.035387062, -0.153760210, -0.037992340, 
  -0.107608438,  0.092132211, -0.011897586, -0.108096525,  0.067391783, 
   0.160822958, -0.071545199,  0.024249904, -0.117449269, -0.020620324, 
  -0.055007041,  0.145576224,  0.029857000, -0.031115327,  0.083160371, 
   0.075078830,  0.020687992,  0.047404040, -0.160304695,  0.003215021, 
   0.007373199,  0.076177269, -0.061355673, -0.022979164,  0.019336965, 
   0.145969331, -0.010797930,  0.036272291, -0.196136177, -0.027377300, 
  -0.079236172,  0.073814012,  0.021716895,  0.006004540, -0.006935899, 
   0.041988298,  0.001045649,  0.121691249, -0.126538604,  0.033851199, 
  -0.052707136, -0.020292405, -0.084899105,  0.002022953,  0.001814578, 
   0.110514790,  0.026706461,  0.005618699, -0.070826024, -0.033561110, 
  -0.066020884,  0.112909324,  0.048685145,  0.050567038, -0.037579328, 
  -0.030012812,  0.018374065,  0.016253993, -0.126305953, -0.087501854, 
   0.001867321,  0.134432137,  0.034160499,  0.044136949, -0.044519562, 
   0.015203020,  0.056266587,  0.040676795, -0.141621888,  0.027464293, 
  -0.115246266, -0.012802471, -0.020772584,  0.029873023, -0.031120218, 
  -0.010254777, -0.008550254, -0.031075098, -0.150068596, -0.097101279, 
  -0.031140151,  0.065007776, -0.059083194,  0.048186000,  0.076856084, 
  -0.054857682,  0.040675227,  0.015162576, -0.067690685, -0.095480904, 
  -0.113014556,  0.031596255,  0.008987550,  0.064930364, -0.051584803, 
  -0.091706090,  0.019663349, -0.064997226, -0.117925152, -0.105480604, 
  -0.024027774,  0.048075233,  0.010114602,  0.062889978,  0.019244624, 
  -0.021185398,  0.051510245, -0.078165203, -0.116850138, -0.011509002, 
  -0.089506164, -0.067566231,  0.014430357,  0.084757976, -0.003760878, 
  -0.049168397, -0.012114795, -0.025196565, -0.089223117, -0.049522977, 
  -0.116877615, -0.040439695,  0.047208432,  0.094459407, -0.017638238, 
  -0.002946347,  0.006907947, -0.067868881, -0.036161795, -0.079167940, 
   0.011010746, -0.083704814,  0.080978103,  0.073894739, -0.067982003, 
  -0.050521322,  0.064249478, -0.093810119, -0.104162537, -0.073092282, 
  -0.058109377,  0.011360383,  0.001515903,  0.027221706, -0.016356478, 
  -0.069439299,  0.115653537, -0.064677998, -0.135553405, -0.059594031, 
  -0.005480764, -0.016056839,  0.110570043,  0.112841606, -0.132101044, 
  -0.125291154,  0.033540849, -0.056810942, -0.104827628, -0.117534474, 
  -0.002878318, -0.041562926,  0.057699122, -0.012569546, -0.037638776, 
  -0.032878265,  0.090326294, -0.105349049, -0.102147736, -0.119117007, 
  -0.010796580, -0.007718917,  0.058695469,  0.056182560, -0.057498172, 
   0.001006281,  0.079542622, -0.101535812,  0.024609920, -0.050393920, 
  -0.009577571,  0.043829326,  0.087514333, -0.020041300, -0.163477913, 
  -0.052939415,  0.020103928, -0.059978139, -0.008811271, -0.075232387, 
  -0.070737749,  0.014525816,  0.031897508, -0.013340175, -0.134775326, 
  -0.008110696, -0.002568743, -0.037954323, -0.031979747, -0.141506225, 
  -0.075981833,  0.026189454,  0.119302139,  0.058028288, -0.159366593, 
  -0.140592590,  0.086969413, -0.137158349, -0.066262841, -0.151536465, 
   0.021772496,  0.154423758,  0.072217174, -0.029569391, -0.037427712, 
  -0.111667596,  0.061111517, -0.145042092,  0.028708676, -0.035878927, 
  -0.061218243,  0.026110029,  0.021304708,  0.069323041, -0.079585284, 
  -0.071436822,  0.008367612, -0.057875752, -0.104076348, -0.153146163, 
   0.054185525,  0.100465640,  0.007906331, -0.005629760, -0.050402846, 
  -0.103934959, -0.008790560, -0.078816004, -0.054854266, -0.135206982, 
  -0.016462725,  0.053573221,  0.113614812, -0.000224135, -0.134057119, 
  -0.043116830,  0.078989990, -0.024990110, -0.005274264, -0.109522521, 
   0.074161567,  0.126466006,  0.029890142, -0.040231947, -0.116073363, 
  -0.028076390,  0.048367593, -0.050766986,  0.091258526, -0.153737977, 
   0.032351471,  0.091541566,  0.077875733,  0.010152418, -0.100866355, 
  -0.026338406,  0.009876146, -0.020420400, -0.014271986, -0.079807319, 
   0.003664295,  0.048984852,  0.030075420,  0.033982888, -0.102251694, 
  -0.018123494,  0.026191536, -0.137880787,  0.098020270, -0.162590772, 
  -0.010478659,  0.132330775,  0.115108982,  0.072320782, -0.091378607, 
  -0.060876474,  0.006378099, -0.115702100, -0.011280771, -0.041326541, 
  -0.003266978,  0.040212408,  0.088802420,  0.024624927, -0.072335713, 
   0.044222295,  0.110041723, -0.116049342,  0.027964853, -0.086770073, 
   0.044682544,  0.031027026,  0.037503500, -0.008590445, -0.001326051, 
  -0.038172770,  0.042350668, -0.091070175, -0.030919708, -0.038701423, 
   0.025019102,  0.064979881,  0.089208640, -0.066865966,  0.032502603, 
  -0.019102903,  0.101826303, -0.058969349,  0.071707010, -0.163413391, 
  -0.054145977, -0.055295177, -0.011704013, -0.046134707, -0.089090511, 
  -0.045788053,  0.027990188, -0.039428819, -0.086990036, -0.137106329, 
   0.001606011,  0.050392672,  0.028828729, -0.060780849, -0.077977188, 
   0.023999795,  0.148341969, -0.058579065,  0.005883032, -0.041404761, 
  -0.096088775,  0.014408685,  0.016351415, -0.033680160, -0.024968406, 
  -0.026766809,  0.098592363, -0.111644469, -0.016850328, -0.155089796, 
   0.009847787,  0.124907538, -0.005419629,  0.005986728,  0.003289968, 
   0.065159872,  0.155562371, -0.071713157,  0.031572878, -0.053486936, 
  -0.021533461, -0.035326943,  0.056838427, -0.069426864, -0.090771176, 
  -0.042572077,  0.035544906, -0.121435881, -0.104950644, -0.067744792, 
   0.033784453,  0.070863821, -0.111649044, -0.100206189,  0.075234614, 
   0.016378473,  0.076478250, -0.016788397, -0.069349289, -0.105951302, 
  -0.000814870,  0.074587598, -0.055461537, -0.036595605, -0.052144565, 
  -0.079000063,  0.055464976, -0.033431690, -0.119880311, -0.059793584, 
  -0.009357534,  0.053354274, -0.123468973, -0.099658154, -0.029545993, 
   0.014676007,  0.167137966, -0.023375962, -0.073502563, -0.032078009, 
  -0.084574834,  0.062577985,  0.027055888, -0.111099087,  0.010840305, 
  -0.017753463,  0.132800594, -0.075720452, -0.014953797, -0.038211722, 
   0.012490802,  0.056003802, -0.125343516, -0.063858032,  0.012530428, 
   0.063699961,  0.060992125, -0.024253398, -0.026839597, -0.145500496, 
  -0.097581431,  0.117793649, -0.075076982, -0.073219277,  0.067871772, 
   0.019262595,  0.111161791, -0.123873971, -0.076127350, -0.077225089, 
  -0.062946379, -0.010726281, -0.088033244, -0.088487163, -0.019517260, 
   0.014304187,  0.088507101, -0.023593090, -0.068330929, -0.073214918, 
   0.024209799,  0.102705866, -0.077821851, -0.147344172, -0.014799886, 
  -0.030036490,  0.101843536,  0.008196039, -0.116601102, -0.097837813, 
  -0.134087235,  0.010405861, -0.113857068, -0.060172137,  0.091456026, 
   0.013226875,  0.006619261, -0.084987685, -0.011277504, -0.034537882, 
  -0.060788877, -0.032137029, -0.120678902, -0.060209170,  0.074543223, 
  -0.037949584,  0.134940341, -0.102916889, -0.031441223, -0.118765533, 
  -0.060821779, -0.014532330,  0.029050177, -0.106515728,  0.000586255, 
   0.086465664, -0.045959000,  0.057816204, -0.040918063, -0.049575675, 
  -0.073608786, -0.028424880, -0.140570700, -0.021393502, -0.020046096, 
  -0.020109588,  0.026787013, -0.061092984, -0.033538979, -0.103636548, 
  -0.037593491,  0.143414840, -0.034992076, -0.020623492, -0.040028773, 
  -0.005151629, -0.040958703,  0.001116090, -0.098203681, -0.051606689, 
  -0.110087633, -0.129237667, -0.080829211, -0.044806961, -0.025406545, 
  -0.023176011,  0.015234474, -0.005274228, -0.065203354, -0.089312151, 
  -0.040224567,  0.106017537, -0.039806675, -0.008712786,  0.004368705, 
   0.134028703, -0.004618577,  0.120260142, -0.124840774,  0.041540422, 
  -0.043393128,  0.143438712, -0.055043649, -0.108762532,  0.009621278, 
   0.143120453, -0.028372651,  0.047694691, -0.094568007,  0.036259633, 
  -0.106559567,  0.087318793,  0.033215765, -0.072274566, -0.025192624, 
   0.132551178,  0.034943763,  0.022071335, -0.108864471,  0.032069061, 
  -0.090108626,  0.003659784, -0.050490301, -0.099813156,  0.038991835, 
   0.086041451, -0.011528992,  0.060713261, -0.171507999, -0.022059210, 
  -0.024210166,  0.022867600, -0.027119471,  0.109607019, -0.051759534, 
  -0.011687801, -0.046563048,  0.030617002, -0.177737325, -0.035919480, 
   0.008997830, -0.005488424, -0.009666388, -0.092918880, -0.001423229, 
   0.027814129, -0.013336105,  0.110854730, -0.180367917, -0.079570815, 
  -0.053951602,  0.090612717, -0.037952960,  0.080233671,  0.019047678, 
  -0.122933216, -0.041585729,  0.025418537, -0.071391672, -0.045966111, 
  -0.036515500,  0.095137335,  0.023483688,  0.105737999, -0.038174011, 
   0.020775935,  0.038293552, -0.018667603, -0.129418314, -0.076655023, 
  -0.069700032, -0.013414603,  0.051555578,  0.063567668,  0.059490994, 
  -0.118777141,  0.004679484,  0.027128696, -0.140260249, -0.112411529, 
  -0.099510059,  0.026509197,  0.031308439,  0.022281244,  0.020880440, 
  -0.162750021,  0.074982911, -0.093331575, -0.055295181, -0.055466607, 
  -0.119155802,  0.026672322, -0.018473392,  0.070268378,  0.059842747, 
  -0.056618392,  0.025002286,  0.006404573, -0.124899536, -0.069603883, 
  -0.103415564, -0.014547774, -0.006846213,  0.035154298,  0.044219095, 
  -0.111055337,  0.036777586, -0.052628059, -0.100789092, -0.094958209, 
  -0.122928351, -0.089740522,  0.102239683,  0.075646602, -0.064298369, 
  -0.041796152,  0.024561914, -0.050948676, -0.007055587, -0.137969196, 
  -0.061026666, -0.021694450,  0.016415581,  0.120198660,  0.042736035, 
  -0.064568907,  0.021291334, -0.114585645, -0.104881674, -0.132677555, 
  -0.059014998, -0.013644571,  0.016816894,  0.082438916, -0.030738121, 
  -0.055190157,  0.052375000, -0.076979265, -0.004695633, -0.151076853, 
  -0.018665770, -0.080635555, -0.006376713,  0.093628444,  0.057004198, 
  -0.005005897,  0.065722108, -0.027716789, -0.051665559, -0.143669143, 
  -0.066540077, -0.114883214,  0.140752524,  0.058957394, -0.033885889, 
  -0.005152041,  0.094956644, -0.147181928, -0.018714093, -0.063127972, 
  -0.078771234, -0.001625434,  0.060022309,  0.086267337, -0.060148180, 
  -0.004824809,  0.048419334, -0.066401429, -0.068303682, -0.077834293, 
  -0.000541093,  0.026601659,  0.053002391,  0.064522319, -0.042691804, 
  -0.004823310,  0.004521810, -0.129662514, -0.008275237, -0.086414389, 
  -0.117936030, -0.016703395,  0.042981654,  0.070239693, -0.007287001, 
  -0.061973244,  0.118339054, -0.075330198, -0.050402246, -0.100072965, 
   0.021291725, -0.064154170,  0.100626960,  0.060686599, -0.106004782, 
  -0.022608424,  0.033699699, -0.061213166,  0.040491555, -0.018932210, 
  -0.106214143,  0.003181956,  0.122719824,  0.042855617, -0.050241061, 
  -0.055008013,  0.033691127, -0.048924305, -0.099746235, -0.072509512, 
  -0.031854540, -0.032989994,  0.044704191,  0.056180000, -0.129447460, 
   0.034765691, -0.012530386, -0.072873443, -0.013694494, -0.073011979, 
   0.002008558,  0.050507642,  0.013528096,  0.107046433, -0.062940441, 
  -0.100223593,  0.044743035, -0.038082357, -0.058781620, -0.142052382, 
   0.061624665, -0.013510752,  0.066753782,  0.101174608, -0.058163770, 
  -0.000216790,  0.049363770, -0.068224743,  0.089623198, -0.128365532, 
   0.006431683,  0.105985917,  0.032056883,  0.079392470,  0.023778046, 
  -0.054906614,  0.075282671, -0.108396836, -0.027323306, -0.127950788, 
   0.015325242, -0.033344984,  0.089826152,  0.044705831, -0.107768394, 
   0.027558796,  0.138353735, -0.121510595,  0.031555165, -0.037481017, 
  -0.008708175,  0.079412103,  0.071473010,  0.064024955, -0.031419478, 
  -0.116021730,  0.073432960, -0.113388263,  0.029998807, -0.057015248, 
  -0.031373184, -0.004133808,  0.048633836, -0.001397247, -0.009558944, 
  -0.022338456,  0.069006845, -0.080726936,  0.061373990, -0.064964898, 
   0.004997294,  0.073170349,  0.060292706, -0.005873998,  0.022437409, 
  -0.043232203, -0.021072064, -0.039391045,  0.054803841, -0.071325019, 
   0.063020632, -0.023717616,  0.036180858,  0.067471460,  0.054165881, 
   0.088501282,  0.130623817, -0.148720309,  0.025278740, -0.081444353, 
   0.039149843, -0.035911057,  0.053177677,  0.038658522, -0.079119377, 
  -0.004814684,  0.047933374, -0.106058508,  0.075169787, -0.079563990, 
   0.030894466, -0.036379252,  0.031094221, -0.022983527,  0.063595921, 
   0.000358211,  0.151962653, -0.044488914,  0.098343737, -0.078171812, 
   0.001532078,  0.060811050,  0.019528849,  0.056749273,  0.024119312, 
   0.004823887,  0.020634091, -0.091380320,  0.122785591, -0.150358915, 
  -0.012201498, -0.075605616, -0.085191265,  0.019183092,  0.041924208, 
   0.082450770,  0.163291365, -0.048201922, -0.023383697, -0.086714841, 
   0.010691111, -0.027447008,  0.061036680, -0.046155658, -0.036859341, 
   0.013195459,  0.024183011, -0.048944980,  0.020025164, -0.168991283, 
  -0.031163458,  0.011153666, -0.067629106, -0.057034403,  0.078908950, 
   0.055643689,  0.183785915, -0.076263413,  0.038974967, -0.123441957, 
   0.052546337,  0.024653029,  0.045261297, -0.053083923,  0.050757952, 
   0.027212083,  0.098584905, -0.064096056,  0.063698888, -0.094603918, 
  -0.067972004,  0.026589286, -0.050723761, -0.092805348,  0.011959676, 
   0.030885974,  0.070943788, -0.068921886,  0.063984044, -0.138254225, 
  -0.023268620,  0.024147209,  0.013874366, -0.064428590,  0.082585961, 
  -0.024612337,  0.061363045, -0.086577326,  0.057383113, -0.096220791, 
  -0.094607443,  0.039200399, -0.015695382, -0.083596081,  0.045486819, 
   0.061769798,  0.143809155, -0.151859358, -0.052915424, -0.063976496, 
   0.045600131,  0.106126241, -0.021111984, -0.056333732,  0.042099353, 
  -0.006669156,  0.110302962, -0.070328541,  0.037301622, -0.089206435, 
  -0.037713654,  0.051711421, -0.107953504, -0.091254793,  0.036801785, 
   0.055912647,  0.028952682, -0.057298359, -0.033086903, -0.064658709, 
   0.008025383,  0.146828130, -0.075425260, -0.045790978,  0.078864798, 
   0.019316485,  0.110762477, -0.110292830, -0.063149944, -0.093008488, 
  -0.096106499, -0.053149443, -0.055370532, -0.065528549,  0.007363054, 
   0.071316533,  0.105482966, -0.050730169, -0.018489411, -0.170426086, 
  -0.043046687,  0.114992969, -0.043481685, -0.110047035,  0.004421967, 
   0.084604859,  0.016755955, -0.134731218, -0.050210547, -0.140181124, 
  -0.157899737, -0.067330323, -0.132783592, -0.055710390,  0.018149640, 
   0.023903806,  0.061807405, -0.022016361,  0.017958030, -0.095120624, 
   0.002952365,  0.071694568, -0.120911337, -0.155120924,  0.117013700, 
   0.097325906,  0.026771655, -0.019212313, -0.114632025, -0.092594206, 
  -0.158847585, -0.051873885, -0.055057690, -0.153120756,  0.053195804, 
   0.087484643,  0.043503266, -0.113097489, -0.040447813, -0.149516344, 
  -0.121129118,  0.020791901, -0.110720061, -0.127088115,  0.013309489, 
   0.056826476, -0.004576552, -0.075194120, -0.047353487, -0.113909476, 
  -0.149994269,  0.080340788, -0.051588234, -0.145921811, -0.056249175, 
   0.115521751,  0.037648592,  0.056698736, -0.105804063, -0.067279473, 
  -0.090471454, -0.088686518, -0.057452597, -0.090154372, -0.007666725, 
   0.030047307, -0.016595095, -0.094781421,  0.020200035, -0.034935005, 
  -0.123061366,  0.102083363, -0.072223827,  0.016259063, -0.003363325, 
   0.097434744, -0.072246961,  0.060206063, -0.126139283,  0.001134298, 
  -0.010116924,  0.146908760, -0.044022918, -0.049249444,  0.015786856, 
   0.090436555, -0.038468603,  0.085478246, -0.094778351, -0.016131235, 
  -0.117470637,  0.113238007,  0.005647864,  0.019168314, -0.058822226, 
   0.045703087,  0.045573015,  0.087702170, -0.196674168, -0.064723045, 
  -0.086466499,  0.098768555, -0.033908427,  0.023829335,  0.077194966, 
   0.017206389,  0.065802768,  0.081332028, -0.140909523, -0.050780497, 
  -0.105169162,  0.039581291,  0.034208316,  0.056747098, -0.015054959, 
  -0.020881582, -0.052619915,  0.052382000, -0.189295784, -0.075908653, 
  -0.052667174,  0.075885549, -0.012817173, -0.032583632, -0.061755568, 
  -0.041263770, -0.052415051,  0.065182634, -0.138702571, -0.000388487, 
  -0.131091312, -0.035454184,  0.027827661,  0.087391920, -0.026262145, 
  -0.047159992, -0.094493546, -0.026690494, -0.040070601, -0.050626263, 
  -0.054221705, -0.015124800, -0.059898168,  0.080261812, -0.019642090, 
  -0.122308061, -0.059508964,  0.027983138, -0.076224022, -0.049685150, 
  -0.052841671, -0.050677430,  0.043663736,  0.065509699,  0.098805442, 
  -0.051420696, -0.056355752,  0.012385656, -0.061037414, -0.125610381, 
  -0.088214532,  0.005570227, -0.023384446,  0.095327735,  0.006265695, 
  -0.084855698, -0.062140230,  0.030721016, -0.149980262, -0.085415952, 
  -0.043473709, -0.105539910,  0.098422520,  0.055348422, -0.036447264, 
  -0.014459184, -0.077769279,  0.033215098, -0.077784076, -0.086277671, 
  -0.014783978, -0.088815875,  0.028349506,  0.080443807,  0.022967564, 
  -0.153271109, -0.066854335, -0.016405871, -0.112271510, -0.136591464, 
  -0.040443387, -0.053442612,  0.070686325,  0.087569706, -0.033043120, 
  -0.056267608, -0.027773242, -0.003566226, -0.075178586, -0.069501564, 
  -0.048936658, -0.098753043, -0.014071941,  0.128457338,  0.067586333, 
  -0.098132022, -0.055959996, -0.004999774, -0.058958583, -0.122244038, 
  -0.079325855, -0.054747701,  0.009870556,  0.009628407, -0.058371224, 
  -0.095703885,  0.009746749,  0.025994876,  0.036053497, -0.144505858, 
  -0.062602550, -0.024161687,  0.071642630,  0.051961690,  0.059803378, 
  -0.026500730,  0.015524871,  0.014625343, -0.041722845, -0.102224492, 
  -0.037528072, -0.109711573,  0.063555710,  0.090327062, -0.107741103, 
  -0.086195290,  0.024849774, -0.043678459, -0.064013615, -0.041539945, 
  -0.035867587, -0.125468552,  0.006389693,  0.047354143,  0.050568622, 
   0.032454636, -0.050430659, -0.116538532,  0.013110818, -0.129774585, 
   0.011692290, -0.075808726,  0.109054707,  0.032423597, -0.038056549, 
   0.023751713, -0.045907095, -0.077682935, -0.042582177, -0.048829809, 
   0.004429916, -0.033101391,  0.031487901, -0.001464468,  0.051991772, 
   0.030114653,  0.043789200, -0.011745444, -0.083735734, -0.064489678, 
  -0.028483283, -0.047865164,  0.052530475,  0.126107186, -0.151294217, 
   0.011739030, -0.053963199, -0.035707586, -0.002000086, -0.008418288, 
  -0.030007949, -0.079582781,  0.014651728,  0.009812869,  0.024163343, 
  -0.003861777,  0.039770585, -0.072870947, -0.032883566, -0.030690517, 
   0.021144398,  0.091061383,  0.048213854,  0.076135427, -0.045424074, 
   0.016677268,  0.008387390, -0.095513232, -0.003146627,  0.076283768, 
  -0.018450253, -0.035905804,  0.073062465,  0.019530587, -0.024943193, 
  -0.074074790,  0.020860072, -0.018717339,  0.036420237, -0.040116444, 
  -0.064758301,  0.091039881,  0.090874285,  0.075231679, -0.066813812, 
  -0.053286493, -0.041260410, -0.058810666,  0.000935896,  0.049132910, 
   0.065507352,  0.032733690,  0.075210102, -0.007315218, -0.073588647, 
  -0.029612729, -0.003890355, -0.131324798,  0.035942618, -0.108757526, 
   0.025854077, -0.035250433,  0.062033471,  0.107807167, -0.134711906, 
  -0.019557660,  0.036738180, -0.050547235, -0.047487810,  0.159345925, 
   0.060037978,  0.151807100,  0.085676417, -0.011413007, -0.038292591, 
  -0.023114739, -0.031018695, -0.085975491,  0.029931657, -0.013355952, 
  -0.089865528, -0.086578391,  0.099703521,  0.059352811, -0.155126825, 
  -0.039403945,  0.087907866, -0.131441161, -0.027817661,  0.055519693, 
   0.069057934,  0.026348390,  0.095884591,  0.039950039, -0.023204174, 
  -0.024329973,  0.019927341, -0.074669093,  0.011042936, -0.092056125, 
  -0.049499135, -0.096380673, -0.003149611, -0.021332694, -0.077271126, 
   0.075097635,  0.125094816, -0.123803437, -0.005102455,  0.127178758, 
   0.042861912,  0.018112531,  0.062753268,  0.019645803,  0.014391245, 
  -0.048765879,  0.036580794, -0.052948181,  0.071970016,  0.010632348, 
   0.022392834, -0.051652178,  0.081417531,  0.018215790, -0.125490427, 
   0.037757952,  0.095509440, -0.146566823, -0.064500406,  0.086220190, 
   0.089486606, -0.074521296,  0.093550317,  0.079390161, -0.046707880, 
  -0.057740238,  0.041794300, -0.091136515,  0.097399510, -0.003146699, 
  -0.022439586,  0.028426141, -0.056368575, -0.010111022, -0.072179645, 
   0.108179227,  0.103454098, -0.120897673, -0.119230434, -0.019788599, 
   0.072356306, -0.005887349,  0.066011965,  0.069251679,  0.073055722, 
   0.045796108,  0.065849513, -0.023928029,  0.117836945, -0.027130758, 
  -0.098571889,  0.082674928, -0.006977869, -0.054623082,  0.044879273, 
   0.093163602,  0.169293970, -0.119154081, -0.053155795, -0.060374744, 
   0.023401154, -0.029741509, -0.013221477,  0.042630110,  0.001554198, 
   0.020740669, -0.058770388, -0.140740275,  0.109445743, -0.057860211, 
  -0.080213182,  0.119383574, -0.051946305, -0.066955991,  0.047588371, 
   0.023602244,  0.199119955, -0.033830810, -0.037938401, -0.091566078, 
   0.088742875,  0.003034848,  0.027459582, -0.019076727,  0.061926458, 
   0.069280505,  0.031932008, -0.060682189,  0.098996855, -0.011635548, 
  -0.011708225, -0.005868541, -0.073436894, -0.043180421,  0.112021081, 
   0.003225892,  0.149399504, -0.006050210, -0.036819842, -0.041131046, 
  -0.017481459,  0.080128849, -0.046039693,  0.005341619,  0.089540802, 
   0.025168164, -0.050297290, -0.010053542, -0.005896191, -0.088722110, 
  -0.017426997, -0.029923122, -0.146409139, -0.174790293,  0.124442771, 
   0.008172193,  0.164758936, -0.053557172,  0.015649922, -0.082946837, 
  -0.029828109,  0.072431214, -0.068325773, -0.037123803,  0.066215321, 
   0.039792825, -0.041801084, -0.072419450,  0.063837603, -0.038068268, 
  -0.101099506, -0.055381283, -0.180227399, -0.128663778,  0.100742437, 
   0.129269689,  0.107993722, -0.064332455,  0.018689873, -0.171384692, 
  -0.043111376,  0.050892759, -0.037916072, -0.037672188,  0.095019460, 
   0.052034512,  0.010686249, -0.039282367,  0.065649964, -0.122371390, 
  -0.138627231, -0.127548397, -0.123882927, -0.171301350,  0.023295633, 
   0.121429078,  0.092118204, -0.121912330,  0.001261175, -0.102452904, 
  -0.089224800, -0.053521279, -0.114689879, -0.126559809,  0.139212236, 
   0.021869015, -0.035321094, -0.082353614,  0.035439584, -0.057925552, 
  -0.167396411, -0.111009829, -0.088567100, -0.057599545, -0.019421255, 
   0.096989810,  0.015279396, -0.088537842, -0.032698132, -0.139552534, 
  -0.063052095, -0.082120597, -0.062505774, -0.029407293,  0.076303229, 
   0.147285149, -0.075829282, -0.020936202,  0.009048425, -0.092701167, 
  -0.131743625, -0.082742177, -0.070188954, -0.095840484,  0.038196992, 
   0.091882885,  0.021849848,  0.011014500, -0.051278204, -0.155616388, 
  -0.058717024, -0.038442962, -0.022536045, -0.076188549,  0.003802438, 
   0.034946110, -0.063522406, -0.094657920, -0.049011488, -0.126010954, 
  -0.131499305,  0.071920216,  0.019200727,  0.010573398,  0.047380392, 
   0.113863885, -0.030771555,  0.000114353, -0.125828311,  0.021831300, 
   0.009398350,  0.166558936,  0.032515798,  0.019382725,  0.006115609, 
   0.124026157, -0.004342244,  0.068807326, -0.133205473, -0.073426232, 
  -0.068214655,  0.044097163, -0.020430716,  0.023137925, -0.022914864, 
  -0.030678434, -0.047385927,  0.123233698, -0.129297823, -0.062962160, 
  -0.005591466,  0.047729671,  0.042388037,  0.085295871, -0.050370112, 
   0.053163167, -0.022497501, -0.001479209, -0.074215926, -0.040844623, 
  -0.077031344,  0.037654337,  0.043783758,  0.065299258, -0.002778010, 
  -0.138969257, -0.093985230,  0.090962149, -0.152922198, -0.059435111, 
  -0.111469880,  0.014474824,  0.022452177,  0.013794922, -0.060871042, 
  -0.084383257, -0.097219154, -0.009840660, -0.180100337, -0.084513225, 
  -0.124652967, -0.026654385,  0.001872828,  0.100547142, -0.030888695, 
  -0.177244812, -0.022760348,  0.058284037, -0.035867725, -0.168829829, 
  -0.081422359,  0.069586091,  0.009638635,  0.044768773, -0.061837889, 
  -0.118637457, -0.011106708,  0.106276840, -0.178160623, -0.033822808, 
  -0.060122669, -0.084966943,  0.087608404,  0.081569776,  0.057687521, 
  -0.158619553, -0.015421003, -0.002250151, -0.116855532, -0.187745810, 
  -0.053927485, -0.012017435,  0.049236093,  0.098759070,  0.022145987, 
  -0.115555309, -0.044503726, -0.018163534, -0.114215367, -0.149292499, 
  -0.109029427, -0.050811853,  0.047524955,  0.101980187, -0.059081189, 
  -0.034147944, -0.045248289,  0.010424905, -0.085221760, -0.071607448, 
  -0.036843520, -0.052941095, -0.021224730,  0.065421596, -0.008941488, 
  -0.048188251, -0.040700387,  0.036421094, -0.091079973, -0.110997409, 
  -0.088303901, -0.134170547,  0.119753592,  0.075339265,  0.040259257, 
  -0.002789344,  0.005518413,  0.005157200, -0.069072910, -0.082214803, 
  -0.039470162, -0.110394277,  0.037831217,  0.006420408,  0.073353305, 
  -0.093607970, -0.124521576,  0.051692918, -0.058738802, -0.186007053, 
  -0.027170984, -0.024874803,  0.048062660,  0.073898114, -0.015571489, 
  -0.068111785,  0.003701385,  0.015547959, -0.045089416, -0.098284975, 
  -0.102727629, -0.110573247,  0.049792074, -0.001278779,  0.012719305, 
  -0.042260520, -0.067719005,  0.021192813, -0.014191536, -0.092779569, 
  -0.096374042, -0.086216092,  0.045694657,  0.083093069, -0.029045165, 
   0.034356751, -0.013275616,  0.071185023, -0.007326244, -0.018210869, 
   0.004506649, -0.089746177, -0.003484004,  0.061059050,  0.024657879, 
  -0.047915775, -0.091076523,  0.059791453, -0.017726168, -0.114625737, 
   0.012663454, -0.005195576,  0.112381168,  0.056413397, -0.123933904, 
  -0.049253359, -0.112321272, -0.004662037, -0.026161430, -0.078930430, 
  -0.056140214, -0.091663077, -0.001070926,  0.060142107,  0.046917025, 
   0.065178782, -0.028016428,  0.023742238, -0.019365851, -0.075663842, 
  -0.077460274,  0.009145518,  0.113589510, -0.007850563, -0.133180484, 
   0.036844626, -0.076209962,  0.060724873, -0.003329691, -0.014771038, 
  -0.073730841,  0.014520020,  0.066545591, -0.018081460, -0.016620448, 
  -0.033990741, -0.052098695, -0.021727754,  0.009191648, -0.003168711, 
   0.006856885,  0.057660624,  0.074995153,  0.082945742, -0.079742700, 
  -0.066173494, -0.147612453, -0.067563690,  0.019829238, -0.000503032, 
   0.018722881,  0.013289894,  0.096176848, -0.033995397, -0.003895372, 
  -0.006507720,  0.043739434, -0.089412637,  0.062954552, -0.029962309, 
  -0.023448907,  0.079380266,  0.094293952,  0.025920719, -0.021590678, 
  -0.086071953, -0.136698231, -0.103315167,  0.013325941,  0.013937898, 
   0.027294179, -0.042036191,  0.014415539,  0.056302991, -0.100736111, 
  -0.002481433,  0.020731384,  0.003998473, -0.001601064,  0.009109765, 
   0.035664707,  0.047182549,  0.051928502, -0.005868812, -0.054943059, 
  -0.060182519, -0.014872210, -0.082825564,  0.046058960,  0.081637867, 
   0.105544478,  0.083301991,  0.016493266, -0.055065222, -0.060613111, 
  -0.035702910, -0.048443310, -0.028754938,  0.097424805,  0.069959477, 
   0.058692645,  0.042281739,  0.087747328,  0.026342733, -0.137920156, 
  -0.085313879,  0.012649670, -0.034550097, -0.022037910, -0.049288094, 
  -0.023470534, -0.027387587,  0.005996886, -0.005446327, -0.148034185, 
  -0.059686717, -0.021025648, -0.032730822,  0.027602596,  0.090537220, 
   0.042651083, -0.022382986,  0.103159606,  0.057865277, -0.025916157, 
   0.015064048, -0.093776137, -0.138600484,  0.016689518, -0.006799687, 
   0.074318670,  0.039228369,  0.055893984,  0.007241969, -0.031711135, 
  -0.066865124, -0.045267709, -0.102574773,  0.088218242,  0.082956456, 
   0.023860175,  0.030211970,  0.043615635, -0.002066629,  0.002834496, 
   0.054316323, -0.077977434, -0.103211515,  0.041345004, -0.057720669, 
   0.074113607, -0.078510307, -0.006348585,  0.071042813, -0.020778812, 
   0.005944074, -0.007633459, -0.038901657,  0.043013934,  0.092804626, 
   0.036053509,  0.046163678,  0.015315468, -0.075841814, -0.023121731, 
   0.088741533,  0.052360166, -0.026024831, -0.001539978, -0.117937788, 
   0.126881689, -0.026945958,  0.020871980, -0.010135781, -0.068189390, 
  -0.076878421, -0.052415308, -0.116518520,  0.002265590,  0.072529927, 
  -0.018203905,  0.078379713,  0.068190694, -0.059027705,  0.041858047, 
   0.038696900, -0.003748034,  0.013478375,  0.029726373, -0.170917213, 
   0.064483218,  0.057267513,  0.034155667,  0.035248734, -0.014574800, 
  -0.025937354, -0.026825232,  0.001106970,  0.092588596,  0.031348106, 
  -0.062632486,  0.005795512, -0.030573675, -0.006071911, -0.000864446, 
   0.014421542,  0.084224783, -0.066491753,  0.001484282, -0.088843510, 
   0.010959093,  0.042874798, -0.068920016, -0.010130021,  0.048565697, 
   0.021149660, -0.045129180, -0.071853757,  0.023752833,  0.019180493, 
  -0.095367350,  0.051151503, -0.029426103, -0.104583658,  0.067672431, 
   0.116806082,  0.036425218, -0.031692207, -0.029310554, -0.138783678, 
   0.062477801,  0.062133912, -0.028860025,  0.058127239,  0.058064975, 
   0.099444486, -0.060289003,  0.018878233, -0.024039749, -0.007123404, 
  -0.053021666,  0.102927089,  0.001284415, -0.112826489,  0.068275832, 
   0.103290841,  0.023576923, -0.070601963,  0.026638981, -0.189046189, 
   0.002717109,  0.044137094, -0.010876412, -0.005847805,  0.064844757, 
   0.038318545, -0.084737107, -0.090176247,  0.036994018, -0.080595963, 
  -0.098868497,  0.015592156, -0.096485689, -0.151812524,  0.129098564, 
   0.102551363, -0.005242778, -0.007987810, -0.061681163, -0.137441292, 
  -0.003609959,  0.037849605, -0.006570055, -0.018065346,  0.069733381, 
   0.016432768, -0.056746364, -0.052037843,  0.030582689, -0.122770511, 
  -0.114939652, -0.097902849, -0.110682197, -0.092452355,  0.042053610, 
   0.123684794,  0.042608414, -0.055549394, -0.061074134, -0.168620318, 
  -0.051933125, -0.049067043, -0.142608315, -0.040900465,  0.110167347, 
   0.048475105, -0.067370452, -0.008622984,  0.063957781, -0.150202468, 
  -0.075506583, -0.153994799, -0.130544811, -0.183301255,  0.021793945, 
   0.065184899,  0.046023026, -0.069923513, -0.003184212, -0.174889386, 
  -0.080475561, -0.057569612, -0.079904176, -0.107782803,  0.053673748, 
   0.140095085, -0.013432639, -0.084801383,  0.057451032, -0.157658696, 
  -0.161867112, -0.083715796, -0.122421794, -0.119852126, -0.018770011, 
   0.056418322,  0.016093923, -0.101774320, -0.044629239, -0.162938133, 
  -0.079446591, -0.106835961, -0.040161040, -0.059856087,  0.020826122, 
   0.062345318, -0.103735857, -0.021545028,  0.002748288, -0.099846333, 
  -0.071465962,  0.067124628, -0.024669107, -0.043724138, -0.034959294, 
   0.125866130,  0.044377867,  0.065117441, -0.207227364, -0.109003380, 
  -0.061305992,  0.145284936, -0.003514383,  0.008180818, -0.066908889, 
   0.048077431, -0.046547521,  0.058191482, -0.110751621, -0.076309547, 
  -0.008919165,  0.113167807, -0.054097582,  0.002666452, -0.037359487, 
  -0.003153834, -0.003302416,  0.073416412, -0.128643632, -0.153231651, 
  -0.018047642,  0.060181446,  0.013637510,  0.005379793,  0.003583183, 
  -0.052691832, -0.077248581,  0.020723596, -0.130756602, -0.120234370, 
  -0.137626901, -0.031888943, -0.007879088,  0.019979157, -0.064634912, 
  -0.144312635, -0.108680494,  0.025979662, -0.043806393, -0.141437680, 
  -0.014780963,  0.009464229, -0.036348749,  0.012885328, -0.114907064, 
  -0.142466113, -0.102161691,  0.046169531, -0.066565834, -0.143572345, 
  -0.053678192, -0.029166320,  0.028453769,  0.043054033,  0.049618803, 
  -0.132866159, -0.093845971,  0.110844180, -0.056262244, -0.163946986, 
  -0.016562723,  0.006394556,  0.029207665,  0.004264756,  0.030718660, 
  -0.092822991, -0.003662745,  0.046487685, -0.048291512, -0.097446710, 
  -0.016034229,  0.004888068, -0.004826231,  0.051590521, -0.003908734, 
  -0.117663987, -0.130413696,  0.022669997,  0.009502807, -0.089354262, 
  -0.007624600, -0.020884985, -0.016155256,  0.052464996,  0.057905003, 
  -0.169786081, -0.114941344,  0.084688745, -0.105896041, -0.115205072, 
  -0.021730889, -0.062298156,  0.077140339,  0.008295054, -0.012293328, 
  -0.111818902, -0.021245046,  0.052282244, -0.048994228, -0.131630540, 
  -0.006540972, -0.027704410,  0.098802254,  0.094139256,  0.039499324, 
  -0.124746099, -0.026695635,  0.099923447, -0.104576685, -0.169358909, 
  -0.074758328, -0.085625909,  0.099838428,  0.044145819,  0.055191051, 
  -0.043760601, -0.053716850,  0.012811530,  0.026138326, -0.071975619, 
  -0.005436723, -0.065917276,  0.078582965,  0.094987750,  0.021722475, 
  -0.045539059, -0.045128379,  0.143932492, -0.019822128, -0.128511339, 
  -0.086432643, -0.084843479,  0.091991402,  0.105383150, -0.067200780, 
  -0.060339235, -0.050521351,  0.028946888, -0.013962204, -0.056903001, 
  -0.069719382, -0.142102793, -0.012735637, -0.009963089,  0.002831786, 
  -0.014887330, -0.082266778,  0.020942999, -0.015990663, -0.094382957, 
  -0.062280688, -0.092617393,  0.127945527,  0.017922772,  0.005807203, 
   0.068599924, -0.082469106,  0.057501230, -0.043212883, -0.097604342, 
  -0.023604026, -0.018960360,  0.086643636,  0.015746325,  0.035639323, 
  -0.010922027, -0.050429087,  0.117913418,  0.018367976, -0.059442744, 
  -0.007422517, -0.131796032,  0.120027162,  0.108149931, -0.022797087, 
   0.033388432, -0.034107246,  0.081058495,  0.020371636, -0.003420656, 
   0.034759685, -0.119012058,  0.076190375,  0.036761727, -0.029116314, 
   0.075526804,  0.013217168,  0.014715608,  0.095257826, -0.124449611, 
  -0.010294948, -0.026107904,  0.016323542,  0.048361067, -0.127317399, 
   0.073579185, -0.068219215,  0.001510774,  0.005173555, -0.041432098, 
   0.022400862, -0.073672138,  0.062297352, -0.046553720,  0.037972435, 
   0.090704970, -0.033846591,  0.116881587,  0.073237941, -0.033267692, 
  -0.047394313, -0.052742183,  0.088293977,  0.030786943, -0.038201366, 
   0.067260392, -0.066189557, -0.021458359, -0.040793311,  0.003633331, 
   0.020963712, -0.012933737,  0.058695842, -0.026197942,  0.008979649, 
   0.004720030,  0.028695930,  0.042478081, -0.010633697,  0.017883403, 
   0.000991249,  0.015561146,  0.129994020,  0.018615454, -0.080026619, 
  -0.051137839, -0.039843872, -0.095257275,  0.021415696, -0.031342499, 
   0.003123670, -0.062403850,  0.003657787, -0.008886088, -0.113198601, 
  -0.022529079,  0.017766826,  0.014766089, -0.012237565,  0.029408148, 
   0.006666663, -0.020384643,  0.059532706,  0.119610764, -0.156176552, 
  -0.037809964, -0.164137855, -0.018499888,  0.077698447, -0.026727926, 
   0.027065802,  0.022558531,  0.069478802,  0.011912269, -0.088102289, 
  -0.078194484,  0.037297040, -0.017233059, -0.020400017,  0.081876643, 
   0.025870692, -0.021973539,  0.073737554,  0.026928488, -0.092021003, 
   0.013162375, -0.110007532, -0.077040099,  0.068817399, -0.061208934, 
   0.079113081,  0.063244157, -0.059019908,  0.042430036, -0.075410508, 
  -0.013975976,  0.004476226,  0.020244738,  0.018829795,  0.159911007, 
   0.142056450, -0.029283971,  0.086342409,  0.009546733, -0.110614829, 
  -0.033463240, -0.075545549, -0.091962457,  0.038549613,  0.005007652, 
   0.038651083, -0.057872262, -0.038504466,  0.024533713, -0.083204657, 
  -0.110634372,  0.006232790,  0.060962219, -0.085087195,  0.153821096, 
   0.074465446, -0.008656450,  0.109682404, -0.014711838, -0.024151709, 
  -0.007214047, -0.085783355,  0.015162296,  0.138345957, -0.080205716, 
  -0.002644035,  0.016896110, -0.015845425,  0.046086647, -0.120060585, 
  -0.030174097, -0.037330121,  0.072401389, -0.002870630,  0.075817212, 
   0.136420354,  0.005592006,  0.074824512,  0.003610629,  0.055323370, 
   0.033408128, -0.075286470, -0.099775046,  0.042464409, -0.053782213, 
   0.099576458,  0.073331371, -0.071588129, -0.031816576, -0.048826460, 
  -0.060000621, -0.112670973,  0.104663365, -0.086281128,  0.038444921, 
   0.045897529,  0.020150509, -0.022201136,  0.022641331, -0.053693727, 
   0.062227648, -0.125046551, -0.107638024,  0.029423567, -0.041907210, 
   0.125363871,  0.037888862, -0.010095203,  0.030970935,  0.023946017, 
  -0.004739687, -0.057266310,  0.060447887,  0.013328962, -0.017246919, 
  -0.001247800,  0.069945060, -0.011149554,  0.018529298,  0.032969352, 
  -0.005464668, -0.098134406, -0.103580721, -0.008384313, -0.089883246, 
   0.047102626, -0.045295637, -0.059094358,  0.085947707,  0.024549831, 
   0.012930878, -0.053427108,  0.120963141,  0.021392191,  0.041307874, 
   0.029810954,  0.044911943, -0.045849122, -0.002065884,  0.068080790, 
   0.107171834,  0.000322274, -0.072856091, -0.006851743, -0.117817037, 
   0.071811914, -0.002783399,  0.000901433,  0.002629954, -0.006834993, 
  -0.017551975, -0.030982122,  0.024908820,  0.061360784, -0.047995232, 
  -0.001226761, -0.031997312, -0.116031252, -0.052090988,  0.093038462, 
   0.073616706, -0.075959437, -0.063528530, -0.022285553, -0.075966984, 
   0.034323879,  0.016642326,  0.013890282,  0.040830038, -0.000575564, 
   0.023919785, -0.056468636,  0.042144485,  0.068237446, -0.089197405, 
  -0.005711267, -0.041055225, -0.105601273, -0.112560034,  0.111972511, 
   0.146676347, -0.089421317, -0.150141060, -0.007506091, -0.183258042, 
  -0.032251034, -0.017459415, -0.120785281, -0.115881950,  0.079978719, 
   0.106317826, -0.097373866, -0.061131619, -0.001503390, -0.103011452, 
  -0.142769203, -0.052563984, -0.161010042, -0.097900137,  0.040935732, 
   0.127594694, -0.098738588, -0.075178981, -0.084015481, -0.121308334, 
   0.045263145, -0.045812003, -0.032728404, -0.053570449,  0.039710876, 
   0.063478470, -0.028603822, -0.072983503,  0.083132498, -0.172188267, 
  -0.087317280, -0.143208131, -0.164746836, -0.099215195, -0.046505429, 
   0.073064677, -0.068886645, -0.102415673, -0.026769524, -0.174043566, 
  -0.167227402, -0.166335627, -0.056900341, -0.082717918, -0.114525296, 
   0.149586633, -0.143802926, -0.143060878,  0.064418271, -0.093926705, 
  -0.102862723, -0.150555968, -0.066646293, -0.044741288,  0.018475758, 
   0.159607440, -0.094764084, -0.065295689, -0.092944480, -0.184912950, 
  -0.118729293, -0.163071662, -0.051040269, -0.133279175, -0.031677388, 
   0.102431498, -0.156858817, -0.056942895, -0.059729598, -0.150870696, 
  -0.126058266,  0.153885499, -0.098681241,  0.025344739, -0.024523105, 
   0.049993690, -0.079592042,  0.084751256, -0.216317102, -0.016809829, 
  -0.044342931,  0.096347354, -0.074988946, -0.037402835, -0.040937159, 
   0.039440691, -0.103537329,  0.017701345, -0.080826692, -0.044931766, 
  -0.085718654,  0.004003643, -0.043512225, -0.037627403, -0.049998935, 
  -0.026299194, -0.029620597,  0.096435934, -0.231095105, -0.071817577, 
  -0.041471530,  0.100033462, -0.025545141, -0.022694526, -0.094855092, 
  -0.007960165, -0.103874862,  0.103339039, -0.075433977, -0.052149165, 
  -0.100262247, -0.002920848, -0.032418471,  0.132078081, -0.069716051, 
  -0.124687731, -0.036512978,  0.140193522, -0.034781624, -0.100952439, 
  -0.052645452, -0.032269362,  0.031939168,  0.089763366, -0.065689370, 
  -0.143379107, -0.156404302,  0.020895043, -0.080423288, -0.121535756, 
  -0.126801118, -0.001693864,  0.037000965,  0.110138193, -0.007253625, 
  -0.068239100, -0.138123780,  0.084446885, -0.089832030, -0.142332613, 
  -0.046592720, -0.101946302,  0.024128497,  0.124159135,  0.009104666, 
  -0.157421887, -0.135232151,  0.076272622, -0.043561868, -0.184912160, 
  -0.029556990, -0.028258074,  0.032441020,  0.129878387, -0.058370989, 
  -0.061086841, -0.056292046,  0.121790200, -0.055676997, -0.171625301, 
  -0.040206064, -0.020019293,  0.060633253,  0.140946403, -0.004410954, 
  -0.162532091, -0.030175779,  0.050258771, -0.074144252, -0.093126625, 
  -0.024146389, -0.032572716,  0.049453996,  0.069182426,  0.026703507, 
  -0.020144261, -0.011875823,  0.108678900,  0.044044375, -0.136381716, 
  -0.012218370, -0.082458861,  0.107675515,  0.063823484, -0.074062377, 
  -0.072283477, -0.074707530,  0.057353858, -0.003059275, -0.066659719, 
  -0.092929848, -0.000381335, -0.003733751,  0.035750732, -0.017122712, 
  -0.061675884, -0.025441566,  0.096634366,  0.063217849, -0.075971313, 
  -0.086223662, -0.108424604,  0.018711220,  0.105544418,  0.044642005, 
  -0.086091131, -0.033397071,  0.085062280,  0.020845225, -0.129265741, 
  -0.117355749, -0.129001468,  0.057323337,  0.012186085, -0.012858949, 
   0.051972058, -0.002462062,  0.026213953,  0.025353931, -0.100218281, 
  -0.027335027, -0.014484303,  0.019769957,  0.071751826, -0.038467582, 
   0.066062815, -0.067571707,  0.116445713, -0.001851970, -0.085634656, 
   0.010678869, -0.110327639, -0.003521543,  0.090364292,  0.036015257, 
  -0.016414678, -0.040024411,  0.063669696,  0.000483276, -0.006681358, 
  -0.087257765, -0.134849533,  0.000336585,  0.002913062, -0.028036639, 
   0.040485997, -0.067797117,  0.097797155,  0.000822040,  0.028138027, 
   0.012691393, -0.069416150,  0.008387626,  0.063534044, -0.104605541, 
   0.089785650, -0.128831804,  0.112204269,  0.075601332, -0.033844821, 
   0.020669451, -0.040239826, -0.021598410, -0.060178697,  0.011685427, 
   0.013568301, -0.102302521,  0.112468846,  0.015574438,  0.061003894, 
  -0.008294125, -0.071268342, -0.000750217,  0.034785580, -0.099475235, 
   0.110963106, -0.089722157,  0.093630321, -0.013090955, -0.008221015, 
   0.027745211, -0.039419342,  0.055258226, -0.080683917, -0.015347104, 
   0.036539510, -0.002820224,  0.042781025,  0.029744593,  0.125544757, 
  -0.037249047, -0.076027244,  0.056892663,  0.069670901, -0.152585790, 
   0.012966097, -0.097493604, -0.030274130, -0.000652736,  0.076045275, 
   0.037285339, -0.057222430, -0.003404322, -0.017466418, -0.035222489, 
   0.089580640,  0.038638815,  0.051790189,  0.031368382,  0.094277456, 
   0.055163365, -0.012788239,  0.033998661,  0.043997582, -0.120203823, 
   0.068520844, -0.047867708, -0.052568525,  0.048835937,  0.104721993, 
  -0.025021028, -0.010154726, -0.081542529, -0.074964866, -0.013223878, 
   0.051440969, -0.002799213,  0.027959995, -0.005186873,  0.101254605, 
   0.072709344,  0.026504459,  0.085029155,  0.056135483, -0.153358504, 
   0.044868607, -0.172074318,  0.037522461, -0.042766608,  0.056171045, 
   0.089242704, -0.003045763,  0.009019970, -0.017683649, -0.162169680, 
   0.028806960,  0.003967277,  0.073305979, -0.062650241,  0.085696019, 
   0.028079906,  0.071122900,  0.052154448,  0.019379755, -0.120369203, 
  -0.043804709, -0.171772286,  0.003315855,  0.003898609,  0.179081872, 
   0.058953896,  0.080609344, -0.001448400, -0.001423524, -0.091921724, 
  -0.073964328,  0.029949611,  0.108096376, -0.079576835,  0.099979982, 
   0.123081200,  0.021804659,  0.043955524,  0.109313756, -0.123458333, 
  -0.018709451, -0.066101663, -0.002818929,  0.019014841,  0.109550461, 
   0.105585158,  0.116177879,  0.000114560, -0.015107613, -0.141184181, 
  -0.051731504, -0.101294547,  0.094715722, -0.039141215,  0.080345675, 
   0.119056098, -0.080514707,  0.039934263,  0.064209990, -0.145992398, 
   0.061532784, -0.099225603, -0.028410396,  0.028475942,  0.087572694, 
   0.057255365, -0.002470057, -0.057868943,  0.095478714, -0.009569991, 
  -0.027090376, -0.076321527,  0.141926780, -0.104318775, -0.061317202, 
   0.162860155, -0.096530311,  0.051561587,  0.037760980, -0.043314222, 
  -0.020665850, -0.058755107, -0.092106715,  0.027278805,  0.032069921, 
   0.021855127, -0.001043357, -0.003830623,  0.068777062,  0.076297641, 
  -0.070414491, -0.170697406,  0.113041855, -0.104295395,  0.044197030, 
   0.029873123, -0.072336540, -0.046214439,  0.043072999,  0.001322138, 
   0.050491940, -0.030696115,  0.025143657,  0.106605418,  0.044011611, 
   0.040719841, -0.011894939, -0.022367867,  0.044917032,  0.082807876, 
  -0.053295139, -0.106829748,  0.113607146,  0.007358837, -0.030822275, 
   0.067243859,  0.023774350,  0.071661115,  0.033688974, -0.047585510, 
   0.050761949, -0.023071066, -0.106828138,  0.013223091,  0.012531619, 
   0.053831130, -0.084144399, -0.038006909,  0.067380443,  0.041886579, 
   0.013926596, -0.070945822,  0.024910621,  0.045254756, -0.071445100, 
  -0.002910001, -0.027422465,  0.027757408, -0.047267858, -0.029184820, 
   0.115782291, -0.130235627, -0.058565516, -0.001574099, -0.105353005, 
   0.013165439, -0.027678283, -0.058444038,  0.070590906,  0.056375090, 
   0.057972495, -0.030859085,  0.096582942,  0.079781130,  0.005251886, 
   0.064418450, -0.064896233, -0.030901754, -0.040364482,  0.039292216, 
   0.088442408, -0.099595353, -0.061890136,  0.102742709, -0.082541458, 
   0.038177229, -0.096945569, -0.006672738, -0.000548933,  0.098668724, 
  -0.000283736, -0.023238901,  0.104876965,  0.096513540, -0.051291410, 
  -0.000030647, -0.127344519, -0.095323361, -0.110349141,  0.062348068, 
   0.144816756, -0.037236862, -0.111523487,  0.090991966, -0.127685443, 
   0.069347501, -0.036094718, -0.047584362, -0.104775473,  0.038713317, 
   0.079692125, -0.089805014, -0.046667024,  0.047310445, -0.111872040, 
  -0.069601133, -0.111480922, -0.074279033, -0.062343679, -0.031217063, 
   0.165877357, -0.058998708, -0.150244355, -0.075766921, -0.197325259, 
  -0.012573252, -0.115762718, -0.105765969, -0.073819622,  0.002332459, 
   0.211924538, -0.029588018, -0.095748253,  0.004253553, -0.082898811, 
  -0.188865528, -0.060112469, -0.102084808, -0.101559676, -0.111264385, 
   0.115679726, -0.135644093, -0.110240832, -0.090781949, -0.143784061, 
  -0.113071881, -0.070754036, -0.070235826, -0.078035109, -0.125564173, 
   0.170399234, -0.185833111, -0.079350866, -0.068780564, -0.171974465, 
  -0.083594471, -0.085022584, -0.136205092, -0.058277484, -0.029156039, 
   0.090988524, -0.102469921, -0.032910068, -0.098175645, -0.122890405, 
  -0.169300556, -0.113274395, -0.163271651, -0.022330754, -0.146655619, 
   0.164817497, -0.183344662, -0.069605693,  0.005012945, -0.150367185, 
  -0.050019078,  0.091850899, -0.055669554, -0.042322539, -0.049853668, 
   0.056941483, -0.088182956,  0.024936967, -0.111103550, -0.089148887, 
  -0.057292771,  0.018535743, -0.034347098, -0.044330820, -0.069037683, 
   0.034685265, -0.009818127,  0.060702708, -0.092813775, -0.080701359, 
  -0.099974655,  0.003282081,  0.044861238, -0.022733910, -0.119392455, 
  -0.012088806, -0.013699207,  0.143859416, -0.176430330, -0.143443823, 
  -0.044293109,  0.086524531, -0.024619291, -0.028079100, -0.027083552, 
  -0.008006823, -0.068327196,  0.073595189, -0.118476056, -0.097395189, 
  -0.095656008, -0.026844913, -0.047579490,  0.075225942, -0.115274630, 
  -0.200410262, -0.083944656,  0.111415416, -0.047990274, -0.175368041, 
  -0.126344591, -0.018230075, -0.014087400,  0.100510955, -0.038468327, 
  -0.118639670, -0.034390774,  0.119139306, -0.006370207, -0.071311250, 
  -0.090874292, -0.006485847, -0.040329002,  0.013632046,  0.000381222, 
  -0.050205950, -0.140770242,  0.030836934,  0.003280520, -0.083392397, 
  -0.123234339, -0.059468862,  0.072966076,  0.141660795, -0.049348470, 
  -0.111532308, -0.095521033,  0.072407231, -0.062056448, -0.057058327, 
  -0.094539225, -0.059320889, -0.003817349,  0.006491327, -0.082587488, 
  -0.126579434, -0.096889481,  0.011090622, -0.014165261, -0.106997691, 
  -0.059887584, -0.102752581,  0.038819004,  0.110624649,  0.013054201, 
  -0.140528828, -0.042092640,  0.060136564, -0.063858762, -0.132763281, 
  -0.122859061, -0.029448286, -0.021597063, -0.018503072, -0.081902288, 
   0.012066702, -0.044894684,  0.081657782,  0.064793386, -0.102803446, 
  -0.083220623, -0.115464516,  0.019628046,  0.010689585, -0.086827673, 
  -0.064744778, -0.104359642,  0.070631206, -0.003424287,  0.021176061, 
  -0.018063111, -0.071938977, -0.033679273, -0.008852187, -0.011081738, 
  -0.016014714, -0.001183463,  0.005400493, -0.003470494, -0.081388906, 
   0.003052384, -0.035333350, -0.020997688, -0.010852054, -0.044595510, 
  -0.035161972, -0.067196362,  0.049218912,  0.019168429,  0.059344377, 
  -0.124997862, -0.138038799, -0.019472981, -0.054781307, -0.090839617, 
   0.047906086, -0.019440541,  0.055888191,  0.078451224, -0.022095608, 
   0.030432653, -0.106669888, -0.064390406, -0.051248349, -0.001420064, 
   0.025589064, -0.022167690,  0.046484757,  0.025572255, -0.009044656, 
  -0.055337895, -0.109622739,  0.059859555, -0.069906496,  0.015994113, 
   0.043201048, -0.046053216,  0.114007987,  0.052729771, -0.037936285, 
   0.039077222, -0.104949467, -0.035610478, -0.020950163, -0.044838596, 
   0.068180084, -0.016129384,  0.027493306,  0.058275931,  0.043596655, 
  -0.035709675, -0.055984344,  0.017923638, -0.033435278, -0.002627421, 
  -0.004904268, -0.073123500,  0.061984047,  0.038303498,  0.042580329, 
  -0.019466123, -0.121077091,  0.003242933, -0.064484343,  0.018960793, 
   0.086230725, -0.043133251,  0.048438799,  0.087766163,  0.009982927, 
  -0.035518516, -0.019818388, -0.042241804,  0.034062080, -0.061167274, 
   0.072321393, -0.092860289,  0.068722844,  0.026496263, -0.026334172, 
  -0.026040647, -0.095107600, -0.055465534, -0.081100278,  0.041725378, 
   0.069706373, -0.042484175,  0.053089499,  0.040400028,  0.018664517, 
  -0.041695215, -0.104047127,  0.026612390, -0.065717682, -0.092812717, 
   0.014830311, -0.062536344,  0.088307619,  0.070631146, -0.011002069, 
   0.006784520, -0.007832396, -0.100324877, -0.107844211,  0.068188868, 
   0.030858992,  0.023817023,  0.089432523,  0.105092399,  0.063611262, 
   0.039095629,  0.037181329, -0.018798582,  0.052024938, -0.112185322, 
   0.018591909, -0.149876565,  0.097450286, -0.037036292,  0.045048721, 
   0.026030544, -0.073836967, -0.117772117, -0.085697725, -0.065498076, 
   0.046112772,  0.059692699,  0.084208801,  0.029528843,  0.120637514, 
   0.046901233,  0.125082627,  0.012605153,  0.097919755, -0.187883392, 
   0.016915729, -0.108686008,  0.076589182, -0.033565149,  0.067781195, 
  -0.005112561,  0.127299130, -0.124088094, -0.072820909, -0.124598287, 
  -0.056914534,  0.001866923,  0.159917817, -0.087840229, -0.019391008, 
   0.026697779, -0.006802137, -0.034013692,  0.074856058, -0.062199958, 
  -0.078265548, -0.123363242,  0.115046777, -0.004314051,  0.048336606, 
   0.091561355,  0.100711815, -0.007919397,  0.042060465, -0.083832763, 
  -0.022034982, -0.037324384,  0.092747383, -0.123199821, -0.049393252, 
   0.014456930, -0.062711030, -0.001002372,  0.007980041, -0.086309284, 
  -0.035883028, -0.091973290,  0.108891435, -0.011025868,  0.112960659, 
   0.052005526,  0.038274739, -0.002992973,  0.031819258, -0.145173237, 
  -0.113312490, -0.101014748,  0.126021460, -0.070426300, -0.109296285, 
   0.130268812, -0.025142055,  0.067654163, -0.008922731, -0.136827976, 
  -0.084042422, -0.047430988,  0.148517445, -0.064597875,  0.131974474, 
  -0.073359512,  0.040307134,  0.008395625, -0.007968741,  0.062792912, 
  -0.139210477, -0.167375624,  0.093281567, -0.024517803, -0.149206549, 
   0.072624594, -0.096541539,  0.002187203,  0.110089988, -0.083249114, 
  -0.088094972, -0.086097144,  0.129532069,  0.025275324,  0.022962183, 
  -0.045255631,  0.067622930,  0.058176562,  0.006286074,  0.055428073, 
  -0.035631813, -0.060295850,  0.146688864,  0.013392290,  0.028399209, 
   0.032240614, -0.066067956,  0.023879461,  0.044449005, -0.065439589, 
   0.039659031, -0.057367872,  0.028158113, -0.026375294,  0.103506014, 
   0.018186212,  0.030918526,  0.080101125,  0.027723322, -0.026694808, 
  -0.072487213, -0.097213075,  0.158465102,  0.015274417,  0.009588846, 
   0.049474873, -0.081105366,  0.048539270,  0.011191568, -0.021055991, 
   0.084433869, -0.104297392,  0.067921519,  0.088631935,  0.015363865, 
   0.100074165, -0.003404379,  0.069787093,  0.075289592,  0.005385289, 
  -0.051000226, -0.129841954,  0.108692363, -0.017366238, -0.022466755, 
   0.018464763, -0.100656629,  0.047751680, -0.000539523, -0.082517400, 
   0.047752526, -0.051049437, -0.056710571,  0.110718496, -0.037223380, 
   0.013297131, -0.029518591,  0.003929529,  0.072873540,  0.074610010, 
  -0.053808346, -0.080676891,  0.047203250,  0.079292871,  0.011005724, 
   0.055502430, -0.028190648, -0.068012871, -0.079775885, -0.031292494, 
   0.108375587, -0.038758051, -0.076602317,  0.023655061, -0.139698893, 
   0.090417564, -0.103375912,  0.023676684,  0.025144886,  0.028358249, 
   0.024272449, -0.013983793,  0.090027526,  0.114516400, -0.020550409, 
  -0.021623641, -0.091320343, -0.118781596, -0.135795906, -0.103470303, 
   0.089901522, -0.159760103, -0.071303725, -0.009874738, -0.050413299, 
   0.104924269, -0.062357046, -0.028628230, -0.091680549, -0.010062517, 
   0.128861129, -0.098511539,  0.048009690,  0.061290573, -0.114970535, 
  -0.032233242, -0.101237282, -0.077961631, -0.061005984, -0.105626464, 
   0.189696029, -0.116328560, -0.108102754, -0.030374959, -0.082859084, 
   0.072441459, -0.129301861, -0.098877728, -0.062563471, -0.069610998, 
   0.114637122, -0.138530985, -0.073059775,  0.106021293, -0.113214090, 
  -0.169377521, -0.138884470, -0.123966165, -0.141570523, -0.112470657, 
   0.211644351, -0.069201082, -0.170214489, -0.093079522, -0.167468548, 
  -0.078675844, -0.138665676, -0.178337991, -0.041087195, -0.106049746, 
   0.173117459, -0.118267946, -0.061593849, -0.024351282, -0.183355838, 
  -0.110835575, -0.119759500, -0.130214363, -0.085588001, -0.082811005, 
   0.103591055, -0.090029798, -0.152339131, -0.072500788, -0.121899553, 
  -0.186003581, -0.079049654, -0.126903296, -0.070899375, -0.111836284, 
   0.161733434, -0.182547837, -0.149578884, -0.015628133, -0.157209232, 
  -0.047737367,  0.122648768, -0.032797158, -0.019629799, -0.115131542, 
   0.064984247, -0.007567634,  0.067999199, -0.128875479, -0.166369230, 
  -0.117434487,  0.049596302, -0.007766480, -0.036134720, -0.081366442, 
   0.029346906, -0.004943502,  0.066236220, -0.056348495, -0.064978383, 
  -0.107419319,  0.026180945, -0.046655294, -0.088232189, -0.051618122, 
  -0.023941066, -0.028507944,  0.020597972, -0.073960714, -0.153247356, 
  -0.104052447,  0.079284661, -0.001214949,  0.026126983, -0.075533696, 
  -0.046242520, -0.006996462,  0.115798779, -0.165217593, -0.064321898, 
  -0.126490429,  0.044151198,  0.030125162,  0.039745338, -0.057649881, 
  -0.170503914, -0.112961024,  0.026142543, -0.024329169, -0.125690907, 
  -0.045505963, -0.023138203,  0.054282721,  0.089531913, -0.040063828, 
  -0.077475868, -0.073783830,  0.131861001, -0.033885293, -0.093336992, 
  -0.109185979,  0.019775376, -0.009831849,  0.023226233, -0.051312909, 
  -0.049834102, -0.117456079,  0.076592155,  0.047940955, -0.122231305, 
  -0.063361727, -0.087930284,  0.074004240,  0.097269565, -0.012245888, 
  -0.133036181, -0.064561978,  0.023532989, -0.006860382, -0.101820983, 
   0.004134136, -0.013615792,  0.043021798,  0.083719723, -0.041686833, 
  -0.059608530, -0.007105325,  0.045502361, -0.012782850,  0.002256965, 
  -0.068406709, -0.053319898,  0.086392947, -0.011191173, -0.076080307, 
  -0.032210745, -0.034379039,  0.098071203, -0.026078809, -0.055631876, 
  -0.065722525, -0.075827099,  0.033987448,  0.030305469, -0.074482046, 
   0.051435102,  0.016707793,  0.089141831,  0.098004930,  0.011039034, 
  -0.083433658, -0.092590936, -0.024662286, -0.000174652, -0.047418583, 
   0.022778286, -0.033534992,  0.038512506,  0.023742897, -0.000151693, 
   0.016585143, -0.073858075, -0.081498407, -0.089594342, -0.019301197, 
   0.002844055,  0.025500646,  0.099751048,  0.061748531, -0.034581296, 
   0.011085820, -0.069150738, -0.081753477, -0.095529638, -0.059330195, 
  -0.030446356, -0.069044702, -0.000124487, -0.021765115,  0.112458564, 
   0.020531567, -0.032458525, -0.054507036, -0.131837696, -0.012221515, 
   0.086591117,  0.000559037,  0.053441811,  0.062789604,  0.007393692, 
  -0.020647192, -0.008665291, -0.060214110, -0.117846414,  0.045996502, 
  -0.008146874, -0.038733337, -0.015876150,  0.048656400,  0.072935611, 
  -0.016500240, -0.012763507, -0.086977318, -0.105697408,  0.020129437, 
  -0.007419552, -0.018892881,  0.029302102,  0.113247022,  0.003321807, 
  -0.036924537, -0.070026569, -0.042389657, -0.034758646,  0.022031283, 
  -0.011326404,  0.042321786, -0.015988985,  0.082112595,  0.085796766, 
  -0.059044372, -0.077168003, -0.011667293, -0.126449466, -0.024899110, 
   0.065618724, -0.014853810,  0.017718969,  0.075133465,  0.069464847, 
   0.055146724, -0.119785592, -0.034430135, -0.112842657, -0.019000258, 
   0.081811845,  0.028823890,  0.086642519,  0.094097480,  0.100841925, 
   0.044003483, -0.093344636, -0.077438921, -0.151148856, -0.045589000, 
   0.071323767, -0.058102351,  0.039956976,  0.026817434,  0.091662616, 
  -0.018227372, -0.023362724, -0.066615306, -0.109168746,  0.041281167, 
   0.100933939, -0.049402867,  0.054424416,  0.034939736,  0.009451947, 
  -0.017780896, -0.098968402, -0.053917393, -0.048312899, -0.123332582, 
   0.030804576, -0.081797719,  0.051424637,  0.118934676, -0.031728547, 
   0.098141722, -0.046267010, -0.124795310, -0.095211901,  0.122351542, 
   0.119800866, -0.003398565, -0.035042532,  0.046030182, -0.004853487, 
  -0.032633200,  0.036240228, -0.000410007, -0.053199206, -0.146154478, 
  -0.012006654, -0.046077520,  0.125704780, -0.021298800,  0.086762868, 
   0.059165936, -0.105139524, -0.049969807, -0.093549527,  0.027181324, 
   0.064618841,  0.026675599,  0.006716965,  0.071371973, -0.084605917, 
  -0.048460487,  0.059127662, -0.017102851,  0.004326582, -0.103531055, 
  -0.094345845, -0.047204319,  0.090022586, -0.021328710,  0.094265766, 
   0.011333100,  0.035456818, -0.144249678,  0.020394491, -0.111277573, 
  -0.012959404,  0.020717597,  0.124127388, -0.036480274, -0.076089963, 
   0.000435004,  0.063197292, -0.085392721, -0.011254680, -0.085605405, 
  -0.084889770, -0.050490901,  0.140862405, -0.025520155,  0.076166071, 
  -0.054850884,  0.036198974, -0.129413962,  0.121300295, -0.100290127, 
  -0.035917528, -0.090362690,  0.077071086, -0.060219269, -0.131119505, 
  -0.059361424,  0.020429362, -0.016994171,  0.046347823, -0.062712722, 
  -0.095723428, -0.118460566,  0.076795228, -0.082065873,  0.047170747, 
  -0.064302646,  0.036950748, -0.068804927,  0.081220344, -0.065002695, 
  -0.053038836, -0.109843053,  0.102509476, -0.094634190, -0.074105904, 
   0.042230934, -0.038612321, -0.023462426,  0.040009882, -0.104147606, 
  -0.078112930, -0.090855405,  0.148233995, -0.019240214,  0.026568891, 
  -0.013876428,  0.044272598,  0.007570698,  0.092188738,  0.157875061, 
  -0.021190874, -0.067003444,  0.087695532, -0.073887810, -0.055811215, 
   0.077754863, -0.000220978, -0.041740455, -0.020664822, -0.055530157, 
  -0.011481665, -0.069956347,  0.158002317, -0.044231258,  0.030800292, 
  -0.003985091, -0.065231554, -0.039650559,  0.076523416,  0.021269299, 
  -0.051787067, -0.127288654,  0.075226180,  0.044230018,  0.009985515, 
   0.073826551, -0.027482148, -0.026558287,  0.044150338, -0.019905778, 
  -0.034067061, -0.163745627,  0.023422284,  0.027311532,  0.011577039, 
  -0.029838735, -0.001475666,  0.003263141,  0.051458456,  0.050819322, 
  -0.018392773, -0.074088491,  0.013845442,  0.060803525,  0.096450590, 
   0.060844857, -0.003365425,  0.009429408,  0.043972768, -0.053287219, 
  -0.009822211, -0.102312811,  0.037792481,  0.037552793,  0.011310194, 
   0.015310184, -0.064613461,  0.082931541,  0.045009851, -0.042002123, 
  -0.133919224, -0.098685287,  0.094449744, -0.025031541,  0.133542031, 
   0.032666132, -0.060215887, -0.086209059, -0.041629840, -0.033179913, 
   0.105905809, -0.114761926, -0.011315729,  0.095787533, -0.058284972, 
   0.072917886, -0.063459627,  0.039703753, -0.025683124,  0.034934919, 
  -0.147964984, -0.013900751,  0.087424703,  0.031480879,  0.125901282, 
   0.088896409, -0.073462903, -0.070873141, -0.084102184, -0.094663106, 
   0.099048398, -0.031455934,  0.047751680,  0.074745268,  0.001470503, 
   0.092937604, -0.070176683, -0.056917991, -0.000317605, -0.086903132, 
  -0.058749907, -0.057831720,  0.011003102,  0.112598501, -0.005500478, 
   0.064367741, -0.043087658, -0.105842195, -0.043010678, -0.159253091, 
   0.113874301, -0.081330106, -0.120565422,  0.003713488, -0.166188627, 
   0.086933248, -0.133895993, -0.028170213, -0.116384834, -0.038674802, 
  -0.096198790, -0.050059095, -0.051289003,  0.031365931,  0.031407107, 
   0.030342350, -0.051000640, -0.159691244, -0.078653172, -0.146635145, 
   0.197384700, -0.123488173, -0.053538203, -0.014338308, -0.121619247, 
   0.073210105, -0.090433419, -0.130836263, -0.136518270, -0.119904421, 
   0.076859519,  0.075817265, -0.142952740,  0.079699732, -0.063798666, 
  -0.079299569, -0.081102446, -0.072949156, -0.088586748, -0.070770465, 
   0.115157716, -0.116203144, -0.141870990, -0.088140726, -0.202328041, 
   0.011770444, -0.055003826, -0.123569436, -0.056892034, -0.087165587, 
   0.146605045, -0.071242444, -0.154274225,  0.039245911, -0.141577557, 
  -0.124601893, -0.031331684, -0.051137906, -0.123170830, -0.152256906, 
   0.171414331, -0.130557775, -0.040843416,  0.016990867, -0.169168800, 
  -0.129479960, -0.006393855,  0.014475537, -0.051855605, -0.071867347, 
   0.180704415, -0.051142581, -0.027850291, -0.045396078, -0.116506264, 
   0.009464305,  0.035217091, -0.087322816, -0.145253167, -0.017766520, 
  -0.027086966, -0.057835802,  0.133887067, -0.199550852, -0.071014374, 
   0.002888186,  0.007960346, -0.032065969, -0.105849713, -0.082270004, 
  -0.038868751, -0.075313136,  0.030193800, -0.153123781, -0.032296088, 
  -0.047399610,  0.013457536, -0.063238658,  0.016593592, -0.136487916, 
  -0.000573954, -0.097070612,  0.091239616, -0.065392487, -0.051735967, 
   0.002685816,  0.084325351,  0.019925775,  0.004445301, -0.046151675, 
  -0.034066439, -0.091410026,  0.088557884, -0.087304965, -0.115211144, 
  -0.085029930,  0.023914313, -0.053663407,  0.033047583, -0.141783908, 
  -0.113659635, -0.121110350,  0.087295838, -0.096960895, -0.061516348, 
  -0.124236345,  0.016751299,  0.045968935,  0.014591265, -0.129376933, 
  -0.084032021, -0.031420477,  0.061295670, -0.102746867, -0.109119341, 
  -0.086150229, -0.063408755, -0.099865854,  0.051656175, -0.020806860, 
  -0.095558651, -0.118002363,  0.075749740,  0.035073161,  0.030134019, 
  -0.101884544,  0.035797242,  0.008486337, -0.010713219, -0.044303492, 
  -0.056129325, -0.083573006,  0.066503704, -0.053843770,  0.010389427, 
  -0.103527129, -0.098209754, -0.033791952,  0.011356337, -0.001115297, 
  -0.082358845, -0.048614148,  0.073278032,  0.000744470, -0.007379357, 
  -0.063781641, -0.053632669, -0.035683762,  0.020943450, -0.111004151, 
  -0.095879532, -0.025334844,  0.030870320,  0.012087183, -0.005871120, 
  -0.079012953, -0.067898944, -0.112975225, -0.047159169,  0.037215896, 
   0.057641320,  0.039890055, -0.005579582,  0.005294728,  0.031263385, 
   0.031866778, -0.101473860, -0.089345574, -0.040561680, -0.059208203, 
   0.059846055, -0.036596254, -0.016821004, -0.019673303,  0.032492358, 
  -0.055723336, -0.066821910, -0.143317550, -0.092478834,  0.030148020, 
   0.018822545, -0.000775908,  0.046359431,  0.040024478,  0.085599594, 
  -0.047785498,  0.020919424, -0.191193953, -0.168522477,  0.021765649, 
   0.060960054, -0.007191049,  0.037857741,  0.046819549,  0.128870636, 
   0.024286916, -0.054511610, -0.041369725, -0.050552081,  0.035785459, 
   0.063280635, -0.013153630,  0.095666721,  0.131168887,  0.016871653, 
   0.060308319, -0.056567635, -0.123357475, -0.084827133, -0.026113020, 
   0.003551667,  0.039434619,  0.092292652, -0.021009307,  0.072721153, 
  -0.036495853, -0.101798818, -0.122853324, -0.169259474,  0.099501893, 
   0.115678400,  0.018974490,  0.075939260,  0.105447285,  0.056674849, 
   0.007141359, -0.099495471, -0.123277284, -0.158912733,  0.112926804, 
   0.100960858, -0.048554920,  0.005346075,  0.028354667,  0.076419428, 
   0.021179296, -0.083248347, -0.023275230, -0.056562740,  0.020055356, 
   0.053198762, -0.084750533,  0.052157786,  0.057110883,  0.041208111, 
   0.062811807, -0.121397659, -0.141283527, -0.152375981,  0.067169122, 
   0.002753385,  0.050548360, -0.057428710, -0.020136919,  0.012325716, 
   0.011617107, -0.033064887, -0.080604881, -0.113532662,  0.039168328, 
   0.147689059, -0.040435627,  0.010611765,  0.038336042,  0.055661120, 
   0.086419456, -0.137246490, -0.092819452, -0.032671075,  0.100385591, 
   0.065397039, -0.027535576,  0.008890202,  0.001873737,  0.075908534, 
  -0.023879372, -0.031046959, -0.112361938, -0.095643602, -0.057212476, 
   0.106278807,  0.057842694,  0.044908185,  0.065894753, -0.018446581, 
   0.081469245, -0.148913071, -0.054524876, -0.100609280,  0.151890144, 
   0.097177193,  0.047842920, -0.100175902,  0.003858475, -0.054052211, 
   0.010074014,  0.165601939, -0.117304690,  0.015834970, -0.049372531, 
   0.119428597, -0.095926695,  0.078338049,  0.048039194, -0.012560981, 
  -0.002953699, -0.079339229, -0.136983186,  0.056423079, -0.042414993, 
   0.093350217,  0.039176431, -0.128957167,  0.123217262, -0.138833955, 
  -0.152092725,  0.110321760, -0.157504454,  0.055634040, -0.162290886, 
  -0.015975391, -0.056345731,  0.039467290, -0.061676767, -0.092823103, 
  -0.101196043,  0.048697297, -0.113791414,  0.125758424, -0.103980497, 
   0.052920844,  0.047424234, -0.075104229,  0.038168855, -0.035354726, 
  -0.050115291,  0.053168029, -0.065021008,  0.010006494, -0.111251883, 
  -0.014420124, -0.168154895,  0.058802713, -0.132052720, -0.044464611, 
  -0.120485649,  0.082268611, -0.101545088,  0.028212665, -0.037814897, 
  -0.052932646, -0.170143977, -0.096299522, -0.012828792, -0.092325456, 
  -0.139008686,  0.011814171, -0.097368509,  0.084559292,  0.003440988, 
  -0.124046423, -0.140707672,  0.072567806, -0.037971064, -0.011601341, 
  -0.056835204,  0.134098232, -0.096707463,  0.081418008,  0.021159410, 
  -0.101562709, -0.154664710,  0.066706792, -0.001556175, -0.038784169, 
  -0.026556155, -0.101413943,  0.024185941,  0.020147072,  0.100648589, 
  -0.045648389, -0.111885875,  0.113435306, -0.112273246,  0.020961899, 
  -0.040817052,  0.052222766, -0.053187132,  0.100319520,  0.124004297, 
  -0.045687642, -0.034969773,  0.061976563,  0.049240723,  0.079276793, 
   0.073575355, -0.072552152,  0.045414750,  0.035129130,  0.028839624, 
  -0.111346863, -0.143974841,  0.039928772,  0.007346218,  0.037970889, 
  -0.021776088, -0.001176048, -0.042978074,  0.055299349,  0.112349987, 
  -0.125662401, -0.116623707,  0.046436984, -0.029263921,  0.071677826, 
   0.131890044, -0.100767873, -0.033420183,  0.008338431, -0.070571542, 
  -0.100391075, -0.070146129,  0.024816234,  0.000751787,  0.004475642, 
  -0.063744411, -0.109448947,  0.015127101,  0.003926887,  0.083137229, 
  -0.067496620, -0.042991068,  0.086589195,  0.070823371,  0.028444473, 
   0.093147188, -0.114231825, -0.011551451, -0.046785057, -0.004114302, 
  -0.080648348, -0.084159091,  0.064128332, -0.005975304, -0.019918106, 
   0.004710048, -0.048759144, -0.028946819,  0.055801515, -0.002680851, 
  -0.121520467, -0.000887029,  0.060215708,  0.074507043,  0.076152138, 
   0.006358344, -0.056802768,  0.008065715,  0.014194072, -0.093168132, 
  -0.054688901, -0.084927142,  0.006198836,  0.046380371,  0.067986287, 
   0.064335212, -0.123900369,  0.079789937,  0.001217533, -0.061672837, 
  -0.122143954,  0.016720366,  0.059375502,  0.041905995,  0.133130118, 
   0.038170502, -0.144499019, -0.101845883, -0.069005787, -0.037847016, 
  -0.015900003, -0.104843602, -0.032401145,  0.089026503, -0.000534641, 
   0.069773726, -0.089103252, -0.019907357, -0.033081498,  0.018662019, 
  -0.126053885,  0.112174951, -0.020008672,  0.099350184,  0.029545827, 
   0.038482856, -0.066537589, -0.094630316, -0.124225490, -0.112379551, 
   0.066825405, -0.007799501, -0.022785027,  0.048814408, -0.089803986, 
   0.032919139,  0.000567745, -0.063650437, -0.071517356, -0.069002502, 
  -0.138819024,  0.071771607, -0.031106891,  0.040771604, -0.043205645, 
   0.092855439, -0.063441448, -0.093331553, -0.035192944, -0.144023657, 
   0.193701431, -0.103142463, -0.030521452,  0.067925833, -0.165006280, 
   0.075489812, -0.118784927, -0.082862519, -0.092575178, -0.094186254, 
  -0.078884408,  0.069178320, -0.122243583,  0.109213412, -0.040772252, 
  -0.172243163, -0.061180800, -0.108074307, -0.073175646, -0.077313185, 
   0.165027693, -0.081016131, -0.059969906, -0.012659956, -0.147753105, 
  -0.003385226, -0.071758457, -0.020642379, -0.133210555, -0.132594422, 
   0.036404967,  0.009461892, -0.028232679,  0.034268025, -0.075971544, 
  -0.206770927, -0.052675776,  0.047132347, -0.078614302, -0.072279774, 
   0.199893519, -0.080376200, -0.104625873, -0.094271749, -0.177426636, 
  -0.059471108, -0.023783138,  0.021039398, -0.047342997, -0.095758796, 
   0.046423707, -0.024067543,  0.021593986, -0.031183971, -0.173510090, 
  -0.028028240,  0.059190173, -0.049036045,  0.003894462, -0.060893252, 
   0.077435084, -0.093493998,  0.028494556, -0.206324890, -0.054354228, 
  -0.011352946,  0.099106543, -0.074397609, -0.067484185, -0.083623692, 
  -0.046632461, -0.052257627,  0.057748448, -0.197787568, -0.112083606, 
  -0.033764578,  0.041810852, -0.044229541, -0.049500547, -0.132227868, 
  -0.075813256, -0.046779405,  0.105177082, -0.137769774, -0.106283449, 
  -0.019447511,  0.059730284,  0.026060136,  0.022026576, -0.097880751, 
  -0.059076045, -0.077769056,  0.082722045, -0.075522631, -0.080000564, 
  -0.108363539,  0.021506142, -0.088352874,  0.041598670, -0.083585225, 
  -0.048910368, -0.071777768,  0.075659364, -0.065219231, -0.076752514, 
  -0.009314226, -0.025984885, -0.038653065, -0.032102454, -0.026631519, 
  -0.072031133, -0.024530271,  0.073290177, -0.057416480, -0.059368238, 
  -0.103364699,  0.019935077, -0.060105301, -0.064105205, -0.081434168, 
  -0.003828129, -0.116892867,  0.048460610, -0.048749778, -0.006194442, 
  -0.109745406, -0.067694351,  0.038511470, -0.007250788, -0.042607587, 
  -0.063958563, -0.137590930,  0.086246468,  0.028412750, -0.031866729, 
   0.032351043, -0.042005807, -0.163692176, -0.060079712, -0.016709300, 
  -0.064003237, -0.080046505, -0.021139912,  0.007242113,  0.079013236, 
  -0.012291483, -0.102720164, -0.074151665, -0.141936734, -0.048800506, 
  -0.060065664, -0.120152771,  0.076839782,  0.071423948,  0.096010000, 
   0.043138947, -0.100742757, -0.080840945, -0.143561259,  0.010165891, 
   0.084217377, -0.011803511,  0.014532426,  0.062477835,  0.021942947, 
  -0.020687142, -0.049190570, -0.165118560, -0.057495032,  0.057833165, 
   0.012923744,  0.011362326,  0.056861110, -0.005388399,  0.102428824, 
  -0.021449564, -0.086802289, -0.137913227, -0.054335218,  0.046558022, 
   0.107023723, -0.007238699,  0.066021591,  0.004394657,  0.011814587, 
  -0.022819227,  0.017340284, -0.197752342, -0.082752757, -0.002903393, 
   0.034085792, -0.014798886,  0.032680139,  0.016945805,  0.139858201, 
  -0.020912286, -0.048886161, -0.126012295, -0.056962311,  0.119318992, 
   0.054923199,  0.041661434,  0.095658742,  0.084812783,  0.089439392, 
  -0.002568235, -0.110078849, -0.082227774, -0.041106582,  0.018616138, 
   0.017965714,  0.015152533,  0.025271595,  0.024314201,  0.008374630, 
  -0.026186863, -0.123226032, -0.147452176, -0.056813750,  0.102678947, 
   0.038571768,  0.056988318, -0.025825683,  0.029003771,  0.036378529, 
   0.037582032, -0.050004460, -0.122818463, -0.126334354,  0.044875361, 
   0.084722809,  0.032142375, -0.043145631, -0.058879543,  0.054864280, 
   0.007591895, -0.153482720, -0.157743573, -0.169308320,  0.143451631, 
   0.105906151, -0.033059601, -0.008600964,  0.094828665,  0.049619250, 
   0.052260973, -0.074931048, -0.041414469, -0.048517592,  0.141801089, 
   0.147842675,  0.091077544, -0.005326586, -0.058333356,  0.054467529, 
  -0.019724404, -0.049042173, -0.184566557, -0.098848581,  0.093506806, 
   0.063380808,  0.104111321,  0.003684726,  0.050662719,  0.033386152, 
   0.028267246, -0.038890205, -0.085276045, -0.067183822,  0.133763701, 
   0.106947467,  0.058944050, -0.053691536, -0.029354487,  0.046598636, 
  -0.006935460, -0.093085885, -0.095201991, -0.110997736, -0.028201889, 
   0.098820910,  0.076503456, -0.113166556,  0.071530186, -0.021454649, 
   0.085835405, -0.093970098, -0.083635397,  0.101013280,  0.196114615, 
   0.146989554,  0.077213436, -0.159540236, -0.050968777, -0.077822186, 
  -0.152085453,  0.093675606, -0.071741082,  0.023563342, -0.077760287, 
   0.040754382, -0.077778228, -0.125252053,  0.044615865, -0.072512478, 
  -0.058675956,  0.034545574, -0.096103303,  0.061234687, -0.103051692, 
   0.099111617,  0.013627194, -0.106249213,  0.156805083, -0.100515530, 
  -0.127931774,  0.153737873, -0.146849126,  0.040785618, -0.073295526, 
   0.079095192, -0.029315585, -0.041422185, -0.070668980, -0.056769423, 
  -0.052723788,  0.175396949, -0.133987695,  0.105552688, -0.054426279, 
   0.107071586, -0.109067947, -0.119421639,  0.023398437,  0.048301671, 
  -0.194300711,  0.148343682, -0.162874416,  0.055414915, -0.050913524, 
  -0.022484925, -0.147208661,  0.086966440, -0.063954130, -0.012519917, 
  -0.109904483,  0.131771028, -0.075390808,  0.015634472, -0.021381997, 
  -0.103819996, -0.073833011, -0.143616945,  0.000982877,  0.053867199, 
  -0.089928314,  0.095088840, -0.004656054,  0.089591376,  0.069739580, 
  -0.057710573, -0.075958475,  0.155935675, -0.016117752,  0.125897631, 
  -0.177152947,  0.099485002, -0.043997303,  0.069599949,  0.031169923, 
  -0.069066003, -0.073836342,  0.047270112,  0.046733096,  0.039063312, 
  -0.077014074, -0.078592807, -0.070075803,  0.066214144,  0.037904490, 
  -0.043747235, -0.074717492,  0.085810438, -0.019710213,  0.046870984, 
  -0.105712585, -0.044435460,  0.011232570,  0.043980230,  0.070272550, 
  -0.101294510, -0.009680389,  0.112801038,  0.085661441,  0.154859915, 
   0.009258642, -0.118101150, -0.052744910,  0.111604512,  0.082440764, 
  -0.148163691, -0.126860976,  0.099451251, -0.055854850,  0.065606751, 
  -0.067400843, -0.024284715, -0.031856015,  0.052958824,  0.032850541, 
  -0.111610994, -0.002967671,  0.032970432,  0.003026686,  0.086853929, 
   0.042014319, -0.106322348, -0.038254205, -0.038547073, -0.050688114, 
  -0.163613006, -0.106783174,  0.116850883,  0.086818844,  0.134541035, 
  -0.067448124, -0.020146497, -0.013587162,  0.012450639,  0.070811316, 
  -0.031659111,  0.011353703,  0.060796786,  0.088661067,  0.059802987, 
   0.016500948, -0.047778856, -0.077905580,  0.045890659,  0.002727620, 
  -0.091878794, -0.010984064,  0.033240944,  0.089897633,  0.103971526, 
  -0.055535741, -0.083470985, -0.007713057, -0.098709524, -0.013546080, 
  -0.079141304, -0.012804125,  0.084976122,  0.000878931,  0.084015213, 
   0.033278856, -0.042064447, -0.093159415, -0.027027827, -0.027278237, 
  -0.186914995,  0.021608735,  0.075522706,  0.053917486,  0.124669127, 
   0.011757005, -0.017521586, -0.000961148, -0.121131361, -0.009294705, 
  -0.171489969,  0.000807579, -0.001223005,  0.042033341,  0.059900407, 
   0.007155950, -0.083058156, -0.065693341, -0.003931594, -0.109145522, 
  -0.163803309,  0.040230371, -0.014288718,  0.027123991,  0.029540921, 
   0.093133524, -0.063322730, -0.009122645, -0.114340857, -0.038850617, 
  -0.141076654,  0.046288278,  0.001890758,  0.017051319,  0.082943469, 
   0.087457672, -0.087596953, -0.070551150, -0.121081226, -0.076782092, 
  -0.148634285,  0.088205040, -0.044156007,  0.116502695, -0.009563374, 
   0.100682765, -0.000096831, -0.040458854, -0.130738333, -0.017887218, 
  -0.181257576,  0.138978109, -0.072242126,  0.076341748, -0.005745068, 
   0.051328778, -0.040857114, -0.072175488, -0.129559040, -0.052004229, 
   0.029050160, -0.025431085, -0.117928468,  0.052121632, -0.094027631, 
   0.020827431, -0.106372647, -0.107087985, -0.059718326, -0.097508602, 
  -0.118934251,  0.138489053, -0.044063885, -0.037093993, -0.072040759, 
  -0.032512154, -0.102755800,  0.069754906, -0.056414843, -0.143846750, 
   0.082179815, -0.133451968, -0.089153573,  0.011926712, -0.083937228, 
   0.021293351, -0.027152278,  0.002917264, -0.016844420, -0.017587431, 
  -0.130867630,  0.016832583, -0.069349401,  0.002288698, -0.080685265, 
  -0.073201112,  0.010323809,  0.058274586, -0.023261687, -0.039938848, 
   0.162704512, -0.110316046, -0.071165591, -0.003076554, -0.119786419, 
  -0.055448852,  0.021574603,  0.090894692, -0.097441152, -0.070679538, 
   0.023101887, -0.032627728, -0.059471786, -0.018527202, -0.099498510, 
  -0.091100238,  0.093471371, -0.107748970, -0.052662797,  0.004829770, 
   0.051842373, -0.015825184,  0.084362835, -0.215139523, -0.066971160, 
   0.015003217,  0.103404135,  0.006540510, -0.012191514, -0.040286098, 
  -0.043068498,  0.000741156,  0.113753103, -0.151853591,  0.002596351, 
  -0.103719123,  0.038603246, -0.116386987, -0.005947076, -0.057656955, 
  -0.038304105, -0.028638985,  0.147401944, -0.152982727, -0.059929486, 
  -0.094076134,  0.102126256, -0.103929639, -0.054503642,  0.004947437, 
  -0.085653409, -0.095319510,  0.088677414, -0.141797513, -0.068710119, 
  -0.173841938,  0.026404528, -0.085098356, -0.004272920, -0.041548952, 
   0.028717725, -0.096690051,  0.045202650,  0.004276200,  0.049610350, 
  -0.099001184,  0.051195908, -0.066570573, -0.003167645, -0.086076811, 
   0.017424274, -0.067275614,  0.162170142, -0.033947241, -0.064444743, 
  -0.107671805,  0.033655137, -0.156373784, -0.120188236,  0.035512052, 
   0.004532432, -0.140762433,  0.134922668, -0.070694759,  0.024121122, 
  -0.057635609,  0.019430246, -0.053211339, -0.097943492, -0.064840548, 
  -0.036910318, -0.137645587,  0.040896129, -0.013025950,  0.029574005, 
  -0.010839556, -0.026060872, -0.183748826, -0.141341820,  0.075069666, 
  -0.057764262,  0.038312122,  0.018984225,  0.022166876,  0.099527210, 
  -0.012882782, -0.076683715, -0.087462962, -0.094016753, -0.054819003, 
   0.040481888, -0.030137043, -0.010221584,  0.003996313,  0.038671862, 
   0.068737850, -0.065506399, -0.121364765, -0.110852987,  0.097015537, 
  -0.044227369,  0.008141049,  0.022224130,  0.048394378,  0.026997047, 
   0.097641312, -0.094277769, -0.208207175, -0.147246510,  0.057252482, 
  -0.006301936,  0.052544415, -0.015334625, -0.011023810,  0.044965535, 
   0.026361844, -0.016948277, -0.159857780, -0.055084985,  0.023446260, 
  -0.019992163,  0.034358408, -0.012075326,  0.057742827,  0.062182132, 
   0.013913075,  0.016679196, -0.092515171, -0.045856532,  0.124574579, 
  -0.029395374,  0.020081408, -0.007262995, -0.067160644,  0.111041889, 
   0.048923563, -0.001847729, -0.058529340, -0.039293263,  0.129169449, 
   0.109230503,  0.009594003,  0.002398771,  0.038951792,  0.034501392, 
   0.048447311, -0.055730786, -0.150298893, -0.084646069,  0.101799548, 
   0.036012743,  0.068900958,  0.001299955, -0.025175590,  0.087837227, 
   0.030333679, -0.098560482, -0.042380821, -0.126582533,  0.061525472, 
   0.111441366,  0.033487137, -0.079644255, -0.033163417,  0.032933865, 
   0.089007922, -0.012326214, -0.108003132, -0.044066790,  0.090518169, 
   0.010820342,  0.108406745,  0.015660444, -0.089602165,  0.067490138, 
  -0.003283723, -0.068032064, -0.120578177, -0.111595906,  0.117053807, 
   0.046639942,  0.006368542, -0.061189521,  0.069872297,  0.047321808, 
   0.063593134, -0.145232275, -0.109807447, -0.103577182,  0.149701327, 
   0.079146400,  0.002072427, -0.030578099, -0.038017701, -0.015086723, 
   0.027635336, -0.104900338, -0.061582640, -0.052330114,  0.173374370, 
   0.093722805,  0.008986456, -0.134649292,  0.027208522, -0.037218861, 
   0.116112858, -0.083773017, -0.073495753,  0.064338177,  0.101475619, 
   0.148109972,  0.027622867, -0.172625929, -0.111356124, -0.047217354, 
  -0.114783503, -0.134131640, -0.090757564,  0.079247802,  0.131680533, 
   0.122467466,  0.043382775, -0.119730279,  0.045765962, -0.078881361, 
  -0.035759702, -0.096654356, -0.124066263,  0.031923085,  0.172512174, 
   0.063373014,  0.123731844, -0.155357078,  0.021581076, -0.011880087, 
  -0.156590104,  0.087481633, -0.103431709, -0.007881438, -0.092649475, 
   0.090650335, -0.070610046, -0.128261447,  0.165922701, -0.029427905, 
  -0.118699707,  0.138246611, -0.096041366,  0.113305055,  0.029667916, 
   0.050936386,  0.036459081, -0.142125711,  0.048097447,  0.105414234, 
  -0.108623721,  0.107721277, -0.063287280,  0.017412625, -0.065127209, 
   0.074015886, -0.068723530, -0.104928359, -0.032105174, -0.036565315, 
  -0.098081835,  0.057984278, -0.027804367,  0.046715766, -0.016793700, 
  -0.047098741, -0.056594871, -0.127879247, -0.020571103,  0.053193413, 
  -0.131161362,  0.089747511, -0.088623896,  0.015408883, -0.030957770, 
  -0.093695506, -0.113400608, -0.028397694,  0.031537801,  0.083466463, 
  -0.111174628,  0.104922436, -0.004010005, -0.032195508, -0.066521347, 
  -0.055590972, -0.076472640, -0.143974409,  0.021735389, -0.011367942, 
  -0.103978477, -0.015718592, -0.106541716,  0.099809244,  0.067477591, 
  -0.095879428,  0.009702866,  0.055866867, -0.014876646,  0.156604409, 
  -0.110843845,  0.070151664, -0.057185151, -0.010787040,  0.154180750, 
  -0.094382994, -0.008263567,  0.048502687, -0.010312594,  0.129854783, 
  -0.071392961, -0.136743918, -0.081748359,  0.024691258,  0.052346945, 
  -0.081459120, -0.023602953,  0.109566644, -0.043098327,  0.074819535, 
  -0.078381829, -0.029378751, -0.030600112,  0.045972113,  0.090865649, 
  -0.081837930,  0.084886007,  0.062219225,  0.043226838,  0.079382688, 
  -0.064657286, -0.143752858, -0.017003138,  0.053942498,  0.094593875, 
  -0.021652197, -0.037882291,  0.040153470,  0.030488342,  0.046379540, 
  -0.014782042, -0.107662164, -0.042298667,  0.047923915,  0.041819755, 
  -0.071037449, -0.037668850,  0.093847468,  0.045657545,  0.155381620, 
   0.076641165, -0.076068327, -0.015225692, -0.067248031, -0.022206629, 
  -0.093884498, -0.094273746,  0.097688429,  0.016122326,  0.137297362, 
  -0.100618340, -0.113134950,  0.013949716, -0.002767364,  0.106744215, 
  -0.029208669,  0.026627604, -0.005689736,  0.029919002,  0.083866417, 
   0.046571922, -0.089098707,  0.001288461, -0.030283343,  0.030232387, 
  -0.129102513,  0.004012124, -0.009529446,  0.015139530,  0.049893629, 
   0.060945250, -0.010198193, -0.011182977, -0.043781474,  0.003768733, 
