// -----------------------------------------------------------------------------
// 
// This file is auto generated by model_export.py
// -----------------------------------------------------------------------------
#ifndef MNIST_MODEL
#define MNIST_MODEL

// ....
#include <stdint.h>
#include "infercat.h"

// -----------------------------------------------------------------------------
//
// -----------------------------------------------------------------------------

// ...
float mnist_model_conv2d_output[1352];
  
// ...
static const float mnist_model_conv2d_weights[18] = {
  -0.549302161, -0.294959337,  0.218633026,  0.024270738, -0.233328551, 
  -0.424576342,  0.289739907,  0.133873045, -0.067233525,  0.568507791, 
   0.005868530,  0.564264178, -0.253938258,  0.125249460, -0.241543874, 
   0.130308986,  0.217563704,  0.193712413
};

// ...
static const float mnist_model_conv2d_biases[2] = {
   0.153287172,  0.008574504
};

// ...
const InfercatLayer_CONV2D mnist_model_conv2d_ = {
  .weight = mnist_model_conv2d_weights,
  .bias = mnist_model_conv2d_biases,
  .in_width = 28,
  .in_height = 28,
  .in_depth = 1,
  .out_width = 26,
  .out_height = 26,
  .out_depth = 2,
  .kernel_width = 3,
  .stride = 1,
  .output_buffer = mnist_model_conv2d_output,
  .activation = InfercatLayerActivation_RELU
};

// ...
const InfercatLayer mnist_model_conv2d = {
  .mem = (void*)(&mnist_model_conv2d_),
  .type = InfercatLayerType_CONV2D
};

// -----------------------------------------------------------------------------
//
// -----------------------------------------------------------------------------

// ...
float mnist_model_dense_output[10];
  
// ...
static const float mnist_model_dense_weights[13520] = {
   0.047640357, -0.001524268,  0.039154835,  0.032451276,  0.035967238, 
   0.034733515,  0.042696714,  0.067073524, -0.058028575, -0.035747711, 
  -0.071823262, -0.004922147,  0.030553827,  0.005339431, -0.043157004, 
  -0.041337438,  0.008022064, -0.101582803, -0.026421968, -0.122463346, 
   0.059374291, -0.130846217,  0.017644890, -0.048963483, -0.030178811, 
  -0.172073483,  0.035252415, -0.127452761, -0.014042716, -0.182018533, 
   0.006256771, -0.174435690,  0.004384400, -0.094657674,  0.001893555, 
  -0.171469703, -0.021725619, -0.108360842, -0.010270035, -0.167160794, 
   0.025984382, -0.093977109,  0.015841126, -0.120927565,  0.024724161, 
  -0.020445641, -0.004568944, -0.076031014, -0.033354510, -0.043669276, 
   0.040247642,  0.015056200, -0.043276142,  0.034796968,  0.049795151, 
   0.043998960, -0.058197409,  0.044949122,  0.040525138,  0.029766278, 
   0.017196406, -0.032070126, -0.027207214, -0.019980986,  0.009284841, 
  -0.112059347,  0.033761196, -0.162353858,  0.037244100, -0.123903573, 
   0.032611173, -0.031768080, -0.006719713, -0.084320977, -0.038666602, 
  -0.127464995,  0.072232865, -0.057608206,  0.083534136, -0.052112270, 
   0.084316298, -0.063982174, -0.030024832, -0.067364834,  0.078548640, 
  -0.155326575, -0.029484350, -0.176811785, -0.054574586, -0.047858439, 
  -0.050957613, -0.056526277, -0.039783802, -0.116953313, -0.074424870, 
  -0.052116442,  0.029617369, -0.113958985, -0.024435440,  0.003114195, 
  -0.062105387,  0.038957927,  0.033754524, -0.054648228,  0.027108619, 
  -0.002323779,  0.019695146,  0.064957581, -0.067275487, -0.069778629, 
  -0.031260304, -0.116289608,  0.009965735, -0.067547061, -0.047562122, 
  -0.058567982,  0.035436451, -0.121108651,  0.054445259, -0.107204832, 
   0.027747963, -0.070885614, -0.033000629, -0.096450314,  0.017393958, 
   0.027223453, -0.004371724,  0.074145086, -0.020900803,  0.077736117, 
  -0.054787632,  0.027587380, -0.013042941,  0.074056111,  0.049735293, 
   0.027784143,  0.017630571,  0.048719410, -0.027455565,  0.020738199, 
  -0.030920506,  0.102347754,  0.084724896,  0.059978791,  0.019729096, 
  -0.011751210, -0.019757619,  0.032099124,  0.005146681, -0.038803004, 
  -0.068970680, -0.099596173, -0.026583118, -0.053934488, -0.015175958, 
  -0.064680211,  0.029627129, -0.025015080, -0.038687993,  0.056577794, 
   0.034293719,  0.022369117,  0.008059719, -0.026970316, -0.007341848, 
  -0.143404886,  0.021022324, -0.033297777, -0.000465345, -0.053502694, 
   0.063010477, -0.160773844, -0.028303608, -0.147838622,  0.004415410, 
  -0.048232652,  0.016176064, -0.072335131, -0.105343431, -0.017207839, 
  -0.136103570,  0.069575354, -0.090255782,  0.036580890, -0.099075496, 
   0.084333010,  0.010375564,  0.000120137,  0.034011941,  0.051183984, 
  -0.045931283, -0.044082440,  0.046086140,  0.019609317, -0.031929825, 
  -0.136267826,  0.034857918, -0.037737735,  0.051605530, -0.150182977, 
   0.043906048, -0.133374304,  0.034466330, -0.094106235, -0.032056410, 
  -0.110059559,  0.026522340, -0.119826011, -0.037880287, -0.063236967, 
  -0.032167200, -0.086018831, -0.053561475, -0.007508649, -0.000813154, 
  -0.069830909, -0.014174275, -0.074356750,  0.036733665, -0.041944522, 
   0.065705672, -0.070287794, -0.015647627, -0.102503456, -0.030082271, 
  -0.071550570,  0.054810386, -0.048992749, -0.027406292, -0.028273469, 
  -0.126134783, -0.044173770, -0.106597491, -0.014098497, -0.153909132, 
   0.026741892, -0.191544175, -0.070759408, -0.109593995,  0.035330892, 
  -0.071860418,  0.008344064, -0.000934978,  0.015618073, -0.062553294, 
  -0.089743137,  0.036383979, -0.054856624, -0.001209411, -0.017751979, 
  -0.026369797, -0.106874712,  0.040750559, -0.146102786, -0.028485579, 
  -0.099779762, -0.036227673, -0.197414845, -0.023327066, -0.121570431, 
  -0.036846206, -0.075169891,  0.058025334, -0.052942734,  0.026432436, 
  -0.067875639, -0.045351885, -0.161208659,  0.059985884, -0.163493976, 
   0.075421147, -0.128679261,  0.081864327, -0.140629128,  0.115885019, 
  -0.059528966,  0.052441746, -0.103499398, -0.024370482, -0.061609395, 
  -0.102714792, -0.095358439, -0.059017394,  0.028370995, -0.093354270, 
  -0.036263831, -0.118399449, -0.001899316, -0.161377504,  0.027237207, 
  -0.198094845,  0.006500873, -0.130107149,  0.081166565, -0.001479337, 
   0.026292399,  0.011697036,  0.040618215,  0.022301193, -0.012719227, 
  -0.000040047, -0.018235082,  0.055223003, -0.113387719, -0.002867563, 
  -0.119924858,  0.102923915, -0.109941982, -0.033605296, -0.087815940, 
  -0.004690748, -0.141319171,  0.017640170, -0.061342385, -0.047731150, 
  -0.126282930,  0.015116703, -0.112185605,  0.025503524, -0.106962182, 
   0.057272069, -0.152100250,  0.055862404, -0.148579538,  0.000019060, 
  -0.151105240, -0.023859201, -0.125307560, -0.035268947, -0.080453619, 
  -0.065986976, -0.150208399, -0.041850440, -0.100064084, -0.063800529, 
  -0.028188923, -0.205715269,  0.037336335, -0.099267073,  0.127263233, 
  -0.088397153,  0.087630935, -0.087816879,  0.114027463, -0.159662291, 
   0.128975958, -0.041349553,  0.120178811, -0.062065970,  0.019674225, 
  -0.046074737,  0.005845466,  0.000441925, -0.046088178, -0.036854830, 
  -0.056048818, -0.007088363, -0.043439656,  0.072970420, -0.161107689, 
   0.073441260, -0.146916792, -0.051678635, -0.169757396, -0.016209884, 
  -0.093068965,  0.016203472, -0.122811384,  0.058088366, -0.055953041, 
  -0.032239672, -0.057103142, -0.028297473, -0.081624985,  0.017701950, 
  -0.112264536,  0.004976042, -0.147970974,  0.016971774, -0.084146507, 
  -0.118725024, -0.104270011, -0.153125331, -0.119025938, -0.072598726, 
  -0.040386692, -0.127083391,  0.048535395, -0.102146365,  0.066323273, 
  -0.156641141,  0.058706902, -0.067976661,  0.111371547, -0.093161039, 
   0.060605634, -0.061975259,  0.089717396, -0.155015394,  0.175644949, 
  -0.065975726,  0.102777928, -0.073958732,  0.083741918,  0.008332920, 
   0.007716859, -0.030524157, -0.023241729, -0.066826858,  0.022518331, 
  -0.029254893, -0.096595891,  0.081870012, -0.073487729, -0.026757797, 
  -0.077774458,  0.038294382, -0.025903443, -0.004850450, -0.104177974, 
   0.028525807, -0.092441857,  0.040439971, -0.134462684,  0.002895575, 
  -0.113377891,  0.026518675, -0.082263805, -0.076280341, -0.099442169, 
  -0.119994186, -0.053772219, -0.033704598, -0.086389758, -0.131452739, 
  -0.086654365, -0.108995833, -0.045010801, -0.126970366,  0.036381096, 
  -0.097215451,  0.028625423,  0.021875314,  0.026732946,  0.053895831, 
   0.147157043,  0.006968351,  0.109686948,  0.032724887,  0.095654875, 
  -0.073670417,  0.054703433, -0.129676983,  0.154853553, -0.018604377, 
   0.105234638, -0.101733290,  0.024269003, -0.103968732, -0.000338080, 
  -0.048832133,  0.069819525, -0.006665815, -0.068272598,  0.016153539, 
  -0.173392400,  0.039545674, -0.138521358, -0.072583355, -0.018460426, 
   0.004472625, -0.117146417,  0.039701179, -0.103157736,  0.002369179, 
  -0.052207332, -0.095576592, -0.064734928, -0.090492651, -0.111706071, 
  -0.099766508, -0.085976101, -0.056927375, -0.085210666, -0.172868878, 
  -0.034186475, -0.169949636,  0.030579919, -0.164409369,  0.012049217, 
  -0.129966095,  0.105741754, -0.058342792,  0.096800089,  0.086613037, 
   0.012943761,  0.186913982,  0.077211238,  0.104731761,  0.073312655, 
   0.023478245,  0.045699656,  0.045530591,  0.151879996, -0.114421315, 
   0.051156692, -0.075914137,  0.118633628, -0.121491350,  0.093437955, 
  -0.039283544,  0.109889612, -0.075058833,  0.092344910, -0.014177781, 
  -0.027784122, -0.023685539, -0.025235442,  0.046608593, -0.212999061, 
  -0.005238294, -0.086745337, -0.047114115, -0.057335790, -0.022190759, 
  -0.106702276, -0.014798881, -0.080374181, -0.092022575, -0.068551280, 
  -0.105881460, -0.073385879, -0.023221929, -0.070192814, -0.167180330, 
  -0.069345199, -0.098041527, -0.043938566, -0.118343845,  0.043301549, 
  -0.134853393,  0.029603828, -0.131428286,  0.112284146,  0.054847017, 
   0.088666916,  0.150904879, -0.053626709,  0.134521887, -0.073164478, 
   0.189790383,  0.016332548,  0.138774902,  0.023206290,  0.047642261, 
   0.047250766, -0.065980971,  0.078944810, -0.175517336,  0.154927105, 
  -0.111336812,  0.077918448, -0.082714409,  0.011249351, -0.147414044, 
   0.142083004, -0.046926789,  0.082726955,  0.018434720,  0.060907278, 
  -0.000075383, -0.159614727,  0.003933672, -0.063828006, -0.061721738, 
  -0.069912933, -0.006265781, -0.111208305, -0.059533298, -0.118693687, 
  -0.072524920, -0.025638236, -0.147928223, -0.044492323, -0.074525304, 
  -0.069729887, -0.183231860, -0.026855096, -0.197219893,  0.060284533, 
  -0.196304157,  0.099759959, -0.208797485,  0.049381450,  0.022954958, 
   0.002196756,  0.168488190, -0.043840300,  0.122519650, -0.091429360, 
   0.211769745, -0.195943236,  0.177675083, -0.187168643,  0.143961981, 
  -0.098923728,  0.109608173, -0.026451107, -0.144331589,  0.065674648, 
  -0.108121552,  0.144980758, -0.166910529,  0.038835663, -0.112449422, 
   0.078584455, -0.076114476,  0.100497596, -0.059270009,  0.134348840, 
  -0.113387853,  0.090665169, -0.028908597, -0.154809445, -0.006640289, 
  -0.066032536,  0.030431317, -0.066694364, -0.030033704, -0.093125843, 
  -0.105970226, -0.035764407, -0.063227676,  0.056281548, -0.108714074, 
   0.086126141, -0.096812367,  0.074555881, -0.139256358, -0.014868338, 
  -0.145983681,  0.116752617, -0.197757632,  0.048867799, -0.068998963, 
   0.113803245,  0.124271326, -0.059514828,  0.174972892, -0.173316807, 
   0.213151336, -0.190122470,  0.225151986, -0.209106788,  0.220581651, 
  -0.165494934,  0.183500156, -0.141680062,  0.095587231, -0.025321778, 
  -0.103479475,  0.034603182, -0.090030149,  0.115383543, -0.136753350, 
   0.061514575, -0.130585045,  0.079063378, -0.073600300,  0.071665987, 
  -0.131593555,  0.195702150, -0.066637330,  0.070883714,  0.044376645, 
  -0.004575642, -0.065096967, -0.000530810, -0.069369771, -0.075970039, 
   0.010368191, -0.085395165, -0.026923664,  0.045258332, -0.053203251, 
   0.018777907, -0.124184683,  0.092270292, -0.122636802,  0.070833728, 
  -0.188408643, -0.005362960, -0.132288724,  0.142936856, -0.182904378, 
   0.163630798,  0.072344117, -0.032070037,  0.160542637, -0.113976218, 
   0.188700974, -0.211146399,  0.103331812, -0.153999060,  0.121036746, 
  -0.192978352,  0.149684668, -0.135265276,  0.150203109, -0.228560984, 
   0.053423565, -0.168502226, -0.091381893,  0.008774057, -0.108201578, 
   0.051771674, -0.179702744,  0.051402524, -0.137690380,  0.141630411, 
  -0.166534886,  0.184272170, -0.180839360,  0.161995828, -0.041855246, 
   0.140523314, -0.019016631,  0.001209525, -0.046508182, -0.077776901, 
   0.035040341, -0.191281721, -0.050838683, -0.111907057, -0.117333852, 
   0.021654008, -0.104281850,  0.079845943, -0.133080527,  0.056208499, 
  -0.144512355,  0.097379379, -0.166618615,  0.037029080, -0.154258013, 
   0.060785681, -0.150154307,  0.048505876,  0.024505476, -0.081891894, 
   0.127226070, -0.134931684,  0.210707366, -0.146213174,  0.120788239, 
  -0.201269075,  0.140031740, -0.154284850,  0.087014645, -0.221519560, 
   0.146115214, -0.111298494, -0.048854865, -0.147197723, -0.215322927, 
  -0.050284382, -0.128300175,  0.085657462, -0.101425424,  0.098020151, 
  -0.187141448,  0.064808212, -0.111720353,  0.096300907, -0.138220638, 
   0.176611587, -0.055244800,  0.105300859, -0.072729014, -0.047479652, 
  -0.018158438, -0.034747351, -0.021310844, -0.097179227, -0.064226322, 
  -0.004007022, -0.005632626,  0.045190498, -0.153669864,  0.075917549, 
  -0.096421160,  0.033477787, -0.205171227,  0.025213698, -0.189559892, 
   0.149859607, -0.204435691,  0.120881893, -0.185275510,  0.048909977, 
  -0.055219010, -0.037488256,  0.072871491, -0.165171742,  0.175888136, 
  -0.145018160,  0.106033623, -0.202518940,  0.149585932, -0.201942623, 
   0.099230371, -0.089473687, -0.026474304, -0.152783498, -0.090941578, 
  -0.073856957, -0.166647568,  0.035051737, -0.124636695,  0.096521139, 
  -0.063382916,  0.096731402, -0.116544910,  0.064779177, -0.133928910, 
   0.042921290, -0.141899332,  0.095924906, -0.011769649,  0.124561384, 
  -0.002367247, -0.077870488, -0.056428738, -0.002044432, -0.049694091, 
  -0.218581855,  0.017431723, -0.040692519, -0.052776068,  0.024420839, 
  -0.094757617,  0.101610295, -0.047163889,  0.085238151, -0.088174395, 
   0.049210522, -0.184668511,  0.091916360, -0.179490656,  0.142296627, 
  -0.140684679, -0.044356707,  0.028965568, -0.054926295,  0.134224534, 
  -0.120923378,  0.122543223, -0.110126920,  0.135544732, -0.191590413, 
   0.057620525, -0.195018277,  0.063124642, -0.169438228, -0.033188682, 
  -0.038681999, -0.168856964,  0.009648371, -0.140876755,  0.023704499, 
  -0.075390950,  0.100492418, -0.057512660,  0.106496722, -0.100962512, 
   0.083278693, -0.134578109,  0.072274506, -0.107916087,  0.040616907, 
  -0.095465481,  0.121345729,  0.041738398, -0.027705420, -0.045253437, 
  -0.052336585,  0.076209404, -0.182690471, -0.040136158, -0.011149115, 
   0.013959259,  0.062069975, -0.093633018,  0.021229558, -0.023123242, 
   0.084524684, -0.144100606,  0.038397439, -0.149605080,  0.146239638, 
  -0.213149264,  0.149586558, -0.177312627,  0.027733466, -0.071177155, 
  -0.103184372,  0.031777706, -0.089598030,  0.114485450, -0.171291038, 
   0.072886243, -0.172965929,  0.113353938, -0.124684379, -0.042659469, 
  -0.059838548, -0.194122866, -0.004570399, -0.222199455, -0.025014473, 
  -0.098531403,  0.066237733, -0.126129746, -0.002229854, -0.029916082, 
   0.115036123, -0.130212024,  0.111989364, -0.118651673,  0.000132962, 
  -0.055408753,  0.085337907, -0.089426927,  0.035634063,  0.038855221, 
  -0.094864883, -0.050972622, -0.079380065,  0.002352855, -0.189482436, 
  -0.008915728, -0.068858981,  0.000934441, -0.010294733, -0.054504890, 
   0.086869933, -0.052888595,  0.072010472, -0.111069687,  0.061568525, 
  -0.109327026,  0.095865145, -0.226877093,  0.064738885, -0.221512705, 
   0.098953567, -0.138115615, -0.064376436,  0.017717175, -0.153236091, 
   0.106894091, -0.161504924, -0.009001901, -0.129204959, -0.060220826, 
  -0.119395129, -0.161952168, -0.071898222, -0.184960783, -0.039635517, 
  -0.164140448, -0.001690256, -0.180241987,  0.034902152, -0.121503845, 
  -0.013851685, -0.089842379,  0.016609436, -0.072417714, -0.002148337, 
  -0.010033763,  0.098708563, -0.002947296,  0.035057899, -0.050180681, 
   0.035127398, -0.034851503, -0.054690816, -0.023758270, -0.049434114, 
  -0.009058804, -0.100667417,  0.036704395, -0.040110540,  0.095625103, 
   0.001891277,  0.006638803, -0.009653322,  0.061526604,  0.106123790, 
  -0.076852366,  0.057580695, -0.126804799,  0.098391518, -0.154199734, 
   0.074711494, -0.193398625,  0.059931096, -0.244184151, -0.030646216, 
  -0.088221177, -0.013139304, -0.110419869, -0.024217352, -0.156240866, 
  -0.031589910, -0.172178194, -0.070078395, -0.075989544, -0.053742927, 
  -0.065845668, -0.002973997, -0.172991320,  0.020550475, -0.021515936, 
  -0.002965986, -0.011444415,  0.068135247, -0.091444455,  0.071659088, 
   0.004771163, -0.008706515,  0.027864307, -0.002683504,  0.001898355, 
   0.047022112, -0.005126665, -0.002926952, -0.068477675, -0.051765293, 
   0.003446908, -0.034665268, -0.042490389, -0.185307756, -0.017996415, 
  -0.015081341,  0.033381537,  0.009982323,  0.053969041, -0.005532088, 
   0.035259299,  0.090452753, -0.016963698,  0.048012603, -0.107244119, 
   0.116691731, -0.077949382,  0.081876978, -0.163302287,  0.082574449, 
  -0.119564429,  0.036669336, -0.119609728,  0.008464523, -0.116612077, 
   0.069112450, -0.058128484, -0.009980286, -0.112035766,  0.031410191, 
  -0.165864035,  0.103945598, -0.064628959,  0.072246060, -0.135917708, 
   0.057918593, -0.111261860, -0.029165030, -0.080346242,  0.016772294, 
  -0.003884572,  0.009479107, -0.065887660, -0.039000910, -0.046416283, 
  -0.006634254, -0.017670901,  0.015683854,  0.065996811, -0.114743881, 
  -0.069858328, -0.079201706, -0.009809791, -0.116081215,  0.002568685, 
  -0.121644638,  0.028011221,  0.037504047,  0.116892941,  0.004140934, 
   0.063958384,  0.054194164,  0.023832105,  0.084207140,  0.055256687, 
   0.008112651, -0.054939710,  0.047249649, -0.076354191,  0.113501638, 
  -0.175585210,  0.113915607, -0.138777271,  0.088303611, -0.100109771, 
   0.112815350, -0.172138393,  0.047728322, -0.127403349,  0.104249194, 
  -0.145688593,  0.082342505, -0.047973245,  0.013274902, -0.102641851, 
  -0.014252865, -0.106091797,  0.084578060, -0.082747221, -0.039307479, 
   0.049606115, -0.045692801, -0.000714955,  0.063891470,  0.017575562, 
   0.022496829, -0.053274695, -0.055303216,  0.049470160, -0.019069657, 
   0.047209587, -0.049805783,  0.022395596, -0.082917459, -0.019917680, 
  -0.099270090, -0.048666354, -0.091897681,  0.071181908, -0.048920531, 
   0.103864722,  0.053569324,  0.116110452,  0.042856168,  0.104555458, 
   0.008187467,  0.080540217,  0.107166506,  0.068639793,  0.126029760, 
   0.066426970,  0.020185681, -0.116830006,  0.056643765, -0.075219795, 
   0.129399255, -0.108745448,  0.053496789, -0.145292774,  0.055464450, 
  -0.133835286,  0.116088137, -0.128144741,  0.022397991, -0.171516299, 
   0.059013788, -0.088875778,  0.080851793,  0.009032313,  0.039416775, 
   0.050833073, -0.038108230, -0.031373862, -0.015817815, -0.044183336, 
  -0.078093603, -0.041468661, -0.121366449, -0.004655052, -0.084944114, 
  -0.042570040, -0.075426951, -0.007306089, -0.034578998, -0.065870240, 
  -0.002101366,  0.033295095, -0.070187427,  0.036342345, -0.048368182, 
  -0.015433695, -0.038494051,  0.053222049, -0.008044932,  0.078841247, 
   0.062497456,  0.095590182,  0.018775156,  0.041319538,  0.041623738, 
   0.020790676,  0.084809124,  0.107036509,  0.022762187,  0.041708622, 
   0.085435554, -0.052344806,  0.031789195, -0.096358418,  0.076785237, 
  -0.146034658,  0.134010121, -0.120301425,  0.096889444, -0.117917337, 
   0.070386149, -0.067641802,  0.061713625, -0.068016075,  0.024017429, 
  -0.003063124, -0.013644106,  0.051586345, -0.087017864, -0.016766448, 
  -0.053445265, -0.012673057, -0.153729707,  0.027086008, -0.095694885, 
   0.010693041, -0.082086913,  0.014864868, -0.073272623, -0.045884162, 
  -0.055628151,  0.046456233, -0.065361813, -0.035677295,  0.045995373, 
  -0.046616483, -0.066422239,  0.009652902, -0.006434881, -0.052827228, 
  -0.068966791, -0.037696369, -0.086465761,  0.064787887, -0.040239017, 
  -0.033002678, -0.069017500,  0.072968975, -0.058682725,  0.104762316, 
   0.041349038,  0.085889764,  0.003549844,  0.011041812,  0.020393370, 
  -0.033313856, -0.024428379,  0.063852601,  0.005506255, -0.031526037, 
  -0.067596503,  0.002531342,  0.009687563,  0.098820888, -0.045285575, 
   0.007970560, -0.099426769,  0.043777216, -0.153884172, -0.013127223, 
  -0.097216256,  0.041574083, -0.132104889,  0.003543042, -0.123427972, 
  -0.009740528, -0.091681428, -0.005388863, -0.073482804, -0.052503780, 
  -0.087343983, -0.061431896, -0.028933350, -0.045796629,  0.051402405, 
  -0.059744377,  0.070619829,  0.021504600,  0.019033518,  0.047541399, 
  -0.095674157,  0.027319686, -0.031547897, -0.074162975, -0.176777303, 
  -0.043423183, -0.083318211,  0.001423815, -0.169361472, -0.004532932, 
  -0.140742749, -0.015238426, -0.167477533,  0.029255398, -0.153904691, 
   0.074413329, -0.157309219, -0.016154496, -0.163708985, -0.002255999, 
  -0.069613881,  0.106232762, -0.081067376,  0.090099223, -0.144523412, 
   0.085133739, -0.137079358,  0.004689316, -0.183831215,  0.067000844, 
  -0.183601588, -0.026583225, -0.133071899, -0.018621732, -0.182100490, 
   0.031937681, -0.158428773,  0.040940981, -0.112686008,  0.058397599, 
  -0.148244128, -0.048561178, -0.064866692, -0.055403389, -0.072876602, 
  -0.065836415, -0.048367947,  0.004627131, -0.006020273,  0.038061738, 
  -0.032424647, -0.033355594,  0.009525191,  0.033329796, -0.035003539, 
   0.036443267,  0.005486062, -0.045142334, -0.076101795,  0.005458529, 
  -0.046799604,  0.061137907, -0.024670320, -0.022964519, -0.052695762, 
   0.073050603, -0.076291449, -0.000083818, -0.047244370,  0.072624527, 
  -0.043909706, -0.025614329, -0.042597465,  0.065590754, -0.058739167, 
   0.047954846, -0.119498700,  0.052341267, -0.098017298,  0.004311307, 
  -0.178367063,  0.006848057, -0.193943441,  0.042476173, -0.124916412, 
  -0.016309848, -0.168054014, -0.020864425, -0.145024464, -0.039326977, 
  -0.131846070, -0.011561457, -0.014833947,  0.001884814, -0.013038164, 
   0.051406715, -0.042466201, -0.002499468, -0.023030413,  0.012988593, 
  -0.034854308,  0.074249491,  0.056979474, -0.045687187, -0.053436637, 
  -0.010029887, -0.024069590, -0.011498111,  0.028527731,  0.048789248, 
  -0.114837840,  0.054022644, -0.040493049,  0.034193035, -0.087327793, 
   0.089372806, -0.119963884, -0.028773867, -0.061651796,  0.045103557, 
  -0.061665867,  0.067692295, -0.164694548,  0.008131927, -0.079299964, 
   0.022343915, -0.040209398,  0.100862145, -0.062073089,  0.004916492, 
  -0.079399459,  0.029745335, -0.102114126, -0.014375246, -0.212727219, 
  -0.016545344, -0.215781987, -0.037904806, -0.202337518, -0.024062287, 
  -0.111705720,  0.017155187, -0.143711448, -0.047383830, -0.122749157, 
  -0.005344123, -0.005965579,  0.062556617, -0.034205038,  0.031595811, 
  -0.025659023,  0.020862248,  0.006786296,  0.009515719,  0.029502470, 
   0.033039249, -0.060275067,  0.079704560, -0.064124763,  0.080173336, 
  -0.033995654,  0.072969601, -0.099220566,  0.022696186, -0.054218102, 
   0.007420349, -0.027699834,  0.058830358, -0.138667449,  0.005227854, 
  -0.046708506,  0.022317981,  0.052730314,  0.016488027,  0.095776446, 
   0.009831689,  0.099040970,  0.003315587,  0.127383009,  0.136818066, 
   0.053811990,  0.053452503,  0.085699543,  0.097846918,  0.034363817, 
   0.107519075,  0.044815782,  0.061244667,  0.149477661,  0.021617936, 
   0.090369657,  0.112631820,  0.152849928,  0.072312243,  0.091063015, 
   0.017092858,  0.062930718, -0.009103473, -0.009577774, -0.047074839, 
  -0.109261192,  0.057218507,  0.007972351,  0.080141768, -0.064227521, 
   0.051215947,  0.045430947, -0.015249416,  0.024801720, -0.025768623, 
  -0.052830830, -0.001553639, -0.033482112, -0.020263240, -0.089318931, 
   0.055159908, -0.051716890,  0.083697632, -0.094788715,  0.010256565, 
  -0.174048498,  0.039051410, -0.153785974, -0.042946327, -0.107412383, 
  -0.030481685, -0.102634251, -0.036592435, -0.013054480, -0.013608454, 
  -0.057716973, -0.042531397, -0.020193392,  0.042940471, -0.112459905, 
   0.016300585, -0.188816443, -0.090903729, -0.163398936,  0.018607426, 
  -0.088269591,  0.012126003, -0.000844600,  0.053323973,  0.033995610, 
   0.009933236, -0.005720726,  0.019937623, -0.109936193,  0.085765049, 
  -0.085722476,  0.033119407, -0.124580018, -0.002112625, -0.112321004, 
   0.057318963, -0.045931071,  0.078821756, -0.049304768,  0.070088208, 
  -0.026023526,  0.015918724, -0.147766426,  0.037293911, -0.145583272, 
   0.015561430, -0.051149592,  0.093170717, -0.152393058,  0.093927220, 
  -0.067925297,  0.104058869, -0.063129455,  0.095830463, -0.169478402, 
   0.089114070, -0.057709333,  0.031732403, -0.044373401,  0.030871330, 
  -0.028746078, -0.104672752, -0.075739436, -0.140960991, -0.086884171, 
  -0.125150576, -0.157648206, -0.145088270, -0.082475491, -0.103860781, 
  -0.054881345, -0.074760564, -0.063204646, -0.045713749, -0.015795255, 
  -0.080359749,  0.030677449, -0.026273441, -0.014033849, -0.052394759, 
  -0.049439091,  0.019426521, -0.126094267, -0.026870454, -0.104977906, 
   0.073640585, -0.149106786,  0.014527661, -0.045280568,  0.040118191, 
  -0.090798602,  0.021910531, -0.100441523,  0.062279880, -0.131021976, 
   0.038388386, -0.130126938,  0.005558910, -0.051960036,  0.046616580, 
  -0.109339960,  0.033601321, -0.081800148,  0.123995572, -0.135394961, 
   0.092045762, -0.130496502,  0.063029341, -0.054045234,  0.144066513, 
  -0.007431794,  0.068812869,  0.035478257,  0.087939747,  0.050601058, 
  -0.068646617, -0.018749109, -0.162425548, -0.023802575, -0.095420949, 
  -0.030475432, -0.068191759, -0.037252773, -0.095338903,  0.035539187, 
  -0.031028897,  0.126141772, -0.133226737,  0.106454991, -0.033434983, 
   0.059002649, -0.013081903,  0.075721078, -0.039458416, -0.072173782, 
  -0.037225369, -0.044135679,  0.029242517, -0.120201744,  0.069502488, 
  -0.058036007,  0.033107340, -0.003307682, -0.010340642, -0.034322906, 
   0.034766190, -0.121752441,  0.096389756, -0.041013014,  0.052346405, 
  -0.079196818,  0.101850078, -0.132468134,  0.058653612, -0.135995850, 
   0.122093864, -0.092102744,  0.085105687, -0.060242657,  0.097981915, 
  -0.042855274,  0.172406748, -0.100565031,  0.074919008, -0.021812188, 
   0.045290936, -0.030210208, -0.045204315, -0.025591874, -0.120218173, 
  -0.048499066,  0.026709815, -0.087060414, -0.015814057, -0.018984340, 
   0.030616133, -0.043556701,  0.019772800,  0.052959301, -0.024803083, 
   0.024246681, -0.024672693, -0.043388549,  0.079161875, -0.047949448, 
  -0.004797158, -0.187362909, -0.006330531, -0.177085981,  0.082558326, 
  -0.162980273,  0.085247383, -0.074249007, -0.027922126, -0.086378850, 
   0.027086502, -0.132679254,  0.004548077, -0.043405026, -0.024449235, 
  -0.119416371,  0.054807071, -0.105766326,  0.118839137, -0.086299889, 
   0.116590209, -0.194555730,  0.089311823, -0.169484943,  0.177558929, 
  -0.141558841,  0.124391057, -0.183467224,  0.113117367, -0.145155519, 
   0.071968168, -0.053758767, -0.075961538, -0.041740034, -0.098604389, 
  -0.007981542, -0.038835689, -0.031003710,  0.057419106, -0.127695590, 
   0.040233385, -0.036795270,  0.039591573, -0.104731075,  0.038446680, 
  -0.047783211,  0.003605278, -0.006709100, -0.007747422, -0.115280293, 
   0.069640778, -0.075060382,  0.084406883, -0.212567642,  0.081902005, 
  -0.215482622,  0.043582682, -0.108613923,  0.078128107, -0.090901442, 
   0.000681192, -0.067828864, -0.001338977, -0.067353003, -0.026450681, 
  -0.063844763,  0.067988612, -0.079812728,  0.007670298, -0.133437634, 
   0.050560649, -0.190656692,  0.078400441, -0.103058264,  0.078256071, 
  -0.192998335,  0.139955804, -0.142848015,  0.146961913, -0.075476326, 
   0.111744903, -0.066368259,  0.090668149, -0.036776815, -0.150224328, 
  -0.053987410, -0.217397332,  0.052432206, -0.072529033, -0.084677301, 
   0.125708804, -0.097773254,  0.140050486, -0.097934388,  0.123316094, 
  -0.120884217,  0.088746436, -0.065684959,  0.131926745, -0.126211405, 
   0.140433818, -0.216451377,  0.051256899, -0.139002219,  0.131102294, 
  -0.191046447,  0.101344213, -0.213103503,  0.046316408, -0.192034766, 
  -0.001013756, -0.034691062, -0.051534079, -0.152235374, -0.043423191, 
  -0.110239506,  0.051549781, -0.135989502, -0.007127946, -0.048490841, 
   0.051140670, -0.137483016,  0.110161997, -0.152053759,  0.104604222, 
  -0.105468921,  0.080078036, -0.129623041,  0.164148912, -0.186952412, 
   0.124464042, -0.161326200,  0.103979111, -0.062661223, -0.220762521, 
  -0.004931509, -0.184987649,  0.014710807, -0.205784634, -0.007011187, 
  -0.081513278, -0.029278995,  0.072773859, -0.085083172,  0.077535823, 
  -0.131580383,  0.141203701, -0.109443530,  0.080987096, -0.112565167, 
   0.158874452, -0.125857785,  0.165207103, -0.190448195,  0.151671290, 
  -0.235799611,  0.035414368, -0.224099368,  0.113900408, -0.195853755, 
   0.027474757, -0.193456724,  0.001877569, -0.089977443,  0.030669941, 
  -0.095434539, -0.011085944, -0.064992078,  0.041693207, -0.051707234, 
   0.034738760, -0.147216156,  0.038079198, -0.103921622,  0.069338098, 
  -0.068955109,  0.123405144, -0.184499621,  0.116840295, -0.121700518, 
   0.132339358, -0.198896199,  0.176900819, -0.133211046,  0.092706345, 
  -0.078835391, -0.193368360,  0.112178288, -0.260107607,  0.137591407, 
  -0.173079804,  0.142755121, -0.119711950,  0.093703359,  0.022511151, 
  -0.065558560,  0.135229960, -0.023271181,  0.117963895, -0.127491981, 
   0.073767439, -0.145732999,  0.040693454, -0.203611568,  0.124482855, 
  -0.172137380,  0.085994236, -0.218834475,  0.001895726, -0.191622317, 
   0.110979624, -0.148624554,  0.077940360, -0.197998270,  0.054345977, 
  -0.070906505,  0.016037447, -0.050756376, -0.010763141, -0.087388165, 
   0.005429991, -0.072260335,  0.037521578, -0.046907801,  0.070205048, 
  -0.072407089,  0.082213804, -0.108209051,  0.081776999, -0.072417945, 
   0.143261358, -0.113827303,  0.153737023, -0.201537639,  0.105393030, 
  -0.179066822, -0.118790746, -0.136823952, -0.225782141,  0.155941054, 
  -0.184533224,  0.117018461, -0.164788038,  0.081370190, -0.193335161, 
   0.098067068,  0.025527559, -0.016252939,  0.110282414, -0.075421371, 
   0.130664125, -0.160254285,  0.142799273, -0.196151391,  0.093212679, 
  -0.124920532,  0.052233715, -0.107535571,  0.096666403, -0.184104159, 
   0.089243345, -0.173160449,  0.001023119, -0.103865884,  0.089550167, 
  -0.116956644,  0.031170545, -0.102433927,  0.044695824, -0.064755157, 
   0.035977613, -0.048734665,  0.013607849, -0.125602439,  0.027273104, 
  -0.161382422,  0.011824431, -0.156250715,  0.083313443, -0.178991228, 
   0.120469071, -0.095696598,  0.098383188, -0.133760422,  0.105561048, 
  -0.154874012,  0.121349022, -0.168569744, -0.220917806, -0.070316359, 
  -0.219387993,  0.157926306, -0.176534235,  0.160520047, -0.177192539, 
   0.180638403, -0.257768244,  0.035695691, -0.042485718, -0.040240698, 
   0.090426713, -0.054216214,  0.125610963, -0.172368988,  0.146510273, 
  -0.067365654,  0.027059983, -0.143588796,  0.116007626, -0.170787349, 
   0.018585308, -0.088829093,  0.081138544, -0.173597082,  0.000218970, 
  -0.140619099, -0.038270887, -0.122391149,  0.006810959, -0.055340040, 
   0.038003266, -0.021464124,  0.063249923, -0.118431546,  0.043555100, 
  -0.134205803,  0.079401888, -0.083589070, -0.002785508, -0.058454603, 
   0.004708918, -0.077339411,  0.137284592, -0.118893661,  0.163377032, 
  -0.192488670,  0.153361991, -0.175003022,  0.168079138, -0.220809340, 
  -0.234780595, -0.003008131, -0.229781061,  0.070214808, -0.225678325, 
   0.076663934, -0.229378313,  0.139981851, -0.209590659, -0.067609869, 
   0.090594463, -0.039738812,  0.042961422, -0.207367733,  0.076863274, 
  -0.111970499,  0.083250828, -0.060440801,  0.060275570, -0.179211199, 
   0.042970229, -0.062050194, -0.012260990, -0.050028823, -0.024124982, 
  -0.167281836,  0.017339272, -0.067228973, -0.009034515, -0.059748814, 
   0.038388439, -0.051014960, -0.002723343,  0.023840157,  0.058842760, 
  -0.083257794, -0.012427811, -0.103150539,  0.077184461, -0.174014807, 
   0.059158117, -0.128395826,  0.040060252, -0.172530785,  0.084628277, 
  -0.158197701,  0.122489780, -0.149380460,  0.159667835, -0.134069607, 
   0.044140376, -0.125781521, -0.186257079,  0.075666681, -0.187122047, 
   0.058747869, -0.248426512,  0.126805723, -0.179936975, -0.012866329, 
  -0.262928277, -0.085407473,  0.085771501, -0.085708953,  0.057792332, 
  -0.182173803,  0.100091286, -0.103819169,  0.087702245, -0.173863187, 
   0.114940248, -0.172862276,  0.024808055, -0.162808076,  0.106075265, 
  -0.144030228,  0.085521609, -0.147264421, -0.008037342, -0.085048579, 
   0.039491978, -0.099056914, -0.038801011,  0.026470354,  0.054340545, 
   0.000669067,  0.048425786, -0.091867015,  0.059864108, -0.059040133, 
   0.109039143, -0.057529479,  0.011128264, -0.073601700,  0.094694905, 
  -0.129815474,  0.093976788, -0.078191184,  0.056003526, -0.083775409, 
   0.074763715, -0.129491493, -0.013251507, -0.174113005, -0.189679950, 
   0.009565127, -0.128647834,  0.130898565, -0.245850682,  0.110882312, 
  -0.232023314,  0.006337162, -0.278296113, -0.071152173,  0.146446154, 
  -0.155933112,  0.141521186, -0.193656296,  0.122347482, -0.099804759, 
   0.096628301, -0.146985322,  0.115457952, -0.117348537,  0.065438651, 
  -0.066078372,  0.106880873, -0.076017611, -0.014221990, -0.058520511, 
   0.071423210, -0.111703798,  0.068904996, -0.042093843, -0.009408453, 
  -0.039055921,  0.080019847, -0.043389283,  0.046027679, -0.154926673, 
  -0.006317089, -0.071386047,  0.064933009, -0.135031819,  0.036638789, 
  -0.133525938,  0.033955757, -0.178884715,  0.051252935, -0.132841885, 
  -0.030729311, -0.100913323,  0.078798398, -0.148336232, -0.034483567, 
  -0.047282655, -0.122570865,  0.062370561, -0.191214398,  0.151266649, 
  -0.243656203,  0.094077840, -0.261759430, -0.062489647,  0.074512251, 
  -0.061725847,  0.069418378, -0.142404735,  0.198938861, -0.194263920, 
   0.139200062, -0.091738679,  0.044694759, -0.192039907,  0.095964693, 
  -0.102108963,  0.067182101, -0.173902437,  0.065260664, -0.108949944, 
   0.018714769, -0.037804917,  0.006646825, -0.088424347,  0.025859077, 
  -0.108889319, -0.042919021, -0.011387891,  0.027134450, -0.070623517, 
  -0.025711723, -0.052978609,  0.023972411, -0.085129887,  0.018836351, 
  -0.216113672,  0.063113570, -0.158959493,  0.029621147, -0.154253483, 
  -0.049786098, -0.102883592, -0.002636826, -0.085411936,  0.011086800, 
  -0.022490414, -0.015278577,  0.022339053, -0.071274675,  0.054407027, 
  -0.200362846,  0.100300029, -0.185920745,  0.057330575, -0.202185094, 
  -0.043928653,  0.132810161, -0.150525793,  0.087652721, -0.123323627, 
   0.194754794, -0.166299537,  0.110414989, -0.131519943,  0.120244399, 
  -0.073347591,  0.022090597, -0.060396343,  0.111364394, -0.150803834, 
   0.016048040, -0.079400785,  0.005540791, -0.156335041,  0.042448703, 
  -0.083594367,  0.069321088, -0.124061845,  0.001861302, -0.050410397, 
   0.079912372, -0.077705331, -0.001630683, -0.142822862, -0.043310918, 
  -0.106006823,  0.062383685, -0.169503585,  0.034858562, -0.136266291, 
   0.066533543, -0.096993357, -0.060264125, -0.059297707, -0.035054903, 
  -0.023966318,  0.086660355, -0.051643949, -0.028618487,  0.098828085, 
  -0.063783042,  0.086777352, -0.174759060,  0.087788224, -0.205632240, 
   0.149322569,  0.057878509,  0.034081645,  0.079409353, -0.149491981, 
   0.165870145, -0.075433493,  0.084383018, -0.119866692,  0.174674705, 
  -0.118228063,  0.095437713, -0.079644747,  0.104996756, -0.125644103, 
   0.067174412, -0.096454896,  0.100574121, -0.111198701,  0.073961526, 
  -0.047553837,  0.004890429, -0.146106780, -0.018560817, -0.147531673, 
   0.017265782, -0.031644747,  0.008217672, -0.123909794,  0.064876266, 
  -0.050607964, -0.008512603, -0.137040094,  0.017131612, -0.190053269, 
   0.038074080, -0.096315861, -0.046076696, -0.074227564, -0.026769344, 
  -0.087002732,  0.013191879, -0.094933897, -0.013005045,  0.029485554, 
   0.026911886,  0.006288791, -0.065824106,  0.153116032, -0.063896500, 
   0.121825397,  0.042654678,  0.169883728,  0.120714821, -0.032986104, 
   0.149535105, -0.107018121,  0.113422409, -0.075053602,  0.116739728, 
  -0.072910547,  0.168855935, -0.037792213,  0.107086986, -0.119278371, 
   0.084338024, -0.138620168,  0.113533802, -0.077602185, -0.011068589, 
  -0.069840975,  0.080633596, -0.095349789, -0.003317578, -0.098415114, 
   0.027454842, -0.029808573,  0.003876926, -0.093224891, -0.041638251, 
  -0.036019035, -0.005649234, -0.042212773,  0.014007874, -0.039839204, 
  -0.079750754, -0.063754790, -0.009971512, -0.030166997, -0.096880250, 
  -0.016679941, -0.042150933, -0.079285026, -0.077669114,  0.029601378, 
  -0.013773116, -0.051256526,  0.085094035, -0.038488731,  0.010962189, 
   0.090366319,  0.065064080,  0.005759166,  0.161723465,  0.001712804, 
   0.203421175, -0.096889630,  0.136668205, -0.002059376,  0.131834030, 
  -0.049172558,  0.090533540, -0.096345767,  0.056615725, -0.095462471, 
   0.053947546, -0.001878490,  0.028961936, -0.059804901,  0.003711932, 
   0.001829841,  0.065196551, -0.127626732,  0.091354333, -0.009031150, 
  -0.033229023, -0.003867083,  0.075677939, -0.094540961, -0.029460398, 
  -0.088208489, -0.041109145, -0.067118272,  0.051523801, -0.058764029, 
  -0.058172446, -0.103017226,  0.001342389, -0.076951168, -0.143251434, 
  -0.089429937, -0.084991969,  0.001687961, -0.063618943,  0.059838884, 
  -0.089381956, -0.057527345,  0.026484046, -0.022286015,  0.137341127, 
  -0.008990501,  0.180180207, -0.073070489,  0.081250146, -0.129123658, 
   0.218219414, -0.035251025,  0.072344117, -0.083680257,  0.015902990, 
  -0.042855747,  0.061375760, -0.094032094,  0.107252479, -0.120285556, 
   0.106345683, -0.064430214, -0.002688146,  0.003441563, -0.008173309, 
  -0.049417004,  0.067659631, -0.045047700,  0.062108573, -0.088576771, 
  -0.005436612, -0.111386359,  0.007551604,  0.016836520,  0.031539217, 
   0.013017809,  0.032362949, -0.058232453, -0.000579690, -0.043345407, 
   0.013536219, -0.065785855, -0.025680818,  0.022713361, -0.095916308, 
  -0.040458612, -0.100423075, -0.021764064, -0.108242542, -0.011031877, 
  -0.110681042, -0.034546345, -0.049276743, -0.060688585,  0.081415139, 
  -0.052214377,  0.088729709, -0.097651884,  0.112812258, -0.161048502, 
   0.159403563, -0.148704946,  0.183140412, -0.150030345,  0.040710554, 
  -0.011376225, -0.013799641, -0.079833433,  0.001047278, -0.074341714, 
  -0.005050902, -0.015375140,  0.029496815, -0.052229948,  0.017040540, 
  -0.045800935,  0.023741517, -0.014092894,  0.000289295, -0.042699501, 
   0.066196002, -0.109312184,  0.061632495, -0.039471533, -0.012345017, 
  -0.109901495,  0.029511848,  0.005645056,  0.069817290,  0.013490621, 
  -0.037552666, -0.112956360, -0.026050905, -0.020664861,  0.061717212, 
   0.092962354, -0.001765726,  0.063343629, -0.003409857,  0.042494677, 
   0.109380618,  0.058946859,  0.038989570,  0.180268794,  0.074923314, 
   0.105339102,  0.053626940, -0.005710164,  0.056995638, -0.043996878, 
   0.107811384, -0.045839287,  0.204857871,  0.067271188,  0.103356421, 
   0.019040832,  0.029617047,  0.106012560,  0.049271531,  0.071461767, 
  -0.022418823,  0.085672691,  0.029667681,  0.028900938, -0.020883031, 
  -0.071501821,  0.081747599, -0.109675713, -0.025436888, -0.051746026, 
   0.034530886, -0.026224811, -0.025562230, -0.129471138,  0.024470977, 
  -0.076391049,  0.039776657, -0.059530165,  0.014715167,  0.032310940, 
  -0.028400963, -0.059891026, -0.033340350, -0.102999948,  0.058777906, 
  -0.103008814,  0.025551952,  0.023760078,  0.006101909, -0.019193592, 
   0.085096829,  0.072031461,  0.037529252, -0.067101710,  0.002050579, 
  -0.010946457,  0.131173283, -0.132073075,  0.099566072, -0.078431107, 
   0.103198655, -0.104447454,  0.168107450, -0.137891248,  0.192940861, 
  -0.099420227,  0.187549368, -0.125088751,  0.140110821, -0.138079301, 
   0.001016198, -0.068662383,  0.005599990, -0.045295946,  0.011185359, 
  -0.013789583, -0.030410187, -0.126551270,  0.002472053, -0.077234626, 
   0.092877597, -0.110829473, -0.014285025, -0.030230455,  0.062932648, 
  -0.124818198,  0.019674199, -0.114766359,  0.034483168, -0.025639299, 
   0.069119088, -0.005811916, -0.045998629, -0.006958675, -0.030630043, 
  -0.069610931, -0.030058170, -0.070965409, -0.006721892, -0.072167329, 
   0.055682246, -0.181409165, -0.031972922, -0.198906332,  0.060971055, 
  -0.147798479,  0.061486486, -0.219589233,  0.012472633, -0.194572642, 
  -0.004091530, -0.195737928,  0.068482503, -0.109658144,  0.023287682, 
  -0.169405371,  0.035489298, -0.178518191,  0.018466759, -0.083305486, 
   0.033507541, -0.091306843,  0.018263219, -0.144998595,  0.106340349, 
  -0.088595852,  0.039629068, -0.155450672,  0.080731548, -0.085536115, 
   0.042477950, -0.075609557,  0.046550892, -0.081885368,  0.015930280, 
  -0.063323788,  0.045975730, -0.115653694,  0.043141101, -0.064982742, 
  -0.008675306,  0.009699955, -0.013779840, -0.008995900, -0.016744187, 
  -0.029362461,  0.014521618, -0.074438386,  0.001893258, -0.014118548, 
  -0.066532642, -0.076725371, -0.058903571,  0.033116952, -0.022503978, 
  -0.086450711, -0.072668336, -0.095363662,  0.003617669, -0.070792124, 
   0.027445583, -0.067612953,  0.000395690,  0.028078783, -0.005149374, 
   0.002764028, -0.028403256,  0.039207146, -0.041676939, -0.022588553, 
   0.019962171,  0.002941970,  0.017642582, -0.092189796,  0.056166921, 
  -0.067438960,  0.040196169, -0.083877839,  0.003038084, -0.055113390, 
  -0.032592807, -0.094209217, -0.053256314, -0.184440941, -0.040536705, 
  -0.155780762, -0.057505246, -0.155811861, -0.061062492,  0.012963467, 
  -0.016802823, -0.018609200, -0.024438662, -0.049435992,  0.010378720, 
  -0.027564552,  0.000539149, -0.056169897,  0.010189308, -0.068152532, 
  -0.068248942,  0.010584313,  0.009263708,  0.001137289,  0.013737159, 
  -0.048396230,  0.046628457, -0.006646421,  0.005126621,  0.064365372, 
   0.021363538,  0.134147167, -0.082593866,  0.133433715, -0.042463258, 
   0.134329051, -0.120919161,  0.090532690, -0.085801996,  0.148026615, 
  -0.058019031,  0.155623659, -0.024006533,  0.032027461,  0.031598397, 
   0.081618056,  0.051549666,  0.064747036,  0.025051508,  0.028085776, 
   0.009073411,  0.072110854, -0.013937688,  0.044621062, -0.042577110, 
   0.017738132,  0.015851323, -0.041071009,  0.054324172, -0.079009995, 
  -0.043171071, -0.167393342,  0.044913195, -0.128877640, -0.074388787, 
   0.004416520,  0.019089429,  0.012930286, -0.016880769,  0.016678702, 
  -0.007827761, -0.043662101,  0.021094972, -0.032620780,  0.042400178, 
  -0.039483082,  0.013964677,  0.086710289,  0.010349687,  0.080281876, 
  -0.091020405,  0.044086821, -0.093086302,  0.122796074, -0.111416273, 
   0.089289233, -0.079127319,  0.079064012, -0.152111024,  0.046948843, 
  -0.133826748,  0.132565454, -0.120728165,  0.117227353, -0.082356475, 
   0.047255535,  0.000213942,  0.073660724, -0.018591758,  0.094685756, 
   0.035056293,  0.029626848, -0.030307205, -0.011984061,  0.089656241, 
   0.009315202, -0.007002772, -0.165893689, -0.030687325, -0.128835008, 
   0.014665385, -0.165941253, -0.051706344, -0.183608830, -0.058581740, 
  -0.197712213,  0.022365771, -0.118842401, -0.031319164,  0.031815689, 
  -0.049432158, -0.035578232, -0.019984465,  0.009911007, -0.026020795, 
  -0.050091263, -0.079877950,  0.060176473, -0.096703753,  0.059538625, 
  -0.077832691,  0.102624282, -0.079908915,  0.113201931, -0.024157066, 
   0.083983101, -0.128098458,  0.084547520, -0.122374602,  0.138282925, 
  -0.103645034,  0.057356313, -0.111742437,  0.084387533, -0.107299469, 
   0.058449503, -0.111192353, -0.010122425, -0.097648680, -0.028707588, 
  -0.060951993,  0.053915273,  0.039877228,  0.010228742, -0.021151256, 
  -0.068305604,  0.123152435, -0.135426760,  0.105972350, -0.102583371, 
   0.015356077, -0.097077742, -0.000547705, -0.098331057,  0.046158519, 
  -0.124885470,  0.015859207, -0.110414051, -0.008986417, -0.081187062, 
  -0.040223449, -0.087974153,  0.043259732, -0.031271692,  0.050231770, 
   0.039372746, -0.023741100,  0.044134680,  0.016623180,  0.019032212, 
  -0.004219627,  0.044482283, -0.016458124,  0.072151296, -0.046505768, 
   0.026157064, -0.104015976,  0.146300852, -0.131979987,  0.136246845, 
  -0.070838273,  0.084706098, -0.066832758,  0.073996067, -0.139774486, 
   0.126327068, -0.137398168,  0.121728055, -0.089554250,  0.055709746, 
  -0.035456024,  0.122556239, -0.003239100,  0.080590069, -0.034041531, 
   0.068510711, -0.036670502, -0.016472859,  0.029567963, -0.086696915, 
   0.083940737, -0.093778752,  0.104763329, -0.059993099,  0.045780245, 
  -0.132417545, -0.016133595, -0.173072502,  0.050537229, -0.128731951, 
   0.046596415, -0.168528885,  0.015624637, -0.087860219, -0.000088884, 
  -0.018873068, -0.046729676, -0.024525819, -0.031346038, -0.021989617, 
   0.028315544,  0.054872949, -0.063198559,  0.035029072, -0.059439026, 
   0.123635583, -0.050326627,  0.075687222, -0.023468357,  0.055005480, 
  -0.102345139,  0.127785772, -0.007766013,  0.104574993, -0.016195728, 
   0.092287831, -0.078327261,  0.179870561,  0.030383475,  0.166113794, 
   0.069984905,  0.101895057,  0.069339283,  0.156400755, -0.015227341, 
   0.110512011,  0.005794268,  0.100664116,  0.038500592,  0.050012879, 
  -0.005801909, -0.003949827,  0.028474871, -0.021707129,  0.090345740, 
  -0.044577651,  0.083750829, -0.084828235,  0.097164258, -0.182730123, 
   0.027976574, -0.179296285, -0.043709796, -0.161058053, -0.044778936, 
  -0.116221428, -0.061184730, -0.063261881,  0.052845173, -0.014086667, 
   0.009178983, -0.049379338, -0.070365652, -0.013465687, -0.063635498, 
   0.099439315,  0.018690391,  0.128030285, -0.019964753,  0.019024843, 
  -0.045080043,  0.124014594, -0.015205540,  0.087981746, -0.059606440, 
   0.061281305,  0.055641506,  0.109238110,  0.146492690,  0.143987432, 
   0.115794793,  0.081506409,  0.101121634,  0.050048083,  0.092065550, 
   0.050501864,  0.161991432,  0.090654880,  0.043203272,  0.120208606, 
   0.077378847,  0.078540139, -0.029187614,  0.071097791, -0.004933587, 
  -0.090110175,  0.070689917, -0.060219444,  0.078577116, -0.071749777, 
   0.034791313, -0.085683480,  0.050753079, -0.117373265, -0.043979481, 
  -0.167681247, -0.031237673, -0.082233399, -0.044862706,  0.020057721, 
   0.029744720,  0.009616240, -0.059481088,  0.039156307, -0.063948750, 
   0.077614546, -0.038271111,  0.089982063,  0.027313588,  0.037300136, 
   0.077344872,  0.043921661,  0.076246053,  0.100105591,  0.046391450, 
   0.019213613,  0.115199715,  0.044600684,  0.093497999,  0.117602482, 
   0.184477165,  0.024751540,  0.195396975,  0.055949725,  0.217073098, 
   0.101306506,  0.156522185,  0.015218396,  0.194376066,  0.026195267, 
   0.037389591,  0.024143072,  0.037177276,  0.021051072, -0.074613608, 
  -0.004725872, -0.016590074,  0.005137862,  0.055529419, -0.114306696, 
  -0.009432897, -0.061679818, -0.013298336, -0.119240060,  0.032999646, 
  -0.139408320, -0.018957930, -0.196945220, -0.050023757, -0.104448654, 
  -0.010539476,  0.011311798, -0.060853720, -0.051799688,  0.039371759, 
   0.041083820,  0.053648755,  0.040705021,  0.101660408,  0.124567218, 
   0.097077191,  0.014575569,  0.108971998,  0.015200252,  0.118970335, 
   0.019433480,  0.087700404,  0.016590187,  0.101949394,  0.013944316, 
   0.211457074,  0.006706743,  0.090152703,  0.037045289,  0.163542777, 
  -0.031168008,  0.094090611, -0.003662891,  0.077947825, -0.059825350, 
   0.099055305, -0.025286160, -0.089440763, -0.040926505, -0.026319047, 
  -0.074811816, -0.119309068, -0.086990513, -0.045125872, -0.077711843, 
  -0.084718317, -0.008554772, -0.068569452, -0.079200357, -0.059083268, 
  -0.136073709,  0.026861377, -0.145550773,  0.058258507, -0.147011623, 
  -0.066197015, -0.117427163, -0.045007039, -0.018298354, -0.067595005, 
  -0.101831324,  0.065373041,  0.022878256, -0.015175298,  0.069530182, 
   0.023846958, -0.025282472,  0.071054056, -0.052256580,  0.129073396, 
   0.034005452,  0.081038266, -0.033661537,  0.091169022, -0.051168375, 
   0.208334163, -0.012142580,  0.175463483, -0.104052395,  0.098459892, 
  -0.049756207,  0.100063704, -0.096593976,  0.086926751, -0.080386944, 
   0.037271772, -0.078062840,  0.050928958, -0.069931790, -0.099434316, 
   0.025910776, -0.188957274, -0.091054633, -0.069520079, -0.015703635, 
  -0.130413309, -0.015189892, -0.044887546, -0.081816211,  0.020180160, 
  -0.060991146, -0.023871871, -0.070818797,  0.023586968, -0.124293439, 
   0.023281867, -0.115576528, -0.056296453, -0.063253082,  0.019965945, 
   0.011912288, -0.056960009, -0.015684204,  0.003663161, -0.033401903, 
   0.024962608, -0.046303209,  0.083466589, -0.043017324,  0.071900509, 
  -0.131571785,  0.169875473, -0.117948294,  0.176513031, -0.138597965, 
   0.108754270, -0.069574893,  0.142925307, -0.156045467,  0.139200523, 
  -0.087603368,  0.144641608, -0.094315216,  0.132142738, -0.105594985, 
   0.151098579, -0.151643932,  0.065923929, -0.146920666, -0.030543942, 
  -0.023989270, -0.153403580, -0.091521062, -0.161948159, -0.011565661, 
  -0.106822729,  0.027003311, -0.126350507, -0.112778433, -0.070771404, 
  -0.134529665, -0.088880181, -0.091030329, -0.055612698, -0.147495389, 
  -0.062641084, -0.046539612, -0.002628353, -0.049014166, -0.011778394, 
  -0.008772257, -0.067278467, -0.092149034,  0.014459033, -0.056257788, 
  -0.031817403, -0.039894767,  0.043705877, -0.106677376,  0.085921027, 
  -0.122702502,  0.148504272, -0.165202096,  0.181066170, -0.195577949, 
   0.181213841, -0.120412432,  0.223916829, -0.104415007,  0.125128299, 
  -0.204660982,  0.231441125, -0.206006482,  0.161332235, -0.187076882, 
   0.234689727, -0.134078860,  0.154169470, -0.230471879,  0.166345909, 
  -0.169152215, -0.042362086, -0.070004739, -0.142332897, -0.092654347, 
  -0.196581855,  0.016765848, -0.141791299, -0.065413237, -0.142927051, 
  -0.038519926, -0.103044733, -0.062187284, -0.022632781, -0.075586557, 
  -0.050054334, -0.133551762,  0.024587406, -0.112613373,  0.026493561, 
  -0.056223802, -0.036001213, -0.031968039, -0.042757317, -0.086696856, 
  -0.005654071, -0.123127691,  0.060309555, -0.122026242,  0.015940700, 
  -0.080942720,  0.058095679, -0.132617891,  0.092746861, -0.258601129, 
   0.140009433, -0.198853761,  0.127263919, -0.228572935,  0.101043142, 
  -0.170992821,  0.082982548, -0.203984082,  0.087057814, -0.193337619, 
   0.216990784, -0.160571933,  0.235772416, -0.184780344,  0.180458084, 
  -0.120236471,  0.007217811, -0.136007860, -0.062649824, -0.063476346, 
  -0.116073400, -0.019919949, -0.178100362, -0.038281556, -0.166690752, 
  -0.031031486, -0.117597662, -0.004826711, -0.002317466, -0.127129823, 
   0.032140706, -0.063611008,  0.053772900, -0.155769929, -0.002616821, 
  -0.097536415,  0.003479367, -0.076674320,  0.040047627,  0.030837093, 
   0.016792497, -0.076228566,  0.011992614, -0.012559441, -0.011891618, 
  -0.052925132,  0.047199037, -0.206162363,  0.009474955, -0.203903660, 
   0.052559976, -0.169817239,  0.031733900, -0.120758697, -0.011383433, 
  -0.199496627, -0.031471446, -0.155613899, -0.081596799, -0.172794983, 
  -0.049852517, -0.190815955, -0.018496517, -0.186026603, -0.086882956, 
  -0.113323607, -0.093486212, -0.127398357, -0.134098709, -0.174961016, 
  -0.047464974, -0.044603523, -0.129670933, -0.093424298, -0.114970870, 
  -0.028803585, -0.153710693, -0.042566273, -0.068202727, -0.063763857, 
   0.015898926, -0.086214334, -0.003734727, -0.082899317,  0.012333926, 
  -0.087903693, -0.001218106, -0.064792760,  0.016668748,  0.059309218, 
   0.063880950,  0.127797499, -0.054151338, -0.091326728, -0.033933397, 
  -0.046742339, -0.111220680,  0.003165801, -0.072766677, -0.085686371, 
  -0.067410171, -0.096105635, -0.181524292, -0.133640960, -0.113645606, 
  -0.101460136, -0.193366274, -0.085258886, -0.230665877, -0.161435515, 
  -0.251562238, -0.027477451, -0.268753499,  0.000540453, -0.270116836, 
  -0.061868455, -0.207356334, -0.055049568, -0.183219969, -0.059701748, 
  -0.139149830,  0.021739785, -0.172636464, -0.079646967, -0.096155368, 
  -0.059002530, -0.138840765, -0.092632860,  0.019260196, -0.005507716, 
  -0.004395567, -0.015991738,  0.117048919, -0.055595689,  0.020072989, 
  -0.086378075,  0.115793966, -0.105329975, -0.008201653,  0.019032948, 
   0.077839538,  0.158038020,  0.071476229,  0.184844211,  0.022327671, 
   0.027969765, -0.032807451,  0.081470095, -0.115655571, -0.052857738, 
  -0.075691633,  0.002559242, -0.155922204,  0.028536065, -0.215580076, 
  -0.056654248, -0.148564711,  0.010658788, -0.175144747, -0.059489876, 
  -0.252911180,  0.009096500, -0.238078102, -0.021345913, -0.225481048, 
   0.104736336, -0.183230042,  0.022523554, -0.227712646,  0.057969764, 
  -0.208237275,  0.022087807, -0.153136909,  0.060420454, -0.103691123, 
  -0.047588609, -0.103229403,  0.044640925, -0.052202251, -0.078328922, 
  -0.028578989, -0.051391557,  0.012158890, -0.110005759,  0.067528889, 
  -0.108367309,  0.008799177, -0.071694322,  0.018723039,  0.001239749, 
  -0.008327156,  0.116895698,  0.012769960,  0.108635224,  0.023060301, 
   0.153097317, -0.065707706, -0.024526395, -0.084654704,  0.096363507, 
  -0.139059678,  0.044792239, -0.095157556,  0.076143540, -0.225165799, 
   0.025856491, -0.193245262,  0.034479268, -0.201944515,  0.045185212, 
  -0.213788211,  0.038060673, -0.135944366,  0.128750294, -0.162987977, 
   0.033897556, -0.192347899,  0.144073278, -0.198687121,  0.142050385, 
  -0.184702650,  0.099761784, -0.144699663,  0.116877995, -0.121873826, 
   0.118370935, -0.186563671,  0.032570109, -0.071226336,  0.056954212, 
  -0.036374040, -0.001635795, -0.028257946, -0.018889761,  0.004324839, 
   0.047235642,  0.044341303,  0.029881803, -0.060911540,  0.036156569, 
   0.001960336,  0.050054912, -0.022197859,  0.157315299, -0.053175878, 
   0.108602278, -0.021892196,  0.144500077, -0.009636432, -0.053928841, 
  -0.054018568,  0.011888422, -0.095817640,  0.087541573, -0.100819401, 
   0.089703403, -0.203366354,  0.056604009, -0.202147096,  0.116368465, 
  -0.195784613,  0.139256552, -0.223274574,  0.132947534, -0.218632355, 
   0.146434590, -0.178454623,  0.163218424, -0.233181059,  0.073589921, 
  -0.216712356,  0.148908839, -0.245653644,  0.135496184, -0.181184009, 
   0.168764487, -0.113963440,  0.062388007, -0.056229468,  0.072814249, 
  -0.054716572,  0.063971199, -0.017125767,  0.027422076,  0.075512365, 
   0.001913800, -0.034086239,  0.000967401, -0.013770498,  0.120011203, 
   0.010175231,  0.050905976, -0.065747604,  0.103034943, -0.134562179, 
   0.110518157, -0.021531820,  0.159724876, -0.083340369,  0.109722666, 
   0.001998652,  0.018535241,  0.058878947,  0.038302742, -0.077695780, 
   0.175604045, -0.141842946,  0.162809268, -0.145028204,  0.179246664, 
  -0.130253240,  0.196174309, -0.110093571,  0.096788481, -0.125622362, 
   0.075105682, -0.143383175,  0.047386974, -0.196941257,  0.160450205, 
  -0.166338995,  0.109313503, -0.165032670,  0.139133751, -0.197354779, 
   0.143944398, -0.115305386,  0.092502356, -0.043273106,  0.138623744, 
   0.020577721,  0.071808778,  0.100731634,  0.135632366,  0.092535689, 
   0.014194899,  0.090392642,  0.028317260, -0.007176411,  0.128437862, 
  -0.109924890,  0.123787351, -0.064739332,  0.200576454, -0.102219075, 
   0.150639042, -0.040815890,  0.110943176, -0.132086426,  0.194402203, 
  -0.113343708,  0.145381644, -0.043907072, -0.010335016,  0.054245163, 
   0.120606691, -0.025929777,  0.129110113, -0.022450706,  0.147154406, 
  -0.111928239,  0.174920931, -0.133257225,  0.114438929, -0.211872995, 
   0.096854679, -0.124858417,  0.075051345, -0.157325059,  0.084947847, 
  -0.147485808,  0.132323921, -0.136619419,  0.166151747, -0.105454065, 
   0.142711163, -0.069690205,  0.059012521,  0.061201211,  0.011818386, 
   0.098133236, -0.002687989,  0.149585545,  0.066897511,  0.062522270, 
   0.101696968,  0.051295657,  0.083283186, -0.028967761,  0.053842165, 
  -0.056545701,  0.133789599, -0.071468502,  0.131372049, -0.066697687, 
   0.168048114, -0.130791441,  0.182949841, -0.040994313,  0.099215053, 
  -0.127890974,  0.115683362, -0.050631911,  0.110886298, -0.062225409, 
  -0.028484959,  0.050889943,  0.115902446, -0.019941315,  0.116665654, 
   0.022316672,  0.072715811, -0.038604841,  0.175300688, -0.032715335, 
   0.100602701, -0.088764034,  0.091299608, -0.155122891,  0.077190593, 
  -0.147435859,  0.170572132, -0.132307455,  0.056479488, -0.079786927, 
   0.016984144, -0.041309331,  0.062235322,  0.173603773,  0.094293915, 
   0.131465837,  0.050985277,  0.157023311, -0.025166795,  0.211946130, 
   0.009493203,  0.226591691,  0.006609317,  0.071245469,  0.116784126, 
   0.037654284,  0.063808545, -0.031879362,  0.058994684, -0.074139029, 
   0.167341605, -0.104475349,  0.057588134, -0.046796281,  0.085684150, 
  -0.071261704,  0.060505401, -0.092250615,  0.069960810, -0.032580741, 
   0.039587509, -0.035913579,  0.049331073, -0.039830554,  0.022521887, 
   0.071614087,  0.021021737,  0.068104535,  0.062645562,  0.021131352, 
   0.092112742, -0.036438737,  0.148565322, -0.022980371,  0.092544354, 
  -0.030809574,  0.071373470, -0.054860070,  0.050972212, -0.051927079, 
   0.057676625,  0.008119768,  0.027398083,  0.137363926,  0.040956911, 
   0.240598723, -0.085737891,  0.144218281,  0.007321734,  0.186294138, 
   0.002804152,  0.139834478, -0.019879295,  0.156699866,  0.006278456, 
   0.176328152,  0.143923894, -0.029251443,  0.080855876, -0.105665565, 
   0.169517919, -0.082386665,  0.140529737, -0.068294331,  0.121660046, 
  -0.069161862,  0.164197043, -0.117293008,  0.153888315, -0.040812958, 
   0.128831580, -0.007774819,  0.117471442,  0.017300103,  0.020259814, 
   0.040214233,  0.009282951,  0.035768915,  0.060648680,  0.058713347, 
   0.132899210,  0.048986420,  0.137545049, -0.020497607,  0.096346512, 
  -0.050587416,  0.094897509,  0.028722834,  0.041784480, -0.100902535, 
   0.115334228, -0.068331674,  0.006549964, -0.018588655, -0.001034904, 
   0.132318154,  0.047992103,  0.177267015, -0.018859601,  0.124886625, 
  -0.116638072,  0.174372032, -0.033901080,  0.108224623, -0.050240520, 
   0.116562121,  0.039127361,  0.122224495,  0.085157797,  0.027701188, 
   0.165863037, -0.130391866,  0.042727523, -0.087022379,  0.116381794, 
  -0.031217616,  0.028303673, -0.105779089,  0.024306361, -0.098380290, 
   0.072587267, -0.001468532,  0.060962874, -0.034304366,  0.023069391, 
  -0.072769530, -0.085667364,  0.051272493,  0.017790187,  0.033980068, 
   0.064004950,  0.052874435,  0.044703048,  0.082325868,  0.053660333, 
   0.087120645,  0.006306699,  0.077692769,  0.031536166, -0.032249011, 
   0.011071570, -0.009937836, -0.026962930,  0.051303770, -0.040219940, 
   0.004561102, -0.048801582,  0.082164183, -0.100328289,  0.085409775, 
  -0.073429130,  0.169560865, -0.100143999,  0.100216538, -0.127823412, 
   0.154540256, -0.045507573,  0.116430625, -0.067174233,  0.103903860, 
   0.085294276,  0.030242145,  0.112635501, -0.081939034,  0.155166283, 
  -0.103242822,  0.126400366, -0.095364094,  0.021728497,  0.006927613, 
   0.114889264, -0.098707967,  0.030243563,  0.002435275,  0.002696642, 
  -0.017142663, -0.041335486,  0.015050873, -0.066204809, -0.027363261, 
  -0.057249576,  0.004869747, -0.108014643,  0.010233290, -0.103212371, 
  -0.024662074, -0.102824762,  0.018995833, -0.097820714,  0.014656386, 
  -0.095095992,  0.029182814, -0.082827613,  0.029365558, -0.101537950, 
   0.063464403, -0.162750751,  0.057013255, -0.076555476,  0.047973774, 
  -0.097648725,  0.140043616, -0.121018350,  0.030126221, -0.089539804, 
   0.048909713, -0.121276669,  0.061920948, -0.023188625,  0.040375873, 
  -0.027539590, -0.000231176, -0.073481120,  0.003465152, -0.027005142, 
   0.026441881, -0.093419947,  0.010243482, -0.056940425, -0.029556895, 
   0.046066251,  0.031589821, -0.020079242,  0.047175478, -0.027546322, 
   0.002947493,  0.049235605, -0.050475132,  0.020037141,  0.036250487, 
  -0.022341931, -0.058007661, -0.056126438, -0.039720628, -0.142763957, 
  -0.050252471, -0.073378339, -0.017963899, -0.175349146, -0.047261354, 
  -0.141927615, -0.008444847, -0.218920052, -0.016007565, -0.205169350, 
  -0.022500949, -0.082481921, -0.001954956, -0.152441412, -0.031325407, 
  -0.135321438,  0.050540011, -0.107828885,  0.027023491, -0.040840793, 
   0.002445946, -0.028436203,  0.067747034, -0.042773310,  0.061815515, 
  -0.052732959, -0.056126270, -0.154301524,  0.031918094, -0.132117420, 
  -0.006823804, -0.145443246,  0.050871942, -0.186011493,  0.055804115, 
  -0.174467817, -0.026938571, -0.084816590,  0.043821909, -0.089455366, 
   0.043686904, -0.039399363,  0.032086376, -0.092330828,  0.040738042, 
   0.007883664, -0.068497032,  0.015437808,  0.001853175,  0.052028466, 
  -0.040448364,  0.038422033, -0.041261282, -0.013111893, -0.034252752, 
   0.001977447, -0.045841750,  0.018297436, -0.056032397, -0.047450468, 
   0.040441014, -0.101492591,  0.002163636, -0.110988647, -0.067964442, 
  -0.109896734, -0.036846925, -0.093744002,  0.016647648, -0.028655870, 
   0.018925907, -0.035206761, -0.012687536, -0.092240505,  0.039973691, 
  -0.051268317,  0.031136427, -0.129933864, -0.015112590, -0.104126126, 
  -0.021501023, -0.073877603, -0.025123777, -0.059794188, -0.090282224, 
  -0.056787062, -0.026693612, -0.044087276, -0.004584764, -0.094748884, 
  -0.020546034, -0.073099099, -0.067134209, -0.037065368,  0.031031284, 
  -0.066265158,  0.017053841, -0.024322163, -0.000510371, -0.024189062, 
   0.016636709, -0.052752905, -0.035766177, -0.066667639, -0.025171295, 
  -0.039920535, -0.044060983,  0.049414601, -0.023524942, -0.049488604, 
   0.032422040, -0.031542432, -0.083862238,  0.009611386,  0.025912864, 
   0.030837469,  0.018043168,  0.044430442, -0.061159175,  0.119396344, 
   0.054760195,  0.075259715, -0.007090814,  0.138846442,  0.032214470, 
   0.064091519,  0.021400895,  0.122812688,  0.062127396,  0.049689095, 
   0.015307724,  0.021914499,  0.002510026, -0.045475475, -0.030543961, 
   0.025696371, -0.033146113,  0.013990264,  0.038792476, -0.006866732, 
   0.026106192, -0.122818783, -0.052443054, -0.035783798, -0.046557099, 
  -0.006222570, -0.087315805, -0.062106326, -0.086687542,  0.028183218, 
  -0.048590012,  0.046276230, -0.085892327, -0.004610505, -0.015454639, 
  -0.028679375, -0.041994747,  0.086810865, -0.044654015,  0.108774111, 
  -0.104403287,  0.099333346, -0.066667244,  0.146332413, -0.128118992, 
   0.064751133, -0.026531927,  0.111030668, -0.075641245,  0.121581540, 
  -0.108003229,  0.051447067, -0.064449511,  0.045908004, -0.031064413, 
   0.103618473, -0.123807453,  0.131785631, -0.109344602,  0.064539842, 
   0.012124538,  0.095002502,  0.060057580,  0.100265250,  0.047599085, 
  -0.047656268, -0.036604457, -0.102929011,  0.060877245, -0.037407782, 
   0.037975442, -0.079619423, -0.038153011, -0.072790273, -0.051239036, 
  -0.102820963,  0.025260787, -0.170744091, -0.060896754, -0.144910559, 
  -0.061869595, -0.031433690, -0.066754706, -0.046353087, -0.012486348, 
  -0.004378624, -0.007258312,  0.020367002, -0.084304973,  0.106748864, 
  -0.123063378,  0.099183232, -0.037167069,  0.131725609, -0.109960310, 
   0.168437123, -0.164550066,  0.068498977, -0.094127528,  0.114474356, 
  -0.164845198,  0.099727936, -0.153413340,  0.091201164, -0.125312626, 
   0.060155049, -0.055795781,  0.132686928, -0.101661690,  0.046554111, 
  -0.122043118,  0.129946470, -0.037972659,  0.099334404, -0.005330408, 
   0.061901383, -0.044716790,  0.022953335, -0.023296293, -0.014151788, 
  -0.017230824, -0.057186928,  0.079209514, -0.153730229, -0.034635153, 
  -0.084685244,  0.045109157, -0.165070325,  0.019167129, -0.203701183, 
  -0.075653419, -0.139026761, -0.078090161, -0.047276404,  0.014516063, 
  -0.029900037, -0.077041693,  0.048181709, -0.030108225,  0.115691602, 
  -0.095321402,  0.129140183, -0.144846112,  0.153637111, -0.127628177, 
   0.099413328, -0.112584256,  0.100715101, -0.167318031,  0.133049592, 
  -0.093928911,  0.110236004, -0.096146710,  0.076091558, -0.034080256, 
   0.157213256, -0.027131964,  0.158960909, -0.045770485,  0.085302629, 
   0.019252537,  0.045182869, -0.023267644,  0.044281900,  0.019515902, 
   0.077979319,  0.008382253, -0.060983740,  0.024835037, -0.029197477, 
  -0.025850611, -0.029992074,  0.033902921, -0.027200146,  0.027762244, 
  -0.075496271,  0.021756668, -0.065426566,  0.060846925, -0.195415497, 
   0.012378367, -0.166004986, -0.043546285, -0.118426129, -0.002109805, 
  -0.140111387,  0.039967891, -0.025159830, -0.008574499,  0.043233991, 
  -0.081003845,  0.177009329, -0.082582667,  0.107368656, -0.150965840, 
   0.200987309, -0.059725028,  0.118521020, -0.120515868,  0.126226053, 
  -0.079191335,  0.165452555, -0.073599160,  0.055092555,  0.027171103, 
   0.121296905, -0.011614754,  0.100178689, -0.077257782,  0.025806304, 
   0.010490058,  0.020750880, -0.006871967,  0.086837865, -0.048207864, 
   0.059837405, -0.038800761,  0.027520413,  0.012078571, -0.006296260, 
   0.073000483, -0.040129095,  0.057470132, -0.057311334,  0.018650608, 
  -0.045014635, -0.025669638, -0.056696594,  0.014121951, -0.109346017, 
   0.030961681, -0.127643049,  0.044294350, -0.171638444,  0.033509515, 
  -0.093829624, -0.078836754, -0.109851323, -0.063358359,  0.030592393, 
   0.032264668,  0.100192316, -0.017221928,  0.056108069, -0.073155917, 
   0.146778494, -0.001596854,  0.093848571, -0.052916035,  0.156376109, 
   0.010670593,  0.072937585, -0.075309597,  0.107906282,  0.015902618, 
   0.027028983,  0.044394080,  0.126368076,  0.009872590,  0.075508207, 
   0.100317501,  0.080483280,  0.007962009,  0.092986017, -0.014047009, 
   0.060330313,  0.024039607,  0.053687517, -0.036171012,  0.137326330, 
  -0.038351092,  0.123876244, -0.053913843,  0.035845120,  0.012470551, 
  -0.011955090, -0.047819283, -0.064001255, -0.028352439, -0.112294257, 
   0.029363416, -0.130366459,  0.022359464, -0.089492477,  0.050208289, 
  -0.197316974,  0.038337469, -0.123370349, -0.021765111, -0.148454383, 
  -0.076894909, -0.029749315,  0.009853914,  0.051792935,  0.019933013, 
   0.071148172, -0.086932495,  0.152712077, -0.015304981,  0.133835509, 
   0.050712734,  0.048671685,  0.031407230,  0.100965694,  0.094113588, 
   0.053789690,  0.155712873,  0.087540686,  0.124745883,  0.089476697, 
   0.143585742,  0.046594851,  0.157148406,  0.065154359,  0.022147126, 
  -0.003787704, -0.087791927,  0.128752068, -0.166195184,  0.106930867, 
  -0.173851624,  0.154955745, -0.158291042,  0.079083368, -0.070506945, 
  -0.010658603, -0.103437014,  0.041647241,  0.000618712,  0.037790813, 
  -0.088158756,  0.019882740, -0.026370618, -0.117552437, -0.007187776, 
  -0.057397213,  0.086363479, -0.109583892, -0.024105405, -0.146198452, 
   0.016592208, -0.135037363, -0.021433778,  0.044433516,  0.034217440, 
   0.058048926,  0.036813088,  0.080668375, -0.048877481,  0.133435979, 
   0.005853788,  0.085359983,  0.038793005,  0.109021872,  0.076718211, 
   0.000093231,  0.209391087, -0.020606017,  0.152428150,  0.027197175, 
   0.262530416, -0.058760121,  0.200795785, -0.077202536,  0.139751822, 
  -0.045764711, -0.035268974,  0.050029356, -0.218562365,  0.040456161, 
  -0.220232159,  0.133294448, -0.188612074,  0.056273442, -0.167832077, 
   0.015451822, -0.196476713, -0.027022833, -0.165813357,  0.017456962, 
  -0.035515539,  0.043928824, -0.003007532,  0.027474560, -0.005854415, 
  -0.031595394,  0.072779521, -0.065228112,  0.041482419, -0.114544243, 
  -0.035714522, -0.075130761,  0.051570661, -0.090914570, -0.017911905, 
  -0.023553846,  0.021839043,  0.057116479,  0.039106414,  0.059700478, 
  -0.048601624,  0.090924218,  0.094247267,  0.019571094,  0.115510337, 
   0.055065155,  0.154957294,  0.000438882,  0.135844409, -0.031541236, 
   0.221065044, -0.154103726,  0.240584657, -0.107835777,  0.100935437, 
  -0.101867862,  0.000942925, -0.143178076, -0.239233986, -0.002268944, 
  -0.273690641,  0.046416327, -0.280130982, -0.023862042, -0.281658888, 
  -0.013594915, -0.226521760, -0.021189798, -0.214680433,  0.037930638, 
  -0.109108202,  0.048535734, -0.087988786,  0.114641041, -0.012342749, 
  -0.003613036, -0.003116304, -0.043188371,  0.042397972, -0.065140799, 
  -0.031914610, -0.095222883, -0.032694742, -0.192168504, -0.066101238, 
  -0.150865495, -0.092802949, -0.016753981,  0.015255334,  0.065219782, 
  -0.047455702,  0.086267918,  0.057365745,  0.080257066,  0.036946483, 
   0.006949583,  0.064214513, -0.149235025,  0.136952147, -0.160164639, 
   0.176519781, -0.197760135,  0.161284938, -0.214315817,  0.060936052, 
  -0.193503201, -0.055737939, -0.174670815, -0.113889471, -0.201579958, 
  -0.179713696, -0.088476442, -0.294331431,  0.067344114, -0.240992039, 
   0.051556960, -0.223301068,  0.127803206, -0.272610903,  0.139587581, 
  -0.125014737,  0.071084760, -0.145548478,  0.147037402, -0.030236723, 
   0.103683405,  0.074064724,  0.016887192, -0.012915727, -0.076675691, 
  -0.020056387, -0.055211455, -0.005913616, -0.108783223,  0.014269850, 
  -0.063225940, -0.004226251, -0.069109701, -0.048232231, -0.034104213, 
  -0.080967858,  0.004288881, -0.057616074,  0.052855507, -0.031508416, 
  -0.008847696,  0.041160725, -0.125882432,  0.118860945, -0.222690299, 
   0.012188394, -0.188550100,  0.063029073, -0.181601644, -0.031732645, 
  -0.149974853, -0.143760681, -0.146090388, -0.119338877, -0.221521780, 
  -0.224035382, -0.050831359, -0.232087120,  0.058479283, -0.211799666, 
   0.114827409, -0.189572394,  0.047600225, -0.185576484,  0.078172013, 
  -0.109580569,  0.072139405, -0.087422095,  0.078426570,  0.048236944, 
   0.078283131,  0.132342279, -0.050537072,  0.051891267, -0.044859227, 
   0.051765312, -0.107682295, -0.002008290, -0.051063765,  0.063732311, 
  -0.059719525,  0.038208306, -0.110980660,  0.043748148, -0.082599021, 
   0.028551703, -0.101675048, -0.042047650,  0.016341984, -0.065638185, 
   0.014099358, -0.068743534, -0.108428590,  0.055329006, -0.089209087, 
   0.032628097, -0.178438365,  0.046440113, -0.149339601,  0.044735085, 
  -0.213629782,  0.029439624, -0.106171571, -0.062634289, -0.193102613, 
  -0.171809584, -0.019848946, -0.144460663,  0.030520655, -0.216117248, 
   0.131846562, -0.217498139,  0.170767888, -0.170264766,  0.091122933, 
  -0.092250407,  0.086825117, -0.006115942,  0.095316507,  0.025173547, 
   0.003652306,  0.137832195, -0.014127995,  0.078621008, -0.035484873, 
   0.132961810, -0.043120928,  0.109656192, -0.116472974,  0.018708769, 
  -0.139981806,  0.030320575, -0.183516636, -0.029174402, -0.122338496, 
   0.014061649, -0.108996391, -0.052943043,  0.025702141,  0.006526720, 
  -0.049957365,  0.002721312,  0.029783487, -0.057817984, -0.132145137, 
  -0.000417551, -0.130843684, -0.009844883, -0.104426309,  0.116704285, 
  -0.120944329,  0.038191553, -0.127373740,  0.068167374, -0.127384380, 
  -0.006134963,  0.041678529, -0.039025880,  0.095981471, -0.088007987, 
   0.149943799, -0.054539382,  0.157625034, -0.071115188,  0.108012050, 
  -0.065973215,  0.125593305,  0.062604398,  0.122725882,  0.042302355, 
   0.011918003,  0.096822746,  0.042960752, -0.020644952, -0.060950998, 
   0.062546290, -0.094955325,  0.088019840, -0.112497412,  0.053333193, 
  -0.102729134,  0.130652979, -0.132927433, -0.006060133, -0.178699300, 
   0.014178881, -0.051429790, -0.062520735, -0.043528777, -0.051794693, 
  -0.026051365, -0.053605601,  0.035099216, -0.037758391,  0.084702991, 
  -0.061520901, -0.009064535, -0.020213777, -0.024871813,  0.026135879, 
  -0.156950906,  0.135844633, -0.121504761,  0.165473849, -0.069657080, 
   0.143131673, -0.052996833,  0.097031251, -0.009478008,  0.219285131, 
  -0.003019434,  0.121845007,  0.051450290,  0.225757539,  0.106966570, 
   0.143035263,  0.081713535,  0.190880209,  0.017719276,  0.128047407, 
   0.032793012,  0.059425544,  0.104047716, -0.010769195,  0.093080506, 
  -0.086878695, -0.039738409, -0.048286736, -0.044160116,  0.059801400, 
   0.010858491,  0.082163863, -0.041476022,  0.073020376, -0.041328754, 
   0.039499581, -0.077800430,  0.017749226, -0.081962653, -0.087991029, 
  -0.045864586, -0.012601800, -0.006731200, -0.083447486,  0.166311994, 
  -0.111253113,  0.045462646, -0.051774014,  0.081965797,  0.031977929, 
  -0.011947115,  0.004595006, -0.080204912,  0.056572214, -0.138723403, 
   0.140121862, -0.051190127,  0.145724609, -0.084103718,  0.154600456, 
  -0.062395982,  0.176226109,  0.018323241,  0.155157834,  0.053621002, 
   0.241398916,  0.008839858,  0.214625552, -0.070012689,  0.156774923, 
  -0.020490317,  0.123351216, -0.023665244,  0.057387169,  0.098641768, 
   0.065750569,  0.059068900, -0.110401787, -0.018512551, -0.077667326, 
   0.072906330, -0.133591160,  0.062270969, -0.050838657,  0.011965645, 
   0.001391877, -0.111001506,  0.056764107, -0.059898507,  0.021802861, 
  -0.098204754, -0.002010816, -0.137732670, -0.010341627,  0.111625217, 
  -0.126131728,  0.170873597, -0.045348376,  0.150175333, -0.041294694, 
   0.059239343, -0.049803406, -0.021023756, -0.049564067,  0.028294157, 
   0.123849176, -0.035209216,  0.128100261, -0.142736718,  0.209221333, 
  -0.164128721,  0.162201196, -0.124729522,  0.275480002, -0.188932359, 
   0.155084401, -0.077134572,  0.173638284, -0.061852783,  0.235077426, 
  -0.062473677,  0.153160840, -0.105250023,  0.199277401, -0.010044632, 
   0.039537419,  0.117351763, -0.103570804,  0.049065612, -0.047092520, 
   0.119805969, -0.063791968,  0.003873292, -0.048428886,  0.055618227, 
  -0.082631409, -0.004074519,  0.031337485, -0.036805287,  0.031686373, 
  -0.065973125, -0.026619336, -0.099726774,  0.035545979, -0.127586111, 
  -0.101117834,  0.020678816, -0.026718063,  0.221688345, -0.163156301, 
   0.152058348, -0.100861877,  0.168512672, -0.121431038,  0.013211971, 
  -0.086608700,  0.014178869, -0.001168360, -0.067894056,  0.098102190, 
  -0.068748221,  0.172605813, -0.164291531,  0.196392909, -0.210280716, 
   0.171672389, -0.178909361,  0.217437908, -0.206980973,  0.189572439, 
  -0.110823832,  0.149710298, -0.158140302,  0.066430651, -0.147844940, 
   0.043311305, -0.031507805, -0.061182268,  0.116543360, -0.053154688, 
   0.044055186, -0.137991190,  0.110140987, -0.114629075,  0.034272999, 
  -0.189192086,  0.044134915, -0.144374400,  0.023714658, -0.018333115, 
  -0.082639143, -0.007836353, -0.001899232,  0.045106567, -0.119836114, 
  -0.002690465, -0.108602501,  0.019841412,  0.104159340, -0.003048273, 
   0.107468754, -0.138388067,  0.136934638, -0.176371247,  0.096544705, 
  -0.078619473,  0.100441530, -0.146297708,  0.089193128, -0.115821250, 
  -0.069414556,  0.025255034, -0.147248909,  0.150570214, -0.196321070, 
   0.253077477, -0.223999619,  0.179676577, -0.153407514,  0.181387931, 
  -0.177973405,  0.159273788, -0.122325569,  0.109598823, -0.148633301, 
   0.098052546, -0.117886275, -0.052956205,  0.017514097, -0.170412824, 
   0.049463432, -0.172846988,  0.054114074, -0.165588066,  0.109720409, 
  -0.176921859,  0.055478822, -0.144898325,  0.041756254, -0.105809651, 
   0.047340076, -0.114930622,  0.013261669,  0.005056424, -0.063277796, 
   0.010870944, -0.159331664, -0.061733380, -0.097865909, -0.040113196, 
   0.087817654, -0.049045656,  0.110399231, -0.079363868,  0.156752720, 
  -0.198747426,  0.101143293, -0.203208193,  0.146671355, -0.194089964, 
   0.172545478, -0.163512439,  0.082128964, -0.094303422, -0.082068630, 
  -0.053348817, -0.159058750,  0.111810371, -0.132096112,  0.171455637, 
  -0.128075048,  0.052763715, -0.206180274,  0.090073355, -0.101165719, 
   0.062155202, -0.112592995, -0.120709598, -0.041473459, -0.109366521, 
   0.016333897, -0.225862861,  0.068271697, -0.198097184,  0.068905205, 
  -0.163749501,  0.096796125, -0.145961061,  0.078890435, -0.093022831, 
   0.037157100, -0.070482291, -0.028079269, -0.091645323,  0.023152037, 
   0.052088648, -0.082965799, -0.025106844, -0.180901825,  0.005663741, 
  -0.095339008,  0.002159223,  0.048393048, -0.033268102,  0.161647439, 
  -0.058747496,  0.103197977, -0.145343870,  0.118204534, -0.201696053, 
   0.204931587, -0.084320664,  0.094766304, -0.089284323,  0.043346029, 
  -0.131952748,  0.076863877, -0.055943973, -0.065304160, -0.100928009, 
  -0.042146634, -0.062236473, -0.106226504, -0.080074452, -0.057253491, 
  -0.019211860, -0.109933823, -0.094101526, -0.002716321, -0.155729830, 
   0.018451033, -0.172705039,  0.024342148, -0.192926392,  0.026721831, 
  -0.205362275,  0.043585598, -0.174470410,  0.034741152, -0.139674589, 
   0.047063656, -0.024371242,  0.027118260,  0.007325454, -0.032061238, 
   0.053607341, -0.012126992, -0.006614838, -0.089857288,  0.020193001, 
  -0.105087489,  0.011839662, -0.125683308, -0.030854013,  0.028938243, 
   0.009516951,  0.122971803,  0.016871147,  0.127172485, -0.100963205, 
   0.217527896, -0.098627955,  0.187600523, -0.165946186,  0.133668274, 
  -0.143431142,  0.125712961, -0.126704723,  0.087318420, -0.177745894, 
   0.025458105, -0.123538658, -0.089084558, -0.066693470, -0.110071667, 
  -0.043302163, -0.016632175, -0.135337859, -0.029392570, -0.154469311, 
  -0.076522924, -0.201232597, -0.039368451, -0.145239294,  0.032119900, 
  -0.103064463,  0.025294295, -0.056900084,  0.108856954, -0.008112366, 
   0.037792344, -0.037569478, -0.009481101,  0.008896525,  0.035211865, 
  -0.067502901, -0.021267828,  0.013986149, -0.142016917,  0.047483444, 
  -0.109619394, -0.052776884, -0.105168253, -0.050499666, -0.125917077, 
   0.037460551,  0.067985728, -0.049220324,  0.108067222, -0.031934556, 
   0.177266181,  0.008269710,  0.108323880, -0.006644624,  0.106588855, 
  -0.144576311,  0.170979068, -0.105256699,  0.186335370, -0.185483947, 
   0.088086255, -0.100874558,  0.120140187, -0.173229784,  0.141067743, 
  -0.110250503,  0.075839438, -0.090297677,  0.078740731, -0.117475964, 
   0.019591291, -0.067143515,  0.106700227, -0.051187381,  0.026497547, 
  -0.062820114,  0.065865383, -0.047578543,  0.038342118, -0.031399626, 
   0.042153914, -0.082418740,  0.022700928, -0.071390845,  0.000900772, 
   0.050506078,  0.008366830,  0.053054813, -0.034679677, -0.045812968, 
  -0.094161712, -0.039988041, -0.096458606,  0.042635631, -0.117395632, 
  -0.077671297, -0.137150779, -0.048084397, -0.011178849,  0.056065831, 
   0.132369027,  0.018399538,  0.098570302,  0.058822352,  0.111868784, 
  -0.046112772,  0.160874546, -0.082964301,  0.053015172, -0.068604477, 
   0.159274697, -0.045103274,  0.041866854, -0.088217981,  0.113689378, 
  -0.091437630,  0.025491821, -0.169998676,  0.077584535, -0.110883370, 
   0.069536239, -0.134200677,  0.014607719, -0.065260284,  0.039146479, 
  -0.021945622,  0.059854519, -0.029920258, -0.057455190,  0.046200428, 
   0.010110837,  0.003505945, -0.062419899,  0.031981368, -0.030682044, 
  -0.004685762,  0.011775216, -0.021384310, -0.080789529,  0.058147732, 
  -0.065167919,  0.045727536, -0.088385656, -0.070815288, -0.137229621, 
   0.003833143, -0.083245128, -0.047687624,  0.006083246,  0.020276709, 
   0.038978793, -0.005232880,  0.135915861, -0.040032387,  0.067774996, 
  -0.049633857,  0.069407158,  0.061530169,  0.140568629, -0.044862065, 
   0.136167854, -0.000757345,  0.170874953, -0.076960638,  0.088434875, 
  -0.029470826,  0.031679261, -0.063252598,  0.090571329, -0.140928850, 
   0.118751198, -0.106413648,  0.098290034, -0.044177409,  0.076374598, 
  -0.024124334, -0.032701172, -0.020769225,  0.020356884,  0.001780579, 
  -0.027478479, -0.016360404,  0.026494289,  0.019531325,  0.009245288, 
  -0.062368609, -0.048064567, -0.025925940, -0.096200712,  0.026097029, 
  -0.087741964, -0.060525797, -0.049894553, -0.016378708, -0.126541674, 
  -0.079995908, -0.100533761, -0.072226860, -0.040802971, -0.052790295, 
   0.010067166, -0.063264377,  0.050846644, -0.067119643, -0.023663439, 
  -0.036473576, -0.012155595,  0.030616054,  0.041644994, -0.073747635, 
   0.005044850,  0.001109996,  0.059541881, -0.008458436,  0.072804943, 
  -0.058431800,  0.018077161,  0.036029756,  0.089766048, -0.084729716, 
   0.088170066,  0.033888873,  0.027271958,  0.007908209, -0.003952300, 
  -0.093172252,  0.011535940, -0.099963397,  0.046551745, -0.003308155, 
  -0.034387577, -0.047066674, -0.002187976,  0.036635794, -0.039979018, 
   0.027517598, -0.038284626, -0.072563604, -0.052556701, -0.004533743, 
  -0.009235506,  0.040803149, -0.134400129, -0.037152249, -0.016077908, 
   0.046875965, -0.115958788, -0.045081176, -0.021354880, -0.048247024, 
  -0.074524932, -0.006652233, -0.013178301,  0.001937345, -0.055437222, 
  -0.050441571, -0.007829050,  0.072782964,  0.060183544, -0.049222879, 
  -0.039384965, -0.007334870,  0.031724732,  0.040907461, -0.006950975, 
  -0.040724613, -0.134791523,  0.044204075, -0.161860064,  0.079517633, 
  -0.132138669,  0.005444743, -0.228366569, -0.011458255, -0.179644585, 
  -0.024962204, -0.147611156, -0.008858119, -0.215780661, -0.044946592, 
  -0.100450382, -0.037070625, -0.194973245,  0.028524492, -0.105680913, 
   0.050954647, -0.192880183,  0.051269893, -0.134576917, -0.061192870, 
  -0.108443893,  0.029764567, -0.190663844, -0.011414208, -0.142889798, 
   0.038333707, -0.107978910, -0.034906283, -0.135737687,  0.003789645, 
  -0.024555640,  0.034861229, -0.011953392,  0.030109558,  0.049510941, 
   0.005642973, -0.001847608, -0.005588063, -0.009024600, -0.040400196, 
   0.048474878, -0.036439158,  0.000084355,  0.028981397, -0.089247681, 
   0.051420454, -0.163182288, -0.025496978, -0.197793424,  0.029858829, 
  -0.179079667,  0.038497809, -0.167025670,  0.066747956, -0.213997856, 
   0.080154710, -0.208721444,  0.021286992, -0.139599457,  0.003847403, 
  -0.199217275,  0.095897831, -0.179052323,  0.039369520, -0.160375282, 
   0.090807952, -0.173535213, -0.010041236, -0.191315085,  0.080541484, 
  -0.094601206,  0.003992295, -0.212520584,  0.033912450, -0.175830022, 
   0.056182697, -0.143444359,  0.045834776, -0.110046647, -0.018568464, 
  -0.106536016,  0.058925841,  0.021442650, -0.044754051, -0.078888886, 
   0.055745237,  0.025647487, -0.022546737, -0.040981136,  0.004051150, 
   0.018813547, -0.011388270, -0.063034326,  0.050775710,  0.001830886, 
  -0.049232934, -0.090757973,  0.047628224, -0.066559464,  0.083661616, 
  -0.063828394,  0.037041027, -0.096892282,  0.034944959, -0.105666146, 
   0.016209323, -0.181899294,  0.076899901, -0.104012154,  0.140049070, 
  -0.134493485,  0.058492970, -0.167446315,  0.102965713, -0.161694139, 
   0.060947329, -0.156165138,  0.062076394, -0.144332528,  0.116928525, 
  -0.111609489,  0.095994666, -0.088884860,  0.024960879, -0.073594786, 
  -0.008256082, -0.041953634, -0.032440141,  0.001139693,  0.043103911, 
   0.034755614,  0.012061767, -0.030533098,  0.046933781, -0.001404064, 
  -0.012617249,  0.017630244, -0.032329962, -0.047686547, -0.008758549, 
  -0.048477359,  0.054359786, -0.063121282, -0.035629906, -0.024611190, 
   0.009289538,  0.088261545,  0.046190076,  0.098237507,  0.066137671, 
   0.008546195,  0.063258410,  0.004372937,  0.031015974, -0.008028731, 
   0.026655640, -0.012775333,  0.142880708, -0.108963318,  0.160605371, 
  -0.080068059,  0.091275893, -0.077207685,  0.170990422, -0.124456562, 
   0.094642058, -0.123990312,  0.124074258, -0.116750255,  0.091078460, 
  -0.125935480,  0.060791403, -0.093668886,  0.132260039, -0.048255946, 
   0.111464739,  0.073945642,  0.057021569,  0.049752112,  0.007894316, 
   0.042197496,  0.055959653,  0.130094051,  0.035590637,  0.121688865, 
   0.073077917,  0.092001431,  0.003550841,  0.037354060, -0.000031675, 
  -0.054426141, -0.009744311,  0.020290231, -0.030601023,  0.012283848, 
  -0.044365887, -0.005498528,  0.003535530,  0.046450123, -0.015993685, 
  -0.036169928,  0.008766852, -0.047633938, -0.009823620, -0.045515906, 
   0.009667123, -0.117282361, -0.029563200, -0.118554585,  0.056059912, 
  -0.115204170,  0.088158250, -0.187228978,  0.184478104, -0.117059700, 
   0.086710297, -0.097949289,  0.055857770, -0.127193898,  0.016053598, 
  -0.118797697,  0.060646527, -0.164975449,  0.015235666, -0.076642856, 
  -0.101927169, -0.117272377, -0.093671620, -0.105981603, -0.157442614, 
   0.000735527, -0.093454868,  0.072114684, -0.019263919,  0.061366778, 
  -0.093967162,  0.036681399,  0.006584474,  0.073893651,  0.030784065, 
  -0.033916026,  0.033757474,  0.002558785,  0.005688524, -0.066072784, 
   0.005787564, -0.062366940, -0.000426157, -0.048094634,  0.006902678, 
   0.000224101, -0.052059330, -0.030267360,  0.025427422,  0.011567641, 
   0.046982944,  0.011836668,  0.051354282, -0.110069945, -0.046488538, 
  -0.045905754,  0.033100370, -0.066510171,  0.086663388, -0.082250275, 
   0.166162565, -0.144443274,  0.170822471, -0.098205797,  0.055562668, 
  -0.082790792,  0.038314432, -0.143657014,  0.043397184, -0.179748103, 
  -0.089272149, -0.114946887, -0.172773600, -0.012511342, -0.249673098, 
   0.027116129, -0.191499799,  0.041003317, -0.188761592,  0.055574231, 
  -0.106630355,  0.046555709, -0.157448262,  0.068012185, -0.041565895, 
   0.106116429, -0.007695022,  0.051859107, -0.021068152, -0.058573473, 
   0.019339308, -0.095602430, -0.019221460, -0.098936923,  0.065644771, 
   0.027961938,  0.009194431,  0.034209184,  0.053361990,  0.045170821, 
   0.043832663, -0.002669144,  0.038059063, -0.036184765, -0.005945207, 
   0.002696506, -0.017533047, -0.057559606, -0.020518126, -0.107415468, 
   0.018031215, -0.135046959,  0.132898688, -0.135605842,  0.153991222, 
  -0.160453305,  0.099433564, -0.202368513,  0.139369175, -0.208027333, 
   0.016700679, -0.095223144, -0.150436610, -0.057112876, -0.218013763, 
  -0.073302403, -0.177880377, -0.051047321, -0.242055342, -0.014879154, 
  -0.171586275,  0.054586224, -0.097042941,  0.011953961, -0.145924211, 
   0.115096852, -0.008339350,  0.008940385,  0.020265516, -0.006005009, 
  -0.017867742,  0.025510328, -0.038230732, -0.036853444, -0.003811054, 
  -0.038987886, -0.022918301, -0.009772710, -0.016074469, -0.073167548, 
   0.044476680, -0.025913684, -0.022437455, -0.000182251, -0.065523110, 
  -0.065460026, -0.019188732, -0.060401753, -0.123138517, -0.045202360, 
  -0.099351496, -0.072691686,  0.004096811, -0.130258963,  0.150728345, 
  -0.108329959,  0.095896952, -0.182220310,  0.141095132, -0.214229956, 
   0.053998560, -0.134812891,  0.070399582, -0.211963430, -0.107799418, 
  -0.154585227, -0.261133432, -0.048460830, -0.269151092, -0.092232063, 
  -0.205357388, -0.073410012, -0.172087505, -0.011604959, -0.028565666, 
   0.000783805, -0.085189566,  0.067767255, -0.011926299,  0.064819179, 
   0.011893790, -0.038297199, -0.017174380, -0.027348138,  0.062062163, 
  -0.148228288,  0.034642141, -0.080670983, -0.038973626, -0.065502256, 
  -0.059233285, -0.053712718,  0.029853383, -0.006298416, -0.024606217, 
  -0.004940409, -0.087167814, -0.044756718, -0.151170090, -0.012983849, 
  -0.156854212, -0.042119596, -0.172627583, -0.119493127, -0.164649755, 
  -0.047280699,  0.074065030, -0.099500924,  0.088019095, -0.201210737, 
   0.155201405, -0.162275881,  0.060090497, -0.200737774, -0.073117614, 
  -0.080698289, -0.181915641, -0.111828491, -0.304942727, -0.109019108, 
  -0.179642543, -0.011554635, -0.235111490, -0.117555343, -0.130018592, 
  -0.029084248, -0.073285460, -0.042670134, -0.011397123, -0.017928775, 
   0.037400454,  0.002761596,  0.072939277, -0.097179182,  0.079382159, 
  -0.152879298,  0.072074018, -0.145090759, -0.011223193, -0.160983890, 
   0.001899809, -0.077724524,  0.006044698, -0.082060352,  0.042778596, 
  -0.127985239, -0.067339212, -0.127975017, -0.114736564, -0.062389057, 
  -0.096917801, -0.101984337, -0.217454687, -0.051664155, -0.248986319, 
  -0.005637280, -0.123485908,  0.014121927, -0.034233693, -0.061028738, 
   0.165952340, -0.213794783,  0.107180960, -0.213834539,  0.071990624, 
  -0.210808903, -0.162167877, -0.063913718, -0.246358544, -0.076605186, 
  -0.224469006, -0.066111237, -0.179239064, -0.061719071, -0.165135473, 
  -0.106736012, -0.057260379, -0.047012486,  0.070956632, -0.122701891, 
   0.044087473, -0.072546273, -0.008497056, -0.156708121,  0.023734340, 
  -0.187461287,  0.007778916, -0.214005649, -0.045933448, -0.084632844, 
  -0.024057943, -0.070542455, -0.010945107, -0.118518896,  0.049134716, 
  -0.122300230,  0.015866589, -0.148276359, -0.043867711, -0.081413925, 
  -0.153057545, -0.050250754, -0.191775665, -0.028030632, -0.136112303, 
   0.102404095, -0.244250208,  0.035847057, -0.171252787,  0.057167143, 
  -0.028570959, -0.063921146,  0.098551668, -0.081451550,  0.164563268, 
  -0.099015154,  0.085919090, -0.163838550, -0.160523459,  0.000103765, 
  -0.201241270,  0.015055172, -0.171196759,  0.018300787, -0.228584349, 
   0.036998168, -0.147001252, -0.085115544, -0.012573536, -0.034313604, 
   0.127431810, -0.045148525,  0.015880575, -0.067780979,  0.036790542, 
  -0.128141627,  0.058714006, -0.184787214,  0.001335407, -0.157501385, 
   0.069271602, -0.045713976,  0.009205366, -0.145114288,  0.039390337, 
  -0.001117348, -0.045701873, -0.052296445, -0.108913951, -0.068585485, 
  -0.166639835,  0.009358024, -0.211095676,  0.080394000, -0.245188177, 
   0.018475128, -0.161634833,  0.099709667, -0.213220596,  0.164828241, 
  -0.168558881,  0.149066150, -0.145920694,  0.008101820,  0.116126075, 
  -0.071595244,  0.075452246, -0.108198673, -0.103182696, -0.091568798, 
  -0.240655199,  0.118758813, -0.217648625,  0.045358751, -0.162868842, 
   0.080033891, -0.171270132,  0.005828544, -0.065271221,  0.014285234, 
   0.046360474, -0.079822756,  0.143886507, -0.081018150,  0.103664830, 
  -0.091660276,  0.082282998, -0.138280213,  0.037711013, -0.115822777, 
  -0.001239605, -0.146938026, -0.057188537, -0.028350599, -0.040904924, 
  -0.022860484, -0.078444161, -0.019130215,  0.011450409, -0.043334484, 
  -0.085904293,  0.024105992, -0.065310076,  0.117480308, -0.217153206, 
   0.165972084, -0.243531376,  0.168216452, -0.209930480,  0.107777558, 
  -0.193418548,  0.117328055, -0.191271946,  0.245152354, -0.118049972, 
   0.096730746,  0.086161800,  0.004508446,  0.065471880, -0.129040003, 
  -0.114679553,  0.069590002, -0.234063372,  0.078233108, -0.229548246, 
   0.109356374, -0.279145002,  0.016243750, -0.118694276,  0.018893769, 
  -0.038732886,  0.029910440,  0.016087027, -0.083612472,  0.084329784, 
  -0.079297960,  0.114583932, -0.082852542,  0.006120714, -0.067350484, 
  -0.005893375, -0.139638305,  0.031268645, -0.033771392,  0.032141943, 
  -0.130264804, -0.025905037, -0.014639656,  0.030929010,  0.003539030, 
  -0.081741519, -0.033591092, -0.055512942,  0.067880079, -0.126677841, 
   0.084187686, -0.137173131,  0.130682796, -0.137169629,  0.121937513, 
  -0.144162774,  0.132773101, -0.197500378,  0.139397651, -0.269138008, 
   0.174804702, -0.204210505,  0.070691600, -0.068049140, -0.036560047, 
  -0.119443394, -0.047061503, -0.156105846,  0.096034490, -0.283962041, 
   0.075914994, -0.267668009,  0.067767739, -0.173958659,  0.066465147, 
  -0.178942397,  0.048476309, -0.178898484, -0.027646717, -0.030264582, 
  -0.001922494, -0.054758932, -0.058288500,  0.004045289, -0.094759680, 
   0.022554928, -0.025732512,  0.066639960, -0.112750247,  0.021035310, 
  -0.058406308,  0.010897557, -0.088499799, -0.004055816, -0.056458402, 
   0.047467217,  0.075823739, -0.012624886, -0.007877288, -0.063449703, 
   0.129044786, -0.060752742,  0.119923413, -0.142588317,  0.152661338, 
  -0.178603023,  0.120653324, -0.223495260,  0.202330455, -0.206321970, 
   0.175335422, -0.209477380,  0.084725372, -0.185846880,  0.133000597, 
  -0.116571538,  0.024130590, -0.160728127,  0.069541380, -0.203744575, 
   0.044054687, -0.237717837,  0.073476180, -0.278272271,  0.095438398, 
  -0.238323689,  0.101734355, -0.178407714,  0.151851878, -0.115492992, 
   0.149880782, -0.121508509,  0.004722000,  0.010706371,  0.052822404, 
  -0.027378118,  0.024476668, -0.038188323, -0.029691938, -0.012748289, 
   0.010281445, -0.013520340, -0.039558105,  0.007077604,  0.009339100, 
   0.049519055, -0.006116054,  0.101385772,  0.059825156,  0.094340801, 
  -0.008689469,  0.047856320,  0.140563160, -0.065806121,  0.099053554, 
  -0.036975268,  0.109456353, -0.171778455,  0.152096659, -0.106253117, 
   0.117093563, -0.110386521,  0.149869382, -0.216346845,  0.110909820, 
  -0.099425174,  0.171591192, -0.213632643,  0.109305523, -0.155872688, 
   0.089352757, -0.245554566,  0.121223554, -0.295438707,  0.073499426, 
  -0.227412984,  0.113133043, -0.199787185,  0.116810381, -0.167949319, 
   0.175357014, -0.085223913,  0.050671019, -0.062545031,  0.015415964, 
   0.056878563,  0.016351921, -0.044727866,  0.034878168,  0.059436172, 
   0.008021988,  0.066379488, -0.016428586,  0.057263538, -0.075434901, 
   0.031592809,  0.023457885,  0.042547002,  0.043026038,  0.090724364, 
  -0.036418766,  0.077866673,  0.095707878,  0.094118528,  0.102100104, 
   0.077209011,  0.026651893,  0.047073662,  0.113708958, -0.026335452, 
   0.028112693,  0.023511359,  0.053238243,  0.003650262,  0.118140347, 
  -0.124516018,  0.081789561, -0.091942534,  0.034515511, -0.133140191, 
   0.096045680, -0.165926993,  0.140991658, -0.228420869,  0.188667804, 
  -0.281111866,  0.161561340, -0.201447636,  0.087800436, -0.237838328, 
   0.100575686, -0.164163470,  0.116365567, -0.018038223,  0.085941300, 
   0.028615082,  0.000032190, -0.024870621, -0.003040925, -0.021924937, 
  -0.051762406,  0.057851903, -0.118634306,  0.072174311, -0.017517207, 
   0.006359517, -0.066292614,  0.036528938, -0.019852616, -0.000435385, 
  -0.070287362,  0.119183086, -0.036910657,  0.135557666,  0.029284988, 
   0.112950310, -0.022972135,  0.146294758,  0.047613069,  0.147878036, 
   0.043317195,  0.084749140,  0.001531594,  0.118083954,  0.088418052, 
   0.071142122, -0.029042585,  0.126907200,  0.094653346,  0.000717196, 
   0.005868558, -0.117594793,  0.138209268, -0.195048556,  0.090294145, 
  -0.164856851,  0.163912982, -0.255385011,  0.172432527, -0.098209180, 
   0.078963250, -0.075539641,  0.002102601,  0.017451273,  0.086735979, 
   0.103541672, -0.054960757,  0.094892941, -0.042375155,  0.087124392, 
  -0.107486077,  0.081312232, -0.111306474,  0.020387523, -0.071467824, 
   0.086621761, -0.151991546,  0.016006764, -0.074511729,  0.011564554, 
   0.011356383,  0.005109867, -0.143186644, -0.013830340, -0.089542471, 
   0.088949323, -0.042460911,  0.127737075, -0.068758838,  0.117026553, 
  -0.086759865,  0.092136987, -0.046677124,  0.188905075, -0.039825223, 
   0.199927181, -0.066649422,  0.167819142, -0.091058381,  0.081354357, 
  -0.083959006,  0.101087295, -0.034418434,  0.016931443,  0.080842331, 
  -0.000805427,  0.087086894, -0.166059762,  0.131467745, -0.127201870, 
   0.112788096,  0.030797731,  0.040049355,  0.082041673, -0.059944417, 
   0.074913837, -0.105506085,  0.162123874, -0.078882061,  0.149807930, 
  -0.071859315,  0.028025566, -0.126412407,  0.120431453, -0.192274839, 
   0.050773356, -0.091382205,  0.007136528, -0.139032334,  0.070551373, 
  -0.112156950,  0.047640674, -0.044350207,  0.068542577, -0.053326409, 
   0.065460563, -0.180992395,  0.070056029, -0.137982279,  0.015400939, 
  -0.190241382,  0.099161334, -0.138715684,  0.097637266, -0.120940827, 
   0.122457743, -0.176766008,  0.179356337, -0.119819000,  0.203684509, 
  -0.161986187,  0.129168227, -0.179392457,  0.128207803, -0.115684390, 
   0.136180907, -0.032362644,  0.021120010,  0.061339363,  0.011164444, 
   0.024447333, -0.000897804,  0.038552925,  0.118551545, -0.056351364, 
   0.088736787, -0.125085518,  0.191809386, -0.068887249,  0.155624509, 
  -0.100322112,  0.124195069, -0.101263285,  0.047929797, -0.172002360, 
   0.131561726, -0.173267812,  0.009104836, -0.152199700,  0.065388061, 
  -0.094018467,  0.072857395, -0.130070999, -0.005379973, -0.008223512, 
   0.002911328, -0.137772292, -0.043438688, -0.153955489, -0.014302407, 
  -0.152660593,  0.091486238, -0.237173751,  0.123025686, -0.178782895, 
   0.063070402, -0.181701288,  0.168778822, -0.135814801,  0.092116304, 
  -0.200271010,  0.130684838, -0.193516016,  0.053050190, -0.116428912, 
   0.121378921, -0.075103231,  0.064864114, -0.132712767,  0.044942852, 
  -0.048242837,  0.028372172, -0.098508939,  0.065803759, -0.013915744, 
   0.134919018, -0.083590955,  0.055242550, -0.068605825,  0.051729087, 
  -0.096340969,  0.035273019, -0.098766007,  0.020453766, -0.100544415, 
   0.099945910, -0.148759931,  0.056410007, -0.088823922,  0.035403069, 
  -0.138147205, -0.002114743, -0.148666233, -0.035270866, -0.097928233, 
  -0.016292544,  0.000013978,  0.042519517, -0.112039238,  0.018141722, 
  -0.061888345,  0.035926618, -0.185447857, -0.009403018, -0.099885404, 
   0.105253711, -0.195645586,  0.120792344, -0.199923635,  0.099413216, 
  -0.093091473,  0.110908441, -0.101242490,  0.078008920, -0.130101323, 
   0.066302665, -0.081761934,  0.116213068, -0.041965164,  0.009102826, 
  -0.101908848,  0.007538118, -0.074090734,  0.083439142, -0.033637546, 
   0.021455556, -0.042138025,  0.012659197, -0.080572151,  0.043875169, 
  -0.014756252,  0.018836768,  0.014945460,  0.016805174, -0.055985928, 
   0.075487487, -0.052217375,  0.033174954, -0.048153412,  0.084359251, 
  -0.066528119, -0.001988710, -0.079876550,  0.016707255, -0.032773331, 
   0.005921080, -0.091012821,  0.038690414, -0.106780715, -0.056850161, 
  -0.148574486,  0.029639294, -0.053593460, -0.012468784, -0.073942825, 
   0.005071558, -0.086565129,  0.026938399, -0.065250270, -0.033695847, 
  -0.067948222,  0.083439976, -0.176782221,  0.016328096, -0.150016412, 
  -0.004239803, -0.122215338,  0.085412115, -0.104404740,  0.032534081, 
  -0.098616168,  0.052604321, -0.095379993, -0.001945010, -0.009207034, 
  -0.020237312, -0.027273158,  0.046507686, -0.098464556, -0.011402275, 
  -0.033410411, -0.099338464,  0.007831322, -0.032113787, -0.027484536, 
   0.002249552, -0.023334673, -0.057474926,  0.040218212,  0.027686568, 
  -0.020115739, -0.056026217,  0.015879311, -0.030566463, -0.094255984, 
   0.049390614, -0.017836915,  0.034327056, -0.034642056,  0.031441826, 
  -0.010066380,  0.065814413, -0.086584747,  0.039350219, -0.130552158, 
   0.041408896, -0.142004758, -0.062934160, -0.118513450,  0.009671358, 
  -0.119941898,  0.000450616, -0.100930147, -0.040154696, -0.130009592, 
   0.046367366, -0.089741394,  0.032471828, -0.015757333,  0.076117337, 
  -0.030795721,  0.050929382, -0.063323684, -0.012567154, -0.003656949, 
   0.081427142, -0.103272274,  0.056669369,  0.010525481,  0.051125105, 
