// -----------------------------------------------------------------------------
// 
// This file is auto generated by model_export.py
// -----------------------------------------------------------------------------
#ifndef MNIST_MODEL
#define MNIST_MODEL

// ....
#include <stdint.h>
#include "infercat.h"

// ...
static const float dense_weights[50176] = {
   0.060223885, -0.071508452,  0.028036974,  0.017114066, -0.002998747, 
  -0.006521292, -0.007518195, -0.004334718,  0.018834867, -0.065433443, 
  -0.065260686,  0.045992903, -0.044948757, -0.013966435,  0.011928925, 
   0.022084698,  0.008610137,  0.064082287, -0.053743210, -0.012031585, 
   0.017723806, -0.041350942, -0.008957744,  0.022431366,  0.061968513, 
   0.015169412,  0.040027887, -0.000597432, -0.029563989, -0.049688894, 
  -0.074541837, -0.034799770, -0.069027737,  0.038642764,  0.145624831, 
   0.093564317,  0.083434351, -0.021923060,  0.127764583,  0.240371794, 
   0.427729517,  0.257822633, -0.068638995,  0.048348051,  0.272257507, 
   0.170838624, -0.057073120,  0.210413337,  0.039702013,  0.045966730, 
   0.040947042,  0.099008881,  0.004788280,  0.057955153, -0.011741914, 
  -0.041881870, -0.047367755,  0.075236849,  0.085073620,  0.204328358, 
   0.213883102,  0.135767326,  0.169379681,  0.145229355,  0.283945143, 
   0.352355421,  0.331771910,  0.360152960,  0.370916456,  0.014148346, 
   0.275503248,  0.117298193,  0.068079650, -0.073526353,  0.015628982, 
  -0.072547533,  0.185465872,  0.164180651,  0.140456721,  0.243805766, 
   0.191995710,  0.091049321,  0.051727541, -0.036545958, -0.035742544, 
  -0.020652927,  0.088282593,  0.205023006,  0.202865481, -0.062453423, 
   0.037735313,  0.043838266, -0.037670806,  0.181297973,  0.039619971, 
   0.103802830,  0.069032721,  0.189666212,  0.181092083,  0.034647211, 
   0.139840335,  0.116508260,  0.082133085,  0.014841205, -0.064925216, 
   0.041011821,  0.036794409,  0.114407763,  0.069147334, -0.122936048, 
  -0.011305670, -0.014760233,  0.055512346,  0.008978640,  0.059022594, 
   0.028060224,  0.123656712,  0.075209513,  0.064470351,  0.069868624, 
   0.023782071, -0.025562603, -0.071330719, -0.058177695, -0.020797685, 
   0.096077025, -0.010088093,  0.085590109,  0.064652734,  0.115981556, 
   0.124225870,  0.123282559,  0.030115778, -0.101648092, -0.183349401, 
  -0.092677489, -0.289842933, -0.223371357, -0.001415974,  0.166995421, 
   0.021825030, -0.033528335,  0.251444489, -0.059730880,  0.014532916, 
  -0.308006406, -0.125439107, -0.107834242, -0.128926530, -0.058835905, 
  -0.097851552, -0.031680986,  0.006197026, -0.103003532, -0.011046588, 
  -0.016998343,  0.055857245,  0.177167609,  0.066333935,  0.106203780, 
   0.065497465,  0.097838797, -0.082703270, -0.082774870, -0.028115414, 
   0.006415226,  0.091564797,  0.112682186,  0.050747178, -0.030907514, 
  -0.046820100, -0.091318518, -0.083247647, -0.216919512, -0.033268679, 
  -0.092796512, -0.226580650, -0.158879697, -0.124037027, -0.029311173, 
  -0.003443210, -0.073932476,  0.061425816,  0.100359477,  0.202596396, 
   0.147219092,  0.065319441, -0.021829927,  0.016188599,  0.091976993, 
  -0.027372221, -0.141085833, -0.265597254, -0.183255404, -0.025422119, 
  -0.007643476, -0.049228817,  0.037086669,  0.077235617, -0.067908734, 
   0.237818301,  0.017608434,  0.020555949,  0.047138505, -0.124768630, 
   0.074437447, -0.085948803,  0.044129591,  0.126461133,  0.039456785, 
  -0.088641971, -0.009441167,  0.086369075,  0.050198827,  0.132745475, 
  -0.004053008, -0.105448358,  0.107791387,  0.040972378, -0.112254553, 
  -0.088164680, -0.033013422, -0.054614440,  0.047556117, -0.064907007, 
  -0.244624972, -0.174566418, -0.046794876,  0.195719868,  0.122402400, 
   0.106855527, -0.030462895, -0.069913872, -0.066253737,  0.073313110, 
   0.117980175, -0.026862537, -0.032326028, -0.068986557, -0.003743972, 
   0.058804471,  0.062416263,  0.013617339,  0.129683152,  0.097925521, 
   0.050175607,  0.006353613, -0.047066264, -0.263781816, -0.245080695, 
  -0.043101225, -0.032337308, -0.021722438, -0.257484496, -0.173034579, 
   0.145183951,  0.135083511,  0.083987437,  0.020696342, -0.019188968, 
  -0.036886025,  0.020446260,  0.158092976, -0.095778815, -0.154361561, 
  -0.066771619, -0.131761789, -0.071395777,  0.016682163, -0.016217491, 
  -0.063779488,  0.059051909,  0.037460741,  0.014324010,  0.095462941, 
  -0.024908787, -0.041204911, -0.130815476, -0.142616525, -0.161657736, 
   0.033326596, -0.178510413, -0.109088793,  0.073147662,  0.004522103, 
   0.052186396,  0.013396081, -0.064496092, -0.102640569, -0.037158985, 
   0.002057015,  0.017117405,  0.066916376, -0.124538764,  0.005999393, 
   0.038239595, -0.102672495, -0.049740840, -0.033141766,  0.080723234, 
  -0.028520588,  0.050968852,  0.074593894,  0.145571470,  0.044637170, 
  -0.245613277, -0.271976829, -0.070015721,  0.029736333, -0.081536911, 
   0.081157342,  0.041057348,  0.146771148,  0.084884614, -0.088735379, 
   0.042724118,  0.099562459, -0.052367147,  0.022717651,  0.044607073, 
   0.049590029,  0.001559614,  0.038678035, -0.082341395, -0.130407885, 
  -0.245689049, -0.079832919,  0.020773312,  0.139133692,  0.118080802, 
   0.201400995,  0.164557055,  0.180042580,  0.090380207, -0.127208725, 
  -0.127062604,  0.010135360, -0.156790257,  0.003458974,  0.117680125, 
   0.158128992, -0.188518405, -0.039674155, -0.028647380,  0.053152762, 
   0.164112374, -0.038245052, -0.045223329, -0.038805865, -0.114133872, 
  -0.102067396, -0.177776575, -0.086011127,  0.004049272, -0.048030660, 
   0.105163537,  0.135282651,  0.190146089,  0.138891131,  0.245988011, 
   0.364338845,  0.004238426, -0.223891020, -0.214862615,  0.112941697, 
  -0.059316523, -0.135134459,  0.246486560,  0.098280288, -0.070604615, 
   0.098820068, -0.074389122, -0.039969549, -0.018775860,  0.010796595, 
  -0.090757206, -0.061007921, -0.055421785, -0.065599367, -0.073146142, 
   0.030087043, -0.049249891,  0.135573313, -0.024346100,  0.020071177, 
   0.132141128,  0.175649494,  0.209926814,  0.061639953, -0.007714116, 
  -0.075207174,  0.063170001,  0.007834982, -0.100104436, -0.231658623, 
   0.138236955,  0.024322001,  0.002504928,  0.247251719, -0.061802063, 
  -0.048061956, -0.136347696, -0.029513771, -0.016096650,  0.003399146, 
  -0.050330427, -0.073604785, -0.061194383,  0.034341447,  0.051578354, 
   0.014305908,  0.028975755,  0.120513469,  0.215236574,  0.198477358, 
   0.201707289, -0.088000119,  0.124355547,  0.325880349,  0.087868504, 
  -0.060296845, -0.058182146, -0.112913027,  0.162209302, -0.130621761, 
   0.159802258,  0.073002949, -0.016599586, -0.050040822,  0.085815191, 
  -0.034126163,  0.054419883,  0.064721063,  0.064300381,  0.015955973, 
   0.068527974,  0.063303217,  0.041442949, -0.087539665,  0.056149416, 
  -0.030289164,  0.042965394,  0.095250800, -0.032609638,  0.039730787, 
   0.192274198,  0.051869296, -0.007721622, -0.074742526, -0.024700165, 
  -0.027647190,  0.051404487, -0.034869295,  0.113258660,  0.094669089, 
   0.000885058,  0.003821447,  0.085798897,  0.141426161,  0.185546219, 
   0.057333540, -0.000225630,  0.006155743, -0.034584295, -0.022525875, 
   0.027612129, -0.088799849,  0.003977295, -0.087145813,  0.166774452, 
   0.075354129, -0.012015443, -0.018040739,  0.197277308,  0.185891822, 
   0.234347001,  0.006827511,  0.014572230, -0.028758164, -0.066297814, 
   0.013770004,  0.063128546,  0.013692960,  0.018642224,  0.105480656, 
   0.078410558,  0.183729514,  0.081514992,  0.088380016,  0.079495147, 
  -0.124361649, -0.143570006, -0.091827169, -0.057103094, -0.112656705, 
  -0.044035167, -0.057910554,  0.077975988,  0.086950339, -0.043889526, 
  -0.031378295,  0.320716202,  0.102105074,  0.345805138,  0.058811314, 
   0.067587711, -0.052384131,  0.001510956,  0.056949757,  0.010774870, 
  -0.014682991,  0.165842280,  0.037978586,  0.128593415,  0.131104201, 
   0.072476089,  0.023494771, -0.088450655, -0.065477394, -0.112461507, 
  -0.045204088,  0.059924215,  0.062608786,  0.014165196, -0.100210257, 
   0.023491737,  0.089806318,  0.089974001,  0.084803589,  0.271488994, 
   0.036406260,  0.176886797,  0.014993840, -0.025070000, -0.111278787, 
  -0.095779471,  0.031175217, -0.093913466,  0.044216469,  0.067086987, 
  -0.029099284,  0.122118011,  0.184187919,  0.086216554, -0.046339415, 
  -0.024192998, -0.144212291, -0.039148007, -0.074140757,  0.060169660, 
   0.024996182, -0.026575876, -0.022775158, -0.058043376,  0.007318191, 
  -0.010322836, -0.099922277, -0.089918092,  0.214412570,  0.075199135, 
  -0.075907066,  0.019360885,  0.006086034,  0.070672929,  0.143286645, 
   0.102839857,  0.091233827,  0.193304077,  0.140057981,  0.081443377, 
   0.093332060,  0.209087223,  0.130310848, -0.127593651, -0.081450105, 
  -0.002939246, -0.035634819,  0.038465861,  0.092425093, -0.052044239, 
   0.049752746,  0.019616313,  0.143676400,  0.047890965, -0.048124861, 
  -0.150974244,  0.108127199,  0.000202199,  0.013912229, -0.028038535, 
   0.045160726,  0.220403299,  0.033191033,  0.037764400,  0.006859782, 
  -0.046433516,  0.047467526,  0.120639384,  0.108630106,  0.080264449, 
   0.008742667, -0.002361317, -0.026572932, -0.026455455,  0.009924220, 
   0.104959421, -0.044491395,  0.015400427, -0.140132248, -0.118816845, 
   0.085879937,  0.107305460,  0.095207691, -0.183224916,  0.198953226, 
   0.069372140, -0.005877686, -0.024922501,  0.169189408,  0.087011866, 
   0.051503301,  0.186076328,  0.218850434,  0.202765450,  0.070219770, 
   0.246259093,  0.292473286,  0.136536911,  0.076134242,  0.029661465, 
  -0.125715613, -0.066252813, -0.042048182, -0.098230980, -0.008661868, 
  -0.038395576,  0.060789842, -0.072697647, -0.049283810, -0.095790692, 
   0.053977232, -0.098372661, -0.058613010,  0.087140672,  0.025828324, 
  -0.055918209,  0.082300909, -0.177780792, -0.257814735, -0.015855553, 
   0.077807285,  0.129194945,  0.165521547,  0.085589036,  0.150274158, 
   0.005361724,  0.047258746, -0.067594968, -0.051539313, -0.141097188, 
  -0.074212849, -0.053754799,  0.055250697,  0.007113161,  0.072770484, 
  -0.041622963,  0.227942348,  0.086157642,  0.000902769, -0.148722947, 
  -0.200000599, -0.026658431,  0.033326343,  0.006866552, -0.172637880, 
  -0.136160508, -0.151955679, -0.254768312,  0.050146572, -0.029822061, 
   0.020026125,  0.070558347, -0.083129697, -0.106883220, -0.023458557, 
  -0.094447270, -0.146878213, -0.162549317,  0.004952413,  0.001667464, 
   0.014568519, -0.080802463, -0.139374062,  0.073598899,  0.015951917, 
   0.003785518,  0.014419734,  0.126450419,  0.141991094,  0.003994875, 
   0.014226340,  0.035596102, -0.057388827, -0.054385733, -0.260694712, 
  -0.224249974,  0.162455678,  0.050630856, -0.094383202, -0.028649082, 
   0.075678535,  0.086409681,  0.123939149,  0.124245733, -0.078754663, 
  -0.097530439, -0.040901124, -0.103007190, -0.039885230, -0.011282696, 
   0.037174281, -0.210779876, -0.084795833, -0.184771016, -0.088427827, 
   0.058139894,  0.111506648,  0.026369303, -0.080651321, -0.018249869, 
   0.051682957, -0.025749501,  0.236659855,  0.269718081,  0.256672144, 
   0.071310289, -0.020802913, -0.121683456, -0.079447508, -0.037435941, 
  -0.090217426, -0.082794175,  0.126074746, -0.235341519, -0.329768330, 
  -0.226431310, -0.041652907,  0.045100525, -0.044610713, -0.055702895, 
   0.026176136,  0.084726706,  0.106318466, -0.048140734,  0.075444378, 
  -0.029188063, -0.057230935, -0.045707081,  0.051924907,  0.010303043, 
  -0.119239040, -0.313885331, -0.170547396, -0.034106698,  0.092789389, 
  -0.043151319,  0.002329159,  0.079852909,  0.096373081, -0.026840666, 
   0.004465313, -0.076638296, -0.024299512, -0.004826118,  0.103082977, 
  -0.026363840,  0.061653268, -0.125158384, -0.182534575, -0.266570359, 
   0.032352507,  0.061247639,  0.056165658,  0.048785709,  0.051170416, 
   0.030740879,  0.054199435, -0.066595294,  0.048892818, -0.000612251, 
  -0.033937212, -0.046099029, -0.069863476,  0.078100719, -0.083206058, 
  -0.033916093,  0.061580159, -0.009120427, -0.042142302, -0.066607803, 
  -0.046110801,  0.046060391, -0.036282238,  0.054928429, -0.019991346, 
   0.006273150,  0.012472928,  0.038145006,  0.016520903,  0.032284923, 
  -0.071683571, -0.059147909, -0.024454333,  0.070428737,  0.023420185, 
   0.029852979, -0.083330438,  0.012183495,  0.014645323,  0.041176844, 
  -0.095111407,  0.003578730, -0.007231957,  0.005816753, -0.061742935, 
  -0.011783426, -0.028723311,  0.084193371,  0.096785724,  0.106274389, 
   0.069284298, -0.020141138, -0.073379479,  0.017408095,  0.047438852, 
   0.006728977,  0.059692927, -0.009892255, -0.041408919,  0.010611326, 
   0.020176105,  0.038426898, -0.047810022,  0.193427935,  0.138538748, 
   0.074326500, -0.236618444, -0.106218785, -0.175128624, -0.203557298, 
  -0.031654522, -0.205250517, -0.196305931, -0.099925332, -0.199491113, 
  -0.133698627, -0.013486042,  0.161473244,  0.058172639, -0.107539214, 
  -0.161692470, -0.192320108, -0.141209602,  0.057761814, -0.028851945, 
  -0.073048800, -0.032067988,  0.043432824,  0.077107288, -0.059168287, 
  -0.016285323,  0.256061614,  0.005007666,  0.014264069,  0.034608006, 
  -0.049389169, -0.154249519, -0.157302052, -0.263403565, -0.177333415, 
   0.131691575,  0.033784624, -0.127244622, -0.077557884, -0.048533827, 
  -0.066115655,  0.328694493,  0.164385125,  0.093379065,  0.285206676, 
   0.124059163, -0.142035753, -0.248952672, -0.084042981, -0.017693147, 
  -0.048113372,  0.045465760, -0.083300315,  0.031857312,  0.108866423, 
   0.019597398,  0.119427234,  0.058803406, -0.208033562, -0.217684627, 
  -0.127606302, -0.189756572,  0.111889228, -0.153056026, -0.138791054, 
   0.107634015,  0.154888839, -0.114237636, -0.097665623, -0.095169969, 
  -0.244090095, -0.290040255, -0.156368926, -0.172812492, -0.235284150, 
  -0.075367726, -0.051448777,  0.045829609, -0.150013521,  0.070322372, 
  -0.044551883, -0.026886297,  0.122937523,  0.128794357,  0.277960569, 
   0.145569786, -0.002857992, -0.100771613, -0.168098658, -0.394481927, 
   0.021895658, -0.145096466, -0.021468444,  0.109721884, -0.062494695, 
  -0.209107429, -0.086966321, -0.267485023, -0.391016215, -0.223604888, 
  -0.255056351, -0.341653913, -0.411781996, -0.250208825, -0.094941698, 
   0.055156674,  0.000082590, -0.004002914,  0.008789264,  0.204022393, 
   0.098046646,  0.040617064,  0.245518103, -0.032766372,  0.041193362, 
  -0.017784476, -0.102839485, -0.151767999, -0.003572276, -0.031062188, 
  -0.179174602, -0.149053052, -0.232398167, -0.393825680, -0.135477468, 
  -0.106410332, -0.095018089, -0.231023788, -0.158237696, -0.194302425, 
  -0.200538307, -0.192634240, -0.060390424,  0.009703768,  0.001435041, 
   0.082266323,  0.117206991,  0.105375879,  0.071809500,  0.124377504, 
   0.057471845,  0.082190409,  0.006686710, -0.087355532, -0.177442342, 
  -0.097670414, -0.169577748, -0.147837400, -0.157996759, -0.132822126, 
  -0.168930739, -0.121040173, -0.095182985, -0.194767639, -0.220207959, 
  -0.127955228,  0.113741711,  0.011001173, -0.011381282, -0.075068600, 
  -0.014145315, -0.112860672,  0.018920174, -0.026284643,  0.182081580, 
  -0.033059672, -0.072431207, -0.085151844,  0.065054335, -0.012616034, 
  -0.100042090, -0.059709936, -0.057212330, -0.035907835, -0.055296097, 
  -0.085973591, -0.159964249, -0.157227799,  0.035736393,  0.045874067, 
   0.041652869,  0.150539339,  0.020502059,  0.085191965,  0.194165289, 
   0.133122936,  0.139053047,  0.266683578,  0.176494837, -0.149494991, 
   0.259138077, -0.030458815,  0.164554149, -0.015061745,  0.048642825, 
   0.079520859,  0.117075242,  0.070941247,  0.033232182, -0.083447233, 
  -0.112514965,  0.033583410,  0.165890679,  0.047953956,  0.078859933, 
   0.221399665,  0.191830158,  0.312343627,  0.366728485,  0.356795639, 
   0.225309446,  0.179960787,  0.181239679,  0.153602228,  0.117417634, 
   0.306892604,  0.270730704,  0.166254848,  0.311275035, -0.009882976, 
   0.214525416,  0.044477418,  0.007041664,  0.077073410,  0.051461510, 
   0.028364701, -0.066882998, -0.010351657,  0.008054565,  0.081743710, 
   0.224344894, -0.016132355,  0.217069179,  0.035686485,  0.223627135, 
   0.227584243,  0.140531316,  0.323172212,  0.268598735,  0.335150927, 
   0.247713983,  0.116638355,  0.219542846,  0.369232833,  0.370211512, 
   0.471857131,  0.193754688,  0.171950728,  0.162522420,  0.380411208, 
   0.217412040,  0.105542861, -0.021195594,  0.005414600, -0.004721999, 
   0.010624572,  0.131190464,  0.166565105,  0.109311938,  0.201752663, 
   0.083825730,  0.056158315,  0.021418991,  0.069710523,  0.076043919, 
   0.055906791,  0.109861597,  0.275334984,  0.102540761,  0.267710924, 
   0.367787749,  0.216975078,  0.141569883,  0.222930863,  0.091189735, 
   0.028715355,  0.185086772,  0.017435212, -0.010626585, -0.046671990, 
  -0.074504584, -0.029184233,  0.197834343,  0.163604930,  0.251090378, 
   0.217611298,  0.023990525,  0.051329717,  0.059984393,  0.094735563, 
  -0.066201843, -0.268628627, -0.138963133, -0.142628893, -0.013130755, 
  -0.107269801, -0.320915431,  0.157928705,  0.130225152, -0.013446278, 
   0.216207772,  0.346569419, -0.043885577, -0.002329402,  0.142084196, 
   0.164664775, -0.122940779, -0.386673987,  0.059113875,  0.090498336, 
   0.067235477,  0.060573038,  0.081828766,  0.186332256,  0.230207443, 
   0.096222714, -0.086696453, -0.027920425, -0.189909369, -0.060626131, 
  -0.235238716, -0.267933488, -0.186610162, -0.042087648, -0.086794481, 
  -0.093872018, -0.051705141,  0.051623929,  0.007238126,  0.086052977, 
  -0.175790980,  0.078280501,  0.132155523,  0.270298094, -0.152885169, 
  -0.087926425,  0.216611773,  0.185335129, -0.050990075, -0.057461824, 
   0.096316800,  0.125548825,  0.054671623, -0.043035083, -0.110688202, 
  -0.180116981, -0.001141877, -0.122725643, -0.077071667, -0.313099712, 
  -0.232045904, -0.140575662,  0.034323525, -0.013420212, -0.060748693, 
   0.131498232,  0.034204077, -0.137483969, -0.195278272,  0.019986495, 
  -0.031352654,  0.083235785, -0.069817610,  0.169001371,  0.138467774, 
   0.103107043,  0.054305390, -0.063176371,  0.087057225,  0.091077581, 
   0.020917105,  0.046235070, -0.210855171, -0.158586293, -0.177127153, 
  -0.203907445, -0.127779469, -0.164253846, -0.137280002, -0.221017286, 
  -0.004199595, -0.068282560,  0.195304483, -0.194137320, -0.199251354, 
  -0.008823011, -0.073983923, -0.068533480,  0.042528845, -0.112239175, 
  -0.080942675,  0.031329319,  0.113307878, -0.007682222,  0.002776050, 
  -0.011007160, -0.010537614, -0.027063075,  0.001103800, -0.076797076, 
  -0.202915192, -0.121554971, -0.074767090, -0.173571378, -0.079558305, 
  -0.043082148, -0.081566110, -0.169760600, -0.120673440, -0.067337200, 
   0.031396382, -0.295099378, -0.240057498, -0.027025325,  0.225074738, 
   0.056761734,  0.024435019,  0.034079272, -0.188110575, -0.142097443, 
   0.124007992, -0.109845370, -0.032855425, -0.124789134,  0.011765481, 
   0.037616447, -0.030652311, -0.075426787, -0.026473008, -0.045281604, 
   0.057010133, -0.000747383,  0.013060546,  0.029464409, -0.122034922, 
   0.056904294, -0.184038132, -0.161558598, -0.125315294, -0.009063429, 
   0.122019418, -0.217112124,  0.189021051,  0.138035223, -0.055963285, 
   0.200557083, -0.415433884, -0.291304559, -0.041519642, -0.050233413, 
   0.183597744,  0.086858571, -0.000900444, -0.068192758,  0.060291413, 
   0.121386960,  0.082183160, -0.063195080, -0.041151721, -0.128244281, 
  -0.047719017,  0.070492312, -0.230038702, -0.087875932, -0.203373551, 
  -0.057146598, -0.104214907, -0.298678160, -0.248420805, -0.154216111, 
   0.079206467,  0.035226434, -0.069310561,  0.086267501, -0.454184622, 
  -0.429881692, -0.126428068, -0.013312588, -0.024358973,  0.082327664, 
   0.005766549,  0.006963660, -0.047023091,  0.033680353,  0.076139443, 
  -0.081669047,  0.041186128,  0.026866889,  0.093620181, -0.009547262, 
  -0.164004430, -0.133775562, -0.200795993,  0.083378680, -0.115965344, 
  -0.292734355, -0.341954201, -0.037106346, -0.009097025, -0.013167366, 
  -0.049444579, -0.005306790, -0.337848812, -0.415074110, -0.164589211, 
  -0.002066387,  0.004512834,  0.036110427,  0.021944603, -0.071868069, 
   0.099317506,  0.062868066, -0.013958206, -0.030903650, -0.024448629, 
  -0.050294723, -0.029984390, -0.041904073, -0.076349400, -0.101859517, 
  -0.120522700, -0.006435298,  0.028373931,  0.001149928, -0.109462008, 
  -0.066911660,  0.041151647,  0.028586395,  0.056815274, -0.187840328, 
  -0.286866099, -0.357835978, -0.100852482, -0.060014375, -0.109121144, 
   0.065415464,  0.032475371,  0.031768482,  0.090649210, -0.038808264, 
  -0.006862646, -0.002080701, -0.057051808, -0.133864716,  0.079789676, 
   0.074241616,  0.035159513, -0.043052953, -0.069015808,  0.062827989, 
   0.031805210,  0.278053522, -0.243982971,  0.045125175, -0.069041714, 
  -0.066748649, -0.071589112,  0.029951915, -0.123960063, -0.351550639, 
  -0.068965927, -0.052220061, -0.028665164, -0.115581736,  0.106582224, 
  -0.071490034, -0.001299598, -0.040505309,  0.040173229,  0.091318600, 
   0.037822638,  0.096314207,  0.054079272,  0.078475200, -0.052242704, 
  -0.057036243, -0.045960359, -0.100310780, -0.021969132, -0.019410161, 
  -0.080459438,  0.081226170, -0.075562671,  0.043374084,  0.038206674, 
  -0.053456422, -0.105840512,  0.000740014, -0.025675740, -0.044626974, 
  -0.075535707, -0.056950483,  0.047326282, -0.088990755,  0.003258649, 
   0.097435787,  0.064729087,  0.022388097,  0.167990029,  0.111732274, 
   0.146202743, -0.031875201, -0.074131630,  0.015596624, -0.110289730, 
  -0.201567397, -0.012609238,  0.015854435,  0.016820209, -0.051322177, 
  -0.001268849,  0.047142677,  0.023008220, -0.073701128,  0.135723308, 
  -0.121651240,  0.041063692, -0.049543470, -0.162844688,  0.047639027, 
  -0.047114853,  0.111860447,  0.126099423,  0.061136387,  0.051715966, 
  -0.064815097,  0.056422900,  0.096862614,  0.161544949, -0.066290319, 
   0.083776847, -0.008090435,  0.011913606, -0.105372317, -0.206360593, 
   0.122832283, -0.065590940,  0.025407888, -0.030389164,  0.063626148, 
  -0.016304791, -0.108856104,  0.090204798,  0.141213745,  0.116398133, 
   0.049177043, -0.029223885, -0.166960239, -0.130681813, -0.128564179, 
   0.077962555,  0.026889099, -0.003483564, -0.104356341,  0.068543263, 
   0.042632684,  0.156655952,  0.043254245,  0.052645288,  0.149211630, 
   0.104510106, -0.060424957, -0.043896496,  0.190583974, -0.054240309, 
  -0.060606875,  0.069719844, -0.016102441,  0.005943216, -0.003305793, 
   0.037744701, -0.128269568, -0.196734443, -0.108101644, -0.025934825, 
  -0.029197488,  0.013338398, -0.054767363, -0.044323914,  0.045086700, 
   0.006936928, -0.206727087,  0.000577990,  0.098788500,  0.009595699, 
   0.094717838,  0.329790682,  0.046531748,  0.164794371,  0.163974032, 
  -0.075034805, -0.029580833,  0.066303760,  0.056498177, -0.037335232, 
  -0.014020652,  0.022642605,  0.011650041, -0.064261600,  0.107899599, 
   0.235103920,  0.164632261,  0.085789792,  0.104751818,  0.064415030, 
   0.197834641,  0.122773543, -0.009980286,  0.085466899,  0.126350775, 
  -0.100737818, -0.023634166,  0.047780789, -0.134813398, -0.083908871, 
   0.001692408,  0.150131300,  0.132316962,  0.185248464, -0.022504929, 
  -0.079802662, -0.070287473,  0.070605285,  0.014202833, -0.017134041, 
   0.060729988,  0.034190066, -0.060735527, -0.003094636, -0.059336267, 
  -0.073145621,  0.038096316,  0.028099269, -0.047966711, -0.063290283, 
   0.006757923,  0.003883890, -0.008791902, -0.002188663, -0.016238309, 
   0.057328783,  0.007177263, -0.034735594,  0.003503166, -0.009540722, 
  -0.051586658,  0.015833385, -0.033433296, -0.014753193,  0.037494190, 
   0.021441445, -0.063216463,  0.028323397, -0.082954377,  0.014454201, 
  -0.059055317,  0.011003516, -0.026445333, -0.129203528, -0.142474607, 
  -0.031987093, -0.006031281, -0.076290153, -0.048436891, -0.199523255, 
  -0.231073946, -0.134702489, -0.085673206, -0.063225575, -0.107800208, 
  -0.178395122, -0.191776931, -0.145152196, -0.004930931, -0.016943719, 
  -0.040182609, -0.069714211,  0.025734231, -0.071576416, -0.004479997, 
   0.058002345, -0.052667890, -0.040189981, -0.024314193, -0.062840678, 
  -0.029394723, -0.075503364, -0.147771046, -0.163662508, -0.364673048, 
  -0.346303523,  0.023991644, -0.188342988, -0.112955377, -0.145618737, 
  -0.256655574, -0.202502668, -0.234712720, -0.249909922, -0.123245977, 
  -0.162394851, -0.149240658, -0.182315677, -0.144706085, -0.075605340, 
   0.065078504, -0.038297825,  0.060658120,  0.048527338, -0.080047637, 
  -0.176136002, -0.115170650, -0.097402275, -0.263254404, -0.087601498, 
  -0.281048894, -0.233740389, -0.136723936, -0.212794453, -0.178234115, 
  -0.155565917,  0.001446046, -0.042656232,  0.083254188, -0.000723401, 
  -0.036203895, -0.073336013,  0.109856486,  0.009577310,  0.013840720, 
  -0.023957405, -0.098922096,  0.003771229,  0.054856069,  0.078032292, 
  -0.042107608,  0.025224788, -0.044104718, -0.008148546, -0.229824543, 
  -0.213545784, -0.146738797, -0.064599656, -0.129286423, -0.058167484, 
  -0.198149651, -0.155296326,  0.055148732,  0.059778765,  0.013588005, 
  -0.063419923, -0.099127926,  0.035655979, -0.060631361, -0.024595145, 
  -0.050947897,  0.069000803,  0.139034390,  0.120918706,  0.093190074, 
   0.085453689, -0.006347941,  0.089799836,  0.017428584, -0.060359843, 
  -0.127719820, -0.075335905, -0.293796688, -0.178153485, -0.064448535, 
  -0.022355124, -0.005283596, -0.069278747,  0.035872340,  0.084557220, 
   0.111111477,  0.070427723,  0.103055194,  0.078911267, -0.077514470, 
   0.076686583, -0.085192703, -0.084733732, -0.091976091, -0.075126097, 
  -0.009781406, -0.141463473,  0.090712748,  0.093793973,  0.047872517, 
   0.117501602, -0.028596103, -0.085292056,  0.114762366,  0.017553294, 
  -0.096475013, -0.022947574, -0.117832243, -0.057124499,  0.123205595, 
   0.056195829, -0.070964031, -0.054083046,  0.014873118,  0.144998044, 
   0.083244689,  0.089139953,  0.029976040, -0.002821951, -0.095216759, 
   0.029160062, -0.125489071, -0.135993391, -0.102160677,  0.045760222, 
  -0.098510839, -0.051868267,  0.122139357, -0.036853388, -0.067720033, 
   0.027470138,  0.088582389,  0.247228444, -0.157069787, -0.045923572, 
  -0.015906680, -0.158206552, -0.062917434,  0.100584619, -0.058734618, 
   0.078603506, -0.019404778,  0.070383497, -0.090554044,  0.145531356, 
  -0.049180936,  0.057705704, -0.001000132, -0.004117520,  0.007686698, 
  -0.021229278, -0.098594621,  0.050243679,  0.112045862,  0.080141239, 
  -0.068117484, -0.162062824,  0.014356433, -0.015548037,  0.095939502, 
   0.061761476, -0.038094252, -0.072465979,  0.159029320,  0.030317198, 
   0.034614999,  0.039118472,  0.060022291,  0.016768372, -0.013370492, 
   0.038981054,  0.000215268,  0.041836992, -0.007670203,  0.050285000, 
   0.056382865,  0.054885987,  0.034008287,  0.065252535,  0.042420421, 
   0.016510177,  0.236841708,  0.149510995,  0.197119698, -0.185000166, 
  -0.044479206,  0.008280206, -0.002695929, -0.107747741, -0.071390897, 
   0.028035451, -0.018437253, -0.010705491,  0.001634724,  0.102941111, 
   0.005710629,  0.036965113,  0.013469307,  0.075127542,  0.023566250, 
  -0.055658918, -0.033664510,  0.049588069,  0.081026144,  0.077392481, 
   0.166822106,  0.119085960, -0.063900560,  0.041609198,  0.202681884, 
   0.090052918, -0.000432603, -0.180882856,  0.041666139, -0.058089804, 
   0.015937870, -0.067989416,  0.105631940,  0.036288094,  0.026985446, 
   0.056340914,  0.051305633,  0.107336596,  0.031985279,  0.033594642, 
  -0.035728220, -0.027254881,  0.020086793, -0.007274024, -0.048827566, 
   0.076160468,  0.130106390,  0.054407548, -0.046960641,  0.002533541, 
   0.025213061,  0.083857253,  0.047297493,  0.056191932, -0.273064435, 
  -0.099424638, -0.047051195, -0.137760356, -0.125438064,  0.023900179, 
  -0.004302924, -0.029752143,  0.013506904,  0.187895954,  0.137670383, 
  -0.037459422,  0.118233174,  0.038749084,  0.216444522,  0.150436759, 
   0.120573416, -0.041557591,  0.103018329,  0.130432039,  0.081818782, 
   0.015234989,  0.077575661, -0.045210026,  0.109390751,  0.096124478, 
  -0.011716055,  0.126915291,  0.116809927, -0.053208563, -0.010617010, 
   0.024820756,  0.123348676, -0.009815165,  0.053241346,  0.119561829, 
   0.037663475,  0.007870067,  0.041329585, -0.006815554,  0.143060088, 
   0.100420497,  0.146336704,  0.067566164, -0.092374489, -0.058362883, 
  -0.007845032, -0.013808884,  0.005047974,  0.116861552,  0.100395717, 
  -0.005026133,  0.142156556,  0.165200964,  0.078937322, -0.128253013, 
  -0.002672026, -0.067302436, -0.096532278,  0.035506487, -0.205897406, 
  -0.113260172,  0.095220871,  0.034514304, -0.029704684,  0.135704502, 
   0.075163983,  0.092209637,  0.144557580,  0.206685111,  0.073789783, 
  -0.048583072, -0.029987527,  0.047029484,  0.022653162, -0.020650012, 
   0.069118410,  0.150394723,  0.104675964,  0.033373881,  0.111711986, 
   0.033788428, -0.081351407,  0.029112438, -0.034423128, -0.101726569, 
  -0.176898584,  0.057631090, -0.277301908, -0.129753232,  0.081926338, 
   0.023809930,  0.038498193,  0.046389885,  0.033563938,  0.176358059, 
   0.153147489,  0.117984064,  0.083296545,  0.081088349, -0.029372692, 
  -0.078449860,  0.020558553,  0.054376703,  0.076796681,  0.118496478, 
   0.145731390,  0.115665682,  0.137540579,  0.127591625,  0.089332499, 
   0.183944747, -0.093564004,  0.012011713, -0.099603601,  0.049419872, 
  -0.287961304,  0.015896162,  0.256596148,  0.085490763,  0.073193505, 
   0.087009378,  0.164018184,  0.079109751,  0.186417699,  0.094823405, 
   0.031687412,  0.036921561,  0.006459205,  0.006980354,  0.042654671, 
   0.052924946,  0.122848280,  0.180245757,  0.203657389,  0.074546888, 
   0.109666295,  0.059390381, -0.113386117, -0.031082634,  0.053946432, 
   0.039286081, -0.041155547, -0.062396124, -0.281753838, -0.021767607, 
   0.105870821,  0.050308175,  0.031485513,  0.032973401,  0.160740942, 
   0.114915624,  0.067716904, -0.010222131,  0.072384842,  0.030244324, 
   0.001005088,  0.080439091,  0.011553018,  0.163471133,  0.145680040, 
   0.076443493,  0.161998898,  0.071242094,  0.118633881,  0.021524623, 
  -0.163368329, -0.162555337,  0.040117264, -0.070334844,  0.037238307, 
  -0.021880656, -0.128901988,  0.011283777,  0.237853974, -0.007249805, 
   0.058576580,  0.169711828,  0.046653789,  0.060689151,  0.030033490, 
   0.060270481,  0.025438130,  0.055009756,  0.000408508,  0.134696648, 
   0.116479196,  0.182845473,  0.172708184,  0.100037597, -0.004302705, 
  -0.030233771,  0.012890019,  0.047408171, -0.145964906, -0.225772008, 
   0.096084736, -0.169521466, -0.067150295, -0.013771291, -0.055512302, 
  -0.009740201,  0.102723725, -0.093132749,  0.024048792,  0.047527596, 
   0.066851273, -0.036505383,  0.008286012, -0.000874280, -0.046060592, 
  -0.071341768,  0.097176120,  0.121529154,  0.160346404,  0.119401388, 
   0.163468912,  0.021395704, -0.026982371, -0.066104166, -0.098583058, 
  -0.049054019,  0.024969095, -0.151546285,  0.013431086, -0.115753196, 
  -0.017927773,  0.017492106, -0.147567838,  0.099824153,  0.009598350, 
   0.045655258, -0.029927829,  0.052942127,  0.056612793,  0.020990994, 
  -0.050512593,  0.005662791, -0.039026778,  0.057522930,  0.048873786, 
  -0.085598461, -0.086610511, -0.006059034,  0.038679473,  0.029636091, 
  -0.015444100, -0.025434993, -0.106747344, -0.068484128, -0.126458541, 
  -0.176014885,  0.053141519, -0.085148737, -0.074839629,  0.145953357, 
  -0.060745373, -0.034501288, -0.057417162, -0.058840659,  0.010872385, 
   0.017149700, -0.075482525, -0.037170507, -0.083272494, -0.006019691, 
   0.048798580,  0.005672709, -0.001451722, -0.038612135,  0.010108863, 
   0.011577248, -0.086400218,  0.011767635,  0.023140477, -0.128631651, 
  -0.095836043, -0.142095536, -0.075445630, -0.134563103, -0.085915372, 
  -0.090073436,  0.000495144, -0.054986198, -0.232099667,  0.026066111, 
  -0.067383416,  0.054824714,  0.071556568, -0.115536101, -0.053637210, 
   0.096286923, -0.126856670, -0.060008001, -0.037063088, -0.099604227, 
  -0.089971423, -0.034879133, -0.156558707, -0.093295813, -0.144974872, 
  -0.007266639,  0.000285640, -0.126958907, -0.002332198, -0.016336422, 
  -0.041151851, -0.234925419, -0.063678846, -0.002263587, -0.060922287, 
  -0.063720971, -0.026188793,  0.065682143,  0.040315293, -0.170001954, 
   0.063860901,  0.063821912,  0.057897929, -0.037942719, -0.056436457, 
  -0.013838397,  0.076714560,  0.039440632, -0.092549622, -0.111018553, 
  -0.022955755, -0.110737368, -0.110056505, -0.111234091,  0.005787769, 
   0.147667229,  0.174824700,  0.070490599,  0.095287569, -0.152679607, 
  -0.216415182,  0.014788010, -0.083009005, -0.043176226, -0.145768613, 
  -0.008119197,  0.001244534, -0.010845658, -0.053616095, -0.005397506, 
  -0.021805165, -0.042395044,  0.079552948,  0.110719375,  0.040680781, 
  -0.066806875,  0.005096460, -0.088728704, -0.078235656, -0.029315814, 
   0.093988791,  0.038856450, -0.096370414,  0.087900601, -0.015995396, 
   0.034088090,  0.068336524, -0.108716510, -0.279301614,  0.049741305, 
  -0.015366673, -0.017007209,  0.025048574, -0.055996582,  0.068050630, 
  -0.041610166, -0.015168903,  0.007256982,  0.078069001,  0.082060799, 
   0.164817050,  0.172916263,  0.038346600,  0.104203977,  0.068548895, 
  -0.032752965,  0.039785694, -0.152756751, -0.125638232, -0.039326921, 
   0.042766549,  0.014159609, -0.004291321,  0.112561993, -0.067836002, 
  -0.098852836, -0.121448316, -0.045820910, -0.012763903, -0.014117882, 
   0.157859281,  0.024867589,  0.021162316, -0.040237226, -0.223199591, 
  -0.147683159, -0.094716676, -0.157004043, -0.023135953,  0.001330928, 
  -0.159557685, -0.138489053,  0.039373264,  0.055293612,  0.032421019, 
   0.009172760,  0.013735027,  0.034592666,  0.131444231,  0.108488508, 
   0.066336200,  0.073091291, -0.177531511, -0.050172668,  0.015018154, 
   0.061395429, -0.019226134,  0.070237927,  0.028541438,  0.055444472, 
   0.180554062,  0.060718913, -0.067325026, -0.047898073, -0.115580842, 
   0.001408738, -0.119273625, -0.161181152, -0.036027897, -0.061147992, 
   0.069191523, -0.045305058, -0.061976440, -0.001928343, -0.005695214, 
  -0.129433811, -0.024771048, -0.037558731,  0.000910858,  0.058732137, 
   0.209575549,  0.053360779, -0.034175083, -0.054626383,  0.077918254, 
  -0.012821898,  0.067462943, -0.061904620, -0.126766130, -0.066616453, 
  -0.089365825,  0.013669943, -0.079701647,  0.006541319, -0.128850833, 
  -0.033609681, -0.002708828, -0.115422510,  0.011055397,  0.008623294, 
   0.039814983,  0.029362027,  0.155889198,  0.063130036,  0.100447781, 
  -0.018710243, -0.042836417, -0.111656293,  0.017362945,  0.018064119, 
  -0.035323158,  0.061024792,  0.040578052, -0.008003481,  0.084092520, 
   0.064373381,  0.018586725,  0.057038866, -0.080833904, -0.032158714, 
  -0.003565937,  0.018639810,  0.029028386,  0.001236334, -0.017104536, 
  -0.083862193, -0.007296950,  0.040620625,  0.036633439,  0.000013836, 
  -0.032064859,  0.017886274,  0.071231700, -0.004987903, -0.015175611, 
   0.060076393, -0.051987816,  0.010433160,  0.012958571, -0.080798507, 
   0.060014792,  0.001750439, -0.067075744,  0.023027077,  0.063895933, 
  -0.064778730, -0.040899429,  0.091204613,  0.055562943, -0.023496291, 
  -0.031630915, -0.040011983, -0.044502068, -0.053183902, -0.049140878, 
  -0.040270496,  0.012823773, -0.084385633, -0.066595890,  0.041943856, 
   0.072747774, -0.083422393, -0.062861674, -0.068090215,  0.043161251, 
   0.013214514,  0.009036966,  0.027247801, -0.047734458,  0.034819141, 
  -0.068459868,  0.080880009,  0.019306593, -0.027595142,  0.039202943, 
  -0.017984455,  0.026475105,  0.052838121, -0.046923287, -0.089129396, 
  -0.096807003, -0.152323499, -0.146140009, -0.096993431, -0.033070575, 
   0.200081214,  0.203612983,  0.270535201,  0.255694062, -0.026360037, 
  -0.024614576, -0.049137194,  0.053810865, -0.077964902,  0.074515067, 
   0.075808980, -0.030544367, -0.078972615, -0.072029039, -0.064633556, 
  -0.038187314,  0.106329732,  0.098395027, -0.019836111, -0.019406730, 
  -0.081243500, -0.087975077, -0.008879518,  0.115044333, -0.134941265, 
  -0.258535117, -0.585287154, -0.428014964, -0.029538099,  0.113376483, 
  -0.140316829, -0.114205010, -0.259487659, -0.056396741,  0.015157214, 
   0.108076163, -0.157564178,  0.039584219, -0.041633774,  0.013675891, 
   0.029697178,  0.080887459,  0.091953367,  0.074584700,  0.032260366, 
   0.045674399,  0.023129819,  0.170329630, -0.079780579,  0.061415549, 
   0.085968576,  0.012730305,  0.057776891, -0.009801507,  0.014746431, 
  -0.134771571, -0.028139498,  0.071511827,  0.006532695, -0.046741024, 
  -0.050805770,  0.109836631,  0.072927654, -0.090744220,  0.091782488, 
  -0.023511136, -0.064510979, -0.056008138, -0.017334804,  0.140169337, 
   0.145292506,  0.197217017,  0.114644744,  0.009865561,  0.215533555, 
   0.063708514, -0.113667391,  0.082082950, -0.039422337,  0.159241617, 
   0.128604040,  0.043006472,  0.002264146,  0.114233181, -0.031862181, 
   0.023020737, -0.016277254, -0.013746624, -0.018048393, -0.015648212, 
  -0.030353511,  0.103051677,  0.114768177, -0.305587560, -0.197464779, 
  -0.008845940,  0.022526756,  0.169596523,  0.104789108,  0.275670201, 
  -0.007792402, -0.062015474,  0.046719860, -0.003442508, -0.069483273, 
  -0.040162999, -0.030246673,  0.008812872,  0.095767736,  0.054372087, 
  -0.045275971,  0.060953300, -0.011206698,  0.030107025,  0.050490838, 
   0.006513199,  0.010111735, -0.013201158,  0.058419053,  0.162404820, 
  -0.031337414, -0.098271407,  0.039156012, -0.068279691,  0.159931108, 
   0.264630347, -0.054418538,  0.220263928,  0.173212245,  0.104558989, 
   0.067129612,  0.020533165, -0.037168320,  0.023050468,  0.044918738, 
  -0.023644686,  0.062079135,  0.078921847, -0.001906304,  0.057802636, 
  -0.028887654, -0.015840594, -0.008022228,  0.050237559,  0.049451340, 
  -0.176791444, -0.014143459,  0.178517014,  0.048201546,  0.015015932, 
   0.102832124, -0.029758919,  0.073350616,  0.135887608,  0.325236797, 
   0.213315472,  0.140901372, -0.049300041,  0.045621675,  0.113495424, 
  -0.023203123, -0.075762101, -0.074351683, -0.158802658, -0.078411870, 
  -0.016718004, -0.021730058, -0.030712606,  0.108075209, -0.024485439, 
   0.073555015,  0.002756214, -0.086173192,  0.039185867, -0.055795528, 
   0.015372423, -0.238429829,  0.001348909,  0.172393516,  0.007315181, 
  -0.046126075,  0.273238808,  0.440274686,  0.016218474,  0.094958857, 
   0.120470695,  0.087934814, -0.025881656,  0.088300914, -0.042288937, 
  -0.092468262, -0.083149508, -0.162898228, -0.030350912,  0.000472529, 
   0.026780421, -0.098759182, -0.110648945, -0.093574509, -0.033765998, 
   0.012434466, -0.048906781, -0.068166502, -0.291389018, -0.012703719, 
   0.180902734,  0.196350396,  0.060156070,  0.001128789,  0.173608884, 
   0.383921057, -0.043770581, -0.073446080,  0.073636651,  0.046821654, 
   0.158466637, -0.129250988, -0.123560920, -0.175424010, -0.114976905, 
  -0.118905813, -0.064680398, -0.017965997, -0.010019296,  0.036368959, 
   0.003161904, -0.029223410,  0.156925529,  0.025218505,  0.057778366, 
  -0.094841823,  0.010989057,  0.260699928,  0.321704477,  0.189961106, 
   0.045318060,  0.011944531, -0.035823751,  0.138676390, -0.202991456, 
  -0.132548973,  0.103742786,  0.052285112, -0.080229610, -0.263109505, 
  -0.232049584, -0.126699954, -0.000054196, -0.032861743,  0.037530180, 
   0.010333792, -0.003540057, -0.039074030, -0.020158254, -0.007049677, 
   0.145757481,  0.078385107,  0.191204682,  0.108068071,  0.050612293, 
   0.276493311,  0.145657957,  0.155753732, -0.048010450,  0.106134601, 
   0.120818779, -0.234744966, -0.155453995,  0.018812811, -0.044071093, 
  -0.081698678, -0.157446504, -0.112610407,  0.024235621,  0.073802367, 
   0.010198637,  0.142350405,  0.129503906,  0.067366034, -0.000273080, 
  -0.073496692,  0.069879457, -0.031208228, -0.039999381, -0.014349951, 
   0.046325445,  0.208552986,  0.086913347,  0.287758112,  0.038600050, 
   0.119719110, -0.100789391,  0.039785072, -0.039763913, -0.120617449, 
  -0.105135150,  0.093345828,  0.028332410, -0.125032976, -0.145396978, 
  -0.040426958,  0.146999896,  0.150124952,  0.089467354,  0.134981513, 
   0.149206325,  0.035676870,  0.001731249, -0.044387348, -0.003054748, 
  -0.122560367, -0.118859850, -0.086158007, -0.030272454,  0.325555354, 
   0.244392574,  0.172072694, -0.222956017, -0.104911618, -0.107567787, 
   0.128618777,  0.047597814,  0.072292581, -0.212531120,  0.150565252, 
   0.078399375, -0.040390525,  0.026053362,  0.149485171,  0.131230533, 
   0.157443225,  0.193181485,  0.136528119,  0.067525245,  0.196438730, 
   0.040005289, -0.027589880,  0.087135352, -0.119435258, -0.203790933, 
  -0.034005873,  0.042402599,  0.091928564,  0.100253485, -0.157311395, 
  -0.210900426,  0.010532257, -0.081145525,  0.060437016,  0.203656420, 
  -0.079079971, -0.340205640,  0.059363633, -0.014478005, -0.019050654, 
   0.008888856,  0.113676026,  0.170854449,  0.199733168,  0.177925393, 
   0.093819454,  0.077561043,  0.055662669, -0.013955970, -0.037416939, 
   0.019411419, -0.085419424, -0.020810854,  0.030029068,  0.004539520, 
   0.117765218, -0.053399768, -0.342673182,  0.280881345, -0.023036074, 
   0.061509825,  0.067733288,  0.146380559,  0.121150926, -0.369937122, 
  -0.233546630, -0.199327812, -0.210648149, -0.234945551, -0.122585043, 
   0.228308141,  0.342241526,  0.335776120,  0.248644426,  0.076755218, 
   0.059547476,  0.074177369, -0.019702194,  0.021297913, -0.047057755, 
  -0.034439206, -0.201781139, -0.150815174,  0.177584291,  0.193688020, 
  -0.350802064, -0.453385741, -0.087451652,  0.069334768,  0.129923642, 
   0.216818348,  0.094531663, -0.225188464, -0.406580180, -0.395949811, 
  -0.278468251, -0.412842929, -0.569833279, -0.393618673, -0.104175739, 
  -0.070745133, -0.025048543, -0.003317417,  0.012648986,  0.032691583, 
   0.021660557,  0.091429137, -0.008002256, -0.097354352, -0.063752852, 
  -0.068888091,  0.201020092, -0.029289797,  0.109067298,  0.204967245, 
  -0.074864320,  0.127137646,  0.113466844,  0.155450478,  0.087849393, 
  -0.114598453, -0.416966051, -0.495597541, -0.461064816, -0.431715816, 
  -0.632581055, -0.627195239, -0.739240944, -0.462550581, -0.322674304, 
  -0.103612840, -0.033773258,  0.031788487,  0.000651223,  0.002359917, 
  -0.017721727,  0.075675346, -0.031677477, -0.047689222, -0.027458796, 
  -0.323253304,  0.129660040,  0.227407694,  0.030802196, -0.078235775, 
   0.199947134,  0.138014540,  0.275767595, -0.160340562, -0.095447995, 
  -0.290252388, -0.247658238, -0.373710781, -0.301980227, -0.439993292, 
  -0.493715703, -0.351266712, -0.224454090, -0.135139748, -0.098609671, 
   0.041681912, -0.066000178,  0.028767442, -0.037246391,  0.120073125, 
   0.083123237, -0.100785688,  0.036211520, -0.088510647, -0.120457135, 
  -0.079728149,  0.033178177, -0.003865354,  0.074675292,  0.288942486, 
   0.332442760,  0.016801061, -0.059632719, -0.051788349,  0.001767619, 
  -0.094484977,  0.079184778,  0.094212405, -0.046192653, -0.108712547, 
  -0.090740502, -0.075517200, -0.054182138, -0.059894297, -0.056839921, 
   0.040457089,  0.002719274,  0.070938684,  0.023017585, -0.128816724, 
  -0.033130717, -0.025212266, -0.456288844, -0.108575031, -0.035661910, 
   0.081521250,  0.084667481,  0.181403711,  0.266657323,  0.222705364, 
   0.097566932,  0.128858000,  0.134174153, -0.014023989, -0.039687332, 
   0.171515718,  0.179796800,  0.182014719, -0.009429755, -0.022045335, 
  -0.029654531, -0.075462438, -0.062043805, -0.003434449, -0.043618869, 
  -0.086975373,  0.020568041, -0.165655956, -0.233197391, -0.172892660, 
  -0.060948879,  0.047249738,  0.001446351, -0.059284061,  0.036084127, 
   0.134913012,  0.381055832,  0.262921363,  0.302970499,  0.116546161, 
   0.233860731,  0.130916655,  0.055093993,  0.113425672,  0.107884586, 
   0.028530676,  0.049909294, -0.000095801,  0.142684340, -0.050156642, 
  -0.028162569, -0.029956508, -0.104475088,  0.041681558, -0.124594800, 
  -0.157942414, -0.221753433, -0.225486025, -0.045521207, -0.010955533, 
  -0.077958807, -0.008678325,  0.055198766,  0.209835202,  0.407557696, 
   0.387733966,  0.300352454,  0.078165293,  0.129869491,  0.122508459, 
   0.071019657,  0.167861655,  0.160129860,  0.081900097,  0.050008357, 
   0.106029294,  0.051396053, -0.020294636, -0.117374271, -0.048232578, 
  -0.007303703, -0.005316724, -0.336828798, -0.178382665, -0.248733371, 
  -0.187278166, -0.063158289,  0.045344163, -0.079728201, -0.054875962, 
  -0.028808746, -0.041970842,  0.262657017,  0.374780804,  0.212498233, 
   0.140495360,  0.199816242,  0.145929992,  0.111216605,  0.215830356, 
   0.036196373,  0.052351672,  0.059830356,  0.002067905, -0.033151533, 
  -0.108216196, -0.036523663, -0.122518390, -0.062255993, -0.104794063, 
  -0.067415908,  0.013106702, -0.112722240, -0.218988195,  0.071986690, 
   0.028304590, -0.000154823, -0.058272362,  0.045329504,  0.013494602, 
   0.012372945,  0.358724922,  0.411320269,  0.141425550,  0.273632139, 
   0.104443133, -0.034486823,  0.003747689,  0.011103081,  0.107122339, 
   0.076149024,  0.046602540,  0.032384194,  0.060598329, -0.078131743, 
  -0.025464296, -0.045477975, -0.125725418, -0.095589273,  0.082636632, 
   0.158888489,  0.165804803,  0.132491484,  0.056271590,  0.038629971, 
   0.076741658, -0.012555175,  0.028838068,  0.008067170,  0.134811461, 
  -0.056129139,  0.003871228, -0.034332372, -0.085375443, -0.071500465, 
  -0.283563375, -0.225741386,  0.037345469,  0.107789285,  0.048860081, 
   0.065700583, -0.138972089, -0.078868426,  0.181528136,  0.226646945, 
   0.220639780,  0.141355857,  0.118068084, -0.035157707,  0.081949219, 
  -0.008633964,  0.019393131,  0.078635089, -0.015756920,  0.004832983, 
  -0.076931722, -0.054304585, -0.018795840,  0.034031533, -0.077487402, 
   0.035763916, -0.036904942, -0.049173988,  0.166819051,  0.104341194, 
   0.038967736,  0.150386706,  0.240914360, -0.004367367, -0.132341236, 
  -0.199696690, -0.025833951, -0.125825405,  0.099884003, -0.032642484, 
   0.001281867,  0.001647279, -0.078748986,  0.001877747, -0.041289955, 
  -0.042814039,  0.073197566,  0.057838671, -0.000832677, -0.045001853, 
  -0.016294181,  0.069294550,  0.039789721,  0.041499846, -0.014731556, 
   0.082777329,  0.000901185,  0.074629910,  0.003806346, -0.027549645, 
  -0.069533676, -0.037696041, -0.078307323, -0.023097627, -0.018947370, 
   0.056699984,  0.050240658, -0.042884469, -0.059996165, -0.039631486, 
  -0.080498829, -0.013254344,  0.008654013,  0.068726696,  0.043576218, 
   0.063337661, -0.000138037, -0.040067337, -0.014571389,  0.003005533, 
  -0.048464745, -0.098295391, -0.075201608, -0.009728613, -0.046059351, 
   0.078421436,  0.088705763, -0.047664791, -0.224559054, -0.100782089, 
  -0.044034198,  0.090533763, -0.005831782, -0.138244346, -0.305153936, 
  -0.078551441, -0.062484913, -0.124781393,  0.073949657,  0.054333113, 
  -0.016330466, -0.072756678,  0.004042163,  0.030217372, -0.009039274, 
  -0.115522668, -0.096990585,  0.055360585,  0.039215390, -0.106889047, 
   0.042740788,  0.195253834,  0.086313471,  0.187155589,  0.146248057, 
  -0.165499285,  0.160479411,  0.078791924, -0.102775000,  0.130448103, 
  -0.173242986, -0.271651506, -0.202455148,  0.096908167, -0.037804566, 
  -0.109905437, -0.020932015,  0.031206286, -0.069293402,  0.058794670, 
  -0.032579485, -0.021404639, -0.013838135, -0.057155523,  0.013106085, 
   0.107595570,  0.059942421,  0.048762124, -0.176342502, -0.016833954, 
  -0.056557178,  0.183618814,  0.094912097, -0.056504615,  0.052453682, 
  -0.019817276,  0.063736632, -0.152971715, -0.282870859, -0.087178461, 
   0.101037994,  0.165014341, -0.050606947, -0.138936937, -0.044371545, 
   0.000190247, -0.030515874,  0.034626558,  0.048347659,  0.071878292, 
  -0.031279080, -0.060231306, -0.100449018,  0.043289986,  0.164393321, 
   0.277163595,  0.073324084,  0.192005917,  0.042848039, -0.105025724, 
  -0.022709662, -0.018460955, -0.036398444,  0.014385985,  0.011623000, 
   0.210689962,  0.049007162,  0.066824965, -0.009285514,  0.161724210, 
   0.054913219,  0.039115097, -0.024168884,  0.039829358, -0.025259899, 
   0.122490630,  0.005772911,  0.077393539, -0.035650820, -0.047475543, 
   0.038572237, -0.065615319,  0.271648943, -0.033968378, -0.039790370, 
  -0.053492688, -0.179348260, -0.247035429, -0.317659378, -0.094161309, 
  -0.017892903, -0.085511521,  0.002662484,  0.135879844,  0.185157225, 
   0.084975392,  0.043434475,  0.130342498, -0.102960549,  0.014132135, 
   0.094022021,  0.182181552,  0.135557070,  0.040285692,  0.030674122, 
  -0.048431963,  0.040282089, -0.033625551,  0.180154204,  0.096644789, 
   0.013090929, -0.054691799, -0.098213032, -0.123830169, -0.181491613, 
  -0.283400506, -0.165414304, -0.185671628, -0.095391147, -0.099094041, 
  -0.163132355,  0.054899573,  0.070223615, -0.088056512, -0.030212021, 
   0.056885667,  0.016593233, -0.111877181, -0.291208684, -0.005576351, 
   0.006779512,  0.028656086, -0.048314109, -0.092340454,  0.032060560, 
  -0.156865731,  0.093636774, -0.049424004, -0.144343093, -0.232624054, 
  -0.121358342, -0.173000604, -0.160651565, -0.140123606, -0.067349963, 
  -0.093342073, -0.025156301, -0.135138258, -0.055876005,  0.061656423, 
  -0.058325376,  0.007259948,  0.018899046,  0.050991092,  0.092522301, 
  -0.066082776,  0.123378724,  0.078624986, -0.020114282,  0.032206886, 
  -0.083440103, -0.017981328,  0.092599884, -0.080109566, -0.112100691, 
  -0.177992120, -0.291928738, -0.312843502, -0.201668277,  0.009735635, 
  -0.117492750, -0.055119485, -0.119628273, -0.012430092, -0.010747306, 
  -0.032114327, -0.049696039, -0.002726762, -0.020351665,  0.063585691, 
   0.035925768,  0.034681600, -0.021656726, -0.043204382,  0.123018980, 
   0.080673166, -0.028504016, -0.067420490,  0.017152216, -0.157302111, 
  -0.036234207,  0.014714733, -0.170263782, -0.254770398, -0.093631633, 
  -0.142973617, -0.114851989,  0.046106860,  0.042078532,  0.021364404, 
  -0.024726573,  0.075937621,  0.020511867, -0.020043440,  0.007206163, 
   0.015104267,  0.035511188,  0.022870362, -0.044137113, -0.073602639, 
  -0.227061287, -0.181775510,  0.085620597, -0.136567563, -0.079249345, 
  -0.264912277, -0.077278413, -0.174596578, -0.121953972, -0.007076421, 
  -0.119423054, -0.074417628,  0.053895518,  0.028384771, -0.007528478, 
   0.080661334, -0.003123570, -0.005350291,  0.037668247, -0.059786089, 
  -0.049274277, -0.022623705, -0.062648639,  0.056304555, -0.000404808, 
   0.009041179, -0.038293470, -0.165565595, -0.189843759, -0.084974796, 
  -0.101050198, -0.093491279, -0.122657433, -0.256657481, -0.047648475, 
  -0.068905272, -0.162711933,  0.008298808, -0.191036806, -0.089545548, 
   0.053254139, -0.067062765,  0.088015936,  0.059391115, -0.046503037, 
   0.008078361, -0.134803981, -0.107008897, -0.039020095, -0.133032113, 
  -0.053021319,  0.021601083, -0.049157884, -0.024757681, -0.090862229, 
  -0.047792636, -0.240838096, -0.175248280, -0.276651651, -0.108366996, 
  -0.226034865, -0.284702420, -0.019618900,  0.043781247, -0.011929146, 
   0.045782950, -0.175170332, -0.028793182,  0.205169261,  0.106796280, 
   0.101376526,  0.101380721,  0.028435998,  0.049880289,  0.037079409, 
  -0.065674201, -0.059793804, -0.143312812, -0.086691387, -0.018151941, 
  -0.073692136, -0.000670948,  0.097547926,  0.075967848, -0.176847503, 
  -0.443848342, -0.315443963, -0.247638151, -0.322682887, -0.378718615, 
   0.015055843,  0.156959862, -0.286445975, -0.148487046, -0.187410221, 
  -0.071270987,  0.192894429,  0.152174622,  0.146486983,  0.130603626, 
   0.220616236,  0.151330754,  0.268090069,  0.089097194, -0.101395413, 
   0.020717354, -0.088529296,  0.114371315,  0.138710186,  0.094510972, 
  -0.071461350, -0.067368023, -0.153562233, -0.288374424, -0.128543869, 
  -0.013060186, -0.117823243,  0.138887063, -0.037633911,  0.010850401, 
  -0.103057854,  0.000929469, -0.119534053, -0.109018490,  0.143747121, 
   0.209422618,  0.228506938,  0.271322519,  0.185291916,  0.137740970, 
   0.065312527,  0.133913249,  0.052663598,  0.093036205,  0.058448691, 
   0.230577499,  0.100818284,  0.086305901, -0.192921281, -0.198518977, 
   0.018001135, -0.025568224, -0.008600773,  0.331919461, -0.040063784, 
   0.051090356,  0.050080888,  0.036475629,  0.198312849,  0.413050979, 
  -0.128439605, -0.078553908,  0.016448064,  0.079644680,  0.183027551, 
   0.211931840,  0.121869206,  0.102378763,  0.206319541,  0.094313927, 
  -0.030494552,  0.168916613,  0.193316445,  0.135491803,  0.056784093, 
  -0.033896029, -0.236638710, -0.163114488, -0.036021437, -0.097223006, 
  -0.130186275,  0.301571935,  0.294185907,  0.257189840,  0.066591717, 
  -0.206355855, -0.099065147,  0.116156556,  0.013636895,  0.012602506, 
   0.161485910,  0.222186774,  0.103994742,  0.094078556,  0.206746787, 
   0.200256616,  0.206774086,  0.068634696, -0.021771112,  0.165030032, 
   0.270279706,  0.092827804,  0.056132089, -0.096332587, -0.133153245, 
  -0.041408971,  0.097841732, -0.079870768,  0.015617434,  0.233107448, 
   0.115212314,  0.145755842, -0.004961915, -0.118634760,  0.044967692, 
   0.093740307,  0.023107905,  0.090857193,  0.103593491,  0.219509289, 
   0.284146577,  0.221022472,  0.222860500,  0.234414458,  0.078164458, 
   0.057285435,  0.063475400,  0.117501959,  0.246569797, -0.000381451, 
   0.025743410, -0.108762220, -0.205262676, -0.043188423,  0.134035185, 
   0.179406792, -0.075575367,  0.266346604,  0.198312879,  0.074782923, 
  -0.131300479, -0.079869442, -0.087868661,  0.292839468,  0.418476582, 
   0.108737290,  0.221367136,  0.143688098,  0.223369926,  0.100302197, 
   0.066428781,  0.005148504,  0.130936801,  0.060816910,  0.084200740, 
   0.156775862,  0.121645659, -0.037424821, -0.044039179,  0.059677131, 
  -0.023938065,  0.078635931,  0.153514639,  0.205574065,  0.044915400, 
   0.158288300,  0.108801745,  0.305551648, -0.034220282,  0.047770832, 
  -0.092051677,  0.213609993,  0.326753259,  0.116986960, -0.107343778, 
  -0.005291431,  0.073208749,  0.013154916,  0.061042886, -0.028155757, 
  -0.086745776,  0.030180553,  0.078319453,  0.096995793,  0.037148211, 
  -0.113188885,  0.087191604, -0.024977533, -0.082196318,  0.125503212, 
   0.207332268,  0.307181507,  0.116950460,  0.130074158,  0.478048027, 
   0.236027941, -0.038504686,  0.062225822,  0.087325469,  0.236353293, 
   0.318963975, -0.029734172, -0.189012244,  0.104247846, -0.042021081, 
   0.044713922, -0.073658839,  0.006403597, -0.046944380, -0.183169156, 
  -0.143460900, -0.052787047,  0.142025650,  0.069778308,  0.067983493, 
  -0.023142407, -0.006485784,  0.126127049, -0.006662119,  0.095779978, 
   0.196492106,  0.195842564,  0.072685905, -0.068227418, -0.028633587, 
  -0.031572390,  0.053640902,  0.093581177,  0.273058683,  0.057751767, 
  -0.109510206, -0.118642375, -0.022943592, -0.045119721, -0.078583457, 
  -0.132049799, -0.033694718, -0.100896731, -0.063044243, -0.174440533, 
   0.009402886,  0.009021117,  0.022417784,  0.002009201, -0.038884286, 
   0.182815984,  0.096203990,  0.040559698,  0.064775914, -0.007551827, 
  -0.137434781,  0.055700339,  0.013263948, -0.006210232,  0.008523527, 
   0.059016496, -0.009803443, -0.073546566, -0.106216192, -0.118271828, 
  -0.208559215, -0.241262123, -0.096338727, -0.196357086, -0.215922102, 
  -0.295719743, -0.239278466, -0.135708883, -0.058775354, -0.201530576, 
  -0.147777379,  0.072284847, -0.000950379,  0.231988192,  0.089266673, 
  -0.132706180, -0.019478915, -0.038508624, -0.087606549, -0.032080140, 
   0.066354416, -0.062407233, -0.103586905,  0.008633554, -0.053117260, 
  -0.202567950, -0.160964981, -0.107927077, -0.175450012, -0.257967055, 
  -0.237321600, -0.156038404, -0.294977278, -0.254145086, -0.282668382, 
  -0.124624461, -0.072077990, -0.178517088,  0.007255672,  0.036502305, 
   0.101995379,  0.000678341,  0.040641684, -0.061972536, -0.028351586, 
   0.060019393,  0.025648460, -0.001974531,  0.015646137,  0.074472673, 
  -0.134188116,  0.028770331,  0.135980174, -0.053609680,  0.063858867, 
  -0.146311000, -0.252140641, -0.160852164, -0.206435636, -0.228270411, 
  -0.271060377, -0.046799071, -0.161020249, -0.266461283, -0.163758233, 
  -0.054656398, -0.003797246,  0.070186459,  0.034337949,  0.037885591, 
   0.137480810, -0.056515224,  0.015096132,  0.256039858,  0.091182023, 
   0.064826883,  0.047231682,  0.017914727,  0.172685474, -0.173649341, 
  -0.117973790, -0.061851948, -0.162435666,  0.040638804,  0.047735345, 
  -0.002625580, -0.168791264, -0.004003086, -0.172229126, -0.082358658, 
  -0.128463328, -0.071629755,  0.050321367, -0.208076850, -0.033492345, 
  -0.062923901,  0.162482858,  0.122504428, -0.032815948, -0.059441779, 
  -0.240187660,  0.162141189,  0.240719557, -0.052091219,  0.030765131, 
   0.055272259,  0.059933610, -0.038310528,  0.138688520,  0.112134390, 
   0.137814254,  0.197542250,  0.038553938, -0.023666469, -0.183647618, 
  -0.031466752,  0.011181816, -0.012907888,  0.136068806,  0.094578154, 
   0.037359755, -0.218920752, -0.166979715, -0.167003453,  0.018834028, 
   0.160458416, -0.018540774,  0.158253327,  0.047257945,  0.041774537, 
   0.020166963, -0.072653338,  0.045035549, -0.078615882, -0.023800928, 
  -0.026831646, -0.056765877,  0.024361368, -0.087197453,  0.022024291, 
  -0.100024715,  0.044537827,  0.018082902,  0.148145482,  0.090409890, 
   0.019343833,  0.050699219,  0.095339783, -0.109378271, -0.059520368, 
   0.178656667, -0.002866703,  0.044771936, -0.093252987, -0.101032019, 
  -0.311514527, -0.031209882, -0.083153278, -0.076062992,  0.044864021, 
   0.031174727, -0.004696704, -0.019393928, -0.037780650,  0.032996543, 
   0.040075317,  0.001847006,  0.031289123, -0.023375686, -0.079300374, 
  -0.062429413, -0.026838325,  0.005396509, -0.072911754, -0.068504944, 
   0.022171738, -0.035124015, -0.022646695, -0.019569814, -0.060851887, 
   0.067574464,  0.068262525, -0.033185761,  0.025554173,  0.077694006, 
   0.048802055,  0.012733057, -0.006038874, -0.050925214,  0.040450059, 
   0.022906385, -0.014269032, -0.019763786, -0.005075867,  0.052561115, 
   0.043465164,  0.091267623,  0.096957870, -0.043562923, -0.135155857, 
  -0.156631708, -0.045916226,  0.181343883,  0.104476951,  0.085595079, 
   0.035458863, -0.156922832, -0.171165913,  0.002352684, -0.030532561, 
   0.030337289, -0.016406525, -0.048932791, -0.050345067, -0.063441321, 
   0.036757037,  0.000140704,  0.005500682,  0.030065913, -0.084675416, 
  -0.001998247,  0.042814571,  0.080694593,  0.002727323,  0.029274123, 
  -0.044757709,  0.160437495, -0.025104189, -0.046711855,  0.126227111, 
   0.023961490,  0.073255964,  0.314223737,  0.197502643,  0.173289016, 
   0.116339564,  0.184084684, -0.014755338,  0.048657116,  0.029482681, 
  -0.009218555, -0.025534537, -0.050261982,  0.078694738,  0.017004803, 
   0.010469995,  0.072031811, -0.002188195,  0.057499435,  0.022670357, 
  -0.016425291,  0.040135760,  0.206373021,  0.147180408,  0.114373952, 
  -0.068368897,  0.178782880,  0.164996773, -0.018732913,  0.221794516, 
   0.106249563,  0.052045308,  0.093611993,  0.187110335,  0.101772152, 
  -0.087445907, -0.140988290, -0.254585773, -0.101034008,  0.058141343, 
  -0.103952199,  0.010672651, -0.044491481, -0.047089469,  0.073073700, 
   0.040255640,  0.063552387,  0.051217955, -0.084509194, -0.102473475, 
   0.021787165, -0.118961491, -0.013818495,  0.064176813,  0.015543256, 
  -0.062092219, -0.139846325,  0.012346111, -0.020171216, -0.169957399, 
  -0.004861347, -0.154888794, -0.004975994, -0.039348468, -0.116186082, 
  -0.091451749,  0.105216123,  0.074418351,  0.042259570, -0.132968366, 
  -0.037681539, -0.034364320, -0.049007904,  0.013011063,  0.059121642, 
   0.152004272, -0.017077701, -0.219323382, -0.098782517,  0.018183444, 
   0.011171983,  0.008016019, -0.090349145, -0.063039802, -0.094599269, 
  -0.049588934, -0.121184394, -0.124929421, -0.151269153, -0.201305524, 
  -0.086956665,  0.069906205,  0.051389098,  0.015123600, -0.038715970, 
   0.006471143, -0.090335622, -0.074111365, -0.062532313,  0.076110907, 
  -0.013772849,  0.034041334,  0.051787004,  0.035750203,  0.024184050, 
  -0.116649181, -0.017129468,  0.105560757,  0.159359604,  0.164088339, 
   0.084110513,  0.050312731, -0.074662603, -0.063717715,  0.033262294, 
   0.061553404,  0.027156092,  0.057166126,  0.084691353,  0.081591994, 
  -0.003092318,  0.103368856,  0.172053754,  0.009191614,  0.143090129, 
   0.016051946,  0.055592097, -0.028220171, -0.074941017,  0.004743775, 
  -0.041591551, -0.167747244, -0.162836462, -0.248418599, -0.003398597, 
  -0.023535799,  0.094947249,  0.086911239,  0.088137366,  0.076486044, 
   0.125749633,  0.150155321,  0.074006923,  0.080263361,  0.093121409, 
   0.151038617,  0.165265366,  0.134413272,  0.106272437,  0.148516864, 
  -0.088601261, -0.115195088, -0.068764314,  0.012219839, -0.042581677, 
   0.062780105,  0.002224995, -0.080652118, -0.141604811, -0.206489354, 
  -0.170631796, -0.137553349, -0.178825378, -0.087834112,  0.051825043, 
   0.094565980,  0.119896576,  0.170975968,  0.207427785,  0.308723271, 
   0.136427283,  0.192898929,  0.105349958,  0.149943694,  0.183670312, 
   0.077140279,  0.169793487,  0.036510065,  0.094905302,  0.091299668, 
   0.078852460,  0.216581166,  0.037786461,  0.148564667,  0.074740939, 
   0.053251769, -0.077642143, -0.162981838,  0.094488479,  0.131360754, 
  -0.109646372,  0.013038934,  0.046495944,  0.001167192,  0.031478386, 
   0.074896581,  0.073208205,  0.188499942,  0.118009664,  0.114642754, 
   0.031972457,  0.010011127, -0.030009164,  0.106313534,  0.147468597, 
   0.027902106,  0.050032519,  0.120722771, -0.059994500,  0.161338255, 
   0.055692885,  0.067480236,  0.049509127,  0.028846122, -0.102167465, 
  -0.129595757,  0.053937122, -0.107817851,  0.057957951,  0.036226954, 
  -0.130721405, -0.100581892, -0.172877222, -0.073471129, -0.159658581, 
   0.013158461,  0.084125504, -0.084746882, -0.104406089, -0.194561318, 
  -0.046121351, -0.116446234,  0.052536409, -0.142207786, -0.141719162, 
   0.119833872,  0.148644656,  0.059673928, -0.014575636,  0.056621227, 
  -0.071600370,  0.003797445, -0.270450264, -0.176455170, -0.053466231, 
  -0.226568997, -0.030236077, -0.071300372, -0.099141538, -0.125216395, 
  -0.250387043, -0.180068612, -0.252988249, -0.091747515, -0.181110904, 
  -0.094517857, -0.014599740, -0.153480962, -0.182054356, -0.192497149, 
  -0.180585966, -0.102678612, -0.380985767, -0.153376371,  0.067025289, 
   0.107766055,  0.039765071, -0.086836264, -0.118694611, -0.109314471, 
  -0.198702917, -0.168301150, -0.092186250, -0.123726532, -0.114908338, 
  -0.066987865, -0.060515057, -0.196785226, -0.188638553, -0.170511231, 
  -0.041935116,  0.114059128, -0.052065764, -0.100387804, -0.020780751, 
  -0.217145219, -0.278153777, -0.335227728, -0.260569066, -0.256223649, 
  -0.529720426, -0.122782938,  0.039595421,  0.092072792, -0.016001988, 
  -0.116075888,  0.026507821, -0.061804254, -0.353359878, -0.066250391, 
  -0.023023995, -0.083352201,  0.009205718, -0.177417800, -0.161668599, 
  -0.169964969, -0.176635981, -0.048303202,  0.187566087,  0.160029754, 
   0.149595216,  0.165003732,  0.057477795, -0.060026046, -0.137740135, 
  -0.267179549, -0.363134921, -0.311272055, -0.321119308, -0.121115938, 
   0.008115143,  0.039962385,  0.083540291, -0.009521159,  0.104490355, 
   0.057299115, -0.089988120, -0.054208189,  0.160001770,  0.039782543, 
   0.042388868, -0.006388024, -0.072421461, -0.114807822, -0.081171311, 
  -0.006815074,  0.124859594,  0.197793216,  0.082019337,  0.085887954, 
   0.105037652, -0.025174048, -0.017191499, -0.159936428, -0.265030116, 
  -0.058494452, -0.154304817, -0.143362090,  0.000619003,  0.024229076, 
   0.052642711,  0.107613496, -0.009726136, -0.171482161,  0.144511342, 
   0.233604193,  0.221136928,  0.035404220,  0.007612550, -0.068030544, 
  -0.089711301, -0.125098363, -0.052769952,  0.027255330,  0.028679606, 
   0.089983284,  0.092266008,  0.056455981,  0.046000417,  0.040140375, 
  -0.046879511, -0.114361100, -0.310638130, -0.241273046, -0.215251222, 
  -0.127745792, -0.085538581, -0.032268304, -0.001927305,  0.046443641, 
   0.007922427, -0.047274154,  0.198628247,  0.171781391,  0.173979998, 
   0.116241276,  0.045258883, -0.019020872, -0.181596413, -0.085081816, 
  -0.003407953,  0.004275592, -0.028876249, -0.014513439,  0.020447658, 
   0.042844377,  0.015919188,  0.032976538,  0.032198422, -0.000122262, 
  -0.102597453, -0.344621330, -0.021425698, -0.108624294, -0.000100864, 
   0.002011903,  0.069631569,  0.034072258, -0.022990296, -0.049034070, 
   0.121385187,  0.114212334,  0.137834236,  0.033784967,  0.111988172, 
  -0.020217057, -0.129980162, -0.074633464, -0.072508432,  0.019035196, 
   0.089950629, -0.032265808, -0.030755335,  0.066393510,  0.067936718, 
   0.074372023,  0.123126477, -0.104268976, -0.290603042, -0.186312467, 
  -0.067898750,  0.143209085, -0.027703587,  0.019388696,  0.190268844, 
   0.031319275, -0.092485376, -0.058817200, -0.015112090,  0.076222084, 
  -0.007853794,  0.104165621,  0.185867041,  0.157039031,  0.065098844, 
   0.107549712, -0.051383197, -0.011061825,  0.004602314,  0.123500273, 
   0.037134390,  0.211332172, -0.066137351,  0.040399063,  0.000513073, 
  -0.093587384, -0.286472440, -0.123666927,  0.010419464,  0.086920962, 
   0.207555607,  0.122615226, -0.024150202, -0.048800249,  0.023866139, 
  -0.056908235,  0.054999776,  0.012370864,  0.014830157, -0.074249692, 
   0.163377792,  0.068893865,  0.168935120,  0.166243240,  0.034051269, 
   0.024371712,  0.056986980,  0.024390815,  0.132385805,  0.064718097, 
   0.002284311,  0.050408151,  0.181562439,  0.031795651, -0.076494172, 
   0.021573942,  0.302923262,  0.255325586, -0.019397361,  0.065681756, 
   0.071669318, -0.078912124, -0.158314690,  0.014606936, -0.021942029, 
   0.065298133, -0.057729624, -0.038159478, -0.061982770,  0.037981413, 
   0.089492649,  0.080146924,  0.025697665,  0.079688072,  0.073823318, 
   0.077919580,  0.063726224,  0.015417373,  0.089951597, -0.019153787, 
   0.041935597, -0.048544589,  0.037287150,  0.167082012,  0.268740714, 
   0.139810488, -0.022455558, -0.074193038,  0.122439504, -0.030322224, 
  -0.092266254,  0.024629114,  0.065341800,  0.043869868, -0.093957096, 
  -0.002519916, -0.056043081, -0.068581969,  0.016211616, -0.010203627, 
  -0.083968431, -0.100691803,  0.129886180,  0.049527578,  0.077829733, 
  -0.013658836,  0.079561867,  0.001125141, -0.028441586,  0.067492485, 
  -0.048754748,  0.025344182,  0.283500165,  0.278454840, -0.262460142, 
   0.047185495,  0.014734817,  0.071416371, -0.179738939, -0.166813582, 
   0.021511201,  0.269735426,  0.060972121, -0.050986860,  0.020072935, 
  -0.080362625, -0.190314591, -0.075900979, -0.080968574, -0.058641981, 
   0.110512719,  0.023225835, -0.022128800,  0.103082016, -0.026075173, 
   0.016203379,  0.099897385,  0.043267298, -0.007855084,  0.273181468, 
   0.329057276,  0.185712278, -0.018262165,  0.030692469, -0.023187671, 
  -0.070542455,  0.194575816,  0.023460273,  0.097270995,  0.046599895, 
   0.075320579, -0.019016787, -0.134451956, -0.137628749, -0.067950681, 
   0.009289949, -0.131892607, -0.100645371, -0.052649692, -0.033806086, 
   0.043391909, -0.061610125, -0.001331938, -0.021053281,  0.037456475, 
   0.089230008,  0.156595305,  0.185439885,  0.318095803,  0.220574290, 
   0.102856889, -0.030837849, -0.030543763,  0.058012135,  0.018889653, 
   0.108831957,  0.084174260,  0.103961661,  0.092970908,  0.078910269, 
  -0.172634214, -0.068732642, -0.021853775,  0.131602347, -0.027553746, 
  -0.085356712, -0.025898304, -0.048892558, -0.088496804, -0.019277552, 
  -0.035983205, -0.127401486,  0.026222354,  0.060955055,  0.106157288, 
   0.111212604,  0.026064195,  0.072611153,  0.030279828,  0.080897473, 
  -0.077927582,  0.055500470, -0.081548713, -0.074379668,  0.315062076, 
   0.273468584,  0.146506861,  0.083609633,  0.189326063,  0.273595601, 
   0.054747906, -0.010378710,  0.239273578,  0.070094727, -0.060293011, 
  -0.177169412, -0.015822528, -0.107276894,  0.060711894, -0.029078858, 
  -0.103708468,  0.050997388,  0.093879908,  0.131731093,  0.223640934, 
  -0.104085848, -0.007804364,  0.040564477,  0.023075163,  0.015206456, 
   0.073013283, -0.008123678, -0.073606953, -0.080955140, -0.000366992, 
   0.313630193,  0.240690410,  0.100673847,  0.075807959,  0.192626566, 
   0.151911646,  0.297569185,  0.026141372,  0.010614566,  0.184356198, 
   0.074845217,  0.112761058,  0.000500712,  0.025688531,  0.033859219, 
   0.040808681,  0.003090498, -0.023165699,  0.043618105,  0.032543384, 
   0.013095230, -0.018964037,  0.030919649,  0.038140394,  0.045697652, 
   0.098399796,  0.126204729,  0.100693315,  0.116126381,  0.128160521, 
   0.034224823,  0.188343003,  0.207500175,  0.117939226,  0.220454603, 
   0.051130541,  0.107839786,  0.083978385,  0.074330494, -0.035689130, 
  -0.082523584, -0.086782604, -0.184632137, -0.190430775,  0.080187880, 
   0.042447411, -0.034063578,  0.006461650, -0.050263103,  0.061252214, 
   0.024988689,  0.061609320, -0.030735388,  0.059807189, -0.014256537, 
   0.010319263, -0.052739166,  0.053600200,  0.057013698,  0.026069865, 
   0.016602084, -0.032355189,  0.013417940,  0.079320408,  0.043856330, 
  -0.057207711,  0.041862421, -0.060583171, -0.051549055, -0.040506415, 
   0.039076887, -0.032968286, -0.016441770, -0.076193586, -0.051286399, 
  -0.037636537, -0.027883317, -0.047493760, -0.004596055,  0.013113074, 
  -0.069460556,  0.032996107, -0.056608371,  0.072361141,  0.011941985, 
   0.030184580,  0.089268580,  0.083606005, -0.000214444, -0.123647302, 
   0.017633026, -0.010436032,  0.026894936, -0.078486025,  0.014072542, 
  -0.067938499, -0.075161576, -0.036839090, -0.055790354, -0.059921529, 
  -0.055440981, -0.043269262, -0.061717309, -0.035744227,  0.061529957, 
   0.059582852,  0.052253298, -0.018392622, -0.072197556,  0.040431120, 
   0.043075349, -0.071355507,  0.049318045, -0.176761806, -0.160779163, 
  -0.036394849,  0.074882291, -0.004404800,  0.020840080, -0.020283546, 
   0.160701275,  0.144512057,  0.258391976,  0.067655519,  0.084462166, 
   0.217250153,  0.076689251,  0.107423283,  0.103667893, -0.029343693, 
  -0.005337358, -0.049494445, -0.007961221, -0.030713849, -0.034737557, 
   0.043291308,  0.058114287, -0.061054327,  0.112869084,  0.023552274, 
   0.068855435,  0.299613237,  0.211111829,  0.151094556,  0.029955585, 
   0.118734561,  0.059615608, -0.032983698,  0.182692245,  0.031568047, 
  -0.015828945,  0.064875588,  0.050814241,  0.190655187, -0.057691686, 
  -0.232229516, -0.201176539,  0.190478861, -0.084157795, -0.083888553, 
  -0.029799573,  0.010418333,  0.031337366, -0.015861753,  0.108086690, 
   0.103908740,  0.136949494,  0.077478372,  0.173821971,  0.246120065, 
   0.173707157,  0.115907669,  0.279174626,  0.161271691,  0.002357348, 
  -0.042249456,  0.205147326,  0.056046620,  0.017784070,  0.111123025, 
   0.046347354,  0.007723663,  0.029904205, -0.024739238, -0.244284362, 
  -0.049924396,  0.008210232,  0.021565789, -0.045441426,  0.002441652, 
  -0.010987468, -0.021030182,  0.132480249, -0.038912889,  0.149326637, 
   0.125217348, -0.001755408,  0.054228801, -0.025102364,  0.002871931, 
   0.181097448, -0.009238690,  0.084947400, -0.035673629,  0.081706293, 
   0.025563192,  0.116443619,  0.052937556,  0.058058362, -0.033339050, 
  -0.068363525,  0.066265948, -0.158809721, -0.175357714,  0.042305443, 
   0.175666571, -0.013081405, -0.048782881,  0.080806740, -0.048621528, 
  -0.023454012, -0.005679008, -0.002230189,  0.143782958,  0.000004014, 
   0.077638052, -0.029466258, -0.005534553,  0.050640397,  0.043251242, 
   0.092639260, -0.051352188, -0.046711281,  0.031645309,  0.150236994, 
   0.032459214, -0.060269181, -0.011073108,  0.048746239, -0.110058844, 
  -0.045918692, -0.021569869,  0.076054953,  0.103581801,  0.007901163, 
   0.035849132,  0.025843734, -0.107083857, -0.025526531, -0.052072078, 
   0.095693022, -0.053639501,  0.020185200, -0.016929165, -0.075134479, 
   0.025974808, -0.015759137,  0.098517992, -0.031123254,  0.110547855, 
   0.074826710,  0.007029957, -0.011871958,  0.018065790, -0.001171393, 
   0.116556309,  0.006221611, -0.166970357, -0.144379020, -0.068312608, 
   0.123349853,  0.019539125,  0.048921410,  0.000597835, -0.046148639, 
  -0.115634754, -0.146859556, -0.132904828, -0.016529469, -0.086026229, 
  -0.066240542, -0.013310504, -0.019944020,  0.150632739,  0.017040897, 
   0.148079306,  0.080248579,  0.051053349, -0.044623677, -0.091141507, 
  -0.046744339, -0.015730843, -0.009049303,  0.005200607,  0.069696538, 
   0.035857197, -0.004593254, -0.032573957,  0.270116895,  0.101291604, 
   0.157968178, -0.041432690, -0.013380158, -0.124058954, -0.067295730, 
   0.048627272,  0.098088078,  0.033554628,  0.089120917,  0.030099850, 
  -0.021414768,  0.050791901,  0.037600707,  0.044646755,  0.047846284, 
  -0.058396641, -0.027559407, -0.011945060, -0.110105000, -0.115386203, 
  -0.112009324, -0.163823962,  0.039425913,  0.076343104,  0.191560075, 
  -0.015800452,  0.199833810,  0.110037871,  0.007448665, -0.047911696, 
  -0.045290973, -0.114297234,  0.087507017,  0.023480371,  0.118982539, 
  -0.024982600,  0.030112658,  0.194200963, -0.028504089, -0.005063497, 
   0.034743182, -0.009783724,  0.040518474,  0.044694986, -0.077954926, 
  -0.022830747, -0.132721663, -0.088523611, -0.039703216, -0.057372507, 
  -0.137848616,  0.035346132, -0.141859353, -0.244246170,  0.053589880, 
   0.190090269, -0.035258055, -0.048337035, -0.031957369, -0.005270568, 
  -0.055301998,  0.243839547,  0.018356970, -0.205797985, -0.043218266, 
  -0.084243812,  0.037449084,  0.051763032,  0.017963577,  0.057471354, 
   0.138959482,  0.085283168, -0.035067201,  0.086081430,  0.026864022, 
   0.019378981, -0.099798918, -0.077706710, -0.151604027, -0.153495476, 
  -0.220888972, -0.405638665, -0.252258182,  0.108384266,  0.153027818, 
  -0.030775957, -0.008104279,  0.036046732, -0.096809320,  0.176885024, 
   0.012814516, -0.047692504,  0.034969907,  0.032342892,  0.106677182, 
  -0.011035102,  0.051800352,  0.096680149,  0.057591252,  0.075090453, 
  -0.024751483,  0.052417833,  0.038630228,  0.001393974, -0.066438571, 
   0.069456041, -0.057284433, -0.047643684, -0.167392105, -0.634422660, 
  -0.371604711,  0.005030969,  0.110231422, -0.009819809, -0.012501098, 
  -0.087007232, -0.063884735,  0.075935692,  0.012910504,  0.031654965, 
   0.005066166,  0.063664362,  0.037223503,  0.090073943,  0.042652581, 
   0.126954481, -0.063742273,  0.118536554, -0.043727137,  0.072900802, 
   0.047633421, -0.059696265, -0.043288745,  0.072956681,  0.081771389, 
   0.029396249,  0.024255110, -0.156886593, -0.281685501,  0.032029130, 
  -0.087169640,  0.135549605,  0.004431066,  0.017504191,  0.082914107, 
  -0.103066668, -0.175629318, -0.148880646,  0.004205089, -0.008258311, 
   0.134983137, -0.040433254, -0.050159901, -0.001137215, -0.062096164, 
   0.058574948, -0.040544391,  0.010124690, -0.073178194, -0.088634953, 
   0.011196168,  0.001234476,  0.078846522,  0.169499874,  0.227962494, 
   0.098637678, -0.004501454, -0.025662770, -0.048954226, -0.007616788, 
   0.168172807,  0.045414742,  0.000106982,  0.051994927, -0.151549816, 
  -0.203100756, -0.324689686, -0.148844853, -0.090181619, -0.019028038, 
  -0.033831324,  0.064279579,  0.104973391, -0.006184046, -0.100888297, 
  -0.066035628,  0.025546486, -0.027083479,  0.043260630, -0.012466710, 
   0.198979959,  0.215523422,  0.255984455,  0.176146239,  0.047691587, 
   0.154248953,  0.055540953, -0.135341391,  0.024053283,  0.219334230, 
   0.323972702,  0.107094571, -0.202037916, -0.263758540, -0.377183855, 
  -0.422102243, -0.447161496, -0.204889819, -0.181820095, -0.143263951, 
  -0.041429542, -0.072673202, -0.046285555, -0.082526445, -0.056464363, 
   0.046167541,  0.049749553,  0.041362733,  0.110890605,  0.209803715, 
   0.197125733,  0.204212934, -0.051743649, -0.127428427, -0.118579485, 
   0.040282264,  0.036535654,  0.075344242,  0.432533920,  0.033488601, 
  -0.065773897, -0.120844744, -0.292712390, -0.286708921, -0.452481896, 
  -0.672589123, -0.516011536, -0.502996922, -0.495402932, -0.211536720, 
  -0.114058577, -0.116962284,  0.007941698,  0.010121862,  0.019531691, 
   0.087794594,  0.192602217,  0.073956363,  0.006762012,  0.097341105, 
  -0.003282070, -0.124913886, -0.103072390,  0.117963158,  0.001801383, 
   0.168194473,  0.605254173,  0.191856712,  0.038798399,  0.026898213, 
  -0.131202087, -0.275569767, -0.235636711, -0.325853735, -0.456645936, 
  -0.592990696, -0.432117283, -0.022364983, -0.044792663, -0.013723110, 
   0.014481179, -0.046785399,  0.133058116,  0.023551809,  0.215530977, 
   0.066312045, -0.053333424,  0.087761566, -0.048443832, -0.092380874, 
  -0.051860273, -0.031438563,  0.000161091,  0.028418098,  0.390503168, 
   0.232416421,  0.051003970,  0.138459325, -0.014111442,  0.080405787, 
  -0.093137547, -0.090963349, -0.008172441,  0.032907851, -0.017296817, 
   0.039335683,  0.068593308,  0.088778757, -0.058528755,  0.072114959, 
   0.057727501,  0.059373781,  0.107625097,  0.049282484,  0.107048661, 
   0.087723874, -0.146416396, -0.099726111, -0.093647130, -0.007763423, 
  -0.031174054, -0.117465504,  0.253912956,  0.059587143,  0.140638694, 
   0.104045168,  0.127066582,  0.212316453,  0.207110330,  0.115030989, 
   0.106174976,  0.188667208,  0.179439083,  0.047867410,  0.067460969, 
   0.066837341,  0.117903560,  0.169178307, -0.052782882, -0.004182140, 
  -0.002302436,  0.151007622,  0.180143461,  0.016549947, -0.178291887, 
  -0.025303420, -0.044421475, -0.042012565, -0.061538752, -0.069994524, 
  -0.014574730,  0.170330808,  0.039007731,  0.078101300,  0.184925199, 
   0.256960362,  0.185048625,  0.170225427,  0.142167106,  0.299814165, 
   0.162142634,  0.010921783,  0.107938386,  0.014917851, -0.070619233, 
   0.032877535, -0.057359770,  0.045892656,  0.147166863,  0.045587108, 
   0.079128996, -0.128899843, -0.183914617, -0.161922455, -0.044967417, 
   0.029701341, -0.005005027, -0.055884510,  0.048538491, -0.066461347, 
   0.052870251, -0.068885624,  0.000622667,  0.029533224,  0.122346081, 
   0.185164124,  0.172687069,  0.178156585,  0.078350618,  0.074814200, 
   0.053881738, -0.024496751,  0.054612949,  0.001849113,  0.007611218, 
   0.007203069, -0.066356450,  0.129416004,  0.142021492, -0.184866667, 
  -0.077727959,  0.013570827, -0.078568846,  0.058020137, -0.034550868, 
   0.140036926,  0.299990445,  0.102785975,  0.021343650, -0.008912545, 
   0.032347161,  0.075365141,  0.030210573,  0.074729487,  0.185795248, 
   0.030877342,  0.028517941, -0.131453454,  0.091168843,  0.020303963, 
   0.046099439,  0.027217807, -0.126647174, -0.037426937, -0.133424968, 
  -0.034271397,  0.007657432, -0.071917571, -0.148477569,  0.153849691, 
  -0.055711426, -0.060593657, -0.064506471, -0.039515793,  0.106664158, 
  -0.009092113,  0.048708845,  0.009080883,  0.189610019,  0.074668556, 
   0.052500091, -0.032068923,  0.012368825, -0.051192608,  0.018328123, 
  -0.045016952,  0.035364766,  0.068176717,  0.159039035, -0.066375993, 
  -0.218197405, -0.071392134, -0.096023127, -0.202764794, -0.059076812, 
  -0.243176445,  0.067696370,  0.071601361, -0.030800726, -0.007112287, 
  -0.067644134,  0.031569052,  0.077512704,  0.106441654,  0.255336791, 
   0.133640990,  0.094950140,  0.038866449, -0.010856951,  0.009074979, 
   0.035578340,  0.018878469,  0.059805550, -0.079861939,  0.012234496, 
   0.025297886, -0.010842537, -0.162756145, -0.192282379, -0.172503307, 
  -0.233311787, -0.185981944, -0.151425228, -0.008592911,  0.078343637, 
   0.012463704,  0.045363925, -0.073673747, -0.031282563, -0.022160508, 
  -0.090515688,  0.097421207,  0.007056628,  0.152202994, -0.089349791, 
  -0.033778243, -0.000889522,  0.338050723,  0.155847147, -0.075223938, 
  -0.097074606,  0.257896125,  0.267649829, -0.015241452, -0.024148576, 
  -0.092063822,  0.028037146,  0.137385219,  0.053448956, -0.001547131, 
   0.126289412,  0.005860142,  0.006702468, -0.043354012, -0.084041022, 
  -0.038454570,  0.030618005,  0.059370242, -0.024706982,  0.065115102, 
  -0.106046826, -0.061417203, -0.044115137, -0.029643614, -0.282462299, 
  -0.039249387, -0.161869153, -0.108469911, -0.130254626, -0.024957955, 
  -0.011551522, -0.023768036, -0.135414109, -0.120927379, -0.125388041, 
   0.013583188,  0.039606918,  0.047112238, -0.009723119, -0.027968191, 
   0.018761523, -0.072419301,  0.022889741,  0.041646414, -0.019897044, 
  -0.023185525,  0.035438731,  0.064293288, -0.007367805, -0.023725402, 
  -0.015529074, -0.031416349, -0.056514237,  0.075988747, -0.059494678, 
   0.076536290, -0.046563461, -0.049604807,  0.026792856, -0.035861608, 
  -0.054927364, -0.059011016,  0.054510824,  0.043461241,  0.068506517, 
   0.025950015, -0.001824662,  0.053188734,  0.081151672,  0.079123728, 
  -0.049009301, -0.027813688,  0.016285762, -0.039729111, -0.001931958, 
  -0.026537403,  0.013688907, -0.011331026,  0.045793660,  0.083733976, 
  -0.021531604, -0.078373708, -0.095024467,  0.014288669, -0.020469332, 
  -0.102619044,  0.045726754, -0.004429918,  0.076370209,  0.116668962, 
   0.177791640,  0.124358416,  0.125125721,  0.052366134, -0.021743750, 
  -0.068291724,  0.053198136, -0.013864867,  0.063651614, -0.080424942, 
  -0.019314311,  0.055831559,  0.203190878,  0.098490611,  0.015532997, 
   0.236782610, -0.019190673,  0.017847998, -0.137114674, -0.281585425, 
  -0.191589996, -0.037242971, -0.010805665, -0.074625522, -0.017819954, 
   0.069216646,  0.012489587,  0.043561779, -0.000110843,  0.078984387, 
   0.019521402,  0.077779107,  0.159870625, -0.136941060,  0.012244430, 
  -0.010119580,  0.019837722, -0.042374399,  0.072575964,  0.047999095, 
   0.221419558,  0.051398322,  0.008247617,  0.013493592, -0.074945606, 
   0.036849685,  0.134676486,  0.188410491, -0.005397926,  0.056807540, 
  -0.005389965,  0.133509353,  0.105342954,  0.106456593,  0.097846821, 
   0.278915524,  0.048316255,  0.251722634,  0.200836867,  0.036973320, 
   0.045350723,  0.070607096,  0.092254654,  0.020326015,  0.000210151, 
  -0.079083301, -0.069304906, -0.086523727, -0.161043957, -0.079151928, 
  -0.136016130, -0.054675307,  0.193686351, -0.165365010, -0.204013541, 
  -0.016830627, -0.022730991,  0.083220616, -0.004815171,  0.065017052, 
   0.100382693,  0.043555062, -0.012605462,  0.033532124,  0.019351615, 
  -0.029272577,  0.125989780,  0.083795011, -0.002505107,  0.338622063, 
   0.146119326,  0.213306904, -0.022431504,  0.083050899,  0.047767647, 
  -0.030845147, -0.071523331, -0.109399848, -0.150112495, -0.002198406, 
  -0.105448551, -0.311685711, -0.239692032, -0.078395590, -0.122583643, 
   0.103388906,  0.176818445,  0.041321445, -0.056455016,  0.011191506, 
   0.128783613, -0.037744623,  0.027636720,  0.017213708, -0.030313183, 
   0.058666456, -0.177859396, -0.145559296,  0.107533433,  0.261610687, 
  -0.090740144,  0.011169851,  0.087870441,  0.156439304, -0.049499966, 
  -0.188464850, -0.133288145, -0.108998857, -0.082442068, -0.146058992, 
  -0.158799201, -0.062803827, -0.176694483,  0.057885762, -0.002930133, 
   0.010567578,  0.055757795,  0.067455970,  0.000644271, -0.059781902, 
   0.001976843,  0.121279165, -0.152683839, -0.041203722,  0.155420572, 
   0.159958452,  0.246582478,  0.152625427,  0.012447894, -0.056095954, 
  -0.109731950,  0.109597422,  0.200009793, -0.170796305, -0.170102030, 
  -0.169817969, -0.111576207, -0.134112716, -0.187399879, -0.080228485, 
   0.041136920, -0.077252880, -0.002275317, -0.061675005,  0.047246724, 
   0.019817058,  0.005009421, -0.053141307, -0.018663188, -0.070109591, 
  -0.115850769, -0.063011006,  0.132765085,  0.140924498,  0.301785886, 
   0.093433343, -0.065993458,  0.050164171, -0.128141120,  0.024481870, 
   0.161255181, -0.053399686, -0.058353398,  0.168777674, -0.016444223, 
  -0.101485588, -0.052249070, -0.104262993,  0.085456960, -0.005300499, 
  -0.033201728,  0.042828020, -0.065880969,  0.003432796, -0.013338513, 
   0.094228655, -0.071870819,  0.028844828, -0.067593127, -0.022460982, 
  -0.024755156,  0.216332391,  0.258891553,  0.131532550,  0.180724815, 
   0.056319900, -0.283000261, -0.035362244, -0.072211005, -0.125289068, 
   0.014533571, -0.009676444, -0.083341055, -0.198814198, -0.128662333, 
  -0.090958036,  0.100525282,  0.095592052, -0.009073296,  0.087452054, 
  -0.079327665, -0.030014742, -0.052438881, -0.047887918,  0.107519098, 
   0.019047031, -0.036902104, -0.002794666,  0.098258041,  0.139200106, 
   0.274608046,  0.161372125, -0.167995349, -0.018916249, -0.095644072, 
   0.055617921, -0.019847346, -0.116671965,  0.091211267, -0.051708456, 
  -0.064647317, -0.210155591, -0.164840251, -0.024887031,  0.132684052, 
   0.166268036,  0.037887901,  0.109886236,  0.104445390,  0.004854634, 
  -0.086998224,  0.000421626, -0.027027899,  0.071363434, -0.006345224, 
   0.166448534,  0.241949409,  0.148381040,  0.054376595,  0.103371322, 
  -0.106503412,  0.009166777,  0.014109933,  0.058798958, -0.089635558, 
   0.049331974,  0.039619911, -0.008632026, -0.111974649, -0.312832385, 
  -0.105559982, -0.188601807, -0.055625495,  0.102164343,  0.076205865, 
   0.118705921,  0.119861320,  0.159146219,  0.051316354,  0.088587917, 
  -0.114834458, -0.033689763,  0.019205663,  0.050027091,  0.316245019, 
   0.251893491,  0.230698645,  0.417457730, -0.063909560, -0.023206826, 
   0.100131467, -0.309759378, -0.064272188,  0.160867676,  0.162880406, 
   0.062761694, -0.230772644, -0.254796237, -0.036854092, -0.061481439, 
  -0.095757157, -0.177210808,  0.051208444,  0.230147466,  0.235421121, 
   0.124634728,  0.090739600,  0.058220603,  0.044343267, -0.075551935, 
  -0.145776853,  0.011262637,  0.171355024,  0.291000605, -0.016256267, 
   0.284440994, -0.182518899, -0.012865977,  0.173334956, -0.312259853, 
  -0.002696972,  0.033911966,  0.022953514, -0.126275107, -0.165476501, 
  -0.093113363, -0.048964862, -0.099331193, -0.157317072,  0.082208604, 
   0.097474210,  0.147246197,  0.140489846,  0.108965576, -0.027149487, 
  -0.028068891, -0.121596590, -0.074246921, -0.142538801, -0.190325379, 
   0.088723287,  0.007456332,  0.082862608,  0.091080956, -0.065327793, 
   0.108099908,  0.150420427, -0.103418991, -0.061293233,  0.100727238, 
   0.088068120, -0.230826035, -0.190190911, -0.224835306, -0.063705154, 
  -0.092863463, -0.035086069,  0.018270491,  0.109052986,  0.128414944, 
   0.123220056, -0.014871099, -0.052248381, -0.034675680, -0.173187211, 
  -0.137630671,  0.000090039, -0.083226457, -0.025353994,  0.036654029, 
   0.072940879, -0.058885284,  0.040922772,  0.122958444,  0.042607408, 
  -0.030137964, -0.202100679,  0.248464152,  0.229197323, -0.009235614, 
   0.028389005, -0.041223079, -0.221399784, -0.180706501, -0.108280532, 
   0.014544975,  0.047552649,  0.076013520, -0.033875588, -0.008996415, 
  -0.020427175,  0.024170460, -0.051480941, -0.085239753, -0.362764031, 
  -0.223380864, -0.052606639, -0.018566187, -0.010320372, -0.385048062, 
  -0.081801213, -0.081139147,  0.037900541,  0.038390115, -0.063054547, 
   0.302025318,  0.225207254,  0.148104399,  0.043982085, -0.109304249, 
  -0.174638405, -0.242051482, -0.208831489, -0.096237704, -0.165191412, 
  -0.025570946,  0.089782469,  0.075021170,  0.040127467,  0.083154194, 
   0.086901978,  0.012203898, -0.484260470, -0.323311180, -0.147364706, 
  -0.072089732,  0.125453398, -0.124720231,  0.011799175,  0.067715131, 
   0.009746806, -0.030811483,  0.019865271,  0.264817089,  0.282182783, 
   0.185383856,  0.220189258, -0.024264488,  0.017603016, -0.153427660, 
  -0.079525344, -0.052217044, -0.132753134, -0.175724566,  0.011163335, 
   0.111708194,  0.268452436,  0.025555588,  0.136291385, -0.042823866, 
  -0.633560002, -0.515739083, -0.146760121,  0.012137433, -0.150327399, 
  -0.109186463,  0.025894111,  0.061768834,  0.015263222,  0.098903678, 
  -0.005326017,  0.144765511,  0.324695796,  0.273389757,  0.109610021, 
   0.088908710,  0.079706810,  0.080443606,  0.047361482, -0.117226087, 
  -0.093147211, -0.052594982,  0.092539012,  0.278918952,  0.196220666, 
   0.036417902, -0.112396643, -0.339719206, -0.583604813, -0.283601344, 
  -0.200683445,  0.040908534, -0.053930435, -0.109639585, -0.185986415, 
   0.026533715,  0.125686616, -0.080193877,  0.026932405,  0.104715884, 
   0.216781899,  0.112114899,  0.108095996,  0.184627548,  0.054502383, 
   0.176576987,  0.101481430, -0.071879394,  0.000121625,  0.050033685, 
   0.148749188,  0.168711916,  0.237202838,  0.116504990, -0.151898101, 
  -0.337015331, -0.438941866, -0.300931901, -0.070534788,  0.164471403, 
   0.089605756, -0.156142995, -0.100154877,  0.057750620,  0.140754864, 
  -0.211832762, -0.182700232, -0.012434270,  0.079439156,  0.106001809, 
   0.121664003,  0.029765135,  0.073665462,  0.154773831,  0.037126888, 
   0.066825218,  0.121992052, -0.023341550,  0.009025675,  0.015393407, 
   0.073023908, -0.084195837, -0.294584632, -0.440314382, -0.374109924, 
  -0.265672356, -0.269078881, -0.236620232, -0.133173138, -0.145238593, 
  -0.028547375, -0.034155484, -0.010092952, -0.226293385, -0.139796868, 
  -0.091084965, -0.136709124,  0.170915589, -0.009177268,  0.055983182, 
  -0.028023811,  0.025208302,  0.051570226,  0.185014606,  0.027440583, 
   0.057433188, -0.030118642,  0.003951145, -0.061686110, -0.245658994, 
  -0.442609906, -0.460302144, -0.468449831, -0.280752003, -0.131694883, 
  -0.299421281, -0.031828523,  0.120599732,  0.078883119, -0.147756130, 
  -0.082753979,  0.001839706,  0.052858096, -0.065166242, -0.128021508, 
   0.069834359,  0.048358694, -0.092269011, -0.087352589,  0.052079923, 
   0.190587521,  0.151896015,  0.136134937,  0.019558564,  0.017892230, 
  -0.107136868, -0.332191020, -0.609774351, -0.627964199, -0.566251516, 
  -0.419385225, -0.277501792, -0.035499331, -0.133582696,  0.025455236, 
   0.066308767, -0.049700227,  0.028383180,  0.009449050,  0.193013459, 
   0.178656623, -0.003244774, -0.021986203, -0.151213959, -0.020752944, 
   0.055820871,  0.034803048, -0.030188752, -0.054829992,  0.023525057, 
   0.104439430,  0.009240380, -0.073790267, -0.258328378, -0.668673813, 
  -0.461939484, -0.322325855, -0.182510808, -0.219352946, -0.208659947, 
  -0.115398638, -0.179787278, -0.126261234, -0.276143074, -0.038717691, 
   0.069602408, -0.075675972,  0.048198234, -0.092150725, -0.182521880, 
  -0.055656664, -0.035006136, -0.133877039, -0.033954207, -0.018458312, 
  -0.121668346, -0.078296289, -0.038142215, -0.031916078, -0.155936256, 
  -0.171769962, -0.218219444, -0.362856328, -0.155708984, -0.278821051, 
  -0.088579610, -0.141862869, -0.127864063, -0.180781350, -0.208728388, 
  -0.197429091, -0.062279046,  0.032952182, -0.029275019,  0.045697875, 
   0.075882420, -0.136408642, -0.227425456, -0.257298589, -0.112859331, 
   0.016976807, -0.112616941,  0.047614641,  0.027421517, -0.203424364, 
  -0.445108086, -0.174295768, -0.262490213, -0.188219786, -0.090635709, 
   0.114130475, -0.107657403,  0.156993106,  0.267459869, -0.198614419, 
  -0.131130993, -0.191771626, -0.220805466,  0.002098091, -0.004368469, 
   0.018185712,  0.065665610, -0.043724887, -0.017264836,  0.016659141, 
   0.016141936, -0.129087314, -0.032394733, -0.225093558, -0.253579766, 
  -0.161521241, -0.007344863,  0.074890397, -0.248786673, -0.314084262, 
  -0.175256208, -0.171287015,  0.016312681, -0.190770343,  0.022402966, 
  -0.012966884, -0.022489745,  0.145273507,  0.125594631,  0.015208388, 
  -0.058366276,  0.000506280,  0.009511560, -0.043041982, -0.070038877, 
  -0.033603620, -0.063950449, -0.057233803, -0.060322691,  0.030496525, 
  -0.130486161, -0.122095041, -0.136168465, -0.208544582, -0.265151858, 
  -0.242850840, -0.143211767, -0.073788196,  0.142308414, -0.080363616, 
   0.061423216, -0.080838926, -0.042949159,  0.016330101, -0.041460700, 
   0.075062521, -0.014583752, -0.000862740, -0.036702044,  0.079648562, 
   0.065162875, -0.032970913,  0.022013545,  0.019310325,  0.056967951, 
  -0.084010839,  0.010327809, -0.029328585,  0.067868166,  0.040252320, 
   0.080688007,  0.035470322, -0.026722688, -0.067355007,  0.049912047, 
   0.019842353,  0.077025414,  0.038295038, -0.084026404, -0.036513411, 
  -0.014617443, -0.001369357,  0.001076363, -0.027509857, -0.019672453, 
  -0.070646055, -0.068385065, -0.035427824, -0.020552777,  0.003477134, 
  -0.040938396, -0.043368090, -0.067605995, -0.020541966,  0.044450458, 
   0.052644588,  0.081318721, -0.010579752,  0.048573114, -0.018109256, 
  -0.005186212,  0.050036542, -0.026715286, -0.044502679, -0.115992837, 
   0.040898405,  0.186759129,  0.237233981,  0.075499058,  0.086111829, 
   0.007467634,  0.053223133,  0.113714665,  0.071109265,  0.032158256, 
   0.073624678, -0.007105991,  0.045038991,  0.048604958, -0.013086542, 
   0.021442549, -0.169550329, -0.093039751, -0.043869592,  0.006697371, 
   0.031271804,  0.180486426,  0.305356950,  0.319443762,  0.337809831, 
   0.128207520, -0.021550920,  0.242036760,  0.029975630,  0.022769066, 
   0.054829877, -0.044104889, -0.122838035, -0.109369628,  0.012675514, 
   0.088225678,  0.141796246,  0.304378718,  0.071341351,  0.079143889, 
   0.050444432, -0.056329012,  0.043490566,  0.030285446, -0.081876963, 
   0.031055430,  0.093538314,  0.338821948,  0.263073266,  0.073231146, 
   0.123494029,  0.056548774,  0.124080017,  0.004165221, -0.075090349, 
   0.141093478,  0.112353317,  0.178180039,  0.012511102,  0.094400838, 
   0.116160437, -0.045155130, -0.021479078, -0.073426940, -0.239633679, 
  -0.009701083, -0.073281594,  0.142883465, -0.001310095,  0.026775591, 
   0.069004998, -0.042126287, -0.057268366,  0.069380052,  0.065685347, 
   0.069218583,  0.147123978,  0.007915996,  0.131982729,  0.174355760, 
  -0.041777119,  0.050233744, -0.009612523,  0.056894436, -0.097992532, 
  -0.076919727,  0.002141804, -0.093883939, -0.069648467, -0.041692819, 
  -0.087221004, -0.156696588, -0.062168080, -0.157300487,  0.060976487, 
   0.002283184,  0.091842286, -0.052166842, -0.053684831,  0.256595641, 
   0.024575038,  0.052790329, -0.150408775, -0.170626104, -0.242412686, 
  -0.186775714, -0.134152144, -0.070046604, -0.035971873,  0.075383805, 
  -0.044956878,  0.033993229,  0.150688738, -0.011374033,  0.054291211, 
   0.067221791,  0.126458704,  0.123038881, -0.105824873, -0.129338697, 
   0.122527145,  0.023574874,  0.098775618,  0.165662780,  0.166585580, 
  -0.052190047,  0.121111751,  0.277403414,  0.223383114,  0.245089069, 
  -0.006710138, -0.124485403, -0.210984766, -0.156574935, -0.180689484, 
  -0.220977485,  0.013757424, -0.082785130, -0.124975212, -0.057141561, 
   0.069703236,  0.023572538, -0.003034115, -0.076239683, -0.080375813, 
  -0.160662532, -0.037455805, -0.102018341, -0.104826450,  0.074320875, 
   0.105191790,  0.000701355,  0.051550590, -0.066921160,  0.030023858, 
   0.156635329,  0.078558840,  0.127333641, -0.148142233, -0.103568152, 
  -0.115935460, -0.082516015, -0.100098617, -0.185766488,  0.057691053, 
  -0.140092000, -0.065790452, -0.003955998,  0.061991639, -0.032126114, 
  -0.044396635, -0.041415278, -0.084375784, -0.120419674, -0.199078530, 
  -0.199140400, -0.179932266,  0.029849552,  0.061894920,  0.116110526, 
   0.202198744, -0.073786072, -0.172235996, -0.144860253, -0.118579097, 
  -0.018717866, -0.075117901, -0.055206664,  0.001590127, -0.141351551, 
  -0.022784635,  0.039916668, -0.124629952, -0.043468166, -0.104559749, 
  -0.013723377,  0.047421675, -0.020064354,  0.026151134, -0.160215676, 
  -0.088041343,  0.020363590, -0.047923751, -0.088854678, -0.195387319, 
  -0.058129679,  0.061686978, -0.019195653,  0.026612425,  0.043548904, 
  -0.188106239, -0.022231022, -0.093228243, -0.061649155,  0.031056037, 
   0.035543572,  0.023804842, -0.109954409, -0.046364937, -0.099047638, 
  -0.075223178, -0.149087548, -0.051542152, -0.065560035,  0.087877877, 
  -0.009277300,  0.074458368, -0.047494750, -0.046029206, -0.060911831, 
  -0.012829500, -0.043407947, -0.124519296, -0.076876193,  0.070090212, 
   0.009953876,  0.153672978,  0.042759545, -0.047007188, -0.139908165, 
   0.112043671, -0.168266654,  0.013374786,  0.079923429,  0.035940602, 
  -0.074271537, -0.233966410, -0.214553460, -0.143435970, -0.050964493, 
  -0.010490562,  0.042561445,  0.072915018,  0.019426001,  0.072959349, 
  -0.048737671, -0.023104461, -0.095752932, -0.006429552, -0.079314999, 
  -0.132554978,  0.033623975,  0.213285744,  0.151308984, -0.069697358, 
  -0.047667854, -0.040336300, -0.227790400,  0.070509203, -0.242478237, 
  -0.009463860, -0.107445791, -0.141383484, -0.011546504, -0.188533172, 
  -0.126231790, -0.023137487,  0.072135143, -0.022047022,  0.009062355, 
   0.094712958,  0.084377073,  0.005111045,  0.035082735,  0.098952413, 
  -0.128441155, -0.024096280, -0.033717960, -0.139061108, -0.159144625, 
  -0.081631184, -0.175366521,  0.005011031, -0.020420752,  0.054093961, 
  -0.330917716, -0.126561761, -0.215846986, -0.022084048, -0.129274592, 
  -0.189726919,  0.079165623, -0.077271201,  0.015055856, -0.036323402, 
   0.060745880,  0.160797596,  0.039012987, -0.093584344,  0.019602811, 
  -0.095666103, -0.109128363, -0.111612245, -0.181009665, -0.102028258, 
  -0.007463892, -0.301596373, -0.151326418,  0.009540353, -0.087372005, 
   0.121052548,  0.208272681, -0.038595241, -0.159528494, -0.091381319, 
  -0.279864162, -0.055695400, -0.010807550,  0.014845110,  0.105814494, 
   0.094737977,  0.135328129,  0.113307819,  0.055600401, -0.032179583, 
  -0.085990354,  0.064364053, -0.021078339, -0.066877700, -0.021589616, 
  -0.106453210, -0.138037935, -0.148786157, -0.018176461,  0.045970459, 
   0.084370472, -0.001069147,  0.083790429,  0.174842373,  0.108066127, 
   0.084992804,  0.045675918,  0.162511468, -0.070313446, -0.078771330, 
   0.141849384, -0.000318426,  0.030738626,  0.089221410, -0.026972424, 
   0.063138269,  0.044468381, -0.056994852,  0.014961077, -0.017842881, 
   0.115338050, -0.091634825, -0.005992791, -0.110627525, -0.091970921, 
  -0.016985960, -0.002697988,  0.010077124,  0.132354975,  0.277803123, 
   0.412420869,  0.065417096,  0.018425697, -0.185714766,  0.270907819, 
   0.090774916,  0.000513149,  0.144455016,  0.058895603, -0.086733341, 
   0.084963247,  0.115727209,  0.021603012, -0.042069528,  0.108407356, 
   0.043988630, -0.052074872, -0.036243383,  0.091283619,  0.093883067, 
  -0.004764387,  0.127161697,  0.127814546,  0.041661728,  0.094389595, 
   0.131995991,  0.170424089,  0.176790044,  0.246770620,  0.147130489, 
  -0.021317221, -0.162288472,  0.118731663,  0.185538694,  0.006269295, 
   0.026148330,  0.025677837,  0.088915035,  0.018992582,  0.087948315, 
