// -----------------------------------------------------------------------------
// 
// This file is auto generated by model_export.py
// -----------------------------------------------------------------------------
#ifndef MNIST_MODEL
#define MNIST_MODEL

// ....
#include <stdint.h>
#include "infercat.h"

// -----------------------------------------------------------------------------
//
// -----------------------------------------------------------------------------

// ...
float mnist_model_dense_output[64];
  
// ...
static const float mnist_model_dense_weights[50176] = {
  -0.022425450,  0.063018136, -0.074718617, -0.067633368,  0.021297567, 
   0.028432354,  0.082976379, -0.013940595,  0.068007506,  0.035832070, 
   0.001732513, -0.053688720,  0.010080732,  0.025353365, -0.038584147, 
  -0.033011485, -0.064419031,  0.003389478, -0.025378376, -0.041101459, 
  -0.042335290,  0.061393566, -0.067789257, -0.056669783,  0.063883565, 
   0.013921306,  0.001556069,  0.009542301, -0.012874402, -0.042675078, 
   0.059949555,  0.052949719, -0.067275949,  0.057672344,  0.002995603, 
   0.053856678, -0.023576234,  0.047883220,  0.078840204,  0.015940599, 
   0.003603160, -0.014911667, -0.023432240,  0.020355560, -0.038705979, 
   0.084025003, -0.007330023,  0.074473895, -0.003654465,  0.033070505, 
  -0.015596561,  0.070752211, -0.006530158,  0.023372017,  0.064685382, 
   0.016710199,  0.028035998, -0.041544750,  0.078457303, -0.031173564, 
   0.054491855, -0.065188490,  0.004130304, -0.049813516,  0.025003813, 
  -0.025458556,  0.050619014, -0.051394675,  0.037774637,  0.037550882, 
   0.004909873, -0.005028173, -0.050264288, -0.047367014,  0.067428894, 
   0.025771469, -0.049644556,  0.075118728, -0.029621586, -0.071997523, 
   0.070492558,  0.043568291,  0.045123987,  0.061801679, -0.053894762, 
   0.011494137, -0.059972603,  0.011123344,  0.013771214,  0.049132697, 
   0.041890375,  0.066924296,  0.066881098, -0.047164399, -0.081708387, 
   0.059238695,  0.070120059,  0.069076054, -0.039440464, -0.047684703, 
  -0.008776568, -0.029468406, -0.000687055,  0.029612958, -0.072919622, 
  -0.038566377, -0.081626765, -0.043726973, -0.063361421,  0.064337842, 
   0.042511247,  0.014317885,  0.025595307, -0.030245028,  0.045465253, 
   0.068804808,  0.034884281, -0.078126006, -0.012347341,  0.003994852, 
  -0.027853899,  0.037912734,  0.029271290, -0.061868422, -0.034940675, 
   0.071829714, -0.020650543, -0.074667640, -0.062855914, -0.029339273, 
  -0.070593692,  0.082479201, -0.046614196,  0.014513604, -0.025784243, 
   0.037850641, -0.025369130,  0.032054491,  0.033835553,  0.044789739, 
   0.029241785,  0.061337970, -0.081501447,  0.042189769,  0.055402867, 
   0.033300191, -0.063392788, -0.070355222, -0.075964160,  0.072658233, 
  -0.075066827,  0.024369702,  0.035338201, -0.081040867,  0.017178841, 
   0.017056309,  0.019244760, -0.045188844,  0.020580873, -0.064677231, 
   0.059611119,  0.077439375,  0.043667369, -0.073942922,  0.035071269, 
   0.007203534,  0.036181621,  0.005134985, -0.043010134, -0.015501760, 
   0.019142441, -0.029367350,  0.072023906, -0.082775220, -0.044638701, 
  -0.052073970,  0.076358043,  0.034722455,  0.010305345,  0.047835208, 
  -0.040272035, -0.075241990,  0.036923207, -0.010097899,  0.043914445, 
  -0.073695824,  0.027961813, -0.023518696,  0.030627236, -0.031650666, 
  -0.017777197, -0.059502296,  0.011963539,  0.048603453,  0.008160405, 
  -0.053775035,  0.004957743, -0.018994719,  0.028141767,  0.020219162, 
  -0.068474904, -0.050652388, -0.063412100,  0.069953002, -0.032508291, 
   0.061719157,  0.076670192,  0.038569562,  0.045263834,  0.053359173, 
   0.068731122, -0.023822244, -0.034309510,  0.042951189,  0.083813317, 
  -0.010631114, -0.070296839,  0.011430182, -0.011597395,  0.080227681, 
  -0.026831686,  0.030152693, -0.001335427, -0.051049151,  0.073689945, 
  -0.059669957,  0.013545856, -0.007190078,  0.076357074, -0.029745363, 
   0.031025156,  0.076745652, -0.080719449,  0.036412515,  0.036669433, 
   0.038470678,  0.064836107, -0.082778148, -0.006259680,  0.032863095, 
  -0.005176455, -0.055625051,  0.036255501, -0.050699618, -0.044441242, 
   0.013047114, -0.029621385, -0.044101074, -0.033507217,  0.071403600, 
  -0.077603161,  0.034742475,  0.059461288,  0.024223961, -0.028819434, 
   0.079196997,  0.074398689, -0.081868365, -0.030360363, -0.011169367, 
  -0.067490160,  0.045691572, -0.017164484,  0.072116308, -0.048677351, 
   0.002286084, -0.053729951, -0.081144549,  0.016612932, -0.048514888, 
   0.023595102,  0.051188417,  0.033735178, -0.005619325, -0.083005898, 
  -0.041610472,  0.033990480,  0.035913631, -0.027279869,  0.078841738, 
  -0.045274056, -0.032676648,  0.026316896, -0.045479279,  0.019394509, 
  -0.055095762,  0.069249757,  0.031509683, -0.015975952, -0.080458596, 
  -0.013995931, -0.010206416,  0.035614535,  0.067359753, -0.025427431, 
   0.029081233,  0.004278705, -0.081221521,  0.016392335, -0.054457061, 
   0.014974035, -0.017048784, -0.074807480, -0.027772635, -0.023763727, 
  -0.018541984, -0.013521530,  0.002761342, -0.035602260,  0.077631794, 
   0.040714361, -0.061113819, -0.073930748,  0.058304287,  0.036595315, 
   0.030959800, -0.020276219, -0.012328029, -0.036484551,  0.080156051, 
  -0.081354983,  0.028149366, -0.061772540, -0.021043338,  0.053309731, 
  -0.050810158, -0.064734548,  0.078327291,  0.028570972,  0.062504195, 
  -0.035882927, -0.000762120, -0.080084257, -0.083799802, -0.055475742, 
   0.004907586, -0.031353697,  0.032893941, -0.074744850, -0.018836707, 
   0.037352458, -0.057281435,  0.041969649,  0.053546958, -0.073020883, 
  -0.007866248, -0.052951105, -0.000862196, -0.081392325, -0.060143650, 
  -0.082614683, -0.078254715, -0.040379468, -0.044484422,  0.061519392, 
   0.057357796,  0.038265318,  0.050869800, -0.030578237, -0.024262730, 
  -0.042176418,  0.000262737, -0.029216118,  0.028983206, -0.047764480, 
  -0.046443231,  0.016842298,  0.065576889, -0.046881627,  0.080654614, 
  -0.012624785,  0.011046030, -0.047233950, -0.057905037, -0.048431683, 
   0.016943678, -0.040242553, -0.018206932,  0.001252882,  0.020283721, 
   0.082509540, -0.024841391, -0.054442279,  0.012187585,  0.030293420, 
   0.075496279,  0.046642147, -0.036115140, -0.066124991, -0.049881339, 
  -0.034835525, -0.044824108,  0.033293173,  0.083945327, -0.068743557, 
  -0.030725081, -0.047526550, -0.052265935, -0.016384810, -0.035979249, 
   0.039810792, -0.067060642,  0.028529704,  0.070756130, -0.066858433, 
  -0.083209790,  0.009298861,  0.064860933, -0.029214855,  0.059963904, 
   0.077163957, -0.016908661,  0.056861632, -0.038639214, -0.061441272, 
   0.025569037,  0.039131761, -0.062021457, -0.082630649, -0.060451511, 
  -0.055539355, -0.042619508, -0.061683256,  0.069623239, -0.003767751, 
  -0.034828287,  0.018495820, -0.060505517, -0.072581485,  0.010484897, 
   0.009138517,  0.014845647, -0.010770179,  0.015658893,  0.047392122, 
  -0.002074808, -0.077837400, -0.027290940, -0.065132298,  0.065222465, 
  -0.021039106,  0.070799895, -0.043503881, -0.040429845,  0.079155363, 
   0.033804730,  0.016244732, -0.019679911, -0.004878707,  0.039189838, 
   0.042037196, -0.060132883, -0.035438091,  0.043384932, -0.031451344, 
  -0.005240053, -0.035231568,  0.069215141,  0.005351797,  0.073222496, 
   0.054872848, -0.062294163, -0.037091911,  0.017883703, -0.048774458, 
   0.001389317, -0.040283948, -0.083435304, -0.038839102,  0.021970026, 
  -0.075418487, -0.017662525, -0.026323959, -0.019167654, -0.071110040, 
  -0.031885028,  0.004360773,  0.005128667, -0.066523634,  0.075569488, 
  -0.027710445, -0.043234386, -0.023180734,  0.023305751, -0.018889911, 
  -0.080417201,  0.082959928,  0.005674899, -0.072731815,  0.034100361, 
  -0.045237597, -0.062694862, -0.069337539,  0.048098229, -0.054633379, 
  -0.080324568, -0.014308080, -0.032073785, -0.005986668,  0.023027956, 
   0.036436841,  0.012323216, -0.000768177,  0.081061058, -0.020519748, 
  -0.039738819,  0.065247916, -0.069899455,  0.060916848,  0.067483775, 
   0.043695413,  0.035253085,  0.082061701,  0.044694535, -0.028015338, 
   0.004606120, -0.061019205, -0.083032489, -0.053861894, -0.060440503, 
   0.011400118,  0.000569135, -0.041210219, -0.048776262, -0.033510208, 
   0.069029294, -0.081131518, -0.040822841, -0.063875139,  0.064518295, 
   0.033213720, -0.037759293, -0.026751447,  0.072877727, -0.035514943, 
   0.048411526,  0.064088859,  0.076935045, -0.074863918, -0.030919068, 
  -0.077132694,  0.072244234,  0.035640247,  0.007141285, -0.081167571, 
  -0.066355214, -0.075094402, -0.044106670,  0.040140197, -0.051446676, 
  -0.080384076,  0.027412854,  0.007768862, -0.010510504,  0.032985777, 
   0.011418410,  0.059253462,  0.063565113, -0.005202509,  0.048116125, 
   0.065329514, -0.066190869,  0.028625287,  0.075319238, -0.028983060, 
  -0.050132144, -0.077561460, -0.053095981,  0.002128176,  0.082248770, 
  -0.082388528, -0.064218879, -0.077096015, -0.048545193, -0.009573691, 
  -0.025470246, -0.063058831,  0.059479319, -0.062874146, -0.082170211, 
   0.012472749, -0.028483216, -0.040650088, -0.049357429,  0.062804691, 
   0.073242284,  0.005509086, -0.029456735,  0.070314951, -0.061741151, 
   0.077842839,  0.061660297,  0.038378060,  0.071247764,  0.029274896, 
   0.029715985,  0.038222499, -0.013842471,  0.041076265,  0.046369590, 
  -0.034211844, -0.057020660, -0.018661052,  0.061677776, -0.062550887, 
   0.038258135,  0.006996952, -0.010246165,  0.071345441, -0.001119576, 
   0.014357813, -0.077646397, -0.039197318, -0.051376384, -0.024380412, 
   0.031578854, -0.064360127,  0.019913830,  0.044325285, -0.019751951, 
  -0.067294881,  0.061446093,  0.081075214, -0.010375157,  0.078447141, 
  -0.012865998,  0.000674099,  0.001302697, -0.009801447, -0.040178079, 
   0.013574176, -0.075486138,  0.010765165,  0.014481433, -0.058692649, 
  -0.023673680,  0.073011272, -0.073372461, -0.011077195,  0.028793447, 
  -0.027042922, -0.061029229,  0.029532060, -0.033185080, -0.061007552, 
   0.040008113,  0.077105962,  0.029104635,  0.083079569,  0.012846708, 
   0.027444683, -0.038134936, -0.063705221, -0.018052146, -0.056173466, 
  -0.075255267, -0.010193057,  0.034520447, -0.010245524, -0.012116075, 
  -0.082026437, -0.007619433, -0.005147599, -0.050025895, -0.006095506, 
  -0.026011426,  0.014685288, -0.029430583, -0.066319577,  0.017090879, 
   0.082452707, -0.017282985,  0.070921846, -0.057905998,  0.036056504, 
  -0.035242878,  0.053011052,  0.055470549,  0.031097941,  0.014169805, 
   0.070087142, -0.013389915,  0.023116298, -0.003173530, -0.048569418, 
  -0.053559907, -0.019817129,  0.000201128,  0.001170114, -0.027197644, 
  -0.081021115, -0.010258943, -0.010434821, -0.000846475, -0.052759081, 
  -0.011864603, -0.021755379, -0.078983210,  0.007386759,  0.065721221, 
   0.027836531,  0.057937451, -0.027195759, -0.007944919, -0.052107923, 
  -0.015990578,  0.045725189,  0.078618653,  0.042074241,  0.056080870, 
   0.060646988, -0.052109305,  0.015261523,  0.028192423, -0.026751947, 
   0.070224620,  0.059824325,  0.047419764,  0.077323981, -0.036918316, 
  -0.031395670, -0.008866876,  0.073246993, -0.030102741, -0.001961395, 
   0.069829486,  0.064035438, -0.053281449,  0.019886017, -0.021367118, 
  -0.068555348, -0.025483042, -0.068998195, -0.023849823,  0.037049189, 
  -0.054377422,  0.068826146,  0.001490831, -0.000072576, -0.005283147, 
   0.009148046, -0.060247071, -0.046018191, -0.024014130, -0.012806319, 
  -0.005776137,  0.024036475,  0.063299410, -0.001706056,  0.044173606, 
  -0.043598361, -0.039275073, -0.081746355,  0.000380777,  0.070606731, 
  -0.000567950, -0.040788546, -0.000869893, -0.044060823, -0.082085378, 
  -0.056225248,  0.055184163,  0.049118392, -0.054616496, -0.082561620, 
   0.055743836, -0.065924741,  0.076717503,  0.157375261,  0.046333335, 
   0.044566087, -0.082430594, -0.055314679, -0.006110138, -0.029808827, 
  -0.070371516,  0.062008053,  0.096390218,  0.080929972, -0.004382035, 
  -0.051534485,  0.138192698, -0.008072010,  0.000261314,  0.084942766, 
   0.093680434,  0.027296020,  0.048595183,  0.007948186,  0.001371168, 
   0.052084960,  0.002609790, -0.059843428,  0.034459133,  0.060052436, 
   0.011256975, -0.021750802,  0.028258221, -0.089788035, -0.012059897, 
  -0.031766061,  0.003693566,  0.024903869, -0.063797161, -0.070768848, 
   0.038628593,  0.121802956,  0.081596002,  0.026905989, -0.198911428, 
   0.046520829,  0.075560823, -0.055167906,  0.019817945,  0.113027863, 
   0.183024660, -0.021912256,  0.050759763, -0.038539786,  0.028343599, 
   0.089297771,  0.045541015,  0.053913508, -0.119583324, -0.076151609, 
  -0.004207585,  0.173494458, -0.106932282, -0.046595585, -0.131728649, 
  -0.022141391,  0.183884263,  0.193100601,  0.093693055,  0.025337035, 
  -0.151742548,  0.001863076,  0.065517604, -0.030938681, -0.088327505, 
   0.033873122,  0.045881636,  0.077796258, -0.007505312,  0.068188511, 
   0.107312359,  0.029255405,  0.002798386,  0.144848004,  0.052589003, 
  -0.008436372,  0.078462414,  0.018750912, -0.032392040,  0.005441560, 
   0.066982202, -0.060758471,  0.053244416,  0.062147677,  0.086367212, 
   0.006091992, -0.053589024, -0.118351236, -0.052887730, -0.004871741, 
   0.008468352, -0.025618017,  0.038087409,  0.076859795, -0.002242757, 
   0.096074380,  0.048781313,  0.026865680, -0.256606191,  0.012735626, 
   0.148294881, -0.020060143, -0.091358744,  0.042621765,  0.160760969, 
  -0.048321974, -0.077813253, -0.006974853, -0.033421647,  0.016465427, 
  -0.060479231, -0.083577424, -0.161380515, -0.131105155,  0.113958545, 
   0.152618736, -0.014625417,  0.006828618, -0.028736942, -0.004559503, 
   0.061684560, -0.034489498,  0.072510377, -0.039873492,  0.060067095, 
   0.006395809, -0.030594300, -0.064954288,  0.058070708,  0.110493891, 
   0.006743257,  0.008771300, -0.052903295,  0.066093750, -0.028199755, 
  -0.060159102, -0.040954217,  0.045809686,  0.041792523,  0.015272377, 
  -0.007954094, -0.040313579, -0.015979260,  0.016332909,  0.118836462, 
  -0.039612234,  0.020050030,  0.095332675, -0.013416114, -0.045337800, 
   0.041191872, -0.034747060,  0.018324688, -0.085559219, -0.057554416, 
   0.004632476, -0.062898122,  0.057511143,  0.034672592, -0.073634967, 
  -0.015058875,  0.003572003,  0.017344536,  0.072180159,  0.019125598, 
  -0.001272336, -0.000444676, -0.073268838, -0.081245899, -0.028104268, 
   0.055411115, -0.003595802, -0.025250588,  0.041491989, -0.034467604, 
  -0.082521170, -0.037893560,  0.049266901, -0.065040372, -0.058082234, 
   0.023356970,  0.025433782,  0.058939561, -0.008858575, -0.021886121, 
   0.072705649,  0.033602826,  0.077006266,  0.052691240,  0.016934151, 
  -0.025065780, -0.024412749, -0.049020857, -0.015079818,  0.059361674, 
  -0.055207871, -0.007403059,  0.009216310,  0.077165090,  0.065064199, 
  -0.061336927,  0.021073349, -0.008865344, -0.068377569,  0.021349451, 
  -0.084548227,  0.055913512, -0.054908257,  0.055857409,  0.048999511, 
   0.062894553,  0.014386690,  0.034967806, -0.007054982,  0.034086522, 
   0.036359802,  0.050968267,  0.031066019,  0.061852835,  0.009988626, 
  -0.031492230,  0.007561155,  0.003518543, -0.078456961,  0.031210424, 
   0.065292180,  0.032064863,  0.007994263,  0.031738572, -0.021939643, 
   0.005884816, -0.004795557, -0.075207926, -0.038064722,  0.065056376, 
   0.075606175, -0.069212839, -0.038504284,  0.063530006, -0.010958932, 
   0.036896147,  0.028662777,  0.046793934,  0.056924891,  0.008995006, 
  -0.044751391,  0.074441768, -0.060681351,  0.081502229, -0.081343293, 
   0.031032220, -0.051973958,  0.069552787, -0.017803125,  0.009304814, 
   0.032425083,  0.047290348, -0.016711205,  0.044550247, -0.060386270, 
   0.015951827,  0.034300387,  0.024998516, -0.028909039,  0.071426131, 
   0.011095248,  0.041330628, -0.068819486,  0.075676478, -0.060508326, 
   0.058770098,  0.016798042,  0.062919848, -0.031740032,  0.070493303, 
   0.027275518, -0.026818208,  0.053070165,  0.029006682, -0.061340317, 
  -0.021356292, -0.046959762, -0.044260148, -0.018913858, -0.048361991, 
  -0.024255749,  0.068086721,  0.005902559,  0.006691135,  0.032683209, 
  -0.025289614, -0.019577250, -0.014638901,  0.046425261,  0.022269763, 
  -0.035201926, -0.055533357,  0.082714431, -0.048722897, -0.012339801, 
   0.061261527, -0.061516199,  0.017445788,  0.063883401, -0.053504840, 
  -0.054678380, -0.067377046, -0.065566860,  0.004340194, -0.077336311, 
   0.031593092, -0.012002021,  0.052090801,  0.073327743, -0.067209989, 
  -0.050408483, -0.083974041, -0.082404934, -0.027582638, -0.077234894, 
   0.077336751,  0.060878284,  0.074084528,  0.016891517, -0.078034818, 
  -0.041398633,  0.072572283, -0.061090738,  0.030943319, -0.059580132, 
   0.049063869, -0.011435777,  0.068558954,  0.041131608,  0.019467212, 
  -0.066034958,  0.031416848,  0.007585660,  0.061888240,  0.067806862, 
   0.018426590,  0.011373222, -0.076685227,  0.011753425,  0.079624139, 
  -0.052312519, -0.047792897, -0.023013376,  0.009748347, -0.007066801, 
   0.032983467,  0.014183663, -0.009360529, -0.022742797,  0.012646019, 
  -0.007932924, -0.055089243, -0.027476467,  0.041031502,  0.011815228, 
   0.016968824,  0.018284760,  0.028994009, -0.072066613, -0.081059217, 
  -0.048101541, -0.010993630, -0.000337839, -0.035448521, -0.002259351, 
  -0.060133845,  0.019354805, -0.035407126, -0.076174572,  0.045103647, 
  -0.067245826, -0.029689249, -0.048967283, -0.068149514, -0.027533080, 
   0.035568245,  0.009648412, -0.065481849,  0.032857001, -0.079170458, 
  -0.027816515,  0.047815762,  0.063251294,  0.081861354,  0.063129403, 
  -0.025732301,  0.023309186,  0.047581784,  0.054654472,  0.035409011, 
  -0.051932104,  0.057931997, -0.013741851,  0.035832830,  0.037431896, 
   0.013629347,  0.005355164, -0.009384535, -0.054326281, -0.034224376, 
   0.075875305, -0.027533181, -0.071309105,  0.070169248,  0.025404468, 
   0.012131959,  0.006157421,  0.043031327,  0.057102583, -0.016765609, 
   0.002488077, -0.067984566, -0.029901952,  0.019853726,  0.057472236, 
   0.067335226, -0.079258196,  0.011268698, -0.043590959,  0.004166260, 
  -0.021652859, -0.011865348,  0.061834045, -0.071701936,  0.008012988, 
   0.007486209,  0.059558459,  0.077333175, -0.076330900,  0.075982638, 
  -0.058480408,  0.001053058,  0.055100255,  0.007637136, -0.078330562, 
  -0.081942149,  0.008309655, -0.029937569,  0.009866491, -0.018510722, 
   0.064101137,  0.073208086, -0.042656466, -0.005954504,  0.023366459, 
   0.065250151, -0.039047271, -0.040908474, -0.009583935, -0.034805726, 
  -0.026972469, -0.055170409, -0.072133318,  0.072417848,  0.024070360, 
  -0.028953642,  0.020794578, -0.065376423,  0.045603715,  0.013600007, 
   0.082309686,  0.028777681, -0.043891620, -0.069347508,  0.039457932, 
   0.009697244,  0.026284494, -0.080913596, -0.039938845, -0.061113440, 
   0.009363152,  0.072624482,  0.062500723,  0.016323343,  0.061514609, 
   0.069255255,  0.080691315,  0.021864720, -0.001439452,  0.045465894, 
  -0.075654238, -0.020473219,  0.068249531,  0.028156966, -0.005171306, 
  -0.026836719, -0.062282130,  0.024469055, -0.078971133, -0.074386589, 
  -0.010408387, -0.057887688,  0.078948133, -0.032811496,  0.066527747, 
  -0.022951208,  0.027426571,  0.030572981, -0.014731899,  0.048478894, 
  -0.004786409, -0.008351915,  0.081225283, -0.063444927,  0.041190125, 
   0.077735431, -0.024669982,  0.029502660, -0.066177994,  0.023904853, 
   0.073535986, -0.021265723,  0.040120520,  0.009448268, -0.072902419, 
   0.028390102, -0.035667479,  0.032971516,  0.034943640,  0.021683402, 
   0.010416850, -0.060097564, -0.005460836, -0.013540581, -0.018077999, 
  -0.055249281,  0.062646471, -0.072745353, -0.059811443,  0.053802587, 
  -0.053814724,  0.055658437, -0.059531238, -0.059533164, -0.042325284, 
  -0.059574336, -0.017367117,  0.029122099, -0.066466682, -0.080703162, 
   0.073391147,  0.064448990,  0.029132791,  0.080375768,  0.029916689, 
  -0.083208807, -0.070434943, -0.070441134,  0.028482758,  0.053065814, 
   0.010753453, -0.025515910,  0.052706681, -0.018486954, -0.069478765, 
   0.028305031,  0.050129019,  0.007558323,  0.045558833, -0.018679619, 
   0.067737915,  0.064774133,  0.016122960,  0.007511958, -0.016276054, 
   0.077985115,  0.031981975, -0.069956355, -0.014118902,  0.081392922, 
  -0.004221708, -0.074582286, -0.039718423, -0.002681002, -0.081403516, 
  -0.037630923,  0.017787546, -0.028017584,  0.006302133,  0.078318812, 
   0.055026598, -0.061899848,  0.006154828, -0.005557902,  0.000932686, 
  -0.010208644, -0.014076807,  0.004086204,  0.060344093, -0.053753175, 
   0.045538373, -0.055121817,  0.076937743, -0.017028049,  0.050566308, 
  -0.074226752,  0.042944752,  0.042150952,  0.058595099, -0.079031117, 
   0.008400969, -0.079984926,  0.027630188,  0.073787801, -0.005221963, 
   0.015038773,  0.040795624, -0.042421486,  0.027710266, -0.043897316, 
  -0.040543478,  0.039760455,  0.081812553, -0.017496467, -0.067800865, 
  -0.014615260, -0.016474098,  0.007632986, -0.004334703, -0.082723521, 
   0.057871751,  0.082333304, -0.054887716, -0.027684916,  0.083870731, 
   0.052476309,  0.018668048,  0.029567398, -0.050764471,  0.077118941, 
   0.019653924,  0.014334388,  0.007441469, -0.007155761, -0.043582037, 
   0.054159902, -0.075704873,  0.010715209,  0.029093161, -0.046114955, 
   0.075157724, -0.061586834, -0.056961097, -0.039686054, -0.039404284, 
  -0.029772297,  0.022120416, -0.055200610, -0.014150612,  0.011698730, 
  -0.007576071,  0.070838414, -0.044618566,  0.068324097, -0.020613119, 
  -0.033918042, -0.071774676, -0.063453853,  0.058191679,  0.001441635, 
  -0.020591766,  0.050727092,  0.034493871,  0.032738842, -0.075392157, 
   0.003229462, -0.038461789, -0.067027189,  0.067799948, -0.079356469, 
   0.045648433,  0.051898085, -0.070422061,  0.038590744, -0.036093522, 
   0.013367653, -0.008473925, -0.065778360,  0.024260424, -0.058111161, 
   0.041830592,  0.015085079, -0.077968031,  0.025581911, -0.039266750, 
  -0.060270477,  0.046807624,  0.045083620, -0.009551451, -0.006202340, 
   0.063430168, -0.036941700, -0.042333126, -0.051245626, -0.008317836, 
  -0.023882512,  0.050142877, -0.083335638, -0.030532233,  0.021827020, 
   0.008214153,  0.036252879, -0.007230990, -0.018593282, -0.040661078, 
   0.062342308,  0.047421508,  0.063282318, -0.001518048, -0.074160613, 
  -0.044232212,  0.016813479, -0.002870142,  0.021341689,  0.065873034, 
  -0.029951707,  0.076428168, -0.059754469, -0.039040230,  0.070946358, 
  -0.000729211,  0.052091844, -0.071621619, -0.006984696, -0.044002265, 
   0.053997345,  0.063490473,  0.033392444, -0.035638902, -0.025409158, 
  -0.007683806,  0.065159671,  0.004913062,  0.020690091, -0.058130212, 
   0.035196953,  0.008702248,  0.069105752, -0.078715578,  0.053664096, 
   0.065294392,  0.028452210,  0.080901168,  0.024375774, -0.039065361, 
  -0.012717456,  0.074593283,  0.057289742, -0.026985426,  0.052326180, 
  -0.051802751, -0.027665161,  0.047694363, -0.083424836, -0.056099124, 
  -0.011415102, -0.014423415,  0.075380825, -0.043211203,  0.052891664, 
  -0.016427532,  0.043818779, -0.053568833, -0.007795110,  0.008498088, 
  -0.060607940, -0.013133973, -0.006581053,  0.033649124,  0.023721308, 
  -0.046202935, -0.060409054, -0.055434987, -0.013265051, -0.083938502, 
  -0.064278260, -0.063352779,  0.082277037,  0.050112717,  0.067556076, 
   0.040076278,  0.078835048,  0.077790566, -0.039659541, -0.040683378, 
   0.077215545, -0.029229254, -0.004711628, -0.068713337,  0.014547937, 
   0.070986144, -0.004788980,  0.034995586,  0.083451577,  0.002703302, 
   0.066018276, -0.055938967, -0.027760282,  0.012403436,  0.083910488, 
   0.036002591,  0.014253668, -0.049566783, -0.059281696, -0.077689171, 
  -0.011584759,  0.036339216, -0.079134963,  0.066239513, -0.000159293, 
   0.080881156,  0.007548414, -0.002863660, -0.063571133, -0.010221153, 
   0.030333631, -0.007957317, -0.041033614,  0.001927100, -0.011525698, 
   0.042381562,  0.063635908,  0.040893070, -0.041347712, -0.066768989, 
   0.038385443, -0.008150123, -0.065472469, -0.026536539,  0.037338726, 
  -0.014640912,  0.053564437, -0.061893649, -0.001339942,  0.005654663, 
  -0.061471678, -0.054054216, -0.027019698, -0.011484571, -0.082782201, 
  -0.043894488, -0.068193898, -0.058333248,  0.008121282,  0.016026594, 
   0.018667288,  0.018088102,  0.080717705,  0.018960685, -0.037614759, 
  -0.025128413, -0.050985478,  0.072469883, -0.006230339, -0.077735722, 
  -0.030910987,  0.080920272,  0.054909311,  0.073555417, -0.004859030, 
  -0.075901188, -0.048441086,  0.075976156, -0.024766363, -0.064084291, 
  -0.028394572,  0.027537234, -0.074848212,  0.065716155,  0.065830298, 
   0.059420474,  0.083295278,  0.041548483,  0.055441611, -0.025521144, 
   0.071257077,  0.075475328, -0.070236936,  0.044123970,  0.056562476, 
  -0.015971221, -0.027259294, -0.081719764, -0.074737474, -0.037886117, 
  -0.006118007,  0.072211809,  0.059418954, -0.066357806,  0.020875797, 
   0.043085687, -0.023535181, -0.018801391,  0.081767149, -0.011039048, 
   0.054865591, -0.082704894,  0.079467289,  0.003460854, -0.063806817, 
   0.013448067, -0.069683187,  0.078706808, -0.066812508,  0.070000969, 
   0.009420067,  0.080577396, -0.004081927, -0.014060542,  0.010189474, 
   0.079413943, -0.054824986,  0.078675129, -0.048867229,  0.065742202, 
  -0.044720184, -0.014551885,  0.070652954, -0.023547936,  0.071316369, 
   0.010032341,  0.030293941,  0.039992355, -0.011711128,  0.020829350, 
  -0.034035522,  0.077025302, -0.020879589,  0.063735776, -0.081005991, 
   0.048096962,  0.036759339, -0.009945624,  0.020172559, -0.080549248, 
   0.033999562, -0.019774951,  0.025246918, -0.000509471,  0.024947703, 
   0.018102385,  0.079054065, -0.021494247,  0.033161372, -0.058559384, 
  -0.036999878,  0.009761624,  0.048714928,  0.038755797,  0.029019520, 
   0.026176058,  0.017120063, -0.058304969,  0.065269373, -0.013556585, 
   0.002056099,  0.046977408, -0.020648375,  0.063230701,  0.071093671, 
  -0.078110464, -0.016294308, -0.011645667, -0.080688663,  0.061664321, 
   0.075141437, -0.024372209, -0.047327146, -0.083998062, -0.006561324, 
   0.039862916, -0.027759541,  0.069499008,  0.023651376, -0.067715287, 
  -0.025138661,  0.037798099,  0.060736649, -0.070400827, -0.041398652, 
   0.008360155, -0.046253193, -0.026808441, -0.057154849,  0.061799251, 
  -0.045239862,  0.063462012,  0.024861664,  0.075253494,  0.020583056, 
   0.073220246, -0.009652786,  0.022752605, -0.077344552,  0.030492805, 
  -0.019351713, -0.055202495, -0.069397606,  0.049736045, -0.061964743, 
   0.016198486, -0.017861165, -0.031966008, -0.000520602, -0.013027623, 
   0.073103987, -0.026965652, -0.004489221,  0.069422953,  0.058362104, 
   0.058349304, -0.057289977,  0.057083659,  0.066952921, -0.027924288, 
  -0.010302380, -0.029145386, -0.079719581,  0.055063643,  0.049293824, 
   0.005352259, -0.027915306,  0.004613221, -0.038362779,  0.018562660, 
   0.069853850, -0.014566347, -0.076713324, -0.079190873,  0.052758135, 
  -0.008478217,  0.007730953,  0.027071685, -0.033185963,  0.033074997, 
   0.067801453, -0.037362006,  0.051699109, -0.040833689,  0.020119734, 
   0.081942894, -0.081845723, -0.034431163,  0.070467465, -0.041910991, 
   0.054844283,  0.032744572,  0.028656051, -0.006929465, -0.048790380, 
   0.040526710, -0.050372243, -0.034111246, -0.046908222, -0.077155575, 
  -0.021639403,  0.044663526,  0.000337802, -0.003388755, -0.074016802, 
  -0.007104106, -0.081802525, -0.041976009,  0.028694451,  0.081410013, 
  -0.037581187,  0.063626997,  0.024672084,  0.022052430,  0.030316465, 
  -0.081989154, -0.032352887,  0.007138073, -0.011545517, -0.066203080, 
   0.027149215,  0.077698864, -0.035823766,  0.005886696, -0.043957021, 
   0.080883734,  0.050548948, -0.000536405,  0.077079721,  0.039876170, 
   0.002504103, -0.082357600, -0.036160123,  0.031496488, -0.052180320, 
  -0.031101067, -0.047297705,  0.073774584, -0.041442130,  0.004655197, 
  -0.076776102,  0.033521637, -0.002004497, -0.041701060,  0.038792595, 
   0.035771526, -0.001223661, -0.059984177, -0.033433557, -0.016384333, 
  -0.074024983, -0.061519649, -0.063533813,  0.033767328, -0.034012537, 
   0.011223413, -0.022627745,  0.027209781,  0.082871132, -0.042663064, 
   0.061843418,  0.050643750,  0.077714108, -0.023703523,  0.017683476, 
   0.065253787,  0.002151534,  0.034036547,  0.051566236,  0.076644637, 
   0.048410900,  0.012287058, -0.032804720,  0.080766819,  0.036194116, 
  -0.019329257,  0.010362163, -0.055465754, -0.015517481, -0.040762957, 
   0.052975170,  0.063074462,  0.051967584, -0.042532630,  0.005758390, 
  -0.079312906,  0.023804039, -0.028466512, -0.024040163,  0.078271084, 
   0.033868708, -0.029754248,  0.083543621, -0.044822525,  0.014064774, 
   0.081901558, -0.013196304, -0.046448827,  0.036625132, -0.035451390, 
  -0.053958517,  0.022495963,  0.076774217, -0.028944135,  0.034290560, 
   0.055665947,  0.011096470, -0.051730413, -0.013121419,  0.060661428, 
  -0.042376924, -0.076383524,  0.067488872,  0.079761915,  0.008554243, 
  -0.078319132, -0.030552529, -0.021491900, -0.056493681,  0.047297545, 
  -0.011938952,  0.051476263, -0.051535942,  0.065051697,  0.073879562, 
  -0.075205505,  0.019890249, -0.072377302,  0.036323108, -0.001380809, 
  -0.068749174,  0.062387995, -0.046986233, -0.067943797, -0.075894430, 
  -0.055863522, -0.054510623,  0.049425162,  0.006345011, -0.034303375, 
  -0.074613452,  0.049186729, -0.053044461,  0.021192059, -0.053206220, 
   0.054101504, -0.037202209, -0.048036922, -0.036489505,  0.051994540, 
  -0.027998012,  0.072549574, -0.019802906,  0.003648221,  0.020525321, 
  -0.050557807, -0.037027974,  0.012821503,  0.083286576, -0.017233528, 
  -0.012375683, -0.069434308,  0.035735644, -0.044667218,  0.060448922, 
   0.079339154, -0.006986380,  0.018969208, -0.031301193,  0.038098335, 
  -0.004713215, -0.027347192,  0.069689266,  0.020904355,  0.051724471, 
   0.044121034, -0.049381815, -0.031770654, -0.007096142,  0.030415311, 
   0.029515058,  0.081655852,  0.020195022, -0.054508258,  0.020327799, 
  -0.056410015, -0.056130029,  0.020872951, -0.001849152, -0.049645316, 
   0.027457453, -0.057423681,  0.034597956, -0.072918765,  0.061296292, 
  -0.031551316,  0.007490359, -0.059524216, -0.071887389, -0.001847282, 
  -0.034781437,  0.029055901,  0.056350045, -0.082706615,  0.035039961, 
  -0.033281662,  0.083466776, -0.056762736, -0.049150463,  0.030616120, 
   0.026572675,  0.060163893, -0.055506945,  0.027097840, -0.031915475, 
   0.062950969,  0.069863841,  0.061596401, -0.014848286, -0.083955929, 
  -0.031505484,  0.036917660,  0.019042546, -0.041570183,  0.081372947, 
  -0.074975438, -0.065335289, -0.033464387, -0.078586444, -0.035809450, 
  -0.035699457, -0.057235844, -0.000634153,  0.059839275,  0.019272674, 
  -0.067946583, -0.024321994, -0.066901676,  0.043238249, -0.013326349, 
  -0.079691537, -0.061072614, -0.054305337, -0.046267912, -0.018499404, 
  -0.000320897,  0.078041457,  0.010029172,  0.026656609,  0.040833402, 
  -0.039715059,  0.052495118, -0.035248272, -0.069834776,  0.069176584, 
   0.071600616, -0.059832554, -0.008756660, -0.050210994,  0.086677074, 
   0.059207819, -0.067197092, -0.047743134, -0.062548652,  0.031450663, 
   0.076846667, -0.080538116, -0.056890171, -0.010230526,  0.044566002, 
   0.039196581, -0.065524161,  0.012151748,  0.080843538, -0.056859005, 
  -0.010737581, -0.022210348,  0.035285871, -0.037936360,  0.047270495, 
   0.040722907,  0.040900376,  0.054803915,  0.065518506, -0.028466282, 
   0.037837435,  0.015263468,  0.024026720,  0.025044169,  0.052754708, 
   0.029945517, -0.042262178,  0.067691289, -0.079302922, -0.041848563, 
   0.030543031,  0.028977027, -0.015360164, -0.027802313,  0.012151973, 
  -0.017391164, -0.027675096, -0.030945268,  0.061782926, -0.059640832, 
   0.069680259,  0.028123762, -0.013939254,  0.007732314,  0.064872421, 
  -0.035418686, -0.029731583,  0.010840033,  0.074952483, -0.057481658, 
  -0.031509954, -0.079899915, -0.028431563, -0.097712144,  0.064777583, 
   0.079402052,  0.080685221, -0.027770614, -0.003484838,  0.039576307, 
  -0.099448211, -0.011494060, -0.003048280, -0.044117082,  0.051781658, 
   0.052194092, -0.023775948,  0.023964347,  0.031823054, -0.021043183, 
  -0.036428712, -0.106237710,  0.001930651,  0.005937999, -0.042837404, 
  -0.064743571,  0.220355302,  0.117487952, -0.101458646, -0.108106025, 
  -0.122827806,  0.040713489, -0.019238954,  0.026167734,  0.021917479, 
   0.147797287, -0.079736255,  0.079394624, -0.077863611,  0.119541362, 
  -0.146188572,  0.097737543,  0.116810262,  0.090418935, -0.085395105, 
   0.119713902, -0.002071459, -0.069573842, -0.032634087, -0.009327625, 
  -0.013989879, -0.030671041,  0.095194906,  0.118015379,  0.147978082, 
  -0.040505450, -0.003931436, -0.022394849, -0.047005747,  0.121298939, 
   0.094272494, -0.059463613, -0.043262858,  0.063687369,  0.038506936, 
  -0.060595118,  0.095988974, -0.060558293,  0.015094305,  0.025377842, 
  -0.018886544, -0.091091283,  0.147085607,  0.053828832, -0.093014047, 
   0.120807268, -0.045423273, -0.001516323,  0.186829939,  0.007646482, 
  -0.145909593, -0.115446307, -0.005784238,  0.077299513, -0.128020987, 
  -0.188240424, -0.011042991, -0.127149627, -0.146351084,  0.176808894, 
   0.224100828,  0.106310450, -0.081443034, -0.126434311,  0.003986123, 
   0.006942659, -0.028244931, -0.067908250, -0.063121036,  0.124877773, 
  -0.055916999, -0.003413390,  0.017270273,  0.208839387, -0.124874845, 
   0.020751916,  0.000558806,  0.124281153, -0.010688839,  0.052220121, 
  -0.025266606,  0.014331413, -0.088104121, -0.050851043, -0.061666094, 
  -0.099595822,  0.138360322,  0.113710180,  0.135436252, -0.084833622, 
   0.029209998, -0.132081375, -0.020078763,  0.150382653,  0.062569357, 
  -0.066442192, -0.035535730,  0.012478011,  0.138859063, -0.211595342, 
   0.073466018, -0.051997222,  0.043648880,  0.095299058,  0.045925617, 
  -0.013703366,  0.125733718,  0.145263404, -0.148814589,  0.075987853, 
  -0.028630963, -0.049068954,  0.207415134, -0.116883054, -0.181508571, 
  -0.086353444,  0.037975382,  0.156744152, -0.069721833, -0.159490079, 
   0.086614922, -0.139374956,  0.001714823,  0.197842821,  0.156557918, 
   0.134424418, -0.099633031, -0.036669079,  0.079288952, -0.011498919, 
  -0.093071856, -0.010902093,  0.039734233,  0.060394142, -0.011134843, 
  -0.040545169, -0.033524167,  0.062095862, -0.046065483,  0.069991544, 
  -0.003648297,  0.022390444, -0.125687078,  0.052627638,  0.013042323, 
  -0.038547527, -0.028876457, -0.089866452,  0.056997254,  0.005916452, 
   0.018017635, -0.020115672,  0.106788680, -0.135930970,  0.017392391, 
  -0.084175095, -0.018021159, -0.011749536, -0.065085024, -0.039389383, 
   0.018928135, -0.017662935,  0.004290055, -0.100706086,  0.006482336, 
  -0.101773694,  0.093485661,  0.018744621,  0.053207941,  0.011210258, 
  -0.019108860, -0.059652664,  0.004491875,  0.054444868,  0.090494342, 
  -0.016354505, -0.005385170, -0.081873789, -0.137120634, -0.015130487, 
  -0.021798117,  0.068885386, -0.094672471, -0.027387962,  0.056676019, 
   0.008367939,  0.010376583,  0.006546043,  0.090074793,  0.091952875, 
  -0.118933506, -0.141661182,  0.006991841, -0.109534524, -0.095036030, 
   0.056734174,  0.005632529,  0.027370522, -0.064398870,  0.027405383, 
  -0.018640881, -0.059468418, -0.009129321, -0.043461751,  0.130560726, 
   0.020579990, -0.095674664,  0.039326005,  0.051092561, -0.014589315, 
  -0.107346356,  0.033222202, -0.012899256,  0.029447282,  0.025244806, 
   0.070181608,  0.103126734, -0.058147117,  0.033200532, -0.187359795, 
  -0.079023615,  0.102255963, -0.034874763,  0.024938591, -0.037004359, 
  -0.004340261,  0.094378248, -0.042021655,  0.030142700, -0.113935247, 
   0.044403240,  0.104448490,  0.074834391, -0.042381763,  0.025567735, 
  -0.035437979, -0.025640016,  0.158035591,  0.054780647, -0.024479773, 
   0.078502141,  0.006524635, -0.008450566,  0.040294673,  0.062315062, 
   0.152001172, -0.024858477, -0.157804012,  0.138161197, -0.063776098, 
   0.004208247,  0.031569172,  0.305115074,  0.109444328,  0.032500692, 
  -0.303434104, -0.096846975, -0.054672997, -0.011444326, -0.010067144, 
  -0.056279629,  0.128555223,  0.060665540, -0.085958853,  0.010177788, 
   0.160000309, -0.071555957,  0.021425877,  0.089717969,  0.078891285, 
  -0.038250376,  0.121881194, -0.056625150,  0.021752795, -0.107420787, 
  -0.031662554,  0.031729210, -0.066275306,  0.036426496,  0.152014062, 
   0.037771765, -0.042499211, -0.135333315, -0.170899585, -0.034026977, 
   0.043087114, -0.081183560, -0.094092749, -0.024240911,  0.187043354, 
   0.193395928, -0.013157751,  0.038972147,  0.006926341, -0.042701643, 
   0.063874938, -0.075286090, -0.131778702,  0.223281264,  0.005086526, 
  -0.022830825,  0.146608442,  0.096544214, -0.017735820,  0.037404574, 
  -0.001895158, -0.143859595, -0.058002234, -0.039252728,  0.193655029, 
   0.107081294, -0.129505694, -0.051904023, -0.168856189, -0.085094593, 
   0.159291103,  0.282338768,  0.022685461,  0.075799324, -0.275605857, 
   0.157399550, -0.052879386,  0.019056939,  0.054650050, -0.094335414, 
   0.065696783,  0.009627824, -0.027308283, -0.099321112, -0.097309977, 
   0.080507271, -0.037661046,  0.079481378,  0.099362470, -0.141334623, 
   0.196281388,  0.163493276,  0.029456472, -0.170877174, -0.097843096, 
   0.026499396,  0.017880712,  0.133041844, -0.047365416,  0.058368485, 
  -0.040371709, -0.070749134, -0.203594506, -0.161213607,  0.115007877, 
  -0.051617086, -0.061095867, -0.049282573,  0.095423453,  0.225450337, 
   0.050288159,  0.015023976, -0.020849345,  0.103099398,  0.173659533, 
  -0.135750845, -0.116967142,  0.206608891,  0.053803716, -0.067093916, 
   0.053684682,  0.116444990,  0.089325815,  0.230388641, -0.119548067, 
  -0.085938610, -0.199839085, -0.022219094, -0.003061686, -0.019298254, 
  -0.172056764,  0.053078447,  0.002020300, -0.102038421,  0.094001010, 
   0.282879084,  0.020987585, -0.068852179, -0.177913144,  0.060866665, 
  -0.073106162,  0.010915749, -0.083374716,  0.015621699,  0.209750891, 
  -0.069083579,  0.008130856, -0.101807304, -0.089630552, -0.032713287, 
   0.107843764,  0.201433659,  0.061636817, -0.122373827,  0.178131208, 
   0.180877686,  0.128405035, -0.058211587,  0.010053826, -0.065486081, 
   0.011958923,  0.072632372, -0.022912288, -0.016611490, -0.128655493, 
  -0.067249916, -0.218355805, -0.026106490,  0.074673869, -0.007847918, 
  -0.136644870,  0.069451831,  0.253410369,  0.185623229, -0.078581780, 
  -0.037833638, -0.029412312,  0.043218434,  0.191442549, -0.011382475, 
  -0.025195470,  0.037502695, -0.065281369, -0.014464402, -0.041936684, 
  -0.030768199,  0.103195332,  0.111799128, -0.012398929, -0.073192649, 
   0.007793889,  0.069515839, -0.003685995, -0.145115882, -0.215033710, 
  -0.024653794,  0.061232217, -0.068929508,  0.187750250,  0.300597936, 
   0.024758121, -0.074019447, -0.249361485,  0.065579683, -0.019361345, 
  -0.025704809, -0.082206398, -0.098330341,  0.157420129, -0.073726937, 
  -0.097805016, -0.014663969, -0.111999936, -0.003625721,  0.102066323, 
   0.239523247,  0.142894745, -0.088090256,  0.283313662,  0.120371670, 
   0.180741310, -0.024404518, -0.062934302, -0.032939505,  0.090100996, 
   0.087074190,  0.124272622,  0.002159735, -0.176655442,  0.014361229, 
  -0.283563524, -0.212414056,  0.047485583,  0.003985723, -0.183193102, 
  -0.083399236,  0.226023942,  0.226389587, -0.117090330,  0.028613081, 
  -0.069838658,  0.027894396,  0.197545841, -0.115330301,  0.050379347, 
   0.052659102,  0.028612748, -0.094419681,  0.062141150,  0.139874339, 
   0.172452450,  0.149889886, -0.012145644, -0.237695798,  0.001914673, 
   0.056921367, -0.001557198, -0.012796957, -0.217379168, -0.026920164, 
  -0.077267103, -0.079983853,  0.196287528,  0.239275962,  0.217313960, 
   0.025940627,  0.056380562, -0.206205398, -0.117883012, -0.010143141, 
  -0.051672682,  0.163455874,  0.165552795, -0.034094293,  0.124800794, 
  -0.055121306, -0.004100504, -0.165034637, -0.033086315, -0.083460592, 
   0.013284477, -0.002649078,  0.138950109, -0.068985187,  0.013530097, 
  -0.058259271, -0.071906343,  0.008824064, -0.073335744, -0.043320045, 
  -0.090055659,  0.045128394,  0.058885921,  0.173371285, -0.164939880, 
  -0.036252309,  0.115015313, -0.131134719, -0.047601812,  0.066766329, 
   0.051907942,  0.028815079, -0.214063764, -0.003635004, -0.085118264, 
  -0.032938991,  0.019526811,  0.046653382,  0.194277912,  0.365972608, 
   0.169523761,  0.013246534,  0.117953338,  0.197510093, -0.033757098, 
  -0.014299802, -0.184492990, -0.025285563,  0.072645865,  0.150088251, 
  -0.045253638, -0.057868220, -0.164886951, -0.020643612, -0.198749617, 
   0.002910418,  0.005677615,  0.180425987,  0.153749198, -0.176346317, 
  -0.073556177, -0.125331298,  0.122405052,  0.098181896, -0.090322606, 
   0.149816379,  0.076412804, -0.070863165, -0.082681462, -0.033824973, 
  -0.005850908, -0.221488208,  0.025314603, -0.223293766, -0.023454593, 
  -0.181789532,  0.245166481, -0.125861719,  0.234021962, -0.230588824, 
   0.063884392,  0.002343925,  0.132983953,  0.034330525, -0.064513363, 
   0.155358329, -0.139153019,  0.018023746, -0.182480067,  0.204497159, 
   0.116153680,  0.055205051, -0.138091370, -0.113302410,  0.008314434, 
   0.143596709, -0.165153950, -0.048931353, -0.002286155,  0.088917635, 
   0.153253108, -0.005190958,  0.163222402,  0.262280226,  0.111917309, 
  -0.168915376,  0.101737931,  0.190446109, -0.074136235,  0.117801450, 
  -0.263921559,  0.063191488, -0.079438783,  0.151039615,  0.016810002, 
  -0.214190751, -0.218782857,  0.072127894, -0.021514380,  0.123459496, 
   0.141548187,  0.291558176, -0.187590942, -0.276374638, -0.206807256, 
   0.416732907,  0.119107164,  0.162446365,  0.008158755, -0.120455511, 
   0.033150073, -0.192931518, -0.126574904, -0.095345631, -0.152211830, 
  -0.110898040,  0.045292854, -0.119948387,  0.106807165, -0.115724251, 
   0.332685500, -0.144071132,  0.236751527, -0.008173029,  0.156700477, 
  -0.061276745,  0.196849540,  0.304591089, -0.073678732,  0.036281582, 
  -0.217651948,  0.053049527, -0.120371722, -0.091040723, -0.072192892, 
   0.059357595, -0.103535898, -0.007509710, -0.153753847,  0.152303174, 
   0.146485597,  0.198016599, -0.044709560,  0.254364520,  0.259321302, 
  -0.246848777,  0.080082379,  0.289941043,  0.000514633, -0.099376164, 
  -0.043944307,  0.380059212, -0.063873179,  0.189546272, -0.058274958, 
   0.047070209, -0.142281935,  0.327303082,  0.053178459, -0.130951867, 
  -0.102291092,  0.007118139,  0.397775888, -0.005715647, -0.057318412, 
   0.233692482, -0.115484074, -0.354693562, -0.188065276,  0.393501520, 
   0.076284237,  0.163206175,  0.074069381, -0.260155082, -0.117487192, 
  -0.073297501, -0.171310544, -0.000321817, -0.177185550, -0.120775610, 
   0.010664269, -0.152585864, -0.011682195, -0.263162524,  0.183859274, 
  -0.197380245,  0.132012457, -0.024325643,  0.109639458, -0.002968639, 
   0.181806535,  0.196922138, -0.108586155, -0.012564393, -0.228994057, 
  -0.042769339, -0.166932777, -0.069418840, -0.212527037, -0.055468291, 
  -0.170252472, -0.063938424, -0.112750322,  0.236848935,  0.213574991, 
   0.291900218, -0.102085344,  0.090242833,  0.260594577, -0.200571373, 
  -0.021611661,  0.157042518,  0.099587686, -0.095453605, -0.049866483, 
   0.247366488, -0.081790380,  0.124330543, -0.144891948,  0.030434228, 
  -0.136172116,  0.199929550,  0.150877491, -0.200705037, -0.135638028, 
   0.059224479,  0.338390589, -0.003367746,  0.022769706,  0.262996644, 
   0.035688650, -0.018016540, -0.271792293,  0.126249701, -0.056164093, 
  -0.095185615, -0.061116304, -0.201730341,  0.074049041,  0.106759273, 
  -0.010312713, -0.042039655,  0.104142956,  0.091378286,  0.077879950, 
   0.132301733,  0.108865730, -0.047497671,  0.175354734, -0.063808106, 
  -0.120991871, -0.105442435, -0.086750604, -0.049667038, -0.018208679, 
   0.220787689,  0.085557133,  0.187848195, -0.104122646, -0.209314957, 
  -0.082094640,  0.111599743,  0.021876713, -0.011714981, -0.085867994, 
   0.003888618,  0.143988967,  0.188909456, -0.027634889,  0.064862981, 
   0.052955370,  0.103423245,  0.153030574,  0.004804602, -0.201412737, 
   0.169640779,  0.027029350, -0.042413194,  0.082071953,  0.025161136, 
   0.206871077,  0.172565833, -0.052873146, -0.138461113, -0.049190719, 
   0.046228711,  0.055360742,  0.092181973, -0.179670691,  0.058229420, 
  -0.144789219, -0.059224311,  0.099497914,  0.227545202,  0.129055902, 
   0.007033065, -0.227949113, -0.014843152, -0.067025341, -0.067069255, 
   0.003147726, -0.251599848,  0.120458983, -0.043798771,  0.081196263, 
  -0.088460341,  0.236561999, -0.122217394, -0.058075260,  0.337950349, 
   0.034858245, -0.122347899,  0.099943221, -0.080072723, -0.080515526, 
  -0.169373214, -0.149069950,  0.006225131, -0.272189140,  0.154291227, 
   0.282966226,  0.240490183, -0.158823058, -0.212760001, -0.212038517, 
   0.100552402,  0.173442200,  0.002118350, -0.061209612, -0.115214303, 
   0.229798183,  0.197569415, -0.220613912,  0.110931322, -0.046637878, 
   0.018703416,  0.173389599,  0.108610682, -0.197045416,  0.050840333, 
   0.173268870, -0.089088611,  0.129726261,  0.062879317,  0.191158533, 
   0.193741322, -0.232651204, -0.031542465, -0.084272325, -0.076962918, 
   0.125593483, -0.047615252, -0.184506983, -0.001676146, -0.165365338, 
  -0.055116735,  0.193866432,  0.127013013,  0.079922780,  0.068655595, 
  -0.295420647, -0.105152942, -0.095036611, -0.011954836, -0.012390173, 
  -0.233339205,  0.164149702,  0.101196460, -0.043604709, -0.023852117, 
   0.246279791, -0.117602855,  0.021632001,  0.124308631, -0.101824075, 
  -0.181918487,  0.130742401, -0.090425417, -0.126541942, -0.233745888, 
  -0.106314801, -0.140542418, -0.289821416,  0.041547012,  0.118277401, 
   0.233456045, -0.018970843, -0.135060206, -0.126875862,  0.123256482, 
   0.168016538,  0.023221694, -0.091857404,  0.017318754,  0.190152138, 
   0.204467610, -0.179568172, -0.080224171, -0.010736278, -0.037700120, 
   0.129424706,  0.138535067, -0.251191378,  0.171240017,  0.090529054, 
  -0.198845893,  0.062019207,  0.106877275,  0.190180883,  0.178372830, 
  -0.229109406, -0.194475263, -0.127202734, -0.182140872,  0.230452925, 
   0.064120091, -0.145827353, -0.037316311, -0.204957813, -0.145729065, 
   0.253875911,  0.239046946,  0.107094571,  0.009965537, -0.159268722, 
  -0.090280011, -0.060287938, -0.119388781, -0.107636139, -0.070354469, 
   0.172182277,  0.000054754, -0.077203244, -0.090841644,  0.107536979, 
  -0.075155705, -0.002830729,  0.128055513,  0.016921962, -0.123386353, 
   0.084723227, -0.070827626, -0.042805903, -0.103965901, -0.007654341, 
  -0.017589282, -0.188777804, -0.016354365,  0.112851039,  0.081597060, 
  -0.067459404, -0.179623038, -0.076385863,  0.302751094, -0.073802210, 
  -0.000014443, -0.082492761,  0.025664316,  0.132909924,  0.047176160, 
  -0.094866097,  0.010727593, -0.017480511,  0.090673164,  0.075024098, 
   0.165319219, -0.147068977,  0.127523586,  0.075918950, -0.132140711, 
   0.110320337,  0.069256224,  0.223787352,  0.204612568, -0.175779149, 
  -0.044674654, -0.081208348, -0.149630785,  0.057527933,  0.050462574, 
  -0.088353470, -0.005730911, -0.116983630,  0.034499414,  0.159678474, 
   0.132445186,  0.078846030, -0.038359217, -0.066205949, -0.039136894, 
  -0.023915645, -0.113845669,  0.064017721,  0.068862177,  0.211402237, 
   0.039537270,  0.048560206,  0.017540703,  0.071220547, -0.082473516, 
  -0.078921057,  0.163294956, -0.020208851, -0.120048575,  0.123244144, 
  -0.045734912,  0.012572249, -0.026433362, -0.073796920,  0.076048069, 
  -0.194971427,  0.034039512,  0.132447809,  0.073107481, -0.064604782, 
  -0.141547397, -0.122412279,  0.182843104,  0.107252128,  0.068229221, 
  -0.034446262, -0.032107387,  0.175205365,  0.137809977, -0.135424599, 
   0.100925557, -0.062989049,  0.048859719,  0.091434918,  0.070703439, 
  -0.141536132,  0.032834906,  0.078692138, -0.042551558,  0.091143273, 
   0.074720673,  0.096742615,  0.125178352, -0.093817338, -0.056610767, 
  -0.170202166, -0.110822454,  0.146035641, -0.089428268, -0.159886584, 
   0.036496639, -0.099101402, -0.083768852,  0.210921392,  0.214479595, 
   0.082715608, -0.100078680, -0.207135290, -0.084127046, -0.075200796, 
   0.020249415, -0.052232604,  0.041815676,  0.217193827, -0.053818796, 
  -0.046705529, -0.157553837,  0.056236394, -0.005367483,  0.034074649, 
   0.117819130,  0.087095603, -0.064434938,  0.118269816, -0.034900185, 
  -0.087796733, -0.096228495, -0.024270236,  0.088997178, -0.132083163, 
   0.163999617,  0.035705570,  0.063386112, -0.139640644, -0.002386002, 
  -0.204997540,  0.046725012,  0.031097867, -0.039101489, -0.047418512, 
   0.010193805,  0.085305423,  0.107689522, -0.064859204,  0.031613566, 
  -0.090043552,  0.138151333,  0.179635003,  0.071082689, -0.120379694, 
  -0.019601414,  0.144905537,  0.021264020,  0.191001311,  0.124341540, 
   0.084193379,  0.161145732, -0.066952974, -0.008377967, -0.085616797, 
   0.008557994,  0.090646364, -0.021509865, -0.122500315,  0.019144800, 
  -0.207055911, -0.156737477,  0.106428213,  0.080457754, -0.039147843, 
   0.015912123,  0.029660031,  0.032031849, -0.038428999,  0.080077596, 
  -0.011840262,  0.034321062,  0.053335361,  0.056358255,  0.043068208, 
  -0.061111577,  0.014054991, -0.079389438, -0.019091062,  0.015442722, 
  -0.081599914, -0.066679284, -0.023169201, -0.046150893,  0.019531369, 
   0.021372736, -0.053520098,  0.032094821,  0.002379760, -0.064370014, 
   0.017273381, -0.049490072,  0.009042360,  0.081064008,  0.071436562, 
  -0.039609324,  0.034443155, -0.060153276,  0.047915839, -0.044628475, 
   0.017116994, -0.010150246, -0.082685180, -0.030531410, -0.029873312, 
  -0.046088923,  0.082931004, -0.046481334,  0.082793869, -0.020685114, 
  -0.000779971, -0.042876970,  0.067558147,  0.033832610, -0.054079708, 
  -0.006798789,  0.016844183,  0.041184463,  0.018025815, -0.056364708, 
  -0.016259372, -0.054929189,  0.072214402, -0.049918905, -0.005178280, 
   0.064581938,  0.052740999,  0.012854971, -0.025572926,  0.071540900, 
  -0.023468118,  0.056030981, -0.000390649, -0.038630091, -0.040188726, 
   0.046040274, -0.026930835,  0.068025284,  0.014793910,  0.055693902, 
   0.055287145,  0.000893883,  0.071418725, -0.015639417, -0.017525390, 
   0.082211800,  0.069193371,  0.055460773,  0.070264466, -0.054377824, 
  -0.053496335,  0.031904943, -0.017376281, -0.045827288, -0.060787167, 
   0.022744238,  0.059961416, -0.012594238,  0.026178822,  0.019032225, 
  -0.009945482,  0.064482279,  0.035181552,  0.065639786,  0.032506667, 
  -0.057019696, -0.065175496,  0.008558035, -0.063186318,  0.043060966, 
   0.008205250, -0.043988887, -0.028022155, -0.076461196, -0.040520113, 
  -0.029671382, -0.021104179, -0.000038266,  0.042501532, -0.073590696, 
  -0.029936947, -0.037725378, -0.075395584,  0.070358314, -0.052823678, 
   0.035809927,  0.037147544,  0.054214202,  0.058519058,  0.030033708, 
  -0.051991343,  0.035138875,  0.006123401, -0.014552705,  0.009020880, 
  -0.037332688, -0.050769947, -0.012607738, -0.003988132, -0.032461584, 
   0.080568217,  0.052466996,  0.002517395, -0.044009123,  0.006820045, 
   0.003952779, -0.031435218, -0.051907957,  0.047447912,  0.001729324, 
   0.067461319,  0.081028454, -0.040026344,  0.015197910,  0.033454694, 
   0.005636297,  0.053515248,  0.065388359,  0.053048991, -0.023244929, 
  -0.033749238,  0.038328409,  0.023294322,  0.018696748, -0.072266780, 
  -0.029513549, -0.054489970,  0.050263666, -0.043419592, -0.043134332, 
   0.029843353, -0.042736206,  0.049442105,  0.076593064, -0.008357950, 
  -0.029386643, -0.050253678,  0.019023478, -0.067746311, -0.014013939, 
   0.071921699,  0.047989599,  0.025090687, -0.029474605,  0.036497645, 
  -0.018636905,  0.048836552, -0.021935754, -0.073159203,  0.029572412, 
  -0.034099255,  0.024291888,  0.053987958, -0.004582599,  0.065739192, 
   0.055530153, -0.052300509, -0.011999413,  0.044495575, -0.014502630, 
  -0.081227474,  0.034107298,  0.084075339,  0.015883841,  0.018050022, 
  -0.024445027,  0.045938171,  0.077557169, -0.005986951, -0.044176720, 
   0.062599160,  0.015120797,  0.048672013, -0.002778850, -0.020445541, 
  -0.083162278, -0.043683615,  0.072889142,  0.048214652, -0.074039683, 
  -0.001802385,  0.004971281, -0.013772279, -0.051138915,  0.036537215, 
  -0.061631013,  0.069921993, -0.060453296,  0.031536818, -0.045579791, 
   0.058692388,  0.082244121, -0.028378971, -0.056198295, -0.076342933, 
  -0.078110524,  0.040080294,  0.041844226, -0.054804087, -0.010686912, 
  -0.007794447, -0.010951713, -0.010582305, -0.049578935,  0.032659926, 
  -0.067260772, -0.075598225, -0.038044933, -0.070938312,  0.025015242, 
  -0.002564542,  0.073682629,  0.081156962,  0.015126273,  0.056561746, 
   0.000522390, -0.039621238,  0.049415343,  0.034501858, -0.069746703, 
   0.020986058,  0.041998185,  0.077785529,  0.012969263,  0.002519064, 
   0.019366458, -0.038827930,  0.074138351, -0.061633438,  0.020649739, 
  -0.004130505, -0.031495303, -0.079858936,  0.011231899,  0.082372077, 
   0.071360715,  0.062312655, -0.020041957,  0.004063919,  0.013524197, 
  -0.078896992,  0.016027212, -0.049362745,  0.007549137, -0.065830722, 
  -0.006529994,  0.019653276, -0.020190105,  0.002192207,  0.007510811, 
  -0.048604775,  0.043448932, -0.052765958, -0.024433877,  0.001220331, 
   0.076589771,  0.061419614, -0.054097377,  0.074658252, -0.033541132, 
  -0.044748601, -0.041774299, -0.007932507,  0.035145611,  0.004125886, 
   0.021968342,  0.040555768,  0.002589695,  0.042323016, -0.079912104, 
  -0.046087418,  0.031053998, -0.032486711, -0.017596886, -0.000705987, 
   0.013173081,  0.035051495,  0.002296373,  0.035176955,  0.001935266, 
   0.008844979,  0.026974216,  0.020081431,  0.061460041,  0.020789705, 
  -0.006690010,  0.050746240, -0.012510814, -0.073316813,  0.026024424, 
   0.005374879, -0.057905216,  0.055072226, -0.026057813,  0.074752308, 
   0.067036800,  0.002726123,  0.006852314, -0.072652295, -0.080282517, 
   0.021575309,  0.049902178, -0.008949362,  0.029722765,  0.062380917, 
  -0.014192641, -0.015076257,  0.081597961, -0.048944000, -0.062425181, 
  -0.026713885, -0.047613926,  0.014171503,  0.029550910, -0.036567979, 
  -0.019152187, -0.056401350, -0.067430936, -0.022503141,  0.021093510, 
  -0.008515038, -0.082718372,  0.049676739, -0.003111482,  0.008513898, 
   0.023215167,  0.024579853, -0.048031710, -0.007786304, -0.008239642, 
  -0.028064452,  0.001941346,  0.000627451,  0.051379390,  0.076058365, 
  -0.001796931,  0.069587238,  0.035240673,  0.061798595,  0.032282956, 
   0.000090085, -0.054823101,  0.069861345,  0.059041195, -0.011160865, 
   0.000956409, -0.075167850,  0.056946907, -0.000937873, -0.072139002, 
  -0.037126586,  0.019581748, -0.045811094, -0.075429097,  0.074271381, 
  -0.059056494,  0.015313228,  0.030860685, -0.037216030, -0.080102287, 
   0.042302057, -0.071916007,  0.054333441, -0.004246353, -0.033298302, 
  -0.068150885,  0.074494965, -0.068281762,  0.074945547, -0.001663238, 
   0.029973004, -0.011018309,  0.052303482,  0.069526032, -0.011255702, 
   0.045824647, -0.024038998, -0.019489937,  0.070014156, -0.027803902, 
  -0.004718740,  0.000429008,  0.051982559, -0.062935054, -0.055944897, 
   0.057246186,  0.034225535,  0.074113406, -0.025692979, -0.049402926, 
   0.019832416, -0.066030145,  0.041675381, -0.007824277,  0.025538372, 
  -0.089706101, -0.020968374,  0.010069059, -0.016822996,  0.010405047, 
  -0.000377338, -0.040055454, -0.028754605,  0.032843612, -0.006867786, 
   0.048576858, -0.012874153,  0.051316213, -0.020802554, -0.018584434, 
  -0.039891154, -0.066200756, -0.223154768,  0.071400993, -0.278365105, 
  -0.118321955,  0.111060075,  0.241268158,  0.014984780,  0.053782634, 
  -0.020097449, -0.310138702, -0.167225897,  0.025129965, -0.258684307, 
  -0.263585627,  0.024325401, -0.303063691, -0.043973677, -0.142814219, 
   0.223982498,  0.285941094,  0.284676194, -0.279993773,  0.112199381, 
  -0.013732919,  0.213047326, -0.081614219, -0.214330807,  0.130095959, 
   0.020329069,  0.055882595, -0.051151033,  0.199581206,  0.020701991, 
   0.067592405, -0.235341132, -0.087916866, -0.172987550,  0.182563022, 
  -0.256549984,  0.020691004, -0.077985212, -0.059394717, -0.065608807, 
   0.053321563,  0.180070788,  0.215085432,  0.307052642,  0.089553982, 
  -0.028816395,  0.033373084, -0.103646033,  0.256720901, -0.319146931, 
   0.305763006,  0.074755669,  0.089986324, -0.249340847, -0.178742766, 
  -0.261103094,  0.002253279,  0.089223504,  0.206970856, -0.076544710, 
  -0.011954333, -0.127680510, -0.104632199, -0.236847907, -0.165689051, 
   0.077589564,  0.256221235, -0.072063737, -0.043848023, -0.022413731, 
  -0.255172789, -0.179994524, -0.007741795, -0.193713829, -0.277103812, 
  -0.007434098, -0.143595293,  0.032644711, -0.279528797,  0.281393379, 
   0.193844855,  0.221298397, -0.167222917,  0.107853927,  0.042581785, 
   0.091567792, -0.168476716, -0.140121773,  0.178768709, -0.106537998, 
  -0.036021162, -0.087583244,  0.170648634, -0.040125381,  0.072973393, 
  -0.228268996,  0.031989723, -0.028901592,  0.187966332, -0.176409632, 
   0.010818847,  0.049117032, -0.013383875,  0.091856480, -0.034595124, 
   0.205191568,  0.287225872,  0.156830415, -0.060879823, -0.014904383, 
   0.007713068, -0.076237932,  0.218655676, -0.236966595,  0.153433070, 
   0.169549555, -0.015575727, -0.058484260, -0.260543913, -0.317848086, 
   0.018445164,  0.013858911,  0.140110120, -0.063016295,  0.014126651, 
   0.072229199, -0.083687164, -0.062790647, -0.051725991,  0.035322804, 
  -0.080077037, -0.076655410,  0.026313649,  0.046195216,  0.002628756, 
   0.013631810, -0.049772315,  0.000238539,  0.054493196,  0.025995752, 
  -0.046912596, -0.085360907, -0.028921152,  0.106318645,  0.073270768, 
  -0.046598725, -0.021493651, -0.036495019,  0.086918868, -0.013730253, 
  -0.049243212,  0.043566272,  0.037796587, -0.032711383,  0.059246846, 
   0.028504029,  0.000803545,  0.035714574,  0.076230206, -0.011856329, 
  -0.033306092,  0.134677112, -0.059227671, -0.026838828,  0.003265479, 
  -0.060347270, -0.034310535,  0.000737188, -0.030905627,  0.021114664, 
   0.095550574,  0.029120082, -0.023920877,  0.085961506, -0.043408506, 
   0.086267367,  0.090515822, -0.021617096,  0.016490933,  0.040308978, 
  -0.035633232, -0.024103679,  0.007884684,  0.028611617, -0.027271386, 
   0.034284115,  0.016183360, -0.011872492,  0.199149877,  0.129625797, 
   0.009366750, -0.069379203,  0.009995264, -0.167837396,  0.026998907, 
  -0.039373599, -0.077594161,  0.181593508, -0.063717186,  0.059309993, 
  -0.021874415,  0.090480126, -0.140324727, -0.046021156,  0.069974966, 
   0.012638367, -0.121753685,  0.150396362,  0.088414647, -0.016880395, 
  -0.005447950,  0.081737459,  0.021130506,  0.014755030,  0.073145486, 
  -0.002222816,  0.114630587, -0.105031922,  0.065644585, -0.116438098, 
  -0.025465023,  0.074116848, -0.031262994, -0.152652696,  0.052141119, 
   0.165584758,  0.049057800, -0.079174221, -0.011541251,  0.000107622, 
  -0.013040485,  0.156886041, -0.118063137, -0.052191373,  0.127005473, 
  -0.008778322,  0.006255439,  0.117491789,  0.020472454, -0.032981414, 
   0.033133395,  0.002496676, -0.088328645, -0.090496704,  0.087463401, 
   0.023733314, -0.139069751, -0.088897780,  0.027588023, -0.049782936, 
  -0.040061433,  0.060937956,  0.257636815,  0.097876638, -0.125667259, 
  -0.258257419,  0.081673577, -0.095866121,  0.010079612, -0.033042312, 
   0.007115133,  0.137670085, -0.102126949,  0.046851620, -0.110463843, 
   0.042504791, -0.107205905, -0.009841300,  0.060335189, -0.022640893, 
  -0.080110498,  0.158929870,  0.068792850,  0.125872299, -0.027071415, 
  -0.105573639, -0.024806159, -0.035465151,  0.142060772, -0.023668237, 
   0.145660773, -0.014131282, -0.039724845, -0.016030002, -0.092262357, 
  -0.004836277,  0.030595792, -0.136429787,  0.024052124,  0.099511437, 
   0.202521428, -0.160541162,  0.018077603, -0.099339880, -0.023332790, 
   0.152716070, -0.140757993,  0.000086233,  0.086801909,  0.024572777, 
  -0.038534503,  0.057396166,  0.031962413,  0.005274803,  0.121516295, 
  -0.136123642, -0.098476402, -0.007037051, -0.055283416,  0.161714345, 
  -0.044636656, -0.219022766, -0.001298956, -0.195670992, -0.071737602, 
   0.173288256, -0.191925794,  0.072922744, -0.032280412, -0.169548720, 
   0.213379383, -0.199756160, -0.199341819, -0.171978801, -0.078936249, 
  -0.078568384, -0.072859600,  0.129480511, -0.055191901, -0.028659482, 
   0.104035661,  0.101693496,  0.089278460,  0.047800038, -0.114201993, 
   0.278162390, -0.254104674, -0.082459085,  0.025468722, -0.001127355, 
   0.180668175, -0.067370966,  0.270429730,  0.062376812,  0.065602794, 
  -0.189687297, -0.052944854,  0.048798714, -0.195359990,  0.007684695, 
  -0.044064555, -0.052082330, -0.127001986,  0.083191514,  0.127450317, 
  -0.167327419,  0.113849692, -0.067437693,  0.170027107,  0.130684718, 
  -0.079355627, -0.147962838,  0.146917984, -0.217269510,  0.007625433, 
   0.184443206,  0.084573701, -0.089848712,  0.171483248, -0.015471860, 
  -0.230009139,  0.248998255,  0.185372725,  0.220360309, -0.037749238, 
  -0.213781133,  0.069420695, -0.124343790, -0.214676082, -0.166777313, 
  -0.303628743, -0.089867570,  0.169743180, -0.064636409,  0.464669496, 
  -0.103907123, -0.277114391, -0.117824845, -0.133440524, -0.210632980, 
  -0.256452948,  0.176498994, -0.074217811, -0.082862966,  0.156214833, 
  -0.189451113, -0.055310614,  0.024446467, -0.192671448,  0.373206764, 
  -0.240180731, -0.098925702,  0.178050146,  0.027739652,  0.087345883, 
  -0.070897862,  0.354226619,  0.200948477,  0.232869625,  0.012127357, 
   0.012608128, -0.035937879, -0.176864281, -0.067370057, -0.110915750, 
  -0.226511985,  0.020868044,  0.208414063,  0.023065519, -0.130779013, 
   0.261121869, -0.229097947,  0.020809069,  0.131642655, -0.023024946, 
  -0.072923921,  0.064655095, -0.330051363,  0.087869264,  0.323139280, 
   0.214660242, -0.128856242,  0.080867410,  0.022958986, -0.037449252, 
   0.313357443,  0.301761329,  0.097402789,  0.074993283, -0.134962976, 
   0.132996336, -0.002085149, -0.146348298, -0.220480278, -0.198399276, 
  -0.026152859,  0.136836648, -0.145740062,  0.312316418, -0.054510143, 
  -0.273936152,  0.131182283, -0.023651697, -0.124019884, -0.107988179, 
   0.091248393, -0.160919532,  0.032822933, -0.134480983, -0.035617635, 
  -0.108452231,  0.111519881, -0.046358470,  0.385517180, -0.168379977, 
  -0.061173212,  0.085648954,  0.045236856,  0.055567574,  0.102968484, 
   0.265806556,  0.112087645,  0.227753878, -0.005233282,  0.162157923, 
  -0.090676323, -0.275381148, -0.199394569, -0.108442150, -0.169371113, 
   0.000539348,  0.079389974,  0.047238205, -0.071625322,  0.172270626, 
  -0.123371363,  0.012207159, -0.023927437,  0.000081420, -0.063614465, 
   0.156349868, -0.196576104,  0.021187481,  0.382151932,  0.184551641, 
  -0.152765051, -0.015848123, -0.090500705, -0.042407416,  0.020985030, 
   0.081456028,  0.092908636,  0.047121201, -0.301852047,  0.160401255, 
   0.005246620, -0.150826424, -0.174906656,  0.047973670,  0.065585628, 
   0.267913908, -0.332869142,  0.149754375,  0.043667074, -0.128182322, 
  -0.095612049, -0.239453286,  0.070005059,  0.206711784, -0.006334872, 
  -0.049612183,  0.182930574,  0.044424091,  0.006231037,  0.245330200, 
   0.125262514,  0.007219856,  0.490272343,  0.000721853,  0.037759036, 
  -0.007476071,  0.213420823, -0.126852721, -0.068253748,  0.234253317, 
   0.221320823,  0.051740456,  0.063435808,  0.236440659, -0.056741830, 
  -0.138978675, -0.021094006, -0.188571274, -0.125154212, -0.004571862, 
   0.134179711,  0.201256052, -0.055507880,  0.146027878, -0.109049939, 
  -0.042497627,  0.187033758, -0.093035370,  0.071975410,  0.245321825, 
  -0.160775632, -0.110292517,  0.134972736,  0.069741927,  0.186897710, 
   0.152788445, -0.075691104, -0.304986030, -0.102689438, -0.043110073, 
   0.252535284,  0.136335745, -0.363653660, -0.014633435, -0.276022375, 
  -0.390339851,  0.127853543,  0.053400040, -0.001488653, -0.093150444, 
  -0.045517009,  0.148198172, -0.168111145, -0.078822836,  0.043392945, 
   0.000424994, -0.206948176,  0.108400993,  0.070056923, -0.195201889, 
  -0.053111915, -0.011125199, -0.161563292,  0.322442472,  0.045748498, 
   0.007436532,  0.182329461, -0.048671149,  0.031274091, -0.080491990, 
   0.248932630, -0.187442541,  0.197829828,  0.367768794,  0.001112426, 
  -0.115388148,  0.080281630,  0.249443680, -0.117990568, -0.087082699, 
  -0.185331464, -0.231896281, -0.119791023,  0.017555946, -0.059839346, 
  -0.027729709, -0.204797566,  0.091435738,  0.142553955, -0.162250072, 
   0.031134486, -0.065297551,  0.215224534,  0.328339249, -0.203235433, 
   0.129166216,  0.394438058,  0.296533853, -0.161230519, -0.081092209, 
   0.199591413, -0.288283736, -0.050604559, -0.014897775, -0.005996783, 
  -0.071220614, -0.420277327,  0.103776835, -0.031013263, -0.361264765, 
  -0.082326308,  0.122392550,  0.286640704, -0.399479359, -0.015330560, 
  -0.165589362, -0.379801631, -0.165058985, -0.038238112,  0.169177219, 
  -0.088671528,  0.097369045,  0.030435594, -0.307439446,  0.108897887, 
  -0.204783723, -0.125555977,  0.040499628,  0.093539886, -0.202418223, 
   0.199296296, -0.265618175, -0.030550081, -0.222806081,  0.252283633, 
  -0.049518172, -0.082311787,  0.197281480, -0.174583584, -0.019587990, 
   0.273139566,  0.167840764, -0.243263736, -0.276272237,  0.026696989, 
  -0.181164011, -0.041967865, -0.128417209,  0.092787758, -0.144981638, 
  -0.357614219, -0.228651658,  0.198913693, -0.003922327, -0.146268263, 
  -0.215833262,  0.079315908,  0.367571384,  0.125504166, -0.017275974, 
   0.471579015,  0.158704117, -0.130612627, -0.172609970,  0.154352605, 
  -0.469460279, -0.218868628, -0.082081459,  0.013614166, -0.184605196, 
  -0.384212792,  0.135099947, -0.074114308, -0.218368173, -0.124561541, 
  -0.038450122,  0.139501259, -0.294002503, -0.037257325,  0.056126148, 
  -0.347188324, -0.257032126, -0.211375669, -0.032010496,  0.041437529, 
  -0.044980012,  0.251776278, -0.276715994,  0.123132236,  0.135205880, 
  -0.087464921,  0.189932883,  0.016557930, -0.221185297,  0.252059221, 
  -0.339955449, -0.129889593,  0.142724916,  0.204338446, -0.143682420, 
  -0.000112360,  0.273876160,  0.072299436,  0.017413039, -0.226659149, 
   0.207690492, -0.339186102, -0.344148219, -0.031599011, -0.077828318, 
  -0.095091127, -0.177373886,  0.364584953,  0.068805389, -0.131449237, 
  -0.009713655,  0.105845153,  0.064942561, -0.021845810, -0.236703843, 
   0.083507769,  0.359211713, -0.119712181, -0.143413991,  0.290884703, 
   0.204798698,  0.007806604, -0.085010938,  0.179968134, -0.357113272, 
  -0.218402490, -0.008369433,  0.105936587, -0.133557677, -0.365117520, 
  -0.008130764,  0.093606189, -0.301929653, -0.084603541,  0.120555900, 
   0.398147196, -0.161530003,  0.126184717, -0.088403434, -0.281881899, 
  -0.153069705, -0.352001786,  0.190682724,  0.042376108,  0.039644394, 
   0.221424833, -0.216427118,  0.214256078, -0.117675237, -0.226582810, 
  -0.020109676,  0.011399934, -0.023154287,  0.255553037, -0.058694635, 
  -0.004738365, -0.076167196,  0.075052954, -0.107129209, -0.211380154, 
  -0.102232426,  0.105547152, -0.040247157, -0.118567750,  0.202732190, 
  -0.321288705, -0.292494893,  0.215699464, -0.071575165, -0.080237411, 
  -0.086037770,  0.231255949, -0.025302326, -0.181721807, -0.097024202, 
  -0.062208697, -0.046074398,  0.035631545, -0.123040199,  0.238364145, 
   0.342310816,  0.135393873, -0.347550094,  0.241057947,  0.105102345, 
   0.175609946, -0.035269588, -0.046152379, -0.351327866, -0.219229594, 
  -0.034639936,  0.113314554,  0.048203498, -0.208476901,  0.050898165, 
  -0.210213169, -0.361490935,  0.162781104,  0.213013262,  0.414763272, 
   0.002915450,  0.120331027, -0.133162379, -0.385778874, -0.054721128, 
  -0.241055891,  0.240478218, -0.016153261, -0.067690238,  0.035868172, 
  -0.105930924,  0.175663143, -0.090674281, -0.158538148, -0.085542522, 
  -0.047557496,  0.116097651,  0.082922898,  0.082463972, -0.094728366, 
  -0.083628856,  0.052142594, -0.012924053, -0.201187819, -0.032623179, 
   0.081033438, -0.010747132, -0.191880450,  0.213359386, -0.174578950, 
  -0.098017015,  0.282887548, -0.170451835, -0.020356685, -0.236632660, 
   0.098974779, -0.085292444, -0.255586237, -0.055435788,  0.048251498, 
   0.148281395,  0.018166615, -0.051005468,  0.093899168,  0.359248966, 
   0.084977768, -0.284430683,  0.166496038, -0.041705586,  0.109356046, 
  -0.072019659, -0.040878303, -0.250514239, -0.197670534, -0.254620433, 
   0.187345803,  0.142040581, -0.135149628, -0.015438383, -0.149317235, 
   0.017337248,  0.101362668,  0.141240299,  0.277831495,  0.081065699, 
   0.045825094, -0.070778795, -0.284715474, -0.279723704, -0.224680126, 
   0.003927239,  0.184177920,  0.000342372, -0.045602296,  0.095315717, 
   0.149649888, -0.092695281, -0.094891250, -0.098973304,  0.067852817, 
  -0.050473161,  0.030191706, -0.118482195, -0.202035248,  0.053056531, 
   0.157152906,  0.055841878, -0.293888152,  0.002202695,  0.232637152, 
   0.006320858, -0.184093028,  0.087732285, -0.222301036, -0.130424678, 
   0.288016886, -0.228233784, -0.240271568, -0.047096640,  0.196791098, 
   0.038071215, -0.313623160,  0.111117713, -0.085642323,  0.047561623, 
  -0.137859643, -0.014431138,  0.010147401,  0.189832285,  0.064951241, 
  -0.254858017,  0.225723997,  0.118904851,  0.122552067,  0.031008298, 
  -0.143435732, -0.184261844,  0.050694957, -0.198863342,  0.310411066, 
   0.085163012,  0.122389592, -0.172913924, -0.242208064,  0.142336041, 
   0.110677332,  0.194850132,  0.326216668, -0.196539819, -0.251040697, 
  -0.020000784, -0.287862062, -0.285990268, -0.022005724,  0.074329250, 
   0.162009016, -0.062625766, -0.175095052,  0.134555459,  0.137761831, 
  -0.175076693, -0.174523875, -0.112421535,  0.324168295, -0.059509102, 
   0.166510269, -0.136419773, -0.048438832, -0.098837912,  0.088110402, 
  -0.036255628, -0.200011909,  0.050789285,  0.096173078, -0.092661217, 
  -0.180023879,  0.004714554, -0.050610106, -0.096293375,  0.116251811, 
  -0.154575974, -0.190180644,  0.067090273,  0.070929155, -0.058285158, 
  -0.248604715,  0.094915628, -0.042085718,  0.140530795, -0.032804273, 
  -0.041814156,  0.017664297,  0.170253798,  0.162034079, -0.068530835, 
   0.137081861, -0.060341120,  0.062956393,  0.123847887, -0.041057415, 
  -0.024377329, -0.085422732, -0.155162975,  0.145176575,  0.130640283, 
  -0.023962704, -0.099974014, -0.291893899,  0.090916403, -0.082647502, 
   0.176949978,  0.276496053, -0.108652115, -0.442499459, -0.107816100, 
  -0.149731785, -0.089096263,  0.085934035,  0.232269049,  0.295319706, 
   0.165179014, -0.107258700, -0.104287669,  0.058326755, -0.142172813, 
  -0.073689580, -0.142838493,  0.165694952, -0.128695786,  0.258434772, 
   0.037268445,  0.026617022, -0.239980683,  0.077061199, -0.080427043, 
  -0.354065210, -0.149538666, -0.017433923,  0.131077513, -0.270712554, 
   0.054130681, -0.119227365,  0.058412679,  0.128613681, -0.081140056, 
  -0.338237703,  0.080702908,  0.083160177,  0.110112637, -0.251926690, 
  -0.014601069, -0.006457811, -0.047898334, -0.138535634,  0.185846180, 
   0.154110938, -0.069977976,  0.192386910, -0.153444394,  0.162744716, 
  -0.126298726,  0.080619559,  0.106218524, -0.305339485, -0.206404254, 
  -0.143391848, -0.346485049,  0.031233672,  0.148526236, -0.067973614, 
  -0.044514619, -0.380609393,  0.082345255,  0.133053720,  0.140723750, 
   0.144970775,  0.069139376, -0.365315348, -0.124624945, -0.058816377, 
  -0.045076311,  0.003810138,  0.134518638,  0.045671411,  0.004345983, 
  -0.059210747, -0.009594499,  0.040487807, -0.041418478, -0.032592263, 
   0.008874395,  0.262274623, -0.103757538,  0.219426408,  0.092313811, 
   0.043835510, -0.109561101, -0.073182866, -0.053747751, -0.257501751, 
   0.062797047,  0.120633841,  0.132728785, -0.113866210,  0.046020947, 
  -0.048198003, -0.032499749,  0.114119530, -0.040969837, -0.077939056, 
   0.055766966,  0.174582511,  0.189932317, -0.103209049,  0.043710381, 
  -0.062045414, -0.004103901, -0.066109620,  0.117325872,  0.071812600, 
  -0.035554934,  0.062541388, -0.094624989,  0.180159926, -0.233852535, 
   0.083929971,  0.084721945, -0.097674608, -0.100234538, -0.230371416, 
  -0.370055705,  0.049094867,  0.188767165, -0.072312422,  0.037152287, 
  -0.240743577, -0.126146674,  0.011052620, -0.064518414, -0.005708397, 
   0.095400818, -0.367642343,  0.104164764, -0.075472884, -0.024550537, 
  -0.146752700, -0.004915661,  0.058924470, -0.054147363,  0.153665259, 
  -0.000554540, -0.014812079,  0.180509672, -0.048656046,  0.105963454, 
   0.126072720, -0.169527620,  0.334832907, -0.068386935,  0.076515086, 
   0.090972550, -0.156210795, -0.100942403, -0.073789306,  0.233609036, 
   0.207578868,  0.115255080,  0.007857983,  0.008696024, -0.017433241, 
  -0.155491829, -0.111967139,  0.081569724, -0.072261937, -0.158916861, 
   0.197388992,  0.167866498, -0.134832561,  0.061855946, -0.023259485, 
   0.014616909,  0.251643151,  0.157976970, -0.087702110, -0.181082100, 
  -0.128958374, -0.154902548,  0.080721475, -0.032508329,  0.090496026, 
   0.228405342, -0.100528963, -0.102718882, -0.059761934, -0.136752456, 
   0.066877641,  0.186910838, -0.262412101, -0.092899770, -0.250058860, 
  -0.213420987,  0.100772657,  0.009490923,  0.074990846,  0.000406887, 
  -0.359122038,  0.107964084, -0.007475665, -0.037692074, -0.079706714, 
   0.037640326,  0.112483695, -0.047198534,  0.211193457, -0.105622396, 
   0.069117874,  0.084695294, -0.033705827,  0.296326399,  0.067203939, 
  -0.218947500,  0.254133403,  0.052349981,  0.072381534, -0.081544638, 
  -0.109786227, -0.036396500, -0.221444219,  0.124318540,  0.157486007, 
   0.198879853, -0.074451007, -0.161312133, -0.121365063, -0.205974340, 
   0.022626713, -0.002480685, -0.029659642, -0.047887236,  0.239381790, 
   0.170801997,  0.005630977, -0.121829130, -0.041252084, -0.067938969, 
   0.331423402,  0.110249944, -0.065741524, -0.119563349, -0.074669041, 
  -0.128862783,  0.081394330,  0.033098411,  0.206319451,  0.210850298, 
  -0.205657229, -0.003873090, -0.041273583,  0.092384510,  0.200363711, 
   0.201348349, -0.165699407, -0.081153609, -0.409020662, -0.131925270, 
   0.122088932,  0.125740677,  0.150936723, -0.103711508, -0.264579505, 
   0.022336951,  0.023745745, -0.125682682,  0.012027526, -0.016688084, 
   0.085213117, -0.126928538,  0.003501285, -0.014303397,  0.055986952, 
  -0.111664318, -0.018368915,  0.041912679,  0.040465094, -0.078272328, 
   0.150052994,  0.029125039,  0.058126058,  0.018704392, -0.073248453, 
   0.126485169, -0.118553661,  0.035612401,  0.069426961,  0.041696604, 
  -0.141604245,  0.031343520, -0.196270570, -0.095055908,  0.005781996, 
   0.054191906, -0.049060374,  0.015203529,  0.161804706,  0.079890907, 
  -0.097001351,  0.054356277, -0.073849581,  0.091744080, -0.021302495, 
  -0.010287422,  0.031523991, -0.058511488, -0.015112317, -0.064589098, 
   0.171108022,  0.086696289,  0.158061475,  0.062901065, -0.186428174, 
  -0.008385072, -0.054356325,  0.133693159,  0.065636799,  0.125736788, 
  -0.191953197, -0.071110383, -0.227293774, -0.102512255, -0.029998327, 
   0.014127501,  0.062876515, -0.064801492,  0.057508044,  0.199840546, 
   0.023161372,  0.004751962,  0.037935261,  0.100658044, -0.000111316, 
  -0.100170963,  0.097104296, -0.047046170,  0.027388921,  0.033718720, 
  -0.009947091, -0.017017882, -0.038442947, -0.028872268,  0.125762820, 
  -0.138009503,  0.052018974, -0.024658004, -0.077780746,  0.069437049, 
   0.066664740,  0.134624302,  0.004617925,  0.058781773,  0.008409590, 
   0.003030926,  0.054855563, -0.223270223,  0.016353488,  0.005778835, 
  -0.044331647, -0.104888678, -0.093874216, -0.060243756, -0.106620364, 
   0.126295343, -0.001918541,  0.004767336, -0.127205297, -0.099189587, 
  -0.025920143, -0.071833536, -0.136537641, -0.045933742,  0.131714955, 
   0.060314331, -0.095082738,  0.038242564,  0.091245547,  0.085742280, 
  -0.020198165,  0.147209212, -0.091317579,  0.125486001, -0.128786966, 
   0.085112609,  0.094899639,  0.097746171,  0.010427546,  0.020858902, 
  -0.028612418, -0.095870346, -0.016729174, -0.008442174,  0.005533138, 
  -0.000706969,  0.051859684,  0.028159803,  0.074218675, -0.035958502, 
  -0.046853155,  0.072951443, -0.041774929, -0.091102913, -0.050124343, 
  -0.022152554, -0.040737212,  0.023196951,  0.009502498, -0.105313472, 
  -0.018193342, -0.111944929,  0.002726350,  0.024609657,  0.092052899, 
  -0.007998125, -0.050379004,  0.007724355,  0.082738481, -0.053972349, 
  -0.005558640, -0.016633064,  0.012212509, -0.054460291, -0.085698292, 
  -0.057950899, -0.131993070, -0.007042880, -0.022969043,  0.055825334, 
  -0.063582107,  0.096798420, -0.101734847,  0.014535193,  0.042390957, 
   0.019039955,  0.029155118,  0.044088945,  0.131574616,  0.060682885, 
  -0.130656302, -0.043061245, -0.024661999, -0.008659001, -0.054593578, 
   0.013623831, -0.054529052, -0.114181750,  0.024709353,  0.077094220, 
   0.140483290,  0.110483319, -0.013865787, -0.045807954,  0.032369949, 
   0.018289335, -0.016740620,  0.040660113,  0.025792345,  0.052635811, 
   0.010849915,  0.073089831,  0.063304119,  0.062083714, -0.026355024, 
  -0.055311091, -0.066457331,  0.035141625,  0.010729723,  0.014139138, 
   0.060183786,  0.006345391, -0.023574971, -0.076483138, -0.062551104, 
   0.028619610,  0.025514767,  0.041887946, -0.019465081, -0.068004400, 
   0.053801604, -0.054336529,  0.049674459,  0.066041522, -0.062678717, 
   0.033730328,  0.062290214, -0.056955442, -0.003459089,  0.027997948, 
  -0.055241641, -0.014283516, -0.035445973,  0.066832565, -0.075424224, 
  -0.049449101, -0.001685143,  0.084076144, -0.039013237,  0.019142121, 
   0.023107231, -0.023138739,  0.063805617,  0.062486835,  0.011341460, 
  -0.054600731, -0.066577762,  0.063846923, -0.021511652,  0.045699142, 
  -0.080642462,  0.046416603,  0.037013151,  0.058866315, -0.005673558, 
   0.063666992,  0.024098784,  0.065183602, -0.054187041,  0.022902831, 
   0.057478614, -0.050039493, -0.053865563,  0.004496120,  0.059989534, 
   0.026576571,  0.063662194, -0.059383795,  0.017193198, -0.019680396, 
  -0.073096387,  0.044908203,  0.023086756,  0.038104713,  0.004132971, 
   0.035690241, -0.050967429, -0.038574480,  0.033451423,  0.065191604, 
  -0.010639824, -0.017648928,  0.071249165, -0.003472321, -0.060942754, 
  -0.040401209,  0.050104953,  0.083198674, -0.009752840, -0.022195645, 
  -0.057925172, -0.058771543, -0.061079346, -0.010700464,  0.028706066, 
   0.007705145,  0.062026314, -0.058818210, -0.029680867, -0.062760755, 
  -0.058430832,  0.059491776,  0.002161883,  0.079065137, -0.045531780, 
  -0.027177811,  0.059326716, -0.059685059, -0.028902642,  0.069146894, 
  -0.062805966,  0.016365215, -0.067143872,  0.007661402,  0.015132532, 
  -0.024158984,  0.033841170, -0.021952540,  0.068811901,  0.063246690, 
  -0.063035429, -0.070867822,  0.018259570, -0.005285278,  0.035240814, 
   0.065820940,  0.029123947,  0.006407000,  0.021167234, -0.026951935, 
   0.072768413,  0.062978990, -0.039670773,  0.012391046,  0.020228453, 
   0.066222049,  0.044125579, -0.014383264,  0.015329711,  0.002361573, 
   0.082858227, -0.065814920,  0.035191797,  0.039804980, -0.061869144, 
   0.046538778, -0.076717757,  0.080236323,  0.046367966, -0.040504389, 
  -0.073715217,  0.041691594, -0.056271072,  0.063189231, -0.060393412, 
   0.066148572,  0.001195990, -0.049773909, -0.061724611,  0.070436947, 
  -0.082571425, -0.016173832,  0.076946892, -0.019536704,  0.078829952, 
  -0.041658703, -0.033995513, -0.046850443, -0.008140013, -0.057399556, 
  -0.038515095,  0.043348901, -0.026381154,  0.034941755, -0.039625388, 
   0.025375672,  0.056284867, -0.005122989, -0.072413042,  0.005526215, 
   0.053639390, -0.072475389, -0.072391823,  0.068101041, -0.003774509, 
   0.060497098, -0.021913592, -0.011233643,  0.019753732, -0.062767416, 
   0.041294552,  0.063301481, -0.016275510, -0.018327877, -0.069159374, 
  -0.056589663, -0.061302453, -0.004416443, -0.041475803,  0.008842334, 
  -0.011047497,  0.007579543,  0.022459686, -0.023332428, -0.040478136, 
  -0.067180052,  0.042727299,  0.017404519,  0.075518139, -0.012454599, 
  -0.019010946,  0.021786563,  0.022183210, -0.045690112, -0.022345390, 
   0.047845922, -0.014278196, -0.011453584, -0.073401183, -0.063637316, 
  -0.008228116,  0.042304091, -0.051194087,  0.057299919, -0.052648477, 
   0.007128030, -0.062459096,  0.025897451, -0.056032181, -0.068460606, 
  -0.079436086,  0.013247482,  0.007199988, -0.075339071, -0.038447030, 
   0.074208252, -0.059752021,  0.055749111,  0.076768301,  0.036291003, 
   0.066286810,  0.059811927,  0.008084558,  0.081528164, -0.002403066, 
   0.079365768, -0.035585817, -0.010517389,  0.034299940,  0.128111750, 
   0.051086381,  0.003340170,  0.009008609,  0.078585051, -0.091592133, 
  -0.073078141, -0.066026136,  0.021291738,  0.061365116, -0.041463025, 
   0.020776385,  0.046052631,  0.023886096,  0.024525661,  0.075864814, 
  -0.006885329, -0.026748383, -0.102775276,  0.057225961, -0.025024401, 
  -0.010403515,  0.007984462, -0.022352928, -0.048232764, -0.054225758, 
  -0.055966612,  0.040896725,  0.076868251, -0.005445324,  0.051216546, 
  -0.012633704,  0.005891591, -0.047996625,  0.062663324, -0.083297692, 
  -0.056473423,  0.032520149, -0.028987817, -0.005112436,  0.028634356, 
  -0.066606604, -0.041565258, -0.001967201, -0.019996315, -0.051940612, 
  -0.020667329, -0.004935473, -0.098701052,  0.010840128,  0.067957833, 
   0.052930541, -0.016941456, -0.052860372,  0.005625339,  0.070252642, 
  -0.063916355,  0.013611589, -0.026440222,  0.018642185, -0.064202011, 
  -0.091763772, -0.118896574, -0.046402048, -0.035899442, -0.213836744, 
   0.011722825, -0.330295533, -0.123642437,  0.192556620,  0.235444590, 
   0.070438117, -0.068336017, -0.046042528, -0.269199491, -0.315634459, 
  -0.053956948, -0.214569137, -0.205406800,  0.063495688, -0.316868961, 
  -0.010541911, -0.178935140,  0.242101178,  0.285093784,  0.262397110, 
  -0.310758889,  0.140821293,  0.071659006,  0.257482946, -0.034855060, 
  -0.248956844,  0.201809987, -0.010180051,  0.023763366, -0.089477077, 
   0.310321957,  0.078465164,  0.091988869, -0.341118783, -0.054311331, 
  -0.125225291,  0.130370334, -0.177846178,  0.094495744, -0.020938648, 
   0.049940966,  0.015425295, -0.023178274,  0.262018114,  0.352109462, 
   0.236113429,  0.018278906,  0.110757887,  0.052711401, -0.075598449, 
   0.263907105, -0.251248598,  0.272096574,  0.145854756,  0.031377118, 
  -0.251021504, -0.324943602, -0.265703440, -0.019077064,  0.050685734, 
   0.201291934,  0.004998967,  0.137515351, -0.096269950, -0.008497414, 
  -0.170271695,  0.027199939,  0.071127966,  0.303383648, -0.034824688, 
   0.036946464, -0.004622607, -0.195399329, -0.254967213, -0.041698784, 
  -0.109070703, -0.290794522, -0.063918523, -0.095244169, -0.056139670, 
  -0.256861567,  0.396729141,  0.058588441,  0.140216768, -0.238827974, 
  -0.110133506, -0.044473547,  0.069228500,  0.018053887, -0.089203015, 
   0.250878632, -0.043220419,  0.057389632, -0.020642636,  0.194095090, 
   0.024653886, -0.141036853, -0.335114509,  0.020823587, -0.051587105, 
   0.202986345, -0.152753457,  0.018921053, -0.052735530,  0.007335725, 
   0.040619310,  0.048926227,  0.183363259,  0.165296718,  0.146686837, 
  -0.069888949,  0.092599943,  0.097201392, -0.010082616,  0.214292124, 
  -0.196582064,  0.314602584,  0.212069049, -0.061363958,  0.091809094, 
  -0.290186226, -0.153516710, -0.081668541, -0.003323436,  0.135169387, 
   0.128028646,  0.189287320,  0.062966146, -0.012561244, -0.111095093, 
   0.102434240,  0.039862156,  0.034200083,  0.124255881,  0.116685659, 
   0.126370981,  0.042583533, -0.025255792,  0.049122326, -0.021774020, 
   0.129196495,  0.032194685,  0.278502792,  0.216340542, -0.009793694, 
   0.169626459,  0.142504290, -0.077144407,  0.001690830, -0.020517258, 
  -0.194757059, -0.009432976,  0.040764898,  0.074121028,  0.255573720, 
  -0.103836052, -0.072965495, -0.035522476, -0.079502940, -0.037799086, 
  -0.056404889, -0.120339617, -0.054804377, -0.148419231,  0.148727268, 
   0.034146372,  0.046581194, -0.071140520, -0.247963741, -0.003472371, 
   0.065567188, -0.028583003, -0.001972045,  0.064399444, -0.200594217, 
  -0.084626950,  0.086954735, -0.179433480,  0.045645975,  0.061973888, 
  -0.148054168,  0.140452281, -0.138846084,  0.266879797,  0.131141156, 
  -0.209077194,  0.110412389, -0.123036772, -0.209341690,  0.043330058, 
   0.053119641,  0.016118743,  0.062863611, -0.306745082,  0.062392246, 
  -0.169802517,  0.033440080,  0.067703903,  0.088410996, -0.030851677, 
  -0.118851736,  0.070253111, -0.004848105,  0.055960689,  0.063124835, 
  -0.004108447,  0.142685935,  0.059393004, -0.069030754,  0.367280424, 
   0.073426172, -0.056999616,  0.020724945, -0.111783020, -0.246968150, 
  -0.108366162,  0.225095153,  0.207014054,  0.177255303, -0.160007522, 
   0.033708628,  0.128167704, -0.092771113,  0.038367569, -0.195561007, 
  -0.060212016, -0.077659182, -0.068803951,  0.096130610, -0.067351438, 
  -0.002277514, -0.081322186, -0.085525230,  0.041196138,  0.047693729, 
  -0.150424242,  0.088681638,  0.131066084, -0.184055611,  0.008786649, 
  -0.002579334,  0.017720446,  0.120288752, -0.042429969, -0.159441829, 
   0.025919687, -0.140462413,  0.231956542,  0.005762404, -0.287305057, 
   0.047046799, -0.166382879, -0.242557794, -0.042212479,  0.122384444, 
  -0.047585983,  0.085700475, -0.305464476,  0.197804675, -0.086035766, 
   0.056531157,  0.162798181,  0.074452810, -0.111990713, -0.015496701, 
   0.158260152,  0.070824765,  0.100485004, -0.008233667,  0.044929326, 
  -0.006266891, -0.097016647,  0.004474821,  0.263356745, -0.149414569, 
  -0.064314768,  0.167250812,  0.014515783, -0.229199052, -0.086856477, 
   0.199081808,  0.145639166,  0.312193394, -0.156807750,  0.134930655, 
  -0.093877561,  0.020928673, -0.043372456, -0.149997354, -0.174586281, 
   0.030366771,  0.031669870,  0.087257639, -0.217438877,  0.231808811, 
  -0.044274937, -0.153798476, -0.001314294,  0.116563462, -0.093933173, 
   0.118577085, -0.111451313, -0.023710415,  0.253902376,  0.013466858, 
   0.070619948,  0.054692928, -0.083221100, -0.215384230, -0.166136518, 
   0.030025082,  0.197297171,  0.012996155, -0.281021059,  0.133333564, 
  -0.168548331, -0.216250554, -0.013030265,  0.205052808,  0.064400442, 
  -0.028579526, -0.284200907,  0.002572505,  0.059097495,  0.192802787, 
   0.277112067,  0.079633787, -0.178263769, -0.197218895,  0.045609731, 
  -0.007250400,  0.230907157,  0.017964467, -0.069768883, -0.033316221, 
  -0.084789298,  0.082423426,  0.015944967, -0.166082203, -0.229928270, 
   0.084544532, -0.092904352, -0.110909641,  0.209899724, -0.035098575, 
  -0.189704373,  0.398735046, -0.201953754,  0.430612534, -0.050967980, 
  -0.443987131,  0.005938107, -0.033984646, -0.094404139, -0.182938814, 
  -0.264839560,  0.083248943, -0.314947754,  0.212056667, -0.189618766, 
  -0.083097793, -0.061758742, -0.106904916, -0.103621513,  0.318012536, 
   0.046122920,  0.200340331,  0.033277094,  0.011635236, -0.156885356, 
  -0.085233264, -0.221395671, -0.117018238, -0.208871961, -0.128619894, 
   0.304175496, -0.068251602, -0.444640726,  0.306706309, -0.159756348, 
  -0.173033476,  0.085457943,  0.043656696, -0.038272582,  0.231830284, 
  -0.316321433,  0.175725818, -0.112500839,  0.021714084,  0.029009083, 
   0.022710504,  0.018774278, -0.108794473, -0.110606931, -0.248348743, 
  -0.068256736, -0.004649041, -0.161390647, -0.203971088, -0.246761560, 
   0.058497511,  0.193232358,  0.024897264,  0.001933895,  0.007684054, 
  -0.059100144, -0.027216468,  0.160244584,  0.112070784, -0.247638062, 
   0.074459761,  0.106620893,  0.280180037, -0.023552191, -0.376562625, 
  -0.093321234, -0.200668335, -0.268419653, -0.229387015,  0.049989954, 
   0.135765523, -0.274644375,  0.058175910, -0.246035501, -0.064540654, 
   0.095220461, -0.102511413,  0.137070581,  0.152755052,  0.153461561, 
   0.177473083,  0.036451813,  0.049985580, -0.004066663,  0.057467617, 
  -0.050123036,  0.013959034, -0.008938817,  0.034284960,  0.197189331, 
  -0.215511963, -0.347349405,  0.145524278,  0.005578053, -0.207874805, 
  -0.194330305,  0.133421645, -0.071813822,  0.091805205, -0.244213700, 
   0.047799647,  0.127580658, -0.034572348,  0.085551143,  0.122050740, 
   0.025349358, -0.022558976, -0.036857527, -0.056394234, -0.011570364, 
   0.048281793, -0.137794882, -0.127854243, -0.248506114,  0.124332763, 
   0.064717487,  0.157980099, -0.081416734,  0.002816574, -0.093554743, 
  -0.008710326,  0.252691686,  0.018896453, -0.283093721,  0.181811094, 
   0.035557505,  0.225511134, -0.195769608, -0.146445945,  0.072830640, 
  -0.075525708, -0.118378811, -0.127822846, -0.197631344,  0.105445087, 
  -0.182742372, -0.191821992, -0.179036662, -0.034846459, -0.033432078, 
  -0.082467213,  0.022764480,  0.080663800,  0.040407170,  0.191676438, 
  -0.051990356, -0.012866598, -0.191574380, -0.097204722,  0.082708843, 
   0.025051894, -0.050179802, -0.109692954,  0.092097856, -0.102756426, 
  -0.477527857,  0.210136786,  0.065305486, -0.088477440,  0.122769669, 
  -0.089905582, -0.155800343,  0.209801912, -0.195957780,  0.172191128, 
   0.062979385, -0.113746203,  0.020712554, -0.058829114,  0.072940141, 
   0.147549838,  0.042465411, -0.153143808, -0.047785282,  0.185093805, 
  -0.205195740,  0.062492739, -0.419827521, -0.034814034,  0.135161623, 
  -0.149693996,  0.062567577,  0.186852440,  0.178241834,  0.069391616, 
   0.095584638,  0.182146668, -0.245893940,  0.220613047,  0.002409088, 
   0.210140049, -0.132556796, -0.160263255, -0.116041012, -0.021066986, 
  -0.000376446, -0.102952264, -0.286102355,  0.109510921, -0.243259341, 
   0.002416017, -0.136999980, -0.032412779, -0.021070467, -0.138115048, 
  -0.104400069, -0.130537555, -0.093650535,  0.234073937,  0.072753981, 
   0.055010386, -0.058084462,  0.064852498,  0.170442745, -0.051703259, 
  -0.040692665,  0.107904650,  0.267616987, -0.121271402, -0.406889796, 
   0.203058839,  0.187804013, -0.104837857, -0.034920394, -0.082731895, 
  -0.063635759, -0.009527056, -0.170614362, -0.013712631, -0.114121109, 
  -0.074515201,  0.287072957,  0.181952521, -0.080808192,  0.123126194, 
  -0.074094497, -0.269792646, -0.197932348,  0.070509709, -0.144425958, 
   0.056775022, -0.185024276,  0.051308502,  0.088159122, -0.133569717, 
   0.003500900,  0.024751671,  0.251608729,  0.145257190,  0.273587257, 
   0.185712472, -0.172669753,  0.286563903, -0.074231185,  0.093875133, 
  -0.340880841, -0.093121238,  0.070001535, -0.182749256, -0.007638113, 
   0.088935822, -0.322804034,  0.004604790, -0.237463698,  0.096292749, 
   0.134665892, -0.053542152, -0.117079578, -0.211107701, -0.085426822, 
   0.219989926, -0.009979195,  0.321195990,  0.083116621, -0.093401335, 
  -0.188354447, -0.260370195,  0.146513149, -0.195641905, -0.100347690, 
   0.088001914,  0.096094124, -0.356242508, -0.358476996,  0.147234261, 
   0.038825609, -0.191525996, -0.145064354,  0.016094228, -0.019988757, 
  -0.128338173, -0.255580008, -0.063003786, -0.112014696,  0.103210866, 
   0.042720612,  0.200107321,  0.028708238, -0.114242777,  0.096569568, 
  -0.416520238, -0.042321049,  0.151800960,  0.087571882, -0.022038976, 
  -0.013658986, -0.082503580,  0.207335934,  0.016963702,  0.144260049, 
   0.066097051,  0.161173105,  0.026912007,  0.347016543,  0.220222816, 
  -0.039397262,  0.030911526, -0.406673580,  0.020957435, -0.257166445, 
  -0.082569152,  0.222633824,  0.057091948, -0.105183721,  0.030617168, 
  -0.084695950,  0.052207313, -0.128594041,  0.049975835,  0.161258519, 
   0.076544426,  0.146328032, -0.410046011,  0.105016470,  0.453162879, 
  -0.076730587,  0.098173231,  0.021881647, -0.040181797, -0.041666009, 
  -0.114117309,  0.172781736, -0.270670116, -0.105458185,  0.068310015, 
   0.184115142, -0.389422715, -0.524008036,  0.089344524,  0.197213158, 
  -0.093912840, -0.113926686, -0.006684549, -0.200233266, -0.183855012, 
  -0.101918072, -0.038547561, -0.045482643,  0.275788546,  0.187199086, 
  -0.006293237, -0.031064793, -0.111300468,  0.044721734, -0.318655342, 
  -0.117403433,  0.314849257, -0.011973857,  0.136764139, -0.108844265, 
  -0.024100980, -0.070515506,  0.200215116,  0.045114778,  0.230401725, 
   0.085282557, -0.097892836,  0.378165573,  0.157170713,  0.106198996, 
   0.055922974, -0.355198205, -0.048717204, -0.230585784,  0.011489376, 
   0.059376050,  0.056716684,  0.036984682,  0.002563834, -0.057581391, 
   0.019678677,  0.024002513, -0.088329382,  0.000924211,  0.044539604, 
   0.205587506, -0.326214135,  0.062271830,  0.344481856, -0.196456745, 
   0.141412377, -0.079462327, -0.081905439,  0.094026446, -0.076185159, 
   0.353894174, -0.496676326, -0.045785017, -0.093613967,  0.096308805, 
  -0.264456749, -0.434222013,  0.060098272, -0.000533196, -0.050330516, 
  -0.187773183,  0.154332474,  0.103053488, -0.100698434, -0.040604502, 
   0.110368662, -0.136514887,  0.255103886,  0.139367685, -0.008624998, 
   0.030459272, -0.150235772, -0.098968871, -0.299586892, -0.057727776, 
   0.345642239, -0.035562269,  0.081835814, -0.129404634,  0.183418542, 
  -0.115864486,  0.242186129, -0.091985442,  0.060712293,  0.097682856, 
  -0.020531563,  0.195022747,  0.105974980,  0.005514011, -0.009727674, 
  -0.424482226, -0.039840929, -0.111677893, -0.056333087,  0.124004632, 
   0.197294876,  0.104967348, -0.058451187, -0.023783619, -0.010599920, 
  -0.072788492, -0.019797791,  0.088469498, -0.024914214,  0.084816791, 
  -0.199679330,  0.080616996,  0.266574532, -0.109036043,  0.059823420, 
  -0.031808328, -0.030871656,  0.001537564,  0.030617960,  0.281550080, 
  -0.368977129, -0.088958040, -0.217317581,  0.067742348, -0.105182387, 
  -0.188365504,  0.020717097, -0.148013458, -0.026046723, -0.075122587, 
   0.118302941,  0.060087021, -0.076800138, -0.094730556, -0.015870223, 
  -0.191842973,  0.206038326, -0.071749352, -0.110547647, -0.055989232, 
  -0.168338001,  0.005564486, -0.294994712,  0.092222795,  0.279593498, 
  -0.143213838,  0.069663510,  0.041617356,  0.000904483, -0.050907616, 
   0.223992601,  0.072057337,  0.056700993,  0.178411499, -0.064886853, 
   0.092892371,  0.186800227,  0.025624080,  0.153404832, -0.476175487, 
   0.052716654, -0.138760298, -0.016445275,  0.074944586,  0.145175785, 
  -0.198748767, -0.132076383, -0.032573957,  0.067760468, -0.055181496, 
  -0.066182397, -0.027425157,  0.238270789,  0.121848017, -0.074629560, 
   0.213608310,  0.310220867, -0.119079493, -0.189674318,  0.098282695, 
   0.036920108, -0.088682599, -0.058867801,  0.131307527, -0.551353991, 
  -0.095075585, -0.153896689,  0.043067571, -0.024598017, -0.164136156, 
   0.071269788, -0.068336584, -0.059632570,  0.036577325,  0.080389038, 
   0.142049029, -0.185830593, -0.170339316, -0.066517599, -0.204056323, 
   0.341547132, -0.178399369,  0.029937442, -0.037134796, -0.123142563, 
  -0.073332079, -0.227568015,  0.063775428,  0.134665027, -0.010760122, 
  -0.014174230,  0.198227435,  0.023395639,  0.038633019,  0.266811043, 
   0.011408613, -0.066703513,  0.081229366,  0.071816735,  0.147831202, 
   0.093627505,  0.018791990, -0.051357191, -0.318078578,  0.119164541, 
  -0.268309146,  0.006629789,  0.066382177,  0.097162031, -0.158920661, 
  -0.035969164, -0.002571139,  0.145719379,  0.010608408, -0.105536312, 
  -0.026663929,  0.161852166, -0.045733083,  0.068979040,  0.201703504, 
   0.046054497, -0.096388750, -0.161010370, -0.006250943, -0.015293548, 
  -0.117574014, -0.100284524,  0.166955128, -0.256519526, -0.119034335, 
  -0.069648057, -0.100957461, -0.078604572,  0.066232465, -0.009674246, 
  -0.168606773, -0.072790459, -0.016274787,  0.068839706,  0.158344910, 
  -0.209712699, -0.164858088, -0.074077286, -0.361648202,  0.089236312, 
  -0.169928104,  0.122263074,  0.021658458,  0.036251552, -0.120637275, 
  -0.141845748,  0.066616289,  0.124570720,  0.139962360,  0.089738891, 
   0.275435448, -0.019664915,  0.103536405,  0.251235187, -0.123885728, 
   0.047432303,  0.209297985,  0.033919170, -0.080557242,  0.178935796, 
   0.088518687, -0.115731739, -0.244185671,  0.225284994, -0.022515498, 
   0.054548435,  0.049061704, -0.030207876, -0.069957703,  0.240275115, 
  -0.023509977,  0.281207681, -0.051088262,  0.002202372, -0.057651851, 
   0.166608855,  0.162445948,  0.009247234,  0.204401687, -0.047834687, 
  -0.103173867, -0.229269102, -0.029303750, -0.125849575,  0.034785692, 
   0.104111224,  0.164095670, -0.268908232, -0.095001571, -0.150731727, 
   0.052446671, -0.084384106,  0.124221802, -0.049680058, -0.282990515, 
  -0.188461766,  0.092390358,  0.213827416,  0.036478031,  0.128286526, 
  -0.190997571,  0.074415177, -0.096548408, -0.141615689, -0.090265512, 
   0.085262179,  0.130333766,  0.021027543,  0.062926918, -0.037981536, 
  -0.051490970,  0.111308321,  0.090960518,  0.033306744,  0.135409862, 
  -0.102059938,  0.104888506,  0.052183483, -0.218870431, -0.045483593, 
   0.081011780,  0.006837195, -0.090293914,  0.184663787, -0.066301681, 
   0.198882088, -0.065943740,  0.094233796,  0.209421784,  0.103554964, 
   0.082645275, -0.028547622, -0.001484156,  0.086088575,  0.087703474, 
   0.112591773, -0.147441715,  0.101421922, -0.116288699,  0.015518794, 
   0.088821702,  0.041489456,  0.164130390, -0.183329999, -0.084597357, 
  -0.106433131,  0.148843750,  0.043528028, -0.036786091,  0.154955715, 
   0.104190499, -0.315685242, -0.308907181, -0.104740508,  0.065157592, 
  -0.069239989,  0.023607697, -0.037768651, -0.317216337, -0.156185359, 
  -0.015363164,  0.053311080, -0.205449447,  0.130312160, -0.118579067, 
   0.041118093, -0.078371271,  0.081028536,  0.161242202,  0.132189229, 
   0.095339090,  0.127486631, -0.060412247, -0.038475547,  0.088531092, 
   0.028444987, -0.009492172,  0.019479467, -0.005060293, -0.155116946, 
  -0.001541345,  0.234942853, -0.042340744, -0.246822417,  0.058764253, 
  -0.136184692, -0.065417230, -0.022199798,  0.090246998,  0.277497262, 
  -0.043900270, -0.130141556, -0.088794291,  0.186121777,  0.181836411, 
  -0.162806869, -0.012205875, -0.048091739,  0.153918415,  0.110573366, 
   0.154674217,  0.032376207, -0.260462850, -0.047225110,  0.220678166, 
   0.073674813,  0.001513236, -0.255952567,  0.196542382,  0.049770113, 
   0.055793185, -0.102029234, -0.106513940,  0.150757417, -0.062879272, 
   0.090675049, -0.080975935, -0.086574152, -0.023819154, -0.145768136, 
