// -----------------------------------------------------------------------------
// 
// This file is auto generated by model_export.py
// -----------------------------------------------------------------------------
#ifndef MNIST_MODEL
#define MNIST_MODEL

// ....
#include <stdint.h>
#include "infercat.h"

// ...
static const float dense_weights[25088] = {
   0.008046478,  0.018796563, -0.033131931, -0.024853654, -0.069699630, 
   0.066769443,  0.085573219,  0.021514356,  0.002928391, -0.046411946, 
  -0.084861010,  0.017619632,  0.063853592,  0.170194447, -0.080477320, 
  -0.015331760, -0.050299659,  0.033969164,  0.016512066,  0.069140427, 
   0.002427503, -0.045473985, -0.012691036,  0.006478041,  0.024161227, 
  -0.071685731, -0.078175686, -0.080469772,  0.084279306,  0.054391392, 
  -0.032756839,  0.062976368,  0.043349214,  0.061539862,  0.224955291, 
   0.101060256,  0.111490272,  0.298037767,  0.143597409,  0.237971142, 
   0.331594408,  0.356843412,  0.249942422,  0.273388207,  0.015357234, 
   0.028791012,  0.154511884,  0.116317593,  0.077381745,  0.114958450, 
   0.192468926,  0.090638593,  0.073584385,  0.005603068,  0.035259522, 
  -0.082348146, -0.073735408, -0.047307711, -0.005404523, -0.067168087, 
   0.080751196,  0.107204072,  0.241648927,  0.192256793,  0.333003402, 
   0.392144561,  0.258365721,  0.234482944,  0.049413957,  0.150075957, 
   0.353872180,  0.494781315,  0.387701571,  0.243904471,  0.166962758, 
   0.267002434,  0.154932514, -0.025132524,  0.120577119,  0.167696878, 
   0.012346623,  0.033888515,  0.026836783, -0.025993235,  0.058380403, 
   0.039725356, -0.039593939, -0.023618462, -0.000956609, -0.059125882, 
   0.171028584, -0.056625240, -0.165771753,  0.232901394,  0.129363552, 
  -0.030481383, -0.148942649,  0.081510015, -0.161769867,  0.014341086, 
   0.147699177, -0.070280410, -0.152087688, -0.098070420, -0.226427987, 
  -0.340564907, -0.174052432,  0.007704179,  0.018019151, -0.078151502, 
  -0.047302511,  0.027540006,  0.006756097,  0.018609298, -0.079734236, 
  -0.101048157, -0.043117940, -0.039868563, -0.132109836, -0.074661478, 
   0.035064843,  0.166250527,  0.214314923, -0.148587331, -0.192258000, 
  -0.075551160, -0.148032293, -0.105751865, -0.012037713, -0.052387714, 
  -0.035300884,  0.239754289,  0.202155337, -0.118803218, -0.313320249, 
  -0.141289175, -0.288020909, -0.054391321,  0.131458461,  0.352255255, 
  -0.058811411, -0.085686505,  0.170248821, -0.010707794,  0.056419127, 
  -0.167467073, -0.132948264,  0.031477775,  0.076463073,  0.032503597, 
   0.036002848, -0.089334190, -0.110620961, -0.118571423, -0.041164175, 
   0.057116758,  0.044786416, -0.023557266, -0.018163756,  0.028075095, 
   0.035067111,  0.226719037,  0.022047460, -0.067728899,  0.129698485, 
  -0.112443708,  0.179671675,  0.199772596,  0.044527076,  0.006342313, 
  -0.331551611, -0.072575457, -0.092640974, -0.014057664,  0.034012001, 
   0.005162826, -0.083946198, -0.038236510, -0.146751434, -0.178934529, 
  -0.075796381, -0.202371046, -0.143863529, -0.167288095, -0.076515712, 
   0.024682503, -0.018381819,  0.125103459,  0.163507745,  0.054964636, 
   0.094119690,  0.262250662,  0.156473130, -0.145565212, -0.086181521, 
   0.285449594,  0.027347241,  0.221814230, -0.294107318, -0.126676753, 
  -0.123669647,  0.025609368, -0.156556338, -0.009650357, -0.047956038, 
  -0.032475792, -0.007995481, -0.164349794, -0.153567478, -0.138866052, 
  -0.204925716,  0.027178254, -0.076982602, -0.006471713,  0.197454512, 
   0.062383879,  0.001016066,  0.158495501,  0.108302973,  0.144581243, 
  -0.129042149, -0.339681804, -0.107368000,  0.180702284, -0.050155759, 
   0.107663706,  0.111923710,  0.007013252,  0.105317883, -0.105264723, 
  -0.013910548,  0.114975825, -0.068322770, -0.007043110,  0.063593514, 
  -0.136802435, -0.110984519, -0.013542473, -0.128541082,  0.015726399, 
   0.025346035,  0.028607938,  0.027515955,  0.107451461,  0.103806846, 
   0.080331199,  0.030268507, -0.034965094, -0.062750548, -0.087411717, 
   0.260736823,  0.189988151, -0.009763241, -0.207102641,  0.033683147, 
   0.148040295,  0.167950332,  0.100196533, -0.016172132,  0.175283968, 
   0.032080796,  0.058025692, -0.001428310,  0.007444410, -0.086681180, 
  -0.140515283,  0.011072306, -0.064190365, -0.019213250, -0.016472442, 
   0.001530096, -0.018066695,  0.100372463,  0.029474137,  0.028167136, 
   0.212168396,  0.032293029,  0.045554109,  0.014828722, -0.111676872, 
  -0.050762244, -0.010903192,  0.080584846, -0.190066636,  0.239381686, 
  -0.030941749,  0.060784776,  0.190553874,  0.021227164,  0.064566575, 
   0.069779359, -0.010339195, -0.135216802, -0.193141878, -0.147468880, 
   0.050678875, -0.050233185,  0.113799922,  0.049632695,  0.030083679, 
  -0.032917991,  0.017533675,  0.029303078,  0.117929250,  0.268549621, 
   0.123822317,  0.026063455,  0.030771840, -0.128222764,  0.100882024, 
   0.059549320,  0.008286753,  0.209355041,  0.172298163,  0.226029620, 
   0.089767084,  0.075985692,  0.072293364,  0.104888879, -0.002057752, 
  -0.254078269, -0.225284532, -0.111368239, -0.045381840,  0.127460793, 
  -0.128970340,  0.014398844,  0.014925642,  0.046732981,  0.016502837, 
  -0.065189034,  0.030674331,  0.290748715,  0.110445082,  0.133953035, 
   0.198019832, -0.036968183,  0.134333894,  0.109785900,  0.314218760, 
   0.118035533,  0.315824211, -0.009089407,  0.207215682,  0.147514641, 
   0.092002936, -0.078093141, -0.065374665, -0.115200080, -0.156615674, 
  -0.069112375, -0.114698961, -0.018292852, -0.030650450,  0.018215701, 
  -0.066279948, -0.011953186,  0.046029776, -0.310246885, -0.296603411, 
   0.322068959,  0.180498943, -0.178039610,  0.035389766,  0.119386405, 
   0.062552102,  0.217785433,  0.160060972,  0.107002184,  0.158049092, 
   0.090470470, -0.063390151, -0.020148847, -0.050114609, -0.141654566, 
  -0.297330976, -0.183076963, -0.116408698,  0.017776329,  0.004387734, 
  -0.202720121, -0.022907579, -0.026046045, -0.072737865, -0.103603296, 
  -0.185316086, -0.142935678, -0.001375322, -0.008583746,  0.095498301, 
   0.109483637,  0.082971185, -0.036824871, -0.087501980,  0.070052706, 
   0.018517435,  0.063139193,  0.231653512,  0.115163282,  0.012432148, 
  -0.017604783, -0.114511676, -0.241968811, -0.272881627, -0.232774600, 
   0.098153926,  0.238759294, -0.118940189, -0.095458768, -0.170650676, 
  -0.035488624,  0.004306449, -0.059059475, -0.112118088, -0.220460698, 
   0.015824206,  0.183746785,  0.161677837,  0.259155542,  0.038890254, 
  -0.037514109, -0.033590168,  0.295321435, -0.044656709, -0.032961711, 
   0.159384847, -0.082348965,  0.036156680, -0.253341466, -0.286718041, 
  -0.343599766, -0.219838440,  0.007416925,  0.160545796,  0.265757412, 
   0.009712869, -0.140386328, -0.144339487, -0.191998765, -0.186056703, 
  -0.154184490, -0.377433062, -0.196588114, -0.068219543, -0.052987318, 
   0.192584410, -0.115261324,  0.086848974, -0.049648661, -0.025242904, 
   0.148894012, -0.019772375, -0.097495303,  0.015853925, -0.121802084, 
  -0.298790455, -0.363810569, -0.386519432, -0.451603323, -0.174737692, 
   0.140177846,  0.258819014,  0.110854439,  0.026919771,  0.081377849, 
  -0.095316567, -0.114974916, -0.087386034, -0.119974777, -0.109691106, 
  -0.086355418,  0.013630635,  0.117339954,  0.432277024,  0.042532012, 
   0.087409183, -0.065718576, -0.107560880,  0.088558137,  0.085718669, 
  -0.131382644, -0.015980640, -0.216954231, -0.397528678, -0.520510733, 
  -0.375389874, -0.206675112,  0.090498075,  0.286466122,  0.208874002, 
   0.276859850,  0.047410663,  0.108955696, -0.034311801, -0.116271563, 
  -0.060568746, -0.003848052, -0.082179181,  0.040908024,  0.061439689, 
   0.365960449,  0.072254963, -0.141256198,  0.133796364,  0.006744847, 
   0.040015157, -0.130662695,  0.175785929, -0.037115861, -0.081884593, 
  -0.291468024, -0.550197542, -0.355436713, -0.279294699, -0.021721972, 
   0.021347973,  0.264868647,  0.350145936,  0.159791484,  0.152437687, 
   0.089887559,  0.140534833,  0.039650436,  0.076564841,  0.029219929, 
  -0.053753328, -0.061143987,  0.037380740,  0.374560744, -0.029471004, 
  -0.158375442,  0.041863997,  0.096652560,  0.002010272, -0.002285538, 
  -0.074365988, -0.107699871, -0.252454132, -0.238634676, -0.402776033, 
  -0.393236011, -0.195163146, -0.019492470,  0.226358443,  0.220944226, 
   0.287192523,  0.177746579,  0.228713155,  0.123989910,  0.284500808, 
   0.110280015,  0.051749259,  0.145761043,  0.068406299,  0.074260153, 
   0.065727405,  0.229125440, -0.171423629,  0.273835242,  0.013374382, 
  -0.064904213,  0.022987334, -0.215470418, -0.058195584, -0.294158906, 
  -0.296883106, -0.141857579, -0.044466678, -0.141353443, -0.036698096, 
   0.155298963,  0.236686945,  0.219588250,  0.180874452,  0.155182883, 
   0.261417180,  0.101814531,  0.299575090,  0.160606191,  0.227552921, 
   0.173045769,  0.160562828,  0.060656641,  0.181249395,  0.169744581, 
   0.037551921,  0.155434862, -0.040279891,  0.082910158,  0.049853548, 
  -0.163225889, -0.042233314, -0.309088647, -0.250478089, -0.203101680, 
  -0.080038063, -0.039802842,  0.065487713,  0.117712207,  0.072096050, 
   0.138967618,  0.118640631,  0.231648490,  0.211132139,  0.122896731, 
   0.339736104,  0.172622770,  0.225210607,  0.184702739,  0.108524181, 
   0.182518497,  0.135308251,  0.227007851,  0.291975975,  0.291000873, 
  -0.018876517,  0.076894835, -0.020846233, -0.326139659, -0.255418032, 
  -0.141268238, -0.283686250, -0.293562680, -0.219322801, -0.099795006, 
   0.013934867, -0.103866383, -0.104625955, -0.056474995,  0.179811761, 
   0.113845550,  0.157989338,  0.084273212,  0.251516849,  0.077553414, 
   0.149537936,  0.061304618,  0.116335697,  0.113464311,  0.157031938, 
   0.031331915,  0.269563645,  0.135702327, -0.046092272,  0.064054541, 
  -0.011022076, -0.074596941, -0.127910748, -0.076648541, -0.196274236, 
  -0.170571387, -0.207439557, -0.226998538, -0.072512381, -0.157430306, 
  -0.037233990,  0.231871337,  0.142661050,  0.113166556,  0.153575435, 
   0.171761751,  0.086589135,  0.092967503,  0.220000654,  0.074805029, 
   0.182016835,  0.191829249,  0.043032393, -0.148654774,  0.190884888, 
   0.196378157, -0.015327260,  0.021023303, -0.049204301, -0.221496105, 
  -0.075771600, -0.101885684, -0.130072832, -0.105131365, -0.202776968, 
  -0.058528949, -0.034260932,  0.007245388,  0.061464831,  0.098295398, 
   0.161381543,  0.102198072,  0.087087207,  0.078667648,  0.100996517, 
   0.202219591,  0.328847378,  0.090685725,  0.052552670, -0.031783856, 
  -0.177768841,  0.109904505,  0.103309482,  0.038375121,  0.067792736, 
  -0.018167920, -0.063317865, -0.215646774,  0.068269499,  0.016282577, 
  -0.023633042,  0.192510739,  0.001615192,  0.016259756, -0.138083920, 
  -0.084582604, -0.109508604,  0.052848600,  0.071910053,  0.108537070, 
  -0.048101276, -0.055700053,  0.136642814,  0.070411764, -0.022578083, 
  -0.169633478, -0.325485259, -0.500546038, -0.363666803, -0.165250614, 
  -0.081650041, -0.028802510, -0.060944825,  0.059677564, -0.015742198, 
  -0.005652316, -0.011801645, -0.010982146,  0.269986361,  0.165790364, 
   0.017750226, -0.078824833, -0.105570041, -0.235166773, -0.106198184, 
  -0.041325618, -0.227857351, -0.408486515, -0.542287827, -0.517845571, 
  -0.229675040, -0.023145773, -0.109247416, -0.336635560, -0.465010762, 
  -0.255267859,  0.162561506,  0.073950365, -0.005544602,  0.069376923, 
  -0.038804568, -0.065532327, -0.008651324,  0.068650045, -0.041511834, 
   0.136825085,  0.165131360,  0.238250241,  0.297500193,  0.364300221, 
   0.482999802, -0.013730685,  0.083827004, -0.140090495,  0.275050998, 
   0.130479351, -0.104446791, -0.009868358,  0.047068540, -0.268148214, 
  -0.245120436, -0.184334248, -0.234777927, -0.144664124,  0.080543272, 
  -0.059862383,  0.010253429, -0.081426255,  0.050485216, -0.006542809, 
   0.018354520, -0.005517177,  0.027776241,  0.010340624,  0.001502693, 
   0.007134117, -0.019606091,  0.015807293, -0.080948167,  0.029510662, 
  -0.058366135, -0.001478627,  0.038420998,  0.002146646, -0.029110879, 
  -0.024822906, -0.056463167,  0.017915353,  0.032340333,  0.023618661, 
   0.052354224,  0.040139534, -0.004383795, -0.049808998, -0.013785027, 
   0.054016076,  0.068682782, -0.066705130, -0.017274201,  0.047303073, 
   0.012959413,  0.000403650,  0.011121742,  0.008662730,  0.078049064, 
  -0.000140371,  0.039680116, -0.057947651, -0.096742272,  0.277774364, 
  -0.097287104,  0.168358162,  0.163599595, -0.295822859, -0.199920326, 
   0.130638704,  0.276101887,  0.238607317,  0.149899900,  0.218583569, 
   0.004933849, -0.004184686,  0.015583709, -0.052897364,  0.034807168, 
   0.038507327,  0.065739505,  0.090938479, -0.080035672,  0.099274963, 
   0.092893690, -0.020041032, -0.069781698, -0.183614746, -0.390480787, 
  -0.292188555, -0.107183158, -0.254550457, -0.137659162, -0.251951247, 
  -0.118413776,  0.010522267,  0.006124965,  0.073122211,  0.115289569, 
  -0.106407844, -0.033414781,  0.220805764,  0.150967538, -0.217223436, 
  -0.146294385, -0.071994826, -0.014706060, -0.062036179, -0.060232732, 
  -0.065641403, -0.031451695,  0.008568286,  0.111775242,  0.121648684, 
   0.058987014, -0.375656337, -0.219496489, -0.150079682, -0.225276932, 
  -0.066187054, -0.328288108, -0.307301372, -0.135509342, -0.245437995, 
  -0.187426448, -0.087404802, -0.015615515,  0.038554393,  0.151309937, 
   0.109255314,  0.134679347, -0.147363529,  0.011111652,  0.117237873, 
  -0.032905918,  0.081993081,  0.035445873, -0.185247689, -0.088038802, 
  -0.251418680, -0.004245580, -0.061321750, -0.187719598, -0.316115677, 
  -0.340008289, -0.345376551, -0.043380808, -0.048951939, -0.070058785, 
  -0.026264783, -0.036698621, -0.155192375, -0.123237610, -0.077032149, 
   0.027956570, -0.041500036, -0.025521057,  0.034984253,  0.129554018, 
   0.040448714, -0.019411452,  0.306438178,  0.021062778, -0.033627622, 
   0.049407952,  0.107882857,  0.029476192, -0.176378101,  0.133104160, 
  -0.061524604, -0.178259358, -0.453959972, -0.290873498, -0.241000071, 
  -0.002902519, -0.048759200,  0.081665441,  0.015758650, -0.023790395, 
  -0.128585130, -0.136411920, -0.040398587, -0.091953889,  0.087245837, 
   0.054969482, -0.028312642,  0.049523197,  0.189008325,  0.069994234, 
   0.120734498,  0.260207623, -0.016842976, -0.084973961,  0.071847908, 
   0.072139733,  0.024411462,  0.105318889, -0.101823010, -0.343044192, 
  -0.408773959, -0.387303829, -0.159305558, -0.059413485, -0.116610676, 
  -0.132880911, -0.024689095, -0.054418031, -0.093837522, -0.102043368, 
   0.021685453, -0.004728412,  0.219661981, -0.074576981,  0.070036590, 
   0.220373407,  0.263803452,  0.264800370,  0.268614650,  0.018042633, 
   0.033173449, -0.365208328, -0.062606059,  0.104101457,  0.080141746, 
  -0.083775431, -0.384117901, -0.228131637, -0.273523092, -0.266484410, 
   0.039209437, -0.011647671,  0.106967770,  0.032984804, -0.037465334, 
   0.006967200,  0.069034822,  0.060098283, -0.003806900,  0.112563036, 
   0.140294313,  0.025706040,  0.111973263,  0.181815565,  0.185952589, 
   0.188313633,  0.214722380,  0.067151599,  0.048268981, -0.263179153, 
  -0.243593916,  0.158208475,  0.051004820, -0.002947198, -0.229574934, 
  -0.279326856, -0.225533769, -0.130739495, -0.043811783,  0.026281949, 
   0.123418547,  0.192984089,  0.087553121, -0.022776540,  0.022763621, 
   0.047352813,  0.090111330,  0.069416933,  0.075760156,  0.208667845, 
   0.143411160,  0.028034251,  0.342513293,  0.245148778, -0.134086460, 
  -0.024263954,  0.027643964,  0.067799173, -0.199011832, -0.132290006, 
   0.072727107, -0.315552920, -0.414332867, -0.334480107, -0.153356776, 
  -0.074691869, -0.091886327,  0.103598557,  0.132989183,  0.150244921, 
   0.114758141,  0.175482213,  0.044090889,  0.049142215,  0.097191334, 
   0.094572745, -0.111078016,  0.201510623,  0.073516995,  0.218464896, 
   0.245722964,  0.263285160,  0.108660839, -0.217693597, -0.036918201, 
   0.105590887, -0.222893476,  0.047282629,  0.151587903, -0.025195843, 
  -0.400218785, -0.233895883, -0.161266789, -0.230899841, -0.105493329, 
   0.072459251,  0.146039903,  0.192813203,  0.152484521,  0.165791482, 
   0.063132226, -0.093885206, -0.036878537,  0.030974416, -0.071730286, 
   0.070832580,  0.168228418,  0.246808797,  0.419627458,  0.290999651, 
   0.349858701, -0.141413569,  0.030431660, -0.098079175,  0.164677948, 
   0.055520557,  0.131782264,  0.019272473, -0.230722472, -0.053782020, 
  -0.267635256, -0.188832134, -0.027785894, -0.038218129,  0.087024502, 
   0.092946671,  0.097082101,  0.226362765,  0.138718486,  0.059166722, 
   0.005668981, -0.143979624, -0.294015318, -0.243202642, -0.181334063, 
   0.130778626,  0.306133837,  0.343602002,  0.299754530, -0.021834182, 
  -0.028879317, -0.196927577,  0.146590352,  0.090173043,  0.257158875, 
  -0.272780806, -0.211277157,  0.008415941, -0.054947350, -0.030528029, 
  -0.023456404,  0.063983127,  0.086163588,  0.138205186,  0.215730339, 
   0.167184070, -0.021416277,  0.037972741, -0.126705840, -0.236592844, 
  -0.307932109, -0.430547059, -0.583468318, -0.501486003, -0.380765826, 
  -0.055627860,  0.222662181, -0.185402647,  0.136546731, -0.039661899, 
  -0.242913559,  0.266703069,  0.013445939, -0.131307915, -0.190023914, 
  -0.024424529,  0.070960954,  0.102369219, -0.061273813,  0.011320640, 
   0.265067846,  0.164747193,  0.194121107,  0.188192636,  0.072993718, 
  -0.123193502, -0.214268610, -0.086986095, -0.152552947, -0.442822635, 
  -0.704612553, -0.686206579, -0.590351462, -0.151498348, -0.050043553, 
  -0.183119059,  0.219538108,  0.116627276, -0.128108725,  0.219680667, 
  -0.153214321, -0.080507956, -0.238207445, -0.199050367, -0.021428227, 
   0.125395164,  0.072673105,  0.026636289,  0.095793203,  0.206534758, 
   0.081593551,  0.105133936,  0.034615550, -0.099699311, -0.007347899, 
  -0.131046250, -0.092246115, -0.109150395, -0.546691537, -0.525376678, 
  -0.224751994, -0.070788763, -0.325626075, -0.073069304,  0.094153360, 
   0.013516197, -0.027165785,  0.051952779,  0.056519650,  0.027191753, 
  -0.110349104, -0.084897608,  0.006029641,  0.013386889,  0.075048134, 
   0.012936591,  0.140103459,  0.079285659,  0.017885296, -0.028684244, 
   0.096833877,  0.049979337,  0.044088930, -0.292549163,  0.032464184, 
  -0.206826285, -0.336936027, -0.227648884, -0.198677197, -0.152786374, 
  -0.246170655, -0.202588722, -0.073220655, -0.019395715, -0.074917987, 
  -0.035231400,  0.269851804,  0.174838051, -0.042052362, -0.206176966, 
  -0.029525617, -0.137700289, -0.150635868,  0.060841419, -0.019970385, 
   0.066872701,  0.085248418,  0.058773771,  0.160968676, -0.013521437, 
  -0.099453621, -0.149380088, -0.018322108, -0.193223357, -0.292339981, 
  -0.270942122, -0.262766153, -0.310041100, -0.181750089, -0.405816793, 
  -0.020780161,  0.105787039, -0.185885563, -0.088758565,  0.197162613, 
   0.161213532, -0.018163798, -0.047090448, -0.080874577, -0.069093227, 
   0.008456929,  0.022498846, -0.073021643, -0.116529807,  0.073830046, 
   0.150375277,  0.084070899,  0.103896439,  0.158896655, -0.134799659, 
  -0.029882642, -0.207118854, -0.248799428, -0.151401475, -0.187118694, 
  -0.297186732, -0.054194059, -0.308589250,  0.267366886, -0.012683623, 
   0.126981020, -0.227334544, -0.045128454,  0.052521002,  0.058014281, 
   0.143787399,  0.130703390,  0.067007028, -0.085363857, -0.059751693, 
   0.020531198,  0.071811028,  0.177954674,  0.075699963,  0.091542833, 
   0.115168139,  0.027422469, -0.097458608, -0.073992074, -0.353363931, 
  -0.275330573, -0.176680073, -0.242619932,  0.002034908, -0.091088831, 
   0.073963128,  0.084641233, -0.223475024, -0.069513857, -0.434306651, 
  -0.191853166, -0.033068065,  0.000190539,  0.102969773,  0.011769395, 
  -0.027767785,  0.001064228, -0.038786467,  0.021807572,  0.110150784, 
   0.169103011,  0.220091760,  0.189248949,  0.056662031,  0.022201313, 
  -0.115672067, -0.227201745, -0.298075885, -0.454096466, -0.124988995, 
   0.185360089,  0.176557600,  0.078266487,  0.078998193, -0.022074811, 
  -0.264504731, -0.090301737, -0.405432135, -0.117869340,  0.073036574, 
   0.036443032,  0.036591735,  0.050658554,  0.022296056, -0.054027207, 
  -0.000115131, -0.024368567, -0.040583648,  0.063071921,  0.103070013, 
   0.067029685,  0.153200150,  0.026126442, -0.093471989, -0.282624662, 
  -0.381324589, -0.335124880, -0.102568872,  0.078149073,  0.018279523, 
   0.063783109,  0.034479454, -0.026577033, -0.127160430, -0.191781148, 
  -0.145093828,  0.010009544,  0.031131780,  0.055881612,  0.012432152, 
   0.078852825,  0.138919324,  0.021817567,  0.073912077,  0.032104339, 
  -0.003166930,  0.012404761,  0.053268719, -0.029050488, -0.037833806, 
  -0.138877273, -0.148858517, -0.124708980, -0.484120339, -0.632929921, 
  -0.103635296,  0.016458839,  0.048939381, -0.258656919, -0.042115327, 
  -0.016304655,  0.003119340, -0.174002573,  0.006190910, -0.029262377, 
  -0.121409155, -0.033299971,  0.022586120,  0.051852938,  0.038185947, 
   0.194597900,  0.055733316,  0.107015871,  0.094213918, -0.002492636, 
  -0.039773446, -0.009401460, -0.099776238, -0.164487928, -0.314358145, 
  -0.377236426, -0.380986542, -0.426132858,  0.127703190,  0.183789909, 
   0.021950910, -0.069257170,  0.072518177,  0.039781265, -0.051436912, 
   0.043888319, -0.123839654, -0.042396929, -0.005922065, -0.099335574, 
   0.011481336,  0.169531137,  0.072598942,  0.177094877,  0.112088896, 
   0.206428856, -0.010022605,  0.112059578, -0.042447422, -0.006112564, 
  -0.147369012, -0.182496071, -0.148305729, -0.238416404, -0.284539133, 
  -0.251400441, -0.001153602,  0.031297933,  0.069429979,  0.211535081, 
  -0.048839718,  0.072379388, -0.077718019, -0.107185781, -0.180493981, 
   0.055412032, -0.012001769, -0.127451882, -0.030429056,  0.035668582, 
   0.176305398,  0.125866383,  0.006186809,  0.078168251,  0.082360022, 
  -0.025917711,  0.097925827, -0.083394431,  0.045363568,  0.048555735, 
  -0.025485344, -0.011236394, -0.012598436,  0.019510174,  0.174273878, 
  -0.098247059, -0.103593633,  0.050397221, -0.070653662, -0.063213497, 
  -0.063475251, -0.066039398, -0.000495548,  0.059989486,  0.030717652, 
  -0.138984710, -0.004322880, -0.065134563,  0.022192193, -0.075880863, 
  -0.051617913, -0.105927832, -0.115716718, -0.109236643, -0.082762696, 
  -0.190765709,  0.029757341, -0.017813016, -0.074470721, -0.180810124, 
   0.131996825,  0.387858242,  0.349015892,  0.007997550, -0.020527564, 
  -0.080436312,  0.054277532,  0.026603535,  0.051988401, -0.037946850, 
   0.013414723,  0.311534584,  0.207356885,  0.154388130, -0.084465101, 
  -0.079250589, -0.046510521, -0.078657731,  0.264452845,  0.175899029, 
   0.030228097,  0.150323376,  0.209545746,  0.325481534,  0.322039723, 
  -0.005820654, -0.085272372,  0.002902539,  0.151788682,  0.163548991, 
   0.047112733,  0.002822347,  0.045200571,  0.080975421,  0.045281626, 
  -0.069672830, -0.054036926,  0.029272243, -0.072176389, -0.162267536, 
  -0.072410665,  0.064595520,  0.018807143,  0.035299733,  0.117328897, 
   0.244628757,  0.228306219,  0.171687141,  0.131570026,  0.377371371, 
   0.443992972,  0.290802360,  0.163875952,  0.138339043,  0.022714438, 
  -0.067660362,  0.069451712,  0.026150472, -0.061620772, -0.035068735, 
   0.010753050,  0.063422911,  0.015076123,  0.032905221, -0.042226605, 
  -0.021808140, -0.055947989,  0.040822022,  0.032819338,  0.049970604, 
  -0.028064646, -0.072927698, -0.052013990,  0.051938005, -0.053629186, 
  -0.059423547,  0.001829989, -0.057844877,  0.049524974,  0.030361414, 
   0.060088851,  0.048501261, -0.054122873, -0.002773911,  0.075548999, 
   0.021252401, -0.022694707,  0.057006739,  0.040221803, -0.019259907, 
   0.032603182, -0.010390371, -0.006511360,  0.072873212,  0.022340648, 
  -0.074305005, -0.055437855, -0.078564540, -0.082796410, -0.030983442, 
   0.059014913, -0.019768236,  0.077451989,  0.144087374,  0.234631151, 
   0.000372030, -0.311828524, -0.088835932, -0.203520298,  0.197420821, 
   0.101768173,  0.068342552,  0.161688477,  0.124618694, -0.128578112, 
   0.073331527,  0.029411428, -0.003138348, -0.084951252,  0.034847341, 
  -0.030158050,  0.063186422, -0.185334146, -0.067123376,  0.098146260, 
   0.139145732, -0.038961556,  0.207246378,  0.133115664, -0.029156616, 
   0.222836927,  0.119198814, -0.157502383,  0.223131523,  0.266823024, 
   0.098677434, -0.036509458, -0.191886842, -0.093507856, -0.092646651, 
   0.046215340,  0.155679956,  0.097221978, -0.158652946, -0.122896634, 
   0.067868449, -0.040946305, -0.037368424,  0.002968237,  0.003777254, 
  -0.238251433, -0.025893861,  0.251776427,  0.243929848,  0.295281291, 
   0.387656212,  0.003350820,  0.009000117,  0.135327458,  0.011785355, 
  -0.087097421,  0.026746646, -0.137900412, -0.128350675, -0.144812599, 
  -0.024188964, -0.032148007, -0.133708626, -0.262431294, -0.176515907, 
  -0.164188802,  0.153095022, -0.040412337,  0.099156320,  0.043984421, 
   0.021571353,  0.009455048,  0.050588101,  0.228655249,  0.315187186, 
   0.132353246,  0.019399820,  0.053352848,  0.045175757, -0.002277969, 
   0.040014207, -0.066053331,  0.138484582,  0.105489142, -0.094043918, 
  -0.047712352, -0.081598878, -0.085404813, -0.118864998,  0.054539561, 
  -0.037557293, -0.013326443,  0.045904379, -0.129590139,  0.100182235, 
   0.289281160, -0.075870410,  0.159506217,  0.012032390, -0.085746452, 
   0.010509933,  0.148042485,  0.244403511, -0.054907244,  0.020861100, 
   0.150635213, -0.052931197, -0.015848795,  0.096708171,  0.142046317, 
   0.023280835,  0.045612536,  0.087689839,  0.042384580,  0.105463862, 
   0.008998292,  0.097195990,  0.034955908,  0.094901763, -0.095446207, 
   0.098193042,  0.187248155,  0.160814703,  0.173802525,  0.193917409, 
   0.216596469,  0.070383020,  0.081027374,  0.104711197,  0.171577320, 
   0.048133306,  0.033362698,  0.051896218,  0.180158198,  0.205997646, 
   0.141162992,  0.136411354,  0.109431267,  0.001239539,  0.105801985, 
   0.188627660,  0.147296339,  0.131019473,  0.148684427,  0.095338002, 
   0.012954003,  0.059993096, -0.075376391, -0.109035090, -0.027486904, 
   0.143600851, -0.005456739,  0.144207999,  0.152827874, -0.080623388, 
   0.129882812,  0.046200175,  0.161508009,  0.369251311,  0.160695583, 
   0.071094960,  0.031744510,  0.156309053,  0.023529939, -0.013420886, 
  -0.003435479,  0.050296437,  0.180423811,  0.162133947,  0.193054840, 
   0.129764766,  0.155907094, -0.007292110, -0.040424071, -0.011325892, 
  -0.079256453, -0.054785412, -0.025227107,  0.036051944, -0.007382365, 
   0.110379197,  0.132364139, -0.036843747, -0.109644398,  0.069232069, 
   0.069133252,  0.165616736,  0.032041900, -0.152303979, -0.203966886, 
  -0.079696126, -0.090512827, -0.032231119, -0.032612912, -0.113426402, 
   0.047977023,  0.103073031,  0.093591690,  0.098869696,  0.035567783, 
  -0.068833493, -0.020424586, -0.193110406, -0.133392841, -0.056073487, 
  -0.132024080, -0.196548343, -0.015176819,  0.063273825, -0.184975386, 
   0.052608263, -0.189024165,  0.063256629, -0.060164068,  0.076765783, 
   0.165114135, -0.016643982, -0.036307171,  0.021969166, -0.085608639, 
   0.040706892, -0.086711206, -0.164071918, -0.211290911, -0.121870354, 
   0.044278961,  0.067205787, -0.020693038, -0.104996271, -0.066557519, 
  -0.082951412, -0.162566274, -0.187700450, -0.141188323, -0.257787794, 
  -0.243875295, -0.130138427, -0.218688294, -0.069893241, -0.177272469, 
  -0.092773564,  0.288207591, -0.216244444,  0.068148889,  0.006475328, 
  -0.100188307, -0.109757535, -0.078321338, -0.088256992, -0.138466239, 
  -0.189439431, -0.269904941, -0.061354324, -0.002970469,  0.180847302, 
   0.005847695,  0.004903095, -0.064947188, -0.067109272, -0.195660055, 
   0.034783114, -0.079027481, -0.003613170,  0.006707615, -0.308280587, 
  -0.222785234,  0.031718712, -0.118914619, -0.050548725,  0.039920092, 
  -0.277743131, -0.169707134, -0.145153373, -0.152460068, -0.074004427, 
  -0.073840939, -0.174387455, -0.193199992, -0.124746911, -0.087934546, 
  -0.008372753,  0.021532664,  0.228350326,  0.164719224,  0.062154356, 
  -0.099135153,  0.016002424,  0.101263121, -0.016724944, -0.039354499, 
  -0.165165335, -0.180070907, -0.268909663, -0.354734451, -0.087893523, 
  -0.248125046, -0.003894972, -0.001760699, -0.094225317, -0.226377994, 
  -0.022941677, -0.226147473, -0.134441435, -0.225957379, -0.013581829, 
  -0.028602187,  0.076015234,  0.141243160,  0.162434727,  0.147791758, 
   0.109232284,  0.060039409,  0.069461592, -0.031466767, -0.083171271, 
  -0.056216665, -0.123737745,  0.052490726, -0.404566139, -0.346526355, 
  -0.232900605, -0.362881064, -0.015159059, -0.043877363, -0.217828974, 
   0.005949081, -0.139285207, -0.191252276, -0.061039951,  0.063562110, 
   0.047731649, -0.040226731,  0.149184793, -0.057725657,  0.010575828, 
   0.151129350,  0.121921115,  0.033564668, -0.019834911,  0.115957335, 
   0.037905052,  0.082366861, -0.110368453, -0.065111607, -0.067924045, 
   0.102035344, -0.345715374, -0.398829997, -0.315274984, -0.042299289, 
  -0.164918125, -0.006078906, -0.422497213,  0.084899820, -0.019708138, 
  -0.139570132,  0.060307179,  0.112761542,  0.038993370,  0.071948007, 
  -0.087134585,  0.045184985,  0.097108386,  0.162908763,  0.023768911, 
   0.042574957,  0.048587751,  0.109935418,  0.083441213,  0.006831939, 
   0.044490796, -0.005371899, -0.030609844, -0.114782318, -0.149845213, 
  -0.060735602, -0.405101746, -0.109756596, -0.197730511,  0.149470896, 
  -0.146263257,  0.145290509,  0.117442071,  0.054655015,  0.074164368, 
   0.193826854,  0.243979082, -0.010088977, -0.078681365,  0.008443178, 
   0.109931678,  0.045885835,  0.058629546,  0.134843782,  0.206208959, 
   0.219605342,  0.090845078,  0.136236861,  0.102539435,  0.109025307, 
   0.190360129,  0.245583311,  0.056292880, -0.071389116,  0.129387110, 
   0.196222395, -0.077049837,  0.237251684,  0.220584914,  0.248095974, 
   0.220705777,  0.190744326,  0.144130498,  0.132347926,  0.135485098, 
   0.009241862, -0.026042687,  0.039345283,  0.069466256,  0.151544362, 
  -0.066498607, -0.028814618,  0.089898124,  0.210217789,  0.119634494, 
   0.032344997,  0.138305873,  0.159961566,  0.114351287,  0.108722560, 
   0.249189869,  0.217813969, -0.213107005, -0.243284285,  0.079425074, 
   0.117777765,  0.395390064,  0.381248862,  0.358108222,  0.181066886, 
   0.103187308,  0.163720876,  0.083636932,  0.007444177,  0.019555196, 
   0.022894185,  0.085272126,  0.145348012,  0.008433287, -0.107219003, 
  -0.042312969,  0.116035640,  0.114933565,  0.117776722,  0.000355082, 
   0.017609511,  0.041283309,  0.117539547, -0.025207045, -0.039446950, 
  -0.105755754, -0.144958675,  0.156248495,  0.022918016,  0.391386300, 
   0.409912825,  0.214391738,  0.076222010,  0.105730772,  0.023135761, 
   0.030467711,  0.018530853,  0.117817573,  0.200609878,  0.183752477, 
   0.140695751,  0.119670838,  0.054349057,  0.145287290,  0.064769909, 
  -0.055698808,  0.159617171, -0.092831768,  0.024813203, -0.114146277, 
  -0.055170488,  0.006120584,  0.182781935, -0.135796279,  0.031939086, 
   0.072329432,  0.123777032, -0.038658608,  0.133889318,  0.140494213, 
   0.056449119, -0.077940620,  0.020418938, -0.059082255,  0.037843887, 
   0.021169158,  0.132011592,  0.147674829,  0.167273372,  0.160546809, 
  -0.024044150,  0.020500414, -0.070843913,  0.173602790,  0.129728541, 
   0.071861498,  0.055898100, -0.089727469, -0.039680336,  0.037039414, 
   0.213489652, -0.033303779, -0.121113800,  0.043473639,  0.212745637, 
  -0.101998426,  0.064400800,  0.062297836, -0.031545628, -0.118273631, 
  -0.085261561, -0.096174322,  0.049459502,  0.026143523,  0.037844174, 
  -0.072229892, -0.075775221,  0.193649232, -0.075660951, -0.064417168, 
   0.030526480,  0.144082516,  0.011556663,  0.092446700,  0.033340905, 
  -0.037857842, -0.022366578,  0.142786399,  0.306020021, -0.020911515, 
   0.076761484, -0.001079081,  0.047573928,  0.146348611,  0.066946976, 
   0.084138162, -0.143157795, -0.112357266, -0.000927762,  0.000589145, 
   0.028079825,  0.026150465,  0.049330626, -0.007365515, -0.027243908, 
  -0.031095320, -0.013181140,  0.098292917,  0.066375732,  0.056629933, 
   0.105802670,  0.125471741,  0.081897624,  0.065943569, -0.171779916, 
   0.044142276,  0.299663991, -0.234623209, -0.049719036,  0.016116073, 
  -0.011182882,  0.011958243,  0.159015164, -0.075889304, -0.133156955, 
  -0.093260035, -0.032711763, -0.033869099, -0.153681993,  0.078326792, 
   0.070016980, -0.091654986, -0.073230900, -0.098078214,  0.039809462, 
   0.120548874,  0.090750083, -0.059425820,  0.053185940,  0.187665686, 
   0.027206037, -0.105320744, -0.167294636,  0.045375317,  0.179029912, 
  -0.065238684, -0.045893390,  0.005254164,  0.080984034,  0.106664665, 
   0.177391037, -0.174564645,  0.062545478,  0.022341555,  0.125343323, 
   0.105497047, -0.077913038,  0.023436062,  0.140261829, -0.074410215, 
  -0.047168605, -0.065385222,  0.129245639,  0.045487918, -0.053465471, 
   0.098198108, -0.051766049,  0.097935259, -0.001103296, -0.152360037, 
   0.061904702,  0.325861543,  0.300217539,  0.086169437,  0.013469450, 
   0.038343467,  0.069434203,  0.059938278,  0.173805326,  0.334050089, 
   0.065009452,  0.138412163,  0.158321500,  0.136016831,  0.083787866, 
   0.082369141, -0.013309881, -0.008181904,  0.091203354,  0.036840368, 
   0.050902080,  0.089430295,  0.172160387,  0.012774251, -0.204939261, 
   0.108065344,  0.054896351,  0.194494978,  0.234735504,  0.117683508, 
   0.050277419, -0.168377370, -0.080493145,  0.017987199,  0.058832012, 
   0.220432639, -0.194249719,  0.118548237,  0.245674014,  0.105216607, 
   0.146142289,  0.246529505,  0.057758845,  0.068741798,  0.007757145, 
   0.024644634,  0.092964843,  0.000999450,  0.050210156,  0.163257077, 
   0.002967930,  0.079875790,  0.030830821,  0.018981660,  0.023622522, 
  -0.043376293, -0.076506890, -0.010729864, -0.021689426, -0.145448014, 
  -0.055117056,  0.085544772, -0.039438114,  0.022638135,  0.161329016, 
   0.262992948,  0.248437166,  0.073978774,  0.083548687,  0.078623712, 
   0.123098850,  0.153152838,  0.071351990,  0.110874891, -0.045647413, 
   0.170523837,  0.132873103,  0.176670358,  0.273117900,  0.196480215, 
  -0.273619026,  0.154878139,  0.122736968,  0.075849921,  0.219541878, 
   0.214920342, -0.123203970,  0.017410405, -0.011880875, -0.010922350, 
  -0.004056603, -0.062827699, -0.012328029, -0.208622232, -0.173691079, 
   0.037074037,  0.148551762,  0.078971900,  0.009631918, -0.016033722, 
   0.193411723,  0.122363366, -0.023700202,  0.012131055,  0.210723281, 
   0.144210801, -0.140494183,  0.080368131,  0.012683173,  0.206175044, 
   0.018251408, -0.093222007, -0.094050832, -0.039099641, -0.049947079, 
   0.072023652,  0.055603348, -0.048361529,  0.059859030,  0.051918469, 
   0.046478875,  0.083781756,  0.007019505, -0.033360209, -0.054417782, 
   0.031144954, -0.065234557,  0.025848575,  0.036039509,  0.139730021, 
   0.086261749, -0.031827752, -0.014650047, -0.043096609, -0.081563108, 
   0.043440320,  0.085612975, -0.053311177, -0.069233753,  0.023963578, 
  -0.032368112, -0.061894704,  0.031925865, -0.068208493,  0.082007490, 
   0.062058784,  0.048523836,  0.021272212,  0.020244218, -0.043005947, 
  -0.030795379,  0.205323562,  0.108644113,  0.128917918,  0.049778935, 
   0.072780557,  0.052803498,  0.058900330,  0.072320230,  0.228483424, 
   0.127770409, -0.021893617, -0.058746155,  0.139320388,  0.256577402, 
   0.223293707,  0.141834810, -0.019477919,  0.219530061,  0.066090189, 
  -0.039062779, -0.014383331, -0.038736816,  0.040910073,  0.050989754, 
   0.102006368, -0.012916098, -0.072006963,  0.088365979,  0.178178042, 
   0.149036810, -0.043995384, -0.271922559, -0.235474348,  0.018169984, 
   0.055114530,  0.410760343,  0.161636040,  0.283715248,  0.427006721, 
   0.276756674,  0.430107474,  0.414829284,  0.076778680, -0.211916447, 
   0.021159368, -0.000781667, -0.137986645, -0.127540722, -0.052765090, 
  -0.048438378,  0.005365565,  0.028348573,  0.091141023,  0.023638364, 
   0.046078697, -0.013600011, -0.097472668,  0.101819806,  0.190726355, 
   0.121545345,  0.075313754, -0.038645435,  0.021301441,  0.243072748, 
   0.188581556,  0.283224553,  0.235623851,  0.218526661,  0.151990131, 
   0.150979161,  0.250896275,  0.180562913,  0.186383769,  0.220751092, 
   0.089072034, -0.110681355, -0.051947419, -0.074231692,  0.079884924, 
  -0.017392760, -0.030755039,  0.277587324,  0.285331905,  0.033016268, 
  -0.202246621, -0.134085596,  0.068108670,  0.087116927,  0.200690359, 
   0.014956259,  0.011039911,  0.038521241,  0.114929847,  0.172457606, 
   0.232761279,  0.004958050,  0.139953077,  0.108730912,  0.005276755, 
   0.047192924,  0.065010950,  0.020852838,  0.068713911,  0.000413177, 
   0.116989166, -0.065956809, -0.038894910, -0.011212572,  0.013905059, 
  -0.076523155, -0.136658445,  0.181386888,  0.030931575,  0.068113782, 
   0.017050352,  0.057578810,  0.076117665,  0.005548772, -0.090443179, 
   0.031338964,  0.053583503,  0.134862825,  0.102953352,  0.063787490, 
   0.029951869,  0.061451916,  0.047543045,  0.084133744,  0.227828905, 
   0.072501697,  0.237464130,  0.174429446,  0.079035185,  0.049266748, 
  -0.047027316,  0.028141694, -0.023440611, -0.116329238, -0.086148113, 
  -0.049580690,  0.010873620, -0.057520304,  0.095032223, -0.012935720, 
  -0.079878122,  0.031725079, -0.004325194,  0.042493377, -0.010610803, 
   0.102830909, -0.039965030, -0.009248400,  0.021649761,  0.027085144, 
  -0.033487942, -0.150099143, -0.031450368, -0.017249972,  0.233328983, 
   0.246727571,  0.280807436,  0.085422605,  0.065596133,  0.278351277, 
  -0.080604509,  0.035551753, -0.148869559, -0.155125916, -0.114351891, 
  -0.018688086, -0.051619209,  0.127364457,  0.152988046, -0.034804940, 
  -0.051512323, -0.131427050,  0.008338259, -0.046175774, -0.047709864, 
  -0.192126006, -0.067024097, -0.043022458,  0.055521902, -0.080245994, 
  -0.044547074, -0.047970451, -0.124126464,  0.084362298,  0.255408615, 
   0.046918388,  0.074069142,  0.167544574, -0.160612971,  0.085469864, 
  -0.048858933,  0.010873859, -0.048587590, -0.019301249, -0.031986382, 
   0.020138424, -0.077315412, -0.047166239, -0.006985757, -0.143853292, 
  -0.080144428, -0.080761187, -0.253097594, -0.337257981, -0.174172774, 
  -0.133313343, -0.072714135, -0.154425234,  0.113276817, -0.112442538, 
  -0.082488663,  0.288267136,  0.114600599,  0.029024268, -0.075564958, 
   0.211755827, -0.111903220,  0.267292619,  0.041659836, -0.108071789, 
  -0.035939932,  0.034779146,  0.069874123, -0.030820239, -0.017037483, 
   0.050359882,  0.020321399,  0.038471840,  0.083377518, -0.071835801, 
  -0.276314974, -0.221662089, -0.067118943, -0.210761696, -0.155803800, 
   0.043027285,  0.137355879,  0.016374914, -0.000593309,  0.414579034, 
   0.164353982,  0.151360989, -0.075076379,  0.155349240, -0.302383482, 
   0.028682092,  0.049329638, -0.230133474, -0.039404888,  0.080040693, 
   0.027324995,  0.060080566,  0.031802606,  0.017490877,  0.038911425, 
   0.028899707,  0.143500283, -0.070894592, -0.089076422, -0.035934921, 
   0.108457223,  0.132001594,  0.162081733,  0.038195681,  0.059478171, 
   0.005657269,  0.090133272,  0.280271202,  0.396608233,  0.163270220, 
   0.039566617,  0.102462754,  0.127712101,  0.116947904,  0.228944242, 
  -0.010123989, -0.082818791, -0.044694476, -0.054962207, -0.070884638, 
   0.154917166,  0.099820375,  0.091950022,  0.176748201,  0.255306900, 
   0.040152855,  0.017886739,  0.243810952,  0.401366860,  0.198544279, 
   0.129803121,  0.007045389, -0.018715238, -0.026659004, -0.014339460, 
   0.101715654,  0.433930546,  0.209211156,  0.092498325,  0.074713714, 
  -0.130981013,  0.158319920,  0.145727858,  0.183275968, -0.060924843, 
  -0.018856321,  0.002537228, -0.022882659,  0.138947383,  0.092096485, 
   0.185182810,  0.143541679,  0.159856483,  0.115742818,  0.158594579, 
   0.178913116,  0.265155822,  0.007368746,  0.015835177, -0.041612081, 
  -0.005920368, -0.011693250, -0.453945696, -0.271671653, -0.076986268, 
   0.228496388,  0.009337751,  0.025426557,  0.100445181, -0.100504272, 
   0.085382946,  0.236294806,  0.033452187, -0.050219238,  0.051718954, 
   0.045658391, -0.080499120,  0.127058551,  0.128225178,  0.230668455, 
   0.136157677,  0.262751997,  0.250890523,  0.138675883,  0.021810824, 
  -0.066748075,  0.050890863,  0.002588981, -0.156543508, -0.087805219, 
  -0.087273777, -0.154094234, -0.163273484, -0.070293449,  0.182711810, 
   0.031468242,  0.448487788,  0.083276600, -0.051345743, -0.154982761, 
  -0.083371162, -0.225221276, -0.202205896,  0.001137546, -0.126461953, 
  -0.028528364,  0.065060422,  0.099710666,  0.222619832,  0.048628349, 
   0.140695617, -0.024855880, -0.164285555, -0.138980865, -0.122117817, 
   0.036513839,  0.007428064,  0.035503738, -0.044585437,  0.021625899, 
  -0.276581973, -0.171615630,  0.192289993,  0.063535415,  0.393694609, 
   0.035168611, -0.020221993, -0.216540709, -0.164332718, -0.267710924, 
  -0.217791900, -0.156918585, -0.158180922, -0.165976867,  0.014806621, 
   0.060079217,  0.099972665,  0.020435803,  0.119480617, -0.016118124, 
   0.088106446,  0.039062817,  0.043951876,  0.150518849,  0.028428562, 
   0.217220783,  0.160742015,  0.054779094, -0.017755918, -0.080974199, 
   0.059030131,  0.089984015,  0.143865183,  0.000833775,  0.055138078, 
  -0.129686341, -0.154595181, -0.091226928, -0.071181640, -0.237295493, 
  -0.254684329, -0.211829722, -0.206312463,  0.056545299, -0.015833516, 
   0.022949191, -0.108343266, -0.039983243,  0.101788595,  0.092011876, 
  -0.071250640,  0.030830702,  0.045710240, -0.057390455,  0.058114842, 
  -0.116210967, -0.052330688, -0.212329552,  0.068172045,  0.122502029, 
  -0.135097682,  0.131535172,  0.098935962,  0.064612858, -0.084731743, 
  -0.103362262, -0.015247820, -0.205016911, -0.171441555, -0.342986047, 
  -0.344837338, -0.176682770, -0.031490315, -0.073242374, -0.142077044, 
   0.001396044,  0.101423644, -0.015421582, -0.084347695, -0.140590951, 
  -0.104316927,  0.017342199, -0.024636941, -0.233197242, -0.033126604, 
  -0.246204659,  0.060923565,  0.020757079,  0.106107973,  0.322821110, 
   0.032137454,  0.022533877,  0.178883657, -0.064082086, -0.032014400, 
   0.053680167, -0.231721327, -0.227496251, -0.307264447, -0.186179072, 
  -0.002695763, -0.072538868, -0.002324469,  0.032142058, -0.029510967, 
   0.177087441,  0.148880914,  0.003998089,  0.062415905, -0.025397262, 
  -0.110443532, -0.336506128, -0.020379221,  0.024684768, -0.051465325, 
   0.046204008, -0.100390300,  0.213130504, -0.009486298,  0.163188711, 
   0.063458748,  0.037898067,  0.202178717,  0.198587835,  0.013037569, 
  -0.003948475, -0.095627218,  0.048050698,  0.016900191,  0.006134092, 
   0.140583098, -0.050805781,  0.040656265,  0.027020441,  0.125653207, 
  -0.055510741, -0.005194225, -0.025095087, -0.028838139,  0.007158435, 
  -0.027684573,  0.059991024,  0.022080906, -0.011341845, -0.229509234, 
  -0.066013739,  0.126165390,  0.049655963,  0.126063660,  0.091053732, 
   0.270512164,  0.208518624,  0.091878831,  0.008974081, -0.047633380, 
   0.024626285,  0.093980737,  0.111842617,  0.050349936,  0.034978241, 
  -0.001777916,  0.063890561,  0.028173419,  0.067079969,  0.068669580, 
   0.051877070,  0.042315271,  0.007747399, -0.083076194, -0.024739064, 
   0.058457863, -0.124326788, -0.091182686, -0.122306488,  0.213361964, 
   0.170096859,  0.079351917,  0.067618407,  0.061197195,  0.077448830, 
   0.135702834,  0.004194097,  0.058678325,  0.014086999,  0.138784736, 
   0.123472936, -0.026543876,  0.080068752,  0.031146290, -0.016203759, 
   0.104599148,  0.115215003, -0.191842869, -0.248220921, -0.075958960, 
  -0.289831996, -0.172441244,  0.015431697, -0.004477081,  0.002612727, 
  -0.074663624, -0.022496114,  0.180619493,  0.147645772, -0.051058374, 
  -0.093617439, -0.104795694, -0.148883373, -0.042843387, -0.091604337, 
  -0.101502106, -0.133540452,  0.069550641,  0.048810091,  0.089979105, 
   0.057157096,  0.042973943, -0.018563189,  0.115348756,  0.022683198, 
  -0.147846475, -0.277946115, -0.211821139, -0.184718102,  0.031941697, 
  -0.084102109,  0.067839257,  0.058289163,  0.085759439,  0.169925317, 
   0.036224578, -0.047176849,  0.002855197, -0.167877689, -0.244376302, 
  -0.175232932, -0.146180257, -0.088842139, -0.140539110,  0.040287644, 
  -0.059617199,  0.025511004, -0.006774377,  0.039448500,  0.045643665, 
   0.075858220,  0.020818099, -0.186622068, -0.272334427, -0.230384290, 
  -0.287649781, -0.313815057,  0.093552440,  0.042257391,  0.055551432, 
   0.066748627,  0.210847199,  0.101790600,  0.062235799,  0.060889252, 
  -0.012459182,  0.105394512,  0.101555809,  0.060108405,  0.165990502, 
   0.129215240, -0.100699998, -0.102027379, -0.165891781, -0.016152389, 
  -0.021208879, -0.030519586, -0.048273824,  0.025061535, -0.014630704, 
  -0.221093580, -0.090075389, -0.019900709, -0.310590684, -0.151434600, 
   0.140739754, -0.049521800, -0.015783697, -0.054873135,  0.075182483, 
   0.167174011,  0.344445348,  0.447470367,  0.210723072,  0.276123434, 
   0.401370764,  0.439868659,  0.204083547,  0.155586973,  0.424697161, 
   0.397073209,  0.118751876, -0.104721516, -0.138845012, -0.120653793, 
   0.060640085,  0.222489744,  0.056581110,  0.016666163,  0.159537479, 
   0.222432122,  0.152468026, -0.003783696,  0.032342866, -0.038920835, 
  -0.002069220,  0.076356657, -0.039328821,  0.074077964,  0.213653505, 
   0.235118091,  0.204203933,  0.356037498,  0.158925280,  0.379092723, 
   0.166951254,  0.186177433,  0.110528648,  0.239261389,  0.259137571, 
   0.282614976,  0.321083009,  0.447675794,  0.470091373,  0.289563149, 
   0.397881180,  0.348030478,  0.434476584,  0.055111583, -0.103856981, 
   0.050314985,  0.021500804, -0.008701943, -0.002899356,  0.037976354, 
  -0.062289052, -0.055345479, -0.137648433, -0.012141844,  0.102985688, 
   0.175956964,  0.075322911,  0.005128159,  0.207524195,  0.081151836, 
  -0.005334919,  0.201073244,  0.222777680,  0.271610886,  0.149361759, 
   0.123329133,  0.074835636,  0.029199965,  0.109756805,  0.183465213, 
   0.222315162,  0.016449200, -0.072195038,  0.028631665, -0.002032526, 
   0.078436725, -0.033745583,  0.082077347, -0.062426500, -0.085619964, 
   0.009884104, -0.020100415,  0.051960997, -0.080022946, -0.021265388, 
  -0.065416262, -0.083124541, -0.040042363,  0.090172179,  0.013543774, 
   0.087167405,  0.019994931,  0.070726998,  0.061550893, -0.020380333, 
   0.034063734, -0.029452398,  0.056535922,  0.027428240,  0.000928268, 
  -0.016087294, -0.050172437, -0.014592089,  0.031675316,  0.074066274, 
  -0.082603149, -0.077787898,  0.078456946, -0.014053421,  0.036215417, 
   0.204198837,  0.122934513,  0.119941697,  0.139161602,  0.040569000, 
  -0.026373724,  0.072240718,  0.138190210, -0.157986224, -0.159244448, 
  -0.136460558, -0.009624941, -0.062727563,  0.047247179,  0.181057200, 
  -0.090063252,  0.022328505,  0.031794846,  0.031020716, -0.075579621, 
  -0.041687042,  0.048376344, -0.017105214, -0.049033672, -0.014345746, 
  -0.163532272, -0.237387970,  0.103480794,  0.258281440,  0.215532064, 
   0.375191540,  0.341315746,  0.366023511,  0.209209502,  0.141327247, 
  -0.240408376,  0.041762341, -0.238299862, -0.210422665, -0.154020667, 
   0.051703554, -0.149155900, -0.031266667,  0.279170156,  0.160566509, 
   0.237893894,  0.170938656,  0.263702393, -0.069401741, -0.022256933, 
   0.071645476,  0.034055397,  0.038769133, -0.276341379,  0.011488470, 
   0.109034918,  0.155371502,  0.097404733,  0.272163242,  0.214059755, 
   0.199603066,  0.102467299,  0.091692507,  0.027307170,  0.113296747, 
   0.135194287,  0.054507647, -0.116622336, -0.022711476, -0.146196395, 
  -0.213403761,  0.286189497,  0.296359569,  0.290739000,  0.154938579, 
   0.020933535,  0.131229833, -0.081889726,  0.070171259,  0.027780738, 
  -0.074390322, -0.143756628, -0.212636814, -0.205754742, -0.194037110, 
  -0.044911955,  0.013570897, -0.065946460, -0.023899229,  0.132862359, 
   0.121778555, -0.074274339,  0.095780782,  0.106170647,  0.201005936, 
   0.211602464,  0.085379705, -0.035050817,  0.107316740,  0.163163796, 
  -0.067492098,  0.089596100,  0.317563951,  0.220721349,  0.223072544, 
   0.267613292,  0.009541646, -0.054640666, -0.051366691, -0.155536562, 
  -0.169972762, -0.329330742, -0.123924479,  0.054366264,  0.059592851, 
   0.054996785, -0.082415521, -0.057362944,  0.058502890, -0.061545528, 
   0.050387144,  0.046392314,  0.227681205,  0.223706082,  0.111945592, 
  -0.033762857,  0.134036541,  0.073825747, -0.033791665, -0.155233800, 
   0.010249601,  0.389713973,  0.192330599,  0.134008765, -0.056410685, 
   0.185476631,  0.259927899, -0.077230819,  0.140340805,  0.057905998, 
   0.002629592, -0.047134265,  0.027859241,  0.114554085, -0.046460416, 
  -0.029867390, -0.027549632, -0.063058108, -0.008395579,  0.093504563, 
   0.038243011, -0.072068714, -0.088274106,  0.089561351,  0.002380342, 
  -0.008997639,  0.077067755,  0.176056683,  0.176202625,  0.422111630, 
   0.106339991,  0.201949760,  0.037160166,  0.287938654,  0.191422075, 
   0.080207765,  0.123557024,  0.079707667, -0.014150299,  0.000449344, 
   0.113664337,  0.109142259,  0.078739010,  0.051381350, -0.021769293, 
  -0.048755165, -0.158981383, -0.038185950, -0.027643526, -0.030029155, 
  -0.007925052, -0.072386771, -0.032705899,  0.030157702,  0.101663038, 
  -0.014807891,  0.243701413,  0.331848115,  0.218820378,  0.187327906, 
  -0.002863884,  0.053683411,  0.249937892,  0.074441440, -0.088650063, 
   0.036846343,  0.006638012,  0.080804259,  0.056564324,  0.206404105, 
   0.081183940,  0.079494789,  0.167598814,  0.125559539, -0.112011477, 
  -0.073704079, -0.015696248,  0.030504726,  0.062340718,  0.144846231, 
   0.028775947,  0.030018840,  0.106540225,  0.205172867,  0.195852771, 
   0.129006669,  0.491006523,  0.329313874,  0.045944694, -0.066356607, 
   0.137358829,  0.066100240,  0.106261209, -0.015169547,  0.109788120, 
   0.016442182,  0.006425621,  0.006462966, -0.013711063,  0.145071745, 
   0.178629518,  0.124564283,  0.002481269, -0.094367877, -0.196676120, 
  -0.083743356, -0.016714318,  0.094678521,  0.112737320,  0.160197556, 
   0.176302269,  0.041896734,  0.085779391,  0.269102633,  0.225190938, 
  -0.268495291,  0.072277270,  0.029496940, -0.109559610,  0.010358930, 
   0.010291754,  0.019924691,  0.033521488, -0.042887252, -0.015542138, 
   0.003750496, -0.014178506,  0.054024510,  0.099643230,  0.009391397, 
   0.087522089, -0.196045309, -0.177180320, -0.095504411, -0.087078542, 
   0.036791123,  0.006506460,  0.155262023,  0.042917136,  0.069720440, 
   0.032370359, -0.061809495,  0.110639341, -0.099003121,  0.057514179, 
  -0.004636151, -0.290112853,  0.189086780,  0.050227363,  0.101598859, 
   0.016266413,  0.053714860, -0.030238261,  0.039403614,  0.002501385, 
   0.052992750,  0.134599224, -0.040619168, -0.083204255, -0.166745096, 
  -0.225271434, -0.231665909, -0.165077329, -0.161677197, -0.266317844, 
  -0.266835064, -0.169183001,  0.051944084, -0.019863755,  0.181117192, 
   0.242680445, -0.106311567, -0.007414717,  0.021378119, -0.318852752, 
   0.265805155, -0.060114115,  0.113670021, -0.042993773,  0.078452162, 
  -0.021359643, -0.018999029, -0.008198954,  0.049032256,  0.056419060, 
   0.055863962, -0.013502828, -0.034776472, -0.075885132, -0.071779445, 
  -0.108163208, -0.132563487, -0.194373354, -0.068088807, -0.106719829, 
  -0.212205768,  0.132714793, -0.055747766,  0.055530474, -0.112922840, 
  -0.019401470,  0.076821126, -0.031374965,  0.084999502, -0.270633399, 
  -0.031214926, -0.005016936, -0.113525629, -0.080897652, -0.092420876, 
  -0.042778682,  0.196508586,  0.180096865,  0.132602543,  0.044855092, 
   0.020335075,  0.018305143, -0.114510432,  0.047987014, -0.047656115, 
  -0.021383019, -0.020335766,  0.049552877, -0.074845493,  0.156925455, 
   0.108846322,  0.289519489,  0.312892348,  0.199870959, -0.080806404, 
  -0.022484662, -0.033003297, -0.215791702, -0.052440628, -0.086345457, 
  -0.086160176, -0.147014335, -0.087018967,  0.041938368,  0.222857460, 
   0.163617879,  0.133972019,  0.130897820,  0.028712379,  0.064576551, 
   0.065962985,  0.080738813,  0.046682272, -0.113428593, -0.043572634, 
  -0.120153919, -0.042616293, -0.004686617,  0.195058227,  0.447217971, 
   0.165329054,  0.186475262, -0.061509490, -0.048749384,  0.054012842, 
  -0.041429706,  0.068678677,  0.033850245, -0.068428114, -0.059304316, 
   0.066428229, -0.019320974,  0.105099402,  0.165422350,  0.023364302, 
   0.134535760,  0.085826024,  0.095715217,  0.129086941,  0.137402117, 
   0.114892706, -0.031506132, -0.072253026, -0.159464717, -0.094987534, 
   0.044170398,  0.285857201, -0.038928796,  0.360801190, -0.075684868, 
   0.103453048, -0.092543751,  0.231731415,  0.037404973, -0.040739432, 
   0.113281615,  0.062885627,  0.052303232,  0.232418939,  0.192776680, 
   0.172715768,  0.182689205,  0.061876353,  0.091311812,  0.181504935, 
   0.093936674,  0.267172784,  0.139742523,  0.106753983, -0.075344399, 
   0.053119525,  0.015276506, -0.034083035, -0.122233681,  0.381444603, 
   0.295864582,  0.238101050,  0.056946091, -0.056444440, -0.096617751, 
   0.162945256,  0.011489540,  0.003686133,  0.050430622,  0.134298831, 
   0.163802639,  0.198377401,  0.207299709,  0.204896927,  0.133148149, 
   0.058253158, -0.077432305,  0.023834269,  0.078424431,  0.134925649, 
   0.037319146,  0.126921743,  0.096237518,  0.172629029,  0.140499741, 
  -0.011499518, -0.130294248,  0.075805858, -0.026062919, -0.088655584, 
  -0.184355438, -0.099404298, -0.058946282,  0.216347367,  0.182143316, 
   0.108454302,  0.187484965,  0.145639420,  0.125609189,  0.199065030, 
   0.184500068,  0.159974724,  0.109555967,  0.060164019, -0.029878102, 
  -0.038635101,  0.128679365, -0.062208239,  0.021486314,  0.040052127, 
   0.009289022,  0.072386436,  0.094398186, -0.006980066,  0.052830957, 
   0.018331686, -0.081622422,  0.059236236,  0.033723842, -0.268453419, 
   0.003145156, -0.001049214,  0.224481151,  0.142992586,  0.079089403, 
  -0.088950217, -0.037315689,  0.075199328,  0.268150121,  0.035798736, 
  -0.006724990, -0.063459143, -0.030927541, -0.019360118, -0.040211771, 
  -0.017028999, -0.059233952, -0.048985101,  0.036806814,  0.040826362, 
   0.049617097, -0.017378809, -0.020751353, -0.146505743,  0.150816023, 
  -0.124206275,  0.018090606, -0.228045464,  0.078279309, -0.066261716, 
   0.029232364, -0.005165853, -0.045284681,  0.061044283,  0.105109602, 
   0.122201808,  0.191641942, -0.019473668,  0.003298680, -0.123214334, 
  -0.083393149, -0.038341574, -0.149212927, -0.109414570, -0.083412513, 
  -0.045246556,  0.007986949,  0.074178360, -0.079071254,  0.104864530, 
  -0.177955568, -0.230803579, -0.016168501,  0.008909062, -0.043378636, 
   0.003609730,  0.159807622, -0.010911707, -0.016471827, -0.139421478, 
  -0.112107009,  0.060839240, -0.075776346,  0.154780626,  0.011133460, 
   0.069458395,  0.085848026,  0.037938777,  0.013731150,  0.011296947, 
  -0.063901655,  0.133616582, -0.135098040,  0.019871276, -0.052384462, 
  -0.132841676,  0.081542276,  0.033338729, -0.185954347, -0.033858288, 
   0.203950331,  0.029492360,  0.018322667, -0.098178528,  0.130798340, 
   0.082042247,  0.118117206, -0.239037335, -0.186744705, -0.067107178, 
  -0.119699225,  0.067474797,  0.053674199,  0.130401403,  0.079598464, 
   0.067236841,  0.054237902,  0.025690541,  0.036099665, -0.079057470, 
  -0.136831984, -0.176287010, -0.117050551, -0.061523870,  0.024287080, 
   0.063471437, -0.006219598, -0.197866336, -0.093258031, -0.084163457, 
   0.051408164,  0.067069449,  0.170177311,  0.080408722,  0.246407807, 
  -0.044335820, -0.183632955, -0.150130793, -0.217769384,  0.045896567, 
   0.071398340,  0.016221678,  0.060505349, -0.016361523, -0.008035194, 
  -0.031916212,  0.030724775, -0.152537763, -0.163258955, -0.096189909, 
  -0.024514671, -0.131370246,  0.031516507,  0.112588421, -0.106094845, 
  -0.219836548, -0.098569311,  0.082479618, -0.009444512,  0.045138724, 
  -0.045344513,  0.038234551, -0.168237224, -0.068372853,  0.128943726, 
  -0.075767286, -0.142106086, -0.009747717, -0.027286053,  0.187294707, 
   0.102466099,  0.056483228, -0.027306531,  0.011167504,  0.154304445, 
  -0.143975899, -0.090537407,  0.075526036, -0.130675986, -0.122458540, 
  -0.136647582, -0.149927437,  0.130885124, -0.016026765, -0.024148675, 
   0.011647545, -0.042271785,  0.021046184, -0.186930776,  0.133821234, 
  -0.053844344, -0.125114158,  0.092054605,  0.000657151, -0.010737663, 
   0.041492451,  0.274510950,  0.092928961,  0.044594415,  0.088604748, 
   0.042395443,  0.227361098,  0.103747472,  0.107480295,  0.124868773, 
   0.014157926, -0.112631589, -0.088312060, -0.040332396,  0.102709867, 
   0.129483059, -0.029238600,  0.102356680,  0.045535155,  0.062764235, 
  -0.018519193,  0.012970656, -0.069576755, -0.147054344, -0.307387859, 
  -0.133708671, -0.131904379,  0.047036823, -0.110255964, -0.046631165, 
   0.047020134,  0.003642870, -0.023096368, -0.113629237, -0.117362916, 
  -0.157582194, -0.135705397,  0.030841742,  0.054194376, -0.231828898, 
  -0.320742965, -0.183848083, -0.085838467, -0.189099267,  0.108309001, 
   0.058468156,  0.079015233,  0.064325131, -0.072905675, -0.066038623, 
  -0.059735551,  0.124439105,  0.171591640, -0.072664768, -0.103904553, 
  -0.218439624, -0.024726640, -0.309709817, -0.156606033, -0.140874758, 
  -0.007495275,  0.002238112, -0.057133775,  0.004742177, -0.156189561, 
  -0.250528991, -0.264996916, -0.187136158, -0.187380925, -0.111153021, 
   0.067014575,  0.036871731,  0.033138327,  0.047288902, -0.001758344, 
   0.025165267, -0.029489219, -0.000442252, -0.055307105, -0.041454714, 
  -0.060565401,  0.006573699, -0.074234836, -0.056797121, -0.081354357, 
   0.039176226, -0.070054933, -0.025870919, -0.008870131, -0.084519796, 
   0.012579428,  0.050992243,  0.054421477, -0.074702889, -0.007598586, 
   0.057195641,  0.025620334,  0.047377117,  0.016937122,  0.046515338, 
   0.085622005, -0.041662302, -0.070974819, -0.031933509, -0.041557606, 
   0.069892652, -0.021387786,  0.017313616,  0.100243822,  0.032020442, 
  -0.031511679,  0.081974812,  0.111791827,  0.306113929,  0.163879395, 
   0.269908220,  0.099070743, -0.067610040, -0.077830069, -0.104199834, 
   0.317029774,  0.113842979,  0.061108567,  0.144853845,  0.080996700, 
   0.057985805, -0.054532457, -0.025124479,  0.042930417, -0.030743431, 
  -0.080798045, -0.018025242,  0.060254626, -0.030334804, -0.215616569, 
   0.057086945,  0.107346155,  0.177465528,  0.023122335,  0.324014783, 
   0.317477047,  0.199723661,  0.019508068, -0.003413580,  0.224915415, 
   0.242397651, -0.071265638, -0.075664073, -0.185504347, -0.041183770, 
   0.008761087,  0.089199364,  0.149517134,  0.342763722,  0.365278244, 
  -0.087415107, -0.078551322,  0.018130183, -0.084259436,  0.066399731, 
  -0.015619427,  0.043485373, -0.098368138,  0.120225534, -0.035166115, 
   0.101589568, -0.138311327, -0.043837175,  0.137485683,  0.116780423, 
   0.214869291,  0.075328052,  0.173471063, -0.049305454, -0.043444719, 
  -0.067859948,  0.057173289,  0.049349338,  0.015442152, -0.136210173, 
   0.016832359, -0.149872750, -0.126314297, -0.141449571, -0.054974463, 
  -0.016802719,  0.007952027,  0.055382811, -0.027804615, -0.007815680, 
  -0.074417189,  0.164975747, -0.177579537, -0.050684314,  0.165898040, 
   0.047536295,  0.059259035,  0.039879587,  0.198476419,  0.216170311, 
   0.138708234,  0.160151452,  0.071179397,  0.063250400,  0.149441749, 
   0.090828031,  0.194054544,  0.035843901,  0.119139902,  0.052931197, 
   0.028088614,  0.023048351,  0.099346869,  0.071197800, -0.004086180, 
  -0.014852688, -0.029302258, -0.059148081, -0.219865575, -0.104307659, 
  -0.284608036, -0.044937510, -0.007198623,  0.218125239,  0.154975057, 
   0.116959855,  0.224734932,  0.064497866,  0.022227462, -0.016315777, 
  -0.071424462, -0.073760882, -0.084213391, -0.171391860, -0.046717130, 
  -0.052530441,  0.140089914,  0.026403693, -0.043060798,  0.074358746, 
  -0.101540677, -0.083395876, -0.063234664,  0.030093469, -0.052767068, 
   0.169535324, -0.202737778,  0.085431762,  0.054618135, -0.032753717, 
   0.029149616,  0.129522189,  0.053506840, -0.033004455,  0.189013600, 
   0.094388828,  0.003965586, -0.090417631, -0.192195624, -0.098595440, 
  -0.002770226, -0.103240103, -0.062157795, -0.018142235, -0.056360260, 
  -0.000041338, -0.078184061, -0.065281220, -0.189347252, -0.007376814, 
  -0.063008070, -0.054796208, -0.016731048,  0.035366300, -0.149830237, 
  -0.247197911,  0.016663592, -0.058211554,  0.162295774,  0.118438348, 
   0.296647519,  0.110994570,  0.105798908,  0.081267409, -0.200387821, 
  -0.111045390, -0.111303322, -0.026122168,  0.062485244,  0.010256940, 
  -0.062675849,  0.023692567,  0.100154735,  0.111356214,  0.024907146, 
  -0.066227563,  0.064972721,  0.078023016, -0.069117829,  0.084499724, 
   0.228725001,  0.035233296, -0.062998958, -0.056903906,  0.127562806, 
   0.155107364,  0.125106335,  0.148112461,  0.250565112,  0.235267982, 
   0.259117037, -0.070760317, -0.348514080, -0.286673725,  0.025481282, 
  -0.049159676, -0.010725758, -0.003228921, -0.272756308, -0.065835685, 
   0.074321829,  0.032652762, -0.070449598,  0.193064973,  0.238668218, 
  -0.057941362, -0.051066946,  0.045506563,  0.063577943, -0.092019618, 
  -0.037492644, -0.101242155,  0.105510935,  0.127480298,  0.066144340, 
   0.239119068,  0.255899578,  0.282445639,  0.207159698, -0.072081044, 
  -0.555162132, -0.521882236, -0.183460340, -0.003073975,  0.049456533, 
  -0.079186834, -0.163378522, -0.022858538,  0.074777529, -0.060758557, 
  -0.004392791,  0.325190991,  0.398653060,  0.106240064,  0.106910862, 
   0.118449010,  0.129613146,  0.124595523, -0.166611239,  0.213694483, 
   0.043123119, -0.106140934,  0.171458095,  0.224809647,  0.317131191, 
   0.398482531,  0.194996074, -0.031716112, -0.545379519, -0.485640138, 
  -0.151348680,  0.088199578,  0.034465607, -0.086105071,  0.032204274, 
  -0.000470230,  0.015566599,  0.110389657,  0.172303021,  0.521649301, 
   0.228552967, -0.167331129, -0.201865524,  0.139468908,  0.173838019, 
   0.373169214,  0.061523370,  0.107741997, -0.001371976,  0.057821300, 
   0.195051476,  0.234427691,  0.328542590,  0.320864350,  0.088422999, 
   0.010389166, -0.327892989, -0.045924846,  0.086969294,  0.142642349, 
   0.209963098,  0.183709398,  0.110820986,  0.113154724,  0.082186498, 
   0.138498291,  0.068301737,  0.376114875, -0.084446669,  0.065867104, 
  -0.181862220,  0.073064364,  0.150944099,  0.389213473,  0.299790114, 
  -0.023689253,  0.014935762,  0.077534504,  0.234857559,  0.275857598, 
   0.285927832,  0.209720075,  0.149539739, -0.011372665, -0.200454786, 
  -0.136661917,  0.114994846,  0.139619052,  0.082232468,  0.045660172, 
   0.037889581,  0.104555160,  0.038093302,  0.178350776,  0.161707595, 
   0.329416543, -0.118727602,  0.067120396, -0.218367338,  0.050509147, 
   0.061489772,  0.226805434,  0.261188745,  0.102023005,  0.256000072, 
   0.163849697,  0.356214046,  0.077322252,  0.082966588,  0.142805234, 
   0.026239019, -0.010404929, -0.282175958, -0.174063399, -0.050239913, 
  -0.143425897, -0.039153978,  0.031200167,  0.048327114,  0.045199078, 
   0.228265733,  0.055852577,  0.191138178,  0.206281126,  0.006643167, 
  -0.244792461, -0.291677445,  0.240059987, -0.025040217,  0.377674162, 
   0.055920724,  0.008215763,  0.416667014,  0.204645455,  0.188630968, 
   0.155758813,  0.184196472,  0.074061058,  0.045220539, -0.131368086, 
  -0.173297852, -0.146830350, -0.194008321,  0.042853426,  0.192173749, 
   0.076020241,  0.177782848,  0.065104067, -0.004771030,  0.196068496, 
   0.171524376,  0.141803011, -0.135352477, -0.168558568, -0.179047748, 
   0.174700350, -0.179124817, -0.001301432,  0.096686505,  0.000438905, 
   0.097810671,  0.059773687,  0.286092162,  0.143037006,  0.152939186, 
   0.153737992,  0.086506374,  0.025795873, -0.097983435, -0.154077455, 
  -0.211602092, -0.033144996,  0.115850590,  0.166678190,  0.153155640, 
   0.097102724, -0.010292754,  0.067858920,  0.011834388, -0.289574116, 
  -0.044626936,  0.011406265, -0.232414603,  0.075826205, -0.136150554, 
  -0.026953474,  0.133798361, -0.088050328,  0.117731638,  0.071827732, 
   0.091874585,  0.230579883,  0.080652043,  0.084559321, -0.051701725, 
  -0.070365146, -0.094767086, -0.213716671, -0.099423766,  0.126108721, 
   0.097679988,  0.048107468,  0.011935529,  0.015947089,  0.114351228, 
   0.015287497,  0.028543260, -0.146477357, -0.052667029, -0.155357972, 
  -0.234165132, -0.074911237, -0.105053931,  0.090245485,  0.032698017, 
  -0.020494711, -0.030862194, -0.034113795, -0.080859959,  0.000329648, 
  -0.036460314,  0.108786754,  0.011986169, -0.089669406, -0.198410019, 
  -0.153622136, -0.111441433,  0.107689545,  0.074670754,  0.124234170, 
  -0.017526148,  0.048056912,  0.018834898, -0.070283294, -0.026932636, 
   0.070972644,  0.065790512, -0.034549434, -0.383156300, -0.017184203, 
  -0.054158900,  0.044924662,  0.020545743, -0.007999988, -0.063175827, 
  -0.061053410, -0.099151939, -0.023415662, -0.137693897,  0.014184212, 
  -0.074940056, -0.073779106, -0.067669094,  0.127132729, -0.093097039, 
  -0.012722038,  0.050417688,  0.030293850, -0.121724591, -0.012236394, 
   0.039271671, -0.025530884, -0.084081903,  0.045702424, -0.098637924, 
  -0.169351637, -0.130109683,  0.040836964,  0.024240829, -0.081427723, 
   0.196240991, -0.031545378, -0.042824179, -0.017630711, -0.074985020, 
  -0.116574652, -0.105732784, -0.114789523, -0.033463612, -0.186780438, 
  -0.040637761,  0.155459076, -0.054639418, -0.167845801,  0.049310897, 
   0.040899985, -0.026736798, -0.083645336, -0.063324265, -0.110919029, 
  -0.056177333, -0.002802912, -0.031037372, -0.166456178, -0.026850957, 
  -0.064445347, -0.033688769, -0.117731825,  0.141827554, -0.181631133, 
  -0.196758404, -0.180980921, -0.157858327, -0.101724550, -0.045627370, 
  -0.157530054, -0.096399769,  0.036058083,  0.143868521,  0.068490244, 
   0.034972236, -0.036954947,  0.013277404,  0.057359893,  0.010101795, 
  -0.048031155, -0.074659884, -0.049228732, -0.107451469, -0.046853963, 
   0.190474674, -0.016469385,  0.041545637, -0.091179796,  0.107645705, 
  -0.212544784, -0.040908992,  0.050717831,  0.077960216, -0.086513661, 
  -0.195610210, -0.108064495,  0.057636432, -0.086586513, -0.057384033, 
  -0.010942427,  0.059205644,  0.110751376,  0.181686372, -0.016187593, 
  -0.034862436,  0.100832202, -0.084635444,  0.023428045, -0.001845127, 
  -0.003806375,  0.015136680,  0.086797848, -0.035215173,  0.252930433, 
   0.015566509, -0.091708593, -0.022888958, -0.175140098, -0.050922170, 
  -0.042031344, -0.166400000, -0.170507059, -0.167991266, -0.097210050, 
  -0.050510645,  0.015646167, -0.017216666, -0.002610885, -0.063056700, 
   0.073231801,  0.113151461,  0.142572165,  0.020172726,  0.060232375, 
   0.029566493, -0.016156940,  0.083089620, -0.093458153,  0.181723207, 
  -0.140234753, -0.012114448,  0.184906512, -0.044259861, -0.025403317, 
  -0.056139268, -0.039652947,  0.314394563,  0.094130278, -0.008468802, 
  -0.216278791, -0.207453400, -0.131943047, -0.029772473, -0.028892323, 
  -0.104298346, -0.005062080,  0.019961618,  0.235469535,  0.207886741, 
   0.204650164,  0.057002611, -0.063362323, -0.032337781,  0.079015903, 
   0.071319148,  0.051208347,  0.021151446, -0.250977933,  0.015713109, 
  -0.074034229,  0.056906484, -0.020709261, -0.033030465,  0.016475286, 
   0.157928586,  0.154048875,  0.207290679, -0.029286733, -0.178218544, 
   0.019669537, -0.073931552, -0.084833510, -0.050051678,  0.032304112, 
   0.160950780,  0.044290334,  0.006084994,  0.007927042,  0.022350807, 
  -0.070307441, -0.096485473,  0.049940065, -0.057519440,  0.118234441, 
  -0.015527036, -0.235127896, -0.166646093, -0.095904857, -0.056987129, 
   0.030275524, -0.070745789, -0.097260378,  0.114183284,  0.100826383, 
  -0.094332337,  0.087861799,  0.073734425,  0.035014499,  0.228833735, 
  -0.063467495,  0.046362251,  0.047108736, -0.019700788,  0.073154688, 
   0.229183316,  0.201848000,  0.071688734,  0.069679543,  0.089196369, 
   0.035895139,  0.362013221,  0.373592734,  0.300619692,  0.335263193, 
   0.032876182,  0.006235914,  0.049302347,  0.050607018,  0.001770712, 
   0.017073050, -0.022924546,  0.157640100, -0.245150164, -0.207135931, 
  -0.165870070, -0.071330138,  0.115597084, -0.110320218,  0.058138046, 
   0.061150800,  0.095883451, -0.097171947,  0.096437976,  0.240063220, 
   0.192307830,  0.036192190,  0.082490660,  0.126308426,  0.345344365, 
   0.366792858,  0.025777152, -0.170020670,  0.040634740, -0.045629382, 
  -0.006717928,  0.003292888,  0.032006823,  0.052674420, -0.078119509, 
   0.020897394,  0.041581254, -0.020486368, -0.113041565, -0.146093413, 
   0.126763731,  0.231544852,  0.151585236, -0.033117868,  0.005879519, 
   0.105989121, -0.272709787, -0.095677167,  0.365397602,  0.244883299, 
   0.158202261,  0.002810529,  0.325075656,  0.329843462,  0.146846682, 
   0.075381346, -0.018504620,  0.051701985, -0.077147730,  0.060422368, 
  -0.061250627, -0.073553942,  0.015159063,  0.011825427,  0.053861327, 
   0.057562955, -0.032619700,  0.027851351, -0.010018103, -0.008219704, 
  -0.044742696,  0.056172282,  0.211219072,  0.141302451,  0.061831336, 
   0.034633271, -0.050549038,  0.040862910, -0.045177400,  0.072278447, 
   0.019816056, -0.051423542,  0.074800648,  0.065597974,  0.030629493, 
  -0.074305102, -0.020469189, -0.067708984,  0.028860398, -0.036425188, 
  -0.072285891, -0.021666845, -0.072967485,  0.065656513,  0.106636278, 
   0.134104684,  0.016169121,  0.118169025,  0.101495892,  0.049098093, 
   0.178221822, -0.059006546, -0.082939237,  0.181020141,  0.243284166, 
   0.009527791,  0.123532392,  0.102528207,  0.003161633,  0.052451417, 
   0.115394965, -0.035235234, -0.056582559,  0.049868710,  0.045031495, 
   0.039715849, -0.050359193,  0.051529344,  0.117588378,  0.079674825, 
   0.089161858,  0.115555823,  0.125106677,  0.036560744,  0.252526522, 
   0.374156505,  0.196127698,  0.102191031,  0.131278113,  0.243591964, 
   0.177015007,  0.113411561,  0.177449927,  0.100514553, -0.037236940, 
   0.111101195,  0.078754038, -0.025490258,  0.299135834,  0.167299032, 
   0.187809989, -0.023979846, -0.048331924,  0.046376266, -0.070019603, 
   0.016978949,  0.113936618, -0.040632725, -0.088303909,  0.116911717, 
  -0.011724806,  0.177194938,  0.286084682,  0.168848291,  0.360112041, 
   0.224624634,  0.242040738,  0.188446209,  0.146638691,  0.087197468, 
   0.050160561,  0.060749292,  0.036946770, -0.032180652, -0.097392671, 
  -0.005944395, -0.213563904,  0.269779325,  0.351676673,  0.273437560, 
  -0.074241750, -0.022106424, -0.047298778,  0.193472445, -0.138519734, 
  -0.197874442,  0.057863690,  0.207074031,  0.125506774,  0.162270963, 
   0.150584415,  0.236058980,  0.116631806,  0.091123231,  0.127903745, 
   0.023241045,  0.092580095,  0.033402063,  0.116751373,  0.118077941, 
   0.112146512, -0.015129551, -0.094289035, -0.183720559, -0.145681649, 
  -0.101348214,  0.092130840,  0.154614180, -0.000113975, -0.014174141, 
  -0.001413330,  0.177125379,  0.111892983,  0.260228813,  0.019841922, 
   0.058783725,  0.114330418,  0.106281459,  0.085251242,  0.097403668, 
   0.041939463,  0.170134291,  0.027381679, -0.006546996, -0.020972410, 
   0.079845451, -0.035470441,  0.015503198,  0.173872501,  0.158293560, 
   0.012977323, -0.036659233, -0.100500591, -0.214651927,  0.129170313, 
   0.031086169,  0.100407533, -0.026961658,  0.097611226,  0.209253088, 
   0.128062725,  0.307296127,  0.086031854,  0.136432394,  0.004893834, 
   0.015929967,  0.205607712,  0.100591145,  0.048034679,  0.120111555, 
   0.066823326,  0.028329857,  0.065749489, -0.017110422, -0.084731273, 
  -0.071180046, -0.067862563,  0.051841889,  0.099146865,  0.021612693, 
  -0.156569362, -0.148162887,  0.204820454, -0.076233998,  0.033635255, 
  -0.077131242,  0.313485622,  0.127126411,  0.298399657,  0.405648291, 
   0.197305128,  0.025302514,  0.136398554,  0.189813390,  0.108017102, 
   0.111695766,  0.161958292,  0.068620667,  0.075020686,  0.018343050, 
   0.075448386, -0.050215870,  0.033809438,  0.072065197,  0.028318895, 
   0.046850152,  0.015638893,  0.146308064, -0.168879747,  0.070304342, 
   0.056732029, -0.009449768,  0.045088671, -0.007766948,  0.102630205, 
   0.132062644,  0.128524840,  0.164152086, -0.001960866, -0.066191383, 
   0.066009186,  0.065033339, -0.105463095,  0.049120516,  0.082775228, 
  -0.016944107,  0.019589117,  0.042166654,  0.084884368,  0.050395187, 
   0.193333715,  0.028633578,  0.222053021,  0.092478648,  0.112931162, 
   0.167744666,  0.144574672,  0.149988204, -0.053350508,  0.035981599, 
   0.097822934, -0.074969783, -0.065561697,  0.089547820,  0.163438931, 
  -0.008415281,  0.061909072, -0.192391142,  0.010444117, -0.058697760, 
  -0.180449188, -0.159965396, -0.163773894, -0.077322140, -0.268831342, 
  -0.095321223, -0.031318922,  0.100666530,  0.109614246,  0.154640988, 
   0.097410358,  0.092651464,  0.140620023,  0.156484932,  0.134895876, 
   0.237244412,  0.146759868, -0.115050539, -0.047217924,  0.084653191, 
   0.051167205, -0.155483052,  0.087852895, -0.109390043,  0.046265837, 
  -0.067886092, -0.171456188, -0.228468299, -0.329075068, -0.262751192, 
  -0.389007717, -0.273496419, -0.314093441, -0.137837872, -0.221292317, 
  -0.061556574, -0.015544276, -0.010738013,  0.054034900, -0.042754374, 
  -0.071334526,  0.116135389,  0.054247916,  0.100026913, -0.010254438, 
  -0.063782938, -0.058487583,  0.051234871, -0.013492051, -0.209659785, 
  -0.101540521, -0.043047607, -0.246972203, -0.298898727, -0.326479137, 
  -0.340343833, -0.473638088, -0.429843813, -0.239177719, -0.268308669, 
  -0.183501676, -0.067699626, -0.084571756, -0.082966603, -0.113758691, 
  -0.091449790,  0.001716859, -0.110100172, -0.001647855,  0.029570157, 
   0.141385347, -0.060987946,  0.173721120,  0.105624437, -0.165068462, 
   0.018109469, -0.061429255, -0.254532993, -0.056273054, -0.266808242, 
  -0.378027797, -0.456789523, -0.325885087, -0.256966621, -0.256243557, 
  -0.114028081, -0.100340240, -0.049555406,  0.071452469,  0.004562064, 
  -0.052606657, -0.147084936, -0.051695768, -0.155110076, -0.038103838, 
  -0.032245230,  0.057166833, -0.008681736, -0.115584612, -0.016923474, 
   0.182202056, -0.295301080, -0.164065704, -0.119955383, -0.040968414, 
   0.078833081, -0.010119465, -0.486849517, -0.358692020, -0.432132393, 
  -0.294565260, -0.037211493,  0.046015110, -0.005033059,  0.099399894, 
   0.165371627,  0.148104116,  0.011257324, -0.072750963, -0.152193964, 
  -0.094084345, -0.183626696, -0.234959990,  0.065793850, -0.026140040, 
  -0.125781581, -0.167361349,  0.093593843,  0.078287579, -0.098626964, 
   0.073904522, -0.070720859, -0.106070988, -0.059797380,  0.177896619, 
  -0.167041212, -0.067278795, -0.268133700, -0.014004413,  0.054241884, 
   0.117145173,  0.099091113,  0.127456769,  0.064610727, -0.008619244, 
  -0.083704755, -0.041434132, -0.049742248, -0.131127447, -0.055165641, 
  -0.243479669, -0.090657927,  0.049581002, -0.024795435, -0.127294481, 
  -0.104134917, -0.019294901,  0.043322682,  0.153371394, -0.036289912, 
  -0.043192200,  0.062222876,  0.132662699, -0.014539766, -0.020007996, 
   0.136398181,  0.126883417,  0.127014950,  0.133423477,  0.200449258, 
   0.083717301, -0.089441784, -0.031068137, -0.027886067, -0.107815184, 
  -0.076657653, -0.138176307, -0.105565824, -0.002855869,  0.066907421, 
  -0.071742237, -0.076797187, -0.100891262,  0.199979022,  0.047843419, 
   0.128923103,  0.109328255,  0.038370989,  0.026308509,  0.313798785, 
   0.325318992,  0.027720399,  0.105644785,  0.104341894,  0.204162702, 
   0.022568034,  0.101384856,  0.141724810,  0.092967741, -0.027349193, 
  -0.072703756,  0.000298231,  0.051631156,  0.000542089,  0.030957961, 
  -0.064791128, -0.012331001, -0.025289578,  0.231335431, -0.066491872, 
   0.128308043,  0.235173941,  0.438082665,  0.299558073,  0.202446744, 
   0.045580052, -0.047853354,  0.225036338,  0.245677307,  0.094275117, 
   0.085473754,  0.174757928,  0.092244223,  0.118296042, -0.120396622, 
   0.087397151, -0.056500215, -0.012558614, -0.100980714, -0.052711040, 
   0.056195933,  0.071715623,  0.095792629, -0.023293877, -0.063870408, 
  -0.167947963, -0.108356297, -0.284529686, -0.237445772, -0.014284167, 
   0.113685921, -0.002479634,  0.173944488,  0.089616619,  0.067938834, 
   0.011604246,  0.222554281,  0.325552285,  0.225462019,  0.201428294, 
   0.186165988, -0.022155134, -0.139800563, -0.083520465, -0.048957471, 
  -0.001730033, -0.070791081, -0.009213787,  0.101486206,  0.177515134, 
   0.175366893,  0.031574104, -0.070034675, -0.210320175, -0.165645987, 
  -0.149102211, -0.188001528,  0.087123871,  0.122632042, -0.102026261, 
   0.047863696, -0.083464861, -0.107711673,  0.003812865,  0.068597160, 
   0.154897064,  0.060686100,  0.086399972,  0.160754129,  0.043570619, 
   0.015342078, -0.034863412,  0.014760383,  0.158538327,  0.172400117, 
   0.110800587,  0.121243700,  0.116844192,  0.134233207, -0.014817642, 
  -0.127090648, -0.066051513, -0.125795260,  0.067542754, -0.004777168, 
  -0.128714755,  0.021435682,  0.106192246, -0.048810314,  0.005167767, 
  -0.088964149,  0.154123023,  0.334147930,  0.091309831,  0.112704895, 
   0.210429624,  0.253271073,  0.214574039,  0.142194167,  0.080721706, 
   0.144990683,  0.218845204,  0.316542119,  0.112475552,  0.229991958, 
  -0.025904590,  0.090627715, -0.044638887, -0.040546734,  0.007987346, 
   0.076489016,  0.029833959,  0.121331513, -0.033518616,  0.006219087, 
   0.058274616, -0.057469029,  0.036407590,  0.094523691,  0.262217462, 
   0.222849533,  0.085382268,  0.117137410,  0.087397896,  0.108903088, 
   0.134608492,  0.142630994,  0.094198592,  0.202565044,  0.199797109, 
   0.225557357,  0.150485888, -0.035275456,  0.034531452,  0.137022451, 
   0.138025507,  0.031166941,  0.039300185,  0.147876665,  0.177230939, 
   0.312534183,  0.020625280,  0.047590740,  0.362331748,  0.050815471, 
  -0.033717319, -0.070688717,  0.128739133,  0.076595537,  0.258528531, 
   0.068625100, -0.006211646,  0.265956402,  0.184046924,  0.214091465, 
   0.167991653,  0.085838974,  0.147864252, -0.002154556,  0.014518020, 
   0.033016771, -0.037330899, -0.008865225,  0.033833556,  0.094358131, 
  -0.056460913,  0.039968569, -0.007937251,  0.171466872,  0.086642317, 
  -0.027084520, -0.032429609,  0.064046472,  0.053569876,  0.004683055, 
   0.130435392, -0.136665404,  0.159803271,  0.034328297, -0.086975984, 
  -0.002849573, -0.002666622,  0.039394934, -0.087944359, -0.011101101, 
   0.037551079, -0.049304876,  0.004709174, -0.020819418, -0.038951501, 
  -0.154109761, -0.030009486,  0.081230007,  0.080642454,  0.219399735, 
   0.326678634,  0.256464452, -0.001568600, -0.060158394, -0.143101990, 
   0.009935036, -0.044044156, -0.010315605, -0.096457377,  0.029354319, 
   0.012213104, -0.121344022, -0.112222187, -0.186221465, -0.173529610, 
   0.115616694, -0.031512652, -0.004256752,  0.119996838,  0.196114212, 
   0.157250658,  0.084112301, -0.065501258, -0.029792216,  0.008868867, 
  -0.198898837, -0.144457951,  0.199229985,  0.173256412, -0.025926061, 
   0.287338376,  0.003158136,  0.019575359, -0.075290233, -0.083423741, 
  -0.026478644, -0.084288850, -0.173623487, -0.231434941, -0.180529982, 
  -0.032417227,  0.024950001,  0.076327287,  0.223045066,  0.252966583, 
   0.056828320, -0.058042172, -0.047166247, -0.110500149, -0.010523051, 
   0.193045512,  0.306966871,  0.052080985, -0.246978924, -0.099015631, 
   0.020751128, -0.076893404, -0.172668591, -0.006789052, -0.103637271, 
   0.121800549, -0.062869750,  0.046449907,  0.081210576, -0.022345111, 
  -0.058571894, -0.089871183, -0.146272779, -0.180402741, -0.311736137, 
   0.020232372,  0.056018572,  0.112667516,  0.125474706,  0.054311670, 
  -0.000181048, -0.132421672,  0.048027560,  0.448476166,  0.349848419, 
   0.086766452,  0.023239346, -0.024081536, -0.116759300, -0.080488957, 
   0.016853306, -0.097452484,  0.010764739, -0.047387052, -0.038673829, 
  -0.053368114,  0.020311601,  0.041174196,  0.023927085,  0.004720022, 
  -0.005106601,  0.040287193,  0.090384349,  0.024180025,  0.251279742, 
   0.113609493,  0.091190130,  0.138738021, -0.027260693,  0.103813469, 
   0.004163038,  0.018431487, -0.011121467,  0.052690670,  0.008930078, 
  -0.025950320,  0.017325141, -0.104819246, -0.055635367, -0.016348079, 
  -0.076992944,  0.023504175,  0.061853833,  0.031124368,  0.005867429, 
   0.035845004,  0.036108121,  0.014661476,  0.041213371,  0.039491631, 
   0.026075296,  0.066335134, -0.022842042, -0.011207238, -0.054323390, 
  -0.169861272, -0.129652739, -0.040304888, -0.056213956,  0.011813939, 
  -0.084579557,  0.027881548, -0.067511529, -0.061746649, -0.052607015, 
  -0.026440393, -0.007919319,  0.061387978,  0.000798553, -0.014630891, 
   0.019553795, -0.034018189,  0.053538255, -0.022235155, -0.003040016, 
   0.036743518, -0.091571070, -0.187141687, -0.075488858, -0.125123635, 
  -0.097876057, -0.163014099, -0.029408144, -0.198342532, -0.275321901, 
   0.135944560, -0.004877516, -0.356420219, -0.278191388, -0.092952289, 
  -0.167881563, -0.171791270, -0.143442854, -0.137076244, -0.104450949, 
   0.043644212,  0.057323359,  0.063506775,  0.067219548,  0.059889905, 
   0.027589232, -0.020693410, -0.278910726, -0.321633726, -0.089085408, 
  -0.094472401, -0.166121587, -0.224272937,  0.041477375, -0.013412714, 
   0.113617986,  0.079759687,  0.175026879,  0.051080506,  0.208508536, 
   0.166400045,  0.041700743, -0.161201388, -0.079809189,  0.017901912, 
  -0.248091608, -0.205318615, -0.414650261, -0.181939632,  0.038728915, 
   0.063020609, -0.013002917, -0.043662626, -0.003097445, -0.152435109, 
  -0.171831131, -0.176020816, -0.197965920, -0.330296069, -0.580679297, 
  -0.603405774, -0.208796382, -0.026043760, -0.030072182, -0.215702429, 
   0.031400856,  0.096847981, -0.008894872,  0.134719193,  0.272710830, 
   0.057232011, -0.060865384, -0.157454520, -0.056113269, -0.050279606, 
  -0.137468323, -0.147512063, -0.205939740, -0.322242558, -0.038090024, 
  -0.031133611, -0.039420344,  0.139370963, -0.113953106,  0.015105174, 
  -0.009144806, -0.215695217, -0.204574212, -0.092095815, -0.017342897, 
  -0.066173397, -0.095784880,  0.013590613,  0.096127376, -0.045032218, 
  -0.019948734,  0.167031825,  0.203942880,  0.042563207,  0.105952658, 
   0.076224297,  0.102364659,  0.200127974,  0.020038024, -0.003292552, 
  -0.180508882, -0.230180338, -0.194414675, -0.017876022,  0.015649401, 
   0.067264169,  0.090229824, -0.197579205, -0.218914330, -0.173939869, 
  -0.189271510, -0.320302814, -0.165679052, -0.028862750, -0.056362495, 
   0.039262403, -0.137164220,  0.038843364,  0.115319721, -0.049418159, 
   0.081574485,  0.023301590,  0.182993576,  0.192955434,  0.167630225, 
   0.001775198,  0.064548016,  0.180831701,  0.025785159, -0.258118778, 
  -0.180433601,  0.044921197, -0.056695610, -0.490371555, -0.041920569, 
  -0.136537746, -0.338305324, -0.177544340, -0.177742511, -0.133205399, 
  -0.157647058, -0.172046334, -0.105659544, -0.095933810, -0.000643754, 
  -0.028735144,  0.102178730,  0.180842087,  0.042310808,  0.045187622, 
   0.041005202, -0.055831533,  0.061495539,  0.068599083, -0.030260621, 
  -0.201788694, -0.150880352, -0.006056318, -0.055111688,  0.010245331, 
  -0.292604476, -0.371710718, -0.225345731, -0.125778452, -0.084909052, 
  -0.177632868, -0.224497199, -0.158796325, -0.181552693, -0.083337493, 
  -0.030653751,  0.008067872,  0.005976033,  0.004229539,  0.133259356, 
   0.071681671,  0.072626427,  0.053940933,  0.170683265,  0.040882625, 
   0.135514870,  0.156342298,  0.042729501, -0.087928377, -0.174580425, 
  -0.093739547, -0.056972049,  0.030760063, -0.211473078, -0.063060977, 
  -0.076144822, -0.048761521, -0.070821196, -0.046244208, -0.030964572, 
   0.038628913, -0.092067510, -0.134988651, -0.047385536, -0.071961835, 
   0.077835970, -0.029732471,  0.172937736,  0.002357285,  0.076400854, 
   0.152719751,  0.193826720,  0.028923271,  0.162751943, -0.000586684, 
  -0.104304597, -0.141703919,  0.011492507,  0.030305428, -0.055197820, 
  -0.065145463, -0.169299304,  0.046865426, -0.051080529, -0.280048341, 
  -0.108440250,  0.161532536, -0.008896472, -0.098907389, -0.045148473, 
   0.095836028,  0.020720201, -0.068683423, -0.047574468,  0.017475545, 
   0.046957947,  0.103368856,  0.048341721,  0.080860920,  0.221447289, 
   0.133016795,  0.086266167, -0.019126767, -0.000105004, -0.094303630, 
  -0.136577517,  0.037017997, -0.295354635,  0.021465119, -0.085875578, 
   0.041738052,  0.065470904, -0.215113357, -0.066939719,  0.016957479, 
   0.093361214,  0.039642736,  0.040026609, -0.066227078,  0.009242847, 
   0.018039754, -0.028931506, -0.088480413, -0.033875838, -0.064815141, 
   0.103199348,  0.141945034,  0.188117519, -0.007720909, -0.084038176, 
   0.052758668, -0.078617714, -0.087085344, -0.280082494, -0.423192471, 
  -0.338878334, -0.049838807, -0.030667072, -0.099586859,  0.045299817, 
  -0.191068754, -0.003163063,  0.002988384,  0.142083421,  0.169305176, 
   0.063658059,  0.058800880,  0.096527204,  0.262708992, -0.054265603, 
  -0.024033792,  0.032849997,  0.146655917,  0.154421836,  0.130997956, 
   0.149633929,  0.068693303, -0.045586571,  0.042780712, -0.115832821, 
  -0.091552809, -0.254908830, -0.393153340, -0.278731883, -0.094935790, 
  -0.273076862, -0.061315350,  0.146300986, -0.056246880, -0.063622095, 
   0.117884509,  0.127943531,  0.000294121,  0.031143120,  0.157444209, 
   0.089652538,  0.186185330,  0.007230000, -0.108147062,  0.029047662, 
   0.107961871,  0.169500440,  0.120968141,  0.177919850,  0.121146448, 
   0.190409586,  0.033496656,  0.108637124,  0.112883665, -0.051087320, 
  -0.448929816, -0.258246124,  0.154997021, -0.099080332, -0.265581995, 
   0.195566475,  0.078355670, -0.007665996,  0.197947577,  0.145300597, 
   0.121570669,  0.129433319,  0.035310041,  0.038550291,  0.055852499, 
  -0.066259794, -0.051784676,  0.180012524,  0.094015084,  0.197582334, 
   0.064891011, -0.073775828, -0.093645900, -0.140306309,  0.070820741, 
  -0.097131066, -0.081066087,  0.007058976, -0.270903498, -0.005201693, 
  -0.106586322, -0.082249366, -0.297945410,  0.115113072,  0.186464250, 
   0.055002790, -0.077081591,  0.126152441,  0.000151809,  0.072438665, 
  -0.081515692,  0.039575800, -0.034560863, -0.008799948, -0.001784121, 
   0.021062693,  0.134447590,  0.197383836, -0.004578216, -0.062167943, 
  -0.244536743, -0.116940461, -0.041353371, -0.225209400, -0.245094001, 
   0.213616997,  0.079858668, -0.126770705, -0.212803826, -0.118442088, 
  -0.044710893,  0.214973018,  0.125773996, -0.006360302, -0.004595902, 
  -0.040347829,  0.062446125,  0.069955468,  0.022495296, -0.102728277, 
  -0.195066690, -0.057038911,  0.049302120,  0.092563368,  0.232139945, 
   0.105095930, -0.040544271, -0.207909435, -0.327448756, -0.119730048, 
  -0.069168761, -0.130511284, -0.290066838,  0.117982358,  0.327751279, 
   0.284495950,  0.030904185, -0.275333703,  0.089477032, -0.018821483, 
  -0.102561213,  0.005097762,  0.039034311,  0.187051103,  0.166496575, 
   0.130442321,  0.094518974,  0.016257526, -0.069958165, -0.207537070, 
   0.073863387,  0.184635311,  0.286992341,  0.105237976, -0.097342789, 
  -0.213516846, -0.205203071, -0.118821852, -0.151724249, -0.030929549, 
  -0.135061160,  0.178180605,  0.050059132, -0.086549498, -0.022159681, 
  -0.123455986,  0.294328898, -0.135711059, -0.019303512,  0.111069784, 
   0.077667527,  0.187321290,  0.203286469,  0.193771809,  0.215251610, 
   0.014272250, -0.013170764, -0.062797941,  0.131280541,  0.131218210, 
   0.187548965, -0.000462346, -0.060839985, -0.122743092, -0.195728168, 
  -0.194436520, -0.076794468, -0.039364096, -0.149577856,  0.002018873, 
   0.110125117, -0.163233981, -0.254086733,  0.021175221,  0.112548895, 
  -0.143852890, -0.008359017,  0.039928969,  0.002964152,  0.087161250, 
   0.082130380,  0.060057692, -0.044016536, -0.144277543, -0.119978413, 
  -0.057586513,  0.120696709,  0.045701023,  0.036011551, -0.088718094, 
   0.054541722, -0.123950906, -0.094177037,  0.041147027,  0.014999668, 
  -0.022620520, -0.020739660,  0.029521929, -0.019925693,  0.230748832, 
  -0.041413497,  0.172916517, -0.210539386, -0.021465233,  0.049748439, 
   0.031625517,  0.128402635,  0.182018310,  0.099018626, -0.049188316, 
  -0.146549284, -0.111832343, -0.151463792,  0.014557240,  0.075215764, 
   0.068708636,  0.098018542, -0.066535681,  0.012542346, -0.047812633, 
  -0.161844879,  0.107545257,  0.111037955,  0.103910983,  0.136425167, 
   0.040082213,  0.387354076,  0.226653174, -0.034221403,  0.182693034, 
  -0.191380277, -0.114731066,  0.180899724, -0.028604599,  0.112939619, 
   0.032419711,  0.090675279,  0.006768437, -0.002324504, -0.024749842, 
   0.074583560,  0.048107609,  0.010318748, -0.009783778,  0.186532840, 
   0.135503188,  0.097855300,  0.168808162,  0.024418186,  0.205873519, 
   0.076838516,  0.041903824,  0.318463862,  0.090701766,  0.214981064, 
   0.037718233,  0.085349031,  0.123242147, -0.029209169,  0.011902911, 
   0.085444234,  0.101646684,  0.060171511, -0.007186275,  0.065364733, 
   0.123197652, -0.011459879,  0.073494367,  0.068642028,  0.060240563, 
  -0.018380167, -0.027025538,  0.056251053,  0.163137808, -0.061531022, 
  -0.011555412,  0.136490747,  0.104503207,  0.127694532,  0.101275347, 
   0.127042443, -0.138513505, -0.248867780,  0.065101109, -0.003982000, 
   0.037173178, -0.023453485,  0.101085551,  0.184517696,  0.136911780, 
   0.185485259,  0.151382878,  0.103535444,  0.044590231,  0.111000381, 
   0.130199164,  0.013760933,  0.003297647, -0.048718996, -0.136393294, 
  -0.071516216, -0.003625483,  0.058122419,  0.097494796,  0.174024865, 
   0.204472035,  0.207989991,  0.220223561, -0.014741315, -0.002098123, 
  -0.231008574, -0.021350024, -0.032955457, -0.074309766, -0.034249295, 
  -0.045182306, -0.220082149, -0.042079777, -0.074096896,  0.047244761, 
   0.044306677, -0.000732007, -0.066940702, -0.109145775, -0.015908593, 
  -0.053288426, -0.077233367, -0.126917839, -0.073982902,  0.060486700, 
   0.172331572,  0.161537468,  0.240529656,  0.357178271,  0.283308715, 
   0.186210722, -0.074705362,  0.078737631, -0.046343040, -0.080615215, 
   0.071752392, -0.003641710, -0.111024313, -0.391411036, -0.179582208, 
  -0.323318869, -0.306331515, -0.169452563, -0.021732692, -0.132296458, 
  -0.136525363, -0.170208633, -0.155347213, -0.159849226, -0.074873351, 
  -0.188738585, -0.005436082, -0.024435431,  0.028692499,  0.124003485, 
   0.073343448,  0.208715901,  0.180465683,  0.193774730, -0.098329328, 
   0.321522772, -0.061680358, -0.084794074, -0.060414951, -0.010942467, 
   0.180853322, -0.164513543, -0.094380453, -0.144643381, -0.042080641, 
  -0.101191640, -0.029570052, -0.154326439, -0.049436703, -0.180521488, 
  -0.238054678, -0.100094624, -0.013888144, -0.137432054, -0.175922737, 
  -0.105698250,  0.107260250, -0.145375922,  0.068340495,  0.180979356, 
   0.067480274, -0.233508617, -0.387247920,  0.112263449, -0.069825456, 
  -0.045609899, -0.073550366, -0.023033813,  0.008917645, -0.014395098, 
   0.165403917,  0.153324127,  0.008922729, -0.079041526, -0.101520725, 
  -0.107770339, -0.198873430, -0.239879042, -0.120953701, -0.147981614, 
  -0.025555264, -0.118161649, -0.151083082, -0.077227555, -0.086550705, 
  -0.311052024, -0.166716412, -0.028096987, -0.181699470, -0.023942277, 
  -0.121110886, -0.045606554,  0.019999787, -0.057009436, -0.076339997, 
   0.033114038,  0.031814992, -0.059305526, -0.115967453, -0.133919030, 
  -0.078426205,  0.002382639,  0.037231393,  0.000683922, -0.139955014, 
   0.100574091,  0.012612024, -0.040504441, -0.177836731,  0.101914607, 
  -0.084358387, -0.109850742,  0.212826580,  0.116703711, -0.026609359, 
  -0.057817169, -0.107459225, -0.301751256, -0.023534715,  0.000462510, 
  -0.024586551, -0.065043032,  0.034919351,  0.022547670, -0.062839843, 
   0.051018275,  0.012259297,  0.001039326, -0.076827474, -0.034360282, 
   0.037759416, -0.038370926, -0.005819798,  0.050551854, -0.019341780, 
  -0.099004701, -0.026312483,  0.024213111, -0.064782880,  0.040402032, 
  -0.055777177, -0.026971042,  0.038052633,  0.080209948, -0.075889185, 
  -0.053240009, -0.006722957, -0.033195164,  0.004711904, -0.006614998, 
  -0.063132748,  0.009320565, -0.044570636,  0.073679857, -0.004219137, 
   0.083481111, -0.131357312, -0.025867825, -0.049187031, -0.153618455, 
  -0.136659652, -0.141715989, -0.127610922, -0.064233437,  0.154254600, 
   0.217840463, -0.223346740, -0.134494036,  0.080943085, -0.059115287, 
  -0.028336069,  0.103130363,  0.103760310,  0.125560835, -0.023991745, 
   0.042469852,  0.084395029, -0.049106330,  0.085695378,  0.018367395, 
  -0.084966153,  0.002959013,  0.008298797,  0.043641321, -0.156610131, 
  -0.062832661, -0.079931073, -0.167842165,  0.162795514,  0.277400941, 
   0.066766627, -0.327931613, -0.110927530,  0.130622298, -0.084319107, 
  -0.244225830, -0.362166315, -0.092293307, -0.134579778, -0.036424723, 
   0.021983828,  0.318694115,  0.125498965,  0.007702472, -0.017712362, 
   0.083231263,  0.000494875, -0.038386792, -0.050257850,  0.052401252, 
   0.060563315, -0.063846380,  0.015567863,  0.201130271, -0.089115001, 
  -0.112348087,  0.093983486,  0.059754472, -0.133350596, -0.465024948, 
  -0.388727963, -0.230717391, -0.433725804, -0.344540268, -0.184776500, 
   0.041075729, -0.014193854, -0.283612192, -0.175634354,  0.034653671, 
  -0.125973627, -0.225817084, -0.219571933, -0.036942571,  0.008171350, 
   0.062170252,  0.001096365,  0.009117415, -0.119841129, -0.215143234, 
  -0.162361205,  0.039260779, -0.145794228, -0.317675442, -0.379721165, 
  -0.358669281, -0.420767367, -0.423185796, -0.318844557, -0.128742993, 
  -0.038675234, -0.249844700, -0.155046940,  0.083908081,  0.009847270, 
  -0.216161311,  0.039221574, -0.007910736, -0.244920552, -0.298436701, 
  -0.353218734, -0.296842635,  0.050740741, -0.016926162, -0.016637575, 
   0.192698911,  0.025756169,  0.355647832,  0.214303449,  0.083177835, 
   0.215499714,  0.343149483,  0.048149273, -0.139743805, -0.034450021, 
  -0.306966543, -0.131657332, -0.090192974,  0.037174582, -0.019321349, 
   0.075411953, -0.040347859, -0.181717426, -0.079441220,  0.150238574, 
  -0.002559656, -0.062723488, -0.391550273, -0.292913884, -0.191640392, 
   0.038724512,  0.143650830, -0.151581645,  0.014987068, -0.243964151, 
  -0.073139906,  0.199873582,  0.245463714,  0.103040062,  0.087912112, 
   0.164679214, -0.025455127, -0.063692786, -0.142220631, -0.072832540, 
  -0.076457299,  0.109261684,  0.054001112,  0.009899693,  0.177977696, 
   0.099226616, -0.058724090,  0.017536001, -0.102894932,  0.008516544, 
  -0.227645785, -0.343104184,  0.042007998, -0.046153717,  0.287984133, 
   0.163675368,  0.286069125, -0.212869659, -0.077132240,  0.024937959, 
   0.068641357, -0.011362476,  0.109011859,  0.137994289,  0.040956724, 
  -0.002800657, -0.071917363, -0.074814223, -0.021895716,  0.124498658, 
   0.198710114,  0.077295177,  0.237044945,  0.210370511,  0.134864405, 
   0.169430345,  0.121517651, -0.085662141, -0.210037574,  0.014882423, 
   0.011451826, -0.064113617,  0.186619848,  0.137252077,  0.238716587, 
  -0.126707852, -0.065059029, -0.206269756,  0.007831299,  0.046925433, 
   0.128958747,  0.075431436,  0.125404388, -0.014169233, -0.041712556, 
  -0.011429965,  0.005490763,  0.152773336,  0.156954199,  0.208182320, 
   0.161613092,  0.227053896,  0.015593915,  0.078367189,  0.118203767, 
   0.001670718, -0.169936389,  0.189402238,  0.058028858,  0.044044159, 
   0.182727024,  0.076914929,  0.037544295, -0.107740380, -0.141520962, 
  -0.086825445,  0.017296715,  0.134989753,  0.182012737,  0.146611765, 
  -0.042424235, -0.051088706, -0.281178176, -0.203150868,  0.073236421, 
   0.254815042,  0.117182158,  0.098896004,  0.070639111,  0.068056442, 
  -0.087320194,  0.207632393,  0.003362699,  0.044991199, -0.397470981, 
  -0.186187819,  0.246602222,  0.036566086,  0.140988320, -0.178125650, 
  -0.066802584, -0.027810453, -0.249125794, -0.097821347, -0.142280683, 
   0.077107824, -0.041959204, -0.055968080, -0.124850057, -0.142385304, 
  -0.406978101, -0.369840533,  0.083797581,  0.207189903,  0.124611102, 
   0.035865545,  0.040021449,  0.071231812, -0.040759154,  0.092908911, 
  -0.433652133, -0.432516545, -0.247806042, -0.016973291,  0.334707677, 
   0.082062401,  0.162335560, -0.153898925,  0.023209497, -0.059833925, 
  -0.045264933, -0.100618981, -0.012487439, -0.071223140, -0.174351245, 
  -0.153190568, -0.297307640, -0.463407189, -0.457791954, -0.259808242, 
   0.194972754,  0.104928449, -0.051350184, -0.097675614, -0.069558717, 
  -0.015831597, -0.049197130, -0.046399202, -0.183035851, -0.407403141, 
  -0.000438410, -0.030193167,  0.172804564, -0.020112596,  0.187845215, 
  -0.189623579, -0.061503589, -0.077041969, -0.058327038, -0.309968889, 
  -0.303407997, -0.384268343, -0.484447330, -0.401190490, -0.508695304, 
  -0.301186174, -0.182336017,  0.060391933,  0.216149345,  0.092421584, 
  -0.026542362,  0.046573188, -0.165345892, -0.231892467, -0.104416743, 
   0.030401902, -0.077586457, -0.254348457, -0.007374002, -0.360300392, 
   0.007232977,  0.132722154,  0.167063653,  0.261029243, -0.156790555, 
  -0.017772334, -0.165851757, -0.155352965, -0.352358252, -0.328078330, 
  -0.299036771, -0.361308753, -0.269973665,  0.042140018,  0.048546143, 
   0.098483108,  0.130284190,  0.084723897,  0.056355029, -0.006939509, 
  -0.121122099, -0.121715240, -0.055550057, -0.151980519, -0.003939837, 
  -0.168054029, -0.191044316, -0.214413613, -0.142434224,  0.037325285, 
   0.127215639,  0.236222088,  0.015704717, -0.013776410, -0.290067881, 
  -0.077743702, -0.153825060, -0.131081387,  0.036882266, -0.092745669, 
   0.181737393,  0.147091568,  0.121342182,  0.089358471,  0.107838705, 
   0.075046793,  0.056900360,  0.090830266,  0.165511414, -0.086313926, 
   0.126238212, -0.063667543, -0.198672131, -0.112309039, -0.000179976, 
  -0.190725863, -0.059524763,  0.040946074,  0.080425531, -0.006534414, 
  -0.229810447, -0.141847104, -0.223086551, -0.127562895,  0.094045050, 
   0.137475461,  0.126736730,  0.063134551,  0.186960056,  0.132504329, 
   0.184192225, -0.022797506,  0.106283031,  0.004776315,  0.117853947, 
   0.273949146,  0.000748536,  0.085081987,  0.141819820, -0.055021115, 
  -0.349126667, -0.107811496, -0.318647742, -0.217927188, -0.225258395, 
  -0.083569817,  0.147811815,  0.035823017, -0.271269590, -0.372094959, 
  -0.117495760,  0.041648421,  0.105299018,  0.295774311,  0.040958840, 
