// -----------------------------------------------------------------------------
// 
// This file is auto generated by model_export.py
// -----------------------------------------------------------------------------
#ifndef MNIST_MODEL
#define MNIST_MODEL

// ....
#include <stdint.h>
#include "infercat.h"

// -----------------------------------------------------------------------------
//
// -----------------------------------------------------------------------------

// ...
float mnist_model_gru_output[128];
  
// ...
static const float mnist_model_gru_weights[10752] = {
  -0.095661938,  0.020656172, -0.016303942,  0.057511844, -0.018315174, 
  -0.086700991, -0.035979602, -0.144271031,  0.022965070,  0.007493794, 
   0.017851124, -0.010044776, -0.079261892,  0.016889133, -0.013766075, 
   0.053952247, -0.008438501,  0.075157754, -0.116217472,  0.027480992, 
  -0.004277384,  0.082622685, -0.116342813, -0.081663899,  0.076116554, 
  -0.025324777,  0.023987109, -0.009476950, -0.053791709, -0.109681435, 
  -0.010079256,  0.108510204,  0.022988666,  0.113446392,  0.005782505, 
  -0.011044933, -0.098923758,  0.091918685, -0.042803839,  0.046969682, 
  -0.013190307,  0.084586486,  0.079536103, -0.032914363,  0.027402310, 
  -0.019122025,  0.050427482, -0.010676152,  0.117433324,  0.022977356, 
   0.043813419, -0.095067345, -0.023174323,  0.029398559,  0.018953262, 
   0.049300268, -0.099820077,  0.055323184, -0.166308284, -0.087229811, 
  -0.132818282,  0.053547021,  0.092678100,  0.096152529,  0.041885976, 
  -0.099834897,  0.051695831, -0.040692359,  0.019762320,  0.040522829, 
   0.123928651,  0.076512761,  0.061245248, -0.018678688,  0.046578832, 
   0.106014214,  0.022750318, -0.001699844, -0.016111892, -0.139623389, 
   0.017308209, -0.019575760, -0.081531003, -0.035594687,  0.071372442, 
   0.056035694, -0.056061931,  0.017071644,  0.015846372,  0.052659120, 
  -0.006786379, -0.072258338,  0.031250734, -0.000803666, -0.132356271, 
  -0.018284824,  0.092340089,  0.004882329,  0.007100779,  0.049219694, 
  -0.015923547,  0.025499238,  0.106423676,  0.026853466, -0.068927422, 
  -0.029539632, -0.000802303,  0.043565273,  0.084824525,  0.029788082, 
  -0.041489989,  0.040540013,  0.090499267, -0.010982789, -0.051542547, 
  -0.024507007,  0.040807132,  0.149759859, -0.038133841,  0.100387439, 
  -0.087552741, -0.074637115,  0.046593260,  0.002208563, -0.059990425, 
  -0.052818149, -0.081922047,  0.038335368, -0.009060641, -0.026057454, 
   0.029118983,  0.079420634,  0.054885678, -0.070765607, -0.137980804, 
  -0.037684303, -0.105443500,  0.145759493, -0.078944772, -0.022086168, 
   0.051186599,  0.023041384, -0.004819647,  0.114477329,  0.078830667, 
   0.076124899,  0.120763205,  0.124675661,  0.114989467,  0.062609687, 
   0.038958274, -0.090589993,  0.089866742,  0.055951599,  0.061218414, 
  -0.078672051, -0.045553554, -0.080116890,  0.028251879, -0.086565360, 
  -0.027696123,  0.091294698, -0.114780053, -0.064888619, -0.027339749, 
   0.043073967, -0.044358227, -0.117208697,  0.046880178, -0.063558042, 
   0.058633845,  0.000673240, -0.079314284,  0.065394334,  0.130276322, 
  -0.099203721,  0.138608381,  0.048194882, -0.037611295, -0.054347992, 
   0.012302583,  0.025134603,  0.048239615, -0.067316517, -0.118597306, 
  -0.042089917, -0.050014161,  0.009600515, -0.018889116, -0.081919782, 
   0.116517484,  0.051954869, -0.140413329,  0.084813386, -0.018016927, 
  -0.112706512, -0.064550407,  0.073462516, -0.065678492, -0.062765509, 
   0.029064341, -0.076225996,  0.038823877,  0.010437117,  0.132111251, 
  -0.075636782,  0.042248979, -0.098861627, -0.113472015, -0.058860388, 
  -0.092398852,  0.055746887,  0.077202171,  0.078004085, -0.048973765, 
  -0.041174944,  0.059376951, -0.014429677, -0.028361645, -0.029670991, 
   0.107134938,  0.123670056, -0.138763964, -0.016127985, -0.109885655, 
   0.045678679, -0.037296478,  0.085688643,  0.022495775,  0.075496048, 
  -0.047184955, -0.137786523,  0.030559000, -0.050950371,  0.029261578, 
  -0.090278611, -0.036150280,  0.104714699,  0.034847111, -0.055390015, 
   0.048807304, -0.092705093, -0.045727395, -0.137584507, -0.068609424, 
  -0.059103668,  0.089635596,  0.027235370,  0.023869012,  0.062577531, 
   0.033099249, -0.046359096, -0.051815949,  0.080612123,  0.075168997, 
   0.055542912,  0.091028959, -0.116333380, -0.069397368,  0.113919742, 
   0.055649538,  0.033145841,  0.069749907,  0.060210444,  0.029900378, 
   0.069271363, -0.062109515, -0.027455963,  0.068382591, -0.078127891, 
   0.001085109,  0.069497690,  0.130514070,  0.016447067,  0.072818741, 
  -0.018482087, -0.036608785,  0.009603619,  0.019044952,  0.146136075, 
   0.046836048, -0.002217480,  0.053702548, -0.066743419, -0.038063493, 
  -0.087821893,  0.030398851,  0.045367878, -0.013135629,  0.002962800, 
  -0.029611319,  0.109281324,  0.042247314, -0.106795847,  0.062278219, 
   0.070776239, -0.041208565, -0.064890586, -0.065784365,  0.044304736, 
   0.055345595,  0.092527017,  0.048296828, -0.002294255,  0.052299563, 
  -0.074221171, -0.081828468, -0.019665824, -0.043733466,  0.108767234, 
   0.041620705, -0.098040067,  0.102111898,  0.089753665, -0.035247616, 
  -0.100944504, -0.078031652, -0.079774991, -0.050853088, -0.109916031, 
   0.060929310,  0.081678145, -0.073796108,  0.083511665,  0.009132891, 
   0.010659186,  0.046678126,  0.087703153, -0.141201690, -0.022633182, 
   0.064353235,  0.137483016, -0.057095282,  0.120143145,  0.066210046, 
  -0.010293057,  0.077145018,  0.050481346, -0.052685276, -0.003381059, 
  -0.050867651,  0.017746957, -0.008387243, -0.055504505,  0.001210932, 
   0.004760311,  0.021249818,  0.145543277,  0.073973969,  0.029727824, 
   0.045267988,  0.138907194,  0.043598119, -0.090478867,  0.071508616, 
   0.095864378,  0.135582402, -0.020158758, -0.010850832, -0.076114073, 
   0.062959678,  0.053022951, -0.005509904,  0.127461940, -0.126085639, 
   0.085032716, -0.071627259, -0.134900004, -0.003372005, -0.074227870, 
   0.079619586,  0.024361450,  0.035844397, -0.071813457,  0.007564715, 
   0.045067150,  0.072035827, -0.032346673, -0.038282748, -0.107596509, 
  -0.067113921,  0.002022795,  0.108496465, -0.105483934, -0.085902981, 
   0.054977525,  0.016568553,  0.086521633, -0.117857590, -0.089255132, 
  -0.143113896,  0.038483229, -0.044802081, -0.035884731, -0.020729747, 
   0.033152029, -0.052021034,  0.159754753, -0.106816247, -0.096726425, 
  -0.052125655, -0.127215013,  0.077622063,  0.067177795, -0.020921431, 
  -0.158345476,  0.128293842,  0.094508588,  0.040523332,  0.063734345, 
   0.040349454, -0.045891669, -0.098736949, -0.036925759,  0.046743583, 
  -0.142734587, -0.033808812, -0.113766640, -0.054337133,  0.014387441, 
  -0.037264317,  0.034775216, -0.113320500,  0.011413807, -0.002225428, 
  -0.039876454,  0.099132977,  0.080758974,  0.113284230, -0.072118670, 
  -0.041956775, -0.090665713,  0.037734322,  0.116717048, -0.002832009, 
  -0.045949731,  0.125937328, -0.075665727, -0.099165596,  0.036116350, 
  -0.044895627, -0.105610810,  0.057883199,  0.019937556,  0.015361262, 
  -0.007258345,  0.083867066, -0.140621752, -0.059498943,  0.002474140, 
   0.031507626, -0.132998437,  0.059500717, -0.057329576,  0.185580000, 
  -0.043710224,  0.010348130,  0.017287027, -0.070548095, -0.131673738, 
  -0.145398378,  0.008266944, -0.020215143, -0.057155505, -0.114098929, 
  -0.047351036, -0.141041830, -0.095474191, -0.131096318,  0.043088075, 
  -0.003602160,  0.060039461,  0.048617616, -0.058910336, -0.031371377, 
  -0.129335612, -0.090142019, -0.052291956,  0.134046048,  0.044334285, 
  -0.055053454,  0.082594931,  0.072415218, -0.033444777, -0.070686027, 
   0.012011096, -0.157701612,  0.001050754, -0.192574739, -0.115207493, 
  -0.041852031,  0.058982354,  0.123004772,  0.054242194, -0.131056845, 
  -0.017509978, -0.103207581,  0.085367195, -0.104236022,  0.092608027, 
   0.036012422, -0.008382098, -0.038910549,  0.026551304,  0.010260623, 
   0.059409596, -0.200242549,  0.028266257, -0.058490612,  0.031048952, 
  -0.127747968, -0.012970753, -0.037833158,  0.067803562, -0.041410692, 
  -0.055201076, -0.027478445,  0.062543087,  0.036248796, -0.071270369, 
   0.103849560, -0.104054041,  0.005994676, -0.032809768,  0.094439588, 
   0.030715134,  0.004238550,  0.032190591,  0.056371640,  0.086226791, 
   0.124602251, -0.035307217, -0.011174796, -0.058350544,  0.053671010, 
  -0.074983850,  0.059334069,  0.083724461,  0.116251938, -0.068107523, 
  -0.124390662, -0.006833684, -0.070550449,  0.129334271,  0.025750613, 
  -0.064282224,  0.104962684,  0.068540491,  0.091727264, -0.009915129, 
  -0.003829095, -0.000831566,  0.163872227,  0.106332004,  0.080812156, 
   0.154187784, -0.047262982,  0.135612026,  0.033921927,  0.042638090, 
   0.082147114, -0.071371496,  0.086808249,  0.144040495, -0.029108824, 
   0.092853539,  0.015077616,  0.119844139, -0.041729234,  0.035814125, 
   0.105456993, -0.089610338,  0.105574280,  0.111028992, -0.065975055, 
  -0.039261237, -0.066504002,  0.085152827, -0.132850438, -0.069491066, 
   0.022511816,  0.027766047,  0.055611022, -0.033864323,  0.122818768, 
  -0.021356277,  0.014260141, -0.052455440,  0.160116777, -0.135640502, 
  -0.044749696, -0.067137174,  0.081292965,  0.066735715, -0.053589296, 
  -0.041700471, -0.056554105,  0.046540167, -0.091753304,  0.024847034, 
  -0.077261023, -0.072325669,  0.001823350,  0.091446862,  0.113906085, 
   0.073645741, -0.076378800,  0.081381887,  0.008764698,  0.005561737, 
  -0.118163653, -0.096591249, -0.031889591, -0.101648137, -0.062978588, 
  -0.058348272, -0.027457478, -0.067721173, -0.083005324,  0.122620396, 
  -0.093847841,  0.099068493,  0.037360515, -0.053144656, -0.119917654, 
  -0.057658602,  0.017321363, -0.131253049,  0.110654011,  0.068171762, 
   0.178596750, -0.057832852, -0.011475690, -0.009163851, -0.077415287, 
  -0.156559438, -0.141393095, -0.080855094, -0.033714365, -0.005098237, 
   0.116288409, -0.054924015, -0.106599100,  0.084052198,  0.024303539, 
  -0.146730185,  0.083962440,  0.120243631,  0.043525636,  0.008031076, 
  -0.069439307,  0.050454609, -0.028483000,  0.043071169,  0.111698613, 
  -0.009037938,  0.117992237,  0.018760704, -0.048643459, -0.013547143, 
   0.135929957,  0.055734530, -0.110235810,  0.055419561,  0.062843181, 
   0.017729098, -0.033082806,  0.015263631, -0.014749076, -0.027130825, 
   0.001332386, -0.073579475, -0.071031332,  0.086153649,  0.051908374, 
   0.129179686, -0.073703527, -0.105788656, -0.032876760,  0.054785773, 
  -0.047887385, -0.019724172,  0.007418245, -0.080835693, -0.134953141, 
   0.144443750,  0.058035292,  0.067175180, -0.020172110, -0.110763900, 
   0.128446251,  0.033414453, -0.100609578,  0.068847969, -0.121501409, 
   0.039301693, -0.032461636, -0.033944041,  0.001876788,  0.118845478, 
   0.103121497,  0.082010664,  0.034538310,  0.083050758, -0.044649530, 
   0.036304567,  0.059133243, -0.002170623, -0.108754762, -0.096975029, 
  -0.153280988, -0.050990485, -0.057680085, -0.030657461,  0.021277661, 
   0.127064779,  0.168712020,  0.029165268, -0.050774366,  0.008904269, 
   0.073081248,  0.125829130,  0.151840940,  0.093589813,  0.096373685, 
   0.087451525,  0.028605171, -0.182174250,  0.050533507,  0.008803814, 
  -0.052526824,  0.087460726,  0.115045503,  0.004866406,  0.021158582, 
   0.090361945, -0.013860423, -0.138457805, -0.122210138,  0.012678151, 
   0.129529640, -0.100077368,  0.138234243, -0.039070245, -0.010667905, 
   0.155747831, -0.125601456,  0.127513826, -0.138184756, -0.074791864, 
  -0.079501197,  0.085648298, -0.095075540, -0.122517943,  0.074987836, 
  -0.032298796,  0.029050371, -0.009320638, -0.070196949,  0.019966461, 
   0.013503854,  0.077135950,  0.131690025, -0.058665566,  0.005943336, 
  -0.109485932, -0.058558699, -0.027991151, -0.032692712,  0.042664353, 
  -0.066158742, -0.091077633,  0.051432945, -0.103811003,  0.060911655, 
  -0.132143572,  0.071892172, -0.004819482, -0.174047589,  0.025665769, 
   0.123110645,  0.096124254, -0.027610347, -0.184224412, -0.035891365, 
   0.063278005, -0.175057113, -0.043055590, -0.023543576, -0.152531341, 
  -0.080926113, -0.144932702, -0.172957361, -0.069113240, -0.004242866, 
  -0.048241120, -0.076413438, -0.007071829,  0.019753188, -0.121727325, 
   0.066153906, -0.020736244, -0.192480028, -0.114961363, -0.174874499, 
   0.135087892, -0.149978504, -0.081277065, -0.098678797,  0.064042039, 
  -0.121573322, -0.001129172, -0.060244679, -0.031446826, -0.108384430, 
  -0.017089678,  0.049979042, -0.114860691, -0.051807031,  0.061269846, 
  -0.033193339, -0.095116690,  0.063028708, -0.086862825, -0.002226696, 
  -0.010358324, -0.105408132, -0.044616293, -0.010876912,  0.101822816, 
  -0.048930813, -0.135526225,  0.064248458,  0.174567968, -0.042316671, 
   0.004370984,  0.161395907,  0.073086075,  0.141413108, -0.117513269, 
  -0.161574975,  0.041139401, -0.210330576, -0.013764336,  0.023021372, 
   0.068579368,  0.041334122, -0.037509136, -0.009351712, -0.105827913, 
  -0.055292744, -0.036312450, -0.081898853, -0.081514508, -0.046104979, 
  -0.100451805, -0.189678058, -0.017904419,  0.112979122, -0.135879830, 
  -0.050442588, -0.048539009, -0.121932112,  0.064221501,  0.093577698, 
   0.160540521,  0.039722085,  0.048916943, -0.031228501,  0.128685936, 
   0.001443498, -0.164154276, -0.057051487, -0.016376406, -0.009702100, 
  -0.011863615,  0.097186841,  0.100355543, -0.068353929, -0.000253863, 
  -0.029811352, -0.100635052,  0.051466238, -0.085066482, -0.041614667, 
  -0.072375447,  0.140558720, -0.158054277, -0.192736983, -0.004815312, 
   0.010853798, -0.073272943, -0.012711701, -0.074180454, -0.005701783, 
  -0.050752886, -0.114114560,  0.051068984,  0.157531112,  0.103084750, 
   0.024757920, -0.008302579,  0.164981261,  0.007714092, -0.015254915, 
   0.062042974,  0.088805616,  0.088697575, -0.078572124,  0.051147178, 
   0.045948822,  0.031447567, -0.027171882,  0.104039937,  0.071261093, 
  -0.056018461,  0.045069870,  0.002061913,  0.080094829,  0.072747044, 
  -0.002830969,  0.008097778,  0.034321494, -0.039313711, -0.027419047, 
   0.125414595, -0.050730642, -0.076568261,  0.104061835, -0.036302872, 
   0.143085554, -0.097588919,  0.024614559,  0.045759112, -0.020367449, 
  -0.007309990,  0.025948139,  0.059654810,  0.110774375,  0.087095357, 
   0.027282137,  0.019390984,  0.057218838,  0.064822488,  0.120868653, 
   0.104392536, -0.043427151, -0.064368360,  0.133883506,  0.067554779, 
  -0.012971075,  0.004948114, -0.056418572,  0.121502124,  0.155358016, 
   0.037565831,  0.137058303, -0.037137657, -0.104275718, -0.111347124, 
  -0.067270108,  0.172660351, -0.093346372,  0.001092412,  0.127988905, 
  -0.035411492, -0.068003051, -0.085003853, -0.017736854,  0.139053509, 
  -0.119908474,  0.089971893,  0.024380280,  0.017889539, -0.062300697, 
   0.154213592,  0.010530248, -0.039712124,  0.061684895, -0.078546599, 
  -0.124149323,  0.058107648,  0.111615434,  0.051134329, -0.007248204, 
   0.060488291, -0.083497614, -0.001191525, -0.030786626,  0.018553946, 
   0.085597806, -0.095991649, -0.128441066, -0.083192892, -0.043878205, 
   0.067137800,  0.058747143, -0.020132590, -0.070721261,  0.037963625, 
  -0.054111809,  0.017636526, -0.039563760,  0.007355843,  0.030806454, 
   0.135459095,  0.009228963, -0.009221686,  0.056584798, -0.103594601, 
  -0.038841978,  0.092234761,  0.038616393, -0.123050757,  0.043324582, 
   0.112870015, -0.093917288, -0.112109691, -0.010297227,  0.005669643, 
   0.055529874,  0.051874690,  0.017702168,  0.086681664, -0.018524636, 
  -0.059730045,  0.036510456, -0.109954551,  0.122436263,  0.037259173, 
   0.083729103,  0.011952277,  0.050528552, -0.077397242,  0.076023534, 
  -0.081810243, -0.040741615, -0.047051352,  0.073076785,  0.180172041, 
   0.106517188, -0.097563311,  0.128447294,  0.026310382, -0.078657262, 
  -0.014281602,  0.149810135, -0.028079735,  0.071637243, -0.017780259, 
   0.072768606, -0.011985824,  0.038121417, -0.025839154, -0.008424978, 
   0.074112818, -0.096970685,  0.065192871,  0.092084274,  0.088851847, 
   0.068880223, -0.048019968, -0.006321502,  0.049813449,  0.133033156, 
  -0.009486970,  0.027697908,  0.161596045, -0.120641552, -0.007444859, 
   0.222034976,  0.032433566, -0.148929626, -0.089419276,  0.111209810, 
   0.101314247,  0.101926863,  0.033378445,  0.041112356, -0.081584513, 
  -0.061870124, -0.016094659,  0.049259029,  0.167887494,  0.010309946, 
  -0.181426153,  0.010807320,  0.064950466, -0.036029916, -0.004681657, 
   0.058490735, -0.062251095,  0.021151405,  0.079887554,  0.058265876, 
   0.007537187,  0.024298139,  0.124256596,  0.237791061,  0.003352576, 
   0.145496100, -0.095480077, -0.164858982,  0.111625023,  0.071248718, 
   0.052317988,  0.113845356,  0.037545037, -0.077964306, -0.011966570, 
   0.036219109,  0.012551075, -0.043910146, -0.002464667, -0.019626385, 
   0.215222508, -0.084741183,  0.138559878,  0.063959464,  0.155410826, 
  -0.084679708,  0.031911843, -0.067365937, -0.064871825,  0.134768099, 
  -0.126839519,  0.091606595,  0.084082961,  0.094272308,  0.060350906, 
   0.037150439,  0.034025747, -0.140535265,  0.070071980, -0.036024500, 
   0.006889818,  0.035994079,  0.000571735,  0.087672837,  0.059050921, 
   0.153771132, -0.003711055, -0.006017499,  0.071091600,  0.140682444, 
   0.108433902,  0.148217201,  0.031637810, -0.054368380,  0.053228974, 
   0.063779943, -0.039191857, -0.033736039, -0.036854524, -0.086232468, 
  -0.128868699, -0.133170828, -0.063731454, -0.077746406, -0.085068561, 
   0.134921432, -0.053304497, -0.148540661,  0.051609572,  0.136925370, 
   0.012207379, -0.139934823, -0.134706214, -0.157809213,  0.019349681, 
   0.078915566,  0.058501396,  0.020371716, -0.055556525,  0.027825441, 
  -0.031884540, -0.202494249, -0.218731672, -0.152854994,  0.151901156, 
  -0.038887914,  0.067587472,  0.005918447, -0.182392150,  0.007683849, 
  -0.065166794, -0.003513731, -0.168225780, -0.187229514, -0.036078226, 
  -0.074778125, -0.139956161,  0.065758526,  0.137852430, -0.055065934, 
  -0.100648344, -0.120526582,  0.152245879, -0.018646119, -0.066504113, 
  -0.052212935,  0.105255105,  0.116847619,  0.092430398, -0.071394145, 
   0.016375238,  0.028671764, -0.062379602, -0.244479820, -0.102850802, 
   0.065718092, -0.164474934,  0.045810472,  0.148912415,  0.098798282, 
  -0.048330717, -0.207059935,  0.101096489,  0.028027281, -0.153454885, 
   0.078779638,  0.011416002, -0.209977761, -0.015270332, -0.023730911, 
  -0.115646265, -0.163716778, -0.167580724, -0.111208484, -0.098801464, 
  -0.092824042, -0.098621815, -0.060577687,  0.039254736, -0.089007519, 
  -0.096848994, -0.010587254, -0.115392633, -0.092454500, -0.119383954, 
  -0.130038813, -0.086446330, -0.016504074,  0.046256002, -0.029063307, 
   0.051140960, -0.022707829, -0.091739029,  0.102307692,  0.059350371, 
   0.121082932,  0.039421588, -0.076823756,  0.247332752,  0.003144277, 
  -0.146610379, -0.018147029, -0.048882160, -0.034896653, -0.078076862, 
   0.069118179,  0.150543615, -0.083122112, -0.152687103, -0.101551533, 
  -0.131692603, -0.110285752, -0.071065299,  0.049260695, -0.057844445, 
  -0.076646969, -0.149262264, -0.153802514,  0.031960320, -0.254220814, 
  -0.086899139,  0.164035544, -0.346262515, -0.015005670, -0.040707443, 
   0.064593010,  0.040997334,  0.098524407, -0.082048796, -0.060191765, 
   0.139583290,  0.166549161, -0.057711970, -0.088829726, -0.020150088, 
   0.090180822,  0.095111623,  0.084496453,  0.038012818,  0.096687116, 
   0.008318594,  0.060542766, -0.107806355, -0.040480606,  0.200843826, 
  -0.044537023,  0.019653615, -0.035226189, -0.116994523,  0.019381866, 
   0.090902776,  0.077667736, -0.128927201,  0.028665962,  0.170903370, 
  -0.045081519,  0.123690121,  0.099043742, -0.236129269,  0.206404507, 
  -0.076489709, -0.137160733, -0.062682919,  0.140003815, -0.145077214, 
   0.100198060, -0.021524712, -0.103132434, -0.014462688,  0.059491061, 
   0.118385389, -0.059429541,  0.037461631, -0.081394635,  0.098521739, 
  -0.017882468, -0.049987737,  0.137611210,  0.004025154, -0.160639495, 
  -0.022931116,  0.044501550, -0.105321892,  0.071153045,  0.152822450, 
  -0.027555773,  0.144090265, -0.090522960, -0.066455834,  0.059119251, 
   0.026885573, -0.184506416, -0.123931095,  0.048293240, -0.022069620, 
   0.026461741, -0.028276799,  0.149942473,  0.205052182, -0.124794833, 
   0.000587107,  0.022156306,  0.147447020, -0.057274863,  0.226904318, 
   0.109305508, -0.068180695, -0.038882826, -0.041344415,  0.024784589, 
  -0.075675420, -0.049833659, -0.033957243,  0.004786100,  0.024246616, 
  -0.001452233,  0.044422716, -0.136584207,  0.092769124, -0.059840266, 
  -0.147332057,  0.011750567, -0.027878432, -0.012406864, -0.085277803, 
   0.077886961,  0.097842857,  0.129447401,  0.054412037, -0.016286129, 
   0.091804400, -0.073651262, -0.036363587,  0.084311254, -0.058760159, 
  -0.161606193, -0.075674169,  0.057736613, -0.029320393,  0.140611574, 
  -0.006366825, -0.040399119, -0.087992005,  0.096023336, -0.024225874, 
   0.063085623, -0.011362835,  0.072328784, -0.010646961, -0.010124284, 
  -0.085321486,  0.037519373, -0.035265300, -0.014400751,  0.074165307, 
   0.110173054,  0.017195759,  0.216826171, -0.033630807,  0.084252536, 
  -0.026198268, -0.067519337, -0.008903522,  0.055092920, -0.109565884, 
   0.074706972,  0.023228098,  0.049405038,  0.100468144,  0.026797140, 
  -0.187390789,  0.031593692,  0.042398058,  0.042288963,  0.037938721, 
   0.008939945,  0.032783974,  0.054977331,  0.038330611,  0.205612376, 
   0.000784407, -0.001139237,  0.019434799, -0.132155791,  0.176032692, 
  -0.018389620, -0.110304378,  0.055278495,  0.094288372,  0.004191671, 
   0.014753978, -0.029852845, -0.187636703, -0.030319024, -0.162918851, 
  -0.063024491,  0.034113936, -0.050379094,  0.099820122,  0.014920881, 
   0.080876738, -0.058799986,  0.065315425,  0.032127019,  0.037879512, 
  -0.103253856,  0.070667557,  0.022042258, -0.015146294,  0.051983092, 
   0.112837352,  0.020960692,  0.101962447,  0.141831294,  0.020244950, 
  -0.050360117, -0.002052138,  0.046447452,  0.086838223, -0.025183911, 
  -0.229153648,  0.103856534, -0.124159545,  0.224497989,  0.160815194, 
   0.105169892,  0.121301733,  0.172716498, -0.022377521,  0.031800218, 
   0.152144045, -0.131229311,  0.008503366,  0.091413051, -0.018191427, 
  -0.052572753, -0.058130406,  0.215694115,  0.014844927,  0.032146335, 
  -0.041074730,  0.199802488, -0.010201943, -0.087114386,  0.108227290, 
  -0.124072254,  0.075205550,  0.122742459, -0.112174302, -0.124598123, 
  -0.120118774,  0.005365959, -0.062096141,  0.036483854, -0.274731129, 
   0.031386964,  0.028376171,  0.147600546,  0.211006507, -0.223335251, 
   0.163565785, -0.070796266,  0.047847338,  0.061411403,  0.093910828, 
  -0.020522956,  0.168544441,  0.121496812, -0.045701407, -0.035851356, 
  -0.124245539, -0.095960312, -0.105243593,  0.064229943, -0.037233051, 
   0.115518019,  0.023806583,  0.002097118,  0.277857244, -0.006580662, 
  -0.080275856,  0.011750605, -0.021338739, -0.112425655, -0.049995095, 
  -0.047444083, -0.093897440, -0.032839235, -0.168025345,  0.071385927, 
   0.107896782, -0.048053235, -0.007219505, -0.010612158,  0.002232171, 
   0.078497700, -0.162375271, -0.318586886, -0.043476827,  0.093209796, 
  -0.131975576,  0.077023886, -0.148450732, -0.014059425, -0.004624002, 
  -0.175914004, -0.249226436, -0.141342595,  0.185176834, -0.035733197, 
   0.050823439,  0.020858647, -0.371276140,  0.070678309,  0.114968382, 
   0.206402332, -0.101370342, -0.195764676,  0.122217789, -0.214262933, 
  -0.128103882, -0.093246728,  0.035586767, -0.032312773,  0.034692440, 
  -0.096859291,  0.132871404,  0.009124417, -0.081955306, -0.052089430, 
  -0.145873278,  0.102457136,  0.086767338, -0.126906306, -0.059599973, 
   0.056621790, -0.103570849, -0.166359589, -0.103768878, -0.046218753, 
   0.122814618, -0.091152191, -0.054272227,  0.124092050,  0.089762561, 
  -0.053948499,  0.107155539, -0.109284453,  0.032861620,  0.034669198, 
   0.201084703, -0.143734068, -0.065645643, -0.057078432,  0.064086951, 
  -0.109637946, -0.139487803, -0.057572491,  0.015122964, -0.098614767, 
   0.041700639,  0.093742631, -0.087096028,  0.094657071, -0.053711805, 
  -0.090240985, -0.218939781, -0.078319654,  0.107272774,  0.013939662, 
  -0.068026669, -0.084089562, -0.071786605,  0.049789999, -0.158971176, 
   0.102047086, -0.135151267, -0.011875666, -0.004105520,  0.118251763, 
  -0.079019956,  0.120420590,  0.245135188, -0.006546581, -0.091470435, 
  -0.040283453, -0.010922829, -0.007174793,  0.040689688,  0.039290562, 
  -0.119719215,  0.101269290, -0.141736135,  0.015017438, -0.018363893, 
  -0.040226676, -0.066180341,  0.021754885,  0.093130082,  0.046455894, 
   0.029146975, -0.105891250, -0.023930371, -0.204820022, -0.088575669, 
   0.194051191, -0.280981153, -0.099344485,  0.115806848,  0.077253230, 
   0.062456250,  0.060599513,  0.062248480,  0.000555016,  0.141060725, 
   0.091634095,  0.031251755, -0.111385420, -0.059855554, -0.047914386, 
  -0.031950790,  0.002679234, -0.033819970,  0.022608049,  0.082797796, 
   0.063132912, -0.027148439,  0.054867603,  0.070814759, -0.110030621, 
   0.210821643,  0.002162498,  0.111798503,  0.073184155, -0.084671840, 
   0.088163868, -0.058343060,  0.093092076,  0.186526924,  0.042194854, 
   0.137933284,  0.116441637, -0.186974734,  0.090969048,  0.001301638, 
  -0.127776563, -0.156870350, -0.020157041, -0.235499188,  0.036565498, 
   0.143583283, -0.121135168, -0.016881296, -0.142400265, -0.015594244, 
   0.044330806,  0.022515351, -0.148135617,  0.070318133,  0.021073442, 
   0.019161370, -0.158010796,  0.065368354, -0.011594082, -0.007902086, 
   0.085481957,  0.070898890,  0.009875542,  0.193604663,  0.077302672, 
   0.096589245,  0.053485744, -0.097936228,  0.156166419, -0.001469535, 
  -0.159350321, -0.123769164,  0.151102662,  0.101776868,  0.158325046, 
  -0.074812852,  0.116853282,  0.050279357, -0.030434482,  0.164832830, 
   0.019026024,  0.053153068, -0.059145670,  0.135452852,  0.116208367, 
   0.095166653,  0.010063480, -0.038275428,  0.101212554, -0.020834047, 
   0.124311939,  0.044281792,  0.071054794,  0.133073121, -0.005711570, 
   0.077616423, -0.234477520,  0.149801746,  0.089400098, -0.081993215, 
  -0.122807704, -0.093875736,  0.114901900, -0.040590242,  0.175308377, 
   0.038534608,  0.134551674, -0.063967898,  0.142463610,  0.004300829, 
  -0.100731775,  0.026940754,  0.047347665,  0.075853981, -0.029352320, 
  -0.120033987,  0.023731684,  0.064947315, -0.118866235, -0.101384446, 
  -0.078089483, -0.085892230, -0.118968323,  0.016923666,  0.063217312, 
   0.082876116,  0.082003035,  0.182611495,  0.005947432,  0.003090287, 
   0.187762007,  0.082858764,  0.046314497,  0.150749326,  0.052190512, 
   0.157478303, -0.010927220,  0.020559201,  0.170595571,  0.035942934, 
  -0.068009183, -0.093651175,  0.125947714,  0.105159178,  0.084197171, 
  -0.089305595, -0.055852801,  0.005463747,  0.140547395, -0.056004278, 
   0.144446626,  0.234239936, -0.010981354,  0.007862154, -0.000567589, 
   0.037940063, -0.036141220,  0.036106680,  0.195927292, -0.048637215, 
   0.016807472, -0.059664614, -0.014882626,  0.050759267, -0.013197505, 
  -0.124337360,  0.124304377,  0.044071183,  0.102542557, -0.056038130, 
   0.037893724, -0.244476259,  0.060416535, -0.021485137,  0.007015435, 
   0.145432070, -0.200603485,  0.013892265,  0.029169343,  0.098181389, 
  -0.164644927, -0.069151431,  0.010585004, -0.012274534, -0.128276855, 
  -0.061504062, -0.064056672, -0.080328725,  0.077398539,  0.091367275, 
   0.006294810, -0.043696795,  0.140347838, -0.048303511, -0.037440799, 
   0.121220656,  0.029971093,  0.033993635, -0.129609108, -0.205641478, 
   0.048799951,  0.075754195,  0.225526884,  0.002819076,  0.174821377, 
   0.071922593,  0.183736950, -0.026497273,  0.002468783,  0.053244777, 
  -0.092754886,  0.025987348, -0.067812875,  0.080490820,  0.058862992, 
   0.064668782,  0.145297274,  0.072973959,  0.143399313, -0.238961294, 
   0.141389832,  0.097314909, -0.054265033,  0.202810541, -0.078575090, 
   0.120925725, -0.027229685, -0.044997767, -0.146392375, -0.205692098, 
  -0.146257281,  0.176120594,  0.114797033, -0.162489921,  0.118107475, 
  -0.021029983,  0.280695051,  0.132607624, -0.204072669,  0.048648022, 
  -0.128785297,  0.060444321,  0.062920682, -0.109216899, -0.011319741, 
   0.032543972, -0.040140778, -0.077500537, -0.102267951, -0.095438682, 
  -0.089011073,  0.049482480,  0.044444706,  0.146299019, -0.019243170, 
   0.055049080, -0.100763761,  0.161679357, -0.005416386, -0.117177762, 
   0.012104912, -0.037457004,  0.098050937,  0.095615700,  0.078924380, 
  -0.023831056,  0.010775225, -0.218196258,  0.137218237,  0.115159236, 
  -0.030850826, -0.128025681,  0.126667812,  0.080105379,  0.014926888, 
  -0.009055319, -0.203671560,  0.058023188,  0.070657983, -0.068320401, 
   0.023343060, -0.069195956,  0.036763091,  0.014010979, -0.132778451, 
  -0.056035399, -0.210451186,  0.215984955, -0.004006697,  0.093771271, 
   0.214596957, -0.288134485, -0.068094082,  0.089360625,  0.143241167, 
  -0.064196356, -0.271431029,  0.078213677, -0.287062138, -0.096626446, 
  -0.158389658, -0.199631527,  0.022673847, -0.042509634, -0.038614240, 
   0.144102633,  0.171919629, -0.172958523, -0.103953801, -0.040353373, 
   0.185585380,  0.021449581, -0.192996323, -0.127191365,  0.019001137, 
   0.009886477, -0.218529955, -0.201699093, -0.104138896,  0.006049494, 
   0.037143279,  0.100251719,  0.090924501,  0.029205803, -0.266730994, 
   0.075038329, -0.004721443,  0.120404936,  0.053729538,  0.135531083, 
  -0.116673365, -0.031880140, -0.024145152,  0.087888397, -0.068399996, 
  -0.041324493,  0.059795503,  0.004228537, -0.055417344, -0.190900415, 
   0.007074430, -0.065836646,  0.064560577,  0.056234185, -0.183937281, 
  -0.051745042, -0.023738399,  0.056030042,  0.020287989, -0.152095675, 
  -0.053850431, -0.088540770,  0.090059079, -0.156897962,  0.246201858, 
  -0.203022808,  0.154766709,  0.132851303,  0.161068633, -0.102237068, 
   0.101691261,  0.411806047, -0.008226313, -0.110695757, -0.096095711, 
  -0.108554780,  0.204569533, -0.139711291, -0.059543904,  0.037572850, 
   0.018236715, -0.000436475,  0.055346180, -0.034177516, -0.017148228, 
  -0.213974699,  0.237081453, -0.111089468, -0.071405828,  0.064931713, 
  -0.113633700,  0.079055592, -0.173271373, -0.158239141,  0.294533879, 
  -0.224542841, -0.048957478,  0.052664440,  0.113871738,  0.046934120, 
  -0.138303906,  0.007924567, -0.015043369,  0.081001572, -0.096731253, 
   0.058122646, -0.079566196, -0.057905730,  0.183545753, -0.044769090, 
   0.089791901, -0.018162092,  0.052932061,  0.010116138, -0.047128297, 
  -0.034711681, -0.009007325,  0.164561689, -0.220913425,  0.116114162, 
  -0.074027553, -0.018842654, -0.012111265,  0.108642124,  0.166637376, 
  -0.089424975,  0.157155380,  0.106514528, -0.018982900,  0.203086063, 
   0.058062159, -0.092565604,  0.080948979, -0.016467953, -0.132189676, 
  -0.106370367, -0.034183215, -0.029537022, -0.076151043,  0.189813748, 
   0.034820169, -0.047275271, -0.023530489,  0.110296100, -0.145953044, 
   0.016062077, -0.064558029,  0.177297845, -0.127681196, -0.043123871, 
  -0.190320805,  0.128852978, -0.048596412, -0.074536562, -0.081410877, 
  -0.085455202,  0.128821075,  0.132025048,  0.026154384,  0.073284537, 
   0.150380313, -0.082846932,  0.086685292,  0.113493599, -0.246887386, 
  -0.255278379,  0.158199817,  0.221801639,  0.190386876,  0.118444726, 
  -0.016349919,  0.173476741,  0.075732626,  0.030603502,  0.037208673, 
   0.090649866,  0.066301711,  0.097442158, -0.006940119, -0.061070099, 
  -0.057164751, -0.005483706,  0.130654678, -0.018865889, -0.036388990, 
   0.140103668,  0.096883237,  0.047631092,  0.107882231,  0.184170231, 
  -0.270124137,  0.026788877, -0.020902753,  0.011308168,  0.034233473, 
   0.099769793,  0.116163984,  0.065797500, -0.000941352,  0.170429200, 
   0.084001109,  0.096850120, -0.009720610, -0.011977788,  0.035360429, 
   0.072522707,  0.058453687,  0.071873948, -0.120497629,  0.022819096, 
  -0.087376751, -0.067170665, -0.132397205, -0.104855329,  0.082920581, 
  -0.000579745, -0.218520105, -0.079280674, -0.043919254, -0.006932223, 
   0.170632198,  0.137307510,  0.098436832, -0.063367017,  0.111749843, 
   0.005756523, -0.089069396,  0.125402108, -0.052413963,  0.079714805, 
   0.090769783,  0.023049943,  0.036048740,  0.008542605,  0.065373234, 
  -0.007387085,  0.062045757,  0.040158436, -0.021108471,  0.014938073, 
   0.041080374, -0.040262870,  0.119507447, -0.078502409, -0.057754751, 
   0.119123802, -0.109820805,  0.093812287, -0.075617678,  0.117586829, 
   0.101326436,  0.173535019,  0.204925433, -0.105858132,  0.179162368, 
   0.143793032, -0.085703023,  0.101299755,  0.084776185, -0.139868438, 
   0.157421529,  0.081685431,  0.116107792, -0.159701586,  0.041137550, 
  -0.102292612,  0.050370798,  0.198486418, -0.052945357,  0.205566451, 
  -0.162668526,  0.009549082, -0.019565798,  0.088273756, -0.140900463, 
   0.080717795,  0.077493578,  0.072627485,  0.015362073,  0.181344032, 
  -0.008534606,  0.020034770,  0.065229945,  0.105259210, -0.081151672, 
  -0.013465583,  0.081191719,  0.005103402,  0.055356078,  0.057050858, 
   0.196360573, -0.099521644,  0.010647207, -0.277712166, -0.128905535, 
  -0.010460936,  0.116924569,  0.020471465,  0.117482372,  0.186803833, 
   0.005783520,  0.132764861,  0.102168486,  0.109279305, -0.041002449, 
  -0.142760113,  0.111480385, -0.065104209, -0.171177357,  0.013429084, 
   0.085618570,  0.055828527, -0.018342879, -0.180261552,  0.148836672, 
   0.025460251, -0.072423674,  0.114789315, -0.019592641,  0.118767776, 
   0.067021176,  0.058744743, -0.082732111, -0.109799102, -0.159646288, 
   0.004916910,  0.042921863, -0.137156889, -0.030023843, -0.105680577, 
   0.248351455, -0.063272364, -0.034822129,  0.158497646,  0.160915539, 
   0.045358159,  0.009341793, -0.074027866,  0.000249775,  0.034926154, 
  -0.020363430, -0.020713985, -0.160128489, -0.236042634,  0.006436161, 
   0.040569197, -0.043684233,  0.036509130,  0.065097764,  0.088668704, 
  -0.211536258,  0.136719927, -0.027661521,  0.132636920,  0.009187429, 
  -0.090795919,  0.052985013, -0.108376309,  0.065707579, -0.053827003, 
   0.049042489, -0.174349368,  0.024857396,  0.122145854, -0.118236110, 
  -0.113065407,  0.177828908, -0.114003927, -0.112850070, -0.011023055, 
  -0.368415713,  0.162760600,  0.140482962,  0.109253317,  0.019588411, 
  -0.153669342,  0.171338737, -0.043042239, -0.034408562, -0.104135104, 
  -0.129461661,  0.120629169, -0.218095392, -0.012086946,  0.254015237, 
  -0.274310857,  0.025694270,  0.141425312,  0.265616834,  0.052711412, 
  -0.043569401, -0.037230268, -0.254695922, -0.066559754, -0.072975717, 
  -0.072391756, -0.005610379,  0.120159894, -0.047429822,  0.161579445, 
   0.068745181,  0.040184472, -0.105357938,  0.057374924,  0.149288103, 
   0.127090812, -0.134291351, -0.128057614,  0.195666939, -0.092195906, 
  -0.225352511, -0.156632617, -0.106114730,  0.185743868,  0.115648851, 
   0.067928426,  0.111499868, -0.009425328, -0.235052660,  0.119160213, 
   0.000098712,  0.063269772,  0.121013515,  0.093981676, -0.157592654, 
  -0.075086951, -0.067437045, -0.067947537, -0.005579593, -0.108357310, 
   0.090249300,  0.085519537, -0.086772323, -0.035085559,  0.131983370, 
   0.018766059,  0.069911636, -0.004109941, -0.147460818,  0.034960672, 
   0.015614606,  0.123482481,  0.017023448,  0.031728320, -0.084767014, 
   0.055754289,  0.066859759, -0.186647743,  0.288978487, -0.104779728, 
   0.057105042,  0.041762356,  0.229694992, -0.120784879,  0.114377722, 
   0.592646480, -0.033921245,  0.058361221,  0.020380650,  0.097696289, 
   0.107661664, -0.140836746,  0.030173106,  0.024596399,  0.029969484, 
  -0.130861521,  0.042015791,  0.032738972, -0.177123353, -0.072172739, 
   0.127391711,  0.075254455,  0.025808748, -0.073251106, -0.101468161, 
   0.043406144, -0.178652480, -0.271840781,  0.216173545, -0.083935447, 
   0.147210911,  0.016094193,  0.030362271,  0.098777615,  0.049957175, 
   0.078335598,  0.037178583,  0.023528807, -0.073607676, -0.059845481, 
  -0.161398068, -0.078127295,  0.185628965,  0.000971630,  0.100727521, 
   0.112588897, -0.070767321, -0.060074620,  0.030637754,  0.003494225, 
  -0.004780385,  0.217688069, -0.114713624,  0.136730179, -0.116074756, 
   0.020658322,  0.063549049,  0.180554703,  0.081501916, -0.265418202, 
   0.197013676,  0.076086000,  0.068577990, -0.025618657,  0.061535902, 
   0.060682308, -0.047877185,  0.043457109, -0.040507887, -0.051035911, 
   0.154069901, -0.035836708,  0.082120143,  0.213439614,  0.091627188, 
  -0.016291510, -0.149334669,  0.105503619, -0.049375512,  0.022559237, 
   0.198625147,  0.291832805,  0.102153242,  0.015065755, -0.010326314, 
   0.028920103,  0.016993046,  0.067524843,  0.003704658, -0.062221903, 
  -0.074490502,  0.152580336,  0.088220023, -0.001441334,  0.102664202, 
  -0.098358236,  0.055541828,  0.116026126, -0.179615125, -0.041330911, 
  -0.106930457,  0.164608866,  0.166758150, -0.107858777, -0.019451546, 
   0.046310682,  0.111348920,  0.095245205, -0.028159769,  0.024885952, 
   0.035911012,  0.022312669,  0.089334249, -0.072152220, -0.120782405, 
   0.080074973, -0.046389598, -0.055770759, -0.040858049,  0.135644451, 
   0.052007053,  0.037390213, -0.044128880,  0.147322327, -0.095287405, 
  -0.074023776, -0.109925956, -0.094592132,  0.236679450,  0.056298994, 
  -0.009245887,  0.114538506, -0.033906519,  0.151407331,  0.177789479, 
  -0.064178139,  0.040869702,  0.040373802, -0.039651595, -0.027902268, 
   0.175863147, -0.067211099,  0.020518372,  0.011707040, -0.109508552, 
  -0.132876933,  0.073505662, -0.200746387, -0.053179301, -0.120325260, 
  -0.001612169,  0.030217821,  0.043675475,  0.008275888,  0.000960208, 
   0.234982163, -0.020456016,  0.143894494,  0.127982140,  0.159209132, 
   0.102339402,  0.172128201, -0.051466852, -0.095457412,  0.174678415, 
   0.107040323,  0.112018406,  0.041323446, -0.157603770, -0.186411023, 
   0.217284277, -0.027488222, -0.053353280,  0.109612413, -0.008181374, 
   0.047388747,  0.119794287,  0.058240697,  0.087076388, -0.015693350, 
   0.070660785,  0.141630858, -0.146133497,  0.086598024,  0.107905455, 
   0.023896663,  0.178644210, -0.166824639,  0.194869027,  0.043656651, 
  -0.085120186,  0.242805943,  0.071311690, -0.051994622,  0.001216405, 
   0.012919176, -0.033695549, -0.126971543, -0.048108153, -0.096048266, 
   0.195612699,  0.134536564, -0.149723396,  0.177739233, -0.056679491, 
  -0.057623409, -0.031207552,  0.052741896, -0.080210932,  0.010373116, 
   0.015880765, -0.001097133, -0.098217674,  0.092317864,  0.107269309, 
   0.098303340,  0.118267410,  0.079335071, -0.006189831, -0.099812590, 
  -0.098120399, -0.040629275,  0.062842421,  0.125070304,  0.125397325, 
  -0.072817571, -0.100547530, -0.112709515,  0.051529076,  0.077766903, 
   0.142144263,  0.133755192,  0.119164251,  0.093409687,  0.180867150, 
   0.149723604,  0.050828230, -0.013115563, -0.015071437,  0.000129278, 
   0.015927099,  0.059049994,  0.088223115, -0.091287769,  0.182583824, 
   0.056749348, -0.107463688, -0.165637612,  0.020890631,  0.087446071, 
  -0.068743080,  0.221006975, -0.071872562,  0.139498144,  0.036640324, 
   0.061087541,  0.069749124, -0.086753316, -0.210199073,  0.126002908, 
   0.057728086,  0.045129284,  0.051902920,  0.012828881,  0.133701414, 
  -0.024674932, -0.148718685,  0.050230261,  0.014789770,  0.037330899, 
   0.101770900,  0.040412802, -0.135284677,  0.123698533,  0.036816526, 
   0.007915468, -0.124961093, -0.046172194, -0.018456932,  0.042607777, 
  -0.111789852,  0.122488156,  0.119643018,  0.134714782, -0.260651052, 
   0.184909374,  0.146468326, -0.065940119,  0.107987091, -0.043940760, 
  -0.010518465,  0.040013764, -0.105812110, -0.043383565, -0.026546264, 
  -0.083805121,  0.179386377,  0.040616207, -0.006437347, -0.105731964, 
   0.159738928,  0.105020776,  0.017441407,  0.015999524, -0.238128677, 
   0.159295231,  0.046613224, -0.079421647, -0.211240828, -0.146805227, 
   0.037936848, -0.020539410, -0.213949919, -0.194372609, -0.170319602, 
   0.207731262, -0.059159994, -0.089748882,  0.192377120, -0.086238526, 
  -0.003743615,  0.216005042,  0.152189359,  0.027951263,  0.023667868, 
  -0.048551500, -0.171554342, -0.054166716,  0.055417605, -0.005190744, 
  -0.150338560,  0.057966232,  0.040195156,  0.219299674,  0.068729319, 
   0.079395369,  0.117794372,  0.181216359,  0.089928545,  0.148687124, 
  -0.159935504, -0.246287033,  0.259174317, -0.020029964,  0.011139901, 
  -0.103715144,  0.025196686,  0.121011592,  0.072450079, -0.066352613, 
  -0.016399363,  0.104042135, -0.147357449,  0.292096645, -0.028769843, 
   0.102914892, -0.046015792,  0.232540369, -0.184741899, -0.223898694, 
  -0.160855010,  0.015124157, -0.080772214, -0.031591989, -0.124337941, 
   0.019142531,  0.038553294, -0.215270340, -0.094705254, -0.029291265, 
   0.018126367,  0.076738492, -0.119455844, -0.064166225,  0.194168821, 
   0.132650703,  0.086585663, -0.007968539,  0.026000749,  0.042794384, 
   0.058979750, -0.074497804,  0.271471709, -0.144233495, -0.102426283, 
   0.117146149,  0.189532444, -0.032401618,  0.272817910,  0.383774489, 
  -0.026758840, -0.069287270, -0.006275892, -0.080007553,  0.086839125, 
  -0.206222802,  0.089357361, -0.136539504, -0.038994949, -0.131164223, 
  -0.079533853, -0.062585734, -0.023365883, -0.137692109,  0.046032082, 
  -0.002013730, -0.016655561,  0.004588696,  0.120275959,  0.191027418, 
  -0.243883356, -0.120819621,  0.331165045, -0.139656469,  0.169337645, 
  -0.063147709, -0.101662673,  0.254653901,  0.127335846, -0.021731148, 
  -0.046196546,  0.057581432,  0.056685816, -0.047860280, -0.064400032, 
   0.073535949,  0.074859247, -0.035939496,  0.183228910, -0.063225195, 
  -0.025413064,  0.014876629,  0.046758473, -0.057998981,  0.072592169, 
   0.059797406, -0.209860727,  0.120283864, -0.091325559,  0.168249592, 
  -0.026049031,  0.218146726,  0.243111283, -0.183237776,  0.017128894, 
   0.076527096,  0.178600460,  0.194396794,  0.106673278,  0.108637072, 
   0.077470012,  0.094969817, -0.046495687, -0.033972163,  0.038020998, 
  -0.134774402,  0.162246853,  0.203576475,  0.089264259,  0.053152617, 
  -0.023914114,  0.150705040,  0.051445149, -0.149134204,  0.176004320, 
   0.244613767, -0.042161595,  0.048809245, -0.165996328,  0.180283114, 
   0.028090596,  0.051543247,  0.065133370,  0.099995121, -0.041290004, 
  -0.018825859, -0.076539703,  0.130117685,  0.200446159, -0.133424729, 
  -0.054433625,  0.182589114, -0.199968949, -0.178224221, -0.049987644, 
   0.151668340,  0.065199099, -0.057182733,  0.056925684,  0.120089620, 
   0.051108476,  0.179643452, -0.022741755, -0.002769487,  0.005463948, 
  -0.009330790,  0.102616720,  0.012318484, -0.181573778, -0.024757434, 
   0.050757930,  0.009893364,  0.028979436,  0.129551128,  0.037407130, 
   0.091188855, -0.054920245,  0.212616667, -0.067951702,  0.044189095, 
   0.058097702, -0.220302969,  0.092481747, -0.040675204, -0.028586593, 
   0.179813296, -0.002578675,  0.183499053,  0.161981925,  0.030125016, 
   0.062954776, -0.027627578,  0.002530979,  0.171942234,  0.110721014, 
   0.031895120,  0.031339478,  0.004637666, -0.045919046, -0.126445413, 
  -0.132428959, -0.157486469,  0.156201854, -0.015899468, -0.193579495, 
  -0.082281768,  0.028124297,  0.056450933,  0.213326216,  0.076446511, 
   0.024369488, -0.066805340,  0.001782518,  0.071489565,  0.092107892, 
   0.071209699, -0.018291930, -0.010496314,  0.191509500,  0.037841529, 
  -0.000718377, -0.072090104,  0.010547766, -0.253187060,  0.060380507, 
  -0.127696499,  0.007489851,  0.137607798, -0.057924435,  0.017037237, 
  -0.052483846, -0.056553554,  0.018793965,  0.153416574,  0.104729272, 
  -0.009017373, -0.094494045,  0.068292201, -0.042617995,  0.116556592, 
   0.046318971, -0.147111893,  0.111530066,  0.073546275,  0.027268197, 
   0.137707293,  0.133861154, -0.024504367,  0.098292671,  0.062263995, 
   0.018842757, -0.117288060,  0.062400248,  0.009153123,  0.097256713, 
   0.049638830, -0.181565836,  0.162762552, -0.225785196,  0.033140939, 
   0.037988007, -0.045618154, -0.063941576,  0.109854765, -0.009664841, 
   0.142157212, -0.106731467,  0.206466317, -0.052087169,  0.209229782, 
   0.026907843,  0.017125109,  0.042422339, -0.133921400,  0.092608243, 
  -0.063334912,  0.105358995,  0.192601323,  0.115285128, -0.139114022, 
  -0.120501623, -0.042144962, -0.027626125,  0.163888708, -0.006371498, 
   0.161848396,  0.119019106,  0.118872523,  0.116294704,  0.155618876, 
  -0.113200583,  0.109409913, -0.054134753, -0.083295621, -0.053002354, 
   0.039841156, -0.027443301,  0.065291941, -0.033037748, -0.057962243, 
  -0.092277572,  0.075921901,  0.015431191, -0.005440664,  0.105827413, 
   0.033656973, -0.124995455,  0.188704118, -0.165324658, -0.092255786, 
   0.130565047, -0.082371913, -0.118643731, -0.001990520, -0.115753077, 
   0.105700292, -0.002257339,  0.067797847,  0.215961531, -0.056222405, 
  -0.087987922,  0.198936597,  0.084466606,  0.057029627, -0.099435300, 
   0.000946358, -0.069254354, -0.033428729, -0.049831063, -0.073688418, 
  -0.141594023,  0.042620234, -0.113933042,  0.017239468,  0.000108083, 
   0.068818070,  0.111220837, -0.091404870, -0.118908554,  0.147491664, 
   0.038336881,  0.041781865, -0.031245781, -0.079834208,  0.016056847, 
   0.075787157,  0.082951546, -0.020253027,  0.034774236, -0.111260846, 
   0.202042222,  0.209955513, -0.103197411,  0.046752755,  0.131890059, 
  -0.060224548, -0.035837151, -0.006856672, -0.289140105,  0.215367004, 
   0.071818635, -0.114882633, -0.153792560, -0.107993469,  0.243603781, 
   0.007702063, -0.231360540, -0.137562692, -0.298342645, -0.010717158, 
  -0.012521135,  0.057116121,  0.152790591, -0.132012948,  0.022751544, 
   0.122391909,  0.273445010,  0.141329870,  0.161082968, -0.060535103, 
  -0.317781538,  0.015807047, -0.010783684,  0.020453870, -0.019858200, 
  -0.002957234,  0.091596253,  0.171867549,  0.162254095, -0.052037828, 
   0.078952767,  0.242455244,  0.106795579,  0.022881623, -0.119598612, 
  -0.123476818,  0.298905820,  0.100634336, -0.174211457, -0.180211544, 
  -0.141059056,  0.099250138,  0.060155023, -0.007843369,  0.176401153, 
   0.057309579, -0.011218854,  0.331101179, -0.106289342,  0.143485487, 
   0.023902921,  0.039191309, -0.239481166, -0.050283093, -0.153979450, 
  -0.120801441, -0.089419208, -0.044288609, -0.049727820,  0.058102421, 
   0.092085905,  0.038237531,  0.096444912, -0.181420729, -0.043238338, 
   0.053363740, -0.085474126, -0.067133181,  0.155385643,  0.036329430, 
  -0.000978485, -0.202502996, -0.176251158, -0.048417583,  0.124340944, 
  -0.157371566,  0.257423550, -0.204915062, -0.140007734, -0.034347460, 
   0.299860716,  0.149110615,  0.163945019,  0.434965163, -0.114717320, 
  -0.051735912, -0.006056454, -0.147498801, -0.008268695, -0.082672894, 
  -0.043595094, -0.099768437,  0.124401130,  0.071516588, -0.012440809, 
   0.079128429, -0.117006145, -0.184953704,  0.147295415,  0.114379220, 
  -0.107384481, -0.096098460,  0.102501363,  0.339620888, -0.195032850, 
  -0.064173408,  0.263659745, -0.156282574,  0.154704973, -0.065004945, 
   0.110692590,  0.322133064,  0.080579139,  0.024324633,  0.081249014, 
   0.122253083, -0.106581375, -0.176962614, -0.077388771,  0.008720991, 
   0.096219145, -0.108856827,  0.085668944, -0.049150139, -0.015523612, 
   0.020985767, -0.031210346,  0.039305311,  0.237706020,  0.190477759, 
  -0.069114171,  0.008212145, -0.010486785,  0.156690940,  0.116701074, 
   0.091256946,  0.096968621, -0.082543589,  0.161747918, -0.066158071, 
   0.028318867, -0.029814094,  0.089626439,  0.107462317,  0.126798809, 
  -0.052557893, -0.162081435, -0.109059408,  0.051865283, -0.021425292, 
   0.183698416,  0.173003510, -0.101793073,  0.102744035,  0.080909856, 
   0.260830551,  0.060834911,  0.027237896,  0.215147689,  0.235423028, 
   0.027442001,  0.025053758, -0.103004299,  0.176524252,  0.097131439, 
   0.011869140, -0.055533521,  0.100156255, -0.096976332,  0.181831360, 
  -0.064474039,  0.017535847,  0.102543972, -0.063191190,  0.042957939, 
   0.164176032, -0.138763830,  0.013870844, -0.129421055,  0.244066074, 
   0.110221528, -0.025109289, -0.064765237,  0.143970877,  0.035104044, 
   0.152369186,  0.063187197,  0.030021694, -0.003806593,  0.028523570, 
   0.162643179, -0.036286976, -0.211977586,  0.134873465, -0.008729548, 
  -0.045058649,  0.113710783, -0.075687744,  0.035480622, -0.063395888, 
  -0.062260807,  0.197467223, -0.133255810,  0.144759536,  0.045270782, 
  -0.090366714, -0.017736461,  0.046775855,  0.120161600,  0.006212626, 
   0.012346667,  0.056490500,  0.109741159,  0.050628580, -0.082056805, 
   0.005612473, -0.089921430,  0.094037905,  0.231138498,  0.154012680, 
  -0.075442433,  0.071166940,  0.030721676, -0.217134282,  0.036033534, 
  -0.037041534, -0.014216921, -0.024369748, -0.131599143, -0.142238900, 
   0.107660003,  0.008859074,  0.031095918,  0.262532651, -0.072433196, 
  -0.099680744, -0.033564210,  0.139557913,  0.069733888,  0.201914266, 
   0.149703309, -0.097273722,  0.227692783, -0.138374135,  0.152601793, 
   0.071612902, -0.075392179, -0.235460460,  0.177540779, -0.021008965, 
   0.044000134, -0.000542966, -0.108241647, -0.053160995,  0.058243673, 
  -0.073676027,  0.133695766,  0.126607612,  0.118137218,  0.194169477, 
  -0.019148091,  0.027674885,  0.147028267, -0.054407883,  0.202670872, 
  -0.220437437, -0.011221906,  0.057369940, -0.054290447, -0.030985130, 
  -0.011029667,  0.182211369, -0.002289351,  0.133135468, -0.066849843, 
   0.021221654, -0.006451841,  0.013517230,  0.113926493,  0.138924330, 
  -0.170417592,  0.061363585, -0.193570465,  0.089091420,  0.007929708, 
   0.006623541, -0.060885243,  0.068431348,  0.060379215,  0.175038993, 
  -0.131886676,  0.192805201,  0.007017417,  0.011679568,  0.092693791, 
   0.016971787,  0.121089391, -0.124545537,  0.052170526,  0.051076133, 
   0.191321582,  0.096401118,  0.046565630, -0.027336057, -0.085138403, 
  -0.045304574, -0.013736892,  0.026188860,  0.155184522,  0.031171495, 
  -0.085573167,  0.191105738, -0.008973565,  0.219248042,  0.071574830, 
  -0.077739440, -0.040362339, -0.161994830,  0.117414691, -0.065127209, 
  -0.004284594,  0.016338171,  0.116518810,  0.050617751, -0.108732261, 
  -0.133538544,  0.128459841,  0.191980302, -0.091037504,  0.052756943, 
  -0.031314813,  0.207349107, -0.080279738, -0.177344963,  0.001989040, 
   0.020401791, -0.201913342, -0.026013328, -0.007678340,  0.270402223, 
   0.090296328, -0.027118884,  0.170758888, -0.093788758,  0.069615565, 
   0.172704786, -0.107802905, -0.071250089,  0.104901999, -0.075774312, 
  -0.094290830,  0.124117956,  0.014197900,  0.015142375, -0.140373379, 
  -0.012480373, -0.039490122, -0.055556227, -0.137833476,  0.032767989, 
   0.038703728, -0.036972936, -0.171778366, -0.077436045, -0.002191114, 
  -0.042741008, -0.012290038, -0.240387544,  0.061806794,  0.091831602, 
   0.053693056, -0.050302036, -0.102963723, -0.008270581,  0.107165866, 
   0.239174142, -0.103450872,  0.144708768,  0.221995205,  0.097270586, 
  -0.114978954, -0.125222072, -0.096153602,  0.260758460, -0.058177020, 
  -0.055559956,  0.036704294, -0.054686423,  0.034926724, -0.067648619, 
  -0.165040597, -0.002702567, -0.192954913,  0.135241076, -0.042843588, 
  -0.061268356,  0.209234208, -0.097773179, -0.109965339,  0.110061079, 
  -0.026998641,  0.171324804,  0.073206469, -0.030488105, -0.278654754, 
  -0.141292721,  0.100595668, -0.162864894,  0.014641612,  0.118798621, 
   0.102209851,  0.225998282,  0.030832386, -0.097608604,  0.118100449, 
   0.216675743,  0.086423762,  0.046986595, -0.157444671, -0.028615039, 
   0.345109582,  0.127701864, -0.150111020, -0.167222291, -0.160803899, 
   0.072906099,  0.125499517, -0.057672810,  0.028649796,  0.188262358, 
  -0.155216947,  0.077098876,  0.021963822,  0.174644098, -0.025551084, 
   0.148316070, -0.181060433, -0.172392085, -0.161818057, -0.025091728, 
  -0.203384444, -0.053606384, -0.054363571,  0.150592804,  0.020626975, 
   0.215252712, -0.016392769, -0.033272579, -0.095254250, -0.007515751, 
  -0.132548720, -0.040291492,  0.216391936,  0.005966885, -0.001781313, 
  -0.132635519, -0.052793778, -0.120580450, -0.073130198,  0.013438678, 
   0.130790755, -0.049972836, -0.056271106,  0.157559127,  0.237489998, 
   0.136389732,  0.122117057,  0.233278051,  0.052412413, -0.145355687, 
  -0.168980241,  0.009677361,  0.115234181, -0.222029135, -0.009205348, 
   0.001875731,  0.101983584,  0.036216076,  0.062036496, -0.078628205, 
   0.013269588,  0.000522720,  0.102147564,  0.169698104, -0.103879221, 
  -0.126978010,  0.185629845,  0.156773686, -0.093056552, -0.163047582, 
   0.391130954, -0.028703900,  0.043015037,  0.060519405,  0.022955680, 
   0.136562675,  0.113233417,  0.036280423,  0.007732453,  0.072763979, 
   0.155184790, -0.054925539,  0.048098687, -0.031407509,  0.145713031, 
   0.048910189,  0.167303413,  0.007019392,  0.107594207,  0.127096161, 
   0.122936159,  0.252479434,  0.241273835,  0.131807849, -0.020851072, 
   0.005024993, -0.130569085,  0.254587144,  0.011950693,  0.000651513, 
   0.077945180,  0.035289828,  0.132165089, -0.089120820,  0.020351261, 
   0.083440065,  0.231643796,  0.015643891,  0.180125013, -0.021707352, 
  -0.188217849, -0.111936197,  0.148171633, -0.065746620,  0.125740796, 
  -0.003546334, -0.135265976, -0.007559786, -0.061739761,  0.118597545, 
   0.025423195, -0.129265860,  0.083982103,  0.194201082,  0.082248189, 
   0.090384603, -0.094350770,  0.044177633,  0.210119113,  0.088159584, 
   0.104317077,  0.073607080, -0.129781544,  0.165414855,  0.119132757, 
   0.130520225,  0.078430183,  0.043701839,  0.017570814,  0.284448773, 
  -0.083870955, -0.126484796, -0.145922691,  0.177840382,  0.108374894, 
  -0.023883205,  0.031214722,  0.114207864,  0.065120175,  0.188629746, 
   0.162197620, -0.096110150,  0.090878941, -0.007413499, -0.044330604, 
  -0.022879383, -0.268139273, -0.056520265,  0.162449390,  0.115046173, 
   0.044147871,  0.066125333,  0.065925069, -0.059098653, -0.088570617, 
   0.201470643, -0.121857651,  0.080074981, -0.061633877, -0.057738349, 
   0.146682724, -0.017332258,  0.117549948,  0.031643029,  0.002400320, 
   0.052241914,  0.145383179, -0.033823900,  0.055279434, -0.072818123, 
  -0.007168779,  0.099795125,  0.087630600, -0.031553209,  0.017516172, 
   0.065271795, -0.029740334, -0.136601493,  0.089883953, -0.172683269, 
  -0.049233206, -0.078039922,  0.113856062,  0.007752229,  0.147993073, 
   0.001471254,  0.226295203,  0.056286808,  0.064621352, -0.151718765, 
  -0.165671900,  0.281614602,  0.137389615,  0.185884774,  0.007132418, 
   0.064981811,  0.151836753, -0.168177813,  0.157324582, -0.050149389, 
   0.149143353, -0.227279589,  0.125285387, -0.155888572,  0.143293753, 
   0.081050813,  0.090189464,  0.074585162, -0.004056288, -0.168115124, 
  -0.006916164,  0.129974544, -0.096071430,  0.124995559, -0.162244901, 
   0.120929100,  0.062021211,  0.137997091,  0.190689966, -0.172973186, 
   0.141032204,  0.012865596, -0.015615771,  0.136606663,  0.176798418, 
   0.071658045,  0.083761893, -0.069161296, -0.183168635, -0.098887652, 
   0.059598319,  0.031956714,  0.063145466, -0.011910641, -0.186779574, 
  -0.038223907, -0.105663292, -0.078029804, -0.040167157,  0.045856755, 
  -0.058080275,  0.232129693,  0.129730135,  0.121498883, -0.033387825, 
   0.121269375,  0.052693963,  0.242570177, -0.065375827,  0.102751575, 
  -0.082239330, -0.032446597, -0.081961215,  0.123566762,  0.026461663, 
   0.193550795, -0.092694573,  0.072505936, -0.042790197, -0.137426987, 
   0.024818720,  0.107465185,  0.023738785, -0.002222546,  0.078280650, 
   0.039372392,  0.158465028,  0.119233325,  0.093536161, -0.047208287, 
   0.067093298, -0.252427161,  0.090510547,  0.107583717,  0.009361625, 
   0.150400788,  0.149415299,  0.099838220,  0.031664114, -0.135814995, 
   0.084508054,  0.129258543, -0.012567415,  0.149120003,  0.028166018, 
   0.175535396, -0.057030279,  0.054060984,  0.111905389, -0.105091028, 
  -0.245173246, -0.045366820, -0.070007190,  0.113766156,  0.069641083, 
   0.088728890,  0.060890801,  0.030927770, -0.150594831,  0.068049550, 
   0.017897958,  0.020751331, -0.087218247, -0.037726335,  0.005005488, 
   0.054561518, -0.066530362,  0.031086039, -0.108659364,  0.106296107, 
  -0.069676779, -0.119429655, -0.024345549,  0.106118433,  0.057651520, 
  -0.073727608, -0.107470728,  0.006592688,  0.062319852, -0.110238172, 
  -0.028567571, -0.212061912,  0.092668556, -0.063409626,  0.019242553, 
   0.074867494, -0.223530248,  0.157731518,  0.097060576,  0.326886982, 
  -0.078345999,  0.112138584,  0.179964542, -0.141655937, -0.187802330, 
  -0.167228356, -0.037097987,  0.349545717,  0.135435581, -0.141252577, 
   0.123820595,  0.015093344,  0.219058529, -0.097081415, -0.279515326, 
  -0.032639466, -0.120043449,  0.248873144,  0.082384817, -0.055462658, 
   0.144735873, -0.083525732, -0.023595151,  0.018126743, -0.046701014, 
   0.046160765,  0.234735042, -0.037304644, -0.400022894, -0.084608674, 
  -0.110678658, -0.094066769, -0.072504096, -0.072304964, -0.006484960, 
  -0.037013188, -0.001255834, -0.113852926,  0.003106571,  0.038353942, 
   0.027419835,  0.118046395, -0.081118152, -0.148843497,  0.281572402, 
   0.063387349,  0.027544117, -0.197038010, -0.251008213,  0.020901697, 
  -0.036773764, -0.051172730,  0.073164962,  0.034589492, -0.103644386, 
   0.042593259, -0.067761526,  0.285006404,  0.061523139,  0.144024745, 
  -0.153525680,  0.013727882,  0.032357745, -0.127753556, -0.222030938, 
  -0.046739228, -0.031284388,  0.072327964,  0.033719376,  0.219370767, 
   0.112806685, -0.161872119, -0.237310365,  0.050953504, -0.066280209, 
  -0.154098958,  0.171909019, -0.020798540, -0.147075146, -0.079445086, 
  -0.014377650,  0.035820466,  0.077754281, -0.083612435, -0.117992878, 
  -0.047054015, -0.095117718,  0.129345417,  0.206053555,  0.239767849, 
   0.059308246,  0.168919533,  0.032618392, -0.036610503,  0.062305924, 
  -0.210102171,  0.059693325, -0.114998065,  0.124230683, -0.179208219, 
   0.081710167, -0.055776365, -0.020333648, -0.008315406,  0.082231656, 
   0.019262295,  0.175732240,  0.071304344, -0.165043727,  0.061989818, 
   0.156809598,  0.196004957, -0.199174047, -0.121653534,  0.383708030, 
   0.009423292,  0.095968448,  0.150639892,  0.111425586,  0.205151096, 
   0.153661624,  0.079524510,  0.149932548,  0.008728227,  0.122677334, 
  -0.178121611,  0.017132649, -0.065274231,  0.050142795,  0.036141098, 
   0.136351079, -0.002227471,  0.150219098, -0.033648528, -0.020850414, 
   0.242069378,  0.121560082,  0.001380774, -0.130204037,  0.053790111, 
   0.042741016,  0.050236966, -0.109178826,  0.099766240,  0.221664414, 
  -0.049140874,  0.088658176, -0.044311106,  0.035600573, -0.078433670, 
   0.156153515,  0.073391743,  0.103639565, -0.072845206,  0.008148274, 
  -0.032735195,  0.097973272, -0.157657340,  0.040337399,  0.165710196, 
  -0.140182927,  0.028342644, -0.127038121,  0.191220045,  0.105630443, 
  -0.008703816,  0.045236010,  0.172679633,  0.025591703, -0.032659728, 
  -0.057134461,  0.118691206,  0.101106726, -0.067337148,  0.174740478, 
   0.087371655, -0.133884162,  0.043205995,  0.203485072,  0.054415960, 
   0.122092471, -0.041407421, -0.063919820,  0.158276230,  0.002958421, 
   0.069617070, -0.154921308, -0.004953044,  0.015970742, -0.108538508, 
   0.080424488,  0.049203172,  0.034734037,  0.101749882,  0.154212669, 
  -0.008810504,  0.020541511,  0.002953075, -0.015214556, -0.078914620, 
  -0.209423885,  0.039280687,  0.111763693,  0.077894680,  0.024635637, 
   0.099521071,  0.022929445,  0.112135045, -0.009029542,  0.085697889, 
  -0.033302255, -0.051068973, -0.138733178, -0.016639851, -0.129706427, 
   0.079497106, -0.052547373,  0.135261536,  0.081838466,  0.187554643, 
   0.021064086,  0.165312603,  0.030154927, -0.080731995,  0.112404592, 
   0.040739715,  0.277748346,  0.092188999,  0.012513512, -0.089867212, 
  -0.102655925, -0.027208321, -0.097163707, -0.165901482,  0.001431670, 
  -0.041376941,  0.079366282,  0.016562657,  0.105513185, -0.040266197, 
   0.216387838,  0.025977818, -0.105399415, -0.067999333, -0.062680446, 
   0.066136092,  0.001818559, -0.012927288,  0.183071166, -0.006660135, 
   0.052007396, -0.176122069,  0.204332560, -0.039869379,  0.093062319, 
  -0.229113385, -0.022271007, -0.073890120,  0.215582892,  0.096212931, 
   0.131885096, -0.059205931,  0.048565298,  0.055946942, -0.039316930, 
  -0.006016986,  0.060705978,  0.000629340, -0.085699387,  0.089336336, 
   0.007188948,  0.098261289,  0.063981779, -0.037297841, -0.063991651, 
  -0.049234115,  0.098483175, -0.040439557,  0.171908647,  0.195921227, 
   0.051458027, -0.022927977, -0.178699896, -0.054322641,  0.178581044, 
   0.074542589, -0.021762306,  0.062200721, -0.190714136, -0.013349681, 
  -0.263266206,  0.101658188,  0.061820388,  0.041734967,  0.110717975, 
   0.161645249,  0.169266328,  0.061088301, -0.005608341,  0.059534382, 
   0.121750049,  0.195256114,  0.093463458,  0.118266985, -0.046516992, 
  -0.142687291,  0.003682908, -0.031041134,  0.091030702,  0.252739102, 
  -0.043284893,  0.121320054,  0.002067597, -0.209344268, -0.054492474, 
   0.136315241,  0.029952837,  0.011797290, -0.075487487,  0.151510790, 
   0.070991561,  0.096876629,  0.006882783, -0.046150472,  0.176098377, 
  -0.268649131, -0.008932148,  0.035203338, -0.084094472,  0.061187614, 
  -0.001993422,  0.060073990,  0.115016893, -0.005933772,  0.120924175, 
   0.127118334,  0.033975918, -0.031974129, -0.055595689,  0.021838009, 
  -0.176048711, -0.074128866,  0.086662516, -0.114738777, -0.115454726, 
  -0.161915690,  0.012496612,  0.176574960,  0.217958227,  0.128282398, 
  -0.115896001,  0.012380407,  0.009128312,  0.124716938,  0.057671927, 
  -0.073662780, -0.088595271, -0.106863551, -0.166090071, -0.078756928, 
  -0.086401679,  0.002941589, -0.131132111,  0.108898506, -0.050717190, 
  -0.094200172,  0.095513545,  0.155943304,  0.196066722, -0.018594895, 
  -0.088084914, -0.122239165,  0.154004425,  0.074357808,  0.038685374, 
  -0.323577970, -0.045755044,  0.103054769,  0.094696760, -0.013400069, 
  -0.345721394,  0.155689463, -0.089262977,  0.217278793, -0.121269576, 
   0.021478498,  0.175733000, -0.054358322, -0.072131023,  0.003782078, 
   0.021894017,  0.270110428,  0.088778488, -0.215053678,  0.153357312, 
  -0.155870318,  0.226748213, -0.206581607, -0.180765167,  0.008819577, 
  -0.121169545,  0.192438483,  0.034172673, -0.053380217, -0.109024480, 
   0.007518922,  0.043812901, -0.164777204, -0.035722349, -0.108254172, 
   0.270909160,  0.164159119, -0.270696342, -0.149060294,  0.092047617, 
  -0.045181602,  0.085800238,  0.063879400,  0.046074089, -0.063715018, 
   0.181487352, -0.105720073, -0.085330658,  0.035016824, -0.154085964, 
  -0.072325870, -0.101580426, -0.158792973, -0.138814494,  0.151274368, 
  -0.176137060, -0.089448623, -0.183778629, -0.074503824, -0.114873603, 
   0.147437036, -0.185105905,  0.152084514, -0.103680521, -0.084943786, 
   0.095097341,  0.165895224, -0.104747333, -0.036653072, -0.155002668, 
  -0.144230217, -0.163511381, -0.110426195, -0.280720621, -0.144786820, 
  -0.196880758,  0.108411647,  0.148937315,  0.204325095,  0.034856036, 
  -0.149633005, -0.179859132, -0.198637396, -0.117793016,  0.025521614, 
  -0.009896800,  0.033361398, -0.064232044, -0.143721536, -0.012415935, 
  -0.169590622, -0.051683702,  0.004665142, -0.096289814, -0.029629374, 
   0.075619020,  0.134438142, -0.001542599,  0.089944981,  0.059847657, 
   0.160226941, -0.131702319, -0.100670636, -0.021274872, -0.161342278, 
   0.134852409, -0.139987230, -0.100956231, -0.174210951,  0.029829297, 
  -0.126449004,  0.009301678,  0.058388017,  0.079147503,  0.128993705, 
   0.054489926,  0.036329232, -0.160327584, -0.101388335,  0.038758710, 
   0.217782408, -0.480858773, -0.153354555,  0.320021212,  0.157234177, 
   0.042774957,  0.117328823,  0.114947006,  0.014735332,  0.157477006, 
  -0.044928178,  0.007922963, -0.099431112,  0.231221884, -0.157640263, 
  -0.020237818,  0.047878038,  0.147565648, -0.124110512,  0.190740585, 
  -0.075115182,  0.133561909, -0.148574427,  0.200110033,  0.184730992, 
   0.061437212, -0.019083491,  0.101767637, -0.181196302, -0.146464318, 
   0.103822120, -0.017666953,  0.111601546,  0.022317851,  0.142581090, 
   0.136651665, -0.216504738,  0.103398412,  0.020572338,  0.093277700, 
   0.116729014,  0.017327137, -0.031185851,  0.147796452,  0.031279314, 
   0.112839654, -0.009589375,  0.016588459, -0.047687802, -0.194648698, 
   0.179563656,  0.009040967,  0.138451129,  0.069088012, -0.013141491, 
   0.120703705,  0.232433677,  0.195016265, -0.083117537,  0.087966479, 
   0.031755548,  0.286705852, -0.071020588,  0.109055862,  0.076734349, 
  -0.074335106, -0.021318372,  0.072779648,  0.183226287,  0.040029366, 
  -0.064544946,  0.039132129,  0.184745893, -0.059443939,  0.098951414, 
  -0.188961133,  0.118796907,  0.234905079,  0.049347546,  0.025304660, 
   0.227087334,  0.112035401,  0.184125856, -0.090002276,  0.062046263, 
   0.160580561,  0.100482054,  0.138716549, -0.054755356, -0.141957998, 
   0.104755931,  0.169585019,  0.205655545,  0.084550485,  0.095108174, 
   0.028941333,  0.032840934, -0.105450191,  0.154869482,  0.024441199, 
   0.172704041, -0.073388197,  0.312248588, -0.107690006,  0.051698964, 
   0.038099073, -0.056983002,  0.129120782,  0.118601926, -0.045671571, 
   0.068651997, -0.002495279,  0.056290865,  0.026981883,  0.099997424, 
   0.160002559,  0.152909100,  0.133319169, -0.126499489,  0.096049905, 
  -0.138259292, -0.050296545,  0.055320878, -0.042180799,  0.019808149, 
   0.249156922, -0.064433448,  0.129989535,  0.117776841,  0.201301455, 
   0.034491993, -0.134459212,  0.004411259, -0.095365971,  0.132458851, 
   0.041244745, -0.101889737,  0.092247628, -0.052555311,  0.175324991, 
  -0.078105263,  0.052246138, -0.121695898,  0.039011825, -0.204043671, 
  -0.063967064, -0.156669602,  0.117958672, -0.024518421,  0.135275960, 
   0.094213806,  0.110361680, -0.053172894, -0.072557271,  0.120477885, 
  -0.048692029,  0.090159826, -0.149845168, -0.051511090, -0.068920501, 
  -0.013084037,  0.143600613,  0.050599795,  0.036983591,  0.008176438, 
  -0.084941313, -0.081449538,  0.172187343,  0.136019334,  0.047202006, 
   0.170874059, -0.082083106, -0.007195974,  0.220641375,  0.193837374, 
   0.041646954,  0.059942208, -0.123454556,  0.072093241, -0.172491699, 
   0.054109789,  0.040571906, -0.051266544,  0.084036045,  0.144253075, 
   0.145389915,  0.013969893,  0.014862063,  0.150570512,  0.203017488, 
   0.100994371,  0.217857942,  0.137715191, -0.141100362,  0.099304251, 
   0.139564320, -0.050663713,  0.104170121,  0.156618774, -0.163953602, 
   0.011831501, -0.113233253,  0.048715901,  0.096471585,  0.143405676, 
   0.117301904, -0.054077771,  0.091975316,  0.090457365,  0.020585947, 
  -0.011044106,  0.224260703,  0.054702919,  0.058606520, -0.234630525, 
   0.128523260,  0.150401562, -0.014860195,  0.045599591,  0.105831340, 
   0.109974377,  0.015596070, -0.022981623,  0.164333314,  0.098591872, 
   0.010290070,  0.091982462, -0.022696670, -0.010501590, -0.015222290, 
   0.084582590, -0.125520214,  0.010719962, -0.150819033,  0.025359696, 
  -0.122626804,  0.097284019,  0.161649778,  0.193180501, -0.064241096, 
   0.131615624,  0.005904280, -0.013809034, -0.098404653, -0.069005601, 
  -0.020487839, -0.119624659,  0.031613223, -0.160814866, -0.124682337, 
   0.062156107, -0.023689473,  0.053582836, -0.032576092, -0.079033203, 
   0.093710572,  0.000608679,  0.214547053, -0.022614643, -0.107168570, 
  -0.039181273,  0.133953035,  0.085305572,  0.004558363, -0.220600829, 
  -0.054667756, -0.072231077, -0.154321581,  0.178853616, -0.383555084, 
   0.127707109, -0.270133913,  0.249672025, -0.128119886, -0.012860510, 
   0.111315675,  0.014324741, -0.018288592, -0.079257019,  0.022753183, 
   0.028245060, -0.133867234, -0.053165812,  0.086804159, -0.023086831, 
   0.355330765,  0.093574330, -0.044215582, -0.214416996, -0.303456962, 
  -0.073094644, -0.071850471, -0.007061574,  0.093746327,  0.063430399, 
  -0.083039559, -0.078966871,  0.099002942, -0.066449746,  0.114655375, 
   0.052660491, -0.279640198, -0.174414471,  0.087421000, -0.001305724, 
   0.081026703,  0.077075526,  0.030228226, -0.094922431,  0.202216551, 
   0.017638240, -0.000431589,  0.171459183, -0.186510429, -0.116815597, 
   0.096769363, -0.121506356, -0.194080219,  0.066953056, -0.204813629, 
  -0.219160423, -0.069649488,  0.105974309, -0.093652129,  0.103156395, 
  -0.138668120,  0.093608432, -0.075785756, -0.039854124, -0.014138971, 
   0.073084861,  0.056985855, -0.019841358,  0.065333702, -0.095619440, 
  -0.122471787,  0.069405392, -0.061255485, -0.175412253, -0.109198026, 
  -0.038173534, -0.049155198,  0.208927691, -0.097598284, -0.052942064, 
  -0.061149165, -0.123628609, -0.078137092, -0.052125741, -0.055486079, 
   0.091504410, -0.084597930, -0.013485362,  0.006664409, -0.160393894, 
  -0.218311220, -0.148723260, -0.146167666, -0.190004706,  0.138025150, 
   0.038585991,  0.070076518,  0.210639611,  0.110002801, -0.020934178, 
  -0.200307772, -0.188874587, -0.026980443,  0.001884528, -0.024217900, 
  -0.132080555, -0.112930462, -0.111598551, -0.013719463, -0.114634648, 
   0.036395438,  0.045329098,  0.029156134,  0.182402626,  0.104875334, 
  -0.050279912,  0.018953938,  0.075412318,  0.174520075,  0.143689990, 
  -0.390542597, -0.002312360,  0.034457158, -0.024373313,  0.137513578, 
  -0.052540064, -0.013837387, -0.119632378,  0.181608170,  0.027245589, 
   0.117556065, -0.008446095,  0.142571002, -0.054613963, -0.045907013, 
  -0.064934619,  0.028012678, -0.097507320,  0.252503276, -0.020102909, 
   0.136844039, -0.089013413, -0.052971855,  0.350878149,  0.027350452, 
  -0.074904703,  0.137844741, -0.160997316,  0.102198698,  0.036140326, 
  -0.077599771,  0.004883919, -0.031657435, -0.042972285,  0.220331073, 
  -0.249086902, -0.025786366,  0.162098050,  0.150976911,  0.044586521, 
   0.063719854,  0.036685415,  0.080825187,  0.072417401, -0.073681049, 
   0.048030742,  0.139797002,  0.040029872, -0.007652930,  0.042739280, 
  -0.006827148,  0.171161771,  0.094788127, -0.055313256,  0.074645109, 
   0.158831581,  0.147492543, -0.020380301,  0.205652907, -0.053915810, 
   0.088942818,  0.014868085,  0.124906078, -0.068599492, -0.099184304, 
   0.136422753,  0.059951488,  0.050028816,  0.046347257,  0.082526319, 
   0.041214522,  0.079096951, -0.094031535,  0.158381626, -0.034484766, 
   0.144246161,  0.066348232, -0.100968793, -0.001766746,  0.064831644, 
   0.259520978,  0.084544323,  0.044415563, -0.085178517,  0.203351766, 
   0.126537532, -0.003365889,  0.041084081, -0.206301346,  0.005012212, 
   0.145557463,  0.205284670, -0.069473870,  0.126216397, -0.061491515, 
   0.142028376,  0.043444224,  0.026512420, -0.087780863, -0.047968205, 
  -0.196678340,  0.331874430,  0.003894697,  0.068242833, -0.002939546, 
  -0.066875540,  0.018319013,  0.003858005,  0.176755577,  0.194395304, 
   0.125479504,  0.091999128,  0.003238044,  0.015688140,  0.087241814, 
  -0.107376911,  0.004100363, -0.079512574,  0.013207478, -0.041704245, 
  -0.008476544, -0.030567715,  0.089799590, -0.119644821,  0.044021331, 
   0.034367856,  0.063775592, -0.067716792,  0.151363850, -0.053215165, 
  -0.146538198, -0.123407722,  0.029014297,  0.107227676,  0.103041105, 
  -0.196242228,  0.228153527,  0.025499541,  0.093060650, -0.102195531, 
   0.175440684,  0.068934366,  0.212526396, -0.205623731,  0.046008639, 
  -0.022005951,  0.252652466,  0.155670404,  0.128990814,  0.049925007, 
   0.015475170,  0.164045289, -0.019941447,  0.134641588, -0.004359487, 
   0.115543276, -0.065490924, -0.046959076, -0.120422572,  0.143622637, 
   0.129611522,  0.109877840,  0.062392842,  0.048264034,  0.040821802, 
   0.021425219,  0.133442059,  0.018980868,  0.179211542,  0.197918192, 
   0.109441496, -0.162071884,  0.106613085,  0.159987241,  0.114853032, 
  -0.054835957, -0.319454193, -0.001908891, -0.127205461, -0.005555461, 
  -0.031746034,  0.003190565,  0.086898290,  0.117940128,  0.049832527, 
   0.058447588,  0.006024361,  0.082094423,  0.177051008,  0.073231168, 
   0.153229758, -0.014477346, -0.119045682, -0.119451940,  0.114253655, 
   0.084260374,  0.055633567,  0.020790866,  0.026258668, -0.066896647, 
  -0.100302339,  0.086574338,  0.070947140,  0.112982571, -0.014899188, 
  -0.131890237,  0.106599227,  0.009963378,  0.152123407, -0.174133271, 
   0.349512875, -0.047113329,  0.252699107,  0.091501631, -0.073987506, 
   0.145790532, -0.148558080,  0.193659186,  0.003481935, -0.041124020, 
  -0.057329930,  0.051018875,  0.075092480,  0.158889145, -0.019405695, 
  -0.002702702,  0.019816719,  0.080332719, -0.187297463,  0.104986325, 
  -0.147861600,  0.028395049,  0.041117132, -0.020022472, -0.063286267, 
   0.122547179,  0.290771812,  0.186222240,  0.045501661,  0.141884148, 
  -0.046857525, -0.030317342, -0.099177711, -0.035255734, -0.017677424, 
  -0.064168505, -0.025047755, -0.113829859, -0.181961775, -0.106849566, 
  -0.088315040,  0.147753760,  0.051371027, -0.080484338,  0.046760626, 
   0.125693291,  0.215661779, -0.125026509, -0.144612059, -0.065271229, 
   0.186501533, -0.037468016, -0.175522819, -0.247579157,  0.073793277, 
   0.115107253, -0.147680283,  0.033253018, -0.439068228, -0.137757614, 
  -0.225114718,  0.295892775, -0.034571610, -0.071605422,  0.122536995, 
  -0.028717740, -0.070722677, -0.030367151, -0.164890021, -0.025509510, 
  -0.127489448, -0.208748534,  0.025754254, -0.050234068,  0.194207475, 
   0.286936700, -0.109912366, -0.004367500, -0.206129923, -0.228697553, 
   0.015379238, -0.020974634, -0.126262695, -0.041856643,  0.134059906, 
  -0.199548796, -0.026174942, -0.111573376, -0.060108945, -0.069646776, 
  -0.319568723, -0.033518102,  0.124840565,  0.032262504, -0.106216505, 
  -0.073086523,  0.086200878, -0.146423563,  0.263406932, -0.130792260, 
  -0.007529232,  0.132853836, -0.026006659,  0.040667143, -0.046450563, 
  -0.150070518, -0.296957046,  0.103926927, -0.241481900, -0.065269470, 
   0.022334015,  0.000058253, -0.131472588,  0.199829206,  0.024226733, 
   0.221412063, -0.026707597, -0.023827339, -0.075630046, -0.097589694, 
  -0.134803265,  0.138060555, -0.044637430, -0.119917750, -0.291356891, 
  -0.088380538, -0.166604698, -0.085706919, -0.125186667, -0.044015851, 
  -0.084934495, -0.191010982,  0.097901784, -0.098876782, -0.215829819, 
  -0.223336563, -0.059387110, -0.073867813,  0.113167837, -0.106340110, 
  -0.030602612, -0.044006888, -0.042714320,  0.033801693, -0.276370913, 
  -0.149652600, -0.244493961, -0.132930979,  0.058530699, -0.118670255, 
  -0.013310324,  0.064917997, -0.070833273,  0.103851534, -0.120123595, 
  -0.164164484, -0.217016697, -0.037855834,  0.160654202, -0.109801956, 
  -0.059209306, -0.061156970, -0.078663915, -0.268404394,  0.018388050, 
   0.059770409,  0.024555236, -0.017945403, -0.083412997,  0.049904685, 
   0.062601425,  0.052035525, -0.013813680,  0.194568723, -0.589419246, 
  -0.184936494, -0.011540542,  0.029095469,  0.027014535,  0.018756818, 
  -0.001790115, -0.063668549,  0.132207841, -0.081338905, -0.084217660, 
   0.144795701,  0.149582297, -0.068320863, -0.017601496,  0.033305172, 
   0.003760521,  0.044023436,  0.021455275,  0.059962355,  0.120695233, 
  -0.058476191,  0.049431648,  0.247512341,  0.147775516,  0.132734120, 
  -0.011128859, -0.019383159, -0.017729083, -0.049378458, -0.095026426, 
   0.156862199, -0.003581643, -0.107375816,  0.192314431, -0.078813851, 
  -0.029697273,  0.027961699,  0.068443999, -0.209150642,  0.183355212, 
   0.098439336,  0.161500469, -0.066305079,  0.015079898,  0.088635281, 
  -0.050728235, -0.009339079, -0.042960923,  0.057280600, -0.132755145, 
   0.148832113,  0.017052867,  0.129717395,  0.008963715, -0.014381899, 
  -0.059759010, -0.039862555,  0.241237804, -0.072485246, -0.032037161, 
   0.000051239,  0.187078908, -0.078545958,  0.043802001,  0.044995621, 
   0.007241697,  0.141774699,  0.002428924,  0.146869123,  0.120912574, 
   0.028085746, -0.121041171,  0.199270666, -0.108975045, -0.056370262, 
   0.070068017, -0.021161862,  0.121321999,  0.197277889,  0.209302068, 
  -0.098761499, -0.020132603, -0.006398474,  0.083946079,  0.050628319, 
  -0.045288038, -0.047160342, -0.174128473,  0.138531238,  0.039038941, 
   0.051998738, -0.055566493,  0.087992452,  0.108898766,  0.242949918, 
   0.046788879, -0.102023095, -0.024064286, -0.037388451, -0.134095475, 
   0.214867204, -0.070619024, -0.055107184,  0.018971838,  0.046150584, 
   0.026860116,  0.038414124,  0.151880875,  0.163217232,  0.011758482, 
   0.130753413,  0.105914220,  0.005545302,  0.246094167, -0.073909692, 
   0.097678013,  0.009271754,  0.125063270, -0.050808091,  0.029890416, 
   0.033185281,  0.172397062,  0.139795467,  0.083991289,  0.121123821, 
  -0.091819346,  0.129561886,  0.068781637, -0.039469741,  0.097991563, 
  -0.008508945,  0.243226320,  0.031421222,  0.166148022, -0.181232512, 
   0.195320949, -0.103485502,  0.175615102, -0.008727639,  0.214605317, 
   0.078637093,  0.008375825, -0.153678536, -0.103315651, -0.028913394, 
   0.018023193,  0.093507282,  0.272415847,  0.005995247,  0.075548805, 
   0.215572983, -0.073169760,  0.014012607,  0.155799106, -0.009000165, 
  -0.162364677, -0.221381813,  0.015395246, -0.137733549, -0.002332099, 
  -0.092820533,  0.089314282, -0.080920883,  0.078880295,  0.102613628, 
   0.004453734, -0.151241720,  0.175629646,  0.264664620,  0.138779268, 
   0.012149364,  0.102656536,  0.011595707,  0.065367825, -0.110534519, 
  -0.211278215,  0.025122155, -0.217312038, -0.140053123, -0.034709647, 
   0.121091723,  0.102769986,  0.073539980, -0.113566168,  0.115572281, 
   0.010917704, -0.146395102, -0.111197032, -0.026889956,  0.263220370, 
  -0.019116154, -0.089289919, -0.052067883,  0.190727890, -0.051714484, 
  -0.120082766,  0.019450186,  0.080092445,  0.070026100,  0.072919719, 
   0.158023655,  0.027756540,  0.069680378,  0.088147610, -0.153457180, 
   0.230407268,  0.091576248,  0.033385199, -0.239641458,  0.242886782, 
   0.166200563,  0.207327887,  0.170252845,  0.122911662,  0.190099344, 
  -0.106772304,  0.047500957,  0.126602188, -0.083560824,  0.051186036, 
   0.079238318,  0.145306334,  0.071431510, -0.203717992, -0.056466237, 
  -0.108489238,  0.026120529, -0.102615103,  0.166480228,  0.108082771, 
   0.103128821,  0.139830992, -0.105379894,  0.041315187, -0.017372368, 
   0.185791776,  0.029003453,  0.105702229, -0.045809105, -0.055742018, 
   0.056817032, -0.088789202, -0.173374042, -0.043368861, -0.050543245, 
   0.121702515, -0.063063577, -0.100080341, -0.034978826, -0.086166784, 
   0.202573299,  0.009628233,  0.143296793, -0.151486099,  0.124981344, 
   0.227732867,  0.085977100, -0.134115264,  0.019232547,  0.040203530, 
  -0.060659681, -0.189438105, -0.245534629,  0.080294207,  0.086150043, 
  -0.278646141, -0.008767871, -0.392220646, -0.088560961, -0.210814491, 
   0.035526771, -0.064100154, -0.020280903, -0.120260991, -0.132746875, 
  -0.055420645, -0.166740090, -0.008000722,  0.000236679, -0.039990194, 
   0.003191707,  0.185324907, -0.062355544,  0.376513720,  0.267196238, 
  -0.012743821, -0.178602546, -0.103891000, -0.245723754, -0.106115416, 
  -0.087938748, -0.054363653, -0.205875486, -0.085273698, -0.406829774, 
  -0.151976541, -0.090551481,  0.015786242, -0.128867030, -0.218050852, 
  -0.095039167,  0.094319239,  0.144564241, -0.043131072, -0.093662485, 
   0.096579991,  0.113621153,  0.261586815, -0.040365253,  0.008287519, 
   0.122584306, -0.007592763, -0.018760053,  0.051458843, -0.077693544, 
  -0.283644319,  0.009868063, -0.221008614, -0.153382704, -0.194584310, 
   0.134740427, -0.130869463,  0.136600316, -0.012912412,  0.056501012, 
  -0.081282452, -0.072466396, -0.000110555,  0.035855286, -0.136275798, 
   0.238469750,  0.201283008, -0.085984603, -0.247049063, -0.220339492, 
  -0.008420417, -0.103538737, -0.069268748,  0.035170872, -0.022750629, 
  -0.072492011,  0.036853429, -0.134777844, -0.160332426, -0.217662334, 
   0.022982424,  0.000662190, -0.143178478, -0.121486798, -0.197933018, 
  -0.030616319,  0.030629534, -0.079909541, -0.193993136,  0.067991719, 
  -0.227828339, -0.148202747,  0.006977197, -0.037947290, -0.095541418, 
   0.067151725,  0.106340744,  0.257579714, -0.050002161, -0.304766357, 
  -0.096603975, -0.017898288,  0.103646733, -0.220065773, -0.119109020, 
  -0.183257774, -0.106982477, -0.035844550,  0.096143708,  0.059497718, 
  -0.057680037, -0.033983696,  0.057388190, -0.074512318, -0.120095074, 
   0.009143162,  0.024095720,  0.045680176, -0.422984987, -0.090408698, 
  -0.096687727,  0.070098437,  0.032486681,  0.034840308,  0.000169722, 
   0.053855207,  0.080559053,  0.058091614, -0.008243795,  0.042945977, 
   0.085558854,  0.038716484,  0.130745187,  0.164758578,  0.001311247, 
   0.044763442, -0.011489246,  0.179533824,  0.023317765, -0.117928967, 
  -0.066913269,  0.211822703,  0.032399271,  0.060603257,  0.105893731, 
  -0.037906010, -0.036519710,  0.068898290,  0.039212186,  0.149014041, 
   0.057754055, -0.252958536,  0.173344463, -0.069684669, -0.021773254, 
   0.191170722,  0.148796111, -0.131781712, -0.003154383,  0.048262935, 
   0.089148924,  0.085575454,  0.020704223,  0.150926530, -0.016312061, 
   0.004791977,  0.071909167, -0.044924967,  0.001254853,  0.003338041, 
   0.141701251,  0.013211806, -0.023678234,  0.154323786, -0.062824070, 
  -0.098261110,  0.302260518,  0.030596711, -0.207423985, -0.072673082, 
  -0.004633750, -0.031923268, -0.072098352,  0.019043054, -0.075319022, 
  -0.009027900, -0.160148934, -0.045791503,  0.133667812,  0.112787932, 
   0.017665165,  0.199867919, -0.139339522, -0.067113958,  0.208687887, 
   0.031853147, -0.057623450,  0.057483412,  0.014135961,  0.064206079, 
  -0.061186627,  0.122205622,  0.088790193,  0.246120274,  0.023039060, 
  -0.061878540,  0.050039303,  0.020797836,  0.161074653,  0.046343099, 
   0.066568822,  0.044623457,  0.015379223,  0.156462044, -0.052661669, 
  -0.167898387, -0.078812271,  0.088337325, -0.006372115, -0.135697067, 
   0.094171524, -0.077189535,  0.104505248,  0.125614271,  0.107553542, 
   0.005359300,  0.169150755,  0.140070811,  0.102164023, -0.029151833, 
   0.157181770,  0.033823639,  0.147743702, -0.071021743, -0.043899737, 
   0.070494354, -0.005741926, -0.067409873, -0.016347259,  0.006893864, 
   0.052980926,  0.119073689,  0.157328099, -0.031170640,  0.026693895, 
   0.099390246,  0.034695849, -0.087039985, -0.078347512,  0.023694383, 
   0.087992437, -0.090155333, -0.042982396, -0.072389074,  0.093603164, 
   0.081292480,  0.010183287,  0.166700870,  0.171752617,  0.056156013, 
  -0.065479048,  0.126439616, -0.080855250, -0.012665614, -0.025656538, 
   0.072498418,  0.279800057,  0.001597987, -0.102769032,  0.028030789, 
  -0.106478296,  0.033422329,  0.161272332, -0.028308304, -0.181742579, 
  -0.092748627,  0.055411778, -0.029097106,  0.088477738, -0.257475376, 
   0.190041482,  0.059609976, -0.040478636,  0.006318591, -0.048393514, 
  -0.243432820, -0.038579512,  0.228396252,  0.093986019,  0.043561984, 
   0.050299838,  0.146841511, -0.046334922,  0.107773967, -0.236523718, 
  -0.030965082, -0.068879873, -0.170346424, -0.042773440,  0.147803515, 
   0.051391765,  0.055903502, -0.151459366,  0.025167907,  0.042119429, 
  -0.011054146, -0.261396706,  0.055124089,  0.178358242, -0.082177937, 
   0.152731523, -0.070368350,  0.164559454, -0.118642606, -0.169782698, 
  -0.095284566,  0.046111882,  0.035041902,  0.086753003,  0.016908323, 
  -0.042637818,  0.091616705, -0.160445437, -0.034575988,  0.306217939, 
   0.062427863, -0.021615261, -0.058703400,  0.124173120,  0.122819059, 
  -0.027028268,  0.222692743,  0.019824265,  0.014963790, -0.096808054, 
   0.240203425,  0.018864762, -0.085795358,  0.145578697,  0.108637922, 
  -0.066910744,  0.203364968, -0.136273831, -0.077563025, -0.145784125, 
   0.150216505, -0.090056226, -0.113265134,  0.073774286, -0.021287400, 
   0.086218119,  0.094670042, -0.072102211,  0.048538502,  0.287887752, 
   0.186488032,  0.048015568,  0.002450994, -0.022494292,  0.180754021, 
  -0.085292935, -0.099061303, -0.124906182,  0.094883300,  0.024943661, 
   0.057813685, -0.141882494, -0.087207615,  0.075001724,  0.068546832, 
   0.043321751,  0.053360451,  0.020816747,  0.126656756,  0.120950952, 
   0.001935487,  0.021462739,  0.075268939, -0.006298755, -0.075638905, 
  -0.166115835, -0.107035540, -0.045441829, -0.096937537, -0.082344413, 
  -0.077918433, -0.278050840,  0.012371008, -0.072849043,  0.098395072, 
  -0.241232768, -0.080383696, -0.100815862,  0.017543996,  0.010917276, 
  -0.132045150, -0.039477918, -0.207926482,  0.080984056, -0.123330027, 
   0.005432390, -0.280807346,  0.123042203,  0.004172761, -0.059093758, 
   0.013638132, -0.255278021, -0.215565309, -0.047921833, -0.010337651, 
  -0.051840868, -0.026360884, -0.013982250, -0.215932190, -0.151488140, 
  -0.192081213,  0.016588444, -0.138298243, -0.074795969,  0.082208313, 
  -0.023717972,  0.046964578,  0.103585556, -0.146755770,  0.033199601, 
   0.009834069,  0.183059707, -0.120727785, -0.091467448, -0.026298018, 
  -0.090098836, -0.146055311,  0.059147239, -0.130522683, -0.327352673, 
  -0.032901343, -0.008052451, -0.081896767,  0.021205675,  0.028744437, 
  -0.012017577,  0.001949851,  0.171456829,  0.144576520, -0.077056400, 
   0.143007264,  0.118495196, -0.211370483, -0.120814629,  0.200928614, 
   0.200538710, -0.099203497, -0.306170732, -0.131222710,  0.034144387, 
  -0.149649695, -0.201279327,  0.044846632, -0.115381539, -0.113144413, 
  -0.107367530, -0.243030936,  0.105714515, -0.035858039,  0.023384964, 
   0.082845606, -0.091961272,  0.039829943, -0.169743866, -0.220456213, 
  -0.078547150, -0.030950464, -0.113243021,  0.020317927,  0.014696291, 
  -0.085569687,  0.031025071,  0.061961360,  0.058303893,  0.163553372, 
   0.131457239,  0.073388934, -0.174796984, -0.231132090, -0.097894080, 
  -0.114376806, -0.015977029, -0.171809405,  0.100977987, -0.134197682, 
   0.039828815,  0.063146375,  0.002081239, -0.136219040,  0.108752884, 
   0.047938451, -0.012059020,  0.071964793, -0.137095466, -0.096507385, 
   0.037442137, -0.049493901, -0.394764364, -0.026712907, -0.158999264, 
   0.046942778,  0.041587900,  0.050000980, -0.073036052,  0.078334361, 
   0.005124127,  0.032862347, -0.144474715,  0.104194671, -0.051167544, 
   0.006059099,  0.049657807,  0.113394782, -0.097607337, -0.005664609, 
  -0.075442448,  0.172067612,  0.069568440, -0.046138328, -0.012601621, 
  -0.019479824,  0.045432992, -0.055756293, -0.008285854,  0.022045100, 
   0.043209277,  0.158764184,  0.053043999,  0.115710542,  0.055827200, 
  -0.171808973,  0.139882460, -0.044585198,  0.134872735,  0.064352959, 
  -0.049704570, -0.124408983,  0.092425607,  0.051374745,  0.002851412, 
   0.074779689, -0.001970050, -0.012269182,  0.099751957, -0.016504683, 
   0.053645253, -0.031114515,  0.099679269, -0.045484126,  0.099543735, 
   0.173014700, -0.083272770,  0.127732202,  0.125677601,  0.033513721, 
   0.194738925,  0.039154202,  0.014149640,  0.004430288,  0.185552821, 
  -0.050458018, -0.066237949,  0.125654191, -0.071339905, -0.057560299, 
  -0.151241660,  0.121198542, -0.052961465, -0.086071834,  0.015503637, 
   0.139327258, -0.005268781,  0.090757407, -0.051342867,  0.025894005, 
   0.025731800, -0.077370383,  0.126924768, -0.047286164, -0.049464516, 
   0.038890436, -0.143142536, -0.058609515,  0.119319484,  0.090027831, 
  -0.005606863, -0.014114128,  0.042420421, -0.031221740, -0.093735039, 
   0.029626010, -0.059787370, -0.046734668,  0.089750364,  0.125362605, 
   0.118149474,  0.092706695, -0.060796279, -0.320941001, -0.098171018, 
  -0.000243680,  0.124248601,  0.070619777, -0.002280782, -0.065332212, 
  -0.006531480,  0.057539646,  0.105561346, -0.053952929,  0.069656946, 
  -0.000675259, -0.114983872,  0.005913535,  0.009224704,  0.026185695, 
   0.048701398, -0.022829808,  0.011940272,  0.005595188, -0.048857667, 
  -0.044908017, -0.004090562, -0.038121559,  0.096375227, -0.026947983, 
   0.143168077, -0.142979681,  0.001795397,  0.023356337, -0.044754192, 
   0.024610197,  0.097619720, -0.044978775,  0.044253714, -0.041344166, 
   0.178224295,  0.160087690,  0.126256242,  0.029884133,  0.091728777, 
   0.109476805, -0.093372338,  0.077004470, -0.188632444,  0.001445460, 
   0.182776853,  0.092638686,  0.135154977, -0.134594589, -0.044957601, 
  -0.057241827,  0.154713452,  0.179514408, -0.028297404, -0.042853538, 
  -0.005537737,  0.031833120,  0.083019808, -0.183804780, -0.025676703, 
  -0.035752669, -0.008318787,  0.032531515,  0.021624712, -0.287634999, 
   0.116451144,  0.099240661, -0.059199058,  0.112606965,  0.108020037, 
   0.079595439,  0.029294126, -0.144828156, -0.095804222,  0.041621488, 
   0.166212872,  0.038384039,  0.018426064,  0.077426538, -0.075842761, 
   0.137736961,  0.033559836, -0.047289472,  0.118131787,  0.082418926, 
  -0.191991165,  0.071818061,  0.266548842,  0.186213076, -0.030834731, 
   0.118436195,  0.031846024, -0.031351678, -0.187685966, -0.053423159, 
  -0.038557719,  0.066795871,  0.162301078,  0.099680811,  0.056053739, 
  -0.075571857, -0.229692176, -0.205273718,  0.209661618,  0.201497182, 
   0.047931403, -0.022729093,  0.208973125,  0.167008087, -0.167604551, 
   0.007218409,  0.025775412,  0.005967327,  0.018721450,  0.207165733, 
   0.060601078,  0.000423811, -0.053282872,  0.066924639,  0.090955831, 
   0.129723251, -0.126858577, -0.075788617, -0.004059333, -0.080875143, 
  -0.156782508, -0.185802549,  0.144305602, -0.097617626, -0.016680276, 
   0.041841071, -0.146196842, -0.145364657,  0.026799498,  0.113321066, 
  -0.031568080,  0.077979609,  0.124021314,  0.029417634, -0.134281456, 
   0.003461532, -0.015802026, -0.066311218,  0.085347034,  0.066553973, 
   0.111948699, -0.022491610,  0.127088264,  0.150942504,  0.107125677, 
   0.155718774,  0.126454145,  0.154269502,  0.133854166, -0.119996719, 
   0.045773007,  0.059154734,  0.086473919,  0.097149409, -0.222063795, 
  -0.104999311,  0.093806595,  0.080282211, -0.127997071,  0.102068432, 
  -0.179054037,  0.015253345, -0.266415179, -0.011084947, -0.074760944, 
  -0.085162230, -0.235540286, -0.089725263, -0.189608023, -0.029022984, 
  -0.093178079, -0.253983408,  0.134553075,  0.041783087, -0.079522848, 
  -0.241917714,  0.244835138,  0.087324522, -0.049092632, -0.044430263, 
  -0.197772726, -0.159815103, -0.106629558,  0.022074752,  0.050452307, 
  -0.043443181, -0.024714090, -0.213492438, -0.146070555, -0.241927594, 
   0.097328961,  0.000510550, -0.222709656, -0.179933921, -0.100041367, 
   0.058931515, -0.138959557, -0.160219207, -0.011186462,  0.141292021, 
   0.046253435, -0.052472901,  0.053713832,  0.028654817, -0.126771972, 
  -0.144433752, -0.118147269, -0.094805345, -0.243834898, -0.055695854, 
   0.012495889,  0.017283846,  0.035571054, -0.104303367,  0.065063417, 
  -0.074231572,  0.152387217,  0.118974045, -0.066269420, -0.129760444, 
   0.017348874, -0.153471768,  0.118978880,  0.251187146,  0.003482072, 
  -0.009534368, -0.199008673, -0.098961093, -0.053983223, -0.093281060, 
  -0.035287492, -0.095814668, -0.203152940, -0.149304703, -0.037438687, 
  -0.072824091,  0.061692316, -0.193286791,  0.027034394,  0.045602329, 
   0.028309828,  0.034135472, -0.086996622, -0.233278975, -0.160554394, 
   0.031777732, -0.212166607, -0.009959580,  0.005625561,  0.104059234, 
   0.175713748, -0.146635741, -0.056780890, -0.003852750,  0.086451821, 
  -0.128384471, -0.050191414, -0.211842507, -0.208099708, -0.043272015, 
   0.003492400, -0.096389629, -0.011168416, -0.174883902,  0.226474196, 
  -0.115339212,  0.023154255, -0.130148798,  0.019263349,  0.065843076, 
   0.059479546, -0.172415838, -0.131999120,  0.035928439, -0.096763320, 
  -0.108025260, -0.449919939,  0.147331163, -0.174055010,  0.074499771, 
  -0.044763729,  0.131606832, -0.002855971,  0.195496991,  0.024957146, 
  -0.011666476,  0.026917094,  0.123001806,  0.023150371,  0.066764906, 
   0.154484317,  0.033996884,  0.116327748, -0.050194629, -0.111883268, 
   0.158993155,  0.003364990, -0.131225765,  0.175883561, -0.021271180, 
   0.226757184, -0.048668403,  0.098408721, -0.036736164, -0.068528578, 
   0.246899128,  0.026547838,  0.128727987,  0.199674651, -0.231033027, 
  -0.121676877, -0.019186480,  0.027732998,  0.023593517,  0.100585423, 
  -0.048931215,  0.048822735,  0.050823137, -0.034219306,  0.134586290, 
   0.003235871, -0.082033165, -0.132864669,  0.050151274,  0.099851288, 
   0.036783945,  0.062650152, -0.036136888,  0.004903724,  0.134365633, 
   0.012992309,  0.004330758,  0.087721556,  0.031217650,  0.025478367, 
   0.041237552,  0.062828593,  0.029369392,  0.083191894,  0.086739734, 
  -0.056457877,  0.037003372, -0.001542250,  0.110206865,  0.076904438, 
   0.083634064,  0.001047072, -0.034470983,  0.107208431, -0.132280052, 
   0.032588154, -0.068174228,  0.077285618, -0.032468811,  0.095936783, 
   0.070215262,  0.147921264, -0.033980247,  0.061791129,  0.039624680, 
  -0.105855390,  0.024916617, -0.013556956, -0.011789468,  0.032021284, 
   0.037256222,  0.251805991,  0.072877757,  0.053529836,  0.090177819, 
   0.054915849, -0.053323667,  0.120904058,  0.063406415,  0.010720858, 
   0.002419822, -0.095543705, -0.161896765, -0.109779462, -0.049100555, 
  -0.087308154,  0.107156239,  0.010326964,  0.045148693, -0.144464821, 
  -0.021059923,  0.126390144,  0.002532430,  0.162063181,  0.128395930, 
  -0.074494384,  0.094363175, -0.056401629, -0.073665470, -0.087845907, 
  -0.049591027,  0.066748120,  0.085107408,  0.055039741, -0.112846933, 
   0.053683411,  0.077687316,  0.097637974,  0.018557349,  0.016131869, 
   0.006010598,  0.142552406, -0.036134109, -0.140804008, -0.018422855, 
   0.053308502, -0.026369156,  0.101164840, -0.064462572,  0.103788182, 
   0.029624684,  0.067024425, -0.064085700,  0.050331216,  0.119245924, 
   0.044243477,  0.015011541, -0.099878706, -0.013562255,  0.020025209, 
  -0.042417664,  0.169653296, -0.115234487,  0.068761885, -0.018331353, 
  -0.046420597,  0.093965225, -0.127311110,  0.007321660,  0.106698468, 
   0.080416523,  0.083451182, -0.274268597, -0.162674770, -0.043313518, 
   0.136147708,  0.056183625, -0.024095684, -0.071696937,  0.133761898, 
   0.111358330,  0.133055985,  0.060134854,  0.146365657,  0.136571690, 
   0.067992494, -0.162864685, -0.011470748, -0.035592768,  0.132557034, 
   0.055039525,  0.070142150,  0.117804989, -0.175268590, -0.013394956, 
  -0.012960172,  0.006756772,  0.040063530,  0.030827207,  0.064022236, 
  -0.092585675,  0.164625287,  0.122093834,  0.111513786,  0.160460174, 
   0.185443833, -0.110168941, -0.052334007, -0.057001855, -0.010364187, 
  -0.105726086,  0.103865013, -0.137112200,  0.079384506, -0.282024384, 
  -0.248583138, -0.124564119,  0.062297288,  0.207338735,  0.000886040, 
   0.093016684,  0.022488223,  0.074749507, -0.212693319, -0.115905739, 
   0.192281470,  0.115272127,  0.200061992,  0.170629844,  0.066092029, 
   0.118667051, -0.046632934, -0.096024476, -0.079852782,  0.103244349, 
  -0.051565435, -0.051997006,  0.090542927,  0.010500602, -0.142398641, 
  -0.157007441,  0.033396721, -0.107044533,  0.095972814,  0.170548901, 
  -0.025240876, -0.236690894,  0.044520497,  0.141498670, -0.123382695, 
  -0.073541395,  0.097488560,  0.122487552, -0.010119549,  0.025220294, 
  -0.140510961, -0.085057519, -0.035620816,  0.113899939,  0.012856130, 
   0.002413854,  0.060316585,  0.110420778,  0.167144313,  0.085546002, 
   0.027507005, -0.078271151, -0.021895805, -0.168623716,  0.069464974, 
  -0.041765261, -0.007090676, -0.069962084, -0.225894123, -0.062696375, 
  -0.054748520, -0.009354810, -0.031090800, -0.080774583, -0.121857226, 
   0.047652356, -0.285135746,  0.095143482, -0.126202345, -0.157097474, 
  -0.182384267,  0.028777268,  0.002857864, -0.039133199, -0.010055940, 
  -0.191922158,  0.132079899,  0.004645775, -0.108534984, -0.299497277, 
   0.145412549, -0.124642901, -0.042642783,  0.008493926, -0.186742708, 
  -0.198893264, -0.147679061,  0.046612937,  0.017262910, -0.233641997, 
  -0.070800446, -0.048196968, -0.178829655, -0.277528256, -0.057800144, 
   0.060042117, -0.036333311,  0.035233367, -0.148819685,  0.165558368, 
  -0.061846536, -0.037410572, -0.069855623,  0.161979109,  0.041631836, 
  -0.020964850,  0.047535066, -0.026763093, -0.020875260, -0.009202154, 
  -0.223447427, -0.021422129, -0.221314937,  0.016272098,  0.043407362, 
  -0.103594869,  0.001773847,  0.096428901, -0.036025580,  0.051411528, 
   0.077425927,  0.087438822, -0.095746495, -0.031156166, -0.149779841, 
  -0.356523991,  0.067025997,  0.270216644, -0.062748119, -0.079366915, 
  -0.121129125, -0.046874288,  0.069704413, -0.126545772, -0.136644050, 
  -0.018280271, -0.031100329,  0.092372641,  0.039163966, -0.092328876, 
   0.056643579, -0.278316259,  0.089053944, -0.003551074, -0.016426574, 
  -0.013147339, -0.037352614, -0.049118008, -0.088494204, -0.096706450, 
  -0.054864708,  0.001979126,  0.000335518,  0.180196434,  0.133802101, 
  -0.004004418,  0.095994107, -0.101739623,  0.062895067, -0.147826359, 
  -0.014096528, -0.173618779, -0.060775101, -0.157299310, -0.104183421, 
  -0.098079242,  0.069334134, -0.001908346,  0.101734877,  0.018638737, 
  -0.245248467,  0.001608779, -0.000359783, -0.000716073,  0.008555873, 
  -0.153142929, -0.182604983, -0.029696453, -0.067250423,  0.035488214, 
  -0.358853489,  0.046443272,  0.005389143, -0.087671258,  0.096640684, 
   0.007248802, -0.083673127,  0.111228220, -0.074249282,  0.118636645, 
  -0.065467343,  0.015017189, -0.079211861, -0.037427530,  0.089982018, 
   0.103835009, -0.061150722, -0.030803500, -0.028522003,  0.139245197, 
  -0.102530792,  0.038334470,  0.202458978,  0.124960355,  0.139935672, 
   0.139155447, -0.064849675, -0.122728363, -0.025033154,  0.299070925, 
   0.067861028,  0.040732767,  0.110850863, -0.146721661,  0.052979920, 
  -0.067147240,  0.055744499,  0.028048217,  0.054169133, -0.045357142, 
  -0.155556187,  0.029619666, -0.007139863, -0.004474012,  0.139910758, 
  -0.179270476, -0.026534026,  0.020076266,  0.039590422, -0.016840365, 
   0.181583345,  0.159576967,  0.027110666,  0.057230484, -0.003830788, 
  -0.094860584, -0.040937379,  0.041248508,  0.095016055,  0.017356187, 
   0.154522762,  0.056982376,  0.001248674,  0.048333112,  0.124063678, 
