// -----------------------------------------------------------------------------
// 
// This file is auto generated by model_export.py
// -----------------------------------------------------------------------------
#ifndef MNIST_MODEL
#define MNIST_MODEL

// ....
#include <stdint.h>
#include "infercat.h"

// -----------------------------------------------------------------------------
//
// -----------------------------------------------------------------------------

// ...
float mnist_model_gru_output[128];
  
// ...
static const float mnist_model_gru_weights[10752] = {
  -0.011884301, -0.124563858, -0.026230693,  0.109592289, -0.091771960, 
  -0.089149185, -0.090846024,  0.051796712,  0.118029445,  0.082469717, 
  -0.079849862, -0.035612158,  0.084655441,  0.100942880, -0.059836905, 
  -0.065910242,  0.025441252, -0.030802837, -0.118610293, -0.070808463, 
   0.076079451, -0.086759657, -0.054034963,  0.102997884, -0.029919563, 
   0.001158487,  0.104219258, -0.007751198,  0.120015815, -0.107755825, 
   0.012044547, -0.032730106, -0.071887337, -0.007369530,  0.095862523, 
   0.036574502, -0.006611953, -0.053098973,  0.062380057, -0.111907087, 
  -0.086836316,  0.015828019, -0.127870530,  0.070076570,  0.042895019, 
  -0.099403642, -0.118709333, -0.010496608, -0.108074561,  0.039342273, 
   0.030050738,  0.108918011, -0.026204932, -0.088242859,  0.027501998, 
   0.046101358,  0.014269889, -0.027522402,  0.073195361, -0.003419987, 
   0.123675846, -0.053103901,  0.048100300, -0.037358049,  0.053029925, 
  -0.062904783, -0.074986033,  0.046971794,  0.035433389,  0.128785387, 
   0.006765096,  0.001357360, -0.040185958,  0.006648223, -0.078428827, 
   0.028688446,  0.015478666, -0.139329925,  0.013779423, -0.042027235, 
   0.007247994,  0.038638152,  0.005311034,  0.017694164,  0.118725374, 
  -0.088918723, -0.075846180, -0.010265622,  0.038829584,  0.043031681, 
   0.103405431,  0.103374422, -0.093837216,  0.022170136, -0.111867346, 
  -0.109558582,  0.004175847,  0.001156741, -0.051965073, -0.015046707, 
   0.032689415, -0.006107633,  0.041295193, -0.125026718, -0.007082742, 
   0.104554027, -0.054157034,  0.091485843, -0.114715196,  0.096580572, 
  -0.081986859, -0.047092002,  0.085468203,  0.061790194,  0.110631302, 
  -0.119953707, -0.042985987,  0.066973783, -0.131325200,  0.076022498, 
  -0.026742725, -0.036693517,  0.002624097,  0.097103298,  0.025756000, 
   0.026513979, -0.029432045,  0.024865512,  0.113278307, -0.029445155, 
  -0.116539717, -0.026714103,  0.004072580,  0.117452092, -0.095626809, 
  -0.090261929,  0.104088679, -0.092662983,  0.091971226,  0.016797185, 
   0.051704142,  0.028343331, -0.074449845,  0.006421190,  0.043393012, 
  -0.050800975,  0.036829751,  0.091488048, -0.010480884,  0.042383991, 
   0.019891305,  0.035878241, -0.063981950,  0.046063885, -0.072075129, 
   0.069866352, -0.013281202, -0.047864672, -0.037596479,  0.053319875, 
  -0.132206768, -0.088025101,  0.047173414, -0.136420980,  0.106457613, 
   0.062446583, -0.119619228,  0.076740906,  0.055335704,  0.040540416, 
  -0.072573714, -0.020635981, -0.000282540, -0.078618273,  0.107237175, 
   0.072392851,  0.106675074,  0.039043780, -0.103255779,  0.038635410, 
   0.075703919,  0.107838340,  0.024002802,  0.024021510,  0.071867570, 
   0.111891136,  0.076753147,  0.066737756,  0.081519902, -0.056279846, 
  -0.068364963,  0.008736524,  0.019440558,  0.104245156, -0.040718146, 
  -0.069192968,  0.066549122,  0.123382367, -0.066718362,  0.003465137, 
  -0.041386958, -0.005322116, -0.052061502, -0.042111874,  0.004235832, 
  -0.089978449,  0.094529837,  0.018190863,  0.110318258,  0.060874339, 
  -0.041859109, -0.049376991,  0.118072182, -0.055768546, -0.058419064, 
  -0.018947691, -0.029221863, -0.087650321,  0.054716017, -0.082785949, 
  -0.076723613, -0.090380162, -0.014869235,  0.025045678,  0.015091621, 
  -0.020795505, -0.061505418, -0.001404164, -0.054432385, -0.008373909, 
  -0.078940541,  0.076867431,  0.059058748, -0.035350684, -0.106488571, 
   0.006848813, -0.049348094,  0.001280624,  0.064621910,  0.046895880, 
  -0.000059341,  0.033309974, -0.153576836, -0.101305231,  0.078810252, 
  -0.008578814, -0.036126789, -0.006225329, -0.015509728,  0.023147214, 
  -0.090341881,  0.045805886, -0.038694717, -0.104050279, -0.052998163, 
   0.077645384, -0.119861342,  0.083058260,  0.010006208, -0.037158858, 
   0.066945590,  0.088283867, -0.028782688,  0.030889058, -0.030795097, 
   0.063557364, -0.071270987,  0.110211797,  0.097138166,  0.104762241, 
   0.125495464,  0.126108751, -0.066328213, -0.004199551, -0.040049028, 
   0.150843054, -0.077038988, -0.043770351,  0.128783792, -0.060446050, 
   0.059579760, -0.102587007, -0.013564869, -0.109848678,  0.048190799, 
   0.116562665,  0.042336732, -0.029930200, -0.026034871, -0.026374338, 
  -0.045087218, -0.136962205,  0.007001865,  0.022806959,  0.007922457, 
   0.067889072, -0.063177921,  0.092687599,  0.135936603,  0.019094186, 
  -0.004655897,  0.001406030, -0.066870973, -0.006061475,  0.051945783, 
   0.063202515,  0.118027598,  0.027712133,  0.035414629, -0.100299999, 
   0.046491120, -0.085325740, -0.088852964, -0.140538976,  0.030930426, 
   0.127057299, -0.041792545, -0.052796908, -0.025129730,  0.068911977, 
  -0.103922807, -0.092053615, -0.027075760,  0.041642714,  0.009753793, 
   0.107923090, -0.097827405,  0.111939177,  0.073201045,  0.031465992, 
   0.059375912, -0.032257643, -0.041377865,  0.122076601,  0.083346404, 
  -0.012607300,  0.122733854,  0.095269717, -0.054745346,  0.013711328, 
   0.001125186, -0.111109383, -0.069614097, -0.035610512,  0.037116870, 
   0.113322817, -0.117878385, -0.024432492, -0.040189676, -0.082806982, 
   0.092258021,  0.058369443,  0.038135540,  0.058849096,  0.074672617, 
   0.088915497, -0.123499282, -0.084021308, -0.001687981,  0.078783959, 
  -0.091672987, -0.046874136,  0.008323028,  0.067220166, -0.069514394, 
  -0.087586433, -0.030821411, -0.070916392,  0.055968031,  0.057666592, 
   0.070997864,  0.079366244, -0.052457929,  0.090359278,  0.054867893, 
  -0.061164305,  0.148743987, -0.009806619, -0.066596091,  0.005472746, 
  -0.009636704,  0.109071977, -0.008919949,  0.098556682,  0.028550107, 
  -0.049464814, -0.097107179, -0.045199491, -0.086048916, -0.008633612, 
   0.095418923, -0.154468164,  0.019627007,  0.096287869, -0.047792546, 
  -0.083823778, -0.115207829,  0.007508338, -0.174585879, -0.139517814, 
  -0.055810090, -0.152064413, -0.095642217,  0.064561494, -0.118250661, 
   0.050785445, -0.180400074, -0.058153369, -0.098031357,  0.127095416, 
   0.036223024,  0.016305551, -0.132406756, -0.142450109, -0.026113102, 
   0.087000623,  0.054123919,  0.010185208, -0.047121495, -0.018564163, 
   0.024698334, -0.065618768, -0.096922189, -0.120776318, -0.001071514, 
  -0.090737291,  0.100097910,  0.044650517,  0.046753246, -0.071135312, 
  -0.109294668, -0.030666221, -0.007790579, -0.035272811, -0.017793918, 
  -0.023384660, -0.120089225,  0.042395469,  0.026312338,  0.057862811, 
   0.040477052, -0.028356310,  0.032392215, -0.029073318, -0.004916370, 
  -0.121196046, -0.024283497,  0.093857773,  0.041939091, -0.023357764, 
  -0.154314145, -0.171472490,  0.114606753, -0.073764823, -0.052540757, 
   0.097422503, -0.053626701,  0.027000502, -0.118639432, -0.156664357, 
   0.140402868, -0.094867714,  0.080770805,  0.086874984, -0.078059010, 
  -0.015949525,  0.022344168,  0.010972574, -0.022722175, -0.052369170, 
  -0.025087671, -0.008873838,  0.009543840, -0.088104993,  0.116261169, 
   0.072449431,  0.090087958, -0.082942389,  0.054390322, -0.108338833, 
   0.060902137, -0.054048840,  0.046758063, -0.069233388,  0.012815778, 
   0.099798150, -0.092896804,  0.037226759, -0.063673399, -0.090942733, 
  -0.089386150,  0.007431229,  0.087321490, -0.112590685, -0.052301541, 
   0.007487045, -0.025095938,  0.010484218, -0.014609139, -0.016341094, 
   0.004788288, -0.118809521,  0.075047165, -0.108256526,  0.091004841, 
  -0.033453427, -0.100147337,  0.127185404, -0.008515558,  0.027083769, 
   0.176519156,  0.129351810,  0.047603182, -0.044962730, -0.018342704, 
  -0.110209934, -0.011637262, -0.081070341,  0.049672693, -0.012986725, 
   0.017279208, -0.050208662,  0.047699355, -0.003829663,  0.135666862, 
  -0.017327763,  0.041029155,  0.055211473, -0.011584602,  0.045311924, 
  -0.074639499, -0.122139677, -0.081301093,  0.112787627,  0.059131492, 
   0.017341450,  0.051865820, -0.006329510, -0.075105585,  0.066691749, 
  -0.038650859, -0.064159185,  0.074785858,  0.116436981,  0.118862048, 
   0.052949827,  0.032901023,  0.086353444, -0.004742035,  0.116415061, 
   0.108436465,  0.149417683, -0.045971446,  0.056917492, -0.137226284, 
   0.019465892,  0.101473950, -0.087549955,  0.023556016,  0.057353631, 
  -0.022972370,  0.017689237, -0.006634335,  0.093938634, -0.087869063, 
  -0.142354846,  0.054265499,  0.143161133,  0.014058323, -0.113148861, 
  -0.141672611, -0.103598826, -0.000523124, -0.049655519,  0.053141288, 
  -0.090659864, -0.077892609,  0.001837358, -0.045311794,  0.071133330, 
  -0.146846548,  0.039375901,  0.036808342,  0.083784021, -0.067193300, 
   0.059140809, -0.026992507, -0.010731842, -0.102309458,  0.060161974, 
   0.011644157, -0.051665541,  0.001979354,  0.029733993, -0.034804568, 
  -0.012303839, -0.103872664, -0.053169556,  0.054891370,  0.110088885, 
  -0.046264101, -0.073800527,  0.069714189, -0.140003636,  0.054963123, 
  -0.062863335, -0.024690257,  0.052731652,  0.053147916, -0.092036970, 
   0.126458526, -0.028483858, -0.000271631,  0.036735512, -0.034213591, 
  -0.126719698, -0.078036107,  0.093443446,  0.081707574, -0.107068032, 
  -0.005315460, -0.091660045,  0.060840312, -0.049491156, -0.006149669, 
  -0.035166688,  0.019276107,  0.061158683,  0.110574611,  0.077981949, 
  -0.010413855,  0.084082454, -0.136920899, -0.023947263, -0.020217283, 
  -0.017814249,  0.047541648, -0.113039128,  0.136730134, -0.058684722, 
  -0.033784654,  0.093409412,  0.094791919,  0.131136388,  0.006088665, 
   0.147449702,  0.154140085, -0.045072630, -0.062200412, -0.123321347, 
   0.009011908,  0.072063170,  0.080924258,  0.040974770,  0.061980534, 
   0.075595550,  0.111335881,  0.048313741,  0.065146089, -0.002473082, 
   0.051712230, -0.008542449, -0.020376334, -0.054855257,  0.108416013, 
  -0.031676140, -0.174894154,  0.055240873,  0.076243445, -0.104875982, 
  -0.003934261,  0.064766496,  0.036173858,  0.041983157,  0.062436279, 
   0.137811825,  0.015111869,  0.048941091, -0.074078657,  0.004780969, 
   0.095989838, -0.120612584, -0.083613105, -0.063072525,  0.062587328, 
  -0.110352896,  0.199941173, -0.075644307,  0.052094743,  0.123447411, 
   0.070864253, -0.055994943,  0.054225564, -0.115508102, -0.035195842, 
   0.071566291,  0.040462457, -0.110166550, -0.026911628,  0.026231248, 
   0.072155587, -0.061477728, -0.140928999,  0.026730210,  0.052904721, 
  -0.073173128, -0.002525575,  0.109454952, -0.133450970,  0.064090192, 
   0.037179414, -0.047522746,  0.096617937,  0.154392228, -0.047853243, 
   0.123868562, -0.115047589, -0.030064242, -0.084233813, -0.109501913, 
   0.091824852,  0.040365543,  0.017295506, -0.027860882, -0.141609445, 
   0.066273928, -0.038346048,  0.108892798,  0.099321395,  0.078272983, 
   0.049687818,  0.023315586,  0.001175408, -0.140406802, -0.109741710, 
   0.086105570,  0.014188603, -0.038826764,  0.141735882,  0.029635150, 
  -0.032463357,  0.124111563,  0.039099760, -0.053958386, -0.049009711, 
  -0.015179066,  0.009536795,  0.126030013,  0.105611183, -0.041729476, 
   0.127604246, -0.085122220, -0.105753221,  0.008489168, -0.028212089, 
   0.037510645,  0.038216256, -0.046045564, -0.088484712, -0.060598392, 
   0.021657430,  0.152577385,  0.126376763,  0.018276827, -0.125013724, 
  -0.090127870, -0.116647832, -0.022615708, -0.194436997, -0.120676473, 
  -0.020899879,  0.074721649, -0.024999278, -0.080798082,  0.070345074, 
  -0.126107454, -0.037340991, -0.083687633,  0.019381406, -0.113454714, 
  -0.074434802, -0.195853055,  0.033248372, -0.057425883, -0.035540737, 
  -0.079706825, -0.089459106, -0.082067803, -0.009413563, -0.047846496, 
  -0.048366569, -0.096320748, -0.110774465, -0.120644748,  0.158437550, 
  -0.055403057, -0.055868398,  0.029637337, -0.073180281,  0.063456967, 
   0.020494061,  0.071627915, -0.080639660,  0.010502933,  0.085576355, 
   0.125454217,  0.063701317, -0.061071280, -0.061070450, -0.029045409, 
  -0.099121831, -0.152516007, -0.128616154,  0.115468703, -0.054377522, 
   0.014369454, -0.008185429, -0.143589035, -0.069854103, -0.075649790, 
  -0.182555258, -0.050131306, -0.024451680, -0.098707289, -0.075348005, 
   0.023152756,  0.112482212, -0.039470054, -0.078551933, -0.062235229, 
   0.035989735, -0.074242353,  0.062838554, -0.040763337, -0.029999968, 
  -0.038327232,  0.046457082,  0.016181074,  0.063438721,  0.028125197, 
  -0.069708303,  0.026204804, -0.018502291, -0.056028716, -0.156646207, 
   0.201045230,  0.085561991, -0.060445957, -0.119223207,  0.094720542, 
  -0.031978499, -0.062980197, -0.031015994, -0.261220962, -0.012605533, 
  -0.061063487,  0.021590728,  0.013824345, -0.054409526, -0.090585619, 
   0.041765276,  0.127430245, -0.027765667,  0.056029607,  0.040652703, 
  -0.131940320,  0.116237208,  0.071644872, -0.032495026,  0.084676601, 
  -0.144043207, -0.044270124, -0.010028573, -0.071552545, -0.108563319, 
  -0.082667872, -0.081322476,  0.007086940, -0.069313146, -0.030224226, 
   0.143374637, -0.081886113,  0.000361421, -0.050631132, -0.148878559, 
  -0.099376887, -0.047585335,  0.120775774, -0.126932427,  0.110410482, 
  -0.084834024, -0.038232185, -0.029126974, -0.110594735, -0.010740100, 
  -0.019945400,  0.056487199,  0.085606195, -0.079073787,  0.062182639, 
   0.141664177, -0.118228018,  0.009018601, -0.191544473, -0.026384614, 
   0.051353313, -0.100315057,  0.132855386,  0.062538758, -0.010193090, 
   0.052816462,  0.145216748,  0.087395407,  0.003741264,  0.019327329, 
   0.056121312, -0.001480450,  0.109368667, -0.064875595,  0.106353045, 
   0.047307737,  0.173163563, -0.093770035,  0.060361441,  0.004405678, 
  -0.026028274, -0.009301101,  0.061561622,  0.051887538, -0.031281639, 
  -0.078282014,  0.038324788, -0.027159370, -0.094612390,  0.020555625, 
   0.180592626, -0.107251078,  0.153404981,  0.028525222,  0.029695548, 
  -0.037560787,  0.004873030,  0.118197344, -0.061375961,  0.044665888, 
  -0.041982900,  0.097707741, -0.014872227,  0.105066627, -0.039481793, 
   0.025177766, -0.022814866, -0.045632455, -0.048856866,  0.074143663, 
  -0.007998786,  0.154986233,  0.057701960, -0.063795120, -0.068251513, 
   0.041033711,  0.058475155, -0.191387773,  0.027083782, -0.031574488, 
  -0.077262260,  0.055355344, -0.085153855,  0.143730760, -0.077285402, 
  -0.015040755,  0.131255910,  0.019221555,  0.012623953,  0.089832902, 
  -0.124658562,  0.104105197,  0.016521448, -0.100025982,  0.016315181, 
   0.032364175, -0.018860338, -0.064035863,  0.129484087,  0.133951217, 
  -0.055316497,  0.120217785,  0.040403403,  0.049037021, -0.061807465, 
  -0.004732291, -0.036522575,  0.127589971,  0.137206033,  0.023478618, 
  -0.001939785, -0.086656056, -0.055667330,  0.111999094,  0.005169047, 
  -0.067712046,  0.027280448,  0.174495205, -0.080022275, -0.026787097, 
  -0.042309251, -0.008390981,  0.026418608, -0.000154031,  0.070840031, 
   0.129324287, -0.093104780,  0.118031062,  0.075528301, -0.091688924, 
  -0.099812277, -0.014449649,  0.019591874,  0.105882205,  0.058616951, 
  -0.092569031,  0.101876870, -0.033658974,  0.110171072,  0.026710724, 
   0.060598634,  0.051680386, -0.005994625,  0.033707321, -0.015069035, 
  -0.054459333, -0.139183149, -0.027005350,  0.087509118,  0.098170958, 
  -0.056654498,  0.148168936,  0.170165017, -0.032567479, -0.040771425, 
  -0.044573594,  0.068977550, -0.074996695,  0.027932998,  0.077800415, 
  -0.136308178,  0.032305293,  0.019145042, -0.079015665,  0.225546673, 
  -0.125023857, -0.147366837,  0.062021028,  0.129964828,  0.074536212, 
   0.002360527,  0.076056547, -0.106105410, -0.105835587, -0.031308230, 
  -0.063548796,  0.034295924, -0.094382212,  0.028199242,  0.007974350, 
  -0.045629658,  0.027935835,  0.009742630,  0.010599168, -0.070976011, 
   0.148920596,  0.066955179, -0.028502837,  0.137018144, -0.054994248, 
   0.039024230,  0.161298320, -0.048459161, -0.110374324,  0.046468701, 
   0.023939146,  0.132148430, -0.080727451,  0.011992233,  0.063696109, 
  -0.100778401, -0.061137360,  0.027402969, -0.005281874,  0.049105603, 
   0.119568184,  0.115450934, -0.140090600, -0.099446163, -0.146427974, 
  -0.001486608,  0.169029057, -0.105935775,  0.095568731,  0.149613470, 
   0.094834402,  0.006149891, -0.136983663,  0.026521634,  0.065651596, 
   0.046453942, -0.039737344, -0.112460248, -0.072167002,  0.131554976, 
  -0.023077186, -0.006892911, -0.006236054,  0.070608258, -0.081885807, 
   0.086637013,  0.140448332, -0.178653702, -0.128392667,  0.114781342, 
   0.042218022,  0.111253865, -0.053577121, -0.052220203, -0.011683187, 
  -0.034388233,  0.003022353, -0.125349149,  0.049426068,  0.027530771, 
   0.080378450, -0.006270885,  0.025482701, -0.000312110,  0.078769170, 
  -0.012492551, -0.035168361, -0.002777205, -0.023582412,  0.024769280, 
  -0.016441977, -0.123992741, -0.158232167, -0.105867691, -0.126461089, 
   0.022736760, -0.076216899, -0.003512464,  0.070648193, -0.137507275, 
   0.046537980,  0.027125759, -0.118492641,  0.011264917, -0.111086063, 
   0.010043074, -0.081897803,  0.111544289,  0.069827430,  0.088649616, 
   0.096808434, -0.042622697, -0.063205689,  0.102653444,  0.030751135, 
  -0.065342285, -0.012348251, -0.064620599,  0.088548131,  0.061040770, 
   0.036734238,  0.095095061,  0.036608748, -0.012633473,  0.034121335, 
  -0.118406571,  0.063778326, -0.124056391, -0.004949610, -0.116216250, 
  -0.056686509, -0.231964305, -0.064555354,  0.149597779,  0.004410409, 
  -0.071330331,  0.061609305, -0.064789630, -0.138783604, -0.103991419, 
   0.052295048, -0.004044648, -0.136843801, -0.068778053, -0.063653491, 
  -0.026001662,  0.059439387,  0.030441960, -0.011865137,  0.120916702, 
   0.036356427, -0.084278464,  0.118986435, -0.184807405, -0.076183759, 
   0.073800065,  0.222877651, -0.154628828,  0.017951427, -0.061140820, 
   0.131050989, -0.094766483, -0.027604790,  0.060070258,  0.007009396, 
   0.038281176,  0.051354580, -0.130119398, -0.047443368, -0.108031765, 
  -0.092151709, -0.029746059,  0.054900706,  0.015332567,  0.016141616, 
   0.046888851, -0.067488082, -0.075419247, -0.073563412,  0.173061430, 
   0.079165988,  0.040293977, -0.100734502, -0.171919614, -0.052507311, 
  -0.096713930, -0.065351151, -0.187871844, -0.017321859, -0.047001604, 
   0.066626348, -0.072536685,  0.028379180,  0.068484642, -0.044450838, 
   0.003507736, -0.011833299,  0.008034373, -0.037573744, -0.129341692, 
  -0.155833915,  0.089631967,  0.014868805,  0.014017611,  0.064642429, 
  -0.019073574, -0.210369021, -0.166216820, -0.233137906, -0.052500132, 
  -0.114111729,  0.023906458,  0.023593651,  0.007015370,  0.081205755, 
  -0.013807972,  0.089708187, -0.004004566, -0.108914040,  0.118614174, 
   0.138766676, -0.090478405,  0.023556590,  0.092034511, -0.019647181, 
  -0.077677436,  0.051356256, -0.064168207, -0.184016556,  0.088572189, 
  -0.022142135,  0.010613439,  0.071622185, -0.072399721,  0.129486382, 
  -0.121617705,  0.147945061, -0.125978172, -0.008839109,  0.121094331, 
  -0.041801810, -0.023961687, -0.000226039, -0.014581082, -0.005151482, 
   0.008626778,  0.117706753, -0.078893676,  0.018333569, -0.052064504, 
   0.052626465,  0.132576704,  0.020672830,  0.091951169, -0.053951003, 
   0.070555262,  0.028197831, -0.018513232,  0.177774787,  0.163339168, 
  -0.102027208, -0.045553185, -0.096861750,  0.031067671, -0.011917382, 
  -0.083813801,  0.082758576,  0.093692288,  0.079717427,  0.057689641, 
   0.029466346,  0.073206365,  0.104081482, -0.101950914,  0.027056407, 
  -0.072225705,  0.005231509, -0.024591522,  0.101703696, -0.125104114, 
  -0.079227075, -0.036734290,  0.079379350, -0.007112845,  0.000571062, 
   0.079443991, -0.212613329, -0.003988727,  0.003743045, -0.011990134, 
   0.067201212, -0.082518540, -0.111110076, -0.089139767, -0.244888663, 
  -0.002528133, -0.092215225,  0.173715979,  0.010466635,  0.078351714, 
  -0.199340895, -0.152249679,  0.181821719, -0.184303567,  0.069458380, 
   0.132808685,  0.185324550, -0.030806880, -0.130873352,  0.018736560, 
  -0.022325652, -0.250541121, -0.049186658, -0.040383250, -0.115682788, 
  -0.190548897,  0.057854254,  0.022942839,  0.199555978,  0.061011456, 
   0.010323710, -0.001250848,  0.166333318,  0.108258605, -0.049975749, 
   0.049796212,  0.104916744,  0.097023666,  0.025803342, -0.049359415, 
   0.001501802, -0.109349027, -0.005710254,  0.112211019,  0.111477345, 
   0.059854895,  0.045012943, -0.146443114,  0.004376762, -0.111382931, 
   0.106315725,  0.048655327,  0.022601578, -0.154232532,  0.006842102, 
  -0.017784759,  0.040220741, -0.083975390, -0.049106017,  0.064158805, 
  -0.132818505, -0.127519935, -0.012789072,  0.078156658,  0.110183671, 
  -0.017950950,  0.065883517, -0.039830677,  0.136029691, -0.088089243, 
   0.058816083,  0.041747905,  0.223476022,  0.062252883, -0.134203330, 
  -0.026769761, -0.096827239,  0.115223616, -0.064502254,  0.013921526, 
   0.197159663,  0.124628268,  0.068872102, -0.071901761,  0.015418404, 
  -0.007076270,  0.086141355, -0.041867688,  0.148002148, -0.089337789, 
   0.079827964, -0.101845972, -0.092466377,  0.197771549, -0.091077797, 
   0.055636827,  0.141483277,  0.223676428, -0.030974964, -0.065156057, 
   0.036529973, -0.179767951, -0.034843817, -0.032040492,  0.049170241, 
  -0.037527096,  0.005509250,  0.008902883, -0.049678113, -0.186727971, 
   0.117536820, -0.007037984,  0.030766867, -0.140918434,  0.025148408, 
   0.014719832,  0.089428745, -0.013647944, -0.181280062,  0.004483249, 
   0.007894499, -0.100164257, -0.088962182,  0.174232572, -0.030141637, 
  -0.039114323, -0.208263978,  0.026679032, -0.095952146, -0.193638474, 
  -0.006838392,  0.025941251, -0.240606248, -0.079006478,  0.041792873, 
   0.155958146,  0.018191246, -0.021916233, -0.081285648, -0.100964829, 
   0.042044103, -0.108733959,  0.027177552,  0.076386400,  0.145793870, 
  -0.137691453, -0.122328781, -0.021181393,  0.203738034, -0.056094524, 
   0.070022933, -0.052061085, -0.100225873,  0.110992670,  0.011224009, 
  -0.029161522,  0.035399042,  0.175873101,  0.112431295, -0.041280981, 
   0.082440384,  0.015097619,  0.065485038,  0.074518748,  0.061537012, 
   0.104264088,  0.051777661, -0.076966725, -0.050523147, -0.116927445, 
   0.090180546,  0.037409745,  0.079552904,  0.108647928,  0.285032421, 
   0.179369733, -0.075906232, -0.023720762,  0.040739644,  0.070877597, 
  -0.108883590, -0.039057735,  0.019213768, -0.132518470, -0.020259587, 
   0.001627935, -0.007905481,  0.104902640, -0.037770566, -0.020988790, 
  -0.096531406,  0.051757585, -0.070802286, -0.167943895,  0.022028545, 
   0.003680904, -0.205951050, -0.096730866, -0.004745738,  0.115960561, 
  -0.225595236,  0.059158180,  0.009317438,  0.015431650,  0.114198573, 
   0.029795228,  0.011474744, -0.168755636, -0.025084194, -0.028711613, 
   0.175066799, -0.135405868, -0.023270337,  0.178902298,  0.157302111, 
   0.170566529,  0.019959148, -0.201077759,  0.034012366, -0.035945497, 
   0.088828437, -0.103582554,  0.127404571, -0.167517766, -0.068517610, 
  -0.032895427, -0.025192084,  0.115862139, -0.022876129, -0.016049268, 
   0.024542321, -0.126270071, -0.011467113, -0.150914550, -0.051927615, 
   0.013985851,  0.022751516,  0.129100427,  0.105244353,  0.161901996, 
   0.093407266,  0.003150352, -0.130351186,  0.106936954,  0.069250211, 
   0.132754385,  0.041965902, -0.003410161,  0.067565612,  0.148303434, 
   0.111264631, -0.116242647,  0.007422491, -0.045314465,  0.139228329, 
  -0.002649436, -0.062959127, -0.037545569, -0.007162463, -0.122972451, 
   0.222498268, -0.144885361, -0.064777471, -0.152097479, -0.101694070, 
   0.046750866,  0.168436661,  0.018870244, -0.020907545, -0.074437231, 
   0.011032247, -0.026770910, -0.082664445,  0.117540054,  0.154192567, 
   0.007605837,  0.036050249, -0.116760314, -0.107801005,  0.143185899, 
   0.038509909, -0.088357963,  0.179245934, -0.050744325, -0.045554388, 
  -0.258533448, -0.040260550, -0.022626834, -0.156419158,  0.101679496, 
   0.015247258,  0.059782114, -0.083269104, -0.226785287,  0.099501975, 
   0.052509494,  0.021074053,  0.020174732, -0.063958414,  0.061079007, 
  -0.178154737, -0.058258135, -0.106048778, -0.037463844, -0.146743730, 
  -0.171428666,  0.162056342,  0.250780523,  0.114444613,  0.028312841, 
   0.140333921,  0.131432429,  0.078182891,  0.086703822, -0.073758431, 
  -0.002709592,  0.060727451, -0.061215483, -0.094889149,  0.059859890, 
  -0.025505586,  0.117591888, -0.102460288, -0.037537985,  0.074267045, 
   0.138070062,  0.129648104,  0.152371421,  0.102639243, -0.021582441, 
  -0.008880832, -0.144358754, -0.032224897,  0.032211024,  0.125424758, 
   0.127037257,  0.051651835,  0.125583515,  0.150163367,  0.067447163, 
   0.120809287,  0.094464712,  0.112075455,  0.095670030, -0.175888002, 
   0.042399574,  0.085796669,  0.034206949, -0.053449314,  0.059430156, 
  -0.003192223,  0.026915718,  0.175198749,  0.218407661, -0.089761831, 
   0.174580753, -0.088264197, -0.112221241,  0.037934419, -0.013362620, 
  -0.041529361, -0.076634645, -0.199515864,  0.086953625, -0.002963676, 
   0.153568760,  0.088356391, -0.046009716,  0.168100879,  0.029159974, 
   0.082330950,  0.027185842,  0.043705262,  0.037429318,  0.058495741, 
   0.003746877,  0.000369801, -0.097014651, -0.150926486,  0.130724654, 
  -0.115845419,  0.010343646, -0.120696381,  0.120326288,  0.140112609, 
  -0.177528203, -0.025204802, -0.057685558, -0.113902867,  0.004867440, 
  -0.035578601,  0.053104252, -0.022739124, -0.033514027, -0.160999671, 
  -0.076669976,  0.248051047, -0.078318097,  0.153443828, -0.001291608, 
   0.184086516,  0.128974497, -0.131022751,  0.090382889,  0.060994215, 
  -0.233260021, -0.016283583,  0.137581989, -0.135590300, -0.145497486, 
  -0.095628381,  0.020108897,  0.154947236,  0.214536831,  0.018157080, 
   0.038241331,  0.116121426,  0.227016911, -0.045229673,  0.010990961, 
   0.079535022,  0.075593852, -0.165755391,  0.057911158, -0.028537676, 
  -0.160673782,  0.026986310,  0.049869161,  0.004119832,  0.195117652, 
  -0.028351696, -0.032355905, -0.159946486, -0.142088473, -0.080903955, 
   0.094282195, -0.133728191, -0.134092540, -0.075464882,  0.036790621, 
   0.196503714, -0.233858809,  0.184392378,  0.071051672, -0.090793595, 
  -0.023445241, -0.201017737,  0.172797620,  0.055807941, -0.187555194, 
   0.081611350, -0.040739875,  0.165687308,  0.137683436,  0.043275170, 
  -0.060779087,  0.100656889,  0.025184114, -0.107733704, -0.046601623, 
   0.082181044,  0.022699870,  0.009016683,  0.095349692,  0.108598188, 
   0.024153782, -0.077886224,  0.110292099,  0.024149576,  0.100916602, 
   0.046232644, -0.131075770, -0.032002404, -0.139803991,  0.189573050, 
   0.058512453, -0.268067002,  0.069630735,  0.025114194, -0.145192787, 
   0.238616168,  0.140118048, -0.182497114,  0.097660296, -0.127509773, 
  -0.112179436,  0.082032196, -0.130897582,  0.015114285,  0.071536727, 
  -0.057053000,  0.092441134,  0.067071110, -0.067421675,  0.142848402, 
  -0.001479875, -0.000409493, -0.060710400,  0.010208590, -0.171578690, 
  -0.084587120,  0.011760038, -0.042953547,  0.161167920,  0.033521023, 
  -0.207213625, -0.020227186,  0.138676032,  0.062832475, -0.138006657, 
  -0.049663626, -0.033737969, -0.109144971, -0.011135236, -0.105186634, 
   0.060533144, -0.059176747, -0.038939636, -0.030914776,  0.098022200, 
  -0.198017657,  0.104468316, -0.237721890, -0.026694478,  0.170420334, 
  -0.108625203,  0.105431393, -0.061935376,  0.152724534, -0.179974690, 
  -0.089808419, -0.099997431,  0.173528001, -0.067951247,  0.011495071, 
   0.027885197, -0.101069890,  0.024783654, -0.139372379, -0.019417629, 
   0.089354180,  0.034486465, -0.111717947, -0.109135203,  0.058773875, 
   0.042225737,  0.081281908,  0.142235026,  0.062316950,  0.094060250, 
  -0.013809845, -0.090397380,  0.071460210, -0.068680897,  0.156165242, 
   0.040124472,  0.114706501,  0.249956116,  0.133505762,  0.115236141, 
  -0.037382737, -0.188359410,  0.067003228,  0.104957551, -0.048113760, 
  -0.166628137, -0.043713681, -0.104462557, -0.031115467,  0.006371607, 
  -0.129619107,  0.136189163, -0.116963089, -0.056493782, -0.062316019, 
  -0.093967050, -0.070914432, -0.106601201,  0.184721038, -0.183077246, 
  -0.193545476, -0.174898982,  0.031271029, -0.020616066, -0.123662904, 
   0.124298051,  0.166767687,  0.018794481,  0.166609168, -0.019225769, 
  -0.076638862, -0.152075231,  0.187254354, -0.051842656,  0.210643545, 
  -0.114671528,  0.094402589,  0.136629075,  0.219946101,  0.143022329, 
   0.093867451, -0.134061769, -0.050134275,  0.114064492,  0.054364093, 
  -0.059910007,  0.011397912, -0.153367952, -0.177406088, -0.189857513, 
   0.117525078,  0.113318212,  0.077827975,  0.066493936, -0.004169669, 
  -0.241102025, -0.227688730,  0.069103979, -0.017724885, -0.081867948, 
  -0.058912467,  0.001431919,  0.036880739,  0.175145388,  0.153910920, 
  -0.015572720, -0.033348475,  0.067467801,  0.012606937,  0.069943167, 
   0.175388694, -0.008106466, -0.102943495,  0.056448687,  0.377362400, 
  -0.149895623,  0.130913764, -0.103231810,  0.203148350, -0.039255306, 
   0.006903644, -0.001116524,  0.140964389, -0.176439881,  0.150201574, 
  -0.123617105,  0.025580952, -0.145867616,  0.040782694,  0.001678621, 
   0.001485779, -0.095465094,  0.114378713,  0.066088922, -0.089092642, 
  -0.006364504, -0.124905363,  0.020860571, -0.041388571, -0.015035723, 
  -0.127622098, -0.086181603, -0.209437326,  0.143364757,  0.066360407, 
  -0.250195533,  0.073073775,  0.066273384, -0.017059440, -0.321082234, 
   0.086353905,  0.001005933,  0.024747748, -0.014204947, -0.094408609, 
   0.219440684, -0.245554611, -0.337196141,  0.150414422,  0.137167558, 
  -0.060936324,  0.091511808, -0.107446343, -0.005508849, -0.287129253, 
  -0.185607702,  0.100561261,  0.110511377, -0.018272651, -0.161254138, 
   0.045151666,  0.286591023,  0.192980230, -0.054977469,  0.012955268, 
   0.007075816,  0.165020064,  0.176896557, -0.163526922, -0.159528628, 
  -0.002163430,  0.075558938, -0.084321342, -0.055909395, -0.053075034, 
   0.308180094, -0.191707835,  0.146162435,  0.025565712,  0.018311376, 
   0.108081631,  0.091344856,  0.121626578,  0.005307761,  0.143967554, 
   0.039839663,  0.078388885,  0.016806556, -0.017375132,  0.111399204, 
   0.165979370,  0.067443766,  0.211252034,  0.130243748,  0.171299607, 
   0.007212419,  0.001630734,  0.200894371, -0.086739883,  0.091455854, 
   0.204815313,  0.042964276, -0.022979928,  0.076653600,  0.172734156, 
  -0.052738868,  0.131574377,  0.305486590, -0.019846084,  0.129598528, 
  -0.012115380, -0.116940938, -0.107067741, -0.072559707,  0.053839117, 
  -0.092523426,  0.025286425, -0.106186450,  0.096398033,  0.243461326, 
   0.046391319,  0.061939608, -0.071370147,  0.208057895, -0.003314640, 
   0.033357684,  0.190846846, -0.073799394,  0.028261615,  0.081569478, 
  -0.066266589, -0.150780544, -0.040380362,  0.220876575, -0.023975754, 
  -0.090881936,  0.104503401,  0.016982112,  0.087018430, -0.008708347, 
  -0.026629293,  0.000469776, -0.111198977, -0.071950123,  0.077795178, 
  -0.053890396,  0.009944871, -0.032350335, -0.194465920,  0.029956294, 
   0.140802205,  0.064631119,  0.192001328, -0.050183341,  0.086085349, 
   0.099798210, -0.023605347,  0.033673428, -0.033443715, -0.190267637, 
   0.139950216,  0.044661619, -0.035745829, -0.073192738, -0.037975967, 
   0.137620941,  0.120262586, -0.035812017,  0.108203284, -0.071169518, 
   0.178364515, -0.076159485,  0.141484916,  0.148247391,  0.091247477, 
   0.214108124,  0.009544129, -0.050318837, -0.008156210, -0.196230337, 
   0.015112534, -0.045664776,  0.007805315,  0.006826344,  0.024222594, 
   0.083799623, -0.171880931, -0.290211290,  0.102018677,  0.129449472, 
  -0.021669270,  0.073182829,  0.041739330,  0.037374407,  0.107521854, 
  -0.182442755,  0.077203415,  0.056692701,  0.082683742,  0.038150433, 
  -0.214209050,  0.043766517,  0.257565051, -0.086698748,  0.174353927, 
  -0.170607358,  0.090835176,  0.067676246, -0.108801737, -0.158391684, 
   0.193277121,  0.018918797, -0.173961416,  0.040820125, -0.075592667, 
  -0.101934545,  0.015969999,  0.099922903,  0.002663660,  0.113080569, 
   0.062677875,  0.184431329,  0.095036261,  0.123476781,  0.061864831, 
  -0.102220856, -0.085992798,  0.094642475,  0.061764434, -0.052288346, 
  -0.090083316,  0.082366198, -0.032703403,  0.025799341,  0.056526497, 
   0.116364717, -0.049868423,  0.102435976, -0.081189148, -0.109138340, 
  -0.134160832,  0.046865586, -0.202591762,  0.087780967,  0.037362952, 
   0.050049294, -0.088252567,  0.060368396,  0.036617383,  0.132221878, 
   0.078802690,  0.076859877,  0.083592623, -0.153979957,  0.090749174, 
   0.112029932, -0.019575488,  0.088536233,  0.097165123, -0.168330908, 
  -0.113266207,  0.122060195, -0.109735526,  0.033675931, -0.162045732, 
   0.125466317, -0.131003469,  0.060457204, -0.049567476,  0.004366520, 
  -0.001686753, -0.045390707,  0.170685127,  0.189638108, -0.105950072, 
   0.099851064, -0.176747307, -0.147696897,  0.069729112, -0.084793963, 
   0.015172769,  0.194150001,  0.038047642, -0.044071350, -0.195760176, 
   0.005331552,  0.257364959, -0.001428286, -0.032536369, -0.026733017, 
  -0.311582476,  0.004375987,  0.132717520,  0.078738227, -0.042515401, 
   0.171600834,  0.047549449, -0.282739431, -0.044561610,  0.020945909, 
   0.020672377, -0.036249537, -0.023882572,  0.040847115,  0.095025651, 
   0.009602803, -0.077351093, -0.247410357,  0.136288792, -0.118545644, 
   0.132071465,  0.089666486,  0.153192312, -0.038640469, -0.072894871, 
  -0.142522812,  0.037004229,  0.084546655,  0.102486640, -0.052873529, 
  -0.038634121,  0.021530759,  0.180949301, -0.059293173,  0.080664136, 
   0.145919651,  0.140530914, -0.059741139, -0.022267720,  0.141683728, 
   0.119400889, -0.035805855,  0.108030364, -0.199918449, -0.119384639, 
  -0.178980976,  0.017482955, -0.068702906, -0.176410377,  0.111616842, 
   0.094240159,  0.013377246,  0.131997272,  0.076863669, -0.087481126, 
  -0.107106820,  0.084863566,  0.144611090,  0.059897836, -0.130970433, 
  -0.016816484,  0.159343228,  0.133843437,  0.146705762,  0.134530902, 
  -0.175760493, -0.031418372,  0.062181760,  0.086057954,  0.138698816, 
  -0.026085526,  0.007565689, -0.235168472, -0.130341768, -0.012995683, 
   0.011216483,  0.140645340,  0.079474293, -0.087409265, -0.020643687, 
   0.003736148, -0.080911048,  0.036168367, -0.079653896,  0.076402158, 
   0.068652391, -0.004428400,  0.112931527,  0.073393025, -0.088981397, 
   0.050122429,  0.186660588,  0.059147369,  0.046405613,  0.155928254, 
   0.107541032, -0.113426447,  0.174643189,  0.173366025,  0.066377141, 
  -0.058290664, -0.060482688,  0.127110079, -0.059916735, -0.238883138, 
   0.006252188,  0.151736885, -0.132576361,  0.280890197, -0.119238116, 
  -0.129123271, -0.155754998,  0.183330908, -0.006222751,  0.058795065, 
  -0.100770563,  0.172312617, -0.040056676,  0.110839531, -0.038314827, 
   0.048598539, -0.156277016,  0.129908219, -0.078292087,  0.072864622, 
  -0.092797652, -0.176049232,  0.137163937,  0.055601474, -0.148550600, 
   0.205324247,  0.093352512,  0.017172582, -0.118821576,  0.043996260, 
   0.094768390, -0.134101287,  0.123795673, -0.031269856,  0.069201067, 
  -0.154797927, -0.250576258,  0.133217052,  0.160114989, -0.129161924, 
   0.091301396,  0.002339872,  0.001736525, -0.284250230, -0.228427067, 
   0.093875244, -0.060232785,  0.099250905, -0.236721650,  0.014086570, 
   0.090634078,  0.143439293,  0.051850691, -0.035242349, -0.059648994, 
   0.088705897,  0.217549801, -0.126096472,  0.032804359, -0.038262896, 
   0.049530003,  0.183947980, -0.007805289,  0.055294778,  0.208554953, 
  -0.299491107,  0.330271512,  0.007414733,  0.024974328, -0.058525972, 
  -0.161449566,  0.144703850,  0.141177654,  0.203337207,  0.008938015, 
   0.128353789,  0.061097898,  0.133197963,  0.007557002,  0.010278339, 
   0.022586606,  0.228487089,  0.080409959,  0.034316208,  0.127443999, 
   0.077977397,  0.104607746, -0.075612694,  0.071498863,  0.233299479, 
  -0.061555304, -0.000785054,  0.041514173,  0.083560437,  0.041882690, 
   0.192294151,  0.191300556, -0.052977733,  0.176832840,  0.001263723, 
  -0.170243308, -0.155300707, -0.012578852, -0.086557873,  0.021011161, 
  -0.093496859, -0.070873462,  0.011487397,  0.056010257,  0.040063430, 
   0.071991600,  0.032049131,  0.186754957, -0.006561588,  0.153678149, 
   0.177967623,  0.072003439,  0.135863662,  0.082813621,  0.055482697, 
  -0.093765922, -0.080077931,  0.055837184, -0.095437109, -0.101680890, 
   0.054619413,  0.179269522,  0.060346194, -0.008921083, -0.131072804, 
  -0.076350652, -0.060256205, -0.122925952,  0.001183247, -0.035629019, 
   0.141631946, -0.061126348,  0.000618063, -0.087468095,  0.117413573, 
  -0.085477017,  0.071404770,  0.170649186,  0.174193472,  0.227341011, 
   0.080002397, -0.050488777,  0.115768202,  0.093718231, -0.106590293, 
   0.113566406, -0.017760241,  0.001608771,  0.105441831,  0.116031148, 
  -0.064546295,  0.066995211,  0.064251453, -0.055491246,  0.125923276, 
   0.039660946,  0.154653594,  0.109887980,  0.006453080,  0.070819110, 
  -0.006894003,  0.119071968, -0.109882556, -0.141647458,  0.087588944, 
   0.022652375,  0.165177733, -0.004104611,  0.147561312, -0.114473842, 
  -0.021401780, -0.161996454, -0.018732058, -0.063507937,  0.123206988, 
  -0.005316688, -0.098314226,  0.155685961,  0.167268470, -0.118627131, 
   0.198037684, -0.071950451, -0.040958732, -0.053595603, -0.023239227, 
   0.103447810,  0.146047756, -0.098529518,  0.082256682, -0.167133301, 
   0.055492528,  0.135922700,  0.034968913,  0.031585962,  0.109438896, 
  -0.002885608,  0.004066592, -0.054001532, -0.093882784, -0.054742709, 
   0.059901606,  0.002866306,  0.154377177,  0.030565787, -0.106014244, 
   0.119348355, -0.043893214,  0.150477275, -0.050858360, -0.064944595, 
  -0.007136769,  0.161924660,  0.054652400, -0.007305512, -0.321797818, 
  -0.072420590,  0.095383324, -0.128281236,  0.014276570,  0.131602213, 
   0.010275761, -0.036068533, -0.188378468, -0.184992924,  0.074330159, 
  -0.006584564, -0.184530362, -0.062757745, -0.141478121,  0.022168215, 
  -0.123032287, -0.034794349,  0.137837425,  0.076757677, -0.100036912, 
   0.048171565, -0.014183657, -0.115098983, -0.105088286,  0.037481003, 
   0.101337940,  0.048530072,  0.172468394, -0.094037741,  0.052345570, 
   0.192104369, -0.109931760,  0.110247865, -0.071489669,  0.155057505, 
  -0.003658569,  0.071031161, -0.037642125,  0.016671160,  0.012866119, 
   0.009925601,  0.157142878,  0.128093064, -0.257306188,  0.041103862, 
  -0.150491789, -0.074425265,  0.068846218,  0.036036380,  0.021181811, 
   0.104555011,  0.022677716,  0.081623450, -0.121839762, -0.025737565, 
   0.211590856, -0.020351708, -0.076051645,  0.000759079, -0.284846723, 
   0.100557476, -0.031371817, -0.005674414,  0.040138096,  0.211838633, 
  -0.027573628, -0.259562492, -0.036154695,  0.056018915,  0.153313279, 
   0.076803178,  0.090557322,  0.097993873, -0.062160462, -0.053575415, 
   0.076686405, -0.200090230,  0.057629798, -0.093882382,  0.079473197, 
  -0.048612300,  0.127899989, -0.028301572,  0.017525503, -0.157946125, 
  -0.030818630,  0.070581846,  0.128450483, -0.201487795, -0.069134153, 
  -0.081696488,  0.135920525, -0.004718257,  0.159663945,  0.109299995, 
   0.157977551,  0.135863394,  0.025570821,  0.146046802, -0.020764664, 
  -0.214909568,  0.213835269, -0.219662458,  0.074285284, -0.066876739, 
   0.133810744,  0.018187560, -0.033507213,  0.179109976,  0.083633445, 
  -0.103155427,  0.064605698,  0.000778736, -0.029669451, -0.096429795, 
   0.277690589, -0.030995153,  0.141881660, -0.085251972,  0.024643406, 
  -0.042520266,  0.147343636,  0.165952131,  0.039968081, -0.238534108, 
  -0.026420511, -0.074423954,  0.200774968,  0.110297278,  0.116677433, 
  -0.023412235, -0.147243574, -0.171092004, -0.046912830,  0.162906393, 
   0.129172355,  0.102689967,  0.075172335, -0.044181716, -0.118117616, 
  -0.130323619,  0.066098794, -0.167830065, -0.100112602, -0.001256299, 
  -0.112722255,  0.158196405,  0.196492717, -0.153525785, -0.131074443, 
  -0.019799953,  0.013079801,  0.024218526, -0.028945964, -0.078037649, 
  -0.022974512,  0.149630547,  0.299792439, -0.040973570, -0.008059223, 
  -0.112399645,  0.222553670,  0.157783881, -0.282393247, -0.078891277, 
   0.298525035, -0.159289330,  0.281284243, -0.038926367, -0.124540627, 
  -0.189632639,  0.238354743, -0.045437854,  0.144829333, -0.144951284, 
  -0.017686693,  0.045860454,  0.064559385,  0.189081550,  0.032469541, 
   0.046386085,  0.237915456, -0.158154115,  0.032914799, -0.034614585, 
  -0.109518595, -0.053058531,  0.127467841, -0.158853814,  0.066505797, 
   0.031882413,  0.016488746, -0.315530062,  0.079259634,  0.190520480, 
  -0.140497029,  0.169048056, -0.054981384,  0.222126484, -0.262755603, 
  -0.173674271,  0.026208531,  0.189624935, -0.092133775,  0.216639191, 
   0.149731830, -0.113883063, -0.139198914, -0.071788892,  0.079589464, 
  -0.010461109,  0.015523172, -0.211249232, -0.085156530,  0.250218928, 
  -0.043855574,  0.081744857,  0.091659576, -0.073579803,  0.050635867, 
   0.221479177, -0.044942107, -0.006348590,  0.062333968,  0.069028661, 
   0.116317034, -0.062051106, -0.112726852,  0.377474219, -0.065812886, 
   0.164052650, -0.007521224,  0.090470344, -0.012528689, -0.060582113, 
  -0.055532314,  0.209408239,  0.086453840, -0.076366872,  0.175782502, 
  -0.003487475,  0.075056404,  0.200858399,  0.012622577,  0.033296537, 
   0.076128371,  0.024932822,  0.198922709,  0.153922990,  0.111800820, 
   0.121515468, -0.039349075,  0.083848760,  0.057430118,  0.021640006, 
   0.090907268,  0.177084506,  0.195168391, -0.013955247, -0.011788265, 
   0.053616852, -0.027979203,  0.210370734, -0.104628712, -0.049650051, 
  -0.206349537, -0.106719978, -0.105485648,  0.035136566,  0.026392823, 
   0.005670664, -0.004550239,  0.155259639,  0.145090953,  0.144924462, 
  -0.054152183,  0.162002683, -0.011655126,  0.047172837, -0.047093771, 
  -0.004350873,  0.137753293, -0.123973392,  0.075202264,  0.047322065, 
   0.022687223,  0.058870662, -0.012478105, -0.048942354,  0.028439781, 
   0.122314513,  0.207607895,  0.123472512, -0.121429533, -0.159959078, 
  -0.121833839, -0.011396327,  0.120240666,  0.111012019, -0.032312948, 
   0.040835463, -0.016071321,  0.029792128,  0.250194609,  0.072044149, 
   0.037763216, -0.001986926,  0.178413808,  0.178073928,  0.005896894, 
  -0.176890388,  0.018647565,  0.076785468,  0.124068603, -0.009642009, 
   0.138254985, -0.063061379,  0.091542333, -0.063902587,  0.063725501, 
  -0.006093098,  0.154081136, -0.142766848,  0.158092454,  0.060404748, 
   0.190927580, -0.087213814,  0.038761914, -0.059406295, -0.005153580, 
   0.124347262, -0.016684171,  0.029623535,  0.219934389, -0.035114788, 
   0.102221519,  0.207523078,  0.124329537, -0.069612913, -0.097137108, 
  -0.148729399,  0.044599097, -0.049206544,  0.114663161, -0.102516919, 
  -0.015178543,  0.103983454,  0.086676769,  0.048403863,  0.219542012, 
  -0.102468073,  0.003083156,  0.087025680, -0.157607168,  0.019584119, 
   0.343333989, -0.025899719,  0.210679561,  0.057697881,  0.204162687, 
   0.005985550, -0.002312823, -0.160614833,  0.118332438,  0.013663781, 
  -0.023893327, -0.035599168, -0.120822810, -0.138887554,  0.079964839, 
   0.163591698,  0.063171610,  0.120629422,  0.057865139,  0.183078647, 
   0.035374384,  0.223862752,  0.077813216, -0.113453530,  0.046659030, 
   0.127679601,  0.112872571, -0.020809785, -0.309653193,  0.019274155, 
   0.091413327, -0.112498656,  0.211847216,  0.083236925, -0.150675192, 
   0.085388586, -0.151504844, -0.124002896,  0.066417456, -0.110563032, 
  -0.161362410, -0.038757946,  0.028160105,  0.194645509,  0.060479481, 
   0.117214501,  0.141447037,  0.058467545, -0.096777044,  0.234304652, 
   0.095388979, -0.020753659,  0.045826286, -0.040963911,  0.087645657, 
  -0.095951900, -0.042525478, -0.118098035,  0.133356318,  0.027896795, 
   0.117626041,  0.118650362,  0.071759999, -0.045863312,  0.109790951, 
   0.077199683, -0.166293859, -0.027395207,  0.022490909, -0.031052709, 
   0.117875740,  0.074365415, -0.187304571,  0.147609115, -0.185956329, 
   0.024761535, -0.001291291,  0.054809514,  0.132900983,  0.137786180, 
   0.005939148,  0.108194098, -0.111824922,  0.030447572,  0.114745185, 
   0.163736060,  0.110678792, -0.009784558, -0.096656941,  0.127030864, 
   0.041848775, -0.181663439,  0.119328246,  0.174612701, -0.110267080, 
  -0.185437456,  0.040229898,  0.119349331,  0.126121432,  0.126144677, 
   0.159337029,  0.052888282,  0.074874111,  0.101341173, -0.124708228, 
  -0.120281570, -0.026603840,  0.064080022,  0.132687464,  0.036334701, 
   0.103315078,  0.032232229, -0.134996518, -0.265234977,  0.023355994, 
   0.168919355,  0.218785301, -0.116994172,  0.033680838,  0.015567768, 
   0.195793942,  0.015722265,  0.014509493,  0.075601511,  0.018633245, 
   0.036118839, -0.099962667,  0.017755236,  0.125243902, -0.138956457, 
   0.016981447, -0.173501000, -0.018560927, -0.037994657,  0.048604082, 
   0.042475019, -0.084417999,  0.076737903,  0.097777195, -0.129302606, 
   0.057301231,  0.077833198,  0.181600302, -0.193530500,  0.153711021, 
   0.116845854,  0.056033626,  0.060782492,  0.107658334,  0.033606328, 
   0.117330238,  0.077172726,  0.181554154, -0.265471071,  0.055225577, 
  -0.082277425,  0.260747254,  0.104400769, -0.056890253,  0.056716785, 
  -0.167426944,  0.022039216,  0.056489900,  0.176629186, -0.032101650, 
   0.246541232,  0.154212624, -0.019941570,  0.036318060, -0.073709175, 
   0.024930703, -0.029763578, -0.021641614, -0.173003867, -0.066954136, 
   0.122818597,  0.212389082, -0.032827400, -0.004865545,  0.012369768, 
   0.221207917,  0.141171291,  0.121395200,  0.128891394, -0.056094408, 
   0.057225686,  0.196110696,  0.074374966, -0.015628038,  0.037060510, 
   0.012621955,  0.138670996, -0.259984314,  0.027755603,  0.283685803, 
  -0.142993197,  0.341566741, -0.084327906, -0.119930163, -0.079705149, 
   0.131280288,  0.021541744,  0.183235317,  0.074674554,  0.038730022, 
  -0.109049164,  0.168356508,  0.178642347,  0.026046822, -0.116384394, 
   0.134102449,  0.006233237,  0.174906164,  0.190907106, -0.258514315, 
  -0.065966621, -0.005469447,  0.067598976,  0.053317159,  0.062608860, 
   0.078296378, -0.250641108, -0.051450819,  0.152245298,  0.006075518, 
   0.189960331, -0.013912555,  0.037606630, -0.040543020, -0.052059341, 
   0.217602015,  0.177560106,  0.052218977,  0.287437588,  0.026609087, 
  -0.023615355, -0.226519242, -0.092193000,  0.151453778,  0.011588792, 
   0.071334936, -0.291448206,  0.002560352,  0.098132640,  0.106715202, 
   0.059247095, -0.116046824, -0.039188940,  0.048704032,  0.245027646, 
   0.057635620,  0.065427676, -0.099561960,  0.002621784,  0.076680638, 
   0.050744854, -0.027000630,  0.306457251, -0.010190524,  0.180943862, 
  -0.063277744,  0.068453416, -0.026663162, -0.078532279, -0.117027171, 
   0.191970199,  0.144236475,  0.004261622,  0.141584426,  0.152997658, 
   0.058781389,  0.087261721,  0.019639205,  0.105233423,  0.029404527, 
   0.220816091,  0.091496266, -0.021555958, -0.035144981,  0.181757703, 
   0.095080309,  0.054102782,  0.065308690, -0.083705708,  0.014611586, 
   0.072827429,  0.234144643, -0.153621301,  0.010584804,  0.141976491, 
   0.050145261,  0.097536363, -0.121689759, -0.124122426, -0.230743110, 
   0.039060924, -0.004075860, -0.066215642,  0.012934542,  0.074992344, 
  -0.165468395,  0.112846382,  0.011709126,  0.020418216, -0.066221483, 
   0.225670800, -0.106197238,  0.047385953,  0.160127878, -0.011525146, 
  -0.012521029, -0.005824800, -0.030125862, -0.164570972, -0.031367172, 
   0.132279664, -0.062643453, -0.077733375,  0.062426202,  0.117980085, 
   0.234209180,  0.094074011, -0.052099679, -0.162414834,  0.053221159, 
   0.024648475,  0.104070619,  0.096668370,  0.042530142, -0.097245626, 
   0.117577560,  0.069548979,  0.244154766, -0.127715945,  0.099135667, 
   0.046122104,  0.110276148,  0.129350439, -0.082084656, -0.134057999, 
  -0.041861221, -0.020456403,  0.161921620,  0.009422158,  0.125199020, 
   0.086345725, -0.043800384,  0.010162883,  0.059078962,  0.049518034, 
   0.092984378, -0.090001114,  0.063117512, -0.095953897, -0.021347059, 
  -0.060438834, -0.031914063, -0.037309594,  0.009081936,  0.023321684, 
  -0.085483827,  0.000044240,  0.138757333,  0.100657806,  0.108670287, 
   0.055108018,  0.095250897,  0.056374203, -0.027839184, -0.311334163, 
   0.061338577, -0.105711386,  0.136072695,  0.030247895,  0.126336604, 
   0.098014757,  0.063727587,  0.056257702,  0.004975253, -0.041748803, 
   0.158293948, -0.056239434, -0.154704913, -0.025845062,  0.308694512, 
   0.054204050,  0.006779385, -0.110026151, -0.003147034,  0.225747094, 
   0.101712301,  0.060900573, -0.029544003,  0.135982692, -0.160794824, 
   0.085581638, -0.130658939,  0.100535184,  0.153324038,  0.091992833, 
   0.168190986,  0.093983531,  0.033536665,  0.090077914,  0.059864137, 
   0.000236020,  0.108619556, -0.027629543,  0.049008477,  0.161858782, 
  -0.056478679,  0.010020214, -0.238849774, -0.052486096,  0.007071638, 
  -0.171965912,  0.175875694, -0.024985697, -0.126840904,  0.059882294, 
  -0.176001593, -0.224948436, -0.028470865,  0.026580421, -0.130495682, 
   0.096254662, -0.095863901,  0.143949583, -0.095266305,  0.152184367, 
   0.119306885,  0.131097749, -0.133002639,  0.114394985,  0.047193877, 
   0.078095257, -0.099617146,  0.149965197, -0.070984147, -0.099388696, 
   0.016319346, -0.039853346,  0.169054583,  0.154289365, -0.097587347, 
  -0.056097087, -0.115655214,  0.116946295, -0.037067279,  0.082302943, 
  -0.134551421,  0.092234991,  0.157133043, -0.115176901,  0.105072513, 
  -0.072851203,  0.064233683, -0.160470903, -0.142798975, -0.105928987, 
  -0.010453317,  0.044718310,  0.051993083,  0.125300437, -0.036433391, 
  -0.045653135, -0.132363394,  0.147468075,  0.126641795, -0.030398294, 
   0.111299708, -0.028623527,  0.009123820,  0.025095910,  0.028733145, 
  -0.145437956,  0.139571786,  0.173486114, -0.007300087, -0.216630623, 
   0.016336057, -0.002459244,  0.054797627, -0.047211934, -0.050454251, 
  -0.125973761,  0.169981241,  0.062786862, -0.163945913,  0.028500706, 
   0.036311988,  0.058066402,  0.146773234,  0.052872099,  0.167067200, 
  -0.109420434, -0.132607028, -0.117601879,  0.082264870,  0.138308257, 
   0.123266630, -0.202638209, -0.069006614,  0.097237051,  0.148957133, 
   0.054811798,  0.086094506,  0.118520252,  0.193740621, -0.040764332, 
  -0.030199658,  0.036188699,  0.016786940,  0.114042796,  0.069153100, 
  -0.158366755,  0.056805249,  0.018602338, -0.060278367,  0.050039213, 
  -0.043707866, -0.060184121,  0.161288664, -0.295422107,  0.055242453, 
   0.139228255,  0.067592099, -0.319665551,  0.184235647,  0.102784753, 
   0.004537649, -0.019087171, -0.081244081, -0.049310446, -0.022132292, 
  -0.050975379,  0.172871739, -0.323584855,  0.117365830, -0.050777759, 
   0.439610213,  0.133995965,  0.050679557,  0.082821868, -0.187465295, 
  -0.051374365, -0.003655328,  0.078486666,  0.122405104,  0.231034473, 
  -0.033253979, -0.133893415,  0.007756852,  0.137563214, -0.008368817, 
  -0.020512056, -0.045386761, -0.141687199,  0.082586184,  0.193410486, 
   0.045416068,  0.135417417, -0.124027468,  0.037078820,  0.204140827, 
   0.082913592,  0.179238379,  0.081364848, -0.143541276,  0.171231806, 
   0.308843881,  0.008343044,  0.098762967, -0.038317677,  0.040107254, 
  -0.001142257, -0.223555848,  0.111388721,  0.221227661, -0.110844612, 
   0.234047577,  0.043086182,  0.046363726, -0.246977165,  0.170174122, 
   0.236680552,  0.258800030,  0.047568530,  0.046363670,  0.049931422, 
   0.091913283,  0.068848528,  0.141845837, -0.141083553,  0.262090057, 
  -0.133575767,  0.026673634,  0.258383691, -0.268330753,  0.075707652, 
   0.019051669,  0.032831926,  0.241278559,  0.014362039, -0.101035155, 
  -0.281062186, -0.049421981, -0.011925077, -0.030575503,  0.056603331, 
   0.014546615, -0.138588801, -0.085379325,  0.139091447,  0.012469674, 
   0.094677642, -0.076939419,  0.184110120,  0.002506853, -0.125894353, 
  -0.212705284, -0.116215020,  0.155314073,  0.065735757,  0.005453276, 
  -0.090433389,  0.121772967,  0.170617789,  0.170505330,  0.069784597, 
  -0.055842664, -0.073539481,  0.112498485,  0.203767434, -0.147086769, 
  -0.023355575, -0.018684724,  0.148438811,  0.105208367, -0.004632297, 
   0.038415495,  0.057354666,  0.015460818,  0.057571799, -0.011195728, 
   0.047542386, -0.036989789, -0.068832271,  0.037570108,  0.103087485, 
   0.156862631, -0.057117730,  0.256315619,  0.118851140, -0.089736074, 
   0.005917468,  0.175371498,  0.185369119,  0.150084317,  0.047549348, 
   0.125135645,  0.185751766,  0.095961273, -0.025220379, -0.130997837, 
  -0.085752577,  0.069544367,  0.103471890,  0.046139430,  0.088834487, 
   0.002988447,  0.032625861, -0.063652992,  0.009912094, -0.046578456, 
   0.121682897,  0.070996977, -0.160802990, -0.254913837,  0.001395861, 
   0.103786007,  0.101032600, -0.105126187,  0.022953285, -0.117431797, 
   0.260822892,  0.008565839, -0.058222931, -0.001266606, -0.016443454, 
   0.054915521, -0.050747491,  0.109483965,  0.056579448,  0.105502315, 
  -0.130722061,  0.064514942, -0.134446308,  0.057121553,  0.119657710, 
  -0.011197622,  0.100650176,  0.143947914, -0.049405236,  0.107664116, 
   0.038959771,  0.088433690, -0.130667135, -0.007026600,  0.115801342, 
  -0.068983056,  0.033418749,  0.034529738, -0.080031298,  0.014118291, 
  -0.073209971,  0.093363859, -0.132462859,  0.151714832,  0.136359334, 
   0.031392507,  0.120496936,  0.134158015, -0.111087434,  0.024538079, 
   0.033648837,  0.048253730, -0.119579270,  0.135400683,  0.134230599, 
   0.117545880, -0.167270795,  0.005322714,  0.116563544,  0.095633380, 
   0.066094264,  0.146890193,  0.007944874,  0.076685615,  0.026600899, 
   0.011920159,  0.019623172,  0.231055140,  0.075451128, -0.076918788, 
   0.103398137,  0.109053306, -0.052775323,  0.106720477,  0.219521299, 
   0.178907365,  0.091090687, -0.070836939, -0.088395342,  0.158899918, 
  -0.062349271,  0.101519562, -0.029973987,  0.033853725, -0.077483423, 
   0.270726770,  0.128388360,  0.011348878, -0.076712243,  0.192744464, 
   0.007766451,  0.031653695,  0.000710097,  0.313264161, -0.001860991, 
   0.150476187, -0.077561595,  0.161237612,  0.252460599,  0.064596586, 
  -0.073007829, -0.054803967,  0.188125610, -0.100605354,  0.106341295, 
  -0.060758322, -0.125659823,  0.130655617, -0.082119316,  0.078352951, 
   0.102011979,  0.065751560,  0.074075200, -0.016215278,  0.142341584, 
   0.072241232, -0.040657762,  0.068919271, -0.083686359,  0.070963867, 
   0.005106792, -0.142362788, -0.048458271,  0.062480312, -0.028492544, 
   0.189595446, -0.032229982, -0.066539459,  0.068689473, -0.157427609, 
   0.037439901, -0.091499448, -0.000379911, -0.097822689, -0.013408410, 
  -0.171965092,  0.015243717,  0.031409480, -0.016680203,  0.074486814, 
   0.154730871,  0.081092767,  0.206988946,  0.028955968,  0.097341724, 
   0.019618832,  0.207405776,  0.061668653, -0.246332288,  0.103873327, 
  -0.020109322, -0.005107983,  0.086100891, -0.047194052,  0.176301450, 
   0.012847931, -0.002514481,  0.120847054,  0.054040838, -0.088930726, 
   0.037288323,  0.153862372, -0.226713464,  0.042442705,  0.063254893, 
  -0.050866257, -0.111950353, -0.107647300, -0.091838047, -0.039852940, 
  -0.122902974, -0.040904265,  0.130731642, -0.118080184, -0.063233167, 
  -0.130887657,  0.198862821,  0.003761794,  0.090461127,  0.021700334, 
   0.043117698,  0.166398019, -0.039161846, -0.024905425, -0.176274464, 
  -0.014757702,  0.155261338, -0.078395344, -0.221555278, -0.125276938, 
   0.022179089, -0.075114578,  0.040210616,  0.011320840,  0.041662145, 
   0.153622270,  0.084573001, -0.132032335,  0.127583697,  0.135242403, 
   0.041200150,  0.225385666,  0.121106356,  0.143838912,  0.022638902, 
  -0.138681442, -0.060725506,  0.001425589,  0.080054462,  0.120811634, 
  -0.237691551,  0.051567901, -0.071086027,  0.171910897,  0.195501611, 
  -0.091087498,  0.099071600,  0.209809795, -0.037606694, -0.085923851, 
   0.022062484, -0.042860117,  0.109634012,  0.055679969, -0.087328911, 
  -0.102404267, -0.010050964, -0.066382132, -0.082201451,  0.182129368, 
  -0.197423354,  0.148659900, -0.219839394, -0.021470021, -0.089563206, 
   0.077550165, -0.355009496,  0.091965295,  0.174802646,  0.069504492, 
   0.164843440, -0.064991914, -0.131678939, -0.110194683, -0.158170536, 
  -0.109537885, -0.106004938, -0.004994903,  0.111826405,  0.273520529, 
   0.080605082, -0.074664444, -0.025506876, -0.133440375, -0.051457901, 
   0.014029892,  0.123325810,  0.170293942,  0.059473276, -0.015492409, 
  -0.049372777,  0.054851711, -0.070432052,  0.182736859, -0.183657393, 
  -0.050072800, -0.131551072, -0.177384108,  0.198084027,  0.038587242, 
   0.070803747, -0.136977106, -0.023583597,  0.079396121, -0.048836414, 
  -0.064870477, -0.041211963,  0.014567093,  0.029005038,  0.385748804, 
   0.033899806, -0.074321918, -0.169747949,  0.153223738,  0.012940381, 
  -0.138143197,  0.069446415,  0.123998374,  0.035371426,  0.259935975, 
   0.125257879, -0.032033097, -0.320148349,  0.297269344,  0.088380218, 
   0.161259979,  0.121431999,  0.080970936,  0.044212673,  0.108334884, 
   0.090061322,  0.097311854, -0.024761716,  0.192474887, -0.132022694, 
  -0.040348064,  0.295545697, -0.201997891, -0.108062565, -0.235974640, 
   0.093613848,  0.271321476, -0.072019741, -0.158766896, -0.279001117, 
   0.156270951,  0.038445286,  0.064106122,  0.005522230,  0.120385200, 
  -0.210725650, -0.107038796, -0.057106063, -0.111946546,  0.025222683, 
   0.084766820,  0.222901240,  0.023020379, -0.091067098, -0.307584316, 
   0.042924926,  0.052279118, -0.075949326,  0.175760657, -0.056902327, 
   0.052017502,  0.007790963,  0.147927642,  0.123148121, -0.043375302, 
   0.125436470,  0.003929592,  0.092908345,  0.018389529, -0.025548058, 
  -0.014065000,  0.049863692,  0.030865163, -0.031735130,  0.027650315, 
   0.147682488,  0.189335287,  0.070518047,  0.120516151,  0.115323059, 
   0.136391982,  0.137475893, -0.035871699,  0.030318568,  0.065275952, 
  -0.024091208,  0.156522170,  0.246566817, -0.004434383, -0.002252795, 
   0.113477290, -0.036346965,  0.178987160,  0.118347824,  0.076307818, 
   0.190447494,  0.075615786,  0.041684885, -0.077760622, -0.137562275, 
   0.119983196,  0.083146818,  0.002348088, -0.034696255,  0.062910661, 
  -0.026577806,  0.002149613,  0.013623450,  0.157476977, -0.021224026, 
  -0.132750526, -0.103438213, -0.329037756,  0.097554281,  0.111323997, 
   0.067918845, -0.075096406,  0.117269874, -0.196760580,  0.110449672, 
  -0.058270372,  0.086684167,  0.082561091,  0.118651107,  0.013389157, 
   0.013782454,  0.071102269,  0.129958883,  0.017524699,  0.058155585, 
   0.156571358,  0.065699629,  0.070794694,  0.232238799, -0.023063494, 
   0.051903032, -0.058714598,  0.080782771, -0.076117732,  0.009547778, 
  -0.070206270, -0.200701162, -0.052919317,  0.147311732,  0.140014842, 
   0.116846658,  0.107281722, -0.012101404,  0.171224222, -0.123548873, 
   0.252870440, -0.102236651,  0.128096282,  0.072788879,  0.059625540, 
   0.062729783, -0.018557526,  0.017259842,  0.058533125,  0.011891564, 
   0.073569044, -0.123945229,  0.098028667,  0.218191877, -0.046243630, 
  -0.036307611,  0.127759710,  0.095796883,  0.008851605, -0.061085790, 
   0.041551162,  0.216449022, -0.149440125,  0.113369346,  0.198056087, 
   0.012595818,  0.247359097,  0.118361779,  0.061387926,  0.068316661, 
   0.250770688, -0.022083338,  0.113852806,  0.200733900,  0.184395015, 
  -0.019254031, -0.056993715,  0.235008597,  0.082351558, -0.077645250, 
  -0.055533100,  0.009022171,  0.016920924,  0.060490966,  0.057786316, 
   0.019855732,  0.020988589,  0.026640261, -0.066741973, -0.094298340, 
  -0.074840844,  0.213861957,  0.119118273,  0.126345575, -0.088841259, 
  -0.076303124, -0.023341686,  0.161058888,  0.142850131, -0.124262348, 
   0.033085980,  0.007452309, -0.102624595,  0.016104419, -0.150403693, 
  -0.114330076,  0.129666686, -0.128278881,  0.147330642,  0.095976651, 
   0.102076106, -0.034882925,  0.004957678,  0.161051914,  0.074886054, 
   0.006650069,  0.027829960,  0.026969494,  0.046097390, -0.092127249, 
  -0.197894618,  0.130545378,  0.130905986, -0.189060465, -0.000133127, 
  -0.073524207,  0.040546712,  0.032718502, -0.177763551,  0.059788272, 
  -0.116530918,  0.175208390, -0.172169179, -0.081680402, -0.176468089, 
   0.094912305, -0.094271176, -0.133559838,  0.013637545,  0.040384166, 
  -0.107805595,  0.123578414,  0.050828844, -0.001577919,  0.066320702, 
   0.196282059,  0.139213502, -0.146719307,  0.119628832,  0.081971630, 
   0.035737332,  0.058246303,  0.116327114,  0.179448217,  0.020888466, 
   0.118188240, -0.099814229, -0.121113285, -0.171922073,  0.082232356, 
   0.038392995, -0.157797799, -0.060728375,  0.108043604,  0.044472255, 
  -0.245508730, -0.057542242, -0.140830085,  0.042487673,  0.038459208, 
   0.024346748,  0.189147547, -0.198443457,  0.104186952,  0.042147044, 
  -0.014379181, -0.094709314, -0.128515631,  0.034967866,  0.113578603, 
   0.139493719,  0.132470563,  0.090032674, -0.189463511,  0.031543866, 
   0.208724812, -0.063236132,  0.014900272,  0.055630237,  0.135268554, 
  -0.047218602,  0.105603881,  0.186899185, -0.088963047,  0.117623635, 
   0.199432537,  0.054999568,  0.147182629,  0.030520175,  0.111168198, 
   0.127377182,  0.119415991, -0.027566081,  0.075783812, -0.094950207, 
  -0.024515076,  0.164352089,  0.106995128,  0.129089341, -0.195131242, 
   0.008219305, -0.081335463,  0.041399810,  0.190508187,  0.003083706, 
   0.125245884,  0.180270940, -0.139568835, -0.075038947,  0.059240755, 
  -0.043135568,  0.037472107, -0.025419666, -0.086724304,  0.037836935, 
  -0.008553738, -0.115841836, -0.052185979, -0.030810419, -0.076967701, 
   0.057353918, -0.342409402, -0.146331459, -0.012724956,  0.043011501, 
  -0.109496191, -0.011029068, -0.112978645,  0.018865421,  0.154407158, 
   0.114548951, -0.089849949, -0.016768524,  0.036872856, -0.174834967, 
  -0.108199865, -0.074950427, -0.066561714,  0.167414889,  0.140569121, 
  -0.020315802,  0.088221610,  0.007858440, -0.035497144,  0.003386506, 
   0.070196569,  0.075075082,  0.100127652,  0.010368728, -0.262528896, 
   0.017906042,  0.083665766,  0.150842860, -0.150634035,  0.122132018, 
   0.072514825, -0.215460464,  0.171351224, -0.096851498,  0.144411817, 
  -0.057227749, -0.079702578,  0.109593198,  0.031733807, -0.043508209, 
  -0.013580943, -0.170926094,  0.020476317,  0.366706163, -0.100661248, 
  -0.068955593, -0.161101669,  0.128414631, -0.133512467,  0.051838994, 
   0.085615188,  0.226649463, -0.151169777,  0.116120823,  0.198690221, 
  -0.001317856, -0.261789709,  0.217165977,  0.308950037, -0.028704874, 
   0.081884444,  0.004008505, -0.142806217,  0.172077164,  0.005571854, 
   0.141257912, -0.074656278,  0.053507805,  0.037639141,  0.048006251, 
   0.257321477, -0.214953452, -0.044864483, -0.224581391, -0.059780642, 
   0.250164300, -0.014333500, -0.047200438, -0.331675023,  0.174098879, 
  -0.132995158,  0.043925028, -0.139589459,  0.090494499, -0.130290851, 
  -0.259462029, -0.060533516, -0.110950671,  0.088853322,  0.083675399, 
   0.028171143, -0.045357078, -0.061893694, -0.287647188,  0.004298062, 
   0.040326051, -0.163268670,  0.084180802,  0.080856375, -0.113858595, 
   0.166101038,  0.154712260,  0.062990539,  0.035580609,  0.079814315, 
   0.096026830,  0.024753401, -0.117699876,  0.045080520, -0.137304321, 
  -0.126064256, -0.087757789, -0.114849180, -0.064801238,  0.072904333, 
   0.050711609, -0.056860473,  0.060778651,  0.011320774, -0.030185157, 
   0.056851771, -0.036300246, -0.030611215,  0.172742546,  0.140057415, 
   0.002100876,  0.165125325,  0.062283579, -0.082661688,  0.051839504, 
   0.021443000,  0.062222864,  0.019956082,  0.001376169,  0.066555493, 
   0.030512247, -0.102801412,  0.017695166, -0.069786303, -0.019866213, 
   0.087133385, -0.030492110, -0.030330170,  0.067911111, -0.012743215, 
   0.128917634, -0.177699730,  0.081324942,  0.032462485, -0.068773992, 
   0.024168327, -0.107278004,  0.109509438, -0.015488312,  0.037290335, 
  -0.048373215,  0.171776384, -0.119642787,  0.108078800, -0.071598731, 
   0.056764629,  0.106642514, -0.053297065,  0.202686548,  0.039765440, 
   0.071681157,  0.053923707, -0.040628277, -0.117516354,  0.030989992, 
  -0.123940036,  0.146400034,  0.210828692,  0.083078854, -0.099570207, 
  -0.024528315,  0.059123997,  0.039999597,  0.029587097, -0.047867071, 
  -0.063776195, -0.011626679,  0.018893560,  0.120466702, -0.100661233, 
  -0.074521795,  0.085699178,  0.022169355, -0.055056930,  0.211217374, 
   0.001068665,  0.064146109,  0.123387650,  0.136234984,  0.118355483, 
  -0.017119043, -0.045545965, -0.014194490,  0.151684374, -0.140407339, 
  -0.086233892, -0.045508292,  0.168301910,  0.027418232, -0.006129014, 
   0.025651852,  0.186092794, -0.087231979, -0.111386932,  0.041907310, 
   0.326362967,  0.013648548,  0.037611768,  0.141647756, -0.016454970, 
   0.108291186, -0.032657061,  0.010143097, -0.107865363,  0.047156520, 
  -0.147546932, -0.006342865,  0.016676411,  0.022067649,  0.054305159, 
  -0.013044994,  0.306893110, -0.033963040, -0.034960479, -0.089733243, 
  -0.082876168,  0.038148791,  0.021661270,  0.057205189, -0.022532701, 
   0.064804114,  0.034595296, -0.159728095, -0.010470143,  0.052742694, 
   0.115732260,  0.040235136,  0.144307300,  0.006714825, -0.038474854, 
   0.070019729,  0.118778400,  0.166118369, -0.146979943, -0.057644214, 
   0.034133583,  0.068088338,  0.113032185, -0.052765466,  0.046524029, 
   0.093428552, -0.142996058,  0.130626097,  0.049839091,  0.111241095, 
   0.153129920,  0.066627368, -0.003207946,  0.092608288, -0.117499173, 
   0.143698722, -0.118321583,  0.017929668, -0.112311587, -0.118660271, 
   0.059704971,  0.050210193, -0.171732530,  0.117551498, -0.002923182, 
   0.076751672,  0.032500837, -0.236222059, -0.056068566, -0.034827393, 
   0.204461172, -0.158505246,  0.158130974,  0.078139685,  0.227040306, 
  -0.011078919, -0.141726479, -0.017315974,  0.038489293, -0.092121348, 
   0.197155446,  0.010655277,  0.000217293, -0.086633973,  0.139963910, 
   0.152503088, -0.152053580,  0.091942690,  0.042874370,  0.218439773, 
   0.082807913,  0.014335441,  0.121120036, -0.068921253,  0.176100388, 
  -0.088595279, -0.087013640, -0.137981012, -0.081423000,  0.194873944, 
   0.145956859, -0.123031214, -0.030869661,  0.153177500, -0.077488281, 
  -0.139337122, -0.105245963, -0.046273936,  0.057963945,  0.173984125, 
   0.259614706, -0.040435921,  0.091621801,  0.107934035,  0.023700740, 
  -0.052643847,  0.002996508,  0.068568192, -0.092929609,  0.088163324, 
   0.104958966,  0.043778680,  0.022051815,  0.158319011,  0.209023550, 
  -0.080671541, -0.099397190,  0.061689712,  0.094994128, -0.093270481, 
   0.106422491,  0.167826444, -0.093303755,  0.070700936,  0.204641804, 
   0.089561313,  0.075300671, -0.012488267,  0.180174410,  0.111709282, 
   0.177229017, -0.004587664, -0.093088575, -0.227107227, -0.023638077, 
   0.170711339,  0.016698167,  0.082795843, -0.242603138, -0.013946911, 
   0.037986778,  0.023978662,  0.057059314,  0.045017567, -0.061254237, 
   0.052187555, -0.167749912, -0.059505992,  0.176983327,  0.003354511, 
   0.195880026, -0.037219487, -0.074471176,  0.096022852, -0.039353952, 
  -0.172394142,  0.100859120,  0.060462374, -0.167593315,  0.092099160, 
  -0.303126901, -0.133387476, -0.228124723, -0.117800899, -0.023707122, 
  -0.022851206, -0.054254401, -0.098876849,  0.058888961, -0.074035957, 
  -0.125809535,  0.013877271, -0.003467938, -0.121850401, -0.031437051, 
   0.095794551,  0.082764708,  0.232162267,  0.106356628,  0.048066389, 
   0.070941605, -0.036813002, -0.140945807, -0.134345427,  0.019189406, 
   0.012383457,  0.030471111, -0.108012445, -0.202036396,  0.001101537, 
  -0.037346836,  0.067591242, -0.042106647,  0.094367012, -0.009997624, 
  -0.164454460,  0.196951658, -0.136342034,  0.132126465, -0.063283548, 
  -0.111174725,  0.114128970, -0.019963479,  0.062854193,  0.131594360, 
  -0.052712649, -0.048758268,  0.145212367, -0.146009922, -0.024310272, 
  -0.235162690,  0.016425146,  0.053593557,  0.042282041,  0.022162385, 
   0.054357711, -0.099472545, -0.006354621,  0.010817063, -0.244959697, 
  -0.349213451, -0.020490637,  0.292661637, -0.113966689, -0.020322518, 
  -0.012580067,  0.066303588, -0.020735551,  0.090119667,  0.182115182, 
  -0.111150205,  0.101522982,  0.155490562,  0.012326448,  0.281700462, 
  -0.237582788, -0.114867933, -0.052261189, -0.235141501,  0.092399940, 
  -0.058020689, -0.154955357, -0.207931861,  0.095923550, -0.106839649, 
  -0.098392233, -0.093928091, -0.056534328, -0.010956403, -0.163049236, 
   0.008394270, -0.204111338,  0.125905633, -0.016717315,  0.208862916, 
  -0.087929480,  0.024860369, -0.386968285,  0.059703398, -0.077132992, 
  -0.122954659,  0.068773873,  0.131296441, -0.054807916,  0.067574412, 
   0.092211239,  0.124112807, -0.080017835, -0.001319739, -0.035108708, 
   0.268406719,  0.132024407, -0.161315545,  0.084614843, -0.195408478, 
  -0.013092573, -0.258764416, -0.082571276, -0.045230333, -0.024897469, 
  -0.050912853,  0.154241785,  0.078515053, -0.142728612, -0.186028779, 
  -0.087994024, -0.017952751,  0.023658624, -0.065392353, -0.062029477, 
   0.194435492, -0.081795849, -0.093093708,  0.039991528,  0.130970150, 
   0.142869338,  0.187335268, -0.024963029,  0.019115102, -0.086801894, 
   0.041240823,  0.073792525, -0.050878648, -0.000054618,  0.055947941, 
  -0.002702194,  0.034296308,  0.021247838, -0.151554465,  0.100482471, 
  -0.085190028,  0.155525535, -0.031374935, -0.010205057, -0.129038513, 
  -0.056659751,  0.125120044, -0.056032188, -0.040384933,  0.109727085, 
  -0.065509535, -0.213665307, -0.044454888, -0.190101519, -0.004397027, 
   0.062043156, -0.068798885,  0.251283407, -0.095768683, -0.009409486, 
   0.082725257, -0.038617097,  0.137981147,  0.048376590,  0.027211050, 
   0.028564472,  0.112231374, -0.022131495, -0.136422426,  0.091338530, 
   0.163147703,  0.061368477, -0.003014740, -0.030578289,  0.050417095, 
   0.143370077,  0.026777308,  0.101934813,  0.090999328, -0.025226327, 
   0.129342511, -0.059917185, -0.027042909,  0.172213748, -0.116499327, 
   0.143691301, -0.057564281,  0.026352355, -0.041905753, -0.051728260, 
  -0.100153863,  0.070898831,  0.192723989,  0.016805476, -0.028450567, 
   0.010561318,  0.305902600,  0.127744168,  0.038282197,  0.079751953, 
   0.129783601, -0.097343616,  0.129539222,  0.259705693,  0.196050838, 
  -0.085769966, -0.124267876,  0.163047731,  0.031483550, -0.108870246, 
   0.126564607, -0.000741331,  0.143634781, -0.015737280,  0.022981765, 
   0.055194333, -0.063126862,  0.042319112,  0.082007989, -0.016068626, 
   0.169930592,  0.147671327,  0.068673685,  0.017127655, -0.027452067, 
  -0.067688748, -0.111776456,  0.019704893, -0.069399260,  0.109028280, 
  -0.098823696, -0.096833661, -0.068179786,  0.019593110, -0.067512594, 
  -0.049662415,  0.013906707, -0.010484994,  0.103550345,  0.098229960, 
   0.120485395,  0.051039360, -0.107767574, -0.049503163,  0.007314024, 
   0.034056861, -0.042573772, -0.068876550,  0.127998233,  0.154465735, 
  -0.178535327,  0.158076510,  0.050353035,  0.011859371,  0.118093759, 
  -0.146674871, -0.059898466,  0.161454037,  0.020041091,  0.208446249, 
  -0.171982259, -0.020574817, -0.123602144, -0.099935912,  0.044260826, 
  -0.055497319, -0.199651137,  0.026219599, -0.160637304,  0.030602559, 
   0.036443546, -0.306491166,  0.098176301,  0.015093789,  0.285642892, 
   0.038692560,  0.030782862,  0.075125538,  0.097403221, -0.104825474, 
  -0.206289694, -0.005039934,  0.176042065, -0.021834536,  0.112701803, 
   0.043999970,  0.001995986, -0.023563229,  0.170460567,  0.123472102, 
   0.097416312,  0.053122174,  0.026940202,  0.197414264,  0.174025565, 
   0.123976596,  0.168855354,  0.135773271, -0.004943102,  0.040487710, 
   0.056061700,  0.064914137,  0.015904006,  0.193821430,  0.118564010, 
   0.035223123, -0.136740118,  0.060903225,  0.017765353, -0.065323383, 
   0.047638264, -0.045984499,  0.028147485,  0.138532653,  0.095695347, 
  -0.139239714, -0.097029254, -0.033956520, -0.015502004, -0.087772347, 
   0.002882550,  0.081030317, -0.068187796, -0.132640600,  0.054239672, 
   0.029848330,  0.167900473,  0.076928817,  0.200257957,  0.018321853, 
  -0.043735873,  0.053273994,  0.060518768, -0.036675546,  0.143303052, 
  -0.036079802, -0.186160520, -0.094847262,  0.022258997,  0.007641022, 
   0.046273910,  0.044668503,  0.273503333,  0.167839974, -0.054411821, 
   0.092165910,  0.058957752, -0.268497586,  0.076775499,  0.161134541, 
  -0.043058682,  0.066104449, -0.199228272, -0.004198623,  0.113325976, 
  -0.053945813,  0.070160389, -0.071276687,  0.101571798, -0.144150674, 
  -0.251595855,  0.065769807,  0.096386611, -0.184817925,  0.221705407, 
   0.093119785,  0.010757580, -0.005311696, -0.029496795, -0.271760523, 
  -0.030240623, -0.101183169, -0.277170420, -0.127496347, -0.310845375, 
  -0.123274393, -0.193235695,  0.042739317,  0.087449528, -0.055028573, 
  -0.082950808, -0.048624087,  0.072233669, -0.032067865,  0.053426448, 
  -0.115318067, -0.007160690, -0.221270248,  0.109716170, -0.054018859, 
   0.050582260,  0.141180247, -0.008976907,  0.059765443, -0.111078888, 
  -0.067079283, -0.004904628,  0.087532520,  0.105687365, -0.037575215, 
  -0.066153139, -0.021520576, -0.204460219,  0.034673579, -0.070502810, 
   0.153256640, -0.085037813, -0.039383307,  0.160833552, -0.087380037, 
   0.150244132, -0.105064541,  0.164021164, -0.091356628, -0.052249715, 
   0.128838211, -0.014110653, -0.089277469, -0.082203910, -0.047954254, 
  -0.028058875,  0.059228767, -0.137423769, -0.021376282, -0.294914037, 
   0.041351009, -0.087636620,  0.067893192,  0.007150278, -0.038490053, 
  -0.146216109,  0.107756726, -0.041959677, -0.073563576, -0.392229408, 
   0.057316359,  0.093687780,  0.062171567, -0.107646614, -0.037496854, 
   0.054873385,  0.069491602, -0.051072497, -0.002971661, -0.175478369, 
   0.217051893,  0.120950170, -0.077206261,  0.148998201, -0.251219094, 
  -0.030374603,  0.239744350, -0.141364992, -0.030987505, -0.080744974, 
  -0.034889895, -0.276879311,  0.076821081, -0.166986480, -0.084640846, 
  -0.248477250, -0.068082303, -0.074915320, -0.129762724, -0.062767811, 
  -0.155518517,  0.017635565, -0.017700795, -0.027847189, -0.072579451, 
  -0.183934495, -0.319041401,  0.207161725, -0.136068180, -0.023701269, 
   0.103815421,  0.141189098, -0.080188558,  0.154829487,  0.259207785, 
  -0.013942461, -0.088790968,  0.112040855, -0.146391854,  0.118736319, 
   0.106965683, -0.047082793,  0.089688964, -0.219374672,  0.041441783, 
  -0.313016534,  0.079938643,  0.069625825, -0.025443561, -0.008082449, 
  -0.044529516,  0.053703882, -0.090224504, -0.150236398, -0.110948212, 
   0.013731821,  0.091397248, -0.114224829, -0.124301068,  0.072793961, 
   0.103292882, -0.090716735, -0.035600234, -0.007115417,  0.134243459, 
   0.059207596, -0.001175466, -0.106164180, -0.012984351, -0.050319154, 
   0.088301055,  0.062981650,  0.003949045, -0.059448812,  0.152271315, 
   0.116187021, -0.083706133, -0.132876426,  0.094928533, -0.227418929, 
   0.133580863,  0.093877256, -0.102718398, -0.028649665,  0.078753777, 
   0.020257654, -0.027893525, -0.071998827,  0.183017954,  0.034083534, 
  -0.080001637,  0.007281442, -0.125455096,  0.146715835,  0.016459772, 
  -0.069592789,  0.036226347, -0.156987518,  0.044142555,  0.121484824, 
  -0.077707902,  0.172950864, -0.045722872,  0.021057436,  0.095176414, 
   0.223941416, -0.093016818,  0.074670367,  0.050091412,  0.066117063, 
   0.120150350, -0.012978486, -0.019406170,  0.030313544, -0.121378951, 
  -0.014931372, -0.053295486,  0.052145533, -0.019644726,  0.039784241, 
   0.015877943,  0.117903695, -0.022472519, -0.043372236,  0.019450435, 
  -0.048175026,  0.154903382,  0.133698985, -0.038662065, -0.024272921, 
   0.120784894,  0.027288202, -0.088808395, -0.079575703, -0.040796857, 
   0.136421174, -0.045136809,  0.168734223,  0.141464919,  0.034273062, 
  -0.083544813,  0.034394529,  0.222616866,  0.135878578, -0.001454633, 
   0.092082262,  0.024106266, -0.005451268, -0.164666235,  0.063850179, 
   0.091237307,  0.027878761, -0.077111892, -0.134301290,  0.147105217, 
  -0.092147499,  0.111766577, -0.076476417, -0.155151084,  0.206690371, 
   0.155287474,  0.070053637,  0.062276885, -0.032178875, -0.032759860, 
  -0.068030536,  0.094214417, -0.182647854,  0.175856918,  0.037830941, 
  -0.164627984,  0.020895408, -0.112370208,  0.035163369, -0.059020679, 
  -0.074118897,  0.023115728,  0.163998991,  0.113421209,  0.221047446, 
   0.153572783,  0.001696654, -0.138361126, -0.127725974,  0.048919201, 
   0.028121797,  0.052761089,  0.231952950, -0.032104474,  0.012337631, 
  -0.057721704, -0.174029827,  0.043719497,  0.094035119, -0.166931152, 
  -0.146873236,  0.137992695, -0.061332550,  0.130286500,  0.005593306, 
  -0.016077276,  0.013435720, -0.096850395,  0.092355847,  0.044646326, 
  -0.158582360,  0.211740896, -0.174618557,  0.102509208, -0.162643269, 
  -0.067868136,  0.063303456,  0.136276886,  0.130722269, -0.065578625, 
   0.176566765,  0.150883600,  0.119467936, -0.093198329, -0.184222758, 
  -0.059330042,  0.137578458, -0.110708721,  0.116788074,  0.202105194, 
  -0.166227788,  0.091480397, -0.127113059,  0.173743054,  0.137870803, 
   0.041366439,  0.068294831,  0.089628406,  0.017416015,  0.035851546, 
   0.275034815,  0.031042406, -0.093558758, -0.030877987,  0.129412919, 
  -0.129732370,  0.017481321,  0.103664532,  0.107740834,  0.060031172, 
  -0.119285248,  0.119326323,  0.056015790, -0.081415839,  0.129385576, 
  -0.145562306, -0.140720502, -0.053757712,  0.200647637, -0.009895898, 
   0.051423524, -0.154042661,  0.003463008, -0.118638061, -0.032304455, 
  -0.004140832,  0.002196894, -0.097827882,  0.062395893,  0.086353846, 
   0.246264234,  0.113599278,  0.103455633,  0.093887500,  0.066451393, 
  -0.016112916,  0.051167827,  0.142995626, -0.019742655, -0.077059574, 
  -0.208627641, -0.185449898,  0.165678561,  0.190359145,  0.123135224, 
  -0.120783918,  0.307587415,  0.142203525, -0.277475208, -0.078579329, 
   0.014969753, -0.184735984,  0.047354311,  0.023491999, -0.019723147, 
   0.012298599, -0.319998771,  0.176832646,  0.134006128, -0.156314075, 
  -0.165505707,  0.116578549,  0.074410990, -0.270270854, -0.160017192, 
  -0.169821426, -0.132793486, -0.097383186,  0.045702271,  0.041170962, 
   0.134373084,  0.096389733, -0.036508910, -0.068572253,  0.093292989, 
   0.046950750, -0.069392547, -0.150105953, -0.111069918,  0.023098852, 
  -0.135439679, -0.155298218, -0.095243774,  0.002038944, -0.006568895, 
   0.026447672, -0.132756397,  0.141990572, -0.046633236, -0.104307495, 
  -0.074863672, -0.010313317,  0.000310031,  0.000536260,  0.117174998, 
  -0.029784432,  0.154374555,  0.018079778,  0.012004664, -0.033474166, 
  -0.150408581,  0.029282024,  0.058968231,  0.026728921, -0.017721705, 
  -0.038022958, -0.258687884, -0.035460390, -0.031629130, -0.072913907, 
  -0.038821928, -0.180864438,  0.199002683, -0.070440196,  0.027527807, 
  -0.106519125,  0.012701483, -0.275195420, -0.080806181,  0.187711582, 
   0.126087621, -0.173149720, -0.035799734, -0.252838492,  0.012389015, 
   0.131876990, -0.025799418, -0.035505060, -0.214074656,  0.001968638, 
   0.020569481, -0.037522350,  0.105049558, -0.136532769, -0.042998064, 
   0.090660729,  0.098963328, -0.069273964, -0.183748379,  0.033074047, 
   0.066038385,  0.008431346, -0.112516627,  0.016630886, -0.026743231, 
  -0.031725936,  0.000319927,  0.145818666, -0.056384340,  0.239311591, 
   0.165071920, -0.239342988, -0.198915556, -0.069656558,  0.062356174, 
   0.112063505, -0.152870670,  0.154109538,  0.032448526, -0.174345762, 
  -0.155320883, -0.078696705, -0.148367897, -0.004185982, -0.150962204, 
  -0.041953094, -0.210556120, -0.253955036, -0.023573386, -0.147112399, 
  -0.050293904, -0.105900943,  0.086048208, -0.148039326, -0.023337096, 
  -0.364344805,  0.069515668, -0.020479387,  0.077242538, -0.038829282, 
  -0.005252859,  0.039443437,  0.060122348,  0.084784269,  0.025711503, 
  -0.227485389,  0.063299619, -0.206510559,  0.016067576,  0.078377604, 
   0.060029246,  0.073087193, -0.267436624,  0.095075659, -0.177723974, 
   0.179091275,  0.056423843, -0.139515370,  0.079133011,  0.173745960, 
   0.068030417,  0.038895782, -0.004767124,  0.101008214, -0.018809685, 
  -0.011352345, -0.079178736, -0.078841925,  0.144962341,  0.108338803, 
   0.037140064,  0.001566518, -0.122925326, -0.041207273, -0.001262450, 
  -0.077983037,  0.110788234, -0.103048809,  0.053498924, -0.058187153, 
   0.152287737,  0.076400310, -0.109641396,  0.090967163,  0.130166128, 
   0.030201370,  0.013456210,  0.047586177,  0.048797864, -0.107659131, 
   0.038031291, -0.033586409, -0.054980129, -0.039270237,  0.107275166, 
   0.112893321,  0.061978128, -0.036084838,  0.106892206, -0.118582405, 
   0.157375798,  0.044200916, -0.013843903, -0.001275074,  0.162510604, 
  -0.069727033,  0.058150794, -0.110592544,  0.069926806,  0.015061982, 
   0.063884653,  0.035820235,  0.042349480, -0.056694347,  0.103945509, 
  -0.149950936,  0.108545296,  0.032716583,  0.114437938,  0.104831368, 
   0.058727998,  0.063270614,  0.124510176, -0.001456479, -0.010177310, 
  -0.021689659,  0.066412315,  0.005094538,  0.037485752,  0.035291310, 
  -0.050061040,  0.001589250, -0.017215775,  0.000173491,  0.024331419, 
   0.081760302,  0.002589023,  0.118687965,  0.003071863,  0.078014798, 
   0.037332416,  0.058633424, -0.081982188, -0.044895079, -0.035933528, 
  -0.110322282,  0.002484415,  0.191993833,  0.177177608, -0.082839727, 
   0.088302292,  0.247525364,  0.040689178,  0.137649268,  0.011629207, 
   0.027493272, -0.056801762, -0.160784811, -0.035105068,  0.002673226, 
  -0.055968769,  0.040110331, -0.037027549,  0.032611057, -0.216539949, 
   0.066819280, -0.128006175,  0.069474243,  0.189506963,  0.214145392, 
   0.003259247,  0.029687248, -0.055292737,  0.120438129, -0.041005254, 
  -0.059345108, -0.059126355,  0.192488506,  0.103520535, -0.116482638, 
  -0.043611992, -0.082123831, -0.085548602, -0.000025500,  0.085459694, 
   0.068966642,  0.154146343,  0.016525188,  0.143536806,  0.164956108, 
  -0.049242482, -0.004782457, -0.136870161,  0.015858991, -0.183998883, 
  -0.081502281,  0.184449807,  0.096691564,  0.002184103,  0.046248179, 
  -0.162025541,  0.062499318, -0.022968795, -0.199307561,  0.053247891, 
   0.026432332,  0.065522619, -0.046307076,  0.158104673, -0.025358668, 
  -0.006039675,  0.118612647,  0.011529830, -0.017828593, -0.152441159, 
   0.036894135, -0.010481558, -0.077787302,  0.013345504, -0.160477579, 
  -0.024401180,  0.148523197,  0.213968545, -0.081072554,  0.145066068, 
   0.135047495,  0.176404878, -0.002019301, -0.069971971,  0.007660402, 
   0.133655950,  0.139568403, -0.057932995,  0.010450724, -0.104589976, 
  -0.149514094, -0.059223831,  0.196006835,  0.164139941,  0.159897879, 
   0.148556173,  0.139196262,  0.126083240, -0.081809491,  0.266045451, 
  -0.051043291, -0.037627436, -0.000224052,  0.042913120,  0.016670780, 
   0.184623659, -0.091806233,  0.125166625,  0.008985796, -0.195389569, 
   0.055463236,  0.129083246, -0.020401331,  0.064169101, -0.066949576, 
  -0.105179168,  0.117352374, -0.020241072,  0.084883489, -0.068037763, 
  -0.134306207, -0.060554225, -0.062166367,  0.183549583, -0.084696911, 
   0.041935593,  0.003535226,  0.083928131, -0.107346885,  0.268042922, 
  -0.046294514,  0.153363928,  0.070278667,  0.089082465, -0.146015033, 
   0.258424193,  0.210619092,  0.066268072,  0.020365454, -0.084690541, 
  -0.158365473,  0.109735221,  0.061969291,  0.177152872, -0.092467755, 
   0.130505145,  0.185807809, -0.095875680, -0.012183665,  0.094160363, 
  -0.005543054,  0.101420209, -0.088929214, -0.078543089,  0.123629883, 
  -0.177976727,  0.064998366, -0.014983359, -0.015410230, -0.200547665, 
  -0.009401713,  0.079508685, -0.135071874, -0.220858023,  0.077580586, 
  -0.100947842, -0.044209126, -0.081744462,  0.102603808,  0.063955694, 
   0.013703809, -0.206568375, -0.156390324,  0.009715505, -0.021244895, 
  -0.232028916, -0.102226585, -0.232209191, -0.070759505, -0.013328182, 
  -0.066280834,  0.047051042, -0.145443916, -0.149659291, -0.241020739, 
  -0.109006628,  0.207482666,  0.018583534, -0.059299484, -0.102891073, 
   0.109961383, -0.135972649, -0.102075130,  0.098415144, -0.038799267, 
   0.064231485,  0.173462629, -0.011477713, -0.184376270, -0.067184985, 
   0.064280301,  0.131046370, -0.088592835, -0.099409178, -0.033246566, 
  -0.088542998, -0.049413677, -0.000431319,  0.003380086, -0.081109665, 
  -0.030665530, -0.079845421, -0.189343736, -0.062146239,  0.108685806, 
   0.182351947, -0.098523751, -0.065213628, -0.111064561,  0.049906701, 
  -0.155152753, -0.149227962, -0.206143349, -0.034191437, -0.053761076, 
  -0.098973334,  0.141764864, -0.239916950,  0.073606685,  0.108907446, 
  -0.057731085,  0.006207237, -0.096690066, -0.146072268, -0.056809969, 
   0.041528545, -0.068314619, -0.231196031,  0.006769007, -0.096849635, 
  -0.035509109, -0.050385557, -0.070574656,  0.031037871,  0.076712161, 
  -0.180257976,  0.062553465, -0.033253878,  0.180830300,  0.032137010, 
  -0.288823783, -0.385865778, -0.182060093, -0.068173297,  0.110297509, 
  -0.013995804,  0.124672137, -0.113633387, -0.020867990, -0.061985590, 
  -0.078195199, -0.173516199, -0.116019964, -0.218693927, -0.135332152, 
  -0.023950255, -0.139832810,  0.021744743, -0.271699518, -0.089862429, 
  -0.018033896,  0.079139359,  0.007541265, -0.196947411, -0.310728848, 
  -0.035543695, -0.138340622,  0.110345781, -0.145950690, -0.362557173, 
  -0.107460327, -0.136145309,  0.063001513, -0.172503516, -0.136436895, 
   0.085099451, -0.032571707, -0.110185109,  0.033658821,  0.066237241, 
   0.023348104, -0.192711651, -0.114524476,  0.070776008,  0.092738301, 
  -0.007157698,  0.078367785, -0.092433229,  0.211768627,  0.034532875, 
  -0.158425897,  0.115115888,  0.128432691, -0.047474872,  0.111356333, 
  -0.065107182, -0.155878365, -0.000907598,  0.042322487,  0.119119875, 
  -0.081516862, -0.066314869,  0.113685414,  0.071189627,  0.110858604, 
   0.179004148, -0.038116757,  0.021661445,  0.051281508, -0.018253457, 
  -0.080499969,  0.002811794,  0.170562044,  0.113417707,  0.038699262, 
  -0.067980692,  0.119189806,  0.013068619,  0.020052349,  0.218847796, 
   0.019678889,  0.122448340, -0.087429158, -0.011086253, -0.038811944, 
   0.082475461, -0.061990067,  0.013606739, -0.090914458,  0.087968409, 
   0.018920045,  0.054252453,  0.017094763,  0.153095216, -0.166828647, 
  -0.090124719,  0.066808291,  0.094913311,  0.073401965,  0.209012806, 
  -0.035052646, -0.025774118,  0.122067064,  0.141901597, -0.028259527, 
   0.015166900,  0.105629556,  0.127124503, -0.007139392,  0.071263000, 
   0.102233700,  0.136301905, -0.073775075,  0.046449181,  0.004840118, 
  -0.037743483, -0.072483495,  0.045775268,  0.034328431,  0.015196725, 
   0.069128931,  0.043557048,  0.092855476,  0.161258429,  0.155097738, 
   0.190228686,  0.138080731,  0.006835251, -0.113186069,  0.150677130, 
   0.049279798,  0.066340066,  0.008172848, -0.166967005,  0.100452386, 
   0.194284081,  0.105649665,  0.060127847,  0.086241201, -0.049632020, 
   0.301759541,  0.071957640,  0.018388323, -0.059369795,  0.092817612, 
  -0.092002489, -0.117809802,  0.090634108, -0.016990434,  0.075612485, 
   0.050988708, -0.131130055,  0.005127364,  0.068988860,  0.058139440, 
  -0.051005699, -0.061798505, -0.041253727,  0.021878818, -0.076160468, 
  -0.019406585,  0.089925200,  0.124623135,  0.104480237,  0.013678044, 
   0.044299290,  0.264236867,  0.047438625, -0.000460304, -0.026089098, 
  -0.043501582,  0.113759197,  0.159145311, -0.015134645, -0.141206503, 
   0.077976152,  0.041266862,  0.098954029,  0.156486988,  0.000042006, 
   0.181029454, -0.096430898, -0.137711570, -0.053385783, -0.102671273, 
   0.139925689,  0.059288945,  0.127851605,  0.029830707, -0.118927918, 
  -0.045220766, -0.058632962, -0.183208466, -0.044921145,  0.083219193, 
   0.102145404, -0.116646580,  0.162524402, -0.102920279, -0.034914110, 
   0.083176561,  0.085149676,  0.000668140, -0.123511814,  0.158035010, 
   0.082617506, -0.063060090, -0.022180213,  0.037361953,  0.127350196, 
   0.019080935,  0.192599520, -0.160681784, -0.050809000, -0.084736906, 
  -0.007613904, -0.094076037,  0.154933482,  0.204449564, -0.071260512, 
   0.111306973, -0.097751521, -0.085151874,  0.079241224, -0.056719959, 
  -0.060316499,  0.175085396,  0.099378847,  0.088396616,  0.057850327, 
   0.131820112, -0.007176448, -0.137695238,  0.024979511,  0.071962364, 
   0.014134071,  0.146690533,  0.010648507, -0.153680861,  0.147327095, 
  -0.250776559,  0.016823223,  0.014687139,  0.050860930,  0.025130948, 
  -0.046379570,  0.103482448,  0.066215888, -0.096502908, -0.018758383, 
  -0.059358761, -0.062947012, -0.028630288, -0.104387321,  0.153506398, 
  -0.011998575, -0.039015718,  0.093967497,  0.142168969, -0.060623094, 
   0.113819368, -0.245328352, -0.116742156,  0.183153450,  0.105144158, 
   0.159070387,  0.085681312,  0.103531502, -0.114220284,  0.188098148, 
   0.135458663, -0.045148447,  0.178492576, -0.043715708,  0.094840467, 
   0.206222758,  0.153856233,  0.049958687,  0.087101981,  0.216387942, 
   0.076352499, -0.043179702, -0.048023328, -0.031339820,  0.107545227, 
   0.200708106,  0.067620769,  0.088296339,  0.084886685, -0.082564600, 
   0.128931075,  0.130504429,  0.013212421, -0.104910374, -0.011660519, 
   0.011383194, -0.143172413, -0.094418958, -0.061604965, -0.000243932, 
   0.074080825,  0.054735065, -0.042682461,  0.145327717, -0.008823388, 
  -0.156677529, -0.197334677, -0.054727804, -0.051157583,  0.001797489, 
   0.087526575, -0.054125644, -0.052554470, -0.003406095, -0.005835003, 
  -0.064055331, -0.158368483, -0.263212383, -0.031680457,  0.001831417, 
   0.109867722, -0.010462321, -0.119732745, -0.073843643,  0.081647620, 
  -0.067836583,  0.033191960, -0.073853090, -0.031550702, -0.000992182, 
   0.191563457,  0.020476339, -0.207743898, -0.089148909, -0.074100114, 
   0.098169759, -0.124656856,  0.014526052,  0.009879814,  0.063191146, 
  -0.130379364, -0.078351267, -0.046003502, -0.115472250, -0.084911495, 
   0.021754326, -0.072720356, -0.151563853,  0.015816484,  0.084732376, 
  -0.159859300, -0.151656285, -0.237476379, -0.146550626, -0.112123266, 
  -0.195345163, -0.033160064,  0.121151157, -0.173616111,  0.006956302, 
   0.086415499, -0.246918902,  0.084927104, -0.052427091, -0.060556300, 
   0.021961495,  0.115219325, -0.183420733,  0.019801488,  0.042497151, 
  -0.042226750, -0.262573361, -0.275560111, -0.008456702,  0.025315378, 
   0.082928717, -0.000359518,  0.034236785, -0.040813506, -0.206733152, 
  -0.013972308, -0.010084125, -0.025008375,  0.097906798, -0.216660231, 
  -0.197697192, -0.111935414, -0.058232509,  0.027840979, -0.047494084, 
  -0.119720310,  0.079419665, -0.167269811,  0.104959473, -0.034386817, 
  -0.057627119, -0.038832039, -0.198421225,  0.056351829, -0.184235156, 
  -0.156439975, -0.108849838, -0.228877023, -0.312866360, -0.055882230, 
  -0.113064148,  0.003149993, -0.174403563, -0.093489990, -0.166705906, 
  -0.165650114,  0.067370959, -0.055556055, -0.457970738, -0.098420613, 
   0.004949440, -0.020650439, -0.193250120, -0.084602140, -0.051675197, 
  -0.059257254, -0.050240546,  0.032693055,  0.011194000, -0.016566336, 
  -0.079693191, -0.157577619,  0.048538968,  0.077377453, -0.118403517, 
   0.097211815,  0.027934330,  0.136408776,  0.184003681,  0.030136460, 
  -0.000667227,  0.170236513, -0.064054273,  0.077132992,  0.030060858, 
   0.035478357,  0.117233597, -0.085741773, -0.072786890, -0.003170081, 
  -0.090183727, -0.054934051,  0.043222047,  0.085401513,  0.141021326, 
   0.041385725, -0.029343508,  0.112576470, -0.013591047,  0.095225804, 
  -0.045185465, -0.086979203, -0.031498805, -0.026469212, -0.119237900, 
  -0.094994925,  0.002442510, -0.175700545,  0.051000085,  0.108075209, 
   0.096078768,  0.010921366,  0.116723225, -0.068791635, -0.043273270, 
  -0.124516688,  0.189860478,  0.074749053,  0.038783971,  0.112949178, 
   0.056847308, -0.036251727,  0.125017941,  0.080460109,  0.006522451, 
  -0.061201487,  0.048355106, -0.019914789,  0.029862812, -0.019123666, 
  -0.031603158,  0.042094611, -0.089434423, -0.083742611, -0.073689498, 
   0.002281211, -0.030846065, -0.057754438, -0.038135163,  0.056318615, 
  -0.063790157, -0.013058692, -0.057981446, -0.153052822, -0.057207707, 
  -0.055915035,  0.144793481,  0.035222508, -0.090784863,  0.147569552, 
  -0.111820422,  0.150033996,  0.190155357,  0.232435480,  0.059825923, 
   0.146514416,  0.169362858,  0.030697944,  0.109034903,  0.028437419, 
   0.094583452, -0.011527147, -0.017964503,  0.034419816,  0.161597133, 
   0.068989001,  0.111739889, -0.098800689,  0.148823425,  0.133622989, 
  -0.080742233, -0.147474527,  0.147566915,  0.168008029,  0.138080582, 
  -0.035575751,  0.144105762, -0.112832308,  0.064836912,  0.139587060, 
  -0.090652198,  0.022492429,  0.103800356,  0.078569196,  0.020149462, 
  -0.000270095,  0.200042695,  0.113393314, -0.035728898, -0.107083455, 
  -0.077603675,  0.198467448,  0.097371951,  0.038943667,  0.109619662, 
   0.010419861, -0.002913694,  0.054128755, -0.141129479, -0.012872041, 
   0.036198724,  0.046506200,  0.088849641,  0.045393862, -0.110379256, 
   0.005337696,  0.149245173,  0.126857460,  0.176684931,  0.054662798, 
  -0.055085760, -0.036137819, -0.121469095, -0.133963734,  0.143796936, 
   0.007970798,  0.004563374,  0.109758832, -0.031521805,  0.075941116, 
   0.019442657, -0.151137069, -0.079080291,  0.111130543,  0.036755171, 
  -0.034180209,  0.145958781,  0.017388189,  0.034153424,  0.006440559, 
   0.155096740, -0.128271461, -0.080582432, -0.043940801,  0.102312133, 
  -0.061253767, -0.043925863, -0.045254871, -0.094698533, -0.050850961, 
   0.166054308, -0.041804165,  0.077062890, -0.119727440,  0.059542038, 
   0.020513374,  0.186698586,  0.226826921, -0.135749951, -0.010679925, 
  -0.184465960, -0.091802821,  0.047464084,  0.062619582,  0.035822581, 
  -0.066038750,  0.048282009,  0.076063924,  0.102620386, -0.069622263, 
   0.148689091, -0.242506012, -0.027280318, -0.061156265,  0.233743504, 
  -0.025450015, -0.080699399, -0.017155478,  0.092477620, -0.140169770, 
   0.008304445, -0.030223528,  0.064626046, -0.058926117,  0.000069084, 
  -0.057266459, -0.155108422, -0.049962241, -0.120709099,  0.009102474, 
   0.131717965,  0.122994520, -0.122576974,  0.017720152,  0.094840124, 
  -0.017726256,  0.031061823, -0.038777940,  0.033287883, -0.014905240, 
   0.018727064, -0.151509419,  0.089159973,  0.135056928, -0.055583104, 
  -0.060440633,  0.023900807, -0.032957830,  0.098005719, -0.134524688, 
   0.048266273,  0.069977574,  0.057395171,  0.055639032,  0.169877455, 
   0.110047907, -0.149328634,  0.114140362,  0.141637057,  0.109241150, 
   0.065724716,  0.089824848,  0.145354554,  0.144852608,  0.185800746, 
  -0.055354804, -0.014075441, -0.004101970, -0.174458519,  0.044559449, 
  -0.023458976,  0.003293071,  0.114801042,  0.004854210,  0.139310867, 
  -0.115621686, -0.131094977,  0.049178589,  0.163867593,  0.138832599, 
   0.074088603,  0.003444877,  0.105173819, -0.009984769, -0.134999722, 
  -0.172843680, -0.011517595, -0.208273441, -0.025215639, -0.101731330, 
   0.042987406, -0.143922105,  0.010811209, -0.043874104,  0.180642635, 
   0.025250250, -0.207899988, -0.114994124, -0.132756814,  0.115025483, 
  -0.126803234,  0.029326703, -0.100693494, -0.078921676,  0.051467888, 
   0.029046636,  0.073948011, -0.035128705, -0.075658016,  0.159025609, 
  -0.050363764, -0.055807773,  0.059206758, -0.028553097,  0.205936596, 
  -0.077826411, -0.006524140, -0.071278162, -0.095956095,  0.072928160, 
  -0.005882230,  0.025278375, -0.243395224, -0.267604232,  0.042939443, 
  -0.046273507, -0.100738727,  0.048098236,  0.098128557, -0.085642174, 
  -0.022126431, -0.107773364, -0.008660456, -0.124708407, -0.180237144, 
  -0.034974184, -0.047251966, -0.160718292,  0.005999082,  0.156315476, 
  -0.212684363,  0.028166458, -0.131510541, -0.034864090, -0.017017199, 
  -0.039314851, -0.069364376, -0.069793023,  0.088722922,  0.097641870, 
  -0.141935125, -0.050428405, -0.113760903, -0.145648554,  0.047290340, 
   0.051564563, -0.108984254,  0.036120076, -0.294823527, -0.004345697, 
  -0.017705370,  0.088736124, -0.090831853, -0.281425357,  0.014579342, 
  -0.036119312, -0.149703532, -0.049170367, -0.033735089, -0.129147857, 
  -0.031833574,  0.048506700,  0.168209746, -0.066944472,  0.074388199, 
   0.021571085, -0.028670883, -0.059512764, -0.077578612, -0.204929829, 
  -0.120644242, -0.127142519, -0.321537018, -0.017704977, -0.093848698, 
  -0.058881417,  0.006041791, -0.213156149, -0.109100886, -0.159414396, 
  -0.134414241, -0.128456637, -0.380814493, -0.046395183,  0.054795392, 
  -0.122681990, -0.191171974,  0.038955346, -0.030343395, -0.259330094, 
  -0.169769317,  0.092900068, -0.037141159, -0.052568771, -0.171370819, 
  -0.155946940,  0.075164109,  0.027120650, -0.161980420,  0.184559107, 
  -0.090691321,  0.197076812,  0.221138060, -0.151798382,  0.013761250, 
   0.099710241, -0.181889594,  0.102537163,  0.032692086, -0.091634907, 
   0.182434171, -0.086098820,  0.111914292, -0.056193039, -0.084464826, 
   0.013210198,  0.125598088, -0.019940116,  0.150630832,  0.079514101, 
   0.085512757,  0.059492186, -0.117364272, -0.082638979, -0.091740221, 
  -0.156244591,  0.148543000,  0.009837981,  0.098202445, -0.019604364, 
   0.033604987, -0.041301958,  0.137249008,  0.062957019, -0.127722427, 
  -0.001852285,  0.067791656,  0.063935399,  0.040509120, -0.197644189, 
  -0.017258560,  0.088784106, -0.020245535,  0.136803463,  0.076250121, 
   0.092412718,  0.003992450,  0.125030234, -0.094176762,  0.154634997, 
   0.056913059, -0.063525602, -0.134207234,  0.134506002, -0.055089973, 
   0.096949540, -0.062956296, -0.084723882,  0.110187396, -0.044268284, 
