// -----------------------------------------------------------------------------
// 
// This file is auto generated by model_export.py
// -----------------------------------------------------------------------------
#ifndef MNIST_MODEL
#define MNIST_MODEL

// ....
#include <stdint.h>
#include "infercat.h"

// -----------------------------------------------------------------------------
//
// -----------------------------------------------------------------------------

// ...
float mnist_model_gru_output[128];
  
// ...
static const float mnist_model_gru_weights[10752] = {
  -0.001273137,  0.068115249,  0.048014216, -0.042956855, -0.005154794, 
   0.004709118, -0.030663898, -0.004465696,  0.046862762, -0.121125720, 
  -0.019024778, -0.045086879, -0.053119559,  0.033752516,  0.055377990, 
  -0.027972300, -0.096673273, -0.151248500, -0.004849275, -0.115501717, 
  -0.029311251,  0.036656719,  0.060148384, -0.015232547,  0.004453655, 
  -0.050743725, -0.090359010, -0.000055731, -0.094518945, -0.139112756, 
   0.052723058, -0.049159478,  0.038315829,  0.039424453, -0.049370248, 
   0.042073157, -0.025118377,  0.007740742, -0.096338823, -0.096842438, 
  -0.079592504, -0.112380803, -0.093786284, -0.109362550,  0.052371297, 
   0.101840749, -0.134600550,  0.037920006,  0.094382487,  0.049449790, 
  -0.032946974, -0.036969069, -0.120931692,  0.021203471, -0.047014922, 
  -0.064930595, -0.082559437,  0.026227571, -0.069922231,  0.082097918, 
   0.061525501, -0.034915343, -0.143984780, -0.052798368, -0.095177934, 
  -0.122875601,  0.020887595, -0.097053774,  0.041311540, -0.010580986, 
  -0.112329505,  0.008670044, -0.032838989,  0.014782296, -0.025549322, 
  -0.023335975,  0.057923924, -0.030488545, -0.066893458, -0.008969784, 
  -0.073002435, -0.089106746,  0.047610059, -0.018261341, -0.077757925, 
   0.026477357, -0.030432504, -0.035360996,  0.094103180,  0.097348459, 
  -0.012417334, -0.130933926,  0.018483333, -0.050199773, -0.119293220, 
  -0.135014161,  0.000689751,  0.068332657,  0.077359810, -0.155546650, 
  -0.009173891, -0.138507217, -0.055273473, -0.004097140, -0.027605467, 
   0.083982699,  0.088060863, -0.080889232, -0.082852863, -0.034769621, 
  -0.012042498,  0.061650291,  0.028728478, -0.073494457, -0.107689045, 
  -0.075082213, -0.034132108,  0.022209609,  0.026871258,  0.085872948, 
  -0.071829267, -0.125663668,  0.005900236,  0.055863772,  0.151673988, 
   0.126607582,  0.002032009, -0.118959151,  0.079015449, -0.023942161, 
  -0.008828343,  0.114718273,  0.056595143,  0.009586849,  0.052620657, 
  -0.047501978,  0.080765955,  0.121831775, -0.057111681,  0.043449771, 
   0.057513934, -0.079429276,  0.024133699, -0.037863091, -0.039255898, 
  -0.073488630, -0.030082509,  0.140889928, -0.095405936,  0.037023950, 
  -0.087481789,  0.041743297,  0.102486752,  0.134312078, -0.037332680, 
  -0.067655906,  0.044827394, -0.028814269, -0.127529696,  0.005884925, 
   0.089563534,  0.131589711, -0.012844812,  0.016646633, -0.009621593, 
   0.018439630,  0.145380795,  0.011212071,  0.044045530,  0.118340410, 
   0.105458014,  0.030230790, -0.002872426, -0.106132179, -0.019106144, 
  -0.095672928, -0.093080334,  0.105092950,  0.056095053,  0.104115181, 
   0.078099169, -0.000296507, -0.054677669, -0.029012226, -0.082201190, 
   0.049050037,  0.070705779,  0.042268839,  0.044832852, -0.067757629, 
   0.065724842,  0.057664033, -0.046824560,  0.127455026,  0.099219404, 
  -0.011288312,  0.000301149,  0.093661070, -0.054564197,  0.095882095, 
  -0.095518440,  0.039377514,  0.074712031,  0.001754528,  0.080025427, 
   0.004301611, -0.003532894,  0.112694040,  0.125689283,  0.042767335, 
  -0.067728795,  0.010026315,  0.120915830, -0.094652899,  0.049167342, 
   0.060152173, -0.070380181,  0.093358003,  0.020399949, -0.004462631, 
   0.043405607,  0.044053175, -0.005452501,  0.035013527,  0.110287488, 
   0.009740015,  0.054589991, -0.079668030,  0.080803968,  0.009586297, 
   0.015241338,  0.038843233, -0.081985757,  0.118078262, -0.029483335, 
   0.020094233,  0.009166039,  0.144022793, -0.050730150, -0.093072116, 
   0.015272949, -0.035469498,  0.030195300, -0.053485110,  0.141637743, 
   0.060639873, -0.094384156, -0.123114526,  0.013106439,  0.072963558, 
   0.009753173,  0.071434163,  0.088056408,  0.066362716, -0.065592431, 
   0.113024727, -0.109340779,  0.028607866, -0.021504343, -0.053462490, 
   0.028888751,  0.034634039, -0.016327327, -0.110840060, -0.061656434, 
  -0.014929740, -0.070626065,  0.060878485,  0.039957609,  0.089040481, 
  -0.060730331,  0.055113059, -0.084292896,  0.055749349,  0.060665514, 
   0.097392432,  0.020016985,  0.026500298,  0.100120910, -0.077068456, 
   0.023311786,  0.071545169,  0.004964133, -0.013379146, -0.074538521, 
  -0.044483777, -0.049018390,  0.093280666,  0.031773116,  0.027040664, 
  -0.028573208,  0.004238260,  0.078306630, -0.007384738,  0.117824994, 
   0.056085180, -0.000364848, -0.021837419, -0.029154098,  0.034120996, 
  -0.057796214,  0.128676862,  0.128481239, -0.144754246, -0.035439257, 
   0.120454460,  0.104623921,  0.110710904, -0.011021606,  0.106913768, 
   0.018824935, -0.069911778,  0.153804138,  0.117949635,  0.013845204, 
   0.060463160, -0.091701850, -0.021233471,  0.067421630, -0.107919998, 
   0.022664612,  0.035758696,  0.098790728,  0.014226898,  0.035438567, 
  -0.053617522, -0.030815277,  0.050258905,  0.105595358, -0.074843355, 
  -0.001975727,  0.009246069, -0.103092700,  0.147058547, -0.061155397, 
  -0.043006741,  0.080343656, -0.034945548,  0.102222651,  0.001223937, 
  -0.032681644, -0.028748797,  0.082001254,  0.062781371,  0.074203551, 
   0.001675118, -0.010908742, -0.066305712,  0.112517402,  0.139842823, 
   0.092869811,  0.093570724, -0.089002334,  0.002641656, -0.082657896, 
  -0.030997597,  0.062725805,  0.103425339, -0.022165444,  0.050588079, 
  -0.123632491,  0.116427511,  0.009261609, -0.037840936,  0.058979042, 
   0.058680538, -0.032245196, -0.083839789,  0.014555863,  0.107244700, 
  -0.072429821,  0.058354422,  0.010329602,  0.141155243, -0.025272723, 
   0.016218936, -0.154637843, -0.074873246, -0.080299243, -0.086879075, 
  -0.036682840, -0.046460506, -0.051155780, -0.053326555, -0.106711455, 
   0.016076662, -0.026060214, -0.078986473,  0.017832115, -0.067165628, 
  -0.088576488, -0.051161941, -0.009464261, -0.058466084,  0.136259452, 
  -0.058434993, -0.055560712, -0.056456354,  0.069461867, -0.020531895, 
  -0.165949419,  0.111724064, -0.052323546, -0.065450698, -0.017456945, 
  -0.021079471, -0.052341428,  0.025813783,  0.014346633,  0.074958578, 
  -0.024224116,  0.059742916,  0.001532087, -0.019979253, -0.045938406, 
  -0.087644756,  0.073364303, -0.022677545, -0.060539532, -0.015063589, 
   0.030678982, -0.019080160,  0.076563083,  0.014858818,  0.062620722, 
   0.049057260,  0.032036964, -0.112940893,  0.100008622, -0.032324851, 
   0.073254235, -0.099219851, -0.136563614,  0.031829078, -0.025814522, 
  -0.088949583,  0.039717805,  0.023464205,  0.057580583,  0.157412544, 
   0.027717741, -0.013028109,  0.020928502, -0.143421084,  0.032645404, 
   0.074245349, -0.155456126,  0.039728981, -0.065194041,  0.026737235, 
   0.018520266,  0.083210900, -0.141915485,  0.097235210, -0.031662013, 
   0.052007966, -0.005932035,  0.021470273,  0.043004870, -0.042394504, 
   0.058677163, -0.127744809,  0.000684675, -0.009275313,  0.073203817, 
  -0.003098771, -0.111496426, -0.107297428,  0.057678543, -0.100846186, 
  -0.012233511,  0.060304426, -0.113968313, -0.041618306,  0.021604009, 
  -0.037894566, -0.027573789, -0.109050781, -0.037725769, -0.136124775, 
  -0.007372893,  0.092264965, -0.090226315, -0.073583737, -0.094200298, 
   0.092919283,  0.020226728, -0.081417441, -0.072323754,  0.153149381, 
   0.039254870, -0.063069209, -0.005580564, -0.077113390,  0.097565904, 
   0.066675246, -0.029970411,  0.042598490, -0.090700068, -0.014295918, 
  -0.030895593, -0.137802362, -0.048970997, -0.071885504,  0.055014588, 
  -0.095335387, -0.039263770, -0.004874052, -0.061275344,  0.003660068, 
   0.094396181, -0.025819767,  0.057764698,  0.073950201, -0.024245951, 
  -0.082892932,  0.101669431,  0.042362053, -0.096192464,  0.079517774, 
   0.074744254,  0.082155071, -0.028739613, -0.015908083,  0.045239177, 
  -0.098424859, -0.040389512,  0.091733061,  0.015116951,  0.051460676, 
   0.102261558,  0.075359538, -0.130409390, -0.008278547,  0.006613004, 
   0.012598025,  0.083452024, -0.152883843, -0.027016772,  0.069399185, 
  -0.045179918,  0.048879433, -0.119663507,  0.014740249,  0.101832479, 
   0.124292009, -0.124928221,  0.059937429,  0.021993436, -0.096833423, 
  -0.081036255,  0.015989402,  0.107786052,  0.039849918, -0.122664042, 
   0.019760950, -0.088417694, -0.106782012, -0.050405204, -0.059210200, 
   0.165666401, -0.086823590,  0.048895173, -0.059358835, -0.022080144, 
  -0.122101516,  0.027677018, -0.019263761, -0.054542385, -0.084931552, 
   0.001568682,  0.159221709, -0.065372616, -0.069690451,  0.128964782, 
  -0.128671214, -0.032158926,  0.006601513, -0.061806906, -0.023374798, 
  -0.022598600,  0.087578446,  0.120052971, -0.090344407, -0.028012069, 
   0.020636812, -0.080609001,  0.108653180, -0.001328605, -0.033570707, 
   0.004547503, -0.048953209,  0.115365162, -0.103969321, -0.124094322, 
   0.101020984,  0.061056677, -0.057712991, -0.101958357,  0.077336602, 
  -0.022735676,  0.133994520, -0.015160471, -0.029903112, -0.079683967, 
   0.095585614,  0.040813796, -0.007017875, -0.019116571,  0.051402435, 
   0.088915348,  0.002661228, -0.008758443,  0.020614505, -0.034209121, 
  -0.105137773,  0.089859203,  0.024905043,  0.095535621, -0.028784111, 
  -0.138328254,  0.032715894,  0.020515092, -0.006773586,  0.104471505, 
   0.104451261,  0.007076819, -0.046245258,  0.120687053,  0.029590515, 
   0.039486751,  0.032575656, -0.116900943,  0.003695708,  0.136819497, 
   0.056614254, -0.137570366,  0.041120309, -0.077298090, -0.048124313, 
   0.030949274,  0.151208028, -0.038648646,  0.106881618,  0.011277917, 
   0.082821161,  0.125935555,  0.125150084, -0.020799706,  0.016507823, 
  -0.076913267,  0.070965894,  0.045088071, -0.024595859,  0.047230836, 
   0.161567181,  0.052583382, -0.033969507, -0.003083385, -0.000357137, 
  -0.161941856, -0.064185932,  0.085828967,  0.067914136, -0.045914937, 
   0.038522106,  0.065335922, -0.110884011, -0.078207940, -0.044179857, 
  -0.000812160,  0.011182501,  0.016454663,  0.004737046, -0.019173367, 
   0.031701330, -0.157631546,  0.090055272,  0.005039118,  0.105603181, 
  -0.091186248, -0.144786194, -0.117706709,  0.075242855, -0.115071125, 
  -0.038412675,  0.067231759,  0.032503299, -0.037089482, -0.043075155, 
  -0.108785935, -0.108988747, -0.111185789,  0.111024119, -0.041467663, 
  -0.119831100,  0.075183243, -0.042920966,  0.064941406, -0.083325595, 
   0.001463455, -0.099567428,  0.108355574,  0.068255290,  0.106981888, 
   0.077974759, -0.067386933,  0.012856522,  0.133481756,  0.138154939, 
   0.090498075, -0.056618631,  0.010917374,  0.095458485,  0.080322132, 
   0.158144251, -0.110657774, -0.028292995,  0.137272418, -0.018334806, 
  -0.076580830, -0.067579754,  0.109154530,  0.102803260,  0.160054252, 
   0.057726018, -0.145784765,  0.181748062,  0.161146343,  0.059549108, 
  -0.056840926, -0.151299223,  0.082784042,  0.118242949, -0.090017214, 
   0.134790599, -0.106907830, -0.024330046, -0.031060727,  0.074138016, 
  -0.022360977, -0.076856025,  0.073836766,  0.001550489,  0.004644252, 
   0.027945174,  0.088403508, -0.097378202, -0.046128608,  0.068110861, 
   0.114124142, -0.099098064,  0.102697439,  0.099163748,  0.096494228, 
   0.011259587,  0.067855686,  0.151654422, -0.080240026,  0.023835838, 
  -0.061650191, -0.026190251,  0.103231579,  0.008541720, -0.024239542, 
  -0.102433421,  0.031154184, -0.063800357, -0.057328023,  0.078139268, 
  -0.152093947,  0.055442706,  0.032679621,  0.005888625, -0.027113298, 
   0.060341954,  0.114441551, -0.128766879,  0.122325189, -0.214183390, 
   0.006651223,  0.010417890,  0.027704477, -0.262080073, -0.199061736, 
  -0.050201774, -0.133199930, -0.070555992,  0.028963884,  0.016931249, 
  -0.072883733,  0.103134021,  0.003035182,  0.045868039,  0.067391098, 
   0.177919880, -0.028220832,  0.119272418, -0.067094944,  0.021977043, 
  -0.020420572, -0.171742812, -0.024916660, -0.026289217, -0.006367654, 
  -0.173327357,  0.068442009, -0.088273980, -0.031589661, -0.000447113, 
   0.135174960, -0.163771808,  0.078484900,  0.066357836,  0.044867016, 
  -0.121109314, -0.081939287, -0.050063722,  0.094627745, -0.094614632, 
  -0.089318402, -0.112345070, -0.006216735,  0.053925477,  0.062412359, 
   0.097545303, -0.038307644,  0.021346247,  0.058345176,  0.093060173, 
  -0.181282148,  0.024665745, -0.142656043,  0.020168679, -0.077231981, 
   0.135536909, -0.114539914,  0.045592353, -0.018214712, -0.109169044, 
  -0.133179843,  0.010977535, -0.094378404, -0.048296276,  0.032703437, 
  -0.109747559,  0.054885644,  0.064909369,  0.055002581,  0.056060717, 
  -0.050829526,  0.017064257, -0.114771366,  0.031316064, -0.044770163, 
   0.034793854, -0.159700468, -0.002257785,  0.061511699, -0.023104662, 
  -0.008599783, -0.135276586, -0.082906336, -0.044458259, -0.068242349, 
   0.038018219, -0.119663171, -0.103531003, -0.113809489, -0.024896545, 
  -0.115223207,  0.037068643, -0.155071229, -0.048319783, -0.114953019, 
  -0.039907765,  0.033706967, -0.189169183, -0.145907253,  0.119106136, 
  -0.054786779, -0.064096026, -0.105585478, -0.158367097,  0.075601928, 
  -0.163322270, -0.107766129,  0.110587038,  0.004982217, -0.155501217, 
  -0.074559003, -0.054624069, -0.090172626,  0.075015239,  0.114548840, 
  -0.152584285,  0.094358809,  0.137473866,  0.073480770, -0.135396555, 
   0.201593608, -0.056261610,  0.029137980, -0.054619465, -0.043290108, 
   0.088625178, -0.085306868,  0.014250931, -0.009758121, -0.083436504, 
   0.129472464, -0.021918157, -0.091452770,  0.117448151,  0.094871327, 
   0.054443624, -0.012107247, -0.074435391,  0.008312399,  0.005119819, 
  -0.058327626, -0.042877760, -0.007314716,  0.002571882, -0.098961547, 
   0.092435323, -0.139200449, -0.150483072,  0.100836448,  0.076050565, 
  -0.070355110, -0.000590751,  0.039494671,  0.011862958,  0.109017000, 
  -0.097758077,  0.091100186,  0.095921561, -0.143061981, -0.045747735, 
   0.114764087,  0.120401204, -0.053235773, -0.069695413,  0.142323434, 
   0.091606796,  0.019473631,  0.029746277, -0.007868099, -0.032705151, 
  -0.063899048,  0.069091067, -0.061870262,  0.133660704, -0.190095112, 
   0.130017906, -0.005004592,  0.069602668,  0.180690527, -0.031134969, 
   0.145859286,  0.012817638, -0.063105300,  0.094953768,  0.020136494, 
   0.106857158,  0.208362952, -0.005634151,  0.036506388,  0.118308388, 
   0.132024452,  0.074016355,  0.007470096,  0.022386201,  0.032856073, 
   0.121716835, -0.095962763,  0.034003958,  0.043655392,  0.019761050, 
   0.089907162, -0.047926597,  0.023761882,  0.092675358, -0.058624901, 
  -0.023825129, -0.002212218,  0.040116508,  0.067986846,  0.023766054, 
   0.024291575,  0.177227557,  0.022260616,  0.072506264,  0.085193627, 
   0.067400090,  0.084596157,  0.083124325,  0.027279653, -0.054920554, 
  -0.116710946,  0.029759286, -0.035805468,  0.095834389, -0.114784442, 
   0.080693394, -0.007853928, -0.041888785,  0.004475773,  0.047703307, 
  -0.046781018,  0.079392247,  0.021335443,  0.049527805, -0.121951915, 
   0.127007231,  0.068334430,  0.109738216,  0.048483074,  0.070525773, 
  -0.022853432,  0.105444081,  0.109188125,  0.115833990,  0.171198055, 
   0.031839974,  0.035064477,  0.009511151, -0.084216647, -0.004088953, 
  -0.081995696,  0.041599330, -0.099502355,  0.006280536, -0.063880011, 
  -0.067935459,  0.114321560,  0.032417212, -0.045019660,  0.041489005, 
   0.119650505,  0.065362945,  0.039276626, -0.046732936, -0.092638016, 
   0.167109802,  0.154872358,  0.122400023, -0.058780175,  0.049767807, 
   0.072298691,  0.013664759,  0.055252932,  0.041575011, -0.013750657, 
  -0.082905948, -0.133829668,  0.049625717, -0.053105220,  0.023514934, 
  -0.124475554, -0.039723471,  0.096707664, -0.036577802,  0.069566377, 
   0.041730423,  0.039594233,  0.123169802, -0.028218143,  0.034551520, 
   0.149468303,  0.053150952,  0.092911653, -0.078069061, -0.124716572, 
   0.001859718,  0.091226168,  0.063112564, -0.041144237,  0.115454100, 
   0.118289940, -0.028258411, -0.098715313, -0.085817978,  0.133857504, 
  -0.109382577,  0.172011971,  0.095994972,  0.178734854,  0.013366519, 
   0.027450627, -0.199890837, -0.017440967,  0.061815515, -0.017612018, 
  -0.067583710, -0.019237870,  0.202847511,  0.010361532, -0.041265484, 
  -0.131288975, -0.010084442,  0.145732775, -0.043463897,  0.017934434, 
   0.141494840, -0.081727952,  0.056259938,  0.004103391, -0.075963303, 
  -0.056482967,  0.224921957,  0.101052545,  0.091732666,  0.091641888, 
  -0.116355427,  0.099969566, -0.073257796,  0.085932732,  0.089453742, 
  -0.118103817, -0.010673929, -0.034725398,  0.010348470,  0.058465585, 
   0.006105904, -0.089815557,  0.108610667, -0.055014413, -0.059931207, 
   0.119510420, -0.058413051,  0.127318606, -0.067882210,  0.058688760, 
   0.035699472, -0.152433887, -0.004039994,  0.089892156, -0.057155099, 
   0.065284163,  0.065479018, -0.119369566,  0.139506429,  0.008665506, 
  -0.037153084,  0.160970926, -0.074431524, -0.120263375, -0.122775950, 
   0.049763635,  0.003803244, -0.016167823, -0.019502161, -0.081491575, 
  -0.021799544,  0.013224606, -0.223027810,  0.133736983, -0.124640010, 
   0.076454975, -0.074305378, -0.058663022, -0.090937525, -0.149622366, 
  -0.137123480, -0.024219956, -0.009843290, -0.063251197,  0.090881251, 
  -0.075440168, -0.105205655,  0.034665212, -0.068983793, -0.204818711, 
  -0.083379522,  0.008496297, -0.010883890, -0.062259030,  0.080505446, 
  -0.144879773,  0.195097297, -0.104030184, -0.078133397,  0.080839165, 
  -0.085519254, -0.135556474, -0.039918706,  0.137450606, -0.112069175, 
  -0.151468009, -0.168961912,  0.091799557,  0.109441586, -0.146620393, 
  -0.190522239, -0.011087460,  0.073792070, -0.032996502, -0.021415958, 
  -0.168280452,  0.082187444, -0.102617063, -0.022590527,  0.045464158, 
  -0.114627101, -0.008686545,  0.117905520, -0.095819101, -0.118039563, 
  -0.024802186, -0.042975411, -0.046283055, -0.069823615, -0.009362184, 
  -0.168504834, -0.001973376, -0.181609333, -0.099361591,  0.204139009, 
  -0.040409371,  0.101707861, -0.024559056, -0.118123420, -0.108238965, 
  -0.190951899, -0.033685513, -0.190684944,  0.163035646, -0.153401360, 
  -0.051791154,  0.088803656,  0.230291948, -0.117044650,  0.093479007, 
  -0.123455353, -0.129228666,  0.014302143,  0.176259145, -0.066221438, 
  -0.167975575, -0.145314410,  0.023509867, -0.005572197, -0.189888388, 
   0.015864301, -0.200560570, -0.077225536, -0.073639959, -0.218172610, 
  -0.063452870, -0.099640064, -0.156517059,  0.146959260, -0.097915903, 
  -0.139764756, -0.117297821,  0.087113276, -0.021549404, -0.087553799, 
  -0.071610861, -0.183971152, -0.117824726,  0.038993087,  0.055321053, 
  -0.086605072, -0.012237972, -0.174704313, -0.039688747, -0.018056594, 
  -0.303549796,  0.008691683, -0.105770387,  0.058604360,  0.030848622, 
   0.032770198, -0.132937565,  0.078686394,  0.125818893, -0.200592205, 
   0.181807324,  0.038627040, -0.028816970, -0.118209787, -0.090456203, 
  -0.044455107, -0.078288525, -0.008037557,  0.095405400,  0.277700782, 
  -0.109048299,  0.159843102,  0.094761401,  0.057433516, -0.005985481, 
   0.056206621,  0.019656802, -0.049867343,  0.046305750, -0.013115613, 
  -0.081616752,  0.089049913, -0.063612618,  0.173431039,  0.007263339, 
  -0.009093150, -0.009277747,  0.044577237,  0.061127253,  0.108963624, 
   0.056918498, -0.049322918, -0.037289396,  0.014084103, -0.035092819, 
   0.215741515, -0.131400898,  0.016744489,  0.202759951, -0.009821714, 
   0.087992184,  0.035779830,  0.018339509,  0.210105613, -0.085188746, 
   0.056440540,  0.045315016,  0.074266724,  0.146309718, -0.131556630, 
   0.025279075,  0.062303644,  0.147294343, -0.032534935,  0.092734456, 
   0.099781655, -0.066791140,  0.077686213, -0.084283829,  0.166056797, 
   0.055140257,  0.099337861,  0.138271779,  0.027975054,  0.111385509, 
   0.176810995,  0.161040351, -0.018725257, -0.079712421,  0.244892538, 
   0.150494546, -0.119160488, -0.032718088,  0.082396276,  0.171510428, 
   0.161281124, -0.074660718,  0.185025766, -0.086173594,  0.099429823, 
  -0.042641174,  0.244860873,  0.070837930,  0.064848058,  0.012901311, 
   0.072130084, -0.012621740,  0.094798073,  0.079667240,  0.226199150, 
  -0.044831011,  0.055545282,  0.103323884,  0.097941063,  0.065963551, 
   0.059304681, -0.109719634,  0.025855143,  0.178845435, -0.062856600, 
  -0.053856198,  0.196811751,  0.098747380,  0.073320009, -0.039267562, 
   0.005134843,  0.045972627,  0.183805317,  0.033974662, -0.037293214, 
  -0.053596742,  0.041017100,  0.142091036,  0.098315328, -0.071746834, 
   0.013317600, -0.108843736, -0.065036193,  0.030765148, -0.030349888, 
  -0.020901417,  0.071671665,  0.081535921, -0.000554251,  0.069965467, 
   0.110372864,  0.060738072,  0.072222054,  0.020575034,  0.126701012, 
   0.014513643, -0.129663378, -0.037823595,  0.104501717, -0.104410961, 
   0.044365179, -0.125621930,  0.128365114, -0.041268181,  0.037727479, 
  -0.109455459,  0.121326379,  0.052879978,  0.116377071, -0.027210718, 
   0.015932215,  0.009715719,  0.146490693, -0.150116801,  0.128041208, 
   0.193530574,  0.029664414,  0.163688451, -0.061063897, -0.092924759, 
  -0.077399082, -0.118715078, -0.185883373,  0.106811866, -0.008545936, 
  -0.026684929,  0.129921660, -0.136632487,  0.052730892, -0.199637756, 
   0.114830859,  0.063720554, -0.004448971, -0.092262663, -0.073443502, 
  -0.099599026,  0.256494790, -0.048565481,  0.015141889,  0.142049104, 
   0.085758492,  0.128058136,  0.033225644, -0.049233790,  0.117274001, 
   0.185233399,  0.165156066, -0.090566821,  0.053607397, -0.073978737, 
   0.024437195, -0.089722775,  0.034515567, -0.033873942,  0.032398790, 
   0.056195635,  0.100767449,  0.091930620,  0.178142175,  0.037187956, 
  -0.099271215, -0.023029441,  0.037212536,  0.155036151,  0.153063715, 
   0.017219560,  0.257537961, -0.017454144,  0.176038027, -0.131997123, 
   0.026455995,  0.052165683,  0.042216733, -0.043302249,  0.069867723, 
  -0.045331765,  0.133219048,  0.027697105,  0.024172064,  0.068228081, 
   0.181982294,  0.136544093,  0.188106045,  0.043457810, -0.176878139, 
  -0.008897490,  0.134041801,  0.032589074, -0.014494245,  0.026308037, 
   0.127603203,  0.099603809,  0.000602317,  0.006347554,  0.017477952, 
   0.001739448,  0.120829381,  0.057987295, -0.125737831,  0.168567032, 
   0.045037542, -0.019748077,  0.147601709,  0.147254899,  0.058708664, 
  -0.054807741,  0.136730090,  0.123218417, -0.041846517, -0.087202787, 
  -0.101939894, -0.070003696,  0.001168233, -0.152737081, -0.031202327, 
   0.038115986,  0.135176510, -0.207277358,  0.036597237,  0.081160508, 
   0.019738194,  0.035560045,  0.100685641, -0.056607358,  0.039729416, 
   0.069926836, -0.216552541,  0.198365465,  0.029353958, -0.120771945, 
  -0.196059778,  0.013182511, -0.103484109, -0.103126802,  0.010034588, 
  -0.133652434,  0.015608205, -0.014562028, -0.041343983,  0.006398295, 
  -0.034802817,  0.184117183, -0.034522645, -0.043927457,  0.093530260, 
  -0.180307999,  0.079730019, -0.140532851, -0.035863467,  0.029999321, 
   0.126983732,  0.126523212, -0.135022461,  0.284551203, -0.225989416, 
   0.027627388,  0.018567745,  0.033778537, -0.070158757, -0.097824372, 
  -0.211635157, -0.032340959, -0.116662972, -0.007529250, -0.033482578, 
   0.069629133,  0.053268522, -0.083150961, -0.130142614, -0.179433987, 
   0.107339084, -0.012576727, -0.029663350, -0.162430897, -0.026742756, 
   0.178138256,  0.081843168,  0.073202655,  0.040020827, -0.015992286, 
   0.062107492,  0.013043138,  0.004719001, -0.059118193, -0.150466114, 
   0.085507937, -0.231545642, -0.177874610,  0.070330985, -0.130655542, 
   0.052680958, -0.187549680, -0.010097445, -0.128056377, -0.331373185, 
   0.088387877, -0.031471789,  0.081126615, -0.146057174, -0.042611592, 
  -0.036519904, -0.039603345, -0.209816054, -0.011690223,  0.076431289, 
  -0.197502732, -0.168818176,  0.048512157, -0.107150398, -0.169416100, 
  -0.289021641, -0.010082420,  0.055067860, -0.276121885, -0.064678304, 
   0.034010310,  0.016753267,  0.057397623,  0.008316665,  0.085956238, 
   0.135854870, -0.047342528,  0.166907564, -0.088365674, -0.096038237, 
   0.048171069,  0.174360484, -0.157409981, -0.007372434, -0.103545569, 
  -0.116835073,  0.120175801,  0.088889681, -0.181366190,  0.066969700, 
  -0.030154273, -0.143447652, -0.180734202, -0.069815904, -0.038544156, 
  -0.091877982, -0.120946296,  0.072894096, -0.090221494, -0.066534065, 
   0.004493941,  0.033967264,  0.001068623, -0.233395666, -0.065174356, 
   0.148244187,  0.045539007,  0.099140614, -0.073099844,  0.010651962, 
  -0.136041448,  0.128556728, -0.048673432,  0.147295564,  0.007196093, 
   0.124951094,  0.044258140,  0.086990386, -0.118130475,  0.099161796, 
  -0.088717736, -0.044052541,  0.032077175, -0.066677399, -0.077842318, 
   0.079794228, -0.082045294,  0.100794360,  0.071962856, -0.060652900, 
  -0.029431166,  0.094383024, -0.052926730, -0.067262381, -0.177427828, 
  -0.090669669,  0.016421670,  0.183267370, -0.004483893,  0.121908940, 
  -0.110708386, -0.141756967, -0.002224206, -0.090751044,  0.028742816, 
  -0.047699485,  0.064155050,  0.150769055,  0.020170014,  0.085856050, 
   0.074538283, -0.028333180,  0.125222236,  0.068177901, -0.014940728, 
   0.081674293,  0.223658502, -0.093322910, -0.006076941,  0.035635862, 
   0.141209781,  0.234215647, -0.178237230, -0.068099245, -0.036217373, 
   0.058742382, -0.085919462, -0.088784970,  0.062868163,  0.152944952, 
   0.114745639,  0.063475639, -0.042360440,  0.125550345,  0.074460916, 
  -0.075083360,  0.041229445, -0.050177950,  0.032515362,  0.025979944, 
   0.049953971, -0.009941984, -0.125434890, -0.124778420,  0.087237336, 
   0.129762843,  0.112455286,  0.095137402,  0.021491349,  0.048983030, 
   0.026274309,  0.033167392, -0.051180240, -0.038818747, -0.003618142, 
   0.058702860,  0.116330810,  0.216441691,  0.036810163,  0.066970594, 
  -0.001441220,  0.092701644,  0.042703230,  0.001635181,  0.040216155, 
   0.012844812,  0.016408926,  0.144314691,  0.063035205,  0.077563487, 
   0.007575984,  0.038079508, -0.152479604,  0.085638978,  0.001531030, 
  -0.090407893, -0.042631615,  0.051586464,  0.102785729, -0.114090964, 
   0.069415152,  0.024163553, -0.036882699,  0.104133047, -0.129370257, 
   0.000502244, -0.076207809,  0.009277117, -0.068902202,  0.276241422, 
  -0.017602984, -0.017565737,  0.126780763,  0.264521688, -0.054415405, 
  -0.257587641, -0.228762925, -0.018448513, -0.208366007,  0.117308512, 
   0.061321907,  0.168104842,  0.000698212,  0.047795247, -0.083431564, 
   0.131656855,  0.000944708,  0.090037219,  0.050515085,  0.088850595, 
   0.104466535, -0.087188937, -0.117099218,  0.053431697,  0.003884315, 
   0.062741376,  0.183029324, -0.094556063,  0.056505624, -0.157356516, 
  -0.042494278, -0.114734650,  0.026892466,  0.014136117, -0.137266904, 
   0.145783901, -0.150496691,  0.141877964, -0.146913037,  0.061149128, 
   0.074121609,  0.010644862, -0.155498117,  0.042339724,  0.052950423, 
   0.118054070, -0.036179587, -0.199458867, -0.074875265,  0.009450211, 
   0.045813847,  0.034799706,  0.088736229,  0.111664735, -0.028020181, 
   0.039512664, -0.087670408,  0.077973410, -0.096821539,  0.080857225, 
  -0.039593190, -0.009653222, -0.097056501,  0.085921988,  0.161004499, 
   0.054996617, -0.010961147,  0.201646715,  0.193615437, -0.263354421, 
   0.010137963,  0.082014300,  0.200983673,  0.171468183,  0.020846248, 
   0.246468022, -0.040983327,  0.254634440,  0.077029847, -0.103237778, 
   0.082756646, -0.047375601,  0.098356076,  0.195293725,  0.115369335, 
   0.080484182, -0.054117423,  0.102317840, -0.004366674,  0.168647885, 
   0.037314858,  0.151097968, -0.084916048,  0.025510989,  0.182869092, 
  -0.072840683, -0.038186796,  0.169877365,  0.028476039, -0.042080879, 
   0.036932871,  0.085551560, -0.073606834,  0.020852339,  0.039189078, 
   0.130972221, -0.011017608, -0.108176067,  0.066328973,  0.055569716, 
  -0.226300761,  0.070792742,  0.202033743, -0.027463974,  0.033048611, 
   0.024945963,  0.065001853, -0.087843135, -0.042097867, -0.097594149, 
  -0.175748870, -0.014228953, -0.164325178, -0.001511402, -0.015825475, 
   0.060551301, -0.195732474, -0.012623253,  0.072232835,  0.193692774, 
  -0.075115867, -0.051813733, -0.150289819,  0.193721637,  0.066162013, 
  -0.196738675,  0.342606872, -0.089733519,  0.023768332, -0.014482648, 
   0.146421641, -0.054805949,  0.031177431,  0.101906106, -0.054604836, 
  -0.048712190, -0.030717565, -0.006542123, -0.166587755,  0.057821777, 
   0.125497818,  0.028526047, -0.033828091,  0.051984303, -0.035499770, 
   0.036187004, -0.051092964, -0.042854294,  0.077347368,  0.183853745, 
   0.062821925, -0.241384700,  0.181753188, -0.190711424, -0.203259543, 
  -0.152112886,  0.202967033,  0.001617876, -0.140607148, -0.001485127, 
  -0.094013721,  0.037383933, -0.041841518,  0.032170773,  0.001926704, 
   0.129367486, -0.176033139, -0.102850214,  0.033287171,  0.061031811, 
  -0.043067928, -0.002948121, -0.014293002, -0.009129906,  0.223040819, 
   0.135697633,  0.000891655,  0.065634586, -0.016102439, -0.124231331, 
  -0.095250368,  0.108709313, -0.142862663, -0.027163701,  0.068702117, 
  -0.319704682, -0.062728517,  0.378151506, -0.196043238,  0.070918635, 
   0.000315410,  0.053100500, -0.074767753, -0.361645132,  0.043287702, 
  -0.148073941, -0.005374818, -0.015376708, -0.113365442, -0.001860486, 
  -0.092632502, -0.196873978, -0.092856102,  0.008995720, -0.070462950, 
  -0.088855408,  0.171326563, -0.072953008, -0.095175564, -0.226252332, 
  -0.110455975,  0.052799001, -0.209531069, -0.050156511, -0.116780668, 
  -0.011665157,  0.073599279, -0.197896019,  0.129389197,  0.077872723, 
  -0.181434229,  0.023014462,  0.058293588, -0.340422571,  0.212245405, 
   0.057077635, -0.130978748,  0.093499258, -0.102291338,  0.047303505, 
   0.320304036, -0.164586380,  0.036869626,  0.058260079, -0.097851947, 
   0.065965272, -0.140855491, -0.185619518,  0.067479849,  0.078476302, 
  -0.196089581, -0.019777544, -0.218027592,  0.033072028, -0.137782753, 
   0.083209686,  0.113313451, -0.264514714, -0.100224473,  0.026747348, 
  -0.148161292,  0.000910323, -0.012284733,  0.242801279, -0.192185953, 
   0.076597266, -0.117630020,  0.138649985,  0.029212384, -0.094077937, 
  -0.021892413,  0.094572693, -0.010423826, -0.001480859,  0.006211368, 
   0.192793429, -0.045532525, -0.081828952,  0.152770609,  0.008795965, 
  -0.072557159,  0.193403229,  0.031791583, -0.024712311,  0.073288262, 
   0.198407054, -0.052820567, -0.019972168,  0.006459015, -0.001210616, 
   0.004043581,  0.140820712, -0.147548273,  0.018470274,  0.141887963, 
  -0.174959064,  0.170881897, -0.024913842,  0.060790040,  0.108380541, 
   0.031780526,  0.056345891, -0.065296635, -0.004994062,  0.040399726, 
  -0.063637935,  0.095165737, -0.060236480,  0.078169823,  0.053813927, 
   0.173997506,  0.035289291,  0.042818435,  0.075145409, -0.033542994, 
   0.109822035,  0.048053171, -0.070081264, -0.034266777,  0.026054455, 
   0.082429759, -0.150539413,  0.091590904,  0.093192443,  0.086808540, 
   0.128641307, -0.029177641,  0.008203628,  0.209837735, -0.090635881, 
   0.058887511, -0.076222517,  0.073810220,  0.005947130, -0.071688347, 
  -0.051768344, -0.219165102,  0.031953394,  0.120221786,  0.017896116, 
   0.044237703,  0.137226537,  0.054519925,  0.038161371,  0.036834832, 
  -0.006830551, -0.141620830,  0.177818298,  0.116535828,  0.080339052, 
   0.023950838,  0.120042354, -0.044221945,  0.155969962,  0.170392141, 
   0.167960525, -0.058245819,  0.077858895,  0.033196304, -0.009589100, 
   0.038238566,  0.227736533, -0.058632415,  0.166131750, -0.054157026, 
  -0.004275476, -0.138266400, -0.064503074,  0.043273237, -0.056908395, 
   0.028462386,  0.260036588, -0.019187462,  0.002660247, -0.018839780, 
   0.074605525,  0.016386589, -0.053384185,  0.027105618,  0.169024736, 
  -0.120030008, -0.019733077, -0.003509280,  0.227214724,  0.110197589, 
   0.066043094,  0.147094816,  0.097737826, -0.028549844, -0.029264744, 
  -0.077868633,  0.168818951, -0.337810934,  0.036844689, -0.028734442, 
   0.178213194, -0.047404934,  0.121899642,  0.070285656,  0.028587719, 
  -0.110537767,  0.038181797,  0.051783234,  0.068375297,  0.037467018, 
  -0.104198694,  0.031816021, -0.004870130, -0.066848285,  0.224586651, 
   0.171801090,  0.022448076,  0.038060948,  0.118904002, -0.034149740, 
  -0.080116086,  0.117837578, -0.013190540, -0.149910420,  0.170807272, 
  -0.165819943,  0.150566041,  0.047906455,  0.018140320,  0.040347386, 
   0.002766685, -0.042863861,  0.111866936, -0.081959486,  0.204756707, 
   0.123894505, -0.202512905, -0.117622428,  0.035003550,  0.193463653, 
  -0.052612141,  0.033762429,  0.050654590, -0.020329040, -0.058757968, 
  -0.147820875,  0.035349712, -0.030571898, -0.054318614, -0.152213678, 
   0.095806696,  0.072534561,  0.075339243,  0.130865216, -0.019420918, 
  -0.197241873,  0.215343744,  0.099006087, -0.090936199, -0.003720308, 
   0.041306753,  0.171195969, -0.012782040,  0.016739843,  0.183097512, 
   0.058766350,  0.081338771,  0.058620818,  0.010210874, -0.007258864, 
  -0.004832816,  0.027030222,  0.076965056,  0.113482535, -0.122020833, 
   0.099761151,  0.153611094, -0.159754738,  0.047136378,  0.095461018, 
   0.135596126, -0.078822665,  0.072960012,  0.138099208, -0.045515273, 
  -0.080748379,  0.240658805,  0.008375495,  0.107352629,  0.110068731, 
   0.157220811,  0.100240149, -0.009491655,  0.177238792,  0.152660906, 
  -0.003683543, -0.009665120,  0.055566933,  0.021392336, -0.026719837, 
   0.118970953,  0.000449156, -0.016884455, -0.065444119,  0.153623804, 
  -0.073186018, -0.192781419,  0.138840660, -0.053141762, -0.077732772, 
   0.086057536, -0.167801782,  0.089645095, -0.028387358,  0.065211974, 
  -0.067907915, -0.074565612,  0.041672442,  0.255458266, -0.116173200, 
   0.063649885, -0.096338525, -0.068158031,  0.110837840,  0.045661677, 
   0.258523583,  0.054363266, -0.107203104, -0.130930930,  0.244182378, 
  -0.017533785, -0.067795135, -0.046122067, -0.018071981,  0.065397114, 
  -0.097298585,  0.013729352, -0.066775411,  0.161838755, -0.022903804, 
  -0.064570628, -0.113533989,  0.035688113, -0.000687847, -0.015467052, 
  -0.035866141, -0.031059649,  0.120158195,  0.152169451, -0.149409994, 
  -0.184645325,  0.349211037, -0.093044803, -0.191470027, -0.116702646, 
  -0.002664323,  0.023622377, -0.025185328, -0.204456732, -0.002423347, 
  -0.093701646,  0.167497054,  0.116422065, -0.116000302,  0.047584713, 
  -0.213248461, -0.036399957, -0.033873115,  0.106134534, -0.128382429, 
   0.118735202,  0.019538943, -0.131901473,  0.154267684,  0.233299360, 
   0.104019418,  0.060593750, -0.030740082, -0.101310059, -0.149399340, 
   0.037897848, -0.067836851,  0.012656220,  0.141006172, -0.328959167, 
  -0.071992688,  0.339562207, -0.030199023,  0.155102059,  0.048336733, 
   0.075461380, -0.242251545, -0.156499013,  0.145202011,  0.019436127, 
   0.068182394, -0.031408634, -0.096764527,  0.069777422, -0.066215679, 
  -0.107514255, -0.114853121,  0.152270019, -0.278541148,  0.090928972, 
   0.042875264, -0.267861992, -0.101806767,  0.007638424, -0.018671714, 
  -0.131524518, -0.250742525, -0.212336257, -0.001524462,  0.055591229, 
  -0.005874105, -0.160812736,  0.121178240,  0.057153363, -0.065870754, 
   0.012788799,  0.053288866, -0.250800461,  0.165877908,  0.061195530, 
  -0.127508476,  0.002321823,  0.010505237, -0.144427687,  0.349652082, 
  -0.013488126,  0.076861270, -0.055167150, -0.063763648,  0.122503906, 
  -0.336612672, -0.166941315,  0.007805439, -0.005507638, -0.129602149, 
  -0.045234159, -0.265550137, -0.083807796, -0.191118911, -0.078259543, 
   0.023466984, -0.266273260,  0.015673026,  0.079477459,  0.059616633, 
   0.197430030, -0.089252971,  0.224645659, -0.021280771,  0.109613955, 
  -0.131348833,  0.069742002,  0.095960788,  0.023571512, -0.040123262, 
  -0.019472726, -0.004512568,  0.071424425, -0.045546561,  0.005748420, 
  -0.017701657, -0.121839680,  0.242179617,  0.192405224, -0.093083806, 
   0.093540259,  0.160815239, -0.158872664,  0.009950866,  0.176494315, 
  -0.008199067, -0.125098079,  0.097777396, -0.042149805,  0.094881706, 
   0.090681188, -0.019864675,  0.196937129, -0.013477813, -0.106731907, 
   0.052781247,  0.046338361,  0.100904539, -0.026472144, -0.127825588, 
  -0.031318720, -0.059190132,  0.147506773, -0.056716159,  0.190079480, 
  -0.006509524,  0.128956631, -0.000232749,  0.046248857,  0.168638393, 
  -0.066191949,  0.101530656,  0.018149154, -0.036183991,  0.147088140, 
   0.061815731, -0.119802341,  0.024419282,  0.168797880, -0.109645292, 
  -0.133369341,  0.105919063,  0.120181948,  0.079036757,  0.068432249, 
   0.082864717, -0.002857697,  0.110405736,  0.138599873,  0.029032806, 
  -0.240276009,  0.029093172,  0.113470584, -0.025159640, -0.043015856, 
  -0.229569227, -0.085432142,  0.274595290,  0.170292020,  0.175294310, 
   0.033435620,  0.137985796, -0.101876818, -0.106517233,  0.108585015, 
  -0.183636680,  0.196927652,  0.059467882,  0.163585171,  0.043141615, 
   0.188726127, -0.071954846, -0.003699289, -0.026595417,  0.066298246, 
  -0.041047979, -0.095085315,  0.056244969, -0.006925005,  0.070135042, 
   0.125998527,  0.038980186,  0.170920819, -0.074222706,  0.063640967, 
  -0.075735658,  0.178807542,  0.177969992,  0.156648681,  0.010787346, 
   0.063486584, -0.035992235, -0.103810117, -0.039778437, -0.015595437, 
   0.107116535,  0.148424163, -0.101443768,  0.011001664, -0.085885920, 
   0.102045171, -0.056814231,  0.191736087,  0.022107625,  0.036882140, 
   0.023234019,  0.073391341,  0.140213162, -0.092590094, -0.033998027, 
  -0.006580892, -0.162696019, -0.011287848, -0.059171982,  0.001457787, 
   0.082588963,  0.006807422, -0.057234649, -0.010656842, -0.026651362, 
   0.262779146, -0.009856516,  0.105128668,  0.052043378, -0.001870311, 
   0.079926856,  0.086033173,  0.024260556,  0.011363790,  0.052502289, 
  -0.066091515, -0.048041604,  0.060886089,  0.002733163, -0.031665187, 
   0.017359115, -0.014583018, -0.121816471,  0.016507881, -0.109199353, 
   0.169614807,  0.037921615,  0.039104186,  0.106607303,  0.028250581, 
  -0.000469888,  0.170471251, -0.074854717, -0.039300378,  0.026523493, 
  -0.133982837, -0.203982010,  0.076662764,  0.227579027,  0.103457026, 
   0.043750085, -0.040379997,  0.073424101, -0.072572172, -0.116771482, 
   0.059641507, -0.076434091,  0.080126338,  0.028463054,  0.066920564, 
   0.003196883, -0.020863587, -0.006073621,  0.040867146, -0.106451675, 
   0.095058486,  0.122075953, -0.146962062, -0.021629076,  0.105074845, 
   0.100524046, -0.030224729,  0.127577275,  0.115341976,  0.127625674, 
   0.239569977,  0.004638209, -0.029315894,  0.152466580, -0.149189144, 
   0.159095034,  0.032128282,  0.195612535, -0.033994026,  0.028588302, 
   0.154908404, -0.005117329,  0.158383653,  0.041870251,  0.216752261, 
  -0.093830481,  0.024658063,  0.131097585,  0.028071437,  0.013808493, 
   0.142478034, -0.065352693,  0.002371071,  0.137663886,  0.128618672, 
   0.000976033, -0.036337193,  0.131985813, -0.012168990,  0.143127635, 
  -0.001599048, -0.085872740,  0.001337370, -0.183199853,  0.089549586, 
   0.063206084,  0.142300203, -0.013558714,  0.251277477, -0.068456613, 
   0.021524670,  0.201253518,  0.008758831, -0.032931831,  0.068194732, 
  -0.196132064, -0.027808189, -0.041450281,  0.099418439, -0.016842771, 
  -0.090622082,  0.024227001,  0.196357399, -0.090499312,  0.180854708, 
  -0.093694441, -0.099592380,  0.202187911, -0.055854183,  0.305660129, 
  -0.037474364, -0.173888743, -0.012716698,  0.244878769,  0.070745513, 
  -0.148980528,  0.023359993, -0.051602803,  0.050478309, -0.096997879, 
   0.086141594, -0.147317842,  0.287630111, -0.014558285, -0.066784553, 
  -0.061218482,  0.065014184,  0.001499891,  0.025695732, -0.100587942, 
  -0.099437140,  0.146045253, -0.073978394,  0.012758438, -0.076427035, 
   0.168799713, -0.113540731,  0.014764458,  0.008212238,  0.042692669, 
   0.077351160, -0.207122102, -0.088084444, -0.042013504, -0.032944854, 
   0.223420963,  0.096037261,  0.012898737,  0.011990410, -0.020459000, 
   0.048260204, -0.120643541, -0.086043596, -0.123960860,  0.094689831, 
  -0.015871298,  0.075164691,  0.203797132,  0.253895670, -0.015083739, 
   0.062179986, -0.059631627,  0.065823324, -0.151929885,  0.101462416, 
  -0.109408222, -0.032114469,  0.187520057, -0.148319095,  0.155586362, 
   0.297028750,  0.057660479,  0.009690283,  0.019749543,  0.134871781, 
  -0.331300050, -0.230283216,  0.065914467,  0.098522261, -0.024903707, 
   0.037021451, -0.095345519,  0.000696501, -0.206001997, -0.046972614, 
  -0.103762724,  0.123363964, -0.261719078, -0.081191666, -0.059457060, 
  -0.113864206, -0.108035013, -0.027814414, -0.184177697, -0.145409450, 
  -0.301217616, -0.228265002, -0.015992513,  0.065270267,  0.064038061, 
  -0.074789613,  0.122446723, -0.040884450, -0.050203450,  0.196118534, 
   0.114098951, -0.294996828,  0.190069363,  0.000970304, -0.021281440, 
  -0.025137937, -0.083221912,  0.092852339,  0.518370569, -0.064761132, 
  -0.021920845, -0.103248924, -0.099959396, -0.126241386, -0.270693183, 
  -0.070440203,  0.201068044,  0.033379637, -0.034409083, -0.263622344, 
  -0.396576703, -0.008252434, -0.147437975,  0.079195850,  0.020103153, 
  -0.282149374, -0.209121987,  0.052913830,  0.024752943,  0.195584744, 
  -0.029551689,  0.156794503,  0.016650127,  0.153358072, -0.142665282, 
   0.083100483,  0.203448176,  0.087406829,  0.024789605,  0.171417296, 
   0.065741047, -0.044548705, -0.204381973,  0.065051712,  0.163338020, 
  -0.199931651,  0.135435924,  0.164320052, -0.163221300,  0.222303107, 
   0.015604552,  0.020990234,  0.019554339,  0.302727401,  0.121270739, 
   0.091477230,  0.085689344, -0.092896380, -0.022445934,  0.106820934, 
  -0.069793999, -0.030053919,  0.142966464, -0.099701509, -0.044507630, 
  -0.165992215, -0.030328831,  0.043175459,  0.020267630,  0.087066285, 
   0.045317739, -0.025381230, -0.001764501,  0.074589796,  0.161369309, 
   0.077742420,  0.102571547,  0.211443722,  0.042696808,  0.028815510, 
   0.033588186,  0.141662151,  0.080032811,  0.114883751, -0.099227488, 
   0.050154839,  0.090720080,  0.241554275,  0.016077554,  0.050996084, 
   0.108045675,  0.041623440,  0.055463582,  0.262688816, -0.063858896, 
   0.021666922,  0.053122934,  0.034230217,  0.129344657, -0.192656815, 
   0.115188912, -0.041395962, -0.015135819, -0.068901397, -0.173655421, 
  -0.061437152,  0.198453546,  0.274617821,  0.080101676,  0.030165553, 
  -0.047957744,  0.045756828, -0.080952719, -0.002157733, -0.010435296, 
   0.200787991, -0.064333498,  0.064055711,  0.178469241,  0.183902606, 
   0.141410723,  0.193338022,  0.163079709,  0.164192811,  0.003682117, 
   0.078046143,  0.168071270,  0.061678242, -0.005761268,  0.104798108, 
  -0.116093792,  0.199963659, -0.004289384, -0.030043395,  0.018436670, 
   0.077448644,  0.097415179,  0.106928490,  0.017079718,  0.042128455, 
   0.001284493, -0.065090977, -0.080602601, -0.047234487,  0.077358142, 
  -0.025834015,  0.154477969,  0.062794335, -0.010602547,  0.194243878, 
  -0.106180020,  0.302493840,  0.060124792, -0.033167701,  0.142381772, 
  -0.019062478,  0.019578334, -0.101243608, -0.141114995,  0.084469512, 
  -0.194669962, -0.031038336,  0.116544813,  0.191697285,  0.059071608, 
   0.129330724,  0.148052335,  0.096841618, -0.016259409,  0.046235036, 
  -0.024526915,  0.119564101, -0.045094240, -0.090894759,  0.032878585, 
   0.033241976,  0.158268541,  0.054383885, -0.014233762, -0.022663165, 
  -0.033565450, -0.022816632,  0.235679045, -0.069719918, -0.043725427, 
  -0.072197974,  0.000022052,  0.074062876, -0.159564018,  0.106154807, 
  -0.070963025,  0.143904105,  0.159857586, -0.191298768, -0.005117204, 
   0.181753919, -0.000824276,  0.087316006,  0.140666068,  0.031274915, 
  -0.018299086,  0.172954366,  0.133067355, -0.016839223,  0.137649491, 
   0.011480892,  0.156338722,  0.120514274, -0.106856115, -0.080353394, 
  -0.129257590,  0.062591314,  0.069843337,  0.131531283,  0.037299905, 
   0.227082685,  0.128357872,  0.007487723, -0.136751115,  0.195698947, 
  -0.070792735, -0.049797907,  0.071767025,  0.101627439,  0.066908948, 
   0.047907632,  0.219763532, -0.043301675, -0.000087354,  0.095462665, 
   0.180738300,  0.133333027, -0.006894491,  0.053117242,  0.161018595, 
   0.036594167,  0.026564518, -0.092460893,  0.149032712,  0.054855350, 
  -0.067614220,  0.058152247,  0.077478893,  0.031181289, -0.158388391, 
   0.246621177,  0.104355671, -0.020969376,  0.098812737,  0.050116044, 
  -0.083346687,  0.048931159,  0.136009961,  0.155799106,  0.127332881, 
   0.034451753,  0.206013799,  0.132249534,  0.138414681,  0.092133462, 
  -0.004511872, -0.013321964, -0.131368697,  0.160383314, -0.187888294, 
  -0.011204548,  0.062880412,  0.081431858,  0.030147348, -0.113071866, 
   0.064272530, -0.011674500, -0.206236318,  0.046817336, -0.228260055, 
   0.107123367, -0.096351713,  0.051013168, -0.014432185, -0.076823995, 
  -0.037413359,  0.219245091,  0.115667857, -0.014595873, -0.028229898, 
  -0.045308586, -0.020635666,  0.025518160,  0.338383973,  0.010403438, 
  -0.143262535, -0.119049080,  0.299780905, -0.009534696, -0.110141411, 
  -0.060529955, -0.264577776,  0.121956341, -0.090037696,  0.090767927, 
   0.003459177,  0.259032130, -0.127296641,  0.030194549, -0.045907855, 
   0.129171729,  0.074792318, -0.165513575,  0.067558400, -0.084774792, 
   0.159731522, -0.029824940,  0.008189981, -0.062011681,  0.175749525, 
  -0.049402256, -0.043312550, -0.083154626,  0.023524469,  0.094361573, 
  -0.066086404, -0.083913676, -0.225514606, -0.001011451,  0.040260743, 
   0.132155374, -0.017325761,  0.056116004, -0.016740952,  0.090565480, 
  -0.027369399, -0.050403208, -0.077093259,  0.108922660,  0.016283870, 
   0.119147629,  0.078885838,  0.175950274, -0.060313214, -0.062954046, 
   0.026791869, -0.044509646, -0.133392856, -0.046520088, -0.272272736, 
  -0.028225407,  0.068031080, -0.310390145,  0.036353089,  0.359173566, 
   0.061080508, -0.054088868, -0.019220395, -0.036895666, -0.286071390, 
  -0.041830193,  0.206007704, -0.132587537,  0.129358575, -0.035646953, 
  -0.092993625,  0.097070858, -0.002201831, -0.084275626, -0.147110999, 
   0.082124844, -0.106815442, -0.027394433, -0.161303848, -0.240374178, 
  -0.009502696, -0.080237798, -0.056181185, -0.182686970, -0.160032004, 
  -0.130477428, -0.163685411, -0.024007184,  0.183853149, -0.004271835, 
   0.156377867,  0.000525752,  0.010779757,  0.106483780,  0.026840571, 
  -0.265772432,  0.020416727,  0.016953859, -0.080825098,  0.000646942, 
  -0.035896309,  0.152968988,  0.459841162, -0.037487153, -0.029414693, 
   0.069065638,  0.021603949,  0.031157479, -0.183038011,  0.022362508, 
   0.259939551,  0.012911160, -0.016193494, -0.145149559, -0.239426047, 
   0.077489942,  0.062468205, -0.043656394, -0.049228776, -0.321553349, 
  -0.038097002,  0.144374087,  0.086549580,  0.079646565,  0.071909204, 
   0.077083305, -0.153931335,  0.005898099, -0.054831266,  0.026822619, 
   0.139334485,  0.157018647,  0.000102054,  0.142320722,  0.079513408, 
   0.049562529, -0.203083217,  0.121799737,  0.020403933,  0.007199138, 
   0.221095711,  0.066491500,  0.052170537,  0.046171281, -0.067116775, 
  -0.015218701,  0.022226499,  0.280091643,  0.116404749,  0.100269534, 
   0.090717554, -0.009732215,  0.077850915,  0.045533583, -0.032712054, 
   0.145092309,  0.115427718,  0.006437582,  0.028566482,  0.049383670, 
  -0.013779714,  0.145926803, -0.023724189,  0.090636022, -0.013847656, 
   0.129394814,  0.086228855,  0.030040123,  0.106575944,  0.174119636, 
   0.059426676,  0.109295160,  0.040271923, -0.106655367, -0.069458209, 
  -0.031405047,  0.121597588,  0.292759180, -0.080532469,  0.011745732, 
   0.110185064,  0.111994714,  0.001529179, -0.077524170,  0.170852035, 
   0.209384978,  0.093012773,  0.169483885,  0.055181585, -0.024127802, 
  -0.004385405, -0.105423413,  0.043640267, -0.138769418,  0.087338559, 
   0.131894931, -0.035614084, -0.021804556, -0.041021582,  0.068536796, 
   0.087391578,  0.098545693,  0.029765619,  0.062767297,  0.142401591, 
   0.016350012, -0.074717917,  0.148732394, -0.115143463,  0.081613488, 
  -0.024836522, -0.018685674,  0.032290604,  0.252651215, -0.037419938, 
   0.088961720,  0.133542702,  0.179309636, -0.006080771, -0.001197543, 
   0.090104505,  0.158530474, -0.041052170,  0.184218466, -0.079402007, 
   0.016548468,  0.077565596,  0.112340942,  0.046650607,  0.110940546, 
   0.265740812,  0.205036253,  0.076071896,  0.197804272,  0.111076251, 
  -0.007634632, -0.117479637, -0.083292522,  0.065569490, -0.055034060, 
   0.033407461,  0.215944290,  0.096289799,  0.014276176, -0.032989103, 
   0.299466133,  0.110631347,  0.059520941,  0.120901525,  0.130880550, 
  -0.046481039, -0.001529007,  0.099443555,  0.074355029, -0.245553911, 
   0.131505206, -0.021094874,  0.183566585,  0.112615928,  0.236156896, 
   0.087549023,  0.092201740,  0.069427073,  0.032591552,  0.041411195, 
   0.024866577, -0.175098330,  0.010939091,  0.097447447,  0.033154011, 
   0.003641909,  0.108397618,  0.029358691, -0.104277328, -0.107139722, 
   0.171266869,  0.167448133, -0.049018431, -0.025460467, -0.060156789, 
  -0.092985496,  0.001734488, -0.263606519,  0.022376044,  0.044101752, 
   0.150067553, -0.043824393, -0.120784022, -0.014861873,  0.157682776, 
  -0.111264460,  0.124900013,  0.037490290, -0.132487357, -0.103408009, 
   0.036964010,  0.178107351,  0.081332318,  0.055140138,  0.045225095, 
   0.024665011,  0.072475769, -0.091504261,  0.035765011, -0.075968347, 
   0.098071255,  0.060924131,  0.133617312,  0.008510252,  0.075745329, 
   0.163048610, -0.080035724, -0.043619558,  0.030390337, -0.005593921, 
   0.114189617,  0.085942872, -0.017097620, -0.041732755,  0.003233840, 
   0.053196359,  0.000847286, -0.018158013,  0.247200906,  0.110239156, 
   0.009378438,  0.030751703, -0.011611869,  0.171197608,  0.092881829, 
  -0.021996530,  0.007376777,  0.084758893,  0.000263884, -0.008374857, 
   0.018367454,  0.151041985,  0.180984825, -0.185663283,  0.067574896, 
   0.144529372,  0.115316615,  0.020959819,  0.175195530,  0.079598591, 
   0.097745478,  0.122835159,  0.132847980,  0.140984625, -0.056011967, 
   0.267878473,  0.219462380,  0.128531978,  0.123493731,  0.030737683, 
   0.120950498, -0.257802337, -0.028899040, -0.248549387,  0.062793486, 
   0.062533595,  0.108816780,  0.039456170, -0.061055087,  0.145332173, 
   0.139906153, -0.218157053,  0.025802517, -0.086949021,  0.000633920, 
  -0.012616399, -0.062405903, -0.070053846,  0.085333139,  0.021562502, 
   0.122508027,  0.068839915,  0.171662256,  0.015470847, -0.088323295, 
   0.104369313,  0.154597834,  0.534578383,  0.030462237, -0.081339307, 
   0.017454084,  0.198211864, -0.124785908,  0.000560337, -0.074715629, 
  -0.307310611,  0.167071879,  0.089757517, -0.070290796,  0.068108499, 
   0.283994913, -0.162434995,  0.119515024, -0.151549757,  0.021215238, 
  -0.101767436, -0.038515545,  0.073037282, -0.106757499,  0.159010038, 
   0.087897293, -0.027210848,  0.100806728,  0.210352302, -0.060207747, 
  -0.060604736, -0.105943799,  0.010143260, -0.136908144, -0.025863042, 
   0.085501358, -0.190899804,  0.052501727, -0.052207232,  0.105040088, 
  -0.006997516, -0.157105878,  0.064418159,  0.037967142,  0.097488374, 
  -0.103085063,  0.072661050, -0.089363016,  0.182513863,  0.136327073, 
   0.068441421,  0.181110784,  0.139934793,  0.010144827, -0.143458381, 
  -0.143655166, -0.264923364,  0.063253380, -0.151655197,  0.138843551, 
   0.115878701, -0.069303788,  0.152635247,  0.211799294, -0.034762364, 
  -0.132995546,  0.030142378, -0.028167481, -0.113214888,  0.075119235, 
   0.118958011, -0.105012417,  0.086582601,  0.106748842, -0.027842909, 
  -0.040291250, -0.133227944, -0.106152840,  0.126628220,  0.074320823, 
  -0.176011384, -0.024161141, -0.204207227, -0.295912623,  0.007824273, 
  -0.065527231, -0.097098671, -0.022045454, -0.016795840, -0.258765310, 
  -0.124821790,  0.003507643,  0.204044759, -0.037929084,  0.016987607, 
   0.050634027, -0.134986654,  0.099085130,  0.076763868, -0.152846709, 
  -0.080705494,  0.069870062, -0.055815279, -0.086042963,  0.102395497, 
   0.119183034,  0.505832136,  0.045916595, -0.089628942, -0.064043075, 
   0.018392026, -0.008309022, -0.227462471, -0.037424229,  0.163978964, 
   0.013658389,  0.185405850, -0.184912995, -0.290004551,  0.109567694, 
   0.064945266,  0.121466756, -0.057626549, -0.132818490,  0.063473597, 
   0.196179479,  0.082748123,  0.002757473, -0.052413519,  0.218725845, 
   0.029260816,  0.150049731,  0.021235660,  0.008530634,  0.172593817, 
   0.001196595,  0.069725715,  0.168094650, -0.115431495,  0.143010169, 
  -0.216368869,  0.029075734,  0.204904735, -0.156281501, -0.040496245, 
   0.186540112,  0.001580103,  0.049315155,  0.097879581, -0.134422854, 
   0.023719052,  0.368853390, -0.003038197, -0.028743835,  0.067692950, 
  -0.062563911,  0.118268684, -0.024173059, -0.216492951,  0.065584660, 
  -0.027661536, -0.052854266,  0.010615015, -0.069971249,  0.045404386, 
   0.140775755, -0.059117336,  0.122037366, -0.030354265,  0.153714433, 
   0.092715375,  0.053645719,  0.114314429,  0.059567045,  0.038604446, 
   0.211674824, -0.065554745, -0.060503647, -0.064705774,  0.076495662, 
   0.087763079,  0.235914946,  0.014217092, -0.063214548,  0.315827876, 
   0.100382403, -0.122358412, -0.047724076,  0.172031611,  0.025357611, 
   0.001236863,  0.053257693, -0.047455065,  0.109953053,  0.040767144, 
  -0.012830095,  0.013784762, -0.086810708,  0.052190527,  0.044547115, 
   0.018819399,  0.029744741, -0.037882686, -0.107826300,  0.191854954, 
   0.166984126,  0.020473136,  0.069328934,  0.161186278, -0.057564780, 
  -0.143637300,  0.206793264, -0.141346112, -0.011453411,  0.091905907, 
   0.000651508, -0.012309750,  0.074723274,  0.156874612,  0.044054780, 
   0.007229390,  0.135244966,  0.134617999,  0.120375201, -0.000482063, 
   0.050409105, -0.081639916,  0.269710958,  0.079700366,  0.152281463, 
   0.068538450, -0.020188898,  0.119329706,  0.008155708,  0.263119072, 
  -0.009506406, -0.060837209,  0.112095959,  0.006096592,  0.095831200, 
  -0.038047172, -0.093943462,  0.154915720,  0.107630916,  0.074705474, 
   0.132352889, -0.014745180,  0.147050738, -0.057436418,  0.146027446, 
  -0.026989058,  0.085960664,  0.079068229,  0.059990525, -0.087805621, 
   0.108322144, -0.001136399,  0.100236870, -0.038170196,  0.027719554, 
  -0.084099099,  0.194020674,  0.170800909,  0.202282310, -0.070140414, 
   0.120270662,  0.042275503,  0.220355660, -0.099893540,  0.019488400, 
  -0.225235045, -0.126646310,  0.088834949,  0.120834395, -0.045026477, 
  -0.005241014,  0.056259308, -0.159644604, -0.070524268,  0.068715453, 
   0.180522367,  0.008131387, -0.109890215, -0.126194194, -0.003260763, 
   0.125976652, -0.149700940,  0.175598800,  0.080746531, -0.032767843, 
   0.025140535, -0.098307736, -0.024792651,  0.096190065, -0.167669654, 
   0.095632277,  0.036247596, -0.095773242, -0.086475313,  0.062828362, 
   0.112760350,  0.164187014, -0.021758718,  0.098741308, -0.069660485, 
   0.112350576,  0.022745887,  0.089352563,  0.052892823, -0.047174335, 
   0.051182721,  0.143182501, -0.070696421,  0.200413913,  0.095618434, 
   0.065425366, -0.137085482,  0.159951821, -0.097161338,  0.166306064, 
   0.035074115,  0.152318761,  0.130554900,  0.028752828,  0.003658823, 
  -0.018432682,  0.044481635,  0.164821297,  0.172708094,  0.008020230, 
   0.038828626, -0.123536520,  0.100775808,  0.211899102, -0.013318816, 
   0.099055044, -0.000496817, -0.053427730,  0.017277066,  0.000919214, 
   0.080447927,  0.172505558, -0.164922997,  0.011057391, -0.106283076, 
   0.141943634,  0.088735230,  0.179604605,  0.090348616,  0.015808642, 
   0.089563206,  0.160810679, -0.027781850,  0.101261362,  0.169934198, 
   0.008031008,  0.012361865,  0.164916486, -0.023180030, -0.013695669, 
  -0.213369891,  0.087201856, -0.309042245,  0.008126652,  0.009751965, 
   0.080645293,  0.107679948, -0.058188863,  0.228015006,  0.163735420, 
  -0.159324169, -0.038181331, -0.095312424, -0.005159994,  0.011141251, 
  -0.009919033, -0.060593657, -0.061256938,  0.036576938,  0.100464441, 
  -0.074196719, -0.055641647, -0.030871479, -0.120610528,  0.017673880, 
   0.020052124,  0.405998290, -0.137737557, -0.040433109, -0.150278196, 
   0.169330180, -0.024212025,  0.060975108, -0.030473677, -0.353280991, 
   0.064505994, -0.015534116,  0.011891945,  0.118908837,  0.120936625, 
   0.050495997,  0.080220237, -0.062759228, -0.041817274, -0.198401213, 
  -0.082897983,  0.132540092,  0.059430555,  0.005086439,  0.111476816, 
  -0.035638120,  0.142759353,  0.130092055, -0.024478948,  0.042620495, 
  -0.047963846,  0.149834245, -0.091618821,  0.001715288, -0.068215229, 
  -0.212136298, -0.095371880, -0.031741440, -0.084575050,  0.019861264, 
  -0.049442545,  0.089538939, -0.000548317, -0.060199451,  0.025811125, 
  -0.019761035, -0.028549723, -0.042977437, -0.069263592, -0.142943174, 
  -0.052952278,  0.046018984,  0.020536438, -0.038736004, -0.019501351, 
  -0.087890305,  0.127409562, -0.238940552,  0.018940482,  0.053529404, 
  -0.135329261, -0.025723182, -0.140593216, -0.096828744,  0.001941529, 
  -0.002786838,  0.088910669, -0.036370631, -0.098487884,  0.207816854, 
  -0.070570342,  0.195087865, -0.031271886, -0.121588260,  0.018808661, 
  -0.000991464, -0.206870899, -0.028028972,  0.080936179, -0.121984385, 
   0.019586824, -0.062118977, -0.128158554, -0.006732016, -0.060836293, 
  -0.037218116, -0.072193965,  0.051277548, -0.314860523, -0.163788408, 
  -0.016848501,  0.088349946,  0.092788212, -0.065687284, -0.103883296, 
  -0.127235681,  0.048511989,  0.005227111, -0.185903266, -0.050003976, 
  -0.032590706,  0.191380829,  0.025315566,  0.096243963,  0.104987957, 
   0.614238501,  0.023795726, -0.101281151, -0.061216790,  0.042133469, 
  -0.155007079, -0.047780786,  0.021074686,  0.159285486, -0.171962902, 
   0.033200771, -0.042828187, -0.149098963,  0.173165545,  0.163674861, 
   0.053824019,  0.099842228, -0.294019610, -0.094997391,  0.038241878, 
   0.150941268,  0.048522759, -0.021889534,  0.026303731,  0.036100142, 
   0.091554508,  0.102340005,  0.084691331, -0.009355384,  0.076846249, 
   0.018795589,  0.126114786, -0.059854597,  0.113505326, -0.243484244, 
   0.172312602,  0.086034700, -0.005903963, -0.022394730,  0.132981330, 
  -0.115286976, -0.105550095,  0.108330488,  0.059944574,  0.179448292, 
   0.313879043, -0.011317138, -0.105087146, -0.005103608, -0.042267859, 
   0.131578490,  0.139200583, -0.062358100,  0.144023225, -0.042272784, 
  -0.051828135,  0.142833009, -0.161756828,  0.109610476,  0.085804194, 
  -0.091570377,  0.124834694,  0.115664341,  0.050399493, -0.071769007, 
   0.082461856,  0.121903695,  0.158936277, -0.026947115,  0.161553770, 
  -0.090391576,  0.043667916, -0.117658921, -0.088078097,  0.095936269, 
   0.310530275,  0.023961693, -0.043719623,  0.147604257,  0.005450275, 
  -0.006895346, -0.011566400,  0.148046508,  0.075184666, -0.081818216, 
   0.076956227, -0.001957803, -0.035853423,  0.140008748,  0.092961647, 
  -0.049158230, -0.059259053,  0.025496058,  0.102955900,  0.135570198, 
   0.070069559, -0.129382089, -0.120381027, -0.045625661,  0.177865982, 
  -0.084543616, -0.080194682, -0.019991174,  0.040254399, -0.073131271, 
   0.216967434, -0.084472939,  0.037361596, -0.169662222, -0.106042162, 
  -0.063073352,  0.098108247,  0.048185490,  0.060031544, -0.038710084, 
  -0.013957419,  0.140006453,  0.096100748, -0.032032501,  0.162692726, 
   0.090843670,  0.118153393,  0.012138421,  0.003563252, -0.082742751, 
   0.168947801, -0.047113709,  0.003526084,  0.214352965,  0.022196049, 
   0.038491659,  0.053181935,  0.069418013, -0.047430824, -0.067523025, 
  -0.116844185,  0.238828152,  0.129296482,  0.186495036,  0.120176814, 
   0.026090343,  0.212210253,  0.111447781,  0.041704386, -0.001313828, 
   0.107777432, -0.065857261,  0.081031926,  0.100675195,  0.132466510, 
   0.024574062,  0.102834202, -0.174687073,  0.187919304, -0.038094994, 
   0.087810263,  0.125703990,  0.064483836,  0.137484431, -0.020817988, 
  -0.042796515,  0.146753624,  0.054488491, -0.014223590, -0.115522549, 
  -0.093638390,  0.067124784,  0.099394053, -0.086455099,  0.083773017, 
   0.128314719, -0.170702502,  0.162661076,  0.106243528,  0.179855138, 
  -0.118290514,  0.073510602, -0.160511464,  0.000672658,  0.080076844, 
  -0.041092172,  0.114748850,  0.062394451, -0.153040797,  0.124998257, 
  -0.121049866,  0.006456904,  0.091411069, -0.217558339, -0.011946108, 
   0.166148081,  0.091511086, -0.017609851, -0.048432089,  0.187814370, 
   0.000082574, -0.006052647,  0.023298889, -0.084030122, -0.058221988, 
  -0.009691778, -0.085746937,  0.047066305, -0.037919711, -0.014799662, 
   0.113117583,  0.137083992,  0.030407170,  0.145675883, -0.067527018, 
  -0.053205729,  0.110882543, -0.082215555,  0.212980509,  0.130107015, 
  -0.084366366, -0.007602876, -0.027196813, -0.155583620, -0.028845092, 
   0.116508566,  0.113197237,  0.077259481,  0.111471973,  0.055798396, 
   0.021257455, -0.013107302,  0.186799169, -0.072895803,  0.085987926, 
   0.132023320,  0.098735452,  0.140932202,  0.117019035, -0.069029078, 
   0.170983076, -0.130699128, -0.067075290, -0.136219934,  0.127226830, 
  -0.089161828, -0.024167074,  0.006236866,  0.069122881,  0.173699886, 
   0.054097593,  0.107991047,  0.130269721,  0.176837519,  0.037187144, 
   0.059431825, -0.050739218, -0.141552508,  0.134157673, -0.233336449, 
   0.112720042, -0.155493975,  0.008903733,  0.063568220,  0.182708576, 
   0.144633844,  0.039773703,  0.027528908,  0.156095296,  0.005437018, 
   0.014508294,  0.046551470,  0.022632526,  0.020803571,  0.034560364, 
   0.092351981, -0.087636314, -0.055443227,  0.149017543, -0.199262142, 
  -0.125868484, -0.121616215, -0.122760817,  0.033713430, -0.045015149, 
   0.297457010, -0.200602949, -0.006052277,  0.011202123,  0.058162536, 
  -0.085266918,  0.010731821, -0.200017184, -0.268855035,  0.091839150, 
  -0.199509934,  0.120802119,  0.202419311, -0.061721042,  0.026076393, 
  -0.037627615,  0.081253223, -0.089513741, -0.195975780,  0.006087533, 
   0.023231400, -0.099206217,  0.102455609,  0.181154490, -0.023300480, 
  -0.003579533, -0.082378879, -0.096917465,  0.085665919, -0.088033915, 
   0.127776533, -0.101353623,  0.127235547,  0.084066577, -0.189757034, 
   0.020324146,  0.024783058,  0.007898337, -0.048132282,  0.016289005, 
   0.260326803,  0.192282274,  0.065895781, -0.118934698, -0.002335183, 
   0.012710177,  0.145524964, -0.047282923, -0.043440815, -0.104284316, 
   0.087846011,  0.053521045, -0.173964649, -0.197080925, -0.167992711, 
   0.027388623, -0.236648306, -0.110756524, -0.046278115, -0.026889443, 
   0.110696681,  0.003298814, -0.038189437, -0.198083490,  0.016420767, 
   0.030211460,  0.054878529,  0.103521705, -0.101817586,  0.029087123, 
   0.031761881, -0.126676351, -0.000033895,  0.103020601,  0.135505125, 
  -0.295039237, -0.026751764,  0.075028725, -0.050675355, -0.023340171, 
  -0.139139757, -0.212689981,  0.112593599, -0.147485062,  0.115592487, 
   0.126976818,  0.004789890, -0.375300616, -0.155572936,  0.073357262, 
  -0.002975354,  0.055298813, -0.117511943, -0.017946165, -0.178714260, 
  -0.032317515,  0.119492263, -0.144766808, -0.032706194,  0.051877327, 
   0.036384534,  0.139873996,  0.062066097, -0.134608686,  0.539331734, 
   0.172165185, -0.158791602,  0.074349433,  0.066933334, -0.079994723, 
  -0.118083753,  0.062669292,  0.051654115, -0.049479827, -0.019802842, 
  -0.177988082, -0.020289078,  0.048744310,  0.160328060, -0.070153937, 
  -0.172047675, -0.207377478,  0.124135979,  0.182151303, -0.072408132, 
   0.179418087, -0.078311540,  0.015579560,  0.070004262,  0.092772506, 
   0.062962107,  0.074512526,  0.151519910,  0.101621889, -0.114311717, 
  -0.016864857,  0.030672848,  0.084120840, -0.174296752,  0.274375707, 
   0.058638338,  0.051484369,  0.075727269,  0.068719149, -0.162000045, 
  -0.074672148, -0.053845614, -0.076243445,  0.156150460,  0.204008073, 
  -0.073348142,  0.112477876,  0.025075600, -0.163068697,  0.224570960, 
   0.023393486, -0.048643708,  0.221195713, -0.027794428, -0.155479968, 
   0.037220642,  0.056718890,  0.239446059, -0.085114598, -0.005338705, 
   0.207813308,  0.098247938,  0.064995565, -0.045704056, -0.023736896, 
   0.041762091,  0.031875115,  0.014398247,  0.140010148,  0.046477467, 
  -0.010891262,  0.020540753, -0.040364303,  0.027322289,  0.251682281, 
  -0.076797076, -0.132365629,  0.065735169, -0.064468093, -0.201519281, 
   0.187394217,  0.168925732, -0.006709795,  0.097873837,  0.208730400, 
  -0.159513876, -0.081954390, -0.035847481,  0.060422063,  0.042698745, 
  -0.099076353,  0.005431824,  0.073972516, -0.014474466, -0.055386048, 
   0.139742658,  0.048878290, -0.094630964,  0.128886610,  0.050406978, 
  -0.112138212,  0.022971049,  0.064334609,  0.063059554,  0.261986673, 
  -0.056870058,  0.070917718, -0.225884542, -0.109785236, -0.095025703, 
   0.047809679,  0.115725800, -0.085438497, -0.117918678, -0.065831251, 
   0.000213342,  0.070237391,  0.112439655,  0.077533759,  0.149868116, 
   0.088060901,  0.120843142,  0.023914821,  0.023902075,  0.077792093, 
  -0.027733337,  0.134989202,  0.158543602, -0.007089701,  0.071613953, 
   0.042184621,  0.167170078,  0.189507917,  0.050470915, -0.036116995, 
   0.089482665,  0.069682986,  0.064565174,  0.025961397,  0.236081108, 
   0.105395630,  0.027889492,  0.033880353, -0.033106592, -0.021754367, 
   0.075427204, -0.047294453,  0.184406504,  0.122608609, -0.039648861, 
   0.050504789, -0.003045118,  0.145152107, -0.049665447,  0.088388078, 
   0.039699741,  0.126991108, -0.075252362, -0.048298001, -0.148854643, 
   0.087460101,  0.014539785, -0.043018840, -0.015042715, -0.054218743, 
   0.026421063,  0.126201525, -0.060314007,  0.036558639,  0.171127841, 
  -0.052739374,  0.260360986,  0.121592738,  0.204366654, -0.132570818, 
   0.060482591, -0.074234061,  0.077847727,  0.103636317, -0.174411088, 
   0.123302996,  0.054501448, -0.125061020, -0.026245818, -0.173426419, 
   0.046089150,  0.058252126, -0.036359701,  0.064165540, -0.019613657, 
   0.130305916, -0.168470547,  0.037634879,  0.009165896,  0.028533790, 
   0.057680037,  0.043541681,  0.033182867, -0.042481363,  0.118629746, 
  -0.009082774, -0.170982748, -0.128554404,  0.133900180,  0.129269034, 
   0.155286461,  0.066077359,  0.065306723,  0.067560412, -0.017481798, 
   0.150214985,  0.110583887,  0.080790684,  0.024813412,  0.023738390, 
   0.150835857, -0.000410984, -0.056248114, -0.123038277,  0.144665986, 
   0.138303712,  0.080321543,  0.181969628,  0.010318525,  0.010000307, 
  -0.064469799,  0.057693563, -0.089525945,  0.062867180,  0.034817934, 
  -0.089468412,  0.142472744,  0.173521861,  0.037596099,  0.061949786, 
  -0.169063911, -0.077469908,  0.026518608,  0.124377660, -0.081616759, 
  -0.080192499,  0.011007451, -0.022866260,  0.119048424,  0.178229839, 
   0.143844396,  0.107108742,  0.274529964,  0.112818435, -0.156425089, 
   0.055702984, -0.138224766,  0.076770537, -0.081475779,  0.177512139, 
  -0.165904805, -0.044685017,  0.088115104,  0.218137830,  0.039735440, 
  -0.095381021,  0.134572610,  0.119131096,  0.037641406, -0.094172187, 
   0.150199130, -0.105366968,  0.049571782,  0.133676171, -0.035455782, 
   0.147788689,  0.044749308, -0.005105507, -0.174947143, -0.085707255, 
  -0.362544715, -0.066989660,  0.167320058, -0.307874382, -0.032092661, 
  -0.019309711, -0.054363750,  0.004197570,  0.179927722, -0.003664462, 
  -0.112079173, -0.162008405, -0.121651851, -0.050792173, -0.111089364, 
   0.147540465,  0.164534196, -0.161894768,  0.072106682,  0.036837816, 
   0.065039426,  0.087288588, -0.241350740, -0.038611207, -0.052793179, 
   0.090109520,  0.221264675,  0.147150487, -0.075599194,  0.120970547, 
   0.042290311, -0.165085569,  0.083395980,  0.120050177, -0.006597346, 
  -0.248709127,  0.065865137, -0.026811667, -0.024610158, -0.132738546, 
  -0.018432863, -0.088728726, -0.147321567,  0.047943410,  0.255950898, 
   0.003756491, -0.015139368, -0.060584139, -0.133298114, -0.035686765, 
   0.055376831, -0.208075181,  0.038623922, -0.087619796,  0.155360550, 
   0.037432127, -0.120825149, -0.145376608, -0.126813248, -0.064036310, 
  -0.283553869,  0.044294644, -0.149317592, -0.144530013,  0.033827167, 
  -0.074081853, -0.223245487, -0.212474957, -0.082095303,  0.059682284, 
   0.211301431, -0.004603419, -0.075369306,  0.013404119,  0.210201472, 
   0.018578958, -0.033043608,  0.109780356,  0.164078534, -0.271076739, 
   0.025490301, -0.120177746, -0.027989650,  0.089428015, -0.167066529, 
  -0.167368129, -0.048481438, -0.034356263, -0.021632748, -0.039435603, 
  -0.019516604, -0.432084858, -0.062370893,  0.093236536, -0.091101266, 
   0.108981982,  0.034166645, -0.082801454, -0.123904459,  0.078765154, 
   0.029661890, -0.006773020, -0.095736936, -0.026540451,  0.196741521, 
   0.031439867,  0.105740890, -0.217108116,  0.457041621,  0.074588194, 
  -0.232194394, -0.061096072, -0.177998945, -0.066664681, -0.358737856, 
  -0.000688855, -0.031321615,  0.096248142, -0.085620187, -0.030963223, 
   0.113522656, -0.020068131, -0.084392563,  0.033637729, -0.296865493, 
  -0.180925772,  0.030460885,  0.139041454, -0.065712921,  0.153714135, 
   0.112566233,  0.041269679,  0.011462948,  0.151966766,  0.245962009, 
  -0.089580990,  0.037925027,  0.024908150, -0.040173419, -0.176730007, 
  -0.174690381,  0.016007837, -0.282401502,  0.303203285,  0.067328438, 
   0.021578697, -0.100087546, -0.039651047, -0.083730794, -0.057313956, 
  -0.095918283, -0.072766863,  0.191034541,  0.228747725, -0.078616425, 
  -0.049714293,  0.078952484,  0.031066747, -0.006709132,  0.176061392, 
  -0.250878125,  0.063293606,  0.062599733, -0.047439158,  0.128710404, 
  -0.028622463,  0.093141600, -0.042784784,  0.038556553,  0.058958221, 
  -0.016239144,  0.064696617, -0.092012592,  0.040766682,  0.213186905, 
   0.081987828,  0.104741402,  0.166062012,  0.082479894, -0.024658114, 
   0.070182331, -0.066727400, -0.000838544,  0.220346391,  0.060114887, 
  -0.071961552,  0.127477661,  0.006646550, -0.190165073,  0.123148508, 
  -0.039168507,  0.044736911, -0.019746788, -0.014047946, -0.127541497, 
   0.124851540,  0.013116796, -0.059595693,  0.059354529,  0.121619940, 
   0.095247947,  0.039335929, -0.003201162, -0.027084060,  0.018175492, 
   0.053222042, -0.150896177, -0.120629176, -0.063459389, -0.012063039, 
  -0.030670116,  0.095401831,  0.053884957,  0.059550237,  0.051911913, 
   0.034120031, -0.069923364,  0.048343647,  0.076651841, -0.043369602, 
   0.040323500, -0.049281325,  0.053855259, -0.087814167,  0.066056281, 
  -0.006658842,  0.125741154,  0.083543628,  0.073506944,  0.040770806, 
  -0.006177757, -0.070550732,  0.090450890,  0.073022403,  0.042373538, 
  -0.087986737,  0.011180776, -0.021194946, -0.079113670, -0.018424489, 
   0.152745411,  0.243139103,  0.095867611,  0.101891875,  0.224176615, 
   0.070665486,  0.002432493,  0.048597060,  0.153049633, -0.002401491, 
   0.190176204,  0.097261921, -0.122559994,  0.137364298,  0.004564002, 
   0.126307845,  0.175799459,  0.099960521, -0.091606446,  0.131898165, 
   0.025471827,  0.180230156,  0.112260610,  0.075126238,  0.148701832, 
   0.099613070,  0.179929212, -0.183437616, -0.144297957,  0.107514538, 
  -0.054250531, -0.063494973, -0.146996662, -0.052908294, -0.071113355, 
  -0.112280644, -0.115788929, -0.072257981,  0.158241689, -0.171357468, 
   0.209429041,  0.133039460, -0.029507162, -0.153155267,  0.020844601, 
  -0.113834865,  0.111684434,  0.018314511, -0.241814733, -0.012084860, 
   0.066549495, -0.080891445, -0.037314259, -0.230739117, -0.012625158, 
  -0.026580902, -0.181488767,  0.004700773,  0.092353240, -0.019048445, 
  -0.025484726, -0.003306139,  0.053049918, -0.106376491, -0.064250439, 
  -0.074513391,  0.088870563,  0.076190591,  0.030467400,  0.167603716, 
  -0.114340924, -0.152795106,  0.097036764,  0.095641360,  0.192250893, 
  -0.027768428,  0.015924992,  0.010951379, -0.043788370,  0.018100729, 
  -0.030717369,  0.082049109,  0.191912219,  0.063057438,  0.046227764, 
  -0.011097932,  0.104480654, -0.132830888,  0.101517834,  0.136540055, 
   0.096016616,  0.041907970, -0.003255125,  0.096821047, -0.044749871, 
   0.181467056,  0.045281973,  0.139732435,  0.037118398, -0.088572629, 
   0.122164346,  0.010302975,  0.031351209,  0.006220827, -0.316809684, 
   0.165086016,  0.043979902,  0.228426456, -0.086164959, -0.088474475, 
   0.222333774,  0.104210988,  0.191776335,  0.044852424,  0.234706968, 
  -0.047683172,  0.140895680, -0.109437294, -0.005480781,  0.131050602, 
  -0.147187233, -0.003587568, -0.138331026,  0.197931558, -0.185202777, 
   0.111891478,  0.040651530, -0.019989124,  0.148854882,  0.060965963, 
   0.126456663,  0.018206969,  0.156923845, -0.166932046,  0.077510409, 
   0.064135320,  0.076805077,  0.161971316,  0.024592927,  0.114839062, 
   0.142035767,  0.046426479, -0.215458483,  0.050769191, -0.259540200, 
   0.036980525,  0.020819340, -0.258230865,  0.090706348, -0.101998128, 
  -0.288485825, -0.070758313,  0.148669690, -0.080080241,  0.013267037, 
  -0.022160660, -0.090093918,  0.004632937, -0.091478333,  0.054490641, 
   0.150983438, -0.052870601,  0.044963568, -0.066154584,  0.025891630, 
  -0.051590245, -0.245405748, -0.065609425,  0.008759029,  0.036673129, 
   0.161915541,  0.081797905, -0.127616793,  0.049424995,  0.028986743, 
   0.058896679,  0.086533092,  0.038723841, -0.038516324, -0.199374110, 
   0.083456345,  0.043641616, -0.055940639, -0.097169451, -0.155813605, 
  -0.131045833, -0.042103104,  0.016064005,  0.181358099,  0.138034955, 
  -0.180421054,  0.001898036, -0.149336502, -0.054337129,  0.091569625, 
  -0.076923795, -0.014896288, -0.231123105,  0.138363570,  0.064512037, 
  -0.048886463,  0.026518112, -0.198094010, -0.067362174, -0.248043641, 
   0.090476871,  0.014082291, -0.224105969, -0.069336638, -0.037092458, 
  -0.196161047, -0.257932216, -0.039976347,  0.038520686,  0.143853545, 
   0.112331010, -0.047899708, -0.061812162,  0.063772313, -0.102100804, 
   0.023855545, -0.013347475,  0.167043328, -0.181866482, -0.104970999, 
  -0.002620760,  0.019024109,  0.177156433, -0.235050723, -0.214824468, 
  -0.085315391,  0.044410266, -0.068349689, -0.118201882, -0.004034223, 
  -0.254055351, -0.148735270,  0.152410582, -0.178285405,  0.120363079, 
  -0.134694412, -0.142111108, -0.136227429,  0.086776912,  0.081711583, 
  -0.070193157, -0.021927394, -0.029480210,  0.279843569,  0.114428841, 
   0.094057143, -0.176862985,  0.296343654, -0.025846675, -0.160514370, 
  -0.038475294, -0.267176092,  0.040347975, -0.297527373,  0.017637467, 
   0.007435531, -0.023831755, -0.096618071,  0.050098620,  0.017739762, 
   0.082912922, -0.150508314,  0.050841168, -0.167445421, -0.162611723, 
  -0.010831068, -0.073218033, -0.046128288,  0.034432121,  0.170681730, 
  -0.051235538,  0.009953695,  0.030683717,  0.177528113, -0.117626503, 
  -0.058728788, -0.048523344,  0.123658873, -0.228937119,  0.018011285, 
   0.051068533, -0.150784060,  0.192198351, -0.073710904,  0.136432230, 
   0.047909722,  0.027765410, -0.062001318,  0.041029654, -0.030895924, 
  -0.059798531,  0.066917986,  0.113162525,  0.005920134, -0.001604641, 
   0.156697437, -0.074261606,  0.036624350,  0.230703995, -0.187666357, 
   0.064702787,  0.087262414, -0.151437446,  0.052230638, -0.029822726, 
   0.147886008,  0.086733624,  0.090572782,  0.021544600, -0.029905897, 
   0.043434840,  0.013627452,  0.141173333,  0.048074890, -0.000888753, 
   0.260471463,  0.005263037,  0.175919235,  0.147043049,  0.059560567, 
  -0.019234149, -0.055930544,  0.077989273, -0.061691873, -0.147254467, 
   0.164502099,  0.053294342, -0.170318052,  0.122420684,  0.096940398, 
   0.052877109, -0.016143581,  0.048495859, -0.105922855, -0.013886427, 
  -0.143330514,  0.051191285,  0.118614152,  0.088952549, -0.005695948, 
  -0.084038228,  0.113682196, -0.090718895,  0.011038902, -0.002872209, 
  -0.021209449, -0.069820948,  0.082297176,  0.073759541, -0.102164358, 
  -0.007542053, -0.016432472,  0.062623724,  0.156386673, -0.052074306, 
  -0.039670892,  0.107302472, -0.076489359,  0.044052493, -0.135813639, 
   0.021157308, -0.088311352, -0.025675623,  0.177621573, -0.004885216, 
   0.041798670,  0.207196042,  0.005097455,  0.065363400, -0.053589087, 
  -0.114786364,  0.121953927,  0.123541906,  0.007790392,  0.081712477, 
  -0.117376849,  0.021553315, -0.052148540,  0.031322561, -0.040200464, 
   0.200171098,  0.136087239,  0.224698246,  0.058079172, -0.076714583, 
   0.008077307,  0.197684139,  0.084567331,  0.189662382, -0.019645661, 
  -0.080096021, -0.090721183, -0.000371038,  0.060189798, -0.090508334, 
   0.225342706, -0.141610548, -0.059504099, -0.003520748,  0.039446969, 
   0.050427753,  0.165888906,  0.153493717,  0.154847637,  0.100253694, 
   0.128656581, -0.070155427, -0.249932259,  0.124938138,  0.005441421, 
  -0.092136800,  0.072881944,  0.145937011,  0.025033720,  0.014965647, 
  -0.071736641, -0.065311030,  0.187837481,  0.126811773,  0.221564412, 
   0.115391187,  0.117551394, -0.084273286,  0.008510480, -0.045614511, 
   0.139722809, -0.103287369, -0.173546016, -0.081069417, -0.043647651, 
  -0.101130880,  0.181621864, -0.157864794,  0.095989659,  0.001908817, 
  -0.122801267, -0.087089323,  0.036137436,  0.130147964, -0.022371387, 
   0.156249136,  0.131967813, -0.013971028,  0.075443253, -0.008755464, 
   0.012068612,  0.094091684,  0.055837300,  0.194514781, -0.016118588, 
   0.037671268,  0.103061825,  0.005661140,  0.080702931,  0.124145634, 
  -0.198868692,  0.009188355, -0.051237345, -0.048037294, -0.020549875, 
   0.123710968,  0.267059594, -0.127819166,  0.021519190,  0.055414096, 
   0.050086092, -0.231740549,  0.069333486,  0.101225801, -0.001425119, 
  -0.008283828, -0.006053183, -0.123106733, -0.149643764,  0.188866556, 
   0.039949447, -0.034361951, -0.040294603,  0.050450169, -0.004851480, 
   0.223061591,  0.008812414, -0.158086672, -0.279648185,  0.158257902, 
  -0.053691614,  0.236488834, -0.135833994, -0.069751471,  0.033732645, 
   0.054682221,  0.189499289, -0.023726329,  0.162235498, -0.131142929, 
   0.141158074, -0.014463421, -0.012176548,  0.012468582, -0.114630274, 
   0.108149521,  0.031766579,  0.222929999, -0.222506136,  0.010668402, 
   0.111189857,  0.088503674,  0.047705766, -0.032897983,  0.177098244, 
  -0.098414093,  0.008128031, -0.107259944,  0.186985955, -0.066193096, 
   0.043663543,  0.194903150,  0.075602561,  0.018233454, -0.023038054, 
   0.173102126, -0.048465908,  0.111092091, -0.317130208,  0.112708658, 
   0.008782869, -0.037860651,  0.071369253, -0.088720739, -0.319868565, 
   0.041862551, -0.033765249, -0.139740497, -0.103367925, -0.021667104, 
  -0.060413986,  0.024427587, -0.112269662,  0.135721296, -0.068161137, 
  -0.192611605,  0.102493003, -0.152728528, -0.053193688, -0.076893970, 
  -0.237123296,  0.042699449, -0.081475809, -0.035344932,  0.050559424, 
   0.118712530, -0.246889725, -0.061707046, -0.126371369,  0.084193647, 
   0.027609693,  0.130010903, -0.048268467, -0.260383934, -0.004021749, 
  -0.061814405,  0.022177270, -0.061682533, -0.027922126, -0.089369729, 
  -0.065538615,  0.005222864,  0.207559630, -0.075094648, -0.191775799, 
   0.136151493, -0.160743594, -0.030551545,  0.035213232, -0.141723320, 
   0.027110826, -0.010777626,  0.084359549,  0.055865124,  0.034695718, 
   0.042798910, -0.288459986,  0.083237268, -0.250149399, -0.047978837, 
   0.106895365, -0.213461071,  0.101432011,  0.014196847, -0.147025481, 
   0.001799814, -0.129642621, -0.097428299, -0.109874472,  0.137287498, 
  -0.013798509,  0.065520361, -0.028358893, -0.051035985, -0.098601148, 
  -0.019163217,  0.041210175, -0.195418462,  0.038405593, -0.097015254, 
   0.016916256,  0.237258017, -0.032251123, -0.254075706,  0.062141329, 
   0.039624624,  0.075492568,  0.054560516,  0.132175803, -0.285121530, 
  -0.174784496,  0.050692081, -0.096964575,  0.110783286, -0.105820611, 
  -0.117568985, -0.283547312,  0.127086848, -0.079226658, -0.064774036, 
  -0.070701160,  0.033111356,  0.125683725,  0.003347510,  0.240540981, 
  -0.069081254,  0.038242653,  0.164449960, -0.162847623,  0.062363941, 
  -0.090874769,  0.079286799, -0.351540118,  0.023648817, -0.065364882, 
  -0.001176631, -0.117453784, -0.104026429, -0.180246860,  0.079435378, 
  -0.093126923,  0.087769061, -0.152182952, -0.228264019, -0.084192783, 
  -0.097973585, -0.048079781,  0.116451599,  0.155161560, -0.234168112, 
   0.012361282,  0.096332714,  0.206082866, -0.109511688,  0.106268898, 
  -0.052160170, -0.078106031,  0.076052979, -0.067361087, -0.045637563, 
  -0.233568504,  0.052291740,  0.080948286,  0.190360039,  0.161621988, 
   0.005158194, -0.083103240, -0.013666783, -0.079492517,  0.069694497, 
   0.048795827, -0.086065590, -0.133715972, -0.000829913,  0.018767733, 
   0.024936700, -0.083000898, -0.003843539, -0.014365094,  0.086666279, 
   0.166392952,  0.024092197,  0.031773645,  0.046755347,  0.272936046, 
  -0.013308233,  0.130771950,  0.037338365,  0.006340046,  0.095274299, 
   0.008483856,  0.109144486, -0.070805959,  0.078611538,  0.070012487, 
  -0.135263547, -0.029995766,  0.171779335,  0.016607279, -0.025373736, 
  -0.019798253,  0.043466419, -0.040564049, -0.031430878,  0.218365267, 
   0.142355293, -0.106222838,  0.031300608,  0.011345614,  0.187781945, 
   0.054228328,  0.054322254, -0.065707140,  0.142391309, -0.086199068, 
  -0.029735671, -0.008076922, -0.056373805,  0.022137728, -0.020218275, 
  -0.020527491, -0.096440896,  0.052480362, -0.001022033, -0.058657710, 
  -0.186897501,  0.004517899,  0.004104442, -0.119120553, -0.029386308, 
  -0.029299613,  0.051990744,  0.297746837,  0.120592773,  0.067214154, 
  -0.035459038,  0.145761177,  0.195549279, -0.129391596, -0.061303794, 
   0.078209385, -0.002995447,  0.077996194, -0.065891176, -0.079431571, 
   0.153133556,  0.033208031,  0.003467681, -0.049458791, -0.020891251, 
   0.075519331,  0.081064433,  0.060645480, -0.086315826,  0.012457834, 
   0.096041016,  0.181523964,  0.169638544,  0.104028843,  0.055254899, 
   0.051438015,  0.035684202,  0.119038381,  0.030447476,  0.070733331, 
   0.143974036,  0.007186314,  0.021266967,  0.124325059, -0.175997853, 
  -0.147034287, -0.028551785, -0.009428564, -0.068411179,  0.142841384, 
  -0.064127132,  0.149086282, -0.203517020, -0.033042755, -0.043461792, 
   0.017738057, -0.004683227,  0.048187524,  0.013968424,  0.041069884, 
  -0.145290971, -0.125637800,  0.133022666,  0.135647342, -0.129565313, 
   0.129283294,  0.120355979,  0.113410309,  0.030170966, -0.105932623, 
   0.124127053,  0.154368177,  0.099103577,  0.249898911,  0.110527404, 
  -0.015543151,  0.106611386,  0.001277877,  0.041473240, -0.061042514, 
  -0.083387315, -0.092285596, -0.073609203,  0.126346141, -0.075453699, 
   0.090469219, -0.179235473,  0.006692962, -0.002965119, -0.149976045, 
  -0.019204441,  0.040101919,  0.061379861,  0.115571551,  0.056241829, 
  -0.018098800,  0.000835419, -0.023292519, -0.134132847,  0.120039545, 
  -0.008597091,  0.108827002,  0.200432435,  0.127089679,  0.060797561, 
  -0.049631115, -0.012924893,  0.120555922, -0.080956548, -0.185006589, 
   0.057935126, -0.073175199, -0.098606601, -0.008898508, -0.157254443, 
   0.236090660, -0.048580594,  0.124330550,  0.032427896,  0.089732654, 
  -0.182595596, -0.084529154,  0.169041336, -0.069918297, -0.053662933, 
  -0.025990576,  0.005871831, -0.248142049,  0.161788747,  0.034364238, 
   0.177049205,  0.192433283, -0.042637348,  0.194833457,  0.218457878, 
   0.007588966,  0.015093535, -0.289409667,  0.060479730,  0.000725496, 
   0.125437230, -0.057925165, -0.230530426,  0.179978400,  0.097583279, 
   0.246376857, -0.038385969,  0.130911514, -0.152947858,  0.057744559, 
  -0.023514744, -0.147647515,  0.177828476, -0.169133499,  0.055831391, 
   0.004385857,  0.163633585, -0.202500209,  0.163591728,  0.177048087, 
   0.066219762,  0.158242881,  0.062254071,  0.146807089,  0.077689908, 
   0.115892574, -0.158337444,  0.044576336,  0.075348854,  0.208949968, 
   0.066163145,  0.069951095, -0.037324172, -0.157191098, -0.002921518, 
  -0.191019759,  0.012874400, -0.333586752,  0.082130112, -0.070872657, 
   0.103547119, -0.102364190, -0.125851482, -0.280987203, -0.108564891, 
  -0.078844517, -0.135499433, -0.038245551,  0.002431224,  0.158993274, 
  -0.066515774, -0.017939404,  0.220542446, -0.127860323, -0.190827742, 
  -0.014742295,  0.004005825,  0.145117313,  0.001682296, -0.057398893, 
  -0.135453850,  0.093646742,  0.037298653,  0.090117745, -0.053581972, 
  -0.143469423, -0.112643257, -0.256543219, -0.062155213,  0.073304065, 
  -0.022507122,  0.030036386, -0.038639117,  0.043685153,  0.052524153, 
   0.191490486,  0.068788961, -0.076431483, -0.106533639, -0.135274559, 
  -0.008664922,  0.125462681, -0.095935874, -0.168427214,  0.154718876, 
  -0.121496879,  0.063359745,  0.081341431, -0.098433167,  0.024876215, 
  -0.162849560, -0.166178256,  0.023309398, -0.187011123, -0.000137154, 
  -0.187135965, -0.008936338, -0.094789721, -0.092573464,  0.079608046, 
   0.000186928,  0.011670339,  0.010677534, -0.242086992,  0.040424399, 
   0.088540152, -0.153297201, -0.122617029,  0.034665599,  0.132485569, 
  -0.090741403,  0.017247580,  0.001362067, -0.102893576,  0.076429740, 
   0.092321612, -0.090970799, -0.161337331, -0.167395666, -0.226671606, 
   0.083940007, -0.041234624, -0.091159992,  0.108308896,  0.031509478, 
   0.026910262,  0.010453559, -0.000455174, -0.184750497, -0.124273784, 
   0.093911596, -0.025293635, -0.062834524, -0.075353868, -0.257247537, 
  -0.296365887,  0.121475197, -0.024239335,  0.109528102, -0.194657460, 
   0.049065646, -0.048285462, -0.021931950, -0.068635777, -0.177403733, 
  -0.001606370,  0.128434107, -0.105882831, -0.130172059, -0.167959675, 
   0.146879360, -0.248493880,  0.167984560,  0.112634674, -0.047370896, 
  -0.215969175, -0.053462386, -0.237999246,  0.047880188,  0.047389191, 
   0.142031401, -0.073309444, -0.106511809,  0.067511238, -0.090805873, 
  -0.023387577,  0.019406864,  0.076726541, -0.138249218,  0.174661994, 
  -0.029877387, -0.057621904, -0.063554272, -0.102044322, -0.039293028, 
   0.026562167,  0.144431517, -0.012866165,  0.116920084,  0.046784602, 
  -0.002955008,  0.078731403,  0.092098072,  0.071285225,  0.078456849, 
  -0.073145114,  0.076689653, -0.037508246,  0.229996249, -0.043608889, 
  -0.105755240, -0.123744585,  0.175604418,  0.054958351, -0.014333364, 
  -0.022067564,  0.139330313, -0.077254027, -0.051628478,  0.029084651, 
  -0.134456098,  0.112397023,  0.137543350,  0.039148737,  0.120229192, 
   0.007308524, -0.064676158, -0.009337674,  0.089058943,  0.269190520, 
   0.123456374,  0.122144252, -0.071550034,  0.127322420,  0.114190459, 
   0.100995183,  0.096763916,  0.024348741, -0.034587417, -0.047238383, 
   0.090987310, -0.012230003,  0.117104955,  0.271430343, -0.146234065, 
   0.134080738,  0.063977525, -0.020883035,  0.054301340, -0.060553923, 
  -0.190777883,  0.010126878, -0.058604911, -0.022195647,  0.135536790, 
   0.033186760,  0.076498419, -0.092616849,  0.029846750, -0.016801063, 
   0.028621089,  0.124334916,  0.021955058, -0.153340206,  0.109542377, 
   0.041163430,  0.117312722,  0.077222064,  0.039533563, -0.006207280, 
   0.140884340,  0.293347061,  0.002258682,  0.029530309, -0.040726196, 
  -0.056955751, -0.010847563, -0.058918361, -0.165654242,  0.076868996, 
   0.140837967,  0.108830988,  0.153699100,  0.002746231,  0.086582206, 
   0.197337881,  0.055361673, -0.002849201, -0.058402460,  0.024184888, 
   0.233022302,  0.108316563, -0.077679448, -0.050121125, -0.003251736, 
  -0.012477494, -0.022400990,  0.062198330,  0.197619081,  0.092724472, 
   0.056651391, -0.033131771, -0.032455761,  0.014298419,  0.142447740, 
   0.114926159,  0.075789243,  0.032833051, -0.101246767, -0.065560773, 
  -0.031070400,  0.095563918,  0.111710258,  0.140973330, -0.148001373, 
   0.157222375, -0.088844426,  0.167164862,  0.166301638, -0.121132731, 
   0.143544570,  0.093322240, -0.075050972, -0.062552713,  0.112080067, 
   0.011195445, -0.034435052,  0.141148835,  0.097695209,  0.115918472, 
   0.171100646,  0.087558769,  0.081892535, -0.052849773,  0.004942521, 
   0.096769117,  0.128115773,  0.199748397,  0.020716837, -0.161676019, 
   0.080445617,  0.023796067,  0.115028724, -0.057230171,  0.102800868, 
  -0.007332257,  0.004353745,  0.093055971,  0.102245033,  0.005125257, 
  -0.091140062,  0.072650366, -0.077805296, -0.024497440, -0.011050555, 
   0.047715720, -0.021570321,  0.209716246,  0.065251045,  0.173476875, 
  -0.065307982,  0.011002833, -0.202668726,  0.186310858,  0.054627784, 
   0.101000540, -0.026785124,  0.141946062, -0.095845781,  0.121638730, 
  -0.048806254,  0.152840152, -0.011609510, -0.066203825, -0.034206513, 
  -0.045870945, -0.047647454,  0.120082989, -0.207012326,  0.211156636, 
   0.139277861,  0.051480927,  0.022123879, -0.031883083, -0.144545972, 
  -0.142862946,  0.098865889,  0.097524390, -0.014793872,  0.108079851, 
  -0.081763305, -0.090739645,  0.018205741, -0.143663242,  0.159030840, 
   0.227528572, -0.060943775,  0.087099023,  0.016484920,  0.005451137, 
  -0.026605507, -0.115696944,  0.090101831,  0.141754568, -0.016078396, 
  -0.079484731, -0.042199098,  0.051742215, -0.078456417,  0.182188019, 
  -0.023445312,  0.159616008, -0.163657159, -0.099463739,  0.072417468, 
  -0.074315362,  0.103677124,  0.048088878,  0.099945202,  0.184987158, 
   0.016425561,  0.014204701,  0.105611674,  0.172515199,  0.009623443, 
   0.130711168,  0.005473405,  0.195034593, -0.022309484,  0.063630007, 
  -0.050325885,  0.159549668,  0.030763736,  0.188774198,  0.024941983, 
   0.049356755, -0.115806900, -0.055490561,  0.093714036, -0.099340618, 
   0.069145031, -0.284030616,  0.125407428, -0.108235501,  0.077497520, 
  -0.118148021, -0.034478355, -0.155936182,  0.044445671, -0.042067770, 
  -0.143725425, -0.091999911,  0.074750386,  0.201571211, -0.192869306, 
  -0.183414385,  0.131646872, -0.029149938, -0.040362615,  0.016815478, 
   0.010314358,  0.037208766, -0.202739120, -0.208697379,  0.028572798, 
  -0.027817460, -0.030760646, -0.103296384, -0.046967961, -0.054300077, 
   0.023185054, -0.247942522, -0.093379639, -0.002039201, -0.063310683, 
  -0.054588158, -0.060937885, -0.037006911, -0.037248854,  0.127693549, 
   0.035668023,  0.058228113,  0.039989457, -0.130858466, -0.082624167, 
   0.070264295,  0.024615983, -0.018026156,  0.023348020, -0.017153326, 
   0.027790971, -0.024740323, -0.043740105, -0.002606339, -0.088680081, 
  -0.099602364,  0.032528974,  0.010865281,  0.039623965, -0.267902493, 
   0.035702899, -0.131616637, -0.011224622, -0.149803042, -0.147110328, 
   0.134482205, -0.119697705, -0.133968636, -0.012164195,  0.043877855, 
  -0.070152499, -0.184490100, -0.049293172,  0.171937719,  0.065963291, 
  -0.105533771, -0.117935322, -0.088980772, -0.067258805,  0.143027842, 
   0.005941487, -0.003643989, -0.087307900, -0.098445132,  0.133849189, 
  -0.010613757, -0.091262989, -0.103473134, -0.005520161, -0.067775004, 
   0.060544305,  0.109700352, -0.144332841, -0.067912064,  0.034788180, 
  -0.093593247,  0.135182351, -0.080035232, -0.241171658, -0.007581675, 
   0.095500857,  0.056378312, -0.000027245, -0.077014498,  0.020826092, 
  -0.099746041,  0.136823043,  0.077467911, -0.199194223, -0.010526980, 
   0.075660914, -0.090503030,  0.065083973,  0.000414268, -0.133660525, 
  -0.093326934,  0.192083150, -0.030719358, -0.070711151, -0.134625062, 
   0.030693183, -0.452762127, -0.023245456, -0.099923253,  0.151170120, 
  -0.129530936, -0.107651502,  0.190208539,  0.033569127, -0.099772409, 
   0.109726071, -0.052560199,  0.166958004,  0.227877975,  0.094888374, 
  -0.118713304, -0.007933794, -0.158759803,  0.165482849, -0.234014258, 
   0.024164416,  0.087297164, -0.027021814,  0.063315213,  0.056120232, 
  -0.063518934, -0.031874735,  0.020631773,  0.187752888, -0.050007865, 
  -0.149534926,  0.120363817,  0.064463258,  0.144161627, -0.165307701, 
  -0.091964088,  0.147537097, -0.025670312,  0.000674913, -0.075671464, 
   0.061317816,  0.000620266, -0.004113697,  0.068863653, -0.016391110, 
   0.161385491,  0.072704889,  0.112782545,  0.098712184,  0.034773108, 
   0.124864578,  0.045839321, -0.063612834,  0.181467041, -0.018262716, 
  -0.007115413, -0.079184815,  0.136933535, -0.062291749,  0.062430672, 
   0.086800680, -0.074288137,  0.006504452, -0.006649107,  0.025970643, 
   0.009579667,  0.083509676,  0.254461676, -0.117590949,  0.002229268, 
   0.062725946, -0.018524045,  0.039157968,  0.022520008, -0.177488074, 
  -0.073987909, -0.014105751, -0.109313853,  0.149387643,  0.069634281, 
   0.183642119, -0.109818339,  0.004258187,  0.157198742,  0.022454621, 
   0.066827834,  0.072498292, -0.066443473,  0.093899757, -0.022859350, 
   0.132638812, -0.003398674,  0.092791706, -0.160892665, -0.042161472, 
   0.195783317, -0.028779462,  0.027848555, -0.125896260, -0.028394459, 
  -0.035967395, -0.047120847, -0.014213946,  0.114919566, -0.030906059, 
   0.129604474,  0.063063428, -0.051564302,  0.142189369,  0.053643819, 
  -0.028430114, -0.023491465, -0.067170747,  0.013403214, -0.028347777, 
   0.027665585,  0.091058895, -0.047792740,  0.024646757, -0.004483785, 
   0.143475935,  0.155945167,  0.083150677,  0.145785511,  0.110392414, 
  -0.020108014,  0.041511882,  0.008506576,  0.058148064,  0.095169432, 
  -0.054543350,  0.027035827, -0.111860886,  0.119434640, -0.045976404, 
   0.060183436,  0.158473939,  0.181483939, -0.058772434,  0.110834427, 
  -0.044823531,  0.106399342,  0.029774899, -0.098738790,  0.041657258, 
  -0.148312688,  0.007094226,  0.060690463,  0.179749444,  0.182462364, 
   0.057094373,  0.011529541, -0.114856631, -0.003327272,  0.082610451, 
  -0.157091066, -0.044504080, -0.143031865,  0.130492792,  0.074513152, 
   0.123575173,  0.127437904, -0.075063027, -0.013455099, -0.005994831, 
   0.054451544, -0.077501990, -0.168509096,  0.133452982, -0.071416371, 
  -0.090370372, -0.106939957,  0.029912233,  0.145316944, -0.095389381, 
   0.127553359, -0.051655110, -0.127593696,  0.054217998,  0.164892167, 
   0.012039956,  0.207823128,  0.150781661, -0.034807932, -0.100576624, 
   0.092121743, -0.124239832, -0.034429654,  0.069104970,  0.033881307, 
   0.001814798,  0.013798279, -0.139927641,  0.101769052, -0.064671159, 
   0.119247518,  0.052952621,  0.005200056,  0.093139321,  0.158443138, 
   0.024348121, -0.032941472, -0.241747245, -0.004834037,  0.105243996, 
   0.094381385,  0.076792330,  0.038642857, -0.044855170, -0.118710697, 
  -0.060201179,  0.105661757,  0.034051359,  0.171778306, -0.002713761, 
  -0.123576060, -0.031021217, -0.117093354,  0.071588464,  0.173560202, 
   0.109168284,  0.077161066,  0.122803472,  0.041361690, -0.075829715, 
  -0.186281979,  0.007706777,  0.140700877,  0.015835291,  0.011440837, 
  -0.042587832,  0.134935871,  0.096002139,  0.146694079,  0.085541405, 
   0.079212174, -0.021835010, -0.033430751,  0.134628057, -0.056203905, 
   0.041096922,  0.098501928, -0.008488413,  0.001114040,  0.015079515, 
  -0.033882435, -0.155430406,  0.082574069,  0.149439171,  0.097663596, 
   0.137913272, -0.016695945,  0.001988289, -0.011359842, -0.000285299, 
   0.032438613,  0.127343670,  0.173509225, -0.056026522, -0.030844957, 
  -0.173136562,  0.046685696, -0.021515211, -0.197008342, -0.111258306, 
  -0.189756781,  0.193263888,  0.000289171,  0.220073834, -0.148941144, 
  -0.148139089, -0.145768732, -0.021981094, -0.014980529, -0.040082689, 
   0.042708974, -0.116324551,  0.106210947, -0.029036185, -0.086968899, 
   0.050259672,  0.022809556,  0.026974559,  0.317054421, -0.015729979, 
   0.067720711, -0.195010528, -0.029974254,  0.026068894,  0.054151699, 
  -0.046299249, -0.028727189, -0.000845133, -0.079215772, -0.105238847, 
  -0.099758424, -0.028105423,  0.018841024, -0.020404479,  0.016037693, 
  -0.053484295, -0.061032761, -0.063862808, -0.176152259,  0.100420631, 
   0.092768133,  0.054912146, -0.036443532, -0.111857750,  0.189494550, 
   0.042511620, -0.101861805,  0.154586971,  0.051434014,  0.156167388, 
  -0.132424265,  0.073674344,  0.035765395, -0.035167970,  0.017130524, 
   0.043082114, -0.054985918,  0.126266912, -0.065727741, -0.054081712, 
  -0.188892603, -0.045703780,  0.049801234,  0.080244459, -0.061260201, 
   0.012207181, -0.037328605,  0.169817090,  0.124581419, -0.143937349, 
  -0.096807316, -0.265592694,  0.133424088, -0.081857130,  0.095625363, 
  -0.041633036, -0.127763435, -0.039494414, -0.015435879,  0.006968874, 
   0.106550388, -0.173081622, -0.081145868, -0.076925613, -0.026177105, 
   0.024331849,  0.049590349, -0.032638825,  0.036453057, -0.137745336, 
   0.111887440, -0.081614159,  0.073482700, -0.158351332,  0.058358520, 
  -0.040595144, -0.079558559, -0.234331712, -0.116864160, -0.038954087, 
  -0.040257599,  0.005247209, -0.188607886, -0.034492522, -0.209238887, 
  -0.023615770, -0.151929080, -0.134630144, -0.079764515,  0.045799714, 
  -0.120599046, -0.113382846, -0.091671169, -0.051852964, -0.095587671, 
   0.154809773, -0.038526624, -0.310899407, -0.173383385, -0.061070528, 
  -0.233566612,  0.135789722,  0.031757209, -0.014486384, -0.092797160, 
   0.022479909,  0.278483421, -0.017169897,  0.102304824,  0.065421753, 
   0.041415825,  0.092259571,  0.101852156,  0.030857988, -0.104169913, 
   0.073046528, -0.129919469, -0.006073039, -0.058613554,  0.033429302, 
   0.013483067, -0.075692564,  0.126777828,  0.181259677,  0.114512384, 
  -0.112072490,  0.031886220,  0.216320500, -0.138535336, -0.252084315, 
   0.020659739,  0.113065131, -0.003840612, -0.031622563,  0.086408705, 
   0.029456025, -0.023075501, -0.025064712, -0.044150975, -0.068005659, 
  -0.042538583,  0.103533156,  0.108400315,  0.115591258,  0.020558788, 
  -0.034153868,  0.077638835,  0.011909940,  0.030151185,  0.163531393, 
  -0.020335980, -0.182413757,  0.043679196,  0.020131901,  0.130920619, 
  -0.053658921, -0.090616226, -0.003544462, -0.098874837, -0.040104326, 
   0.037803136, -0.110595763,  0.074378796,  0.142777219, -0.092204146, 
